MTP
version = 1.1.0
potential_name = MTP_l3k3
scaling = 1.200000000000000e-02
L = 3
scaling_map = LK
species_count = 8
potential_tag = 
radial_basis_type = RBChebyshev_sss
	min_dist = 1.450000000000000e+00
	max_dist = 6.500000000000000e+00
	radial_basis_size = 8
	radial_funcs_count = 12
shift_coeffs = {-5.182569477317908e+00, -3.930960930499616e+00, -4.351711073210616e+00, -1.114831430087084e+01, -1.090857600996102e+01, -7.980223604944838e+00, -8.418003972101731e+00, -3.884502307918829e+00}
scal_coeffs = {1.745854261290408e-01, 1.427784049147534e+00, 1.306930693069307e+00, 1.198335677080294e+00, 1.697261903893482e+00, 1.824226335924668e+00, 4.553342523435356e-01, 2.208655245515091e+00, 1.420790407847703e+00, 5.133042851727891e-01, 1.265119300144665e+00, 8.225174056262649e-01, 1.814466238988845e+00, 1.854223190659440e+00, 1.336301953178288e+00, 1.554674264106274e+00, 1.306930693069307e+00, 1.202145978341926e+00, 8.207644400719479e-01, 3.005572594424384e-01, -6.900348726834407e-02, 1.987777041290840e-01, 5.664316015212767e-01, 1.911548549012864e+00, 1.730568808333878e+00, 1.198184343822977e+00, 6.828022001602281e-01, 8.984720893270114e-01, 1.306930693069307e+00, 1.306930693069307e+00, 1.306930693069307e+00, 1.306930693069307e+00, -3.749471716437598e-02, 1.141780703406723e+00, 7.822517229923240e-02, 1.306930693069307e+00, 4.031865681088585e-01, 1.306930693069307e+00, 1.306930693069307e+00, 1.306930693069307e+00, 2.280955485383838e+00, 1.363140107281516e+00, 1.548663819736370e+00, 1.306930693069307e+00, 1.306930693069307e+00, 3.918300351709919e-01, 1.306930693069307e+00, 1.306930693069307e+00, 1.378820352049386e+00, 1.245246535864209e+00, 6.169524942665451e-01, 1.306930693069307e+00, 1.306930693069307e+00, 1.306930693069307e+00, 9.406961812149504e-01, 1.306930693069307e+00, 1.279425399607379e+00, 1.265955602082239e+00, 1.298836799133102e+00, 1.306930693069307e+00, 1.306930693069307e+00, 1.306930693069307e+00, 1.306930693069307e+00, 3.080587788507260e-01, 2.005994993282218e+00, 4.479449468689622e+00, 3.975000000000000e+00, 3.003772754059149e+00, 3.092205680759609e+00, 3.364138987214872e+00, 7.020753948470242e-01, 2.990306182400647e+00, 3.488303110728505e+00, 2.677272220871808e+00, 3.692279734242330e+00, 5.240556528899117e+00, 3.861882545798152e+00, 4.062371298875083e+00, 4.378036187808616e+00, 3.922669696891582e+00, 3.975000000000000e+00, 4.731654508465318e+00, 3.740314653586859e+00, 4.049134907893266e+00, 2.250127817755327e+00, 3.037761583921146e+00, 2.374882051630986e+00, 3.308258488778421e+00, 2.277874715707486e+00, 4.084451086624640e+00, 2.465593728796209e+00, 3.208237349684341e+00, 3.975000000000000e+00, 3.975000000000000e+00, 3.975000000000000e+00, 3.975000000000000e+00, 6.298243131327245e+00, 4.310056989112733e+00, 6.233964261173706e+00, 3.975000000000000e+00, 2.270684319178808e+00, 3.975000000000000e+00, 3.975000000000000e+00, 3.975000000000000e+00, 3.055396736143246e+00, 4.135300692049751e+00, 3.224531986246997e+00, 3.975000000000000e+00, 3.975000000000000e+00, 1.443948624802801e+00, 3.975000000000000e+00, 3.975000000000000e+00, 2.972417972717568e+00, 4.059587196762659e+00, 3.221312960168785e+00, 3.975000000000000e+00, 3.975000000000000e+00, 3.975000000000000e+00, 3.359365685271962e+00, 3.975000000000000e+00, 3.843874210495749e+00, 4.305957904005439e+00, 4.135866807321472e+00, 3.975000000000000e+00, 3.975000000000000e+00, 3.975000000000000e+00, 3.975000000000000e+00, 1.912691276720889e+00, 3.487945168488720e-01, 1.665473366033904e+00, 1.306930693069307e+00, 1.309907073570560e+00, 9.695129362888838e-01, 1.363109103866092e+00, 1.483699797557439e+00, 6.295699253906103e-01, 1.374919325419524e+00, 3.698644428516979e-01, 5.165957692533703e-01, 1.220571379692044e+00, 1.915856712330812e+00, 1.186137073372002e-01, 1.637896675009692e+00, 2.026771851204442e+00, 1.306930693069307e+00, 1.207701437599321e+00, 4.512739562714693e-01, 8.141171167668475e-01, 3.887518653241864e-01, 1.243510463176216e+00, -1.026311395827444e-01, -3.719176640907953e-03, 9.357030187150918e-01, 2.423611434611341e+00, 1.428897133059794e+00, 2.119792842746714e+00, 1.306930693069307e+00, 1.306930693069307e+00, 1.306930693069307e+00, 1.306930693069307e+00, 8.721373727221490e-01, 1.005616717613039e+00, 1.020252222080456e+00, 1.306930693069307e+00, 1.423136843034216e+00, 1.306930693069307e+00, 1.306930693069307e+00, 1.306930693069307e+00, 3.702477639051077e-01, 1.233239798348551e+00, 2.236146266605293e-02, 1.306930693069307e+00, 1.306930693069307e+00, 9.125931011598026e-01, 1.306930693069307e+00, 1.306930693069307e+00, 7.318776823126437e-01, 7.888693198760096e-01, 4.964802853237145e-01, 1.306930693069307e+00, 1.306930693069307e+00, 1.306930693069307e+00, 1.423761250851872e+00, 1.306930693069307e+00, 9.078759748832319e-01, 1.294797006930325e+00, 1.458470446251639e+00, 1.306930693069307e+00, 1.306930693069307e+00, 1.306930693069307e+00, 1.306930693069307e+00, 8.546210761615393e-01, 4.187200475193785e+00, 3.676611257198621e+00, 3.975000000000000e+00, 3.975378950184616e+00, 3.131965588505860e+00, 3.939315700686842e+00, 4.001566383455354e+00, 4.749254803608475e+00, 4.497463556179387e+00, 4.983300379037717e+00, 7.557154123538935e+00, 4.056893649775712e+00, 3.697144472307395e+00, 6.796918610969353e+00, 3.818658621879634e+00, 3.567889621171009e+00, 3.975000000000000e+00, 4.070616245757342e+00, 5.968844428072062e+00, 5.111925484825637e+00, 4.018446023511542e+00, 4.286139803567892e+00, 3.764164620308256e+00, 3.628210972071457e+00, 5.416833365735665e+00, 3.954777608553346e+00, 4.414445652764604e+00, 3.554912133654571e+00, 3.975000000000000e+00, 3.975000000000000e+00, 3.975000000000000e+00, 3.975000000000000e+00, 4.196483627994951e+00, 3.962884449359680e+00, 3.760635380980117e+00, 3.975000000000000e+00, 3.219169794636820e+00, 3.975000000000000e+00, 3.975000000000000e+00, 3.975000000000000e+00, 5.072220359382978e+00, 3.861961421957801e+00, 5.728990931376663e+00, 3.975000000000000e+00, 3.975000000000000e+00, 4.163740445321523e+00, 3.975000000000000e+00, 3.975000000000000e+00, 6.532644854792635e+00, 3.583980362596849e+00, 6.291114227392995e+00, 3.975000000000000e+00, 3.975000000000000e+00, 3.975000000000000e+00, 4.289602249050636e+00, 3.975000000000000e+00, 4.478976107569659e+00, 4.032748721239294e+00, 3.372845301347820e+00, 3.975000000000000e+00, 3.975000000000000e+00, 3.975000000000000e+00, 3.975000000000000e+00, 3.967681820299228e+00, 1.152231454264290e-01, 9.037147702033903e-01, 1.306930693069307e+00, 5.457928800720561e-01, 1.013620077844814e+00, 5.200524681819436e-01, 3.756736891896636e-01, -3.170056534057882e-01, 3.077077360957652e-01, 8.830719045979301e-01, 1.284101560734869e-01, 5.379926598523470e-01, 7.482566720296333e-01, 4.825147620953241e-01, 8.540466872130686e-01, 8.565496231824936e-01, 1.306930693069307e+00, 8.051451665426391e-01, 5.570912485376004e-01, 4.192653211000676e-01, 1.738115078887295e-01, 3.780662714080125e-01, 1.245693661260060e-01, 1.891467726728110e-01, 4.043786914474631e-01, 7.025742322151255e-01, 3.146379520908153e-01, 9.944542440589039e-01, 1.306930693069307e+00, 1.306930693069307e+00, 1.306930693069307e+00, 1.306930693069307e+00, 1.963427228907409e+00, 1.366660605159524e+00, 2.230529862117256e+00, 1.306930693069307e+00, 4.076893063403549e-01, 1.306930693069307e+00, 1.306930693069307e+00, 1.306930693069307e+00, 6.507083083308551e-01, 6.180152884592190e-01, 2.897569623459295e+00, 1.306930693069307e+00, 1.306930693069307e+00, 9.714746058906265e-01, 1.306930693069307e+00, 1.306930693069307e+00, -1.524659186224842e-01, 8.366124931453657e-01, 2.965655017530187e-01, 1.306930693069307e+00, 1.306930693069307e+00, 1.306930693069307e+00, 4.322733141576756e-01, 1.306930693069307e+00, 2.361618198993426e+00, 1.634928007629602e+00, 2.670216459711061e+00, 1.306930693069307e+00, 1.306930693069307e+00, 1.306930693069307e+00, 1.306930693069307e+00, 8.862144462266960e-01, 6.759349050447293e+00, 3.527412922249797e+00, 3.975000000000000e+00, 4.276721438515064e+00, 3.500125316084856e+00, 3.571139785485951e+00, 2.686783664682866e+00, 4.582891199163037e+00, 4.827559870143246e+00, 3.301310634105736e+00, 7.801783996261676e+00, 4.464334035409463e+00, 4.006257997891440e+00, 3.336007594996170e+00, 3.813089339393628e+00, 3.691540206507326e+00, 3.975000000000000e+00, 3.904699910040633e+00, 4.267479732070709e+00, 5.170815672551862e+00, 5.022648089219512e+00, 4.900019856842603e+00, 4.167501023799181e+00, 2.578509480093339e+00, 5.634157772459199e+00, 4.078408859071818e+00, 6.689818064897326e+00, 3.562023106921962e+00, 3.975000000000000e+00, 3.975000000000000e+00, 3.975000000000000e+00, 3.975000000000000e+00, 2.759378135704996e+00, 3.014519207198560e+00, 2.955215712599322e+00, 3.975000000000000e+00, 3.465377899850274e+00, 3.975000000000000e+00, 3.975000000000000e+00, 3.975000000000000e+00, 4.106448374715137e+00, 4.332413149957125e+00, 1.287420862340386e+00, 3.975000000000000e+00, 3.975000000000000e+00, 3.631717292565642e+00, 3.975000000000000e+00, 3.975000000000000e+00, 4.481013622795848e+00, 3.620287718917299e+00, 2.161244939014994e+00, 3.975000000000000e+00, 3.975000000000000e+00, 3.975000000000000e+00, 4.702749284356829e+00, 3.975000000000000e+00, 2.588143811724084e+00, 2.773950118934409e+00, 2.954629195400276e+00, 3.975000000000000e+00, 3.975000000000000e+00, 3.975000000000000e+00, 3.975000000000000e+00, 3.376967525563977e+00, -1.838057105180657e-01, 1.711113984241384e+00, 1.306930693069307e+00, 6.468744900547584e-01, 5.335911889875313e-01, 7.279455459473017e-01, -3.277037735651101e-01, 1.119433362568707e+00, 3.445434669321640e-02, 1.512496721583211e+00, 5.406939865550485e-02, 1.147887343913147e+00, 1.966629954276210e+00, -1.374029461514907e-01, 2.343163248743964e+00, 1.318536789962476e+00, 1.306930693069307e+00, 1.391140279420786e+00, 2.021767598054784e+00, 3.578357629932434e-01, -3.698844697547058e-01, 7.175851766612706e-01, 6.276347834287204e-01, 7.647857563380392e-01, 7.122126958808764e-01, 1.787401960038857e+00, 1.316565690880363e+00, 1.709874352293072e+00, 1.306930693069307e+00, 1.306930693069307e+00, 1.306930693069307e+00, 1.306930693069307e+00, 1.086326262670617e+00, 1.930102118086536e+00, 1.336040252357565e+00, 1.306930693069307e+00, 9.622937386439123e-01, 1.306930693069307e+00, 1.306930693069307e+00, 1.306930693069307e+00, 3.556378651994938e+00, 1.746099420080839e+00, 2.215081163969629e+00, 1.306930693069307e+00, 1.306930693069307e+00, 5.820544198259555e-01, 1.306930693069307e+00, 1.306930693069307e+00, 5.844904964672129e-01, 2.376324523238398e-01, 1.145092718461764e+00, 1.306930693069307e+00, 1.306930693069307e+00, 1.306930693069307e+00, 2.221659131283061e+00, 1.306930693069307e+00, 6.078122097684561e-01, 1.123663251730368e+00, 8.959597211719261e-01, 1.306930693069307e+00, 1.306930693069307e+00, 1.306930693069307e+00, 1.306930693069307e+00, 5.625713586508780e-01, 3.981452593620025e+00, 3.065260525525863e+00, 3.975000000000000e+00, 3.027030145210452e+00, 3.392869768151789e+00, 4.992662875968064e+00, 2.904918211455325e+00, 4.156307565424489e+00, 6.074064552977323e+00, 3.652889602761873e+00, 7.764725945835364e+00, 3.516228717280171e+00, 2.928385816319245e+00, 4.337291397549954e+00, 2.719102706275296e+00, 2.676428163957688e+00, 3.975000000000000e+00, 2.197804162454283e+00, 3.220767950694653e+00, 3.410323822514029e+00, 3.411194450150636e+00, 3.045400331023270e+00, 3.702180792794969e+00, 3.137357876943350e+00, 4.278024736439300e+00, 3.278540821965009e+00, 4.077607859583130e+00, 3.722021519838319e+00, 3.975000000000000e+00, 3.975000000000000e+00, 3.975000000000000e+00, 3.975000000000000e+00, 3.020585087418339e+00, 2.788526324032340e+00, 3.403177880872825e+00, 3.975000000000000e+00, 4.522627388334705e+00, 3.975000000000000e+00, 3.975000000000000e+00, 3.975000000000000e+00, 3.139885396070173e+00, 2.754156656345365e+00, 3.508658636180700e+00, 3.975000000000000e+00, 3.975000000000000e+00, 4.819120677546405e+00, 3.975000000000000e+00, 3.975000000000000e+00, 4.900594093169046e+00, 5.256254692760867e+00, 3.704459044959996e+00, 3.975000000000000e+00, 3.975000000000000e+00, 3.975000000000000e+00, 3.402804844785154e+00, 3.975000000000000e+00, 4.227017629316578e+00, 3.441624409982870e+00, 4.358931539732423e+00, 3.975000000000000e+00, 3.975000000000000e+00, 3.975000000000000e+00, 3.975000000000000e+00, 6.531523667662374e+00, 3.316498524371903e-01, 7.982299915066431e-01, 1.306930693069307e+00, 3.992324243993763e-01, 7.881096895223756e-01, 8.790426538998816e-01, 2.261999982722197e-01, 1.086043256206131e+00, 6.485451735160870e-01, 1.083482486461145e+00, 5.322209252767692e-01, 1.155251005690292e+00, 1.472601608148594e+00, 1.339848425957282e+00, 1.166409207318445e+00, 1.242954607878953e+00, 1.306930693069307e+00, 8.963868349934527e-01, 7.056684112281565e-01, 4.153943432755393e-01, 6.362643546541701e-01, 5.055734155715247e-01, 2.191855564783847e-01, 9.686495167683319e-01, 7.534881810077028e-01, 1.451720809355683e+00, 9.843190523187036e-01, 1.366085886675419e+00, 1.306930693069307e+00, 1.306930693069307e+00, 1.306930693069307e+00, 1.306930693069307e+00, 1.775970166829354e+00, 1.088548176982818e+00, 1.606404454541373e+00, 1.306930693069307e+00, 9.635554077790778e-01, 1.306930693069307e+00, 1.306930693069307e+00, 1.306930693069307e+00, 1.935208216640628e+00, 7.819766542290619e-01, 1.794056469790221e+00, 1.306930693069307e+00, 1.306930693069307e+00, 1.044115159660187e+00, 1.306930693069307e+00, 1.306930693069307e+00, 1.143189933827662e+00, 1.130934223796750e+00, 7.675861302792905e-01, 1.306930693069307e+00, 1.306930693069307e+00, 1.306930693069307e+00, 9.097820017639157e-01, 1.306930693069307e+00, 2.020867583073149e+00, 8.986783312943950e-01, 1.872367158297721e+00, 1.306930693069307e+00, 1.306930693069307e+00, 1.306930693069307e+00, 1.306930693069307e+00, 7.427017484289636e-01, 3.410376676551299e+00, 4.255721037796388e+00, 3.975000000000000e+00, 4.253457007815758e+00, 4.073854560462717e+00, 4.032432885312553e+00, 9.886283166128222e-01, 3.871559722844590e+00, 3.329833725956014e+00, 3.632724587971916e+00, 3.886076100964186e+00, 4.014988696654897e+00, 3.164791169780901e+00, 3.526155532924418e+00, 3.804582374401444e+00, 3.501855395393681e+00, 3.975000000000000e+00, 3.466989668131262e+00, 3.732873316072856e+00, 7.102046994650858e+00, 5.470757197602313e+00, 5.183127321908460e+00, 2.040600335877480e+00, 4.381040323459692e+00, 1.552850809616954e+00, 3.305500112109011e+00, 2.331490342673400e+00, 4.060311616107923e+00, 3.975000000000000e+00, 3.975000000000000e+00, 3.975000000000000e+00, 3.975000000000000e+00, 3.067541500184367e+00, 3.776618667045121e+00, 3.292442394410370e+00, 3.975000000000000e+00, 3.837224341926778e+00, 3.975000000000000e+00, 3.975000000000000e+00, 3.975000000000000e+00, 3.022893650186911e+00, 3.908832182283947e+00, 3.285433801783523e+00, 3.975000000000000e+00, 3.975000000000000e+00, 3.725655098553156e+00, 3.975000000000000e+00, 3.975000000000000e+00, 2.693540251991114e+00, 3.546402857528345e+00, 2.893659723089943e+00, 3.975000000000000e+00, 3.975000000000000e+00, 3.975000000000000e+00, 3.654697138387623e+00, 3.975000000000000e+00, 2.972736276689798e+00, 3.429584354064741e+00, 3.276343065263791e+00, 3.975000000000000e+00, 3.975000000000000e+00, 3.975000000000000e+00, 3.975000000000000e+00, 3.187526258095310e+00, 5.385081967441304e-01, 6.072730036050887e-01, 1.306930693069307e+00, 1.031237052101491e+00, 1.263350594848611e+00, 1.263648375470454e+00, 7.352059440486216e-01, -2.669396215095830e-02, 7.935719708028384e-01, 9.514961875564402e-01, 4.983125204749130e-01, 1.858338447335399e+00, 1.221703659662024e+00, 1.516720042758101e+00, 6.240265191555128e-01, 7.547239601499839e-01, 1.306930693069307e+00, 5.039910716093176e-01, 1.560803480066775e-01, 6.001169953425237e-01, 1.221984474465766e+00, 9.494100560108422e-01, 2.282064216162464e-01, 5.680119953791691e-01, 5.368101138591637e-01, 3.121834276915622e-01, 7.907275535321859e-01, 1.882761372071574e+00, 1.306930693069307e+00, 1.306930693069307e+00, 1.306930693069307e+00, 1.306930693069307e+00, 1.741129652457687e+00, 2.320810596901959e+00, 7.109762286168290e-01, 1.306930693069307e+00, 2.185238878693908e-01, 1.306930693069307e+00, 1.306930693069307e+00, 1.306930693069307e+00, 4.576896727765497e-01, 1.323197616824205e+00, 5.306120459635220e-01, 1.306930693069307e+00, 1.306930693069307e+00, 6.967107796213630e-01, 1.306930693069307e+00, 1.306930693069307e+00, 6.210026970301200e-01, -5.677409003141315e-01, -1.763361913018729e-02, 1.306930693069307e+00, 1.306930693069307e+00, 1.306930693069307e+00, -8.834637445949817e-01, 1.306930693069307e+00, 7.257449736473501e-01, 2.044022130232451e+00, -3.459438431439027e-01, 1.306930693069307e+00, 1.306930693069307e+00, 1.306930693069307e+00, 1.306930693069307e+00, 6.656533925401397e-01, 1.721920883879473e+00, 6.564158249632807e+00, 3.975000000000000e+00, 4.431122357423405e+00, 3.921419808224630e+00, 4.100872077607316e+00, 4.350924310730249e+00, 4.176757222110917e+00, 4.632597140913601e+00, 4.092284611689283e+00, 6.377372348835202e+00, 3.120275600989949e+00, 3.464530493345550e+00, 3.932172500055902e+00, 5.137230612968457e+00, 4.527095095803547e+00, 3.975000000000000e+00, 7.632196900330369e+00, 4.899200279707298e+00, 3.522344602842410e+00, 3.785285703438278e+00, 3.932487994337611e+00, 3.598821757858120e+00, 6.242467586236427e+00, 5.000030143240767e+00, 9.073332916151481e+00, 4.275917026473251e+00, 2.508998098592714e+00, 3.975000000000000e+00, 3.975000000000000e+00, 3.975000000000000e+00, 3.975000000000000e+00, 1.952875380439285e+00, 2.412941266486144e+00, 3.410732186309029e+00, 3.975000000000000e+00, 3.297972711425579e+00, 3.975000000000000e+00, 3.975000000000000e+00, 3.975000000000000e+00, 6.384674216626516e+00, 3.577333049268777e+00, 4.930687186194477e+00, 3.975000000000000e+00, 3.975000000000000e+00, 4.295204047757925e+00, 3.975000000000000e+00, 3.975000000000000e+00, 5.548810968734484e+00, 3.762313385055067e+00, 4.867444630629587e+00, 3.975000000000000e+00, 3.975000000000000e+00, 3.975000000000000e+00, 4.194284700418823e+00, 3.975000000000000e+00, 3.600583453622778e+00, 3.008041189394676e+00, 3.854997044576533e+00, 3.975000000000000e+00, 3.975000000000000e+00, 3.975000000000000e+00, 3.975000000000000e+00, 4.434411040309884e+00, 9.268005299284813e-01, 7.686174458884589e-01, 1.306930693069307e+00, 6.936821605835315e-01, 1.274907005092150e+00, 1.601320675165446e+00, 6.469096705273115e-01, 2.109756029085677e+00, 9.008888824600897e-01, 1.302156863962640e+00, 7.575465924964986e-01, 1.442567202322782e+00, 1.690733255864385e+00, 1.549545190568474e+00, 1.683324897066527e+00, 1.084360070709092e+00, 1.306930693069307e+00, 1.291516271383683e+00, 8.027928340797669e-01, 1.150630803732958e+00, 1.794698212265735e+00, 1.972979075535237e+00, 4.547412695851004e-01, 1.959013645184311e+00, 5.692798079908082e-01, 1.740484080069403e+00, -7.275446201238783e-01, 2.176886628439667e+00, 1.306930693069307e+00, 1.306930693069307e+00, 1.306930693069307e+00, 1.306930693069307e+00, 1.307878791668194e+00, 1.415836918099900e+00, 5.196446511449061e-01, 1.306930693069307e+00, 1.404376351434660e+00, 1.306930693069307e+00, 1.306930693069307e+00, 1.306930693069307e+00, 3.958440023122944e-01, 8.003395704361201e-01, 2.555127957392880e-01, 1.306930693069307e+00, 1.306930693069307e+00, 1.399016887354876e+00, 1.306930693069307e+00, 1.306930693069307e+00, 1.600363664557144e+00, 1.032229594249208e+00, 1.220672082355641e+00, 1.306930693069307e+00, 1.306930693069307e+00, 1.306930693069307e+00, 1.162984414587717e+00, 1.306930693069307e+00, 6.569319459485211e-01, 1.618886270441619e+00, 4.733835854392383e-01, 1.306930693069307e+00, 1.306930693069307e+00, 1.306930693069307e+00, 1.306930693069307e+00, 1.374411708233398e+00, 4.049916895036239e+00, 4.588409542654057e+00, 3.975000000000000e+00, 5.191001445953598e+00, 3.830325465188952e+00, 3.596153405803213e+00, 5.754839085657534e+00, 3.172617767721944e+00, 3.392243268154963e+00, 3.583160129695667e+00, 3.755091475571714e+00, 3.334199174503277e+00, 2.782439561112396e+00, 2.951144477815606e+00, 3.137342997585062e+00, 3.386975467523353e+00, 3.975000000000000e+00, 3.401371827468026e+00, 4.386482081438820e+00, 4.457030071519228e+00, 3.749632291395281e+00, 3.364034599232707e+00, 7.427061600171405e+00, 3.625409190677796e+00, 5.560902007292479e+00, 2.983272740888688e+00, 5.130794033340280e+00, 3.670757363254624e+00, 3.975000000000000e+00, 3.975000000000000e+00, 3.975000000000000e+00, 3.975000000000000e+00, 2.980971921412471e+00, 3.242928176416640e+00, 1.602441804591900e+00, 3.975000000000000e+00, 3.549091627966142e+00, 3.975000000000000e+00, 3.975000000000000e+00, 3.975000000000000e+00, 6.257717307313595e+00, 4.214609086920182e+00, 7.238724774048954e+00, 3.975000000000000e+00, 3.975000000000000e+00, 3.426465154832925e+00, 3.975000000000000e+00, 3.975000000000000e+00, 3.350654691140844e+00, 4.053261936238015e+00, 3.476048478056951e+00, 3.975000000000000e+00, 3.975000000000000e+00, 3.975000000000000e+00, 3.525366549041189e+00, 3.975000000000000e+00, 5.458624784626976e+00, 2.824255629151637e+00, 6.572854128053834e+00, 3.975000000000000e+00, 3.975000000000000e+00, 3.975000000000000e+00, 3.975000000000000e+00, 3.587416090447860e+00, 1.158902477622564e+00, 1.308226355214950e+00, 1.306930693069307e+00, 1.126522659367617e-01, 3.131550922596223e-01, -6.224073884353518e-02, 4.659624919163636e-01, 1.091900288895726e+00, 2.818229073195668e-01, 3.904637980290729e-01, 2.619646860148326e-01, 1.240857557695870e+00, 7.667442918739227e-01, 1.119190957906930e+00, 1.345209399508347e+00, 1.089138064663295e+00, 1.306930693069307e+00, 1.084205998343325e+00, 1.012991570786367e+00, 5.281959311952350e-01, 9.077572487714148e-01, 5.421055973589071e-01, -4.234748108489205e-01, 1.039227328280246e+00, 2.310774207904325e-01, 4.720841043909611e-01, 6.722926376353717e-01, 1.923136010569421e+00, 1.306930693069307e+00, 1.306930693069307e+00, 1.306930693069307e+00, 1.306930693069307e+00, 3.074987008344490e-01, 8.057328091996760e-01, -2.668605804311796e-01, 1.306930693069307e+00, 6.793980715113729e-01, 1.306930693069307e+00, 1.306930693069307e+00, 1.306930693069307e+00, 9.293171106194361e-01, 8.999516824630566e-01, 4.880878804325734e-01, 1.306930693069307e+00, 1.306930693069307e+00, 1.991651764330168e+00, 1.306930693069307e+00, 1.306930693069307e+00, 1.203844703751914e+00, 4.953927637038897e-01, -1.699059501771295e-01, 1.306930693069307e+00, 1.306930693069307e+00, 1.306930693069307e+00, 1.773185977614830e+00, 1.306930693069307e+00, 3.419948662331392e-01, 4.964633958349662e-01, 1.865494143051266e-01, 1.306930693069307e+00, 1.306930693069307e+00, 1.306930693069307e+00, 1.306930693069307e+00, 3.910326478313823e-01, 2.355591808389329e+00, 2.952856271525171e+00, 3.975000000000000e+00, 3.693000297970887e+00, 1.531470541168142e+00, 3.449920822076510e+00, 3.194448512885927e+00, 3.644587309314391e+00, 6.338681827470999e+00, 1.919097091407730e+00, 6.830946499806929e+00, 3.165087158550817e+00, 4.021911787124574e+00, 3.240657667346511e+00, 2.989303727383832e+00, 3.225117007980426e+00, 3.975000000000000e+00, 3.352499676157934e+00, 3.788086968555949e+00, 4.105808061479532e+00, 3.783233944519443e+00, 3.835247194449732e+00, 3.704950108127132e+00, 3.908159922625460e+00, 2.629188919784192e-01, 5.481652708339192e+00, 1.614914073487830e+00, 2.909390022783490e+00, 3.975000000000000e+00, 3.975000000000000e+00, 3.975000000000000e+00, 3.975000000000000e+00, 2.264870945366682e+00, 3.748220496253026e+00, 3.565800387864333e+00, 3.975000000000000e+00, 4.335110123396695e+00, 3.975000000000000e+00, 3.975000000000000e+00, 3.975000000000000e+00, 3.664336956462546e+00, 3.554999879398363e+00, 4.867978244874504e+00, 3.975000000000000e+00, 3.975000000000000e+00, 3.048815739378441e+00, 3.975000000000000e+00, 3.975000000000000e+00, 2.937309669001937e+00, 4.949520195226581e+00, 3.231095205273694e+00, 3.975000000000000e+00, 3.975000000000000e+00, 3.975000000000000e+00, 3.250545985987377e+00, 3.975000000000000e+00, 5.675010094674787e+00, 5.077943027253071e+00, 7.173395204839508e+00, 3.975000000000000e+00, 3.975000000000000e+00, 3.975000000000000e+00, 3.975000000000000e+00, 5.278328265417291e+00, 7.053789079317346e-02, 7.135925160593177e-01, 1.306930693069307e+00, 3.397289743918541e-03, 6.302791747456163e-02, -1.706687765853137e-01, 6.908196219458700e-01, 3.508431395963178e-01, 7.075054275609196e-01, 1.454595782886569e+00, 8.132637826185000e-01, 1.764011959740310e+00, 2.287458657844866e+00, 2.798105974227347e+00, 1.631987053054170e+00, 1.739017383254069e+00, 1.306930693069307e+00, 1.446277005992927e+00, 2.244016175882828e-01, 4.188038646833543e-01, 4.084133621386030e-01, 8.795515034288562e-01, 2.106917915181665e+00, 6.558008578044383e-01, 1.740713359699170e+00, 4.015077270379820e-01, 1.361523161186159e+00, 2.659454216434488e+00, 1.306930693069307e+00, 1.306930693069307e+00, 1.306930693069307e+00, 1.306930693069307e+00, 2.072503728028347e-01, 1.833201290300496e+00, 4.864468167574857e-01, 1.306930693069307e+00, 1.412847971290021e+00, 1.306930693069307e+00, 1.306930693069307e+00, 1.306930693069307e+00, 5.395993648918123e-01, 1.519968979420850e+00, -1.243873946129031e-01, 1.306930693069307e+00, 1.306930693069307e+00, 1.130514549656806e+00, 1.306930693069307e+00, 1.306930693069307e+00, 7.308645098773570e-02, 3.075253719609316e+00, 1.324974022289629e-01, 1.306930693069307e+00, 1.306930693069307e+00, 1.306930693069307e+00, 2.303975948320101e+00, 1.306930693069307e+00, 1.573975645327035e+00, 1.199998135587599e+00, 4.305242345974598e-01, 1.306930693069307e+00, 1.306930693069307e+00, 1.306930693069307e+00, 1.306930693069307e+00, 1.070011894377452e+00, 5.409167921235713e+00, 4.656982225130166e+00, 3.975000000000000e+00, 4.032092365537888e+00, 5.821328387470941e+00, 3.788342480036698e+00, 4.215596091961446e+00, 5.588581494018100e+00, 3.353628212147352e+00, 3.500425971132226e+00, 3.133431601822193e+00, 3.054428519178061e+00, 2.370825830057888e+00, 2.940593842045862e+00, 2.822494846161775e+00, 2.189670905324171e+00, 3.975000000000000e+00, 3.196953877952439e+00, 5.014501555233704e+00, 4.193072736313781e+00, 4.690933093639408e+00, 3.183023614974023e+00, 2.082208396493944e+00, 4.577176379211353e+00, 1.864465033746339e+00, 5.445608968110833e+00, 3.438871221693332e+00, 3.359134816591315e+00, 3.975000000000000e+00, 3.975000000000000e+00, 3.975000000000000e+00, 3.975000000000000e+00, 5.942179918980449e+00, 2.722550441880174e+00, 4.363563009831258e+00, 3.975000000000000e+00, 3.233205122264697e+00, 3.975000000000000e+00, 3.975000000000000e+00, 3.975000000000000e+00, 3.656670609665359e+00, 2.700629260407390e+00, 4.437140983700723e+00, 3.975000000000000e+00, 3.975000000000000e+00, 2.680069150970002e+00, 3.975000000000000e+00, 3.975000000000000e+00, 6.404193801484125e+00, 2.337472393751935e+00, 4.584974799175922e+00, 3.975000000000000e+00, 3.975000000000000e+00, 3.975000000000000e+00, 2.826261133921554e+00, 3.975000000000000e+00, 3.426370317394262e+00, 2.702919632475857e+00, 1.997839828457618e+00, 3.975000000000000e+00, 3.975000000000000e+00, 3.975000000000000e+00, 3.975000000000000e+00, 3.830675065092443e+00, 1.856017613785446e+00, 6.950176534779570e-01, 1.306930693069307e+00, 7.784212281230729e-01, 5.782865121119705e-01, 1.314407472763370e+00, 6.995855516748443e-01, 2.605412642155596e-01, 7.565714444500565e-01, 1.086298532497837e+00, 6.181985387516319e-01, 1.350329227281255e+00, 9.842528257455152e-01, 1.220292039511427e+00, 9.178175764002848e-01, 8.984746499935212e-01, 1.306930693069307e+00, 5.289839241494133e-01, 1.318911841491527e+00, 8.349178935919146e-01, 9.549180414409304e-01, 7.802545395083936e-01, 1.135804017169247e+00, 2.479789312102562e+00, 1.040180343731163e+00, 2.175126518617659e+00, 1.824666531566599e-01, 1.207669155233379e+00, 1.306930693069307e+00, 1.306930693069307e+00, 1.306930693069307e+00, 1.306930693069307e+00, 5.129528209647728e-01, 6.297552214046062e-01, 4.332454210943492e-01, 1.306930693069307e+00, 7.110093237949063e-01, 1.306930693069307e+00, 1.306930693069307e+00, 1.306930693069307e+00, 4.197408081452598e-01, 1.062675405310004e+00, -3.888247376040225e-01, 1.306930693069307e+00, 1.306930693069307e+00, 1.449539714529027e+00, 1.306930693069307e+00, 1.306930693069307e+00, 1.407465023630353e+00, 1.514423118420128e+00, 2.112851056782376e-01, 1.306930693069307e+00, 1.306930693069307e+00, 1.306930693069307e+00, 9.912470685788540e-01, 1.306930693069307e+00, 1.053485536107254e+00, 1.039536946612892e+00, 5.212728215311019e-03, 1.306930693069307e+00, 1.306930693069307e+00, 1.306930693069307e+00, 1.306930693069307e+00, 8.005536442257564e-01, 2.698060217140910e+00, 6.077138672431081e+00, 3.975000000000000e+00, 5.089116052017732e+00, 3.642798000127891e+00, 4.029369715452189e+00, 5.381268147277365e+00, 3.486857808676320e+00, 4.799414260826713e+00, 2.634128410924178e+00, 5.716935156541362e+00, 3.270520215301578e+00, 3.775633890934161e+00, 3.497396225425299e+00, 4.031354842365735e+00, 4.342051199348182e+00, 3.975000000000000e+00, 7.149074648368086e+00, 3.209592851578098e+00, 5.100882905921626e+00, 4.231303091221430e+00, 3.919082068959972e+00, 3.860156249968245e+00, 3.488758808567830e+00, 2.380385164486291e+00, 2.827627662608356e+00, 2.607806628567282e+00, 4.236444009004871e+00, 3.975000000000000e+00, 3.975000000000000e+00, 3.975000000000000e+00, 3.975000000000000e+00, 6.553832472039169e+00, 4.088005286233371e+00, 7.773141591458589e+00, 3.975000000000000e+00, 2.611872679564667e+00, 3.975000000000000e+00, 3.975000000000000e+00, 3.975000000000000e+00, 7.087958573510128e+00, 4.084658347468214e+00, 2.120126377872382e+00, 3.975000000000000e+00, 3.975000000000000e+00, 3.736933044283183e+00, 3.975000000000000e+00, 3.975000000000000e+00, 3.121129699586347e+00, 3.188833724639018e+00, 3.202328260336679e+00, 3.975000000000000e+00, 3.975000000000000e+00, 3.975000000000000e+00, 3.770790846749458e+00, 3.975000000000000e+00, 4.610658789557741e+00, 2.112138405258823e+00, 3.891878840186097e+00, 3.975000000000000e+00, 3.975000000000000e+00, 3.975000000000000e+00, 3.975000000000000e+00, 3.238682439040009e+00, 8.839163789521242e-01, -2.367257536620185e-01, 1.306930693069307e+00, 5.400609672079648e-01, 1.210232701011942e+00, 7.683202630112272e-01, 8.799183603278503e-01, 1.417337154177940e+00, 5.480092025389260e-01, 5.899878956938089e-01, 6.208096466917078e-01, 3.105065739156401e-01, 1.086934542206819e+00, 1.093893566594773e+00, 8.678800355054568e-01, 1.009854852416790e+00, 1.306930693069307e+00, 8.548723147241251e-01, -8.215085842445612e-02, 5.894521088022378e-03, 1.168417458016237e+00, 6.695965747460062e-01, 3.016515775984823e-01, 1.369131971908803e-01, 9.159383270983020e-01, 1.147325136446173e+00, 5.288126305555100e-01, 5.237760768360648e-01, 1.306930693069307e+00, 1.306930693069307e+00, 1.306930693069307e+00, 1.306930693069307e+00, 1.416716926395920e-01, 8.968478294687627e-01, -6.341160668396280e-01, 1.306930693069307e+00, 7.025534606483813e-01, 1.306930693069307e+00, 1.306930693069307e+00, 1.306930693069307e+00, 1.658256886843466e+00, 1.278469069372820e+00, 1.292646993643160e+00, 1.306930693069307e+00, 1.306930693069307e+00, 5.137223278740781e-01, 1.306930693069307e+00, 1.306930693069307e+00, 2.733689019931329e-01, 1.002592081103164e+00, 2.621074485206965e-01, 1.306930693069307e+00, 1.306930693069307e+00, 1.306930693069307e+00, 4.903281780398648e-01, 1.306930693069307e+00, 2.521757863012913e-01, 1.913376902481922e+00, 4.565313753223574e-01, 1.306930693069307e+00, 1.306930693069307e+00, 1.306930693069307e+00, 1.306930693069307e+00, 1.498972191374813e+00, 3.275080773044743e+00, 4.339470869113751e+00, 3.975000000000000e+00, 5.131046883575604e+00, 3.619890092613137e+00, 4.154935255808542e+00, 3.447061967152136e+00, 3.401453865611193e+00, 4.371673363227684e+00, 2.711206028302552e+00, 4.389508976669318e+00, 3.728609498644100e+00, 3.254118758994732e+00, 2.436524569056366e+00, 2.906305696975124e+00, 3.025283072461559e+00, 3.975000000000000e+00, 2.486319294834012e+00, 2.654299672796977e+00, 3.994774585642010e+00, 3.254005358287256e+00, 9.292677098032800e-01, 2.393156064255307e+00, 2.234282676217462e+00, 3.762034707923106e+00, 3.527095910522517e+00, 4.451183686443697e+00, 4.066930959880406e+00, 3.975000000000000e+00, 3.975000000000000e+00, 3.975000000000000e+00, 3.975000000000000e+00, 6.069240700915866e+00, 3.038726198649536e+00, 4.316240780945247e+00, 3.975000000000000e+00, 3.082839239403018e+00, 3.975000000000000e+00, 3.975000000000000e+00, 3.975000000000000e+00, 2.494380353744705e+00, 3.457330646545277e+00, 1.820538779713630e+00, 3.975000000000000e+00, 3.975000000000000e+00, 4.787458946515949e+00, 3.975000000000000e+00, 3.975000000000000e+00, 7.034479684581998e+00, 3.518152419546006e+00, 7.009588371935241e+00, 3.975000000000000e+00, 3.975000000000000e+00, 3.975000000000000e+00, 3.619215102979747e+00, 3.975000000000000e+00, 5.441692073688882e+00, 2.419476736740300e+00, 4.677761435465028e+00, 3.975000000000000e+00, 3.975000000000000e+00, 3.975000000000000e+00, 3.975000000000000e+00, 2.865410530903064e+00, 1.255660688682013e+00, 9.037506461532174e-02, 1.306930693069307e+00, 7.597588317453476e-01, 6.438740380853677e-01, 7.840009486617244e-01, 8.676049352471616e-01, 1.298316829731386e+00, 2.096846809441119e-01, 7.424451230662559e-01, 1.904206360883689e-01, 4.891263772555626e-01, 9.919875981239671e-01, 5.918391553036129e-01, 2.078944696784744e-01, 1.190269672694465e+00, 1.306930693069307e+00, 5.302253537658486e-01, 1.571780006892534e+00, 8.601364458866805e-01, 8.018670142022195e-01, 9.366935078060938e-01, 3.234008954949736e-01, 1.075472099875536e+00, 6.488992945179276e-01, 6.852416365203021e-01, 4.081309766705238e-01, 3.140439001249696e-01, 1.306930693069307e+00, 1.306930693069307e+00, 1.306930693069307e+00, 1.306930693069307e+00, 4.484614903023600e-01, 8.219406724893747e-01, -1.618189549624259e-01, 1.306930693069307e+00, 6.073785537921124e-01, 1.306930693069307e+00, 1.306930693069307e+00, 1.306930693069307e+00, 7.533857540490289e-01, 7.185730143815903e-01, 8.435988700558411e-01, 1.306930693069307e+00, 1.306930693069307e+00, 7.379421645912732e-01, 1.306930693069307e+00, 1.306930693069307e+00, -5.105388751169739e-02, 7.917528932067092e-01, 5.286712196602761e-01, 1.306930693069307e+00, 1.306930693069307e+00, 1.306930693069307e+00, 7.237190816787178e-01, 1.306930693069307e+00, 3.619045970258138e-01, 8.397947975146739e-01, 5.963624882653018e-01, 1.306930693069307e+00, 1.306930693069307e+00, 1.306930693069307e+00, 1.306930693069307e+00, 1.875629347242648e-01, 1.473011538139804e+00, 4.236346568362036e+00, 3.975000000000000e+00, 3.557897095457645e+00, 3.165014191133305e+00, 3.591204919833805e+00, 3.196227312034877e+00, 3.393488033694908e+00, 6.971179130638736e+00, 3.949543172411512e+00, 7.661877468585927e+00, 4.145575311638702e+00, 3.328807390362953e+00, 4.055012473154187e+00, 6.911019337239392e+00, 3.127500089722000e+00, 3.975000000000000e+00, 3.435589150479365e+00, 3.222761674802425e+00, 3.776396036565698e+00, 3.776496267264920e+00, 2.800221530604233e+00, 2.942599959562526e+00, 3.563744625929817e+00, 4.148002357575145e+00, 2.658954085217347e+00, 5.361571012261464e+00, 6.690451278424167e+00, 3.975000000000000e+00, 3.975000000000000e+00, 3.975000000000000e+00, 3.975000000000000e+00, 4.255171590505445e+00, 2.656495414447742e+00, 4.284779550070055e+00, 3.975000000000000e+00, 4.269822425956474e+00, 3.975000000000000e+00, 3.975000000000000e+00, 3.975000000000000e+00, 4.078930033207555e+00, 3.245340853821998e+00, 4.107353402280721e+00, 3.975000000000000e+00, 3.975000000000000e+00, 2.367819817860837e+00, 3.975000000000000e+00, 3.975000000000000e+00, 4.774198004768425e+00, 2.707851387184696e+00, 4.225704596856788e+00, 3.975000000000000e+00, 3.975000000000000e+00, 3.975000000000000e+00, 4.254334754443696e+00, 3.975000000000000e+00, 5.054475024166471e+00, 4.074746335324201e+00, 4.245810842029631e+00, 3.975000000000000e+00, 3.975000000000000e+00, 3.975000000000000e+00, 3.975000000000000e+00, 7.445222077551562e+00}
	radial_coeffs
		0-0
			{7.036956485704455e-01, -1.700909161814975e+00, 8.258071802183490e-01, -4.187940910923623e-01, 4.264998997294334e-01, -6.744236207898109e-02, 7.388842376347741e-02, -2.469471944928248e-02, 6.746320291995507e-01, 9.353621599625094e-01, 8.560528623884188e-01, 1.120053650409058e+00, 1.132176782404356e+00, 1.031864699361841e+00, 9.843720755102385e-01, 8.619678966382729e-01}
			{2.213480900803864e-01, -5.420246380536954e-01, 6.296895783657419e-01, -2.827437823183869e-01, 2.510658062700226e-01, 3.777419268645710e-02, 6.591755087469522e-02, 9.913395741526830e-02, 1.000000000000000e+00, 1.000000000000000e+00, 1.000000000000000e+00, 1.000000000000000e+00, 1.000000000000000e+00, 1.000000000000000e+00, 1.000000000000000e+00, 1.000000000000000e+00}
			{-1.250354870461963e-01, 1.042267877402333e-01, -4.157539815913311e-01, 5.561352328856095e-01, -7.541899765885235e-01, 7.107794038631919e-01, -4.229013590105178e-01, 1.947896123661794e-01, 1.000000000000000e+00, 1.000000000000000e+00, 1.000000000000000e+00, 1.000000000000000e+00, 1.000000000000000e+00, 1.000000000000000e+00, 1.000000000000000e+00, 1.000000000000000e+00}
			{2.024304034817326e-01, -3.426584253722279e-01, 5.493653357916620e-01, -2.930493801665670e-01, 2.828671214500303e-01, -1.581824557237871e-01, 9.432937243959852e-02, -2.345614501394762e-02, 1.000000000000000e+00, 1.000000000000000e+00, 1.000000000000000e+00, 1.000000000000000e+00, 1.000000000000000e+00, 1.000000000000000e+00, 1.000000000000000e+00, 1.000000000000000e+00}
			{4.056252462519508e-01, -8.364754335111527e-01, 1.360700319808779e+00, -1.030193582017415e+00, 5.700028265031661e-01, -4.229226293905118e-01, 1.202149588890188e-01, -5.883671470366180e-02, 1.000000000000000e+00, 1.000000000000000e+00, 1.000000000000000e+00, 1.000000000000000e+00, 1.000000000000000e+00, 1.000000000000000e+00, 1.000000000000000e+00, 1.000000000000000e+00}
			{1.421391618585588e-01, -5.837853752108120e-01, 7.415846104610735e-01, -9.632126588883664e-01, 7.330648218490828e-01, -5.227728569936715e-01, 2.858561235155991e-01, -1.137462248241395e-01, 1.000000000000000e+00, 1.000000000000000e+00, 1.000000000000000e+00, 1.000000000000000e+00, 1.000000000000000e+00, 1.000000000000000e+00, 1.000000000000000e+00, 1.000000000000000e+00}
			{4.567834523705649e-01, -1.700248084897614e+00, 2.233234891974749e+00, -1.155350039054757e+00, 6.648458928527362e-01, -3.342689718388566e-01, 1.044586406440935e-01, -5.034116105032621e-02, 1.000000000000000e+00, 1.000000000000000e+00, 1.000000000000000e+00, 1.000000000000000e+00, 1.000000000000000e+00, 1.000000000000000e+00, 1.000000000000000e+00, 1.000000000000000e+00}
			{1.258866174806250e+00, -2.246997531999275e+00, 1.893393396154858e+00, -1.314414586187712e+00, 8.183504974820943e-01, -3.283628171767297e-01, 1.713237527758077e-01, -1.679277568502927e-02, 1.000000000000000e+00, 1.000000000000000e+00, 1.000000000000000e+00, 1.000000000000000e+00, 1.000000000000000e+00, 1.000000000000000e+00, 1.000000000000000e+00, 1.000000000000000e+00}
			{-1.637995129658425e-01, -4.376087820482347e-01, 3.539841650676460e-01, 1.543218045128711e-02, -2.634833705489845e-01, 1.775088747484341e-01, -5.724398977508959e-02, 1.209221814475534e-02, 1.000000000000000e+00, 1.000000000000000e+00, 1.000000000000000e+00, 1.000000000000000e+00, 1.000000000000000e+00, 1.000000000000000e+00, 1.000000000000000e+00, 1.000000000000000e+00}
			{-4.976635187879790e-01, 1.082930479562298e+00, -1.487978881786861e+00, 1.304623446395839e+00, -9.580561149213919e-01, 6.205344858726455e-01, -2.732922644764023e-01, 1.792422038152019e-01, 1.000000000000000e+00, 1.000000000000000e+00, 1.000000000000000e+00, 1.000000000000000e+00, 1.000000000000000e+00, 1.000000000000000e+00, 1.000000000000000e+00, 1.000000000000000e+00}
			{-7.988735887792244e-01, 1.410292234302719e+00, -1.526958084301215e+00, 1.086334982620788e+00, -7.857632081055038e-01, 8.063056712736934e-02, -5.243995955707050e-03, -2.593260152818049e-01, 1.000000000000000e+00, 1.000000000000000e+00, 1.000000000000000e+00, 1.000000000000000e+00, 1.000000000000000e+00, 1.000000000000000e+00, 1.000000000000000e+00, 1.000000000000000e+00}
			{-1.425097189157514e+00, 2.014483510493962e+00, -3.021488431985523e+00, 1.764033177601476e+00, -2.061396363544874e+00, 8.939535907267031e-01, -6.789064056830199e-01, 1.018084124477992e-01, 1.000000000000000e+00, 1.000000000000000e+00, 1.000000000000000e+00, 1.000000000000000e+00, 1.000000000000000e+00, 1.000000000000000e+00, 1.000000000000000e+00, 1.000000000000000e+00}
alpha_moments_count = 487
alpha_index_basic_count = 60
alpha_index_basic = {{0, 0, 0, 0}, {1, 1, 0, 0}, {1, 0, 1, 0}, {1, 0, 0, 1}, {2, 2, 0, 0}, {2, 1, 1, 0}, {2, 1, 0, 1}, {2, 0, 2, 0}, {2, 0, 1, 1}, {2, 0, 0, 2}, {3, 3, 0, 0}, {3, 2, 1, 0}, {3, 2, 0, 1}, {3, 1, 2, 0}, {3, 1, 1, 1}, {3, 1, 0, 2}, {3, 0, 3, 0}, {3, 0, 2, 1}, {3, 0, 1, 2}, {3, 0, 0, 3}, {4, 0, 0, 0}, {5, 1, 0, 0}, {5, 0, 1, 0}, {5, 0, 0, 1}, {6, 2, 0, 0}, {6, 1, 1, 0}, {6, 1, 0, 1}, {6, 0, 2, 0}, {6, 0, 1, 1}, {6, 0, 0, 2}, {7, 3, 0, 0}, {7, 2, 1, 0}, {7, 2, 0, 1}, {7, 1, 2, 0}, {7, 1, 1, 1}, {7, 1, 0, 2}, {7, 0, 3, 0}, {7, 0, 2, 1}, {7, 0, 1, 2}, {7, 0, 0, 3}, {8, 0, 0, 0}, {9, 1, 0, 0}, {9, 0, 1, 0}, {9, 0, 0, 1}, {10, 2, 0, 0}, {10, 1, 1, 0}, {10, 1, 0, 1}, {10, 0, 2, 0}, {10, 0, 1, 1}, {10, 0, 0, 2}, {11, 3, 0, 0}, {11, 2, 1, 0}, {11, 2, 0, 1}, {11, 1, 2, 0}, {11, 1, 1, 1}, {11, 1, 0, 2}, {11, 0, 3, 0}, {11, 0, 2, 1}, {11, 0, 1, 2}, {11, 0, 0, 3}}
alpha_index_times_count = 1129
alpha_index_times = {{0, 0, 1, 60}, {0, 60, 1, 61}, {20, 60, 1, 62}, {40, 60, 1, 63}, {0, 20, 1, 64}, {20, 64, 1, 65}, {40, 64, 1, 66}, {0, 40, 1, 67}, {40, 67, 1, 68}, {20, 20, 1, 69}, {20, 69, 1, 70}, {40, 69, 1, 71}, {20, 40, 1, 72}, {40, 72, 1, 73}, {40, 40, 1, 74}, {40, 74, 1, 75}, {1, 1, 1, 76}, {2, 2, 1, 76}, {3, 3, 1, 76}, {1, 21, 1, 77}, {2, 22, 1, 77}, {3, 23, 1, 77}, {1, 41, 1, 78}, {2, 42, 1, 78}, {3, 43, 1, 78}, {21, 21, 1, 79}, {22, 22, 1, 79}, {23, 23, 1, 79}, {21, 41, 1, 80}, {22, 42, 1, 80}, {23, 43, 1, 80}, {41, 41, 1, 81}, {42, 42, 1, 81}, {43, 43, 1, 81}, {4, 4, 1, 82}, {5, 5, 2, 82}, {6, 6, 2, 82}, {7, 7, 1, 82}, {8, 8, 2, 82}, {9, 9, 1, 82}, {4, 24, 1, 83}, {5, 25, 2, 83}, {6, 26, 2, 83}, {7, 27, 1, 83}, {8, 28, 2, 83}, {9, 29, 1, 83}, {4, 44, 1, 84}, {5, 45, 2, 84}, {6, 46, 2, 84}, {7, 47, 1, 84}, {8, 48, 2, 84}, {9, 49, 1, 84}, {24, 24, 1, 85}, {25, 25, 2, 85}, {26, 26, 2, 85}, {27, 27, 1, 85}, {28, 28, 2, 85}, {29, 29, 1, 85}, {24, 44, 1, 86}, {25, 45, 2, 86}, {26, 46, 2, 86}, {27, 47, 1, 86}, {28, 48, 2, 86}, {29, 49, 1, 86}, {44, 44, 1, 87}, {45, 45, 2, 87}, {46, 46, 2, 87}, {47, 47, 1, 87}, {48, 48, 2, 87}, {49, 49, 1, 87}, {0, 76, 1, 88}, {0, 77, 1, 89}, {0, 78, 1, 90}, {0, 79, 1, 91}, {0, 80, 1, 92}, {0, 81, 1, 93}, {20, 76, 1, 94}, {20, 77, 1, 95}, {20, 78, 1, 96}, {20, 79, 1, 97}, {20, 80, 1, 98}, {20, 81, 1, 99}, {40, 76, 1, 100}, {40, 77, 1, 101}, {40, 78, 1, 102}, {40, 79, 1, 103}, {40, 80, 1, 104}, {40, 81, 1, 105}, {0, 82, 1, 106}, {0, 83, 1, 107}, {0, 84, 1, 108}, {0, 85, 1, 109}, {0, 86, 1, 110}, {0, 87, 1, 111}, {20, 82, 1, 112}, {20, 83, 1, 113}, {20, 84, 1, 114}, {20, 85, 1, 115}, {20, 86, 1, 116}, {20, 87, 1, 117}, {40, 82, 1, 118}, {40, 83, 1, 119}, {40, 84, 1, 120}, {40, 85, 1, 121}, {40, 86, 1, 122}, {40, 87, 1, 123}, {76, 76, 1, 124}, {76, 77, 1, 125}, {76, 78, 1, 126}, {76, 79, 1, 127}, {76, 80, 1, 128}, {76, 81, 1, 129}, {77, 77, 1, 130}, {77, 78, 1, 131}, {77, 79, 1, 132}, {77, 80, 1, 133}, {77, 81, 1, 134}, {78, 78, 1, 135}, {78, 79, 1, 136}, {78, 80, 1, 137}, {78, 81, 1, 138}, {79, 79, 1, 139}, {79, 80, 1, 140}, {79, 81, 1, 141}, {80, 80, 1, 142}, {80, 81, 1, 143}, {81, 81, 1, 144}, {76, 82, 1, 145}, {76, 83, 1, 146}, {76, 84, 1, 147}, {76, 85, 1, 148}, {76, 86, 1, 149}, {76, 87, 1, 150}, {77, 82, 1, 151}, {77, 83, 1, 152}, {77, 84, 1, 153}, {77, 85, 1, 154}, {77, 86, 1, 155}, {77, 87, 1, 156}, {78, 82, 1, 157}, {78, 83, 1, 158}, {78, 84, 1, 159}, {78, 85, 1, 160}, {78, 86, 1, 161}, {78, 87, 1, 162}, {79, 82, 1, 163}, {79, 83, 1, 164}, {79, 84, 1, 165}, {79, 85, 1, 166}, {79, 86, 1, 167}, {79, 87, 1, 168}, {80, 82, 1, 169}, {80, 83, 1, 170}, {80, 84, 1, 171}, {80, 85, 1, 172}, {80, 86, 1, 173}, {80, 87, 1, 174}, {81, 82, 1, 175}, {81, 83, 1, 176}, {81, 84, 1, 177}, {81, 85, 1, 178}, {81, 86, 1, 179}, {81, 87, 1, 180}, {82, 82, 1, 181}, {82, 83, 1, 182}, {82, 84, 1, 183}, {82, 85, 1, 184}, {82, 86, 1, 185}, {82, 87, 1, 186}, {83, 83, 1, 187}, {83, 84, 1, 188}, {83, 85, 1, 189}, {83, 86, 1, 190}, {83, 87, 1, 191}, {84, 84, 1, 192}, {84, 85, 1, 193}, {84, 86, 1, 194}, {84, 87, 1, 195}, {85, 85, 1, 196}, {85, 86, 1, 197}, {85, 87, 1, 198}, {86, 86, 1, 199}, {86, 87, 1, 200}, {87, 87, 1, 201}, {10, 10, 1, 202}, {11, 11, 3, 202}, {12, 12, 3, 202}, {13, 13, 3, 202}, {14, 14, 6, 202}, {15, 15, 3, 202}, {16, 16, 1, 202}, {17, 17, 3, 202}, {18, 18, 3, 202}, {19, 19, 1, 202}, {10, 30, 1, 203}, {11, 31, 3, 203}, {12, 32, 3, 203}, {13, 33, 3, 203}, {14, 34, 6, 203}, {15, 35, 3, 203}, {16, 36, 1, 203}, {17, 37, 3, 203}, {18, 38, 3, 203}, {19, 39, 1, 203}, {10, 50, 1, 204}, {11, 51, 3, 204}, {12, 52, 3, 204}, {13, 53, 3, 204}, {14, 54, 6, 204}, {15, 55, 3, 204}, {16, 56, 1, 204}, {17, 57, 3, 204}, {18, 58, 3, 204}, {19, 59, 1, 204}, {30, 30, 1, 205}, {31, 31, 3, 205}, {32, 32, 3, 205}, {33, 33, 3, 205}, {34, 34, 6, 205}, {35, 35, 3, 205}, {36, 36, 1, 205}, {37, 37, 3, 205}, {38, 38, 3, 205}, {39, 39, 1, 205}, {30, 50, 1, 206}, {31, 51, 3, 206}, {32, 52, 3, 206}, {33, 53, 3, 206}, {34, 54, 6, 206}, {35, 55, 3, 206}, {36, 56, 1, 206}, {37, 57, 3, 206}, {38, 58, 3, 206}, {39, 59, 1, 206}, {50, 50, 1, 207}, {51, 51, 3, 207}, {52, 52, 3, 207}, {53, 53, 3, 207}, {54, 54, 6, 207}, {55, 55, 3, 207}, {56, 56, 1, 207}, {57, 57, 3, 207}, {58, 58, 3, 207}, {59, 59, 1, 207}, {1, 4, 1, 208}, {1, 5, 1, 209}, {1, 6, 1, 210}, {1, 7, 1, 211}, {1, 8, 1, 212}, {1, 9, 1, 213}, {2, 4, 1, 214}, {2, 5, 1, 215}, {2, 6, 1, 216}, {2, 7, 1, 217}, {2, 8, 1, 218}, {2, 9, 1, 219}, {3, 4, 1, 220}, {3, 5, 1, 221}, {3, 6, 1, 222}, {3, 7, 1, 223}, {3, 8, 1, 224}, {3, 9, 1, 225}, {10, 208, 1, 226}, {11, 209, 2, 226}, {12, 210, 2, 226}, {13, 211, 1, 226}, {14, 212, 2, 226}, {15, 213, 1, 226}, {11, 214, 1, 226}, {13, 215, 2, 226}, {14, 216, 2, 226}, {16, 217, 1, 226}, {17, 218, 2, 226}, {18, 219, 1, 226}, {12, 220, 1, 226}, {14, 221, 2, 226}, {15, 222, 2, 226}, {17, 223, 1, 226}, {18, 224, 2, 226}, {19, 225, 1, 226}, {30, 208, 1, 227}, {31, 209, 2, 227}, {32, 210, 2, 227}, {33, 211, 1, 227}, {34, 212, 2, 227}, {35, 213, 1, 227}, {31, 214, 1, 227}, {33, 215, 2, 227}, {34, 216, 2, 227}, {36, 217, 1, 227}, {37, 218, 2, 227}, {38, 219, 1, 227}, {32, 220, 1, 227}, {34, 221, 2, 227}, {35, 222, 2, 227}, {37, 223, 1, 227}, {38, 224, 2, 227}, {39, 225, 1, 227}, {50, 208, 1, 228}, {51, 209, 2, 228}, {52, 210, 2, 228}, {53, 211, 1, 228}, {54, 212, 2, 228}, {55, 213, 1, 228}, {51, 214, 1, 228}, {53, 215, 2, 228}, {54, 216, 2, 228}, {56, 217, 1, 228}, {57, 218, 2, 228}, {58, 219, 1, 228}, {52, 220, 1, 228}, {54, 221, 2, 228}, {55, 222, 2, 228}, {57, 223, 1, 228}, {58, 224, 2, 228}, {59, 225, 1, 228}, {21, 24, 1, 229}, {21, 25, 1, 230}, {21, 26, 1, 231}, {21, 27, 1, 232}, {21, 28, 1, 233}, {21, 29, 1, 234}, {22, 24, 1, 235}, {22, 25, 1, 236}, {22, 26, 1, 237}, {22, 27, 1, 238}, {22, 28, 1, 239}, {22, 29, 1, 240}, {23, 24, 1, 241}, {23, 25, 1, 242}, {23, 26, 1, 243}, {23, 27, 1, 244}, {23, 28, 1, 245}, {23, 29, 1, 246}, {10, 229, 1, 247}, {11, 230, 2, 247}, {12, 231, 2, 247}, {13, 232, 1, 247}, {14, 233, 2, 247}, {15, 234, 1, 247}, {11, 235, 1, 247}, {13, 236, 2, 247}, {14, 237, 2, 247}, {16, 238, 1, 247}, {17, 239, 2, 247}, {18, 240, 1, 247}, {12, 241, 1, 247}, {14, 242, 2, 247}, {15, 243, 2, 247}, {17, 244, 1, 247}, {18, 245, 2, 247}, {19, 246, 1, 247}, {30, 229, 1, 248}, {31, 230, 2, 248}, {32, 231, 2, 248}, {33, 232, 1, 248}, {34, 233, 2, 248}, {35, 234, 1, 248}, {31, 235, 1, 248}, {33, 236, 2, 248}, {34, 237, 2, 248}, {36, 238, 1, 248}, {37, 239, 2, 248}, {38, 240, 1, 248}, {32, 241, 1, 248}, {34, 242, 2, 248}, {35, 243, 2, 248}, {37, 244, 1, 248}, {38, 245, 2, 248}, {39, 246, 1, 248}, {50, 229, 1, 249}, {51, 230, 2, 249}, {52, 231, 2, 249}, {53, 232, 1, 249}, {54, 233, 2, 249}, {55, 234, 1, 249}, {51, 235, 1, 249}, {53, 236, 2, 249}, {54, 237, 2, 249}, {56, 238, 1, 249}, {57, 239, 2, 249}, {58, 240, 1, 249}, {52, 241, 1, 249}, {54, 242, 2, 249}, {55, 243, 2, 249}, {57, 244, 1, 249}, {58, 245, 2, 249}, {59, 246, 1, 249}, {41, 44, 1, 250}, {41, 45, 1, 251}, {41, 46, 1, 252}, {41, 47, 1, 253}, {41, 48, 1, 254}, {41, 49, 1, 255}, {42, 44, 1, 256}, {42, 45, 1, 257}, {42, 46, 1, 258}, {42, 47, 1, 259}, {42, 48, 1, 260}, {42, 49, 1, 261}, {43, 44, 1, 262}, {43, 45, 1, 263}, {43, 46, 1, 264}, {43, 47, 1, 265}, {43, 48, 1, 266}, {43, 49, 1, 267}, {10, 250, 1, 268}, {11, 251, 2, 268}, {12, 252, 2, 268}, {13, 253, 1, 268}, {14, 254, 2, 268}, {15, 255, 1, 268}, {11, 256, 1, 268}, {13, 257, 2, 268}, {14, 258, 2, 268}, {16, 259, 1, 268}, {17, 260, 2, 268}, {18, 261, 1, 268}, {12, 262, 1, 268}, {14, 263, 2, 268}, {15, 264, 2, 268}, {17, 265, 1, 268}, {18, 266, 2, 268}, {19, 267, 1, 268}, {30, 250, 1, 269}, {31, 251, 2, 269}, {32, 252, 2, 269}, {33, 253, 1, 269}, {34, 254, 2, 269}, {35, 255, 1, 269}, {31, 256, 1, 269}, {33, 257, 2, 269}, {34, 258, 2, 269}, {36, 259, 1, 269}, {37, 260, 2, 269}, {38, 261, 1, 269}, {32, 262, 1, 269}, {34, 263, 2, 269}, {35, 264, 2, 269}, {37, 265, 1, 269}, {38, 266, 2, 269}, {39, 267, 1, 269}, {50, 250, 1, 270}, {51, 251, 2, 270}, {52, 252, 2, 270}, {53, 253, 1, 270}, {54, 254, 2, 270}, {55, 255, 1, 270}, {51, 256, 1, 270}, {53, 257, 2, 270}, {54, 258, 2, 270}, {56, 259, 1, 270}, {57, 260, 2, 270}, {58, 261, 1, 270}, {52, 262, 1, 270}, {54, 263, 2, 270}, {55, 264, 2, 270}, {57, 265, 1, 270}, {58, 266, 2, 270}, {59, 267, 1, 270}, {208, 208, 1, 271}, {209, 209, 2, 271}, {210, 210, 2, 271}, {211, 211, 1, 271}, {212, 212, 2, 271}, {213, 213, 1, 271}, {214, 214, 1, 271}, {215, 215, 2, 271}, {216, 216, 2, 271}, {217, 217, 1, 271}, {218, 218, 2, 271}, {219, 219, 1, 271}, {220, 220, 1, 271}, {221, 221, 2, 271}, {222, 222, 2, 271}, {223, 223, 1, 271}, {224, 224, 2, 271}, {225, 225, 1, 271}, {208, 229, 1, 272}, {209, 230, 2, 272}, {210, 231, 2, 272}, {211, 232, 1, 272}, {212, 233, 2, 272}, {213, 234, 1, 272}, {214, 235, 1, 272}, {215, 236, 2, 272}, {216, 237, 2, 272}, {217, 238, 1, 272}, {218, 239, 2, 272}, {219, 240, 1, 272}, {220, 241, 1, 272}, {221, 242, 2, 272}, {222, 243, 2, 272}, {223, 244, 1, 272}, {224, 245, 2, 272}, {225, 246, 1, 272}, {208, 250, 1, 273}, {209, 251, 2, 273}, {210, 252, 2, 273}, {211, 253, 1, 273}, {212, 254, 2, 273}, {213, 255, 1, 273}, {214, 256, 1, 273}, {215, 257, 2, 273}, {216, 258, 2, 273}, {217, 259, 1, 273}, {218, 260, 2, 273}, {219, 261, 1, 273}, {220, 262, 1, 273}, {221, 263, 2, 273}, {222, 264, 2, 273}, {223, 265, 1, 273}, {224, 266, 2, 273}, {225, 267, 1, 273}, {229, 229, 1, 274}, {230, 230, 2, 274}, {231, 231, 2, 274}, {232, 232, 1, 274}, {233, 233, 2, 274}, {234, 234, 1, 274}, {235, 235, 1, 274}, {236, 236, 2, 274}, {237, 237, 2, 274}, {238, 238, 1, 274}, {239, 239, 2, 274}, {240, 240, 1, 274}, {241, 241, 1, 274}, {242, 242, 2, 274}, {243, 243, 2, 274}, {244, 244, 1, 274}, {245, 245, 2, 274}, {246, 246, 1, 274}, {229, 250, 1, 275}, {230, 251, 2, 275}, {231, 252, 2, 275}, {232, 253, 1, 275}, {233, 254, 2, 275}, {234, 255, 1, 275}, {235, 256, 1, 275}, {236, 257, 2, 275}, {237, 258, 2, 275}, {238, 259, 1, 275}, {239, 260, 2, 275}, {240, 261, 1, 275}, {241, 262, 1, 275}, {242, 263, 2, 275}, {243, 264, 2, 275}, {244, 265, 1, 275}, {245, 266, 2, 275}, {246, 267, 1, 275}, {250, 250, 1, 276}, {251, 251, 2, 276}, {252, 252, 2, 276}, {253, 253, 1, 276}, {254, 254, 2, 276}, {255, 255, 1, 276}, {256, 256, 1, 276}, {257, 257, 2, 276}, {258, 258, 2, 276}, {259, 259, 1, 276}, {260, 260, 2, 276}, {261, 261, 1, 276}, {262, 262, 1, 276}, {263, 263, 2, 276}, {264, 264, 2, 276}, {265, 265, 1, 276}, {266, 266, 2, 276}, {267, 267, 1, 276}, {10, 10, 1, 277}, {11, 11, 2, 277}, {12, 12, 2, 277}, {13, 13, 1, 277}, {14, 14, 2, 277}, {15, 15, 1, 277}, {10, 11, 1, 278}, {11, 13, 2, 278}, {12, 14, 2, 278}, {13, 16, 1, 278}, {14, 17, 2, 278}, {15, 18, 1, 278}, {10, 12, 1, 279}, {11, 14, 2, 279}, {12, 15, 2, 279}, {13, 17, 1, 279}, {14, 18, 2, 279}, {15, 19, 1, 279}, {11, 11, 1, 280}, {13, 13, 2, 280}, {14, 14, 2, 280}, {16, 16, 1, 280}, {17, 17, 2, 280}, {18, 18, 1, 280}, {11, 12, 1, 281}, {13, 14, 2, 281}, {14, 15, 2, 281}, {16, 17, 1, 281}, {17, 18, 2, 281}, {18, 19, 1, 281}, {12, 12, 1, 282}, {14, 14, 2, 282}, {15, 15, 2, 282}, {17, 17, 1, 282}, {18, 18, 2, 282}, {19, 19, 1, 282}, {4, 277, 1, 283}, {5, 278, 2, 283}, {6, 279, 2, 283}, {7, 280, 1, 283}, {8, 281, 2, 283}, {9, 282, 1, 283}, {24, 277, 1, 284}, {25, 278, 2, 284}, {26, 279, 2, 284}, {27, 280, 1, 284}, {28, 281, 2, 284}, {29, 282, 1, 284}, {44, 277, 1, 285}, {45, 278, 2, 285}, {46, 279, 2, 285}, {47, 280, 1, 285}, {48, 281, 2, 285}, {49, 282, 1, 285}, {30, 30, 1, 286}, {31, 31, 2, 286}, {32, 32, 2, 286}, {33, 33, 1, 286}, {34, 34, 2, 286}, {35, 35, 1, 286}, {30, 31, 1, 287}, {31, 33, 2, 287}, {32, 34, 2, 287}, {33, 36, 1, 287}, {34, 37, 2, 287}, {35, 38, 1, 287}, {30, 32, 1, 288}, {31, 34, 2, 288}, {32, 35, 2, 288}, {33, 37, 1, 288}, {34, 38, 2, 288}, {35, 39, 1, 288}, {31, 31, 1, 289}, {33, 33, 2, 289}, {34, 34, 2, 289}, {36, 36, 1, 289}, {37, 37, 2, 289}, {38, 38, 1, 289}, {31, 32, 1, 290}, {33, 34, 2, 290}, {34, 35, 2, 290}, {36, 37, 1, 290}, {37, 38, 2, 290}, {38, 39, 1, 290}, {32, 32, 1, 291}, {34, 34, 2, 291}, {35, 35, 2, 291}, {37, 37, 1, 291}, {38, 38, 2, 291}, {39, 39, 1, 291}, {4, 286, 1, 292}, {5, 287, 2, 292}, {6, 288, 2, 292}, {7, 289, 1, 292}, {8, 290, 2, 292}, {9, 291, 1, 292}, {24, 286, 1, 293}, {25, 287, 2, 293}, {26, 288, 2, 293}, {27, 289, 1, 293}, {28, 290, 2, 293}, {29, 291, 1, 293}, {44, 286, 1, 294}, {45, 287, 2, 294}, {46, 288, 2, 294}, {47, 289, 1, 294}, {48, 290, 2, 294}, {49, 291, 1, 294}, {50, 50, 1, 295}, {51, 51, 2, 295}, {52, 52, 2, 295}, {53, 53, 1, 295}, {54, 54, 2, 295}, {55, 55, 1, 295}, {50, 51, 1, 296}, {51, 53, 2, 296}, {52, 54, 2, 296}, {53, 56, 1, 296}, {54, 57, 2, 296}, {55, 58, 1, 296}, {50, 52, 1, 297}, {51, 54, 2, 297}, {52, 55, 2, 297}, {53, 57, 1, 297}, {54, 58, 2, 297}, {55, 59, 1, 297}, {51, 51, 1, 298}, {53, 53, 2, 298}, {54, 54, 2, 298}, {56, 56, 1, 298}, {57, 57, 2, 298}, {58, 58, 1, 298}, {51, 52, 1, 299}, {53, 54, 2, 299}, {54, 55, 2, 299}, {56, 57, 1, 299}, {57, 58, 2, 299}, {58, 59, 1, 299}, {52, 52, 1, 300}, {54, 54, 2, 300}, {55, 55, 2, 300}, {57, 57, 1, 300}, {58, 58, 2, 300}, {59, 59, 1, 300}, {4, 295, 1, 301}, {5, 296, 2, 301}, {6, 297, 2, 301}, {7, 298, 1, 301}, {8, 299, 2, 301}, {9, 300, 1, 301}, {24, 295, 1, 302}, {25, 296, 2, 302}, {26, 297, 2, 302}, {27, 298, 1, 302}, {28, 299, 2, 302}, {29, 300, 1, 302}, {44, 295, 1, 303}, {45, 296, 2, 303}, {46, 297, 2, 303}, {47, 298, 1, 303}, {48, 299, 2, 303}, {49, 300, 1, 303}, {277, 277, 1, 304}, {278, 278, 2, 304}, {279, 279, 2, 304}, {280, 280, 1, 304}, {281, 281, 2, 304}, {282, 282, 1, 304}, {277, 286, 1, 305}, {278, 287, 2, 305}, {279, 288, 2, 305}, {280, 289, 1, 305}, {281, 290, 2, 305}, {282, 291, 1, 305}, {277, 295, 1, 306}, {278, 296, 2, 306}, {279, 297, 2, 306}, {280, 298, 1, 306}, {281, 299, 2, 306}, {282, 300, 1, 306}, {286, 286, 1, 307}, {287, 287, 2, 307}, {288, 288, 2, 307}, {289, 289, 1, 307}, {290, 290, 2, 307}, {291, 291, 1, 307}, {286, 295, 1, 308}, {287, 296, 2, 308}, {288, 297, 2, 308}, {289, 298, 1, 308}, {290, 299, 2, 308}, {291, 300, 1, 308}, {295, 295, 1, 309}, {296, 296, 2, 309}, {297, 297, 2, 309}, {298, 298, 1, 309}, {299, 299, 2, 309}, {300, 300, 1, 309}, {76, 202, 1, 310}, {76, 203, 1, 311}, {76, 204, 1, 312}, {76, 205, 1, 313}, {76, 206, 1, 314}, {76, 207, 1, 315}, {77, 202, 1, 316}, {77, 203, 1, 317}, {77, 204, 1, 318}, {77, 205, 1, 319}, {77, 206, 1, 320}, {77, 207, 1, 321}, {78, 202, 1, 322}, {78, 203, 1, 323}, {78, 204, 1, 324}, {78, 205, 1, 325}, {78, 206, 1, 326}, {78, 207, 1, 327}, {79, 202, 1, 328}, {79, 203, 1, 329}, {79, 204, 1, 330}, {79, 205, 1, 331}, {79, 206, 1, 332}, {79, 207, 1, 333}, {80, 202, 1, 334}, {80, 203, 1, 335}, {80, 204, 1, 336}, {80, 205, 1, 337}, {80, 206, 1, 338}, {80, 207, 1, 339}, {81, 202, 1, 340}, {81, 203, 1, 341}, {81, 204, 1, 342}, {81, 205, 1, 343}, {81, 206, 1, 344}, {81, 207, 1, 345}, {82, 202, 1, 346}, {82, 203, 1, 347}, {82, 204, 1, 348}, {82, 205, 1, 349}, {82, 206, 1, 350}, {82, 207, 1, 351}, {83, 202, 1, 352}, {83, 203, 1, 353}, {83, 204, 1, 354}, {83, 205, 1, 355}, {83, 206, 1, 356}, {83, 207, 1, 357}, {84, 202, 1, 358}, {84, 203, 1, 359}, {84, 204, 1, 360}, {84, 205, 1, 361}, {84, 206, 1, 362}, {84, 207, 1, 363}, {85, 202, 1, 364}, {85, 203, 1, 365}, {85, 204, 1, 366}, {85, 205, 1, 367}, {85, 206, 1, 368}, {85, 207, 1, 369}, {86, 202, 1, 370}, {86, 203, 1, 371}, {86, 204, 1, 372}, {86, 205, 1, 373}, {86, 206, 1, 374}, {86, 207, 1, 375}, {87, 202, 1, 376}, {87, 203, 1, 377}, {87, 204, 1, 378}, {87, 205, 1, 379}, {87, 206, 1, 380}, {87, 207, 1, 381}, {202, 202, 1, 382}, {202, 203, 1, 383}, {202, 204, 1, 384}, {202, 205, 1, 385}, {202, 206, 1, 386}, {202, 207, 1, 387}, {203, 203, 1, 388}, {203, 204, 1, 389}, {203, 205, 1, 390}, {203, 206, 1, 391}, {203, 207, 1, 392}, {204, 204, 1, 393}, {204, 205, 1, 394}, {204, 206, 1, 395}, {204, 207, 1, 396}, {205, 205, 1, 397}, {205, 206, 1, 398}, {205, 207, 1, 399}, {206, 206, 1, 400}, {206, 207, 1, 401}, {207, 207, 1, 402}, {0, 202, 1, 403}, {0, 203, 1, 404}, {0, 204, 1, 405}, {0, 205, 1, 406}, {0, 206, 1, 407}, {0, 207, 1, 408}, {20, 202, 1, 409}, {20, 203, 1, 410}, {20, 204, 1, 411}, {20, 205, 1, 412}, {20, 206, 1, 413}, {20, 207, 1, 414}, {40, 202, 1, 415}, {40, 203, 1, 416}, {40, 204, 1, 417}, {40, 205, 1, 418}, {40, 206, 1, 419}, {40, 207, 1, 420}, {1, 1, 1, 421}, {1, 2, 1, 422}, {1, 3, 1, 423}, {2, 2, 1, 424}, {2, 3, 1, 425}, {3, 3, 1, 426}, {4, 421, 1, 427}, {5, 422, 2, 427}, {6, 423, 2, 427}, {7, 424, 1, 427}, {8, 425, 2, 427}, {9, 426, 1, 427}, {24, 421, 1, 428}, {25, 422, 2, 428}, {26, 423, 2, 428}, {27, 424, 1, 428}, {28, 425, 2, 428}, {29, 426, 1, 428}, {44, 421, 1, 429}, {45, 422, 2, 429}, {46, 423, 2, 429}, {47, 424, 1, 429}, {48, 425, 2, 429}, {49, 426, 1, 429}, {21, 21, 1, 430}, {21, 22, 1, 431}, {21, 23, 1, 432}, {22, 22, 1, 433}, {22, 23, 1, 434}, {23, 23, 1, 435}, {4, 430, 1, 436}, {5, 431, 2, 436}, {6, 432, 2, 436}, {7, 433, 1, 436}, {8, 434, 2, 436}, {9, 435, 1, 436}, {24, 430, 1, 437}, {25, 431, 2, 437}, {26, 432, 2, 437}, {27, 433, 1, 437}, {28, 434, 2, 437}, {29, 435, 1, 437}, {44, 430, 1, 438}, {45, 431, 2, 438}, {46, 432, 2, 438}, {47, 433, 1, 438}, {48, 434, 2, 438}, {49, 435, 1, 438}, {41, 41, 1, 439}, {41, 42, 1, 440}, {41, 43, 1, 441}, {42, 42, 1, 442}, {42, 43, 1, 443}, {43, 43, 1, 444}, {4, 439, 1, 445}, {5, 440, 2, 445}, {6, 441, 2, 445}, {7, 442, 1, 445}, {8, 443, 2, 445}, {9, 444, 1, 445}, {24, 439, 1, 446}, {25, 440, 2, 446}, {26, 441, 2, 446}, {27, 442, 1, 446}, {28, 443, 2, 446}, {29, 444, 1, 446}, {44, 439, 1, 447}, {45, 440, 2, 447}, {46, 441, 2, 447}, {47, 442, 1, 447}, {48, 443, 2, 447}, {49, 444, 1, 447}, {421, 421, 1, 448}, {422, 422, 2, 448}, {423, 423, 2, 448}, {424, 424, 1, 448}, {425, 425, 2, 448}, {426, 426, 1, 448}, {421, 430, 1, 449}, {422, 431, 2, 449}, {423, 432, 2, 449}, {424, 433, 1, 449}, {425, 434, 2, 449}, {426, 435, 1, 449}, {421, 439, 1, 450}, {422, 440, 2, 450}, {423, 441, 2, 450}, {424, 442, 1, 450}, {425, 443, 2, 450}, {426, 444, 1, 450}, {430, 430, 1, 451}, {431, 431, 2, 451}, {432, 432, 2, 451}, {433, 433, 1, 451}, {434, 434, 2, 451}, {435, 435, 1, 451}, {430, 439, 1, 452}, {431, 440, 2, 452}, {432, 441, 2, 452}, {433, 442, 1, 452}, {434, 443, 2, 452}, {435, 444, 1, 452}, {439, 439, 1, 453}, {440, 440, 2, 453}, {441, 441, 2, 453}, {442, 442, 1, 453}, {443, 443, 2, 453}, {444, 444, 1, 453}, {4, 4, 1, 454}, {5, 5, 1, 454}, {6, 6, 1, 454}, {4, 5, 1, 455}, {5, 7, 1, 455}, {6, 8, 1, 455}, {4, 6, 1, 456}, {5, 8, 1, 456}, {6, 9, 1, 456}, {5, 5, 1, 457}, {7, 7, 1, 457}, {8, 8, 1, 457}, {5, 6, 1, 458}, {7, 8, 1, 458}, {8, 9, 1, 458}, {6, 6, 1, 459}, {8, 8, 1, 459}, {9, 9, 1, 459}, {4, 454, 1, 460}, {5, 455, 2, 460}, {6, 456, 2, 460}, {7, 457, 1, 460}, {8, 458, 2, 460}, {9, 459, 1, 460}, {24, 454, 1, 461}, {25, 455, 2, 461}, {26, 456, 2, 461}, {27, 457, 1, 461}, {28, 458, 2, 461}, {29, 459, 1, 461}, {44, 454, 1, 462}, {45, 455, 2, 462}, {46, 456, 2, 462}, {47, 457, 1, 462}, {48, 458, 2, 462}, {49, 459, 1, 462}, {24, 24, 1, 463}, {25, 25, 1, 463}, {26, 26, 1, 463}, {24, 25, 1, 464}, {25, 27, 1, 464}, {26, 28, 1, 464}, {24, 26, 1, 465}, {25, 28, 1, 465}, {26, 29, 1, 465}, {25, 25, 1, 466}, {27, 27, 1, 466}, {28, 28, 1, 466}, {25, 26, 1, 467}, {27, 28, 1, 467}, {28, 29, 1, 467}, {26, 26, 1, 468}, {28, 28, 1, 468}, {29, 29, 1, 468}, {4, 463, 1, 469}, {5, 464, 2, 469}, {6, 465, 2, 469}, {7, 466, 1, 469}, {8, 467, 2, 469}, {9, 468, 1, 469}, {24, 463, 1, 470}, {25, 464, 2, 470}, {26, 465, 2, 470}, {27, 466, 1, 470}, {28, 467, 2, 470}, {29, 468, 1, 470}, {44, 463, 1, 471}, {45, 464, 2, 471}, {46, 465, 2, 471}, {47, 466, 1, 471}, {48, 467, 2, 471}, {49, 468, 1, 471}, {44, 44, 1, 472}, {45, 45, 1, 472}, {46, 46, 1, 472}, {44, 45, 1, 473}, {45, 47, 1, 473}, {46, 48, 1, 473}, {44, 46, 1, 474}, {45, 48, 1, 474}, {46, 49, 1, 474}, {45, 45, 1, 475}, {47, 47, 1, 475}, {48, 48, 1, 475}, {45, 46, 1, 476}, {47, 48, 1, 476}, {48, 49, 1, 476}, {46, 46, 1, 477}, {48, 48, 1, 477}, {49, 49, 1, 477}, {4, 472, 1, 478}, {5, 473, 2, 478}, {6, 474, 2, 478}, {7, 475, 1, 478}, {8, 476, 2, 478}, {9, 477, 1, 478}, {24, 472, 1, 479}, {25, 473, 2, 479}, {26, 474, 2, 479}, {27, 475, 1, 479}, {28, 476, 2, 479}, {29, 477, 1, 479}, {44, 472, 1, 480}, {45, 473, 2, 480}, {46, 474, 2, 480}, {47, 475, 1, 480}, {48, 476, 2, 480}, {49, 477, 1, 480}, {454, 454, 1, 481}, {455, 455, 2, 481}, {456, 456, 2, 481}, {457, 457, 1, 481}, {458, 458, 2, 481}, {459, 459, 1, 481}, {454, 463, 1, 482}, {455, 464, 2, 482}, {456, 465, 2, 482}, {457, 466, 1, 482}, {458, 467, 2, 482}, {459, 468, 1, 482}, {454, 472, 1, 483}, {455, 473, 2, 483}, {456, 474, 2, 483}, {457, 475, 1, 483}, {458, 476, 2, 483}, {459, 477, 1, 483}, {463, 463, 1, 484}, {464, 464, 2, 484}, {465, 465, 2, 484}, {466, 466, 1, 484}, {467, 467, 2, 484}, {468, 468, 1, 484}, {463, 472, 1, 485}, {464, 473, 2, 485}, {465, 474, 2, 485}, {466, 475, 1, 485}, {467, 476, 2, 485}, {468, 477, 1, 485}, {472, 472, 1, 486}, {473, 473, 2, 486}, {474, 474, 2, 486}, {475, 475, 1, 486}, {476, 476, 2, 486}, {477, 477, 1, 486}}
alpha_scalar_moments = 322
alpha_moment_mapping = {0, 20, 40, 60, 61, 62, 63, 64, 65, 66, 67, 68, 69, 70, 71, 72, 73, 74, 75, 76, 77, 78, 79, 80, 81, 82, 83, 84, 85, 86, 87, 88, 89, 90, 91, 92, 93, 94, 95, 96, 97, 98, 99, 100, 101, 102, 103, 104, 105, 106, 107, 108, 109, 110, 111, 112, 113, 114, 115, 116, 117, 118, 119, 120, 121, 122, 123, 124, 125, 126, 127, 128, 129, 130, 131, 132, 133, 134, 135, 136, 137, 138, 139, 140, 141, 142, 143, 144, 145, 146, 147, 148, 149, 150, 151, 152, 153, 154, 155, 156, 157, 158, 159, 160, 161, 162, 163, 164, 165, 166, 167, 168, 169, 170, 171, 172, 173, 174, 175, 176, 177, 178, 179, 180, 181, 182, 183, 184, 185, 186, 187, 188, 189, 190, 191, 192, 193, 194, 195, 196, 197, 198, 199, 200, 201, 202, 203, 204, 205, 206, 207, 226, 227, 228, 247, 248, 249, 268, 269, 270, 271, 272, 273, 274, 275, 276, 283, 284, 285, 292, 293, 294, 301, 302, 303, 304, 305, 306, 307, 308, 309, 310, 311, 312, 313, 314, 315, 316, 317, 318, 319, 320, 321, 322, 323, 324, 325, 326, 327, 328, 329, 330, 331, 332, 333, 334, 335, 336, 337, 338, 339, 340, 341, 342, 343, 344, 345, 346, 347, 348, 349, 350, 351, 352, 353, 354, 355, 356, 357, 358, 359, 360, 361, 362, 363, 364, 365, 366, 367, 368, 369, 370, 371, 372, 373, 374, 375, 376, 377, 378, 379, 380, 381, 382, 383, 384, 385, 386, 387, 388, 389, 390, 391, 392, 393, 394, 395, 396, 397, 398, 399, 400, 401, 402, 403, 404, 405, 406, 407, 408, 409, 410, 411, 412, 413, 414, 415, 416, 417, 418, 419, 420, 427, 428, 429, 436, 437, 438, 445, 446, 447, 448, 449, 450, 451, 452, 453, 460, 461, 462, 469, 470, 471, 478, 479, 480, 481, 482, 483, 484, 485, 486}
species_coeffs = {6.295781872175140e-01, 4.963555193626841e-01, 6.562290650910644e-01, 4.733558572223192e-01, 5.235317254497762e-01, 5.492310885918407e-01, 6.711161198507660e-01, 8.080310384497645e-01}
moment_coeffs = {-2.182473249995404e-01, 1.077937840247239e+00, -1.878766374661554e+00, -1.357793047455028e+00, 3.240482550126532e-01, 5.464489981719856e-01, -2.982829903306134e-01, -2.009405641454234e+00, -1.892245495281829e-01, -1.027191971705934e+00, 2.171388611736749e+00, 4.819134539430018e-02, 1.739253640447627e+00, -3.705123047365658e-01, 6.091147563334844e-02, 4.986195174033749e+00, -5.248623321012684e-01, -4.593911784885790e-01, 1.637567182188490e-01, 9.762805178267040e-01, 2.385954034919934e-01, 1.573856000556083e-01, 1.425099906143249e+00, -5.312232297134792e+00, 9.735567660269706e-01, 6.997668300023634e+00, 1.765013705999464e+00, -3.489543109258674e+00, -4.437814167387455e+00, 1.892603463397524e+00, 3.938759246256219e+00, -8.189103220887389e-02, 4.086488643530535e-01, 2.702017226618462e+00, 8.604906672499895e-01, 3.563718966707139e+00, 1.566794155218525e+00, 1.451574510364187e+00, 1.869686989836424e+00, 7.464438158739206e+00, 3.834019877791048e+00, 6.612458580067524e+00, 4.838081097815612e+00, 1.703082571601566e+00, 1.378105141035155e-01, 3.602697356882852e+00, -7.902120391978714e-01, -5.736283362220667e-01, 1.354534789831355e+00, -4.177443184372439e+00, -1.383047976266688e+00, -2.886065391806860e+00, 1.015996099281376e+00, 1.259410428737126e-01, 1.048203154774781e+00, -5.484298642092290e+00, -3.002816566410947e+00, -1.007055638708578e+01, 1.500675681538276e+00, 1.181537085684827e+00, 6.091089051589191e+00, -2.061182055790181e+00, 1.139609554257466e+00, -5.422889961715740e-01, 1.956990213158107e-01, -1.353685634362503e+00, 5.999248693176494e-01, 6.937558551742798e-01, 3.217692379792579e+00, 3.253019557427606e+00, 8.288719102929885e-01, 2.798811459042972e+00, 2.178501772841405e+00, 2.197586871714318e-01, 3.438265833923597e+00, 3.150306045696563e-01, 5.423116880518362e+00, 4.415508915787887e-01, 2.618478814604833e+00, 1.666827312617690e-01, 7.719193679976016e+00, 5.701669307123542e+00, 5.337331178741663e-01, 3.803345617260697e+00, 1.085928492267241e+00, 1.221296511596579e+00, 1.416481111963952e+00, 1.837317943712096e+00, 3.384210847555911e+00, -3.359296263504114e-01, 1.701472230222926e+00, -5.342799277519413e-02, -7.402094387159575e-01, -1.341509355447361e+00, 1.988355081959842e+00, 1.054368332423400e-01, -2.194902565998916e+00, -1.732919148197547e-01, 2.004875191805165e+00, -1.205056220581804e+00, -2.728576492777735e+00, -1.313286197410327e+00, 9.716603882833043e-01, 2.048045707019652e+00, -1.609539088190470e+00, 4.176857336926357e+00, -1.007307573856806e-01, 2.306537928480372e+00, 3.838459800759383e+00, 6.324175544632479e-02, 2.051433801996091e-02, -1.759961851225169e+00, -6.467523790627335e+00, 1.933159633962716e+00, 9.245355244698906e-01, 7.517827936928868e-01, -1.671674407781552e+00, -1.205989712861033e+00, -3.534819240375026e+00, -9.403616126069602e-01, -2.930466462478019e-01, 1.677526776101762e+00, -1.795058278556414e+00, 1.396155108477179e+00, 3.809394058506607e+00, 9.453913894571123e-01, 8.349512153288327e+00, -1.521695510726283e+00, 1.101320522801835e+00, 2.641253929802970e+00, 5.300667400444661e-01, 2.955121752155264e+00, -3.657111913035266e-01, 1.804107755296254e-01, 1.297330323889396e+00, -9.417809945343211e-01, -2.041780379153370e+00, 6.279365206322844e-01, -4.587019701175942e-01, 8.754131111449155e-02, 1.382301654169001e-01, 1.291897784438538e+00, 3.910456439730210e-01, 6.776192092774844e-01, 1.652496711529298e+00, -6.413813632388725e+01, 5.523247632419013e+01, -2.411098631034871e+01, -6.269038200165833e+00, -7.280349317865147e+00, -7.731398953261324e-01, -7.394464542486087e+00, 3.930382320277832e+00, -2.034012254486703e+00, -6.585618743365338e-01, 1.216224383532102e+00, 6.671576455352434e-01, -4.759640143721941e+00, -5.722144001792180e-01, 2.166446006697781e-01, 3.534733918883207e+00, 1.777617246626007e-01, 1.458070027985117e+00, 3.583018315633407e-02, -1.585725526032352e+00, 1.477415580112692e+00, 1.039268782928281e+01, -1.099110565398234e+01, 9.063646069284001e+00, 2.301650636898005e+01, -9.149725572828510e+00, 6.612021715291398e+00, -8.964556171172745e+00, 4.009030847008989e-01, 7.210438259329858e+00, 2.303361467110145e+01, -7.331778751166705e+01, 7.409285956658383e+00, 3.273440565465509e+01, -7.836093111541730e+00, -7.168723012420095e+00, -1.879025033132403e+01, 2.006198020207357e+01, -1.266565764134531e+01, -2.058594379892384e+00, 4.860533349041445e+00, -1.663112760597989e+00, -5.746746966986003e+01, 6.162348414338500e+01, -4.004754392051422e+01, -1.355036681967714e+01, 1.755044646839192e+01, -5.634242390471560e+00, -1.004292764058618e+02, 1.238072043035343e+02, -8.627877865887352e+01, -2.889101905907567e+01, 4.246047159719916e+01, -1.264034203871327e+01, -1.491479849548767e+01, 1.652037383117119e+01, -1.111071528707212e+01, -7.639380763294066e+00, 3.294728759624929e+00, -1.793432377966353e+00, -5.685272110695662e+01, 7.562029753456160e+01, -6.386068132046525e+01, -2.526095890678520e+01, 3.947348278300952e+01, -6.431531299791630e+00, -5.921184490521903e+01, 7.964019243443177e+01, -4.934012237367865e+01, -2.509193640570354e+01, 2.827521746652992e+01, -6.816462822864220e+00, -5.719809999957129e+01, 4.827972650723201e+01, -2.613508247994403e+01, -2.716160248994915e+01, 1.949239485747272e+01, 1.477143498147864e+00, 1.852369612886959e+01, -2.687485059878393e+01, 1.921899744141552e+01, 1.385038040612443e+01, -4.619432289080583e+00, 4.277114024846660e-01, 3.397666044158108e+01, -2.658974556894346e+01, 1.714710807562168e+01, -5.118346213166483e-01, -2.445696479598359e+00, 4.379762128182630e+00, -1.046818185474348e+01, 1.184613399721368e+01, -3.743542965192982e+00, -1.831611553904668e+00, -6.827378403387434e-01, -2.420811370380444e-02, 2.529649684819959e+01, -3.112144960255479e+01, 1.573085623176654e+01, 3.119261835145178e+00, -7.029803694720628e+00, 2.583529927800484e+00, 2.623627506811806e+01, -3.579054085194931e+01, 1.702576031979860e+01, 7.977347170552534e+00, -2.222074975183405e+01, 9.100890598625533e+00, 2.914747768460411e+02, -7.911213983692393e+02, 5.278954584282529e+02, 2.065293815630194e+02, -2.016765436253973e+02, 5.121629687787689e+01, 5.088448924988722e+02, -6.596729217908387e+02, -2.205435098435609e+02, 2.220636016320867e+02, -5.622630434938712e+01, 2.268071010032692e+02, 1.416900575038935e+02, -1.869474684575096e+02, 5.379496030423436e+01, 3.517671057192207e+00, -2.331245133154951e+01, 1.238181233339392e+00, 2.655277687692142e+01, -1.100969071461666e+01, 1.915050072379404e+00, 1.908339255260094e+01, -2.747841800844709e+01, 1.532527009924820e+01, 1.709615081277165e+01, -1.095038804065490e+01, 3.616040979242106e+00, -7.562483105743009e+00, -1.118654097011480e+00, 7.232013269658834e+00, 1.636102409352300e+01, -1.267806992782458e+01, 1.878875069421393e+00, -2.820789553415959e+01, 3.845980106755857e+01, -2.025262616001822e+01, -9.729911078188389e+00, 3.502450611878646e+00, -3.359068033361044e-01, 2.822351506024565e+00, -1.832196536756437e+00, -1.034264343394436e+00, 3.520395164139150e-01, 1.051849504301434e+00, 5.115262918151646e-01, -1.124458139324809e+00, 8.045037966542434e-01, 2.649242926021530e+00, 5.403123305170844e-01, 1.887876187026664e-01, 2.024910688013910e+00, 5.243775660408374e-01, 1.260359051239306e+00, 1.817176840521383e+00, 8.364023729361907e+00, 4.604979421725462e+00, -4.730328520654603e+00, 9.251916109210141e-02, -1.994383024995777e+00, 1.126822077635136e+00, -2.058644345578397e-01, -3.064321105880113e+00, 2.462723782154830e-01, -6.408055985060167e+00, 3.027073637373115e+00, 6.601014390890013e+00, -3.567625217454911e-01, -6.359714860881098e-01, 7.920587324497653e-01}