MTP
version = 1.1.0
potential_name = MTP_l3k3
scaling = 2.073600000000000e-02
L = 3
scaling_map = LK
species_count = 15
potential_tag = 
radial_basis_type = RBChebyshev_sss
	min_dist = 1.450000000000000e+00
	max_dist = 6.500000000000000e+00
	radial_basis_size = 8
	radial_funcs_count = 12
shift_coeffs = {-8.961471229695242e+02, -1.726602320765446e+03, -1.198640478151387e+03, -1.042915685510929e+03, -1.887195139088346e+03, -1.118247473277924e+03, -1.503208254001452e+03, -6.121955672133553e+03, -1.606779002072082e+03, -1.329314039866117e+03, -1.437118278883655e+03, -1.817176265052463e+03, -1.642549151087213e+03, -5.780128377184141e+03, -3.643804126768355e+02}
scal_coeffs = {6.011388369907241e-01, 4.016690253493161e-01, 9.717766798622915e-01, 6.461680353956866e-01, 6.035902647599051e-01, 1.306930693069307e+00, 6.580728217791830e-01, 6.778240677870740e-01, 8.579131348936204e-01, 1.174159572319610e+00, 1.061062917720814e+00, 1.301789205950421e+00, 1.306930693069307e+00, 1.306930693069307e+00, 2.289523502395491e-02, 3.870704036881682e-01, 1.927172441800147e-01, 4.085807692343377e-01, 4.729047214429364e-01, 1.306930693069307e+00, 1.306930693069307e+00, 1.306930693069307e+00, 1.306930693069307e+00, 8.153087225714049e-01, 8.703629013016467e-01, 6.882077488746916e-01, 5.194729321176987e-01, 1.093768199125988e+00, 5.715897429398203e-01, 1.010721484547568e+00, 7.110525900177241e-01, 1.266575455099817e+00, 1.348529998521643e+00, 9.613024362177046e-01, 1.306930693069307e+00, 1.306930693069307e+00, 1.306930693069307e+00, 1.167021229706886e+00, 9.568970806890278e-01, 1.285743522709462e+00, 1.306930693069307e+00, 1.306930693069307e+00, 1.306930693069307e+00, 1.306930693069307e+00, 9.801544220380828e-01, 7.322321001749453e-01, 8.558142887381137e-01, 1.554334517820111e+00, 1.024113830803842e+00, 1.306930693069307e+00, 1.306930693069307e+00, 1.306930693069307e+00, 1.306930693069307e+00, 8.740266404421239e-01, 1.306930693069307e+00, 1.306930693069307e+00, 1.306930693069307e+00, 1.306930693069307e+00, 1.306930693069307e+00, 3.633575686854318e-02, 1.009910965178835e+00, 1.306930693069307e+00, 1.306930693069307e+00, 1.306930693069307e+00, 1.137123835858916e+00, 1.306930693069307e+00, 1.773034748518427e+00, 1.306930693069307e+00, 8.650154558404582e-01, 1.306930693069307e+00, 1.306930693069307e+00, 1.306930693069307e+00, 1.306930693069307e+00, 1.306930693069307e+00, 1.154756225667517e+00, 1.306930693069307e+00, 1.306930693069307e+00, 1.306930693069307e+00, 1.306930693069307e+00, 1.306930693069307e+00, 1.151175207080514e+00, 1.292352614808506e+00, 1.306930693069307e+00, 1.306930693069307e+00, 1.306930693069307e+00, 9.744931288566382e-01, 1.306930693069307e+00, 1.306930693069307e+00, 1.306930693069307e+00, 4.184216482128452e-01, 9.842979715427808e-01, 1.306930693069307e+00, 1.306930693069307e+00, 1.306930693069307e+00, -3.833524237523199e-01, 9.146460408809307e-01, 5.621560056773665e-01, 1.306930693069307e+00, 2.234812780896697e-01, 1.306930693069307e+00, 7.396006425795913e-01, 1.306930693069307e+00, 1.306930693069307e+00, 1.306930693069307e+00, 9.276514684519301e-01, 1.444591235817689e+00, 1.306930693069307e+00, 1.625546677834182e+00, 1.306930693069307e+00, 1.306930693069307e+00, 1.306930693069307e+00, 1.306930693069307e+00, 1.306930693069307e+00, 1.336600344333812e+00, 1.306930693069307e+00, 1.306930693069307e+00, 1.306930693069307e+00, 1.306930693069307e+00, 1.306930693069307e+00, 1.028622506846304e+00, 7.221809655097130e-01, 1.105962455728466e+00, 1.119548949330341e+00, 1.167210938859017e+00, 7.388379739757360e-01, 1.306930693069307e+00, 9.398182654587885e-01, 5.583875463884144e-01, 6.256345280760127e-01, 6.912287504710375e-01, 4.128515507949072e-01, 6.558874412446900e-01, 6.612669066340795e-01, 1.277444342538452e+00, 1.931409450688874e+00, 1.478172683540493e+00, 8.145535500353509e-01, 1.100846845149601e+00, 1.306930693069307e+00, 1.306930693069307e+00, 1.306930693069307e+00, 1.306930693069307e+00, 1.306930693069307e+00, 1.563046162007578e+00, 1.196454707034128e+00, 6.785418429234593e-01, 1.364035022608155e+00, 1.306930693069307e+00, 1.306930693069307e+00, 2.257955419403480e+00, 1.508858666894587e+00, 1.034263736111087e+00, 1.306930693069307e+00, 1.306930693069307e+00, 1.306930693069307e+00, 1.601124427838712e+00, 1.224335019954962e+00, 1.306930693069307e+00, 9.958693603203964e-01, 1.196877015261524e+00, 6.674614336172467e-01, 5.911831015029891e-01, 8.572197360241088e-01, 1.006922445260394e+00, 2.199962939301749e+00, -3.151434717319513e-01, -2.788236278493958e-01, 1.306930693069307e+00, 1.306930693069307e+00, 1.306930693069307e+00, 1.306930693069307e+00, 1.306930693069307e+00, 1.306930693069307e+00, 8.294106125895098e-01, 1.187867694287555e+00, 5.824848371470001e-01, 6.407560866924521e-01, 9.084237432275826e-01, 1.306930693069307e+00, 2.123526499988456e+00, 1.306930693069307e+00, 7.093617211623975e-01, 1.306930693069307e+00, 1.306930693069307e+00, 1.306930693069307e+00, 1.306930693069307e+00, 1.306930693069307e+00, 1.306930693069307e+00, 1.504333191641297e+00, 1.306930693069307e+00, 1.566786375550808e+00, 1.441396733214828e+00, 1.092371466646094e+00, 1.306930693069307e+00, 2.635994206198404e+00, 1.306930693069307e+00, 1.549289838333084e-01, 1.306930693069307e+00, 1.306930693069307e+00, 1.306930693069307e+00, 1.306930693069307e+00, 1.306930693069307e+00, 1.306930693069307e+00, 4.387233234055027e-02, 1.306930693069307e+00, 7.585554445866161e-02, 1.306930693069307e+00, 1.306930693069307e+00, 4.391520676430156e-01, 1.342648349373420e+00, 4.714307099772577e-01, 1.805061407797456e-01, 3.072754128824520e-01, 3.338188488146667e-01, 2.475293083771813e-01, 8.548092954368128e-01, 6.869431321615094e-01, 3.684854714281909e-01, 2.197285250137429e-01, 3.275123394808815e-01, 2.918589490816254e-01, 4.616692664280753e-01, 4.064372870605094e-01, 5.313061181180947e-01, 4.642450592457890e-01, 4.031290507201759e+00, 3.981167092622069e+00, 4.297408916573969e+00, 4.265926045374315e+00, 4.387553062305455e+00, 3.975000000000000e+00, 3.464373614360633e+00, 3.680205016513450e+00, 3.633635176723770e+00, 3.653017205607751e+00, 3.772038968815902e+00, 3.257227037648330e+00, 3.975000000000000e+00, 3.975000000000000e+00, 4.635092124834044e+00, 5.063408646513894e+00, 5.609474189990797e+00, 5.722220032141943e+00, 5.441804525291773e+00, 3.975000000000000e+00, 3.975000000000000e+00, 3.975000000000000e+00, 3.975000000000000e+00, 3.639746148783416e+00, 3.537391342815565e+00, 3.862282351365871e+00, 2.676438206142584e+00, 3.358939331340768e+00, 2.905635697751758e+00, 4.088150432943046e+00, 3.554987885706633e+00, 3.572549545032123e+00, 3.649496552298225e+00, 3.654666843077759e+00, 3.975000000000000e+00, 3.975000000000000e+00, 3.975000000000000e+00, 3.459540956583248e+00, 3.365223307701473e+00, 3.452793226655839e+00, 3.975000000000000e+00, 3.975000000000000e+00, 3.975000000000000e+00, 3.975000000000000e+00, 4.478072892497584e+00, 4.074922602922760e+00, 3.858293049372970e+00, 3.971581733999893e+00, 4.054156168709514e+00, 3.975000000000000e+00, 3.975000000000000e+00, 3.975000000000000e+00, 3.975000000000000e+00, 4.022743761142034e+00, 3.975000000000000e+00, 3.975000000000000e+00, 3.975000000000000e+00, 3.975000000000000e+00, 3.975000000000000e+00, 3.964996389140961e+00, 4.008698184058126e+00, 3.975000000000000e+00, 3.975000000000000e+00, 3.975000000000000e+00, 4.073120794751328e+00, 3.975000000000000e+00, 3.655038042099901e+00, 3.975000000000000e+00, 3.780315843984543e+00, 3.975000000000000e+00, 3.975000000000000e+00, 3.975000000000000e+00, 3.975000000000000e+00, 3.975000000000000e+00, 3.788598336334214e+00, 3.975000000000000e+00, 3.975000000000000e+00, 3.975000000000000e+00, 3.975000000000000e+00, 3.975000000000000e+00, 3.959294442421340e+00, 3.944362984966705e+00, 3.975000000000000e+00, 3.975000000000000e+00, 3.975000000000000e+00, 3.336171508169458e+00, 3.975000000000000e+00, 3.975000000000000e+00, 3.975000000000000e+00, 2.707852396712982e+00, 3.488138399009314e+00, 3.975000000000000e+00, 3.975000000000000e+00, 3.975000000000000e+00, 3.768904974228633e+00, 3.259403763050153e+00, 3.079851969232461e+00, 3.975000000000000e+00, 2.369244764231624e+00, 3.975000000000000e+00, 3.247548669229972e+00, 3.975000000000000e+00, 3.975000000000000e+00, 3.975000000000000e+00, 3.569943063971011e+00, 3.530084778029710e+00, 3.975000000000000e+00, 3.475443407811983e+00, 3.975000000000000e+00, 3.975000000000000e+00, 3.975000000000000e+00, 3.975000000000000e+00, 3.975000000000000e+00, 3.530116746650747e+00, 3.975000000000000e+00, 3.975000000000000e+00, 3.975000000000000e+00, 3.975000000000000e+00, 3.975000000000000e+00, 4.000864240614022e+00, 3.426333154995980e+00, 3.430143103834403e+00, 3.503847732961539e+00, 3.491757263916153e+00, 3.597223968978703e+00, 3.975000000000000e+00, 3.094013573825249e+00, 5.273782112234431e+00, 4.641317220605338e+00, 4.810578824990278e+00, 5.554379738382510e+00, 4.271276983410987e+00, 4.102322737833620e+00, 4.029142561321775e+00, 3.158835020878908e+00, 3.904230774016156e+00, 3.894241087481689e+00, 3.653634188644714e+00, 3.975000000000000e+00, 3.975000000000000e+00, 3.975000000000000e+00, 3.975000000000000e+00, 3.975000000000000e+00, 4.227014718830735e+00, 4.381643977429443e+00, 4.824411628861854e+00, 4.209985617988218e+00, 3.975000000000000e+00, 3.975000000000000e+00, 3.027465478249341e+00, 3.672436525130977e+00, 3.619494245642443e+00, 3.975000000000000e+00, 3.975000000000000e+00, 3.975000000000000e+00, 3.259225134804951e+00, 3.311061163113377e+00, 3.975000000000000e+00, 4.499201949457105e+00, 4.651872066330691e+00, 4.991913178313855e+00, 4.402730961512514e+00, 4.567062756696417e+00, 4.359687337527270e+00, 3.079887193918928e+00, 3.388251456259701e+00, 2.795613638479808e+00, 3.975000000000000e+00, 3.975000000000000e+00, 3.975000000000000e+00, 3.975000000000000e+00, 3.975000000000000e+00, 3.975000000000000e+00, 4.077064778634773e+00, 4.115505395888448e+00, 4.101938729157324e+00, 3.162585073717383e+00, 4.540963312772925e+00, 3.975000000000000e+00, 3.428315255559089e+00, 3.975000000000000e+00, 3.333191053524930e+00, 3.975000000000000e+00, 3.975000000000000e+00, 3.975000000000000e+00, 3.975000000000000e+00, 3.975000000000000e+00, 3.975000000000000e+00, 4.619582968329540e+00, 3.975000000000000e+00, 4.299768904975651e+00, 2.935567074617949e+00, 3.972056054673314e+00, 3.975000000000000e+00, 3.274408486135701e+00, 3.975000000000000e+00, 2.731031042252372e+00, 3.975000000000000e+00, 3.975000000000000e+00, 3.975000000000000e+00, 3.975000000000000e+00, 3.975000000000000e+00, 3.975000000000000e+00, 3.838309261250110e+00, 3.975000000000000e+00, 2.508295847677986e+00, 3.975000000000000e+00, 3.975000000000000e+00, 3.082410092206986e+00, 3.810795464995907e+00, 4.943776747276315e+00, 6.402875261734223e+00, 5.681205469877136e+00, 5.427715081039681e+00, 7.445419953252798e+00, 4.197363613712772e+00, 4.664200775899418e+00, 5.425243717090648e+00, 6.186610218511874e+00, 5.599262265631838e+00, 6.632222602458060e+00, 5.170815879340928e+00, 5.365258821374046e+00, 5.144545323446065e+00, 5.082247936427327e+00, 9.699509055553099e-01, 8.270803467073009e-01, 1.621078442522651e+00, 1.273251896213509e+00, 1.529680201726756e+00, 1.306930693069307e+00, 1.181037454410498e+00, 1.432713604324757e+00, 8.200780658345470e-01, 1.049010284138830e+00, 7.120584414786530e-01, 1.354805649427245e+00, 1.306930693069307e+00, 1.306930693069307e+00, 8.855412434598918e-01, 8.743976202447441e-01, 9.118200780151088e-01, 1.620795674241187e+00, 1.497135229824463e+00, 1.306930693069307e+00, 1.306930693069307e+00, 1.306930693069307e+00, 1.306930693069307e+00, 1.206738756457501e+00, 1.043591779530353e+00, 9.058033501099556e-01, 1.191744256394861e+00, 9.666210853119114e-01, 1.220104574417607e+00, 1.025599547698270e+00, 8.558835539620234e-01, 1.469572240235742e+00, 1.242895072332914e+00, 1.578768393425043e+00, 1.306930693069307e+00, 1.306930693069307e+00, 1.306930693069307e+00, 8.436209584544571e-01, 4.808681843050229e-01, 1.049660555665183e+00, 1.306930693069307e+00, 1.306930693069307e+00, 1.306930693069307e+00, 1.306930693069307e+00, 9.013584949542952e-01, 1.194933194234300e+00, 1.323212553549213e+00, 1.383160432321347e+00, 1.094097346847647e+00, 1.306930693069307e+00, 1.306930693069307e+00, 1.306930693069307e+00, 1.306930693069307e+00, 6.673008109332460e-01, 1.306930693069307e+00, 1.306930693069307e+00, 1.306930693069307e+00, 1.306930693069307e+00, 1.306930693069307e+00, 7.436546182436374e-01, 9.324183506236468e-01, 1.306930693069307e+00, 1.306930693069307e+00, 1.306930693069307e+00, 1.686156290358437e+00, 1.306930693069307e+00, 1.446915022291235e+00, 1.306930693069307e+00, 4.413337114828024e-01, 1.306930693069307e+00, 1.306930693069307e+00, 1.306930693069307e+00, 1.306930693069307e+00, 1.306930693069307e+00, 1.292925187193851e+00, 1.306930693069307e+00, 1.306930693069307e+00, 1.306930693069307e+00, 1.306930693069307e+00, 1.306930693069307e+00, 1.103097859140058e+00, 1.124239964450295e+00, 1.306930693069307e+00, 1.306930693069307e+00, 1.306930693069307e+00, 7.384797920377587e-01, 1.306930693069307e+00, 1.306930693069307e+00, 1.306930693069307e+00, 4.248795067385721e-01, 7.645613429284034e-01, 1.306930693069307e+00, 1.306930693069307e+00, 1.306930693069307e+00, 1.370726625120859e+00, 1.177450771507439e+00, 9.426739361843413e-01, 1.306930693069307e+00, 3.688522772947770e-01, 1.306930693069307e+00, 3.520617661609370e-01, 1.306930693069307e+00, 1.306930693069307e+00, 1.306930693069307e+00, 8.375436595391851e-01, 1.021715209026689e+00, 1.306930693069307e+00, 1.026671335208516e+00, 1.306930693069307e+00, 1.306930693069307e+00, 1.306930693069307e+00, 1.306930693069307e+00, 1.306930693069307e+00, 1.111196090675441e+00, 1.306930693069307e+00, 1.306930693069307e+00, 1.306930693069307e+00, 1.306930693069307e+00, 1.306930693069307e+00, 4.528727922226936e-01, 2.527633665615830e-01, 2.461404785678254e-01, 8.911932071761168e-01, 7.657273900777932e-01, 2.330208927554385e-01, 1.306930693069307e+00, 1.269210383700194e-01, 1.077462133518662e+00, 8.232650347363076e-01, 7.746509700797436e-01, 5.823495243812058e-01, 1.282960372669846e+00, 7.989446497921220e-01, 1.203466214411237e+00, 1.152036833476419e+00, 9.663364672070394e-01, 2.366439458443845e-01, 1.277284843385259e+00, 1.306930693069307e+00, 1.306930693069307e+00, 1.306930693069307e+00, 1.306930693069307e+00, 1.306930693069307e+00, 8.607579788042484e-01, 8.849227524909146e-01, 1.099760897128041e+00, 1.085275137922945e+00, 1.306930693069307e+00, 1.306930693069307e+00, 1.160153718317740e+00, 3.733694335963342e-01, 3.699300758083330e-01, 1.306930693069307e+00, 1.306930693069307e+00, 1.306930693069307e+00, 5.068898365705765e-01, 8.220334902096782e-01, 1.306930693069307e+00, 8.195936250229904e-01, 8.133220206409305e-01, 6.978312299566913e-01, 1.117903163948070e+00, 1.115294871209102e+00, 1.472380015373750e+00, 1.193168081143329e+00, 6.655714365300934e-01, 5.524962722195500e-01, 1.306930693069307e+00, 1.306930693069307e+00, 1.306930693069307e+00, 1.306930693069307e+00, 1.306930693069307e+00, 1.306930693069307e+00, 1.594887088363585e+00, 1.247142777081074e+00, 1.656159323728043e+00, 1.596992769489014e+00, 1.419682524637471e+00, 1.306930693069307e+00, 1.049179399606189e+00, 1.306930693069307e+00, 7.128622163053625e-01, 1.306930693069307e+00, 1.306930693069307e+00, 1.306930693069307e+00, 1.306930693069307e+00, 1.306930693069307e+00, 1.306930693069307e+00, 1.480061911573775e+00, 1.306930693069307e+00, 1.374143205893575e+00, 1.565867926109467e+00, 1.633509861253206e+00, 1.306930693069307e+00, 1.579835558691374e+00, 1.306930693069307e+00, 6.154368219604267e-01, 1.306930693069307e+00, 1.306930693069307e+00, 1.306930693069307e+00, 1.306930693069307e+00, 1.306930693069307e+00, 1.306930693069307e+00, 1.571756033517624e+00, 1.306930693069307e+00, 1.566173292358664e+00, 1.306930693069307e+00, 1.306930693069307e+00, 1.204409140947370e+00, 7.088317441912261e-01, 2.760117618925612e-01, 1.773894057557867e-01, 9.425799052016326e-01, 7.106620272073249e-01, 7.331313492045388e-01, 3.650261239681393e-01, 4.383223277741999e-01, 1.439185366847214e+00, 1.293032993326001e+00, 1.212615589794940e+00, 1.315233682087255e+00, 8.536981252680543e-01, 1.289737673499940e+00, 2.908337958645008e-01, 7.938424837273438e-01, 4.036330057396954e+00, 4.247489303510632e+00, 3.947309070403328e+00, 3.972092717451762e+00, 4.039109137504315e+00, 3.975000000000000e+00, 3.853198398386294e+00, 3.417258720624196e+00, 3.209659988821889e+00, 3.314221013673345e+00, 3.837454806978933e+00, 3.018638162978966e+00, 3.975000000000000e+00, 3.975000000000000e+00, 2.503988248898171e+00, 3.542102309883716e+00, 3.858261003272833e+00, 3.886422013733078e+00, 4.007486678123618e+00, 3.975000000000000e+00, 3.975000000000000e+00, 3.975000000000000e+00, 3.975000000000000e+00, 3.404346484213940e+00, 3.466702253538539e+00, 3.784940073569834e+00, 3.149862423314826e+00, 3.377082671502272e+00, 3.233128732803616e+00, 4.346512032001645e+00, 4.018319455356329e+00, 3.894003320769957e+00, 3.744107536668815e+00, 3.880582907068496e+00, 3.975000000000000e+00, 3.975000000000000e+00, 3.975000000000000e+00, 4.071453215997989e+00, 4.479462220062037e+00, 3.906577632139344e+00, 3.975000000000000e+00, 3.975000000000000e+00, 3.975000000000000e+00, 3.975000000000000e+00, 4.315767830098905e+00, 3.901099375351394e+00, 3.781755339715689e+00, 3.692174456401213e+00, 3.951228985923320e+00, 3.975000000000000e+00, 3.975000000000000e+00, 3.975000000000000e+00, 3.975000000000000e+00, 4.258102489693874e+00, 3.975000000000000e+00, 3.975000000000000e+00, 3.975000000000000e+00, 3.975000000000000e+00, 3.975000000000000e+00, 4.985693439448540e+00, 4.104638822957588e+00, 3.975000000000000e+00, 3.975000000000000e+00, 3.975000000000000e+00, 3.807374130304701e+00, 3.975000000000000e+00, 4.007297525449963e+00, 3.975000000000000e+00, 2.494361451311108e+00, 3.975000000000000e+00, 3.975000000000000e+00, 3.975000000000000e+00, 3.975000000000000e+00, 3.975000000000000e+00, 3.917130796440891e+00, 3.975000000000000e+00, 3.975000000000000e+00, 3.975000000000000e+00, 3.975000000000000e+00, 3.975000000000000e+00, 3.870381956458693e+00, 3.716553163128121e+00, 3.975000000000000e+00, 3.975000000000000e+00, 3.975000000000000e+00, 2.950553665003537e+00, 3.975000000000000e+00, 3.975000000000000e+00, 3.975000000000000e+00, 3.000921830154035e+00, 4.093912092879316e+00, 3.975000000000000e+00, 3.975000000000000e+00, 3.975000000000000e+00, 3.987024373845913e+00, 4.089437988145630e+00, 4.138921276395245e+00, 3.975000000000000e+00, 5.482771605941609e+00, 3.975000000000000e+00, 5.284818354660094e+00, 3.975000000000000e+00, 3.975000000000000e+00, 3.975000000000000e+00, 4.568963217736569e+00, 3.248885501218126e+00, 3.975000000000000e+00, 3.490242405058051e+00, 3.975000000000000e+00, 3.975000000000000e+00, 3.975000000000000e+00, 3.975000000000000e+00, 3.975000000000000e+00, 3.939612937694677e+00, 3.975000000000000e+00, 3.975000000000000e+00, 3.975000000000000e+00, 3.975000000000000e+00, 3.975000000000000e+00, 3.902003525844788e+00, 3.386116943871007e+00, 4.043836430818104e+00, 3.435833645072266e+00, 3.309793734805359e+00, 3.711239591468365e+00, 3.975000000000000e+00, 3.205273798598800e+00, 3.776169247022548e+00, 3.560184868268077e+00, 3.959947985698512e+00, 3.337525162653511e+00, 3.713929942838877e+00, 3.452250151451974e+00, 3.594895763169444e+00, 3.092015130633730e+00, 3.038181131354602e+00, 4.486016806529992e+00, 3.196734325687203e+00, 3.975000000000000e+00, 3.975000000000000e+00, 3.975000000000000e+00, 3.975000000000000e+00, 3.975000000000000e+00, 3.660139623517812e+00, 4.077990094489046e+00, 3.814456431260685e+00, 3.786604316756031e+00, 3.975000000000000e+00, 3.975000000000000e+00, 3.168639937151861e+00, 3.957845655162987e+00, 4.146559512512170e+00, 3.975000000000000e+00, 3.975000000000000e+00, 3.975000000000000e+00, 2.974837036416246e+00, 3.049055774528972e+00, 3.975000000000000e+00, 3.662645653840132e+00, 3.802310620554042e+00, 3.572642558979573e+00, 3.640137069115289e+00, 3.757150238652851e+00, 3.808470414826641e+00, 3.159534394770576e+00, 4.042956024780943e+00, 4.380445306017420e+00, 3.975000000000000e+00, 3.975000000000000e+00, 3.975000000000000e+00, 3.975000000000000e+00, 3.975000000000000e+00, 3.975000000000000e+00, 4.199456534161578e+00, 4.390604320966899e+00, 4.245336073193211e+00, 4.361813491136981e+00, 4.005786423866162e+00, 3.975000000000000e+00, 3.403466165851127e+00, 3.975000000000000e+00, 4.384177424514996e+00, 3.975000000000000e+00, 3.975000000000000e+00, 3.975000000000000e+00, 3.975000000000000e+00, 3.975000000000000e+00, 3.975000000000000e+00, 3.887932814276663e+00, 3.975000000000000e+00, 3.901335646838583e+00, 3.658927715375669e+00, 4.148776377326182e+00, 3.975000000000000e+00, 4.043081710915860e+00, 3.975000000000000e+00, 4.081844450686383e+00, 3.975000000000000e+00, 3.975000000000000e+00, 3.975000000000000e+00, 3.975000000000000e+00, 3.975000000000000e+00, 3.975000000000000e+00, 3.961562445434820e+00, 3.975000000000000e+00, 4.209630788577861e+00, 3.975000000000000e+00, 3.975000000000000e+00, 3.374574056296061e+00, 3.664156001398551e+00, 3.062582115282315e+00, 2.764213532163528e+00, 2.855434859056829e+00, 2.801960467875702e+00, 2.780021063592065e+00, 3.500486678087720e+00, 3.820910377419153e+00, 4.014530612089492e+00, 4.122702053582228e+00, 4.335486829536602e+00, 4.103865913755063e+00, 4.190903187895104e+00, 4.252536871705434e+00, 3.909818355398216e+00, 4.214666951832652e+00, -1.487865053086627e-04, 1.005946028056125e+00, 7.700071518444097e-01, 1.184794270557371e+00, 6.467449147099434e-01, 1.306930693069307e+00, 9.123278942011622e-01, 1.053108815357403e+00, -9.853451179077077e-02, 7.160465854079321e-01, 3.001595409510706e-01, 6.309543614724895e-01, 1.306930693069307e+00, 1.306930693069307e+00, 2.364125563789535e-01, 2.788978364114441e-01, 6.017886531837109e-03, 1.949927887157574e+00, 1.603566033900239e+00, 1.306930693069307e+00, 1.306930693069307e+00, 1.306930693069307e+00, 1.306930693069307e+00, 4.837329082605313e-01, 1.470919174815808e-01, -2.122083894623449e-01, 1.244599442625642e+00, 4.894085559659248e-01, 7.636958531443238e-01, 2.786887931612917e-01, 1.357578118123916e+00, 8.989135178244935e-01, 9.304390154036639e-01, 8.923226213254924e-01, 1.306930693069307e+00, 1.306930693069307e+00, 1.306930693069307e+00, 7.120368120221889e-01, 1.802044886258921e+00, 7.291889624574179e-01, 1.306930693069307e+00, 1.306930693069307e+00, 1.306930693069307e+00, 1.306930693069307e+00, 5.080771769376325e-01, 6.774933176504773e-01, 1.009686170762975e+00, 9.287506006272478e-01, 7.301196645849752e-01, 1.306930693069307e+00, 1.306930693069307e+00, 1.306930693069307e+00, 1.306930693069307e+00, 1.451776078987944e+00, 1.306930693069307e+00, 1.306930693069307e+00, 1.306930693069307e+00, 1.306930693069307e+00, 1.306930693069307e+00, 5.627907805330887e-01, 1.819346782102372e+00, 1.306930693069307e+00, 1.306930693069307e+00, 1.306930693069307e+00, 7.835215246664275e-01, 1.306930693069307e+00, 5.408639003630938e-01, 1.306930693069307e+00, 1.261538816455257e+00, 1.306930693069307e+00, 1.306930693069307e+00, 1.306930693069307e+00, 1.306930693069307e+00, 1.306930693069307e+00, 4.122763789869334e-01, 1.306930693069307e+00, 1.306930693069307e+00, 1.306930693069307e+00, 1.306930693069307e+00, 1.306930693069307e+00, 7.249538738424850e-01, 8.452682976747692e-01, 1.306930693069307e+00, 1.306930693069307e+00, 1.306930693069307e+00, 9.058751702407555e-01, 1.306930693069307e+00, 1.306930693069307e+00, 1.306930693069307e+00, 2.212468505752106e-01, 2.309800407445519e-03, 1.306930693069307e+00, 1.306930693069307e+00, 1.306930693069307e+00, 1.100716045514181e+00, 8.685119586385318e-01, 1.057126636358303e+00, 1.306930693069307e+00, 8.460561779282625e-01, 1.306930693069307e+00, -2.231216413274511e-02, 1.306930693069307e+00, 1.306930693069307e+00, 1.306930693069307e+00, 3.952958768166202e-01, 1.028965819241113e+00, 1.306930693069307e+00, 8.702139291246060e-01, 1.306930693069307e+00, 1.306930693069307e+00, 1.306930693069307e+00, 1.306930693069307e+00, 1.306930693069307e+00, 5.684459821018302e-01, 1.306930693069307e+00, 1.306930693069307e+00, 1.306930693069307e+00, 1.306930693069307e+00, 1.306930693069307e+00, 6.338352916278391e-01, 8.350328148457670e-01, 7.613178774629157e-01, 2.336928062805339e+00, 9.993885374927255e-01, 1.171901635520039e+00, 1.306930693069307e+00, 1.213366369823936e+00, 1.698518410092050e+00, 9.381415450410402e-01, 2.414829975089768e-01, 8.602108579619844e-02, 1.736528808189798e+00, 1.700147339076204e+00, 1.995339638466967e+00, 9.210683725840024e-01, 8.236148395243218e-01, 6.264356000578599e-01, 7.911900354141519e-01, 1.306930693069307e+00, 1.306930693069307e+00, 1.306930693069307e+00, 1.306930693069307e+00, 1.306930693069307e+00, -2.760244197165373e-02, 1.313695190916299e-01, 1.497867435757794e+00, 1.305866156983374e+00, 1.306930693069307e+00, 1.306930693069307e+00, 7.488458149584198e-01, 4.715001418750692e-01, 7.313121816742183e-01, 1.306930693069307e+00, 1.306930693069307e+00, 1.306930693069307e+00, 7.295476583359808e-01, 6.155002392971762e-01, 1.306930693069307e+00, 5.144221267456141e-01, 2.078936005408113e+00, 7.529866999381882e-01, 1.345325612850530e+00, 1.702835064236644e+00, 2.060867653491926e+00, 7.331528710014801e-01, 7.083312259909931e-01, -4.652438209106550e-01, 1.306930693069307e+00, 1.306930693069307e+00, 1.306930693069307e+00, 1.306930693069307e+00, 1.306930693069307e+00, 1.306930693069307e+00, 7.179232638152644e-01, 1.028451846308336e+00, 1.186491450224180e-01, 3.676062973417789e-01, 1.159668523689950e+00, 1.306930693069307e+00, 7.884467108728579e-01, 1.306930693069307e+00, 7.588988888383376e-01, 1.306930693069307e+00, 1.306930693069307e+00, 1.306930693069307e+00, 1.306930693069307e+00, 1.306930693069307e+00, 1.306930693069307e+00, 1.812957583764823e+00, 1.306930693069307e+00, 7.583427413065820e-01, 1.817735316924633e+00, 8.192985407403649e-01, 1.306930693069307e+00, 1.069837492850724e+00, 1.306930693069307e+00, 3.020651080533981e-01, 1.306930693069307e+00, 1.306930693069307e+00, 1.306930693069307e+00, 1.306930693069307e+00, 1.306930693069307e+00, 1.306930693069307e+00, 1.196800572783484e+00, 1.306930693069307e+00, 1.156945596193279e+00, 1.306930693069307e+00, 1.306930693069307e+00, 1.467300437467147e+00, 1.280102744344372e+00, 8.368436225780649e-01, 8.596950343983571e-01, 7.271796995901312e-01, 9.885638978210661e-01, 1.143849565113977e+00, 6.399950007891874e-01, 4.242403666190642e-01, 1.237941085861575e+00, 1.220137922276766e+00, 1.100961865494925e+00, 1.241257268886377e+00, 4.990457569427948e-01, 7.602702159539846e-01, 5.768468414977282e-01, 2.988274033888802e-01, 3.910740392854479e+00, 2.634477524484439e+00, 3.104274564372655e+00, 3.215922844565896e+00, 3.400309822239032e+00, 3.975000000000000e+00, 2.700459637970067e+00, 2.719133665482075e+00, 3.746780662372355e+00, 3.561127782796467e+00, 3.301984267616232e+00, 2.881236184934229e+00, 3.975000000000000e+00, 3.975000000000000e+00, 8.141411132400222e+00, 4.010646067195293e+00, 4.126041581894636e+00, 3.206277635739965e+00, 3.093001150662021e+00, 3.975000000000000e+00, 3.975000000000000e+00, 3.975000000000000e+00, 3.975000000000000e+00, 3.925020549765494e+00, 2.941955604499082e+00, 4.815753462704508e+00, 2.356306505678244e+00, 3.943403947965209e+00, 1.923824991097737e+00, 8.386519745946192e+00, 3.018594364076003e+00, 3.093647595332756e+00, 3.055038142316034e+00, 3.148202869515360e+00, 3.975000000000000e+00, 3.975000000000000e+00, 3.975000000000000e+00, 3.005470648122006e+00, 2.816507760424312e+00, 2.877346804965732e+00, 3.975000000000000e+00, 3.975000000000000e+00, 3.975000000000000e+00, 3.975000000000000e+00, 5.587533026349687e+00, 3.389708293172457e+00, 3.084197995029735e+00, 3.141624087233051e+00, 3.116559088146833e+00, 3.975000000000000e+00, 3.975000000000000e+00, 3.975000000000000e+00, 3.975000000000000e+00, 2.565020242733956e+00, 3.975000000000000e+00, 3.975000000000000e+00, 3.975000000000000e+00, 3.975000000000000e+00, 3.975000000000000e+00, 5.448491614489734e+00, 3.242383584703361e+00, 3.975000000000000e+00, 3.975000000000000e+00, 3.975000000000000e+00, 3.438538159443842e+00, 3.975000000000000e+00, 3.303273673932877e+00, 3.975000000000000e+00, 2.804854953757534e+00, 3.975000000000000e+00, 3.975000000000000e+00, 3.975000000000000e+00, 3.975000000000000e+00, 3.975000000000000e+00, 6.510245628331195e+00, 3.975000000000000e+00, 3.975000000000000e+00, 3.975000000000000e+00, 3.975000000000000e+00, 3.975000000000000e+00, 3.745766089315133e+00, 3.337008426609171e+00, 3.975000000000000e+00, 3.975000000000000e+00, 3.975000000000000e+00, 3.091247435140844e+00, 3.975000000000000e+00, 3.975000000000000e+00, 3.975000000000000e+00, 8.474855973591383e+00, 3.318256965214537e+00, 3.975000000000000e+00, 3.975000000000000e+00, 3.975000000000000e+00, 3.049622098648242e+00, 3.614038745561467e+00, 2.856505935112299e+00, 3.975000000000000e+00, 1.785807558338758e+00, 3.975000000000000e+00, 2.952419947478461e+00, 3.975000000000000e+00, 3.975000000000000e+00, 3.975000000000000e+00, 6.576994584871636e+00, 3.380489363993665e+00, 3.975000000000000e+00, 3.661217695857174e+00, 3.975000000000000e+00, 3.975000000000000e+00, 3.975000000000000e+00, 3.975000000000000e+00, 3.975000000000000e+00, 3.788725707031354e+00, 3.975000000000000e+00, 3.975000000000000e+00, 3.975000000000000e+00, 3.975000000000000e+00, 3.975000000000000e+00, 4.188409235582395e+00, 3.053543325156845e+00, 1.996903280904122e+00, 2.967109570948329e+00, 2.570384121978068e+00, 3.379348471365755e+00, 3.975000000000000e+00, 2.069665249240063e+00, 3.574157935840943e+00, 3.561430199030773e+00, 3.573124168039706e+00, 4.628674229294758e+00, 3.655264675350858e+00, 3.736511712768716e+00, 3.692307014715805e+00, 3.598245902501278e+00, 3.263929139740593e+00, 2.488166931568568e+00, 3.031334453602059e+00, 3.975000000000000e+00, 3.975000000000000e+00, 3.975000000000000e+00, 3.975000000000000e+00, 3.975000000000000e+00, 3.891509110278240e+00, 3.911780730192976e+00, 3.638153984756919e+00, 3.916411460473509e+00, 3.975000000000000e+00, 3.975000000000000e+00, 3.983412382356482e+00, 3.266156966906977e+00, 1.552029051609134e+00, 3.975000000000000e+00, 3.975000000000000e+00, 3.975000000000000e+00, 3.029781392661615e+00, 2.028233388252133e+00, 3.975000000000000e+00, 2.607742080480622e+00, 3.836919625586571e+00, 2.826621827986963e+00, 3.341223053658769e+00, 3.802271173437353e+00, 3.626850035932868e+00, 4.004931938341557e+00, 2.832785443673552e+00, 2.915982603350427e+00, 3.975000000000000e+00, 3.975000000000000e+00, 3.975000000000000e+00, 3.975000000000000e+00, 3.975000000000000e+00, 3.975000000000000e+00, 3.444646497986291e+00, 3.733275932517513e+00, 3.977223783946929e+00, 3.997082902032439e+00, 3.962498340625293e+00, 3.975000000000000e+00, 3.211115772597812e+00, 3.975000000000000e+00, 3.735431483189632e+00, 3.975000000000000e+00, 3.975000000000000e+00, 3.975000000000000e+00, 3.975000000000000e+00, 3.975000000000000e+00, 3.975000000000000e+00, 3.409658088546935e+00, 3.975000000000000e+00, 3.677309285408054e+00, 3.282457818382793e+00, 3.836113893306670e+00, 3.975000000000000e+00, 3.233194680091469e+00, 3.975000000000000e+00, 6.075888762496779e+00, 3.975000000000000e+00, 3.975000000000000e+00, 3.975000000000000e+00, 3.975000000000000e+00, 3.975000000000000e+00, 3.975000000000000e+00, 3.789943438946656e+00, 3.975000000000000e+00, 3.666509433772808e+00, 3.975000000000000e+00, 3.975000000000000e+00, 2.756736799450949e+00, 2.898811790735814e+00, 4.452919954837322e+00, 4.429069290051430e+00, 4.492259210379146e+00, 4.001643191650743e+00, 4.114803837526998e+00, 4.608602353338830e+00, 5.567212378063912e+00, 3.440380940533232e+00, 3.420340775540698e+00, 3.644967441955821e+00, 3.564719347865773e+00, 4.876883645537532e+00, 4.267469388421731e+00, 4.723051287148623e+00, 1.069553156301412e+01, 7.494955517964556e-01, 3.509747721664530e-01, 1.359323733463075e+00, 1.186084856089112e+00, 1.385011238115304e+00, 1.306930693069307e+00, 9.598564166569072e-01, 2.707518794056671e-01, 5.565183057989027e-02, 2.662253740485090e-01, 7.678232191868641e-02, 1.536828014389877e-02, 1.306930693069307e+00, 1.306930693069307e+00, 8.393521933837252e-01, 9.894281874473514e-01, 4.632333088715649e-01, 8.338598547426045e-01, 1.179480544144016e+00, 1.306930693069307e+00, 1.306930693069307e+00, 1.306930693069307e+00, 1.306930693069307e+00, 9.906049244140214e-02, 7.735369763522562e-02, 9.251864647578990e-02, 2.719770362042797e-01, 1.226887353799868e-01, 9.997982425264690e-02, 1.854436634809961e-01, 8.220786913587195e-01, 3.239680258799543e-01, 3.860788298756080e-01, 9.050971473658621e-01, 1.306930693069307e+00, 1.306930693069307e+00, 1.306930693069307e+00, 9.942171075887065e-01, 6.407646624052205e-01, 9.323025540397150e-01, 1.306930693069307e+00, 1.306930693069307e+00, 1.306930693069307e+00, 1.306930693069307e+00, 1.077975444244435e-01, 8.483733725008693e-01, 9.188565570042829e-01, 1.189750929422093e+00, 7.954363792457709e-01, 1.306930693069307e+00, 1.306930693069307e+00, 1.306930693069307e+00, 1.306930693069307e+00, -4.360592973951771e-02, 1.306930693069307e+00, 1.306930693069307e+00, 1.306930693069307e+00, 1.306930693069307e+00, 1.306930693069307e+00, 7.954407071899218e-01, 1.834372812158131e+00, 1.306930693069307e+00, 1.306930693069307e+00, 1.306930693069307e+00, 5.581718057607967e-01, 1.306930693069307e+00, 9.647731568265875e-01, 1.306930693069307e+00, 8.166925833982872e-01, 1.306930693069307e+00, 1.306930693069307e+00, 1.306930693069307e+00, 1.306930693069307e+00, 1.306930693069307e+00, 2.569533332183199e-01, 1.306930693069307e+00, 1.306930693069307e+00, 1.306930693069307e+00, 1.306930693069307e+00, 1.306930693069307e+00, 1.004962979434986e+00, 9.315039507506270e-01, 1.306930693069307e+00, 1.306930693069307e+00, 1.306930693069307e+00, 6.821317023484563e-01, 1.306930693069307e+00, 1.306930693069307e+00, 1.306930693069307e+00, 4.813800730949862e-01, 6.260135824134538e-01, 1.306930693069307e+00, 1.306930693069307e+00, 1.306930693069307e+00, 6.560606169828029e-01, 9.275322097323893e-01, 7.453248898030775e-01, 1.306930693069307e+00, 2.614249483820194e-01, 1.306930693069307e+00, 9.053658667624413e-02, 1.306930693069307e+00, 1.306930693069307e+00, 1.306930693069307e+00, 6.792198676194331e-01, 9.180401797018278e-01, 1.306930693069307e+00, 7.596211218528008e-01, 1.306930693069307e+00, 1.306930693069307e+00, 1.306930693069307e+00, 1.306930693069307e+00, 1.306930693069307e+00, 6.669401690669378e-01, 1.306930693069307e+00, 1.306930693069307e+00, 1.306930693069307e+00, 1.306930693069307e+00, 1.306930693069307e+00, 1.165210443069692e+00, 2.105352750408379e-01, -1.453296478369792e-01, 2.559469290489760e-01, 8.826137827307556e-01, 2.344295034816649e-01, 1.306930693069307e+00, 1.075428929712747e+00, 1.287773412263313e+00, 1.609250905709300e+00, 1.216369014945942e+00, 1.130568421140753e+00, 1.310700979111926e+00, 1.151104379115806e+00, 1.435835331368410e+00, 1.417177240107556e+00, 9.350643936967260e-01, 6.229376512368636e-02, 9.542726981510166e-01, 1.306930693069307e+00, 1.306930693069307e+00, 1.306930693069307e+00, 1.306930693069307e+00, 1.306930693069307e+00, 4.548219983638089e-01, 5.655494091221948e-01, 9.390685325787052e-01, 1.018100705526678e+00, 1.306930693069307e+00, 1.306930693069307e+00, 1.372561087701403e+00, 4.206069782327546e-01, -1.299080603858360e-01, 1.306930693069307e+00, 1.306930693069307e+00, 1.306930693069307e+00, 7.630515980624939e-01, 2.941099178826106e-01, 1.306930693069307e+00, 7.750194023455188e-01, 1.085201579400309e+00, 2.818638216286634e-01, 7.674301625349134e-01, 1.007202410590546e+00, 7.141382847618921e-01, 1.461227459036370e+00, 1.235429001871670e+00, 1.431966589906637e+00, 1.306930693069307e+00, 1.306930693069307e+00, 1.306930693069307e+00, 1.306930693069307e+00, 1.306930693069307e+00, 1.306930693069307e+00, 7.550877019936322e-01, 1.003340122497507e+00, 8.150477555985601e-01, 8.150532395791674e-01, 1.208849910750629e+00, 1.306930693069307e+00, 1.319664840644661e-01, 1.306930693069307e+00, 4.442426672540644e-01, 1.306930693069307e+00, 1.306930693069307e+00, 1.306930693069307e+00, 1.306930693069307e+00, 1.306930693069307e+00, 1.306930693069307e+00, 1.098755653956438e+00, 1.306930693069307e+00, 1.503978611702916e+00, 1.110989365727694e+00, 1.134140742343515e+00, 1.306930693069307e+00, 6.615329244813433e-01, 1.306930693069307e+00, -3.494028126186416e-01, 1.306930693069307e+00, 1.306930693069307e+00, 1.306930693069307e+00, 1.306930693069307e+00, 1.306930693069307e+00, 1.306930693069307e+00, 7.992860351000337e-01, 1.306930693069307e+00, 8.242906705257321e-01, 1.306930693069307e+00, 1.306930693069307e+00, 5.286491394170769e-01, 1.905257690299911e-01, 7.339080748739488e-01, 5.135172669628082e-01, 7.460444804249837e-01, 8.278460126312986e-01, 4.353533926870302e-01, 7.759300455712440e-01, 4.820633336970410e-01, 1.491525706367117e+00, 1.591746555392076e+00, 1.483156733949861e+00, 1.684714650262834e+00, 7.391999323263412e-01, 8.572995743902252e-01, 5.940781094696721e-01, 2.727438536025097e-01, 3.322283652748764e+00, 3.226247951863427e+00, 3.225061911321938e+00, 3.384197604472505e+00, 3.311828139926033e+00, 3.975000000000000e+00, 3.066338753330450e+00, 3.957732782624136e+00, 4.610686236861787e+00, 3.838687344593871e+00, 3.689362384399324e+00, 3.473165040885327e+00, 3.975000000000000e+00, 3.975000000000000e+00, 4.409805622356836e+00, 2.816146227526943e+00, 2.688754028174060e+00, 3.052206889570584e+00, 3.026737271491480e+00, 3.975000000000000e+00, 3.975000000000000e+00, 3.975000000000000e+00, 3.975000000000000e+00, 2.209201208097971e+00, 2.817631415806236e+00, 1.404848919625172e+00, 3.535391120530770e+00, 3.112542132029106e+00, 3.503992780023911e+00, 8.827986185462757e+00, 3.189517050331172e+00, 4.169910399730386e+00, 3.944233127490997e+00, 3.849111721236774e+00, 3.975000000000000e+00, 3.975000000000000e+00, 3.975000000000000e+00, 4.288831785438432e+00, 4.901533941065205e+00, 4.088546275128768e+00, 3.975000000000000e+00, 3.975000000000000e+00, 3.975000000000000e+00, 3.975000000000000e+00, 4.340321865031243e+00, 3.399505310782039e+00, 3.440318241160095e+00, 3.101947735089464e+00, 3.341031963638764e+00, 3.975000000000000e+00, 3.975000000000000e+00, 3.975000000000000e+00, 3.975000000000000e+00, 3.197694699274897e+00, 3.975000000000000e+00, 3.975000000000000e+00, 3.975000000000000e+00, 3.975000000000000e+00, 3.975000000000000e+00, 4.183595950598934e+00, 3.092192141930613e+00, 3.975000000000000e+00, 3.975000000000000e+00, 3.975000000000000e+00, 3.246435013746854e+00, 3.975000000000000e+00, 2.484563588130375e+00, 3.975000000000000e+00, 4.281872696252644e+00, 3.975000000000000e+00, 3.975000000000000e+00, 3.975000000000000e+00, 3.975000000000000e+00, 3.975000000000000e+00, 7.573489793328130e+00, 3.975000000000000e+00, 3.975000000000000e+00, 3.975000000000000e+00, 3.975000000000000e+00, 3.975000000000000e+00, 3.894970526439260e+00, 3.694626660976166e+00, 3.975000000000000e+00, 3.975000000000000e+00, 3.975000000000000e+00, 5.258434253287462e+00, 3.975000000000000e+00, 3.975000000000000e+00, 3.975000000000000e+00, 5.069102457272938e+00, 4.074944514905700e+00, 3.975000000000000e+00, 3.975000000000000e+00, 3.975000000000000e+00, 3.943502175081210e+00, 3.743310686265420e+00, 3.906068116992587e+00, 3.975000000000000e+00, 3.408950586453654e+00, 3.975000000000000e+00, 4.725587693753539e+00, 3.975000000000000e+00, 3.975000000000000e+00, 3.975000000000000e+00, 4.885114225291239e+00, 3.628617853040106e+00, 3.975000000000000e+00, 3.212700677775477e+00, 3.975000000000000e+00, 3.975000000000000e+00, 3.975000000000000e+00, 3.975000000000000e+00, 3.975000000000000e+00, 2.884828632151763e+00, 3.975000000000000e+00, 3.975000000000000e+00, 3.975000000000000e+00, 3.975000000000000e+00, 3.975000000000000e+00, 4.681886702179557e+00, 2.030412546888330e+00, 4.274977823188030e+00, 2.311733710285283e+00, 3.029148144293091e+00, 1.558038770850676e+00, 3.975000000000000e+00, 2.897736632778805e+00, 1.790745579178024e+00, 2.322172125024123e+00, 1.787610478325993e+00, 1.670437621031674e+00, 2.697713018702674e+00, 2.782003753812986e+00, 2.682577977088695e+00, 4.220573812829563e+00, 3.643410494401849e+00, 3.848435715301838e+00, 3.220956613819694e+00, 3.975000000000000e+00, 3.975000000000000e+00, 3.975000000000000e+00, 3.975000000000000e+00, 3.975000000000000e+00, 1.654769729395346e+00, 1.820861987723039e+00, 2.763311513652967e+00, 3.498983674708199e+00, 3.975000000000000e+00, 3.975000000000000e+00, 4.462082330678695e+00, 3.031905462351662e+00, 4.800055277895472e+00, 3.975000000000000e+00, 3.975000000000000e+00, 3.975000000000000e+00, 3.279062385006269e+00, 3.095182776674667e+00, 3.975000000000000e+00, 9.726174593748751e-01, 2.495648335853054e+00, -6.490540935581424e-02, 2.525509357337583e+00, 3.160328737214231e+00, 2.538467834101234e+00, 4.169570587303927e+00, 3.673513159593480e+00, 3.483230595411298e+00, 3.975000000000000e+00, 3.975000000000000e+00, 3.975000000000000e+00, 3.975000000000000e+00, 3.975000000000000e+00, 3.975000000000000e+00, 4.318476206756361e+00, 4.373575659864831e+00, 4.287539360297895e+00, 4.457327121409141e+00, 4.186175562477731e+00, 3.975000000000000e+00, 4.514217622950010e+00, 3.975000000000000e+00, 4.197775114627156e+00, 3.975000000000000e+00, 3.975000000000000e+00, 3.975000000000000e+00, 3.975000000000000e+00, 3.975000000000000e+00, 3.975000000000000e+00, 3.943186351858122e+00, 3.975000000000000e+00, 3.884766223382043e+00, 3.877726977810856e+00, 3.910089577047608e+00, 3.975000000000000e+00, 4.464758411420679e+00, 3.975000000000000e+00, 3.900225544437923e+00, 3.975000000000000e+00, 3.975000000000000e+00, 3.975000000000000e+00, 3.975000000000000e+00, 3.975000000000000e+00, 3.975000000000000e+00, 4.157790398925324e+00, 3.975000000000000e+00, 4.210336605270401e+00, 3.975000000000000e+00, 3.975000000000000e+00, 3.794287661434709e+00, 3.513306224428941e+00, 4.424929074029978e+00, 5.194366960922505e+00, 4.475169772738927e+00, 4.559993359702315e+00, 3.943286895836608e+00, 3.913230632087391e+00, 5.726076025935029e+00, 3.022178458959681e+00, 2.893638170515810e+00, 3.141776238275813e+00, 2.913404323390979e+00, 3.699535438036821e+00, 3.387883021528212e+00, 4.092313840679264e+00, 6.414976389725797e+00, 1.086317445038456e+00, 1.201619631507869e+00, 1.428869557626055e+00, 1.055436531324214e+00, 9.311586902526577e-01, 1.306930693069307e+00, 5.936444892440400e-01, 8.809687933819984e-01, 9.654935959269534e-01, 1.022023675305873e+00, 8.269913779214071e-01, 1.172106027390849e+00, 1.306930693069307e+00, 1.306930693069307e+00, 8.352541387986548e-01, 1.176155203170202e+00, 9.478083174223719e-01, 2.008016279192356e+00, 1.610221131005667e+00, 1.306930693069307e+00, 1.306930693069307e+00, 1.306930693069307e+00, 1.306930693069307e+00, 8.077721614894632e-01, 6.104525523886475e-01, 2.638699381184468e-01, 5.911842689885018e-01, 6.818499488649141e-01, 8.242394627102492e-01, 8.387933250388483e-01, 1.006848043805251e+00, 1.415056209083066e+00, 1.386824443106681e+00, 1.520706934993341e+00, 1.306930693069307e+00, 1.306930693069307e+00, 1.306930693069307e+00, 1.288718938204539e+00, 1.005151834765910e+00, 1.306587917720606e+00, 1.306930693069307e+00, 1.306930693069307e+00, 1.306930693069307e+00, 1.306930693069307e+00, 7.010553409667122e-01, 1.285123659883660e+00, 1.380449996067407e+00, 1.525840023949663e+00, 1.349711487178537e+00, 1.306930693069307e+00, 1.306930693069307e+00, 1.306930693069307e+00, 1.306930693069307e+00, 1.247293216062223e+00, 1.306930693069307e+00, 1.306930693069307e+00, 1.306930693069307e+00, 1.306930693069307e+00, 1.306930693069307e+00, 1.125939728144923e+00, 7.102832390055783e-01, 1.306930693069307e+00, 1.306930693069307e+00, 1.306930693069307e+00, 9.681788626630818e-01, 1.306930693069307e+00, 1.486117282961351e+00, 1.306930693069307e+00, 1.009196112163686e+00, 1.306930693069307e+00, 1.306930693069307e+00, 1.306930693069307e+00, 1.306930693069307e+00, 1.306930693069307e+00, 6.301614215460468e-01, 1.306930693069307e+00, 1.306930693069307e+00, 1.306930693069307e+00, 1.306930693069307e+00, 1.306930693069307e+00, 8.979038266483086e-01, 7.079141854056518e-01, 1.306930693069307e+00, 1.306930693069307e+00, 1.306930693069307e+00, 1.003689923654337e+00, 1.306930693069307e+00, 1.306930693069307e+00, 1.306930693069307e+00, 6.238876646642355e-01, 1.105253575764494e+00, 1.306930693069307e+00, 1.306930693069307e+00, 1.306930693069307e+00, 1.910348165599199e+00, 9.411955126369993e-01, 1.037511946015377e+00, 1.306930693069307e+00, 6.613617952192480e-01, 1.306930693069307e+00, 1.154397869447980e+00, 1.306930693069307e+00, 1.306930693069307e+00, 1.306930693069307e+00, 6.693815519286430e-01, 4.825474210589539e-01, 1.306930693069307e+00, 8.694300670411003e-01, 1.306930693069307e+00, 1.306930693069307e+00, 1.306930693069307e+00, 1.306930693069307e+00, 1.306930693069307e+00, 7.328680322142287e-01, 1.306930693069307e+00, 1.306930693069307e+00, 1.306930693069307e+00, 1.306930693069307e+00, 1.306930693069307e+00, 9.459669403171276e-01, 2.330079459429203e-01, 6.044550780563502e-01, 6.882273521048400e-01, 7.128772779743870e-01, 1.121743192069321e+00, 1.306930693069307e+00, 2.452267844243430e-01, 5.724938836642655e-01, 1.076575357949877e+00, 1.957913583052002e+00, 1.385762015394628e+00, 4.014302464527944e-01, 1.059532571215919e+00, 1.017031530043282e+00, 1.087608783841857e+00, 1.110459461934946e+00, 5.756660180222414e-01, 8.412096121901724e-01, 1.306930693069307e+00, 1.306930693069307e+00, 1.306930693069307e+00, 1.306930693069307e+00, 1.306930693069307e+00, 1.075556860773870e+00, 2.058708882752900e-01, 1.534193605098759e+00, 1.197385008311274e+00, 1.306930693069307e+00, 1.306930693069307e+00, 1.574792675281100e+00, 1.010258046010735e+00, 5.324374991443163e-01, 1.306930693069307e+00, 1.306930693069307e+00, 1.306930693069307e+00, 7.355143777445390e-01, 7.852926006904828e-01, 1.306930693069307e+00, 1.032164179349361e+00, 2.176625922350182e+00, 1.475961704627802e+00, 7.702458978321999e-01, 1.356831803745415e+00, 6.100668838445764e-01, -2.467610858065607e-01, 1.459257844580967e+00, 7.488408532833688e-01, 1.306930693069307e+00, 1.306930693069307e+00, 1.306930693069307e+00, 1.306930693069307e+00, 1.306930693069307e+00, 1.306930693069307e+00, 9.954834576209139e-01, 1.218567588808645e+00, -1.715372642541477e-01, 1.083597122341541e+00, 2.093945926665544e+00, 1.306930693069307e+00, -5.676666663462172e-01, 1.306930693069307e+00, 1.023902384380189e+00, 1.306930693069307e+00, 1.306930693069307e+00, 1.306930693069307e+00, 1.306930693069307e+00, 1.306930693069307e+00, 1.306930693069307e+00, 1.756621638867857e+00, 1.306930693069307e+00, 8.134495685699872e-01, 1.573285915566102e+00, 8.641707886687634e-01, 1.306930693069307e+00, 1.234509854600810e-01, 1.306930693069307e+00, 7.843840796225918e-01, 1.306930693069307e+00, 1.306930693069307e+00, 1.306930693069307e+00, 1.306930693069307e+00, 1.306930693069307e+00, 1.306930693069307e+00, 1.451186465962623e+00, 1.306930693069307e+00, 1.419854858954200e+00, 1.306930693069307e+00, 1.306930693069307e+00, 1.029626557681414e+00, -3.578768569278801e-01, 7.653394258851272e-01, 2.862665819036456e-02, 9.374591095170187e-01, 1.104701058392771e+00, 7.302120067599767e-01, 7.572397046760949e-01, 8.519925781194601e-01, 1.638218699842908e-01, 1.192580590165274e+00, 1.167101887266100e+00, 1.254881311373286e+00, 1.608145645653619e-01, 3.411439204693948e-01, 8.334644961683657e-02, 9.194209111762867e-01, 4.337147137242851e+00, 4.092727027753855e+00, 2.897705436641699e+00, 4.290958990684145e+00, 4.176242562388936e+00, 3.975000000000000e+00, 4.342625270511856e+00, 4.323112003932804e+00, 4.006418428460968e+00, 3.966922321518072e+00, 4.086893464301448e+00, 4.006618434541918e+00, 3.975000000000000e+00, 3.975000000000000e+00, 2.945840303583525e+00, 3.095812083953223e+00, 2.926845203823355e+00, 2.997249118757781e+00, 3.051172143784826e+00, 3.975000000000000e+00, 3.975000000000000e+00, 3.975000000000000e+00, 3.975000000000000e+00, 4.183341799590124e+00, 4.247156358861410e+00, 6.250609010197416e+00, 4.419665002119233e+00, 4.150055755938996e+00, 4.032601288983353e+00, 3.597276357673444e+00, 4.371561626914285e+00, 3.081136753734137e+00, 3.049959348812348e+00, 3.189358697310927e+00, 3.975000000000000e+00, 3.975000000000000e+00, 3.975000000000000e+00, 4.125403125170800e+00, 4.243174237979885e+00, 4.177882828750801e+00, 3.975000000000000e+00, 3.975000000000000e+00, 3.975000000000000e+00, 3.975000000000000e+00, 4.274235315335296e+00, 4.450985756479525e+00, 3.320924165870046e+00, 4.142915798888433e+00, 4.147826048656102e+00, 3.975000000000000e+00, 3.975000000000000e+00, 3.975000000000000e+00, 3.975000000000000e+00, 4.086170381391368e+00, 3.975000000000000e+00, 3.975000000000000e+00, 3.975000000000000e+00, 3.975000000000000e+00, 3.975000000000000e+00, 3.651107421081051e+00, 3.363455132396579e+00, 3.975000000000000e+00, 3.975000000000000e+00, 3.975000000000000e+00, 3.724828530157456e+00, 3.975000000000000e+00, 3.976170547328012e+00, 3.975000000000000e+00, 4.221054962338958e+00, 3.975000000000000e+00, 3.975000000000000e+00, 3.975000000000000e+00, 3.975000000000000e+00, 3.975000000000000e+00, 3.487795986571753e+00, 3.975000000000000e+00, 3.975000000000000e+00, 3.975000000000000e+00, 3.975000000000000e+00, 3.975000000000000e+00, 3.761470118756370e+00, 4.066198501956807e+00, 3.975000000000000e+00, 3.975000000000000e+00, 3.975000000000000e+00, 3.449791262040792e+00, 3.975000000000000e+00, 3.975000000000000e+00, 3.975000000000000e+00, 3.239416258159551e+00, 4.732053380882174e+00, 3.975000000000000e+00, 3.975000000000000e+00, 3.975000000000000e+00, 3.564725563354429e+00, 4.125032810171820e+00, 4.339154151670646e+00, 3.975000000000000e+00, 4.087696746390525e+00, 3.975000000000000e+00, 4.090193915906839e+00, 3.975000000000000e+00, 3.975000000000000e+00, 3.975000000000000e+00, 4.626125528393753e+00, 4.060829066151102e+00, 3.975000000000000e+00, 3.981538043697892e+00, 3.975000000000000e+00, 3.975000000000000e+00, 3.975000000000000e+00, 3.975000000000000e+00, 3.975000000000000e+00, 4.054245308199117e+00, 3.975000000000000e+00, 3.975000000000000e+00, 3.975000000000000e+00, 3.975000000000000e+00, 3.975000000000000e+00, 3.556282774634129e+00, 4.773396182979136e+00, 3.074616917472968e+00, 2.102305541463852e+00, 2.014805835532024e+00, 1.932194100493341e+00, 3.975000000000000e+00, 2.943055184170884e+00, 4.155862072805121e+00, 2.395608321702713e+00, 3.900213973824172e+00, 2.866503958192902e+00, 4.456063042036345e+00, 3.715436916868484e+00, 3.328774835198176e+00, 4.164401568757415e+00, 2.962741005726670e+00, 3.239366381367501e+00, 3.501569368206386e+00, 3.975000000000000e+00, 3.975000000000000e+00, 3.975000000000000e+00, 3.975000000000000e+00, 3.975000000000000e+00, 3.542452591011762e+00, 4.136814160539221e+00, 4.081015048838099e+00, 4.284125004024734e+00, 3.975000000000000e+00, 3.975000000000000e+00, 3.542244939222430e+00, 3.596678602113357e+00, 3.428483170246101e+00, 3.975000000000000e+00, 3.975000000000000e+00, 3.975000000000000e+00, 3.297254688362921e+00, 3.294949411984679e+00, 3.975000000000000e+00, 2.433636243863840e+00, 4.047870618292687e+00, 2.910240794952207e+00, 1.658702329653954e+00, 3.698862256561506e+00, 2.663380349292754e+00, 4.779052630005529e+00, 3.374671788044691e+00, 3.451869690745373e+00, 3.975000000000000e+00, 3.975000000000000e+00, 3.975000000000000e+00, 3.975000000000000e+00, 3.975000000000000e+00, 3.975000000000000e+00, 3.134158450983137e+00, 3.696555600659622e+00, 4.227700104553631e+00, 4.156966311708208e+00, 2.728873750734802e+00, 3.975000000000000e+00, 2.613788456988356e+00, 3.975000000000000e+00, 3.487340510400999e+00, 3.975000000000000e+00, 3.975000000000000e+00, 3.975000000000000e+00, 3.975000000000000e+00, 3.975000000000000e+00, 3.975000000000000e+00, 3.933469370977456e+00, 3.975000000000000e+00, 4.155045531233222e+00, 4.247571919697090e+00, 4.239889082079527e+00, 3.975000000000000e+00, 3.250066235940440e+00, 3.975000000000000e+00, 6.539632818158758e+00, 3.975000000000000e+00, 3.975000000000000e+00, 3.975000000000000e+00, 3.975000000000000e+00, 3.975000000000000e+00, 3.975000000000000e+00, 3.747015511896299e+00, 3.975000000000000e+00, 3.858578682171289e+00, 3.975000000000000e+00, 3.975000000000000e+00, 4.428603784169510e+00, 3.071886848107611e+00, 3.782429078176654e+00, 2.614998339061533e+00, 3.064226940984064e+00, 3.119785421696766e+00, 4.939966769322395e+00, 3.968028205516684e+00, 3.117045210802130e+00, 3.991771809166138e+00, 2.729738997105722e+00, 2.676055448515257e+00, 2.782005023434806e+00, 2.710045799866737e+00, 5.161226170634192e+00, 2.431935292495696e+00, 3.587806890248767e+00, 6.731310747674424e-01, 3.503056154456149e-01, 4.035194264244827e-01, 1.233830298881203e+00, 1.033992155829479e+00, 1.306930693069307e+00, 1.188345471388940e+00, 2.660692388692206e-01, -1.011936666376802e-01, 5.933648566047492e-01, 4.630678738253452e-01, 4.171664819337422e-01, 1.306930693069307e+00, 1.306930693069307e+00, 9.932781846649713e-01, -3.806276852505694e-01, -4.845130587871504e-02, 7.926749735276252e-01, 9.569681083478959e-01, 1.306930693069307e+00, 1.306930693069307e+00, 1.306930693069307e+00, 1.306930693069307e+00, -2.506616961099640e-01, -2.555637553805952e-01, -6.027369442594406e-02, -3.504357271754285e-01, 2.193343643072020e-03, 5.432914673034765e-02, 9.022217344139966e-01, 9.081946898985265e-01, 1.132879898071833e+00, 4.513821957550887e-01, 1.034832605705456e+00, 1.306930693069307e+00, 1.306930693069307e+00, 1.306930693069307e+00, 7.854614963474214e-01, 1.977890656447266e-01, 8.024519761234855e-01, 1.306930693069307e+00, 1.306930693069307e+00, 1.306930693069307e+00, 1.306930693069307e+00, 6.721885684499815e-01, 1.350980649425290e+00, 1.160033116127322e+00, 1.101192858841676e+00, 9.216472969244176e-01, 1.306930693069307e+00, 1.306930693069307e+00, 1.306930693069307e+00, 1.306930693069307e+00, -1.619331740180835e-01, 1.306930693069307e+00, 1.306930693069307e+00, 1.306930693069307e+00, 1.306930693069307e+00, 1.306930693069307e+00, 8.569535584663147e-01, -4.337547232819666e-01, 1.306930693069307e+00, 1.306930693069307e+00, 1.306930693069307e+00, 6.615277763159171e-01, 1.306930693069307e+00, 8.953770945976339e-01, 1.306930693069307e+00, -2.595998198863599e-01, 1.306930693069307e+00, 1.306930693069307e+00, 1.306930693069307e+00, 1.306930693069307e+00, 1.306930693069307e+00, 9.317370398001006e-01, 1.306930693069307e+00, 1.306930693069307e+00, 1.306930693069307e+00, 1.306930693069307e+00, 1.306930693069307e+00, 1.336988078454678e+00, 1.248707822267085e+00, 1.306930693069307e+00, 1.306930693069307e+00, 1.306930693069307e+00, 5.154214472784913e-01, 1.306930693069307e+00, 1.306930693069307e+00, 1.306930693069307e+00, 3.001778661545428e-01, 1.193452739380328e+00, 1.306930693069307e+00, 1.306930693069307e+00, 1.306930693069307e+00, 1.520644509623514e+00, 1.312288969304746e+00, 8.516592554993917e-01, 1.306930693069307e+00, 2.389479345062647e-01, 1.306930693069307e+00, 7.112542279726096e-01, 1.306930693069307e+00, 1.306930693069307e+00, 1.306930693069307e+00, 7.814880958031331e-01, 1.032031204658501e+00, 1.306930693069307e+00, 7.969492107653211e-01, 1.306930693069307e+00, 1.306930693069307e+00, 1.306930693069307e+00, 1.306930693069307e+00, 1.306930693069307e+00, 1.263320575024285e+00, 1.306930693069307e+00, 1.306930693069307e+00, 1.306930693069307e+00, 1.306930693069307e+00, 1.306930693069307e+00, 1.092985866004881e+00, 5.124741511994757e-01, 5.269667535624758e-01, 7.099342005514221e-01, 1.029410388081754e+00, 6.282740711904022e-01, 1.306930693069307e+00, 6.769335912520532e-01, 7.254441871947985e-01, 2.048482038595227e-01, 4.923048776578545e-01, 4.820567587704051e-01, 1.347883223124410e+00, 1.238564753930172e+00, 3.680458769454103e-01, 6.375812338634185e-01, 1.199334644520583e+00, 9.397624651395143e-01, 1.030380621802710e+00, 1.306930693069307e+00, 1.306930693069307e+00, 1.306930693069307e+00, 1.306930693069307e+00, 1.306930693069307e+00, 7.039055982715808e-01, 7.307901356459073e-01, 1.150911320332645e+00, 1.531687690459118e+00, 1.306930693069307e+00, 1.306930693069307e+00, 6.953511612457205e-01, 5.889651813867338e-01, 2.060103566633906e-01, 1.306930693069307e+00, 1.306930693069307e+00, 1.306930693069307e+00, 6.143954841011844e-01, 4.299663858381451e-01, 1.306930693069307e+00, -2.690096156818319e-02, 1.382632766021044e+00, 1.698873680867717e-01, 1.931133207220578e-01, 1.095365684541044e+00, 1.150647677113290e+00, 6.507789798840128e-01, 7.330687225216617e-02, 2.787816632809576e-01, 1.306930693069307e+00, 1.306930693069307e+00, 1.306930693069307e+00, 1.306930693069307e+00, 1.306930693069307e+00, 1.306930693069307e+00, 1.494919737232449e+00, 1.176355886123629e+00, 6.755961340922645e-01, 4.507569761027791e-01, 1.401041004020121e+00, 1.306930693069307e+00, 6.919289315357255e-01, 1.306930693069307e+00, 3.326600757940522e-01, 1.306930693069307e+00, 1.306930693069307e+00, 1.306930693069307e+00, 1.306930693069307e+00, 1.306930693069307e+00, 1.306930693069307e+00, 1.321832421654695e+00, 1.306930693069307e+00, 9.411609279219387e-01, 1.524956701308954e+00, 1.234913555230415e+00, 1.306930693069307e+00, 1.598113767382237e+00, 1.306930693069307e+00, 5.128413620285283e-01, 1.306930693069307e+00, 1.306930693069307e+00, 1.306930693069307e+00, 1.306930693069307e+00, 1.306930693069307e+00, 1.306930693069307e+00, 1.269838808168692e+00, 1.306930693069307e+00, 3.553827711557929e-01, 1.306930693069307e+00, 1.306930693069307e+00, 1.505006958954491e+00, 1.358970840201432e+00, 4.921265339340078e-01, 6.913331640205013e-01, 6.592092696207258e-01, 5.900921474835648e-01, 8.956840602012643e-01, 5.161060705560395e-01, 5.189750640049676e-01, 1.144560043820815e+00, 1.257873275735691e+00, 1.085496109709858e+00, 1.135637157568997e+00, 9.594430886907237e-01, 1.079426941697332e+00, 1.235718873660696e+00, 4.223484356538060e-01, 3.768556952461477e+00, 4.346880995398678e+00, 3.427042193023502e+00, 3.668915303346506e+00, 3.968266299404613e+00, 3.975000000000000e+00, 3.686999164252500e+00, 3.529060135649882e+00, 4.091841447854621e+00, 3.313312218084782e+00, 3.441254737626714e+00, 2.510949505270870e+00, 3.975000000000000e+00, 3.975000000000000e+00, 4.740494139398428e+00, 3.258531119247171e+00, 3.199236949924627e+00, 3.998843959933809e+00, 4.128170121426641e+00, 3.975000000000000e+00, 3.975000000000000e+00, 3.975000000000000e+00, 3.975000000000000e+00, 3.319392783808814e+00, 3.461601484421293e+00, 2.580072286845764e+00, 4.134988476422620e+00, 2.743962828820930e+00, 2.993199260154702e+00, 5.264921767216355e+00, 3.951582948045327e+00, 3.447290731472666e+00, 3.016884389751928e+00, 3.431220422614171e+00, 3.975000000000000e+00, 3.975000000000000e+00, 3.975000000000000e+00, 3.305685271838049e+00, 2.436137715720614e+00, 3.273932067132068e+00, 3.975000000000000e+00, 3.975000000000000e+00, 3.975000000000000e+00, 3.975000000000000e+00, 5.349880097173004e+00, 3.994566414113427e+00, 3.901389409507374e+00, 3.522715340853057e+00, 3.411428311660881e+00, 3.975000000000000e+00, 3.975000000000000e+00, 3.975000000000000e+00, 3.975000000000000e+00, 3.451028298095560e+00, 3.975000000000000e+00, 3.975000000000000e+00, 3.975000000000000e+00, 3.975000000000000e+00, 3.975000000000000e+00, 4.817198604217678e+00, 3.833296254126100e+00, 3.975000000000000e+00, 3.975000000000000e+00, 3.975000000000000e+00, 2.950954944066648e+00, 3.975000000000000e+00, 3.989914728354268e+00, 3.975000000000000e+00, 4.302632111601186e+00, 3.975000000000000e+00, 3.975000000000000e+00, 3.975000000000000e+00, 3.975000000000000e+00, 3.975000000000000e+00, 5.047427217233043e+00, 3.975000000000000e+00, 3.975000000000000e+00, 3.975000000000000e+00, 3.975000000000000e+00, 3.975000000000000e+00, 3.899572301944727e+00, 3.868996215370049e+00, 3.975000000000000e+00, 3.975000000000000e+00, 3.975000000000000e+00, 3.885773453026587e+00, 3.975000000000000e+00, 3.975000000000000e+00, 3.975000000000000e+00, 4.572883762421230e+00, 4.356013147552940e+00, 3.975000000000000e+00, 3.975000000000000e+00, 3.975000000000000e+00, 3.972076907623519e+00, 3.775900870575161e+00, 4.012279374274111e+00, 3.975000000000000e+00, 4.874355554496868e+00, 3.975000000000000e+00, 2.757923258262416e+00, 3.975000000000000e+00, 3.975000000000000e+00, 3.975000000000000e+00, 4.230565142520875e+00, 3.475097996678735e+00, 3.975000000000000e+00, 3.717383098002200e+00, 3.975000000000000e+00, 3.975000000000000e+00, 3.975000000000000e+00, 3.975000000000000e+00, 3.975000000000000e+00, 4.115287938825386e+00, 3.975000000000000e+00, 3.975000000000000e+00, 3.975000000000000e+00, 3.975000000000000e+00, 3.975000000000000e+00, 3.844180686175695e+00, 4.094486703390402e+00, 4.077959550736041e+00, 4.063638416649813e+00, 3.760619507486309e+00, 4.283429630996548e+00, 3.975000000000000e+00, 4.022108481237911e+00, 3.655310131752916e+00, 2.427880682721437e+00, 3.606868325124151e+00, 3.482074345736519e+00, 3.945229651383824e+00, 4.231920493157352e+00, 3.525968325111333e+00, 5.209489302307593e+00, 3.888320045608672e+00, 3.517521595388538e+00, 4.130784253214355e+00, 3.975000000000000e+00, 3.975000000000000e+00, 3.975000000000000e+00, 3.975000000000000e+00, 3.975000000000000e+00, 4.469921683243496e+00, 4.499958695977784e+00, 4.279089571126200e+00, 4.192421829362229e+00, 3.975000000000000e+00, 3.975000000000000e+00, 4.807000548249622e+00, 4.270383031129424e+00, 5.992965776117789e+00, 3.975000000000000e+00, 3.975000000000000e+00, 3.975000000000000e+00, 3.948269926711218e+00, 5.039636650632657e+00, 3.975000000000000e+00, 4.007211887785533e+00, 3.537055375864997e+00, 2.039013915612126e+00, 3.902487657163312e+00, 4.071916973343002e+00, 4.115211082751478e+00, 4.967331590401437e+00, 3.085833429645411e+00, 2.666145673931757e+00, 3.975000000000000e+00, 3.975000000000000e+00, 3.975000000000000e+00, 3.975000000000000e+00, 3.975000000000000e+00, 3.975000000000000e+00, 3.677313465668680e+00, 3.965997180812896e+00, 3.815726665211445e+00, 3.477070384068690e+00, 3.819634107376838e+00, 3.975000000000000e+00, 4.527481425936813e+00, 3.975000000000000e+00, 3.651405656629544e+00, 3.975000000000000e+00, 3.975000000000000e+00, 3.975000000000000e+00, 3.975000000000000e+00, 3.975000000000000e+00, 3.975000000000000e+00, 4.164049391221980e+00, 3.975000000000000e+00, 3.902475959969672e+00, 4.048071660479714e+00, 4.084477838390153e+00, 3.975000000000000e+00, 3.524869376257807e+00, 3.975000000000000e+00, 3.849917450179937e+00, 3.975000000000000e+00, 3.975000000000000e+00, 3.975000000000000e+00, 3.975000000000000e+00, 3.975000000000000e+00, 3.975000000000000e+00, 3.876945505002628e+00, 3.975000000000000e+00, 3.903098613559489e+00, 3.975000000000000e+00, 3.975000000000000e+00, 4.284481625093421e+00, 3.805441078558232e+00, 6.796453374523763e+00, 5.917102750593073e+00, 6.441331084049754e+00, 6.549811201340735e+00, 5.384893743786236e+00, 6.192742267600480e+00, 6.901025482629006e+00, 4.399859525591957e+00, 4.169177730217061e+00, 4.436238527012347e+00, 4.519077377671715e+00, 4.056959735445887e+00, 4.224655810800133e+00, 3.810618077121586e+00, -1.380549906565814e+00, -1.632305049234263e-04, 3.495400028281430e-01, 1.040916851380927e+00, 7.255680242218865e-01, 9.698307460352316e-01, 1.306930693069307e+00, 9.157803310428484e-01, 4.965963124754161e-01, 2.846860274818119e-01, 9.248788364544416e-01, -2.605708528095495e-01, 3.761754632834786e-01, 1.306930693069307e+00, 1.306930693069307e+00, 9.742303087978514e-01, 3.842639370753813e-01, -6.202245874942899e-01, 8.032038381409690e-01, 9.719647170278917e-01, 1.306930693069307e+00, 1.306930693069307e+00, 1.306930693069307e+00, 1.306930693069307e+00, 1.534429088838245e-01, 5.199609856563859e-01, 6.596899995785542e-01, 2.340913484865288e-01, 6.795687889535059e-01, 6.747450566058839e-01, 8.026180696676564e-01, -1.312407236328084e-03, 1.211432802762592e+00, 9.501938683767729e-01, 9.199669431064808e-01, 1.306930693069307e+00, 1.306930693069307e+00, 1.306930693069307e+00, 1.166924440283698e+00, 7.131360390635628e-03, 9.752925318343149e-01, 1.306930693069307e+00, 1.306930693069307e+00, 1.306930693069307e+00, 1.306930693069307e+00, 1.661464187905865e+00, 7.728896460083394e-01, 1.186594209683940e+00, 1.010668879356833e+00, 4.232436049916981e-01, 1.306930693069307e+00, 1.306930693069307e+00, 1.306930693069307e+00, 1.306930693069307e+00, 1.164064588011121e+00, 1.306930693069307e+00, 1.306930693069307e+00, 1.306930693069307e+00, 1.306930693069307e+00, 1.306930693069307e+00, 1.513005584809019e+00, 3.889306904575183e-01, 1.306930693069307e+00, 1.306930693069307e+00, 1.306930693069307e+00, 8.602842811373568e-01, 1.306930693069307e+00, 1.028497057782440e+00, 1.306930693069307e+00, 7.005054304233083e-01, 1.306930693069307e+00, 1.306930693069307e+00, 1.306930693069307e+00, 1.306930693069307e+00, 1.306930693069307e+00, 8.538348939892547e-01, 1.306930693069307e+00, 1.306930693069307e+00, 1.306930693069307e+00, 1.306930693069307e+00, 1.306930693069307e+00, 1.189338287556176e+00, 1.195947449577025e+00, 1.306930693069307e+00, 1.306930693069307e+00, 1.306930693069307e+00, 1.157931398886040e+00, 1.306930693069307e+00, 1.306930693069307e+00, 1.306930693069307e+00, 6.016041102506340e-01, 3.579211489319785e-01, 1.306930693069307e+00, 1.306930693069307e+00, 1.306930693069307e+00, 9.981584407331905e-01, 1.197981107733223e+00, 6.021498888035843e-01, 1.306930693069307e+00, 2.670697027218158e-01, 1.306930693069307e+00, 4.089367415744366e-01, 1.306930693069307e+00, 1.306930693069307e+00, 1.306930693069307e+00, 4.551183762899694e-01, 1.576972082272693e-01, 1.306930693069307e+00, 6.007673148185383e-01, 1.306930693069307e+00, 1.306930693069307e+00, 1.306930693069307e+00, 1.306930693069307e+00, 1.306930693069307e+00, 1.202415132991839e+00, 1.306930693069307e+00, 1.306930693069307e+00, 1.306930693069307e+00, 1.306930693069307e+00, 1.306930693069307e+00, 1.095068196467472e+00, 1.394860387627870e-01, 5.022107404212967e-01, -4.352631392666801e-01, -2.255027894653331e-01, -2.751101830626904e-01, 1.306930693069307e+00, 5.072780411559747e-01, 9.618334048328715e-01, 2.286505699505251e-01, 9.582555841426674e-01, 8.722999018827066e-01, 5.755635483662984e-01, 6.345474851935845e-01, 4.225725460019362e-01, 1.068552453647861e+00, 8.154831303657721e-01, -6.940275020527677e-02, 7.725113099298597e-01, 1.306930693069307e+00, 1.306930693069307e+00, 1.306930693069307e+00, 1.306930693069307e+00, 1.306930693069307e+00, 8.802970027361601e-01, 9.340806012308257e-01, 1.157439032861683e+00, 6.319342141227625e-01, 1.306930693069307e+00, 1.306930693069307e+00, 9.706984918401572e-01, 5.288989119515592e-01, 2.693182385089558e-01, 1.306930693069307e+00, 1.306930693069307e+00, 1.306930693069307e+00, 6.228378673102425e-01, 3.386917650690459e-01, 1.306930693069307e+00, 1.629962635835263e-01, 1.311647973682562e+00, 5.425653901907573e-01, 7.878631649565142e-01, 7.111950218319706e-01, 6.336780368028871e-01, 9.918256913001782e-01, 1.878259833542849e-01, 8.186666283381979e-01, 1.306930693069307e+00, 1.306930693069307e+00, 1.306930693069307e+00, 1.306930693069307e+00, 1.306930693069307e+00, 1.306930693069307e+00, 9.234695563049615e-01, 1.214320366268198e+00, 7.425227865024798e-01, 8.309157039620090e-01, 1.222591123148165e+00, 1.306930693069307e+00, 6.111820828823591e-01, 1.306930693069307e+00, 7.341152643220846e-01, 1.306930693069307e+00, 1.306930693069307e+00, 1.306930693069307e+00, 1.306930693069307e+00, 1.306930693069307e+00, 1.306930693069307e+00, 1.471684723013223e+00, 1.306930693069307e+00, 1.212245277496112e+00, 1.580885808589258e+00, 1.148600349377817e+00, 1.306930693069307e+00, 1.583060896930058e+00, 1.306930693069307e+00, 7.721014871589457e-01, 1.306930693069307e+00, 1.306930693069307e+00, 1.306930693069307e+00, 1.306930693069307e+00, 1.306930693069307e+00, 1.306930693069307e+00, 1.214076237042948e+00, 1.306930693069307e+00, 9.916257647673180e-01, 1.306930693069307e+00, 1.306930693069307e+00, 1.043040796743776e+00, 1.250945392103951e+00, 6.903183796332182e-01, 7.660820000575952e-01, 1.084680649843584e+00, 9.107505059097886e-01, 7.945341993412743e-01, 7.904275829747422e-01, 8.233737373760455e-01, -2.723830427522754e-01, 9.909793915406352e-01, 1.115159366989831e+00, 1.340687392837884e+00, 8.832861506198919e-01, 8.625270710096435e-01, 8.290460258930108e-01, 7.800706532958966e-01, 4.258273020717008e+00, 3.630784225384914e+00, 2.943581006318292e+00, 3.869999183253201e+00, 3.603337773662529e+00, 3.975000000000000e+00, 3.905144820240338e+00, 3.282926947988634e+00, 2.446736906922061e+00, 3.968684260704040e+00, 3.655919739873450e+00, 4.016188253971939e+00, 3.975000000000000e+00, 3.975000000000000e+00, 3.809613149834831e+00, 5.048140665377415e+00, 4.274802082000369e+00, 3.952053331312969e+00, 4.395681003270547e+00, 3.975000000000000e+00, 3.975000000000000e+00, 3.975000000000000e+00, 3.975000000000000e+00, 2.049520363514692e-01, 5.195646559820235e+00, 4.545952880889090e+00, 2.852173719502715e+00, 4.400539880658520e+00, 4.340092814210257e+00, 4.105314325346155e+00, 4.310881067224460e+00, 2.506483706549930e+00, 2.549395393749507e+00, 3.316425133843054e+00, 3.975000000000000e+00, 3.975000000000000e+00, 3.975000000000000e+00, 2.949301481051969e+00, 2.956650755938199e+00, 3.675072149171591e+00, 3.975000000000000e+00, 3.975000000000000e+00, 3.975000000000000e+00, 3.975000000000000e+00, 2.636848067299147e+00, 4.146357036864401e+00, 2.495551462434022e+00, 3.305517535524268e+00, 3.223403626774175e+00, 3.975000000000000e+00, 3.975000000000000e+00, 3.975000000000000e+00, 3.975000000000000e+00, 2.962374864179379e+00, 3.975000000000000e+00, 3.975000000000000e+00, 3.975000000000000e+00, 3.975000000000000e+00, 3.975000000000000e+00, 3.035009362973974e+00, 3.509587503708467e+00, 3.975000000000000e+00, 3.975000000000000e+00, 3.975000000000000e+00, 4.571714529000227e+00, 3.975000000000000e+00, 4.287085561617145e+00, 3.975000000000000e+00, 4.159993745984867e+00, 3.975000000000000e+00, 3.975000000000000e+00, 3.975000000000000e+00, 3.975000000000000e+00, 3.975000000000000e+00, 3.937275013903021e+00, 3.975000000000000e+00, 3.975000000000000e+00, 3.975000000000000e+00, 3.975000000000000e+00, 3.975000000000000e+00, 3.493043423188837e+00, 3.885515441772253e+00, 3.975000000000000e+00, 3.975000000000000e+00, 3.975000000000000e+00, 3.647444599086254e+00, 3.975000000000000e+00, 3.975000000000000e+00, 3.975000000000000e+00, 4.424624093301968e+00, 4.347173001933593e+00, 3.975000000000000e+00, 3.975000000000000e+00, 3.975000000000000e+00, 3.475835421951683e+00, 3.534761368165938e+00, 3.608467533105157e+00, 3.975000000000000e+00, 2.373746666729474e+00, 3.975000000000000e+00, 3.768500536060261e+00, 3.975000000000000e+00, 3.975000000000000e+00, 3.975000000000000e+00, 4.373517568461800e+00, 4.122639447287379e+00, 3.975000000000000e+00, 3.723483522061401e+00, 3.975000000000000e+00, 3.975000000000000e+00, 3.975000000000000e+00, 3.975000000000000e+00, 3.975000000000000e+00, 4.067045914055179e+00, 3.975000000000000e+00, 3.975000000000000e+00, 3.975000000000000e+00, 3.975000000000000e+00, 3.975000000000000e+00, 3.073070852717207e+00, 5.250134165835769e+00, 4.658577599894539e+00, 4.126322397662996e+00, 4.772833528379579e+00, 4.262841558851141e+00, 3.975000000000000e+00, 4.847129086232365e+00, 3.764766764794917e+00, 2.664642564035781e+00, 3.836123719788154e+00, 3.811106499934292e+00, 2.140664078851280e+00, 3.617308176469646e+00, 2.268663214541565e+00, 2.947746483304286e+00, 4.172371608613290e+00, 4.047816603279978e+00, 4.151870634701432e+00, 3.975000000000000e+00, 3.975000000000000e+00, 3.975000000000000e+00, 3.975000000000000e+00, 3.975000000000000e+00, 4.225442679300506e+00, 4.281962238685540e+00, 4.311291973250324e+00, 3.015378677187731e+00, 3.975000000000000e+00, 3.975000000000000e+00, 3.301003918926988e+00, 4.833569213540280e+00, 6.469897815094614e+00, 3.975000000000000e+00, 3.975000000000000e+00, 3.975000000000000e+00, 4.592013264827707e+00, 5.858432391328969e+00, 3.975000000000000e+00, 1.897399748033060e+00, 4.045754205070703e+00, 3.979099509122380e+00, 2.241513621554283e+00, 3.519391943863401e+00, 2.806579454327795e+00, 3.010795883029320e+00, 3.877087361337751e+00, 3.411996110804608e+00, 3.975000000000000e+00, 3.975000000000000e+00, 3.975000000000000e+00, 3.975000000000000e+00, 3.975000000000000e+00, 3.975000000000000e+00, 3.748608124131576e+00, 4.214195812059587e+00, 3.862981554883209e+00, 3.731371632552140e+00, 4.395151730296800e+00, 3.975000000000000e+00, 4.134251443831884e+00, 3.975000000000000e+00, 3.635025655204923e+00, 3.975000000000000e+00, 3.975000000000000e+00, 3.975000000000000e+00, 3.975000000000000e+00, 3.975000000000000e+00, 3.975000000000000e+00, 3.811636664381417e+00, 3.975000000000000e+00, 3.943424576579571e+00, 3.491682754014053e+00, 3.605863847355682e+00, 3.975000000000000e+00, 2.765533994356493e+00, 3.975000000000000e+00, 4.285959957495925e+00, 3.975000000000000e+00, 3.975000000000000e+00, 3.975000000000000e+00, 3.975000000000000e+00, 3.975000000000000e+00, 3.975000000000000e+00, 3.663374963156235e+00, 3.975000000000000e+00, 4.097098219788423e+00, 3.975000000000000e+00, 3.975000000000000e+00, 3.431395141435239e+00, 2.902427856841540e+00, 3.646700742751799e+00, 3.573358180912535e+00, 3.203095962183919e+00, 3.483810472604043e+00, 3.433585654310182e+00, 3.331317742344807e+00, 3.325696389029764e+00, 3.762827557220419e+00, 2.844966702755563e+00, 2.759523707866234e+00, 2.545220090126568e+00, 2.757609315149997e+00, 2.882870350102544e+00, 2.807941237596382e+00, 3.725361539876748e+00, 4.943321512501272e-01, 1.161460506260284e+00, 1.271593450709137e+00, 1.257495224004400e+00, 1.074462080094091e+00, 1.306930693069307e+00, 7.876744045058990e-01, 1.314187473392837e+00, 7.649609117616329e-01, 1.152343417811216e+00, 1.068219129372320e+00, 6.751209103051839e-03, 1.306930693069307e+00, 1.306930693069307e+00, 2.068659195281779e+00, 2.909471813904858e-01, -7.491956250505197e-02, 8.539871116265260e-01, 1.094090967050166e+00, 1.306930693069307e+00, 1.306930693069307e+00, 1.306930693069307e+00, 1.306930693069307e+00, 5.594422466505012e-01, 8.714396578861550e-01, 4.080797963158727e-01, 2.279081165631321e-01, 3.073789835739598e-01, 9.121722775594031e-01, 1.153216752472777e+00, 1.276466652736156e+00, 1.364653523530429e+00, 8.286841382784081e-01, 1.431450961941929e+00, 1.306930693069307e+00, 1.306930693069307e+00, 1.306930693069307e+00, 1.554388092709105e+00, 9.850567346497107e-01, 1.446255207239313e+00, 1.306930693069307e+00, 1.306930693069307e+00, 1.306930693069307e+00, 1.306930693069307e+00, 1.017666293540454e+00, 1.587977930518487e+00, 1.580564278613636e+00, 1.316367839285919e+00, 1.304029582541418e+00, 1.306930693069307e+00, 1.306930693069307e+00, 1.306930693069307e+00, 1.306930693069307e+00, 5.781260638950506e-01, 1.306930693069307e+00, 1.306930693069307e+00, 1.306930693069307e+00, 1.306930693069307e+00, 1.306930693069307e+00, 2.176127260929104e+00, 1.633810502932034e+00, 1.306930693069307e+00, 1.306930693069307e+00, 1.306930693069307e+00, 5.888102854169418e-01, 1.306930693069307e+00, -3.781348785091442e-02, 1.306930693069307e+00, 7.328225525347886e-01, 1.306930693069307e+00, 1.306930693069307e+00, 1.306930693069307e+00, 1.306930693069307e+00, 1.306930693069307e+00, 1.913935123704314e+00, 1.306930693069307e+00, 1.306930693069307e+00, 1.306930693069307e+00, 1.306930693069307e+00, 1.306930693069307e+00, 1.595094736021297e+00, 1.179432169674913e+00, 1.306930693069307e+00, 1.306930693069307e+00, 1.306930693069307e+00, 1.196367006613635e+00, 1.306930693069307e+00, 1.306930693069307e+00, 1.306930693069307e+00, 7.562176926199699e-02, 2.162230169522608e+00, 1.306930693069307e+00, 1.306930693069307e+00, 1.306930693069307e+00, 2.062123239125071e+00, 1.790441878508779e+00, 1.616931467842021e+00, 1.306930693069307e+00, 6.932890430631765e-01, 1.306930693069307e+00, 4.565441183358693e-01, 1.306930693069307e+00, 1.306930693069307e+00, 1.306930693069307e+00, 6.723630827606990e-01, 8.203219811454282e-01, 1.306930693069307e+00, 8.339447810735202e-01, 1.306930693069307e+00, 1.306930693069307e+00, 1.306930693069307e+00, 1.306930693069307e+00, 1.306930693069307e+00, 6.838029180899561e-01, 1.306930693069307e+00, 1.306930693069307e+00, 1.306930693069307e+00, 1.306930693069307e+00, 1.306930693069307e+00, 5.267452843094066e-01, 1.885476811952756e-02, 3.950957451966666e-01, 7.348750806854673e-01, 8.111110574951199e-01, 7.616233757747242e-01, 1.306930693069307e+00, 8.964422072101640e-01, 9.226729463663739e-01, 5.853066000831768e-01, 5.736830127980326e-01, 5.714929617988542e-01, 7.544598448035842e-01, 6.674963759247532e-01, 6.192690610581530e-01, 1.268420448363600e+00, 1.017598022734501e+00, 8.822402605212647e-01, 1.210991305645863e+00, 1.306930693069307e+00, 1.306930693069307e+00, 1.306930693069307e+00, 1.306930693069307e+00, 1.306930693069307e+00, 8.319393022632759e-01, 7.454586106003311e-01, 1.026268966614096e+00, 1.361774980341981e+00, 1.306930693069307e+00, 1.306930693069307e+00, 9.020231835236122e-01, 1.070457678283923e-01, 1.719920938555848e-01, 1.306930693069307e+00, 1.306930693069307e+00, 1.306930693069307e+00, 3.688964725274549e-01, -1.710610228582851e-02, 1.306930693069307e+00, 5.086202796127099e-01, 3.378228235620437e-01, 7.106749960247253e-01, 1.056556047130301e+00, 6.620314444150217e-01, 6.159680791186279e-01, 1.309685358479383e+00, 1.497776292446209e+00, 1.654727046586092e+00, 1.306930693069307e+00, 1.306930693069307e+00, 1.306930693069307e+00, 1.306930693069307e+00, 1.306930693069307e+00, 1.306930693069307e+00, 8.786136228352888e-01, 1.278730979792452e+00, -2.046943755700407e-01, 1.197741412496868e+00, 1.245664928528286e+00, 1.306930693069307e+00, 1.997105152703287e+00, 1.306930693069307e+00, 1.322796322790623e+00, 1.306930693069307e+00, 1.306930693069307e+00, 1.306930693069307e+00, 1.306930693069307e+00, 1.306930693069307e+00, 1.306930693069307e+00, 1.135552540129161e+00, 1.306930693069307e+00, 1.476784539969069e+00, 1.199451137413789e+00, 1.335343119589706e+00, 1.306930693069307e+00, 1.392675289746245e+00, 1.306930693069307e+00, 9.729310124566626e-01, 1.306930693069307e+00, 1.306930693069307e+00, 1.306930693069307e+00, 1.306930693069307e+00, 1.306930693069307e+00, 1.306930693069307e+00, 1.526199315154390e+00, 1.306930693069307e+00, 2.399424599069324e+00, 1.306930693069307e+00, 1.306930693069307e+00, 1.564801635504177e+00, 5.539954961945445e-01, 1.583253141821662e+00, 1.217761470416989e+00, 1.581889025827590e+00, 1.606270202744121e+00, 2.177257397651790e+00, 1.817133273420061e+00, 1.147106448129413e+00, 2.516136447194217e+00, 2.810136927996626e+00, 2.593439668244686e+00, 2.902973446655822e+00, 1.980585624655820e+00, 1.905850622634140e+00, 1.392484843809537e+00, 2.886694585634498e-01, 2.616844845616420e+00, 4.895318188491418e+00, 5.335219942529667e+00, 4.481849125313261e+00, 4.009126493187554e+00, 3.975000000000000e+00, 2.953496414013332e+00, 4.634865764203549e+00, 5.217633326641459e+00, 4.079408861603821e+00, 5.152106980765111e+00, 4.095736844093815e+00, 3.975000000000000e+00, 3.975000000000000e+00, 2.769625522903918e+00, 3.127594002750628e+00, 4.884451076227251e+00, 4.072146678789857e+00, 4.180511116398633e+00, 3.975000000000000e+00, 3.975000000000000e+00, 3.975000000000000e+00, 3.975000000000000e+00, 5.696669695319371e+00, 5.177325804552236e+00, 6.539103128672154e+00, 5.184621778825725e+00, 4.315044606341925e+00, 5.052287123309084e+00, 2.298863793819980e+00, 3.033731173441211e+00, 3.686792159097779e+00, 4.001776003189360e+00, 3.603477476893798e+00, 3.975000000000000e+00, 3.975000000000000e+00, 3.975000000000000e+00, 3.449745502895055e+00, 3.611382088722296e+00, 3.474443290213325e+00, 3.975000000000000e+00, 3.975000000000000e+00, 3.975000000000000e+00, 3.975000000000000e+00, 2.029068212993102e+00, 3.598728362782650e+00, 3.936443957102290e+00, 4.048001348558745e+00, 3.886094283476122e+00, 3.975000000000000e+00, 3.975000000000000e+00, 3.975000000000000e+00, 3.975000000000000e+00, 3.676685271253813e+00, 3.975000000000000e+00, 3.975000000000000e+00, 3.975000000000000e+00, 3.975000000000000e+00, 3.975000000000000e+00, 2.334665492596916e+00, 5.408045410060890e+00, 3.975000000000000e+00, 3.975000000000000e+00, 3.975000000000000e+00, 5.626173642581337e+00, 3.975000000000000e+00, 3.903438137626725e+00, 3.975000000000000e+00, 4.591500750401685e+00, 3.975000000000000e+00, 3.975000000000000e+00, 3.975000000000000e+00, 3.975000000000000e+00, 3.975000000000000e+00, 2.359785848051396e+00, 3.975000000000000e+00, 3.975000000000000e+00, 3.975000000000000e+00, 3.975000000000000e+00, 3.975000000000000e+00, 3.541084784549321e+00, 3.680696257083497e+00, 3.975000000000000e+00, 3.975000000000000e+00, 3.975000000000000e+00, 4.680757290799047e+00, 3.975000000000000e+00, 3.975000000000000e+00, 3.975000000000000e+00, 3.127142995262683e+00, 3.644871483960944e+00, 3.975000000000000e+00, 3.975000000000000e+00, 3.975000000000000e+00, 3.676092098186483e+00, 3.439136680700553e+00, 3.649798056929082e+00, 3.975000000000000e+00, 3.274224376262948e+00, 3.975000000000000e+00, 2.804674725360955e+00, 3.975000000000000e+00, 3.975000000000000e+00, 3.975000000000000e+00, 4.752575044231560e+00, 4.367941545205306e+00, 3.975000000000000e+00, 3.781988076577571e+00, 3.975000000000000e+00, 3.975000000000000e+00, 3.975000000000000e+00, 3.975000000000000e+00, 3.975000000000000e+00, 4.065452623002591e+00, 3.975000000000000e+00, 3.975000000000000e+00, 3.975000000000000e+00, 3.975000000000000e+00, 3.975000000000000e+00, 3.454974616964941e+00, 3.987901942768843e+00, 5.793811307158265e+00, 4.545122363302493e+00, 3.916885295631390e+00, 4.666562882113142e+00, 3.975000000000000e+00, 3.247496173650334e+00, 3.927164783953469e+00, 4.052102060337973e+00, 3.747228460959598e+00, 4.176466197761979e+00, 3.440720183408537e+00, 3.376158680653526e+00, 3.373755006312765e+00, 2.561620668858662e+00, 4.159068340530845e+00, 4.855122633792964e+00, 4.089306531954079e+00, 3.975000000000000e+00, 3.975000000000000e+00, 3.975000000000000e+00, 3.975000000000000e+00, 3.975000000000000e+00, 3.549161160396097e+00, 3.240778177819435e+00, 3.754976381881901e+00, 3.706971934333650e+00, 3.975000000000000e+00, 3.975000000000000e+00, 2.657675882067098e+00, 4.975520180071912e+00, 6.424370545578446e+00, 3.975000000000000e+00, 3.975000000000000e+00, 3.975000000000000e+00, 3.426646432874098e+00, 4.168119216665477e+00, 3.975000000000000e+00, 3.774345903513561e+00, 3.882618528105276e+00, 4.210814410866560e+00, 3.798661392414068e+00, 3.914568156581983e+00, 3.634475557938416e+00, 2.491073672894190e+00, 2.523153452637413e+00, 2.418895172983952e+00, 3.975000000000000e+00, 3.975000000000000e+00, 3.975000000000000e+00, 3.975000000000000e+00, 3.975000000000000e+00, 3.975000000000000e+00, 4.397124643184858e+00, 3.666201946440047e+00, 3.958288947276782e+00, 3.574723773339402e+00, 3.698158504935688e+00, 3.975000000000000e+00, 4.351542745483918e+00, 3.975000000000000e+00, 3.519130708114398e+00, 3.975000000000000e+00, 3.975000000000000e+00, 3.975000000000000e+00, 3.975000000000000e+00, 3.975000000000000e+00, 3.975000000000000e+00, 3.976527723328802e+00, 3.975000000000000e+00, 3.360945091926067e+00, 4.086000427612998e+00, 3.778561962310675e+00, 3.975000000000000e+00, 4.413551816079795e+00, 3.975000000000000e+00, 2.102920176832199e+00, 3.975000000000000e+00, 3.975000000000000e+00, 3.975000000000000e+00, 3.975000000000000e+00, 3.975000000000000e+00, 3.975000000000000e+00, 3.507831575966192e+00, 3.975000000000000e+00, 3.812797817487983e+00, 3.975000000000000e+00, 3.975000000000000e+00, 3.337724656243050e+00, 4.002904819272120e+00, 3.718184559496255e+00, 3.557220413939368e+00, 3.590767414528338e+00, 3.707373937837064e+00, 3.255997728745854e+00, 3.422388437729337e+00, 3.492317290295948e+00, 2.937372483430090e+00, 2.800120870395657e+00, 2.973211101040368e+00, 2.847689059236592e+00, 2.647552240927201e+00, 2.895602428918466e+00, 2.406841821783573e+00, 8.274003389171234e+00, 1.286196807693910e+00, 1.609568745005891e+00, 1.495378823638835e+00, 1.361569209068236e+00, 1.118229580617542e+00, 1.306930693069307e+00, 1.171802750311939e+00, 1.311367153623032e+00, 1.277219482913138e+00, 7.543205489275964e-01, 6.974485214891273e-01, 1.105597759346110e+00, 1.306930693069307e+00, 1.306930693069307e+00, 1.633526201432822e+00, 8.147675437866361e-01, 1.290387956065736e+00, 8.477533286297233e-01, 5.363002583906095e-01, 1.306930693069307e+00, 1.306930693069307e+00, 1.306930693069307e+00, 1.306930693069307e+00, 1.345820319499651e+00, 1.372955268057257e+00, 1.404860547761803e+00, -2.809876389541242e-01, 1.275014660266053e+00, 7.038613139352308e-01, 3.735972621116875e-01, 6.860051269283201e-01, 1.573334691098111e+00, 1.577814875184553e+00, 1.423827912352254e+00, 1.306930693069307e+00, 1.306930693069307e+00, 1.306930693069307e+00, 1.249315255168514e+00, 1.258248660130197e+00, 1.322296293678744e+00, 1.306930693069307e+00, 1.306930693069307e+00, 1.306930693069307e+00, 1.306930693069307e+00, 4.937983536356557e-01, 1.088895477445416e+00, 1.221984070265175e+00, 1.599466697710924e+00, 1.273147020663705e+00, 1.306930693069307e+00, 1.306930693069307e+00, 1.306930693069307e+00, 1.306930693069307e+00, 9.071119062434986e-01, 1.306930693069307e+00, 1.306930693069307e+00, 1.306930693069307e+00, 1.306930693069307e+00, 1.306930693069307e+00, 6.924696398928151e-01, 1.273698521356758e+00, 1.306930693069307e+00, 1.306930693069307e+00, 1.306930693069307e+00, 1.024440537806013e+00, 1.306930693069307e+00, 1.076947174797452e+00, 1.306930693069307e+00, 4.560821497652398e-01, 1.306930693069307e+00, 1.306930693069307e+00, 1.306930693069307e+00, 1.306930693069307e+00, 1.306930693069307e+00, 5.949239086144255e-01, 1.306930693069307e+00, 1.306930693069307e+00, 1.306930693069307e+00, 1.306930693069307e+00, 1.306930693069307e+00, 1.015410623272733e+00, 1.095280286871405e+00, 1.306930693069307e+00, 1.306930693069307e+00, 1.306930693069307e+00, 8.797228968506142e-01, 1.306930693069307e+00, 1.306930693069307e+00, 1.306930693069307e+00, 1.599380669932426e+00, 1.440419895236745e+00, 1.306930693069307e+00, 1.306930693069307e+00, 1.306930693069307e+00, 8.403457897062078e-01, 1.226954867341564e+00, 9.696435888081137e-01, 1.306930693069307e+00, 1.612319714419475e+00, 1.306930693069307e+00, 1.476007682631127e+00, 1.306930693069307e+00, 1.306930693069307e+00, 1.306930693069307e+00, 4.805237778264567e-01, 1.351916069771895e+00, 1.306930693069307e+00, 9.633943242151223e-01, 1.306930693069307e+00, 1.306930693069307e+00, 1.306930693069307e+00, 1.306930693069307e+00, 1.306930693069307e+00, 1.529034928455818e+00, 1.306930693069307e+00, 1.306930693069307e+00, 1.306930693069307e+00, 1.306930693069307e+00, 1.306930693069307e+00, 8.234362381570232e-01, 6.265670474934592e-01, 6.074715104950683e-01, 1.306457397938664e+00, 1.416518083324386e+00, 1.397476631524595e+00, 1.306930693069307e+00, 7.786405534836160e-01, 1.843302164206660e+00, 8.293428149859755e-01, 1.629530119707296e+00, 4.895783612050301e-01, 1.427381347943739e+00, 1.548429594178912e+00, 1.019205096071432e+00, 2.378129190273432e+00, 1.341798545494043e+00, 7.583083862341795e-01, 1.083944082444887e+00, 1.306930693069307e+00, 1.306930693069307e+00, 1.306930693069307e+00, 1.306930693069307e+00, 1.306930693069307e+00, 1.156572558403508e+00, 1.323398295176010e+00, 1.526848149055474e+00, 7.863195187046186e-01, 1.306930693069307e+00, 1.306930693069307e+00, 8.644670965226571e-01, 1.609122031305791e+00, 3.790061642439846e-01, 1.306930693069307e+00, 1.306930693069307e+00, 1.306930693069307e+00, 9.277312229433432e-01, 6.253033596765046e-01, 1.306930693069307e+00, 8.058301888087006e-01, 1.166613339825135e+00, 7.157772777318819e-01, 8.974757485303114e-01, 1.027909050113907e+00, 1.189593720428316e+00, 5.370480426593892e-01, 1.165325025990559e+00, 1.611930747659717e+00, 1.306930693069307e+00, 1.306930693069307e+00, 1.306930693069307e+00, 1.306930693069307e+00, 1.306930693069307e+00, 1.306930693069307e+00, 1.289446950451944e+00, 1.010717096001123e+00, 1.475611685367483e+00, 6.886010763263435e-01, 1.412843632174163e+00, 1.306930693069307e+00, 4.628645443107212e-01, 1.306930693069307e+00, 8.772706742887657e-01, 1.306930693069307e+00, 1.306930693069307e+00, 1.306930693069307e+00, 1.306930693069307e+00, 1.306930693069307e+00, 1.306930693069307e+00, 1.175246311830241e+00, 1.306930693069307e+00, 1.101775782772547e+00, 1.341879367468273e+00, 1.367833676832356e+00, 1.306930693069307e+00, 5.530456900027830e-01, 1.306930693069307e+00, 2.681387439564691e-01, 1.306930693069307e+00, 1.306930693069307e+00, 1.306930693069307e+00, 1.306930693069307e+00, 1.306930693069307e+00, 1.306930693069307e+00, 1.491603332833698e+00, 1.306930693069307e+00, 1.352246980345076e+00, 1.306930693069307e+00, 1.306930693069307e+00, 1.147970930463959e+00, 5.885660253868938e-01, 6.092940672075068e-01, 8.713404318185884e-01, 6.772533874268505e-01, 6.419669072546140e-01, 9.810433971212159e-01, 5.062710224040322e-01, 5.270965567318994e-01, 8.853701790448406e-01, 9.724172192380843e-01, 9.079015641394109e-01, 9.964625558076610e-01, 6.136154174055063e-01, 7.470558818547754e-01, 7.869050064576191e-01, 1.273182184635764e+00, 4.117896033096639e+00, 3.902850556622080e+00, 3.962037596774870e+00, 3.722331300721638e+00, 3.174314640851770e+00, 3.975000000000000e+00, 2.793985785610029e+00, 2.064053181507588e+00, 3.606295035410951e+00, 3.183052194986580e+00, 3.677139749854776e+00, 3.807031753260873e+00, 3.975000000000000e+00, 3.975000000000000e+00, 2.961014143624994e+00, 3.938682014228165e+00, 3.720949521615464e+00, 4.132728120404667e+00, 4.069331468761614e+00, 3.975000000000000e+00, 3.975000000000000e+00, 3.975000000000000e+00, 3.975000000000000e+00, 3.472561716024918e+00, 3.559229077988854e+00, 3.494793582399613e+00, 4.535538633784813e+00, 3.396002615756103e+00, 4.263528227714733e+00, 5.514896840711161e+00, 3.332513505650610e+00, 3.198241215027824e+00, 3.680062318509215e+00, 3.883632997145220e+00, 3.975000000000000e+00, 3.975000000000000e+00, 3.975000000000000e+00, 3.521832641366445e+00, 3.196422693372380e+00, 3.282807920404954e+00, 3.975000000000000e+00, 3.975000000000000e+00, 3.975000000000000e+00, 3.975000000000000e+00, 4.788657526837103e+00, 4.340708630960183e+00, 3.530458854381291e+00, 3.705721549929207e+00, 3.925470876900519e+00, 3.975000000000000e+00, 3.975000000000000e+00, 3.975000000000000e+00, 3.975000000000000e+00, 3.686519891169902e+00, 3.975000000000000e+00, 3.975000000000000e+00, 3.975000000000000e+00, 3.975000000000000e+00, 3.975000000000000e+00, 4.177112037136321e+00, 4.188317778603349e+00, 3.975000000000000e+00, 3.975000000000000e+00, 3.975000000000000e+00, 3.635314798470469e+00, 3.975000000000000e+00, 3.827608906496890e+00, 3.975000000000000e+00, 1.848253625368111e+00, 3.975000000000000e+00, 3.975000000000000e+00, 3.975000000000000e+00, 3.975000000000000e+00, 3.975000000000000e+00, 3.771693349357102e+00, 3.975000000000000e+00, 3.975000000000000e+00, 3.975000000000000e+00, 3.975000000000000e+00, 3.975000000000000e+00, 3.691872573760130e+00, 3.709033378412264e+00, 3.975000000000000e+00, 3.975000000000000e+00, 3.975000000000000e+00, 3.107201611426977e+00, 3.975000000000000e+00, 3.975000000000000e+00, 3.975000000000000e+00, 2.833386540062038e+00, 3.753888122177173e+00, 3.975000000000000e+00, 3.975000000000000e+00, 3.975000000000000e+00, 3.998867851514639e+00, 3.431304657251349e+00, 3.691128425098422e+00, 3.975000000000000e+00, 3.001750831481653e+00, 3.975000000000000e+00, 3.291616706328141e+00, 3.975000000000000e+00, 3.975000000000000e+00, 3.975000000000000e+00, 5.444261453607204e+00, 3.729568139082744e+00, 3.975000000000000e+00, 3.985633101733228e+00, 3.975000000000000e+00, 3.975000000000000e+00, 3.975000000000000e+00, 3.975000000000000e+00, 3.975000000000000e+00, 2.992098974692972e+00, 3.975000000000000e+00, 3.975000000000000e+00, 3.975000000000000e+00, 3.975000000000000e+00, 3.975000000000000e+00, 3.213097473853264e+00, 4.664862932687432e+00, 2.615175448628651e+00, 3.644364148887161e+00, 3.667183629616943e+00, 3.587892257880184e+00, 3.975000000000000e+00, 4.169892808018950e+00, 3.558885453685442e+00, 3.373259821481709e+00, 3.399509186697425e+00, 3.722223192895191e+00, 3.202424237394944e+00, 3.010694311453666e+00, 2.919926140823342e+00, 1.783557340395194e+00, 3.884642227688035e+00, 3.094195272923763e+00, 3.841159082323650e+00, 3.975000000000000e+00, 3.975000000000000e+00, 3.975000000000000e+00, 3.975000000000000e+00, 3.975000000000000e+00, 3.808593352945216e+00, 3.569800422557492e+00, 3.533781665938337e+00, 3.565493991261583e+00, 3.975000000000000e+00, 3.975000000000000e+00, 1.684168674625812e+00, 3.589713502720359e+00, 2.568733239386329e+00, 3.975000000000000e+00, 3.975000000000000e+00, 3.975000000000000e+00, 3.696175600692329e+00, 3.861669043900769e+00, 3.975000000000000e+00, 3.458580917468030e+00, 3.890303903668108e+00, 3.540193283374354e+00, 3.022109867071265e+00, 3.669736847141071e+00, 3.676055322866386e+00, 3.699957871837801e+00, 3.629063788775393e+00, 3.586848219343433e+00, 3.975000000000000e+00, 3.975000000000000e+00, 3.975000000000000e+00, 3.975000000000000e+00, 3.975000000000000e+00, 3.975000000000000e+00, 3.556390285317983e+00, 4.041533764195988e+00, 3.762331185066269e+00, 4.224192172760598e+00, 3.752251754031271e+00, 3.975000000000000e+00, 4.341381676206903e+00, 3.975000000000000e+00, 4.086092575840144e+00, 3.975000000000000e+00, 3.975000000000000e+00, 3.975000000000000e+00, 3.975000000000000e+00, 3.975000000000000e+00, 3.975000000000000e+00, 4.019266212918952e+00, 3.975000000000000e+00, 3.845650911159375e+00, 4.609998318540402e+00, 4.079790136007413e+00, 3.975000000000000e+00, 4.201714351321407e+00, 3.975000000000000e+00, 4.468334849622265e+00, 3.975000000000000e+00, 3.975000000000000e+00, 3.975000000000000e+00, 3.975000000000000e+00, 3.975000000000000e+00, 3.975000000000000e+00, 4.086886953748225e+00, 3.975000000000000e+00, 4.205076903580983e+00, 3.975000000000000e+00, 3.975000000000000e+00, 3.767371189860885e+00, 3.907144722683460e+00, 5.144605831256563e+00, 4.424199935089285e+00, 4.885787641779698e+00, 5.026954299583097e+00, 4.474273172883040e+00, 5.122709948722494e+00, 4.965065995159479e+00, 3.957961893283985e+00, 3.783336042179671e+00, 3.932334524866208e+00, 3.871780866415485e+00, 4.317568637632842e+00, 4.325411131232702e+00, 3.926354468824681e+00, 2.735561962962959e+00, 6.812405116757853e-01, 5.928355483218073e-01, 1.236182893949082e+00, 1.145750418329696e+00, 1.129187142259772e+00, 1.306930693069307e+00, 1.032266023064627e+00, 1.333871949495835e+00, 9.836583345910722e-01, 1.296405730255248e+00, 8.088926908895765e-01, 1.008213066567793e+00, 1.306930693069307e+00, 1.306930693069307e+00, 3.325148255771060e-01, 1.059983734735946e+00, 7.416115752084712e-01, 1.162501493015299e+00, 1.222577640937961e+00, 1.306930693069307e+00, 1.306930693069307e+00, 1.306930693069307e+00, 1.306930693069307e+00, 9.115673096870539e-01, 8.443091934378589e-01, 6.641950028750743e-01, 1.052244225741965e+00, 8.700797123956422e-01, 8.338989184183812e-01, 8.150137250932038e-01, 6.771536315744806e-01, 9.720054126313187e-01, 1.181993203171629e+00, 1.143340169149828e+00, 1.306930693069307e+00, 1.306930693069307e+00, 1.306930693069307e+00, 7.806540181537051e-01, 4.021742442255642e-01, 8.782804090903552e-01, 1.306930693069307e+00, 1.306930693069307e+00, 1.306930693069307e+00, 1.306930693069307e+00, 9.250910660584590e-01, 1.009794654198744e+00, 1.098212242022762e+00, 9.859642756750914e-01, 9.402419051089949e-01, 1.306930693069307e+00, 1.306930693069307e+00, 1.306930693069307e+00, 1.306930693069307e+00, 6.180619248484350e-01, 1.306930693069307e+00, 1.306930693069307e+00, 1.306930693069307e+00, 1.306930693069307e+00, 1.306930693069307e+00, 7.725510660375873e-01, 1.010767012965616e+00, 1.306930693069307e+00, 1.306930693069307e+00, 1.306930693069307e+00, 1.252311187477407e+00, 1.306930693069307e+00, 1.158340020858849e+00, 1.306930693069307e+00, 4.670221789732258e-01, 1.306930693069307e+00, 1.306930693069307e+00, 1.306930693069307e+00, 1.306930693069307e+00, 1.306930693069307e+00, 1.098464008243734e+00, 1.306930693069307e+00, 1.306930693069307e+00, 1.306930693069307e+00, 1.306930693069307e+00, 1.306930693069307e+00, 1.036298154118353e+00, 1.152765745561261e+00, 1.306930693069307e+00, 1.306930693069307e+00, 1.306930693069307e+00, 1.254467525463646e+00, 1.306930693069307e+00, 1.306930693069307e+00, 1.306930693069307e+00, 9.565776400342775e-01, 2.262815910497358e-01, 1.306930693069307e+00, 1.306930693069307e+00, 1.306930693069307e+00, -3.612390874111473e-01, 6.606789090863890e-01, 5.200048636574224e-01, 1.306930693069307e+00, 8.566947744673739e-01, 1.306930693069307e+00, 6.879531959525056e-01, 1.306930693069307e+00, 1.306930693069307e+00, 1.306930693069307e+00, 6.406371515627177e-01, 7.778107147394815e-01, 1.306930693069307e+00, 7.249718609231997e-01, 1.306930693069307e+00, 1.306930693069307e+00, 1.306930693069307e+00, 1.306930693069307e+00, 1.306930693069307e+00, 8.355504665407072e-01, 1.306930693069307e+00, 1.306930693069307e+00, 1.306930693069307e+00, 1.306930693069307e+00, 1.306930693069307e+00, 5.650601854900769e-01, 9.869810833124716e-01, 6.404178224234283e-01, 9.124793901218173e-01, -3.526506432842208e-01, 8.583848363848060e-01, 1.306930693069307e+00, 1.439638555580035e+00, 9.972834193848470e-01, 9.679264074859487e-01, 1.129875992971292e+00, 9.714604853727233e-01, 9.126203887942468e-01, 1.401525541459849e+00, 1.027477439521602e+00, 1.078708086186617e+00, 7.217145096597264e-01, 7.639454689353999e-01, 5.601870244261444e-01, 1.306930693069307e+00, 1.306930693069307e+00, 1.306930693069307e+00, 1.306930693069307e+00, 1.306930693069307e+00, 9.621832092359288e-01, 9.181934678440837e-01, 9.974358631901508e-01, 1.405523367377334e+00, 1.306930693069307e+00, 1.306930693069307e+00, 1.215678775243472e+00, 2.134688406508901e-01, 2.901344189313483e-01, 1.306930693069307e+00, 1.306930693069307e+00, 1.306930693069307e+00, 1.517283065626029e-01, 7.287145844809354e-01, 1.306930693069307e+00, -3.630920122330242e-01, 5.027008361825911e-01, 9.664692950715146e-01, 8.456531848251742e-01, 7.777091593213232e-01, 1.391608315072180e+00, 1.155854610416741e+00, 6.303351201334312e-01, 6.255563858638530e-01, 1.306930693069307e+00, 1.306930693069307e+00, 1.306930693069307e+00, 1.306930693069307e+00, 1.306930693069307e+00, 1.306930693069307e+00, 1.011558106938851e+00, 1.560213042353037e+00, 9.151438114638992e-01, 1.481292840113206e+00, 1.242836999948561e+00, 1.306930693069307e+00, 1.274458320056629e+00, 1.306930693069307e+00, 4.243928925273887e-01, 1.306930693069307e+00, 1.306930693069307e+00, 1.306930693069307e+00, 1.306930693069307e+00, 1.306930693069307e+00, 1.306930693069307e+00, 1.479297540706992e+00, 1.306930693069307e+00, 1.510169191925024e+00, 1.211006247732299e+00, 1.357533928879117e+00, 1.306930693069307e+00, 9.992996596743203e-01, 1.306930693069307e+00, 5.477718804053466e-01, 1.306930693069307e+00, 1.306930693069307e+00, 1.306930693069307e+00, 1.306930693069307e+00, 1.306930693069307e+00, 1.306930693069307e+00, 9.981693013045458e-01, 1.306930693069307e+00, 2.192354755071941e-01, 1.306930693069307e+00, 1.306930693069307e+00, 1.463796336472126e+00, 1.252084579681473e+00, 1.010131095344139e+00, 4.937127865921164e-01, 4.481109658291743e-01, 8.748283858897952e-01, 2.723956557670523e-01, 9.777753734884564e-01, 9.129035598517680e-01, 7.461445004736388e-01, 7.398392892059288e-01, 8.034334105583176e-01, 5.743150299875479e-01, 1.063324986712336e+00, 7.962414607884378e-01, 1.001815298528909e+00, 1.499953135123140e+00, 4.515464587929887e+00, 4.328183046839954e+00, 4.132813330597334e+00, 4.211255682637419e+00, 3.996074294161966e+00, 3.975000000000000e+00, 4.131066165858675e+00, 3.680067242554546e+00, 3.408580571970542e+00, 3.508031412547648e+00, 3.950216606877269e+00, 3.311975220488837e+00, 3.975000000000000e+00, 3.975000000000000e+00, 5.633947760497319e+00, 3.928190595804107e+00, 4.252070058746734e+00, 4.298797860053400e+00, 4.368553560567493e+00, 3.975000000000000e+00, 3.975000000000000e+00, 3.975000000000000e+00, 3.975000000000000e+00, 3.781271961123684e+00, 3.870797260895256e+00, 4.289760419907166e+00, 3.207979435161353e+00, 3.617543146485781e+00, 3.718763138976195e+00, 5.135038297679989e+00, 4.206302956904532e+00, 3.945276379397224e+00, 3.449434388276113e+00, 3.920585142225317e+00, 3.975000000000000e+00, 3.975000000000000e+00, 3.975000000000000e+00, 3.744926844844039e+00, 3.202050566839822e+00, 3.547153996465726e+00, 3.975000000000000e+00, 