MTP
version = 1.1.0
potential_name = MTP_l3k2
scaling = 1.584000000000000e-02
L = 3
scaling_map = K
species_count = 2
potential_tag = 
radial_basis_type = RBChebyshev_sss_lmp
	min_dist = 1.850000000000000e+00
	max_dist = 6.500000000000000e+00
	radial_basis_size = 8
	radial_funcs_count = 8
shift_coeffs = {-7.977792266193028e+00, -4.585832933328549e+00}
scal_coeffs = {7.467679401699248e-01, 6.839442049287007e-01, 5.852095229758733e-01, 3.452051096185256e-01, 3.995303671051099e+00, 3.775835714706790e+00, 3.593915567795251e+00, 2.970116968387785e+00, 6.932831803125226e-01, 6.436715565978155e-01, 5.073354054657423e-01, 3.034335819907621e-01, 3.655435991112858e+00, 3.409886599884839e+00, 3.065923498068797e+00, 2.048856396409756e+00}
	radial_coeffs
		0-0
			{1.930015437062248e-01, 3.960438498862243e+00, -6.669947734084803e-01, 2.770175111021014e+00, -2.833465533749485e-01, 1.113749344666028e+00, 2.088904203856010e-01, 8.723522117143317e-02, 7.465297788438779e-01, 3.687360400093744e+00}
			{-2.447287756752639e+00, 3.778538564327608e-01, -3.999046261608449e+00, 4.676536113306690e-01, -2.075382541580585e+00, 3.676088545525303e-01, -5.587713124751316e-01, 9.568641445000196e-02, 1.000000000000000e+00, 1.000000000000000e+00}
			{7.142413181341531e-01, 3.041413571959104e-02, 1.129194528390010e+00, 1.187221983535823e-01, 5.016937962579090e-01, 1.572799527870212e-01, 8.695579491786132e-02, 6.185840675650206e-02, 1.000000000000000e+00, 1.000000000000000e+00}
			{2.994823205428203e+00, 2.514786053565794e+00, 4.597648453408547e+00, 1.866006540590279e+00, 2.086126824558466e+00, 7.380262958295367e-01, 5.659075302953905e-01, 8.940579872798375e-02, 1.000000000000000e+00, 1.000000000000000e+00}
			{-2.427224538630864e-02, -4.230376084420633e+00, 6.686496588816812e-01, -2.772324912266101e+00, -5.033919486126081e-02, -9.833065362021935e-01, -4.055022253936521e-01, -2.141200972032795e-01, 1.000000000000000e+00, 1.000000000000000e+00}
			{-4.635368190244312e+00, -2.972156309972148e+00, -7.505421685668986e+00, -2.282176538718465e+00, -3.544790754059177e+00, -1.435755568134182e+00, -7.361821113954360e-01, -4.912992980548180e-01, 1.000000000000000e+00, 1.000000000000000e+00}
			{-2.817999598466324e+00, 9.443407519417541e+00, -4.498199613184300e+00, 6.418764823973896e+00, -2.372128579194281e+00, 2.810914036156213e+00, -6.350164450338678e-01, 5.416555451434812e-01, 1.000000000000000e+00, 1.000000000000000e+00}
			{1.628274869565001e+00, 1.660849626961694e+00, 2.396203630763774e+00, 1.497520028234123e+00, 1.020455973761666e+00, 7.755118129784859e-01, 2.695244554403717e-01, 2.087866099161314e-01, 1.000000000000000e+00, 1.000000000000000e+00}
alpha_moments_count = 219
alpha_index_basic_count = 40
alpha_index_basic = {{0, 0, 0, 0}, {1, 1, 0, 0}, {1, 0, 1, 0}, {1, 0, 0, 1}, {2, 2, 0, 0}, {2, 1, 1, 0}, {2, 1, 0, 1}, {2, 0, 2, 0}, {2, 0, 1, 1}, {2, 0, 0, 2}, {3, 3, 0, 0}, {3, 2, 1, 0}, {3, 2, 0, 1}, {3, 1, 2, 0}, {3, 1, 1, 1}, {3, 1, 0, 2}, {3, 0, 3, 0}, {3, 0, 2, 1}, {3, 0, 1, 2}, {3, 0, 0, 3}, {4, 0, 0, 0}, {5, 1, 0, 0}, {5, 0, 1, 0}, {5, 0, 0, 1}, {6, 2, 0, 0}, {6, 1, 1, 0}, {6, 1, 0, 1}, {6, 0, 2, 0}, {6, 0, 1, 1}, {6, 0, 0, 2}, {7, 3, 0, 0}, {7, 2, 1, 0}, {7, 2, 0, 1}, {7, 1, 2, 0}, {7, 1, 1, 1}, {7, 1, 0, 2}, {7, 0, 3, 0}, {7, 0, 2, 1}, {7, 0, 1, 2}, {7, 0, 0, 3}}
alpha_index_times_count = 535
alpha_index_times = {{0, 0, 1, 40}, {0, 40, 1, 41}, {20, 40, 1, 42}, {0, 20, 1, 43}, {20, 43, 1, 44}, {20, 20, 1, 45}, {20, 45, 1, 46}, {1, 1, 1, 47}, {2, 2, 1, 47}, {3, 3, 1, 47}, {1, 21, 1, 48}, {2, 22, 1, 48}, {3, 23, 1, 48}, {21, 21, 1, 49}, {22, 22, 1, 49}, {23, 23, 1, 49}, {4, 4, 1, 50}, {5, 5, 2, 50}, {6, 6, 2, 50}, {7, 7, 1, 50}, {8, 8, 2, 50}, {9, 9, 1, 50}, {4, 24, 1, 51}, {5, 25, 2, 51}, {6, 26, 2, 51}, {7, 27, 1, 51}, {8, 28, 2, 51}, {9, 29, 1, 51}, {24, 24, 1, 52}, {25, 25, 2, 52}, {26, 26, 2, 52}, {27, 27, 1, 52}, {28, 28, 2, 52}, {29, 29, 1, 52}, {0, 47, 1, 53}, {0, 48, 1, 54}, {0, 49, 1, 55}, {20, 47, 1, 56}, {20, 48, 1, 57}, {20, 49, 1, 58}, {0, 50, 1, 59}, {0, 51, 1, 60}, {0, 52, 1, 61}, {20, 50, 1, 62}, {20, 51, 1, 63}, {20, 52, 1, 64}, {47, 47, 1, 65}, {47, 48, 1, 66}, {47, 49, 1, 67}, {48, 48, 1, 68}, {48, 49, 1, 69}, {49, 49, 1, 70}, {47, 50, 1, 71}, {47, 51, 1, 72}, {47, 52, 1, 73}, {48, 50, 1, 74}, {48, 51, 1, 75}, {48, 52, 1, 76}, {49, 50, 1, 77}, {49, 51, 1, 78}, {49, 52, 1, 79}, {50, 50, 1, 80}, {50, 51, 1, 81}, {50, 52, 1, 82}, {51, 51, 1, 83}, {51, 52, 1, 84}, {52, 52, 1, 85}, {10, 10, 1, 86}, {11, 11, 3, 86}, {12, 12, 3, 86}, {13, 13, 3, 86}, {14, 14, 6, 86}, {15, 15, 3, 86}, {16, 16, 1, 86}, {17, 17, 3, 86}, {18, 18, 3, 86}, {19, 19, 1, 86}, {10, 30, 1, 87}, {11, 31, 3, 87}, {12, 32, 3, 87}, {13, 33, 3, 87}, {14, 34, 6, 87}, {15, 35, 3, 87}, {16, 36, 1, 87}, {17, 37, 3, 87}, {18, 38, 3, 87}, {19, 39, 1, 87}, {30, 30, 1, 88}, {31, 31, 3, 88}, {32, 32, 3, 88}, {33, 33, 3, 88}, {34, 34, 6, 88}, {35, 35, 3, 88}, {36, 36, 1, 88}, {37, 37, 3, 88}, {38, 38, 3, 88}, {39, 39, 1, 88}, {1, 4, 1, 89}, {1, 5, 1, 90}, {1, 6, 1, 91}, {1, 7, 1, 92}, {1, 8, 1, 93}, {1, 9, 1, 94}, {2, 4, 1, 95}, {2, 5, 1, 96}, {2, 6, 1, 97}, {2, 7, 1, 98}, {2, 8, 1, 99}, {2, 9, 1, 100}, {3, 4, 1, 101}, {3, 5, 1, 102}, {3, 6, 1, 103}, {3, 7, 1, 104}, {3, 8, 1, 105}, {3, 9, 1, 106}, {10, 89, 1, 107}, {11, 90, 2, 107}, {12, 91, 2, 107}, {13, 92, 1, 107}, {14, 93, 2, 107}, {15, 94, 1, 107}, {11, 95, 1, 107}, {13, 96, 2, 107}, {14, 97, 2, 107}, {16, 98, 1, 107}, {17, 99, 2, 107}, {18, 100, 1, 107}, {12, 101, 1, 107}, {14, 102, 2, 107}, {15, 103, 2, 107}, {17, 104, 1, 107}, {18, 105, 2, 107}, {19, 106, 1, 107}, {30, 89, 1, 108}, {31, 90, 2, 108}, {32, 91, 2, 108}, {33, 92, 1, 108}, {34, 93, 2, 108}, {35, 94, 1, 108}, {31, 95, 1, 108}, {33, 96, 2, 108}, {34, 97, 2, 108}, {36, 98, 1, 108}, {37, 99, 2, 108}, {38, 100, 1, 108}, {32, 101, 1, 108}, {34, 102, 2, 108}, {35, 103, 2, 108}, {37, 104, 1, 108}, {38, 105, 2, 108}, {39, 106, 1, 108}, {21, 24, 1, 109}, {21, 25, 1, 110}, {21, 26, 1, 111}, {21, 27, 1, 112}, {21, 28, 1, 113}, {21, 29, 1, 114}, {22, 24, 1, 115}, {22, 25, 1, 116}, {22, 26, 1, 117}, {22, 27, 1, 118}, {22, 28, 1, 119}, {22, 29, 1, 120}, {23, 24, 1, 121}, {23, 25, 1, 122}, {23, 26, 1, 123}, {23, 27, 1, 124}, {23, 28, 1, 125}, {23, 29, 1, 126}, {10, 109, 1, 127}, {11, 110, 2, 127}, {12, 111, 2, 127}, {13, 112, 1, 127}, {14, 113, 2, 127}, {15, 114, 1, 127}, {11, 115, 1, 127}, {13, 116, 2, 127}, {14, 117, 2, 127}, {16, 118, 1, 127}, {17, 119, 2, 127}, {18, 120, 1, 127}, {12, 121, 1, 127}, {14, 122, 2, 127}, {15, 123, 2, 127}, {17, 124, 1, 127}, {18, 125, 2, 127}, {19, 126, 1, 127}, {30, 109, 1, 128}, {31, 110, 2, 128}, {32, 111, 2, 128}, {33, 112, 1, 128}, {34, 113, 2, 128}, {35, 114, 1, 128}, {31, 115, 1, 128}, {33, 116, 2, 128}, {34, 117, 2, 128}, {36, 118, 1, 128}, {37, 119, 2, 128}, {38, 120, 1, 128}, {32, 121, 1, 128}, {34, 122, 2, 128}, {35, 123, 2, 128}, {37, 124, 1, 128}, {38, 125, 2, 128}, {39, 126, 1, 128}, {89, 89, 1, 129}, {90, 90, 2, 129}, {91, 91, 2, 129}, {92, 92, 1, 129}, {93, 93, 2, 129}, {94, 94, 1, 129}, {95, 95, 1, 129}, {96, 96, 2, 129}, {97, 97, 2, 129}, {98, 98, 1, 129}, {99, 99, 2, 129}, {100, 100, 1, 129}, {101, 101, 1, 129}, {102, 102, 2, 129}, {103, 103, 2, 129}, {104, 104, 1, 129}, {105, 105, 2, 129}, {106, 106, 1, 129}, {89, 109, 1, 130}, {90, 110, 2, 130}, {91, 111, 2, 130}, {92, 112, 1, 130}, {93, 113, 2, 130}, {94, 114, 1, 130}, {95, 115, 1, 130}, {96, 116, 2, 130}, {97, 117, 2, 130}, {98, 118, 1, 130}, {99, 119, 2, 130}, {100, 120, 1, 130}, {101, 121, 1, 130}, {102, 122, 2, 130}, {103, 123, 2, 130}, {104, 124, 1, 130}, {105, 125, 2, 130}, {106, 126, 1, 130}, {109, 109, 1, 131}, {110, 110, 2, 131}, {111, 111, 2, 131}, {112, 112, 1, 131}, {113, 113, 2, 131}, {114, 114, 1, 131}, {115, 115, 1, 131}, {116, 116, 2, 131}, {117, 117, 2, 131}, {118, 118, 1, 131}, {119, 119, 2, 131}, {120, 120, 1, 131}, {121, 121, 1, 131}, {122, 122, 2, 131}, {123, 123, 2, 131}, {124, 124, 1, 131}, {125, 125, 2, 131}, {126, 126, 1, 131}, {10, 10, 1, 132}, {11, 11, 2, 132}, {12, 12, 2, 132}, {13, 13, 1, 132}, {14, 14, 2, 132}, {15, 15, 1, 132}, {10, 11, 1, 133}, {11, 13, 2, 133}, {12, 14, 2, 133}, {13, 16, 1, 133}, {14, 17, 2, 133}, {15, 18, 1, 133}, {10, 12, 1, 134}, {11, 14, 2, 134}, {12, 15, 2, 134}, {13, 17, 1, 134}, {14, 18, 2, 134}, {15, 19, 1, 134}, {11, 11, 1, 135}, {13, 13, 2, 135}, {14, 14, 2, 135}, {16, 16, 1, 135}, {17, 17, 2, 135}, {18, 18, 1, 135}, {11, 12, 1, 136}, {13, 14, 2, 136}, {14, 15, 2, 136}, {16, 17, 1, 136}, {17, 18, 2, 136}, {18, 19, 1, 136}, {12, 12, 1, 137}, {14, 14, 2, 137}, {15, 15, 2, 137}, {17, 17, 1, 137}, {18, 18, 2, 137}, {19, 19, 1, 137}, {4, 132, 1, 138}, {5, 133, 2, 138}, {6, 134, 2, 138}, {7, 135, 1, 138}, {8, 136, 2, 138}, {9, 137, 1, 138}, {24, 132, 1, 139}, {25, 133, 2, 139}, {26, 134, 2, 139}, {27, 135, 1, 139}, {28, 136, 2, 139}, {29, 137, 1, 139}, {30, 30, 1, 140}, {31, 31, 2, 140}, {32, 32, 2, 140}, {33, 33, 1, 140}, {34, 34, 2, 140}, {35, 35, 1, 140}, {30, 31, 1, 141}, {31, 33, 2, 141}, {32, 34, 2, 141}, {33, 36, 1, 141}, {34, 37, 2, 141}, {35, 38, 1, 141}, {30, 32, 1, 142}, {31, 34, 2, 142}, {32, 35, 2, 142}, {33, 37, 1, 142}, {34, 38, 2, 142}, {35, 39, 1, 142}, {31, 31, 1, 143}, {33, 33, 2, 143}, {34, 34, 2, 143}, {36, 36, 1, 143}, {37, 37, 2, 143}, {38, 38, 1, 143}, {31, 32, 1, 144}, {33, 34, 2, 144}, {34, 35, 2, 144}, {36, 37, 1, 144}, {37, 38, 2, 144}, {38, 39, 1, 144}, {32, 32, 1, 145}, {34, 34, 2, 145}, {35, 35, 2, 145}, {37, 37, 1, 145}, {38, 38, 2, 145}, {39, 39, 1, 145}, {4, 140, 1, 146}, {5, 141, 2, 146}, {6, 142, 2, 146}, {7, 143, 1, 146}, {8, 144, 2, 146}, {9, 145, 1, 146}, {24, 140, 1, 147}, {25, 141, 2, 147}, {26, 142, 2, 147}, {27, 143, 1, 147}, {28, 144, 2, 147}, {29, 145, 1, 147}, {132, 132, 1, 148}, {133, 133, 2, 148}, {134, 134, 2, 148}, {135, 135, 1, 148}, {136, 136, 2, 148}, {137, 137, 1, 148}, {132, 140, 1, 149}, {133, 141, 2, 149}, {134, 142, 2, 149}, {135, 143, 1, 149}, {136, 144, 2, 149}, {137, 145, 1, 149}, {140, 140, 1, 150}, {141, 141, 2, 150}, {142, 142, 2, 150}, {143, 143, 1, 150}, {144, 144, 2, 150}, {145, 145, 1, 150}, {47, 86, 1, 151}, {47, 87, 1, 152}, {47, 88, 1, 153}, {48, 86, 1, 154}, {48, 87, 1, 155}, {48, 88, 1, 156}, {49, 86, 1, 157}, {49, 87, 1, 158}, {49, 88, 1, 159}, {50, 86, 1, 160}, {50, 87, 1, 161}, {50, 88, 1, 162}, {51, 86, 1, 163}, {51, 87, 1, 164}, {51, 88, 1, 165}, {52, 86, 1, 166}, {52, 87, 1, 167}, {52, 88, 1, 168}, {86, 86, 1, 169}, {86, 87, 1, 170}, {86, 88, 1, 171}, {87, 87, 1, 172}, {87, 88, 1, 173}, {88, 88, 1, 174}, {0, 86, 1, 175}, {0, 87, 1, 176}, {0, 88, 1, 177}, {20, 86, 1, 178}, {20, 87, 1, 179}, {20, 88, 1, 180}, {1, 1, 1, 181}, {1, 2, 1, 182}, {1, 3, 1, 183}, {2, 2, 1, 184}, {2, 3, 1, 185}, {3, 3, 1, 186}, {4, 181, 1, 187}, {5, 182, 2, 187}, {6, 183, 2, 187}, {7, 184, 1, 187}, {8, 185, 2, 187}, {9, 186, 1, 187}, {24, 181, 1, 188}, {25, 182, 2, 188}, {26, 183, 2, 188}, {27, 184, 1, 188}, {28, 185, 2, 188}, {29, 186, 1, 188}, {21, 21, 1, 189}, {21, 22, 1, 190}, {21, 23, 1, 191}, {22, 22, 1, 192}, {22, 23, 1, 193}, {23, 23, 1, 194}, {4, 189, 1, 195}, {5, 190, 2, 195}, {6, 191, 2, 195}, {7, 192, 1, 195}, {8, 193, 2, 195}, {9, 194, 1, 195}, {24, 189, 1, 196}, {25, 190, 2, 196}, {26, 191, 2, 196}, {27, 192, 1, 196}, {28, 193, 2, 196}, {29, 194, 1, 196}, {181, 181, 1, 197}, {182, 182, 2, 197}, {183, 183, 2, 197}, {184, 184, 1, 197}, {185, 185, 2, 197}, {186, 186, 1, 197}, {181, 189, 1, 198}, {182, 190, 2, 198}, {183, 191, 2, 198}, {184, 192, 1, 198}, {185, 193, 2, 198}, {186, 194, 1, 198}, {189, 189, 1, 199}, {190, 190, 2, 199}, {191, 191, 2, 199}, {192, 192, 1, 199}, {193, 193, 2, 199}, {194, 194, 1, 199}, {4, 4, 1, 200}, {5, 5, 1, 200}, {6, 6, 1, 200}, {4, 5, 1, 201}, {5, 7, 1, 201}, {6, 8, 1, 201}, {4, 6, 1, 202}, {5, 8, 1, 202}, {6, 9, 1, 202}, {5, 5, 1, 203}, {7, 7, 1, 203}, {8, 8, 1, 203}, {5, 6, 1, 204}, {7, 8, 1, 204}, {8, 9, 1, 204}, {6, 6, 1, 205}, {8, 8, 1, 205}, {9, 9, 1, 205}, {4, 200, 1, 206}, {5, 201, 2, 206}, {6, 202, 2, 206}, {7, 203, 1, 206}, {8, 204, 2, 206}, {9, 205, 1, 206}, {24, 200, 1, 207}, {25, 201, 2, 207}, {26, 202, 2, 207}, {27, 203, 1, 207}, {28, 204, 2, 207}, {29, 205, 1, 207}, {24, 24, 1, 208}, {25, 25, 1, 208}, {26, 26, 1, 208}, {24, 25, 1, 209}, {25, 27, 1, 209}, {26, 28, 1, 209}, {24, 26, 1, 210}, {25, 28, 1, 210}, {26, 29, 1, 210}, {25, 25, 1, 211}, {27, 27, 1, 211}, {28, 28, 1, 211}, {25, 26, 1, 212}, {27, 28, 1, 212}, {28, 29, 1, 212}, {26, 26, 1, 213}, {28, 28, 1, 213}, {29, 29, 1, 213}, {4, 208, 1, 214}, {5, 209, 2, 214}, {6, 210, 2, 214}, {7, 211, 1, 214}, {8, 212, 2, 214}, {9, 213, 1, 214}, {24, 208, 1, 215}, {25, 209, 2, 215}, {26, 210, 2, 215}, {27, 211, 1, 215}, {28, 212, 2, 215}, {29, 213, 1, 215}, {200, 200, 1, 216}, {201, 201, 2, 216}, {202, 202, 2, 216}, {203, 203, 1, 216}, {204, 204, 2, 216}, {205, 205, 1, 216}, {200, 208, 1, 217}, {201, 209, 2, 217}, {202, 210, 2, 217}, {203, 211, 1, 217}, {204, 212, 2, 217}, {205, 213, 1, 217}, {208, 208, 1, 218}, {209, 209, 2, 218}, {210, 210, 2, 218}, {211, 211, 1, 218}, {212, 212, 2, 218}, {213, 213, 1, 218}}
alpha_scalar_moments = 109
alpha_moment_mapping = {0, 20, 40, 41, 42, 43, 44, 45, 46, 47, 48, 49, 50, 51, 52, 53, 54, 55, 56, 57, 58, 59, 60, 61, 62, 63, 64, 65, 66, 67, 68, 69, 70, 71, 72, 73, 74, 75, 76, 77, 78, 79, 80, 81, 82, 83, 84, 85, 86, 87, 88, 107, 108, 127, 128, 129, 130, 131, 138, 139, 146, 147, 148, 149, 150, 151, 152, 153, 154, 155, 156, 157, 158, 159, 160, 161, 162, 163, 164, 165, 166, 167, 168, 169, 170, 171, 172, 173, 174, 175, 176, 177, 178, 179, 180, 187, 188, 195, 196, 197, 198, 199, 206, 207, 214, 215, 216, 217, 218}
species_coeffs = {6.293368717949138e+00, 2.809798756938890e+00}
moment_coeffs = {-3.118688319881190e+00, -3.312221268247525e+00, 3.423018643959344e+00, -1.184260853305568e-01, -2.187349887937348e-01, 7.175206821017209e+00, -6.065619450163021e-02, 3.754090435551910e+00, 4.038495508538233e-02, -1.327534784226622e-01, -1.238874089330863e+00, 7.293609395376605e-01, 1.608878343851363e+01, -1.732770715173804e+01, 3.848031938116723e+00, -6.528124778639675e-01, 2.297483752262775e+00, -1.009087287158758e+00, -8.776611213263116e-01, 2.505358496301089e+00, -1.092730083241311e+00, -7.370441428844505e-01, -2.040922121751441e+00, -9.758479503013144e-02, -8.278995256215383e+00, -2.074506663958463e-01, -1.713168077089955e-01, 5.241602937594068e+00, 1.286854117579395e+00, -3.202743936325250e+00, -6.365572977175767e+00, 1.019452467833581e+01, -9.155404018143409e-01, 1.933278291146926e+00, -7.847619082291131e-01, 9.005490080375956e-01, 6.489556802854344e+00, -1.302359862791453e+00, 2.032276516215591e+00, 3.636175095037488e+00, 2.220622395147913e+00, -1.228087713541268e+00, 8.272785649675511e+00, -1.338244600813064e+01, 4.855017545110544e+00, 6.804879681786801e-01, -6.325747249985968e+00, 1.431009787904167e+00, -4.339953354320102e+00, 6.107789315732037e+00, 4.759506288014711e+00, 5.493635709363548e+00, -3.285052606814798e+00, -6.946597779725748e+00, 1.105738962952488e+01, 1.870439714148637e+00, -1.311129351108329e+00, -1.234255851450866e+00, -6.269944756474717e+00, -7.647822835971190e-01, -4.556288668867653e+00, 1.108289739611116e+01, 1.622888882721239e+00, -5.604879374759539e+00, 3.101148797912611e+00, -1.895037639422875e+00, -1.188328966903937e+00, -3.375185155655213e-01, 6.452040448011539e-01, 1.513293967167759e-01, -1.510532120599989e-01, -1.242185190369624e+00, 1.573465560986737e+00, 2.213320546745740e+00, -8.303254206914621e-01, 1.018682574314884e+00, -7.917682949736696e-01, -2.387258465370188e+00, -5.989097685799004e-01, -8.860133764914419e-01, 1.133748012081492e+00, -1.492027075392643e+00, -2.543534291819458e-02, 1.878117309357005e+00, -2.897195645350886e+00, -8.995895182216601e-02, -1.990546822877965e+00, 1.495245009954491e+00, -9.736250903724352e-01, 2.034405092854820e+00, -3.527813682602505e+00, -2.356713882170518e+00, 1.745941109003863e+00, -1.420182154256703e+00, -5.658459374394146e+00, -9.339786113358942e+00, 3.454378454544201e+00, 4.764262003564761e+00, -1.518800795985929e+00, 5.242099502026297e+00, -6.371882746232893e+00, -9.060144615920158e-01, 1.286447776464576e+00, 1.651261891592319e+01, 6.640653777873916e+00, -3.777101589430699e+00, -8.276206241833242e+00, 1.059434995699077e+01, -2.865103035063443e+00}
