MTP
version = 1.1.0
potential_name = MTP_l3k3
scaling = 2.509056000000000e-02
L = 3
scaling_map = LK
species_count = 16
potential_tag = 
radial_basis_type = RBChebyshev_sss
	min_dist = 1.450000000000000e+00
	max_dist = 6.000000000000000e+00
	radial_basis_size = 8
	radial_funcs_count = 12
shift_coeffs = {-7.633468153549452e+01, -1.574586038600622e+02, -2.698183828445326e+02, -5.602835949936628e+01, -1.058327501938375e+02, -1.787976963129945e+02, -2.790617292647736e+02, -5.446355613145630e+03, -1.000220735527197e+02, -1.061063495326195e+02, -1.719168280064390e+02, -2.583968032382809e+02, -4.229424859668902e+03, -1.458028764439883e+03, -1.930450842368118e+02, -2.392259745517264e+03}
scal_coeffs = {1.140366236367837e+00, 1.450549450549451e+00, 1.150137033269679e+00, 1.450549450549451e+00, 1.450549450549451e+00, 1.450549450549451e+00, 1.450549450549451e+00, 1.450549450549451e+00, 1.450549450549451e+00, 1.450549450549451e+00, 8.888129098101767e-01, 1.450549450549451e+00, 1.450549450549451e+00, 1.450549450549451e+00, 1.450549450549451e+00, 1.450549450549451e+00, 1.450549450549451e+00, 6.178806807187955e-01, 1.450549450549451e+00, 1.450549450549451e+00, 1.478943682716676e+00, 1.450549450549451e+00, 1.450549450549451e+00, 1.450549450549451e+00, 1.450549450549451e+00, 1.450549450549451e+00, 1.450549450549451e+00, 1.450549450549451e+00, 1.450549450549451e+00, 1.450549450549451e+00, 1.450549450549451e+00, 1.450549450549451e+00, 1.499357421679800e+00, 1.450549450549451e+00, 1.074147023477502e+00, 4.331322777426967e-01, 1.450549450549451e+00, 1.450549450549451e+00, 1.450549450549451e+00, 1.450549450549451e+00, 7.356819313853549e-01, 1.450549450549451e+00, 1.450549450549451e+00, 1.450549450549451e+00, 1.450549450549451e+00, 1.450549450549451e+00, 1.450549450549451e+00, 1.450549450549451e+00, 1.450549450549451e+00, 1.450549450549451e+00, 2.923372327859458e-01, 1.477014670913547e+00, 1.450549450549451e+00, 9.380365443864388e-01, 1.450549450549451e+00, 1.450549450549451e+00, 1.450549450549451e+00, 1.450549450549451e+00, 5.641440048671781e-01, 1.450549450549451e+00, 1.450549450549451e+00, 1.450549450549451e+00, 1.450549450549451e+00, 1.450549450549451e+00, 1.450549450549451e+00, 9.777141925864621e-01, 1.450549450549451e+00, 1.450549450549451e+00, 1.276405166693979e+00, 1.450549450549451e+00, 1.450549450549451e+00, 1.450549450549451e+00, 1.450549450549451e+00, 1.450549450549451e+00, 1.450549450549451e+00, 1.450549450549451e+00, 1.450549450549451e+00, 1.450549450549451e+00, 1.450549450549451e+00, 1.450549450549451e+00, 1.450549450549451e+00, 1.450549450549451e+00, 1.450549450549451e+00, 6.765828543226453e-01, 1.450549450549451e+00, 8.339211659097702e-01, 1.450549450549451e+00, 1.450549450549451e+00, 7.961255720872339e-01, 1.450549450549451e+00, 1.450549450549451e+00, 1.450549450549451e+00, 1.450549450549451e+00, 7.469325972393424e-01, 1.450549450549451e+00, 1.450549450549451e+00, 1.450549450549451e+00, 1.450549450549451e+00, 1.450549450549451e+00, 1.450549450549451e+00, 1.450549450549451e+00, 1.450549450549451e+00, 6.785349897878634e-01, 5.085775356051957e-01, 1.450549450549451e+00, 1.450549450549451e+00, 1.450549450549451e+00, 1.450549450549451e+00, 6.848413286480781e-01, 1.450549450549451e+00, 1.450549450549451e+00, 1.450549450549451e+00, 1.450549450549451e+00, 1.450549450549451e+00, 1.450549450549451e+00, 1.450549450549451e+00, 1.450549450549451e+00, 1.450549450549451e+00, 9.473664184973817e-01, 2.057147526546224e+00, 1.450549450549451e+00, 1.450549450549451e+00, 1.450549450549451e+00, 1.450549450549451e+00, 1.450549450549451e+00, 1.450549450549451e+00, 1.450549450549451e+00, 1.450549450549451e+00, 1.450549450549451e+00, 1.450549450549451e+00, 1.887478965956294e+00, 1.450549450549451e+00, 1.450549450549451e+00, 1.383179982947071e+00, 1.450549450549451e+00, 1.450549450549451e+00, 1.251474377863627e+00, 1.450549450549451e+00, 1.131258029492771e+00, 1.450549450549451e+00, 1.450549450549451e+00, 1.450549450549451e+00, 1.450549450549451e+00, 1.450549450549451e+00, 1.450549450549451e+00, 1.450549450549451e+00, 1.450549450549451e+00, 1.450549450549451e+00, 1.450549450549451e+00, 1.450549450549451e+00, 1.450549450549451e+00, 1.450549450549451e+00, 1.450549450549451e+00, 1.181409009344283e+00, 1.450549450549451e+00, 1.450549450549451e+00, 1.450549450549451e+00, 1.450549450549451e+00, 1.450549450549451e+00, 1.450549450549451e+00, 9.585741867833333e-01, 1.450549450549451e+00, 1.450549450549451e+00, 8.740374085406345e-01, 1.450549450549451e+00, 1.450549450549451e+00, 1.450549450549451e+00, 1.450549450549451e+00, 7.723612265449105e-01, 1.450549450549451e+00, 7.582201402258791e-01, 1.450549450549451e+00, 1.450549450549451e+00, 7.238105514975232e-01, 1.450549450549451e+00, 1.450549450549451e+00, 1.450549450549451e+00, 1.450549450549451e+00, 1.450549450549451e+00, 1.450549450549451e+00, 1.450549450549451e+00, 1.450549450549451e+00, 1.450549450549451e+00, 1.450549450549451e+00, 1.450549450549451e+00, 1.450549450549451e+00, 1.450549450549451e+00, 5.619408196138521e-01, 4.286069199120562e-01, 7.455415940060013e-01, 1.450549450549451e+00, 1.450549450549451e+00, 1.450549450549451e+00, 1.450549450549451e+00, 1.450549450549451e+00, 1.450549450549451e+00, 1.450549450549451e+00, 1.450549450549451e+00, 1.287332339704491e+00, 1.450549450549451e+00, 1.450549450549451e+00, 1.450549450549451e+00, 1.450549450549451e+00, 1.027004174051412e+00, 1.180596290637886e+00, 1.450549450549451e+00, 1.450549450549451e+00, 7.577337392163168e-01, 1.450549450549451e+00, 1.450549450549451e+00, 1.450549450549451e+00, 1.450549450549451e+00, 1.450549450549451e+00, 1.124708331605310e+00, 1.450549450549451e+00, 1.450549450549451e+00, 1.450549450549451e+00, 1.450549450549451e+00, 1.079207168636643e+00, 1.041554454445998e+00, 1.450549450549451e+00, 1.071181681149639e+00, 1.027673570670599e+00, 7.063144458872148e-01, 1.450549450549451e+00, 1.450549450549451e+00, 1.450549450549451e+00, 1.450549450549451e+00, 1.450549450549451e+00, 1.450549450549451e+00, 1.450549450549451e+00, 1.450549450549451e+00, 1.450549450549451e+00, 1.450549450549451e+00, 1.450549450549451e+00, 1.450549450549451e+00, 1.450549450549451e+00, 6.130368317164565e-01, 8.557339627039929e-01, 1.450549450549451e+00, 1.450549450549451e+00, 1.450549450549451e+00, 1.450549450549451e+00, 1.450549450549451e+00, 1.450549450549451e+00, 1.450549450549451e+00, 1.450549450549451e+00, 1.450549450549451e+00, 1.450549450549451e+00, 1.450549450549451e+00, 1.450549450549451e+00, 1.450549450549451e+00, 6.625494006657336e-01, 7.237326021261938e-01, 1.450549450549451e+00, 6.344796269554791e-01, 2.750146901427600e+00, 3.725000000000000e+00, 2.151245709473722e+00, 3.725000000000000e+00, 3.725000000000000e+00, 3.725000000000000e+00, 3.725000000000000e+00, 3.725000000000000e+00, 3.725000000000000e+00, 3.725000000000000e+00, 8.399806390972824e+00, 3.725000000000000e+00, 3.725000000000000e+00, 3.725000000000000e+00, 3.725000000000000e+00, 3.725000000000000e+00, 3.725000000000000e+00, 2.996557854111486e+00, 3.725000000000000e+00, 3.725000000000000e+00, 3.400402302577719e+00, 3.725000000000000e+00, 3.725000000000000e+00, 3.725000000000000e+00, 3.725000000000000e+00, 3.725000000000000e+00, 3.725000000000000e+00, 3.725000000000000e+00, 3.725000000000000e+00, 3.725000000000000e+00, 3.725000000000000e+00, 3.725000000000000e+00, 2.797928462209647e+00, 3.725000000000000e+00, 2.462647798041776e+00, 6.814497777058959e+00, 3.725000000000000e+00, 3.725000000000000e+00, 3.725000000000000e+00, 3.725000000000000e+00, 4.752235229359754e+00, 3.725000000000000e+00, 3.725000000000000e+00, 3.725000000000000e+00, 3.725000000000000e+00, 3.725000000000000e+00, 3.725000000000000e+00, 3.725000000000000e+00, 3.725000000000000e+00, 3.725000000000000e+00, 5.471326125004277e+00, 2.440514228277359e+00, 3.725000000000000e+00, 2.598045894063612e+00, 3.725000000000000e+00, 3.725000000000000e+00, 3.725000000000000e+00, 3.725000000000000e+00, 2.465179782081000e+00, 3.725000000000000e+00, 3.725000000000000e+00, 3.725000000000000e+00, 3.725000000000000e+00, 3.725000000000000e+00, 3.725000000000000e+00, 2.518030117291082e+00, 3.725000000000000e+00, 3.725000000000000e+00, 2.386953876477258e+00, 3.725000000000000e+00, 3.725000000000000e+00, 3.725000000000000e+00, 3.725000000000000e+00, 3.725000000000000e+00, 3.725000000000000e+00, 3.725000000000000e+00, 3.725000000000000e+00, 3.725000000000000e+00, 3.725000000000000e+00, 3.725000000000000e+00, 3.725000000000000e+00, 3.725000000000000e+00, 3.725000000000000e+00, 2.835053696487768e+00, 3.725000000000000e+00, 1.520697086787545e+00, 3.725000000000000e+00, 3.725000000000000e+00, 2.567007200609598e+00, 3.725000000000000e+00, 3.725000000000000e+00, 3.725000000000000e+00, 3.725000000000000e+00, 2.716937568988785e+00, 3.725000000000000e+00, 3.725000000000000e+00, 3.725000000000000e+00, 3.725000000000000e+00, 3.725000000000000e+00, 3.725000000000000e+00, 3.725000000000000e+00, 3.725000000000000e+00, 1.524215857564108e+00, 2.688888574618140e+00, 3.725000000000000e+00, 3.725000000000000e+00, 3.725000000000000e+00, 3.725000000000000e+00, 2.368926864359393e+00, 3.725000000000000e+00, 3.725000000000000e+00, 3.725000000000000e+00, 3.725000000000000e+00, 3.725000000000000e+00, 3.725000000000000e+00, 3.725000000000000e+00, 3.725000000000000e+00, 3.725000000000000e+00, 2.841286268642067e+00, 2.374370564942531e+00, 3.725000000000000e+00, 3.725000000000000e+00, 3.725000000000000e+00, 3.725000000000000e+00, 3.725000000000000e+00, 3.725000000000000e+00, 3.725000000000000e+00, 3.725000000000000e+00, 3.725000000000000e+00, 3.725000000000000e+00, 3.663608918603763e+00, 3.725000000000000e+00, 3.725000000000000e+00, 2.468332702687472e+00, 3.725000000000000e+00, 3.725000000000000e+00, 2.567014307381919e+00, 3.725000000000000e+00, 2.596347750957384e+00, 3.725000000000000e+00, 3.725000000000000e+00, 3.725000000000000e+00, 3.725000000000000e+00, 3.725000000000000e+00, 3.725000000000000e+00, 3.725000000000000e+00, 3.725000000000000e+00, 3.725000000000000e+00, 3.725000000000000e+00, 3.725000000000000e+00, 3.725000000000000e+00, 3.725000000000000e+00, 3.725000000000000e+00, 2.541723065416607e+00, 3.725000000000000e+00, 3.725000000000000e+00, 3.725000000000000e+00, 3.725000000000000e+00, 3.725000000000000e+00, 3.725000000000000e+00, 2.247107561680585e+00, 3.725000000000000e+00, 3.725000000000000e+00, 2.747097551988451e+00, 3.725000000000000e+00, 3.725000000000000e+00, 3.725000000000000e+00, 3.725000000000000e+00, 2.640956887235778e+00, 3.725000000000000e+00, 1.584014951104373e+00, 3.725000000000000e+00, 3.725000000000000e+00, 2.709930814389364e+00, 3.725000000000000e+00, 3.725000000000000e+00, 3.725000000000000e+00, 3.725000000000000e+00, 3.725000000000000e+00, 3.725000000000000e+00, 3.725000000000000e+00, 3.725000000000000e+00, 3.725000000000000e+00, 3.725000000000000e+00, 3.725000000000000e+00, 3.725000000000000e+00, 3.725000000000000e+00, 1.112153292193442e+00, 2.613626937489550e+00, 3.021073299674736e+00, 3.725000000000000e+00, 3.725000000000000e+00, 3.725000000000000e+00, 3.725000000000000e+00, 3.725000000000000e+00, 3.725000000000000e+00, 3.725000000000000e+00, 3.725000000000000e+00, 2.941102004076548e+00, 3.725000000000000e+00, 3.725000000000000e+00, 3.725000000000000e+00, 3.725000000000000e+00, 3.214449767346561e+00, 3.038769435902869e+00, 3.725000000000000e+00, 3.725000000000000e+00, 3.507602029001730e+00, 3.725000000000000e+00, 3.725000000000000e+00, 3.725000000000000e+00, 3.725000000000000e+00, 3.725000000000000e+00, 2.583752604415745e+00, 3.725000000000000e+00, 3.725000000000000e+00, 3.725000000000000e+00, 3.725000000000000e+00, 2.716399239412535e+00, 2.823867473412478e+00, 3.725000000000000e+00, 2.972118071553305e+00, 2.999592617546103e+00, 4.289829525694935e+00, 3.725000000000000e+00, 3.725000000000000e+00, 3.725000000000000e+00, 3.725000000000000e+00, 3.725000000000000e+00, 3.725000000000000e+00, 3.725000000000000e+00, 3.725000000000000e+00, 3.725000000000000e+00, 3.725000000000000e+00, 3.725000000000000e+00, 3.725000000000000e+00, 3.725000000000000e+00, 3.152398018863181e+00, 2.448062482181492e+00, 3.725000000000000e+00, 3.725000000000000e+00, 3.725000000000000e+00, 3.725000000000000e+00, 3.725000000000000e+00, 3.725000000000000e+00, 3.725000000000000e+00, 3.725000000000000e+00, 3.725000000000000e+00, 3.725000000000000e+00, 3.725000000000000e+00, 3.725000000000000e+00, 3.725000000000000e+00, 3.174916948491870e+00, 2.870898275890180e+00, 3.725000000000000e+00, 1.706345125854368e+00, 8.898679575001033e-01, 1.450549450549451e+00, 5.017557752811737e-01, 1.450549450549451e+00, 1.450549450549451e+00, 1.450549450549451e+00, 1.450549450549451e+00, 1.450549450549451e+00, 1.450549450549451e+00, 1.450549450549451e+00, 1.411213973829507e-01, 1.450549450549451e+00, 1.450549450549451e+00, 1.450549450549451e+00, 1.450549450549451e+00, 1.450549450549451e+00, 1.450549450549451e+00, 1.025226992764395e+00, 1.450549450549451e+00, 1.450549450549451e+00, -2.060993838483804e-01, 1.450549450549451e+00, 1.450549450549451e+00, 1.450549450549451e+00, 1.450549450549451e+00, 1.450549450549451e+00, 1.450549450549451e+00, 1.450549450549451e+00, 1.450549450549451e+00, 1.450549450549451e+00, 1.450549450549451e+00, 1.450549450549451e+00, 1.104385250880208e+00, 1.450549450549451e+00, 2.993506036911788e-01, 2.252694357490078e+00, 1.450549450549451e+00, 1.450549450549451e+00, 1.450549450549451e+00, 1.450549450549451e+00, 4.598715318175281e-01, 1.450549450549451e+00, 1.450549450549451e+00, 1.450549450549451e+00, 1.450549450549451e+00, 1.450549450549451e+00, 1.450549450549451e+00, 1.450549450549451e+00, 1.450549450549451e+00, 1.450549450549451e+00, 1.284597909139575e+00, 1.944496138348616e-01, 1.450549450549451e+00, 1.084447352417808e+00, 1.450549450549451e+00, 1.450549450549451e+00, 1.450549450549451e+00, 1.450549450549451e+00, 9.785527836225093e-01, 1.450549450549451e+00, 1.450549450549451e+00, 1.450549450549451e+00, 1.450549450549451e+00, 1.450549450549451e+00, 1.450549450549451e+00, 1.538803151153294e+00, 1.450549450549451e+00, 1.450549450549451e+00, 1.332416085851838e+00, 1.450549450549451e+00, 1.450549450549451e+00, 1.450549450549451e+00, 1.450549450549451e+00, 1.450549450549451e+00, 1.450549450549451e+00, 1.450549450549451e+00, 1.450549450549451e+00, 1.450549450549451e+00, 1.450549450549451e+00, 1.450549450549451e+00, 1.450549450549451e+00, 1.450549450549451e+00, 1.450549450549451e+00, 8.049536871766193e-01, 1.450549450549451e+00, 8.919545220572309e-01, 1.450549450549451e+00, 1.450549450549451e+00, 8.452684665263428e-01, 1.450549450549451e+00, 1.450549450549451e+00, 1.450549450549451e+00, 1.450549450549451e+00, 7.111772518572010e-01, 1.450549450549451e+00, 1.450549450549451e+00, 1.450549450549451e+00, 1.450549450549451e+00, 1.450549450549451e+00, 1.450549450549451e+00, 1.450549450549451e+00, 1.450549450549451e+00, 9.069235186733751e-01, 6.495425936252355e-01, 1.450549450549451e+00, 1.450549450549451e+00, 1.450549450549451e+00, 1.450549450549451e+00, 4.968777308303255e-01, 1.450549450549451e+00, 1.450549450549451e+00, 1.450549450549451e+00, 1.450549450549451e+00, 1.450549450549451e+00, 1.450549450549451e+00, 1.450549450549451e+00, 1.450549450549451e+00, 1.450549450549451e+00, 9.726366223849291e-01, -6.016232573364476e-01, 1.450549450549451e+00, 1.450549450549451e+00, 1.450549450549451e+00, 1.450549450549451e+00, 1.450549450549451e+00, 1.450549450549451e+00, 1.450549450549451e+00, 1.450549450549451e+00, 1.450549450549451e+00, 1.450549450549451e+00, 8.070776750080176e-01, 1.450549450549451e+00, 1.450549450549451e+00, 1.146650452130550e+00, 1.450549450549451e+00, 1.450549450549451e+00, 4.994578939067512e-01, 1.450549450549451e+00, 5.026851194250805e-01, 1.450549450549451e+00, 1.450549450549451e+00, 1.450549450549451e+00, 1.450549450549451e+00, 1.450549450549451e+00, 1.450549450549451e+00, 1.450549450549451e+00, 1.450549450549451e+00, 1.450549450549451e+00, 1.450549450549451e+00, 1.450549450549451e+00, 1.450549450549451e+00, 1.450549450549451e+00, 1.450549450549451e+00, 1.297114038015070e+00, 1.450549450549451e+00, 1.450549450549451e+00, 1.450549450549451e+00, 1.450549450549451e+00, 1.450549450549451e+00, 1.450549450549451e+00, 3.156705969118415e-01, 1.450549450549451e+00, 1.450549450549451e+00, 7.837185370834095e-01, 1.450549450549451e+00, 1.450549450549451e+00, 1.450549450549451e+00, 1.450549450549451e+00, 1.049188893971108e+00, 1.450549450549451e+00, 1.989778036485337e-01, 1.450549450549451e+00, 1.450549450549451e+00, 9.636657656211796e-01, 1.450549450549451e+00, 1.450549450549451e+00, 1.450549450549451e+00, 1.450549450549451e+00, 1.450549450549451e+00, 1.450549450549451e+00, 1.450549450549451e+00, 1.450549450549451e+00, 1.450549450549451e+00, 1.450549450549451e+00, 1.450549450549451e+00, 1.450549450549451e+00, 1.450549450549451e+00, 3.614800698953125e-01, 6.524508243103871e-01, 7.298452001873407e-01, 1.450549450549451e+00, 1.450549450549451e+00, 1.450549450549451e+00, 1.450549450549451e+00, 1.450549450549451e+00, 1.450549450549451e+00, 1.450549450549451e+00, 1.450549450549451e+00, 6.407485185278078e-01, 1.450549450549451e+00, 1.450549450549451e+00, 1.450549450549451e+00, 1.450549450549451e+00, 6.294076134140157e-01, 4.549907013272235e-01, 1.450549450549451e+00, 1.450549450549451e+00, 9.195518959955237e-01, 1.450549450549451e+00, 1.450549450549451e+00, 1.450549450549451e+00, 1.450549450549451e+00, 1.450549450549451e+00, 1.067794700794621e+00, 1.450549450549451e+00, 1.450549450549451e+00, 1.450549450549451e+00, 1.450549450549451e+00, 9.433995362394141e-01, 6.666189290247959e-01, 1.450549450549451e+00, 4.098961107903986e-01, 9.386447882070978e-01, 7.250225038307069e-01, 1.450549450549451e+00, 1.450549450549451e+00, 1.450549450549451e+00, 1.450549450549451e+00, 1.450549450549451e+00, 1.450549450549451e+00, 1.450549450549451e+00, 1.450549450549451e+00, 1.450549450549451e+00, 1.450549450549451e+00, 1.450549450549451e+00, 1.450549450549451e+00, 1.450549450549451e+00, 9.135338292670856e-01, 6.517017143397406e-01, 1.450549450549451e+00, 1.450549450549451e+00, 1.450549450549451e+00, 1.450549450549451e+00, 1.450549450549451e+00, 1.450549450549451e+00, 1.450549450549451e+00, 1.450549450549451e+00, 1.450549450549451e+00, 1.450549450549451e+00, 1.450549450549451e+00, 1.450549450549451e+00, 1.450549450549451e+00, 5.988910452682975e-01, 9.571574462271591e-01, 1.450549450549451e+00, 5.546154923438731e-01, 2.582591141580717e+00, 3.725000000000000e+00, 4.880342734582722e+00, 3.725000000000000e+00, 3.725000000000000e+00, 3.725000000000000e+00, 3.725000000000000e+00, 3.725000000000000e+00, 3.725000000000000e+00, 3.725000000000000e+00, 9.879202667505993e+00, 3.725000000000000e+00, 3.725000000000000e+00, 3.725000000000000e+00, 3.725000000000000e+00, 3.725000000000000e+00, 3.725000000000000e+00, 3.722046735668010e+00, 3.725000000000000e+00, 3.725000000000000e+00, 2.959363291664819e+00, 3.725000000000000e+00, 3.725000000000000e+00, 3.725000000000000e+00, 3.725000000000000e+00, 3.725000000000000e+00, 3.725000000000000e+00, 3.725000000000000e+00, 3.725000000000000e+00, 3.725000000000000e+00, 3.725000000000000e+00, 3.725000000000000e+00, 1.966365445048173e+00, 3.725000000000000e+00, 3.636784565432636e+00, 9.178914277889263e-01, 3.725000000000000e+00, 3.725000000000000e+00, 3.725000000000000e+00, 3.725000000000000e+00, 2.361257678268663e+00, 3.725000000000000e+00, 3.725000000000000e+00, 3.725000000000000e+00, 3.725000000000000e+00, 3.725000000000000e+00, 3.725000000000000e+00, 3.725000000000000e+00, 3.725000000000000e+00, 3.725000000000000e+00, 2.858956350743661e+00, 7.749527725260129e+00, 3.725000000000000e+00, 3.102787508684020e+00, 3.725000000000000e+00, 3.725000000000000e+00, 3.725000000000000e+00, 3.725000000000000e+00, 3.389649889218635e+00, 3.725000000000000e+00, 3.725000000000000e+00, 3.725000000000000e+00, 3.725000000000000e+00, 3.725000000000000e+00, 3.725000000000000e+00, 2.624759444298811e+00, 3.725000000000000e+00, 3.725000000000000e+00, 2.934659943926985e+00, 3.725000000000000e+00, 3.725000000000000e+00, 3.725000000000000e+00, 3.725000000000000e+00, 3.725000000000000e+00, 3.725000000000000e+00, 3.725000000000000e+00, 3.725000000000000e+00, 3.725000000000000e+00, 3.725000000000000e+00, 3.725000000000000e+00, 3.725000000000000e+00, 3.725000000000000e+00, 3.725000000000000e+00, 3.688905305456268e+00, 3.725000000000000e+00, 3.311718995439480e+00, 3.725000000000000e+00, 3.725000000000000e+00, 3.455513840477068e+00, 3.725000000000000e+00, 3.725000000000000e+00, 3.725000000000000e+00, 3.725000000000000e+00, 4.026007308465319e+00, 3.725000000000000e+00, 3.725000000000000e+00, 3.725000000000000e+00, 3.725000000000000e+00, 3.725000000000000e+00, 3.725000000000000e+00, 3.725000000000000e+00, 3.725000000000000e+00, 2.914871565353257e+00, 2.907693768714708e+00, 3.725000000000000e+00, 3.725000000000000e+00, 3.725000000000000e+00, 3.725000000000000e+00, 3.925772946219304e+00, 3.725000000000000e+00, 3.725000000000000e+00, 3.725000000000000e+00, 3.725000000000000e+00, 3.725000000000000e+00, 3.725000000000000e+00, 3.725000000000000e+00, 3.725000000000000e+00, 3.725000000000000e+00, 3.154864938290757e+00, 2.907254961008103e+00, 3.725000000000000e+00, 3.725000000000000e+00, 3.725000000000000e+00, 3.725000000000000e+00, 3.725000000000000e+00, 3.725000000000000e+00, 3.725000000000000e+00, 3.725000000000000e+00, 3.725000000000000e+00, 3.725000000000000e+00, 2.580926720474398e+00, 3.725000000000000e+00, 3.725000000000000e+00, 3.172948059385127e+00, 3.725000000000000e+00, 3.725000000000000e+00, 4.822628230026635e+00, 3.725000000000000e+00, 1.871138625499277e+00, 3.725000000000000e+00, 3.725000000000000e+00, 3.725000000000000e+00, 3.725000000000000e+00, 3.725000000000000e+00, 3.725000000000000e+00, 3.725000000000000e+00, 3.725000000000000e+00, 3.725000000000000e+00, 3.725000000000000e+00, 3.725000000000000e+00, 3.725000000000000e+00, 3.725000000000000e+00, 3.725000000000000e+00, 3.056633287668419e+00, 3.725000000000000e+00, 3.725000000000000e+00, 3.725000000000000e+00, 3.725000000000000e+00, 3.725000000000000e+00, 3.725000000000000e+00, 5.686276002865497e+00, 3.725000000000000e+00, 3.725000000000000e+00, 3.665610574608241e+00, 3.725000000000000e+00, 3.725000000000000e+00, 3.725000000000000e+00, 3.725000000000000e+00, 3.366840289210809e+00, 3.725000000000000e+00, 5.163233243269164e+00, 3.725000000000000e+00, 3.725000000000000e+00, 3.674369743448422e+00, 3.725000000000000e+00, 3.725000000000000e+00, 3.725000000000000e+00, 3.725000000000000e+00, 3.725000000000000e+00, 3.725000000000000e+00, 3.725000000000000e+00, 3.725000000000000e+00, 3.725000000000000e+00, 3.725000000000000e+00, 3.725000000000000e+00, 3.725000000000000e+00, 3.725000000000000e+00, 4.023004009387231e+00, 4.121545874371937e+00, 4.207179297930329e+00, 3.725000000000000e+00, 3.725000000000000e+00, 3.725000000000000e+00, 3.725000000000000e+00, 3.725000000000000e+00, 3.725000000000000e+00, 3.725000000000000e+00, 3.725000000000000e+00, 4.087616650332983e+00, 3.725000000000000e+00, 3.725000000000000e+00, 3.725000000000000e+00, 3.725000000000000e+00, 3.959946608472181e+00, 5.224011209202115e+00, 3.725000000000000e+00, 3.725000000000000e+00, 3.675282741205192e+00, 3.725000000000000e+00, 3.725000000000000e+00, 3.725000000000000e+00, 3.725000000000000e+00, 3.725000000000000e+00, 3.646785540922052e+00, 3.725000000000000e+00, 3.725000000000000e+00, 3.725000000000000e+00, 3.725000000000000e+00, 3.759907866575046e+00, 2.608146041409758e+00, 3.725000000000000e+00, 5.305376817630441e+00, 3.576259512701818e+00, 2.965928956354614e+00, 3.725000000000000e+00, 3.725000000000000e+00, 3.725000000000000e+00, 3.725000000000000e+00, 3.725000000000000e+00, 3.725000000000000e+00, 3.725000000000000e+00, 3.725000000000000e+00, 3.725000000000000e+00, 3.725000000000000e+00, 3.725000000000000e+00, 3.725000000000000e+00, 3.725000000000000e+00, 3.831582125808931e+00, 4.043151117906916e+00, 3.725000000000000e+00, 3.725000000000000e+00, 3.725000000000000e+00, 3.725000000000000e+00, 3.725000000000000e+00, 3.725000000000000e+00, 3.725000000000000e+00, 3.725000000000000e+00, 3.725000000000000e+00, 3.725000000000000e+00, 3.725000000000000e+00, 3.725000000000000e+00, 3.725000000000000e+00, 4.414125352964165e+00, 3.887732828440849e+00, 3.725000000000000e+00, 4.085517022405436e+00, 2.819551004916972e+00, 1.450549450549451e+00, 1.484275866735700e+00, 1.450549450549451e+00, 1.450549450549451e+00, 1.450549450549451e+00, 1.450549450549451e+00, 1.450549450549451e+00, 1.450549450549451e+00, 1.450549450549451e+00, 3.032168295537379e+00, 1.450549450549451e+00, 1.450549450549451e+00, 1.450549450549451e+00, 1.450549450549451e+00, 1.450549450549451e+00, 1.450549450549451e+00, 8.878698811759285e-01, 1.450549450549451e+00, 1.450549450549451e+00, 2.276092017947564e+00, 1.450549450549451e+00, 1.450549450549451e+00, 1.450549450549451e+00, 1.450549450549451e+00, 1.450549450549451e+00, 1.450549450549451e+00, 1.450549450549451e+00, 1.450549450549451e+00, 1.450549450549451e+00, 1.450549450549451e+00, 1.450549450549451e+00, 2.664972789642927e+00, 1.450549450549451e+00, 1.158184363383544e+00, 1.691403714181407e+00, 1.450549450549451e+00, 1.450549450549451e+00, 1.450549450549451e+00, 1.450549450549451e+00, 1.962600469880143e+00, 1.450549450549451e+00, 1.450549450549451e+00, 1.450549450549451e+00, 1.450549450549451e+00, 1.450549450549451e+00, 1.450549450549451e+00, 1.450549450549451e+00, 1.450549450549451e+00, 1.450549450549451e+00, 1.238448674252263e+00, 1.283396302512292e+00, 1.450549450549451e+00, 1.350355475735778e+00, 1.450549450549451e+00, 1.450549450549451e+00, 1.450549450549451e+00, 1.450549450549451e+00, 1.183386086784241e+00, 1.450549450549451e+00, 1.450549450549451e+00, 1.450549450549451e+00, 1.450549450549451e+00, 1.450549450549451e+00, 1.450549450549451e+00, 5.330089471137941e-01, 1.450549450549451e+00, 1.450549450549451e+00, 1.317702055468025e+00, 1.450549450549451e+00, 1.450549450549451e+00, 1.450549450549451e+00, 1.450549450549451e+00, 1.450549450549451e+00, 1.450549450549451e+00, 1.450549450549451e+00, 1.450549450549451e+00, 1.450549450549451e+00, 1.450549450549451e+00, 1.450549450549451e+00, 1.450549450549451e+00, 1.450549450549451e+00, 1.450549450549451e+00, 9.835974213709624e-01, 1.450549450549451e+00, 1.511856191936842e+00, 1.450549450549451e+00, 1.450549450549451e+00, 9.225475048701969e-01, 1.450549450549451e+00, 1.450549450549451e+00, 1.450549450549451e+00, 1.450549450549451e+00, 7.602512938290981e-01, 1.450549450549451e+00, 1.450549450549451e+00, 1.450549450549451e+00, 1.450549450549451e+00, 1.450549450549451e+00, 1.450549450549451e+00, 1.450549450549451e+00, 1.450549450549451e+00, 1.442609850859710e+00, 6.284896908524872e-01, 1.450549450549451e+00, 1.450549450549451e+00, 1.450549450549451e+00, 1.450549450549451e+00, 6.048175614711989e-01, 1.450549450549451e+00, 1.450549450549451e+00, 1.450549450549451e+00, 1.450549450549451e+00, 1.450549450549451e+00, 1.450549450549451e+00, 1.450549450549451e+00, 1.450549450549451e+00, 1.450549450549451e+00, 1.611447307712188e+00, 1.548435225500624e+00, 1.450549450549451e+00, 1.450549450549451e+00, 1.450549450549451e+00, 1.450549450549451e+00, 1.450549450549451e+00, 1.450549450549451e+00, 1.450549450549451e+00, 1.450549450549451e+00, 1.450549450549451e+00, 1.450549450549451e+00, 1.913846543364228e+00, 1.450549450549451e+00, 1.450549450549451e+00, 1.642611062062222e+00, 1.450549450549451e+00, 1.450549450549451e+00, 8.057800952453736e-01, 1.450549450549451e+00, 1.399954194695206e+00, 1.450549450549451e+00, 1.450549450549451e+00, 1.450549450549451e+00, 1.450549450549451e+00, 1.450549450549451e+00, 1.450549450549451e+00, 1.450549450549451e+00, 1.450549450549451e+00, 1.450549450549451e+00, 1.450549450549451e+00, 1.450549450549451e+00, 1.450549450549451e+00, 1.450549450549451e+00, 1.450549450549451e+00, 1.118603437216656e+00, 1.450549450549451e+00, 1.450549450549451e+00, 1.450549450549451e+00, 1.450549450549451e+00, 1.450549450549451e+00, 1.450549450549451e+00, 1.840367580661087e+00, 1.450549450549451e+00, 1.450549450549451e+00, 1.095576948619320e+00, 1.450549450549451e+00, 1.450549450549451e+00, 1.450549450549451e+00, 1.450549450549451e+00, 1.035295064210208e+00, 1.450549450549451e+00, 1.372670765156560e+00, 1.450549450549451e+00, 1.450549450549451e+00, 9.559096833668249e-01, 1.450549450549451e+00, 1.450549450549451e+00, 1.450549450549451e+00, 1.450549450549451e+00, 1.450549450549451e+00, 1.450549450549451e+00, 1.450549450549451e+00, 1.450549450549451e+00, 1.450549450549451e+00, 1.450549450549451e+00, 1.450549450549451e+00, 1.450549450549451e+00, 1.450549450549451e+00, 1.255777957225454e+00, 6.334190206969553e-01, 9.297032492186802e-01, 1.450549450549451e+00, 1.450549450549451e+00, 1.450549450549451e+00, 1.450549450549451e+00, 1.450549450549451e+00, 1.450549450549451e+00, 1.450549450549451e+00, 1.450549450549451e+00, 1.521268059512722e+00, 1.450549450549451e+00, 1.450549450549451e+00, 1.450549450549451e+00, 1.450549450549451e+00, 1.440516081794016e+00, 6.638523068270614e-01, 1.450549450549451e+00, 1.450549450549451e+00, 1.548275197531023e+00, 1.450549450549451e+00, 1.450549450549451e+00, 1.450549450549451e+00, 1.450549450549451e+00, 1.450549450549451e+00, 1.261249871200595e+00, 1.450549450549451e+00, 1.450549450549451e+00, 1.450549450549451e+00, 1.450549450549451e+00, 9.375565378148275e-01, 1.547393963116247e+00, 1.450549450549451e+00, 1.161125678510154e+00, 9.361683372783213e-01, 6.026953572553669e-01, 1.450549450549451e+00, 1.450549450549451e+00, 1.450549450549451e+00, 1.450549450549451e+00, 1.450549450549451e+00, 1.450549450549451e+00, 1.450549450549451e+00, 1.450549450549451e+00, 1.450549450549451e+00, 1.450549450549451e+00, 1.450549450549451e+00, 1.450549450549451e+00, 1.450549450549451e+00, 6.100262968329656e-01, 1.163557228098712e+00, 1.450549450549451e+00, 1.450549450549451e+00, 1.450549450549451e+00, 1.450549450549451e+00, 1.450549450549451e+00, 1.450549450549451e+00, 1.450549450549451e+00, 1.450549450549451e+00, 1.450549450549451e+00, 1.450549450549451e+00, 1.450549450549451e+00, 1.450549450549451e+00, 1.450549450549451e+00, 6.979652360911667e-01, 6.446149993882375e-01, 1.450549450549451e+00, 1.048632498352178e+00, 2.855939650890356e+00, 3.725000000000000e+00, 5.882486025500565e+00, 3.725000000000000e+00, 3.725000000000000e+00, 3.725000000000000e+00, 3.725000000000000e+00, 3.725000000000000e+00, 3.725000000000000e+00, 3.725000000000000e+00, 2.933211440800052e+00, 3.725000000000000e+00, 3.725000000000000e+00, 3.725000000000000e+00, 3.725000000000000e+00, 3.725000000000000e+00, 3.725000000000000e+00, 4.794490586094594e+00, 3.725000000000000e+00, 3.725000000000000e+00, 2.858128085229069e+00, 3.725000000000000e+00, 3.725000000000000e+00, 3.725000000000000e+00, 3.725000000000000e+00, 3.725000000000000e+00, 3.725000000000000e+00, 3.725000000000000e+00, 3.725000000000000e+00, 3.725000000000000e+00, 3.725000000000000e+00, 3.725000000000000e+00, 2.335752796637847e+00, 3.725000000000000e+00, 3.900699284896678e+00, 3.611729489253044e+00, 3.725000000000000e+00, 3.725000000000000e+00, 3.725000000000000e+00, 3.725000000000000e+00, 2.103501007175260e+00, 3.725000000000000e+00, 3.725000000000000e+00, 3.725000000000000e+00, 3.725000000000000e+00, 3.725000000000000e+00, 3.725000000000000e+00, 3.725000000000000e+00, 3.725000000000000e+00, 3.725000000000000e+00, 4.800247205211585e+00, 3.397181623830716e+00, 3.725000000000000e+00, 3.698027949747540e+00, 3.725000000000000e+00, 3.725000000000000e+00, 3.725000000000000e+00, 3.725000000000000e+00, 3.901138290381925e+00, 3.725000000000000e+00, 3.725000000000000e+00, 3.725000000000000e+00, 3.725000000000000e+00, 3.725000000000000e+00, 3.725000000000000e+00, 4.372233900450277e+00, 3.725000000000000e+00, 3.725000000000000e+00, 3.349955621869136e+00, 3.725000000000000e+00, 3.725000000000000e+00, 3.725000000000000e+00, 3.725000000000000e+00, 3.725000000000000e+00, 3.725000000000000e+00, 3.725000000000000e+00, 3.725000000000000e+00, 3.725000000000000e+00, 3.725000000000000e+00, 3.725000000000000e+00, 3.725000000000000e+00, 3.725000000000000e+00, 3.725000000000000e+00, 3.699435138032470e+00, 3.725000000000000e+00, 2.889219935198076e+00, 3.725000000000000e+00, 3.725000000000000e+00, 3.369420771228987e+00, 3.725000000000000e+00, 3.725000000000000e+00, 3.725000000000000e+00, 3.725000000000000e+00, 3.618139515045462e+00, 3.725000000000000e+00, 3.725000000000000e+00, 3.725000000000000e+00, 3.725000000000000e+00, 3.725000000000000e+00, 3.725000000000000e+00, 3.725000000000000e+00, 3.725000000000000e+00, 2.881629911524333e+00, 4.098485379493682e+00, 3.725000000000000e+00, 3.725000000000000e+00, 3.725000000000000e+00, 3.725000000000000e+00, 4.292856022875235e+00, 3.725000000000000e+00, 3.725000000000000e+00, 3.725000000000000e+00, 3.725000000000000e+00, 3.725000000000000e+00, 3.725000000000000e+00, 3.725000000000000e+00, 3.725000000000000e+00, 3.725000000000000e+00, 3.889950695811106e+00, 3.239746178592533e+00, 3.725000000000000e+00, 3.725000000000000e+00, 3.725000000000000e+00, 3.725000000000000e+00, 3.725000000000000e+00, 3.725000000000000e+00, 3.725000000000000e+00, 3.725000000000000e+00, 3.725000000000000e+00, 3.725000000000000e+00, 3.333347360343356e+00, 3.725000000000000e+00, 3.725000000000000e+00, 3.566165486422260e+00, 3.725000000000000e+00, 3.725000000000000e+00, 3.694019642772985e+00, 3.725000000000000e+00, 3.846734969712339e+00, 3.725000000000000e+00, 3.725000000000000e+00, 3.725000000000000e+00, 3.725000000000000e+00, 3.725000000000000e+00, 3.725000000000000e+00, 3.725000000000000e+00, 3.725000000000000e+00, 3.725000000000000e+00, 3.725000000000000e+00, 3.725000000000000e+00, 3.725000000000000e+00, 3.725000000000000e+00, 3.725000000000000e+00, 3.634515951250425e+00, 3.725000000000000e+00, 3.725000000000000e+00, 3.725000000000000e+00, 3.725000000000000e+00, 3.725000000000000e+00, 3.725000000000000e+00, 2.971456990499802e+00, 3.725000000000000e+00, 3.725000000000000e+00, 3.546514025695354e+00, 3.725000000000000e+00, 3.725000000000000e+00, 3.725000000000000e+00, 3.725000000000000e+00, 3.324576120467469e+00, 3.725000000000000e+00, 3.233946568836578e+00, 3.725000000000000e+00, 3.725000000000000e+00, 3.499373079838606e+00, 3.725000000000000e+00, 3.725000000000000e+00, 3.725000000000000e+00, 3.725000000000000e+00, 3.725000000000000e+00, 3.725000000000000e+00, 3.725000000000000e+00, 3.725000000000000e+00, 3.725000000000000e+00, 3.725000000000000e+00, 3.725000000000000e+00, 3.725000000000000e+00, 3.725000000000000e+00, 2.991444982843803e+00, 4.129609820809366e+00, 4.128027727173630e+00, 3.725000000000000e+00, 3.725000000000000e+00, 3.725000000000000e+00, 3.725000000000000e+00, 3.725000000000000e+00, 3.725000000000000e+00, 3.725000000000000e+00, 3.725000000000000e+00, 4.117643339526269e+00, 3.725000000000000e+00, 3.725000000000000e+00, 3.725000000000000e+00, 3.725000000000000e+00, 4.229119733025903e+00, 4.733930780378696e+00, 3.725000000000000e+00, 3.725000000000000e+00, 4.400565049780185e+00, 3.725000000000000e+00, 3.725000000000000e+00, 3.725000000000000e+00, 3.725000000000000e+00, 3.725000000000000e+00, 4.069171689212666e+00, 3.725000000000000e+00, 3.725000000000000e+00, 3.725000000000000e+00, 3.725000000000000e+00, 4.635286946355096e+00, 3.756394368285290e+00, 3.725000000000000e+00, 3.982303118861354e+00, 4.640385564992206e+00, 5.652312331311631e+00, 3.725000000000000e+00, 3.725000000000000e+00, 3.725000000000000e+00, 3.725000000000000e+00, 3.725000000000000e+00, 3.725000000000000e+00, 3.725000000000000e+00, 3.725000000000000e+00, 3.725000000000000e+00, 3.725000000000000e+00, 3.725000000000000e+00, 3.725000000000000e+00, 3.725000000000000e+00, 4.361285955455193e+00, 3.697577993001206e+00, 3.725000000000000e+00, 3.725000000000000e+00, 3.725000000000000e+00, 3.725000000000000e+00, 3.725000000000000e+00, 3.725000000000000e+00, 3.725000000000000e+00, 3.725000000000000e+00, 3.725000000000000e+00, 3.725000000000000e+00, 3.725000000000000e+00, 3.725000000000000e+00, 3.725000000000000e+00, 4.384150656157877e+00, 4.396628780548038e+00, 3.725000000000000e+00, 3.340315627660577e+00, 1.282127240360364e+00, 1.450549450549451e+00, 2.251183094040439e+00, 1.450549450549451e+00, 1.450549450549451e+00, 1.450549450549451e+00, 1.450549450549451e+00, 1.450549450549451e+00, 1.450549450549451e+00, 1.450549450549451e+00, 8.633310087406566e-01, 1.450549450549451e+00, 1.450549450549451e+00, 1.450549450549451e+00, 1.450549450549451e+00, 1.450549450549451e+00, 1.450549450549451e+00, 2.872782247974335e-01, 1.450549450549451e+00, 1.450549450549451e+00, 3.948720094460857e-01, 1.450549450549451e+00, 1.450549450549451e+00, 1.450549450549451e+00, 1.450549450549451e+00, 1.450549450549451e+00, 1.450549450549451e+00, 1.450549450549451e+00, 1.450549450549451e+00, 1.450549450549451e+00, 1.450549450549451e+00, 1.450549450549451e+00, 1.739642175324338e+00, 1.450549450549451e+00, 1.564862677303984e+00, 1.174771936707054e+00, 1.450549450549451e+00, 1.450549450549451e+00, 1.450549450549451e+00, 1.450549450549451e+00, 4.980243108692144e-01, 1.450549450549451e+00, 1.450549450549451e+00, 1.450549450549451e+00, 1.450549450549451e+00, 1.450549450549451e+00, 1.450549450549451e+00, 1.450549450549451e+00, 1.450549450549451e+00, 1.450549450549451e+00, 8.414920287877826e-01, 1.864536156258724e-01, 1.450549450549451e+00, 6.943236227426917e-01, 1.450549450549451e+00, 1.450549450549451e+00, 1.450549450549451e+00, 1.450549450549451e+00, 9.942644720424219e-02, 1.450549450549451e+00, 1.450549450549451e+00, 1.450549450549451e+00, 1.450549450549451e+00, 1.450549450549451e+00, 1.450549450549451e+00, 2.200737419672582e-01, 1.450549450549451e+00, 1.450549450549451e+00, 8.331215406557545e-01, 1.450549450549451e+00, 1.450549450549451e+00, 1.450549450549451e+00, 1.450549450549451e+00, 1.450549450549451e+00, 1.450549450549451e+00, 1.450549450549451e+00, 1.450549450549451e+00, 1.450549450549451e+00, 1.450549450549451e+00, 1.450549450549451e+00, 1.450549450549451e+00, 1.450549450549451e+00, 1.450549450549451e+00, 6.493062050754428e-01, 1.450549450549451e+00, -8.133927991894338e-02, 1.450549450549451e+00, 1.450549450549451e+00, 2.095437921425012e-01, 1.450549450549451e+00, 1.450549450549451e+00, 1.450549450549451e+00, 1.450549450549451e+00, 4.727345100527089e-01, 1.450549450549451e+00, 1.450549450549451e+00, 1.450549450549451e+00, 1.450549450549451e+00, 1.450549450549451e+00, 1.450549450549451e+00, 1.450549450549451e+00, 1.450549450549451e+00, 7.834309543706904e-01, 8.508422640896321e-01, 1.450549450549451e+00, 1.450549450549451e+00, 1.450549450549451e+00, 1.450549450549451e+00, 2.561725972213937e-01, 1.450549450549451e+00, 1.450549450549451e+00, 1.450549450549451e+00, 1.450549450549451e+00, 1.450549450549451e+00, 1.450549450549451e+00, 1.450549450549451e+00, 1.450549450549451e+00, 1.450549450549451e+00, 4.409030220179354e-01, 2.287578911230431e-01, 1.450549450549451e+00, 1.450549450549451e+00, 1.450549450549451e+00, 1.450549450549451e+00, 1.450549450549451e+00, 1.450549450549451e+00, 1.450549450549451e+00, 1.450549450549451e+00, 1.450549450549451e+00, 1.450549450549451e+00, 1.037431543502849e+00, 1.450549450549451e+00, 1.450549450549451e+00, 6.021169784247991e-01, 1.450549450549451e+00, 1.450549450549451e+00, 1.502004467911084e-01, 1.450549450549451e+00, 5.557310631247895e-01, 1.450549450549451e+00, 1.450549450549451e+00, 1.450549450549451e+00, 1.450549450549451e+00, 1.450549450549451e+00, 1.450549450549451e+00, 1.450549450549451e+00, 1.450549450549451e+00, 1.450549450549451e+00, 1.450549450549451e+00, 1.450549450549451e+00, 1.450549450549451e+00, 1.450549450549451e+00, 1.450549450549451e+00, 6.257889598507845e-01, 1.450549450549451e+00, 1.450549450549451e+00, 1.450549450549451e+00, 1.450549450549451e+00, 1.450549450549451e+00, 1.450549450549451e+00, 7.001369626845773e-02, 1.450549450549451e+00, 1.450549450549451e+00, 1.995445662452981e-01, 1.450549450549451e+00, 1.450549450549451e+00, 1.450549450549451e+00, 1.450549450549451e+00, 2.485720099219294e-01, 1.450549450549451e+00, 5.938807384612005e-01, 1.450549450549451e+00, 1.450549450549451e+00, 1.941041570485579e-01, 1.450549450549451e+00, 1.450549450549451e+00, 1.450549450549451e+00, 1.450549450549451e+00, 1.450549450549451e+00, 1.450549450549451e+00, 1.450549450549451e+00, 1.450549450549451e+00, 1.450549450549451e+00, 1.450549450549451e+00, 1.450549450549451e+00, 1.450549450549451e+00, 1.450549450549451e+00, 1.179764521461076e+00, -7.297534012747823e-03, 8.871285515308281e-01, 1.450549450549451e+00, 1.450549450549451e+00, 1.450549450549451e+00, 1.450549450549451e+00, 1.450549450549451e+00, 1.450549450549451e+00, 1.450549450549451e+00, 1.450549450549451e+00, 2.837880721281238e-01, 1.450549450549451e+00, 1.450549450549451e+00, 1.450549450549451e+00, 1.450549450549451e+00, 3.273063295530158e-01, 5.629456924298822e-01, 1.450549450549451e+00, 1.450549450549451e+00, 1.197620133240328e-01, 1.450549450549451e+00, 1.450549450549451e+00, 1.450549450549451e+00, 1.450549450549451e+00, 1.450549450549451e+00, 9.566961175980087e-01, 1.450549450549451e+00, 1.450549450549451e+00, 1.450549450549451e+00, 1.450549450549451e+00, 1.122230296347812e+00, 7.784627541784354e-01, 1.450549450549451e+00, 1.009462804525463e+00, 8.587541703188570e-01, 5.035663099320655e-01, 1.450549450549451e+00, 1.450549450549451e+00, 1.450549450549451e+00, 1.450549450549451e+00, 1.450549450549451e+00, 1.450549450549451e+00, 1.450549450549451e+00, 1.450549450549451e+00, 1.450549450549451e+00, 1.450549450549451e+00, 1.450549450549451e+00, 1.450549450549451e+00, 1.450549450549451e+00, 4.653783340280148e-01, 5.565181937281787e-01, 1.450549450549451e+00, 1.450549450549451e+00, 1.450549450549451e+00, 1.450549450549451e+00, 1.450549450549451e+00, 1.450549450549451e+00, 1.450549450549451e+00, 1.450549450549451e+00, 1.450549450549451e+00, 1.450549450549451e+00, 1.450549450549451e+00, 1.450549450549451e+00, 1.450549450549451e+00, 2.472067384655900e-01, 7.644238632695155e-02, 1.450549450549451e+00, 8.810696491903094e-01, 2.621842580201684e+00, 3.725000000000000e+00, 2.348121650606493e+00, 3.725000000000000e+00, 3.725000000000000e+00, 3.725000000000000e+00, 3.725000000000000e+00, 3.725000000000000e+00, 3.725000000000000e+00, 3.725000000000000e+00, 3.035986929179384e+00, 3.725000000000000e+00, 3.725000000000000e+00, 3.725000000000000e+00, 3.725000000000000e+00, 3.725000000000000e+00, 3.725000000000000e+00, 3.567113996149183e+00, 3.725000000000000e+00, 3.725000000000000e+00, 3.211437358549559e+00, 3.725000000000000e+00, 3.725000000000000e+00, 3.725000000000000e+00, 3.725000000000000e+00, 3.725000000000000e+00, 3.725000000000000e+00, 3.725000000000000e+00, 3.725000000000000e+00, 3.725000000000000e+00, 3.725000000000000e+00, 3.725000000000000e+00, 2.928430678986324e+00, 3.725000000000000e+00, 2.160690635080595e+00, 3.318331423498857e+00, 3.725000000000000e+00, 3.725000000000000e+00, 3.725000000000000e+00, 3.725000000000000e+00, 4.574007096214622e+00, 3.725000000000000e+00, 3.725000000000000e+00, 3.725000000000000e+00, 3.725000000000000e+00, 3.725000000000000e+00, 3.725000000000000e+00, 3.725000000000000e+00, 3.725000000000000e+00, 3.725000000000000e+00, 2.074654587934478e+00, 4.598154388758847e+00, 3.725000000000000e+00, 3.910820433315884e+00, 3.725000000000000e+00, 3.725000000000000e+00, 3.725000000000000e+00, 3.725000000000000e+00, 6.722488331682688e+00, 3.725000000000000e+00, 3.725000000000000e+00, 3.725000000000000e+00, 3.725000000000000e+00, 3.725000000000000e+00, 3.725000000000000e+00, 2.745664828260261e+00, 3.725000000000000e+00, 3.725000000000000e+00, 3.536153546577193e+00, 3.725000000000000e+00, 3.725000000000000e+00, 3.725000000000000e+00, 3.725000000000000e+00, 3.725000000000000e+00, 3.725000000000000e+00, 3.725000000000000e+00, 3.725000000000000e+00, 3.725000000000000e+00, 3.725000000000000e+00, 3.725000000000000e+00, 3.725000000000000e+00, 3.725000000000000e+00, 3.725000000000000e+00, 2.999046953360319e+00, 3.725000000000000e+00, 5.047850859075485e+00, 3.725000000000000e+00, 3.725000000000000e+00, 3.338317948565713e+00, 3.725000000000000e+00, 3.725000000000000e+00, 3.725000000000000e+00, 3.725000000000000e+00, 3.025447042412942e+00, 3.725000000000000e+00, 3.725000000000000e+00, 3.725000000000000e+00, 3.725000000000000e+00, 3.725000000000000e+00, 3.725000000000000e+00, 3.725000000000000e+00, 3.725000000000000e+00, 3.519335691061907e+00, 1.930470376312869e+00, 3.725000000000000e+00, 3.725000000000000e+00, 3.725000000000000e+00, 3.725000000000000e+00, -1.378289472015817e+00, 3.725000000000000e+00, 3.725000000000000e+00, 3.725000000000000e+00, 3.725000000000000e+00, 3.725000000000000e+00, 3.725000000000000e+00, 3.725000000000000e+00, 3.725000000000000e+00, 3.725000000000000e+00, 5.032760897656727e+00, 6.338642604639102e+00, 3.725000000000000e+00, 3.725000000000000e+00, 3.725000000000000e+00, 3.725000000000000e+00, 3.725000000000000e+00, 3.725000000000000e+00, 3.725000000000000e+00, 3.725000000000000e+00, 3.725000000000000e+00, 3.725000000000000e+00, 3.627591009198290e+00, 3.725000000000000e+00, 3.725000000000000e+00, 8.751364196999418e-01, 3.725000000000000e+00, 3.725000000000000e+00, 4.092736620641603e+00, 3.725000000000000e+00, 4.230555574455079e+00, 3.725000000000000e+00, 3.725000000000000e+00, 3.725000000000000e+00, 3.725000000000000e+00, 3.725000000000000e+00, 3.725000000000000e+00, 3.725000000000000e+00, 3.725000000000000e+00, 3.725000000000000e+00, 3.725000000000000e+00, 3.725000000000000e+00, 3.725000000000000e+00, 3.725000000000000e+00, 3.725000000000000e+00, 3.830153712327809e+00, 3.725000000000000e+00, 3.725000000000000e+00, 3.725000000000000e+00, 3.725000000000000e+00, 3.725000000000000e+00, 3.725000000000000e+00, 5.292495996939772e+00, 3.725000000000000e+00, 3.725000000000000e+00, 4.997952294437511e+00, 3.725000000000000e+00, 3.725000000000000e+00, 3.725000000000000e+00, 3.725000000000000e+00, 3.793423428057100e+00, 3.725000000000000e+00, 1.433546429140668e+00, 3.725000000000000e+00, 3.725000000000000e+00, 4.522877851428825e+00, 3.725000000000000e+00, 3.725000000000000e+00, 3.725000000000000e+00, 3.725000000000000e+00, 3.725000000000000e+00, 3.725000000000000e+00, 3.725000000000000e+00, 3.725000000000000e+00, 3.725000000000000e+00, 3.725000000000000e+00, 3.725000000000000e+00, 3.725000000000000e+00, 3.725000000000000e+00, 1.883315441872970e+00, 7.155443047283983e-01, 1.205236933555621e+00, 3.725000000000000e+00, 3.725000000000000e+00, 3.725000000000000e+00, 3.725000000000000e+00, 3.725000000000000e+00, 3.725000000000000e+00, 3.725000000000000e+00, 3.725000000000000e+00, 5.271260998211142e+00, 3.725000000000000e+00, 3.725000000000000e+00, 3.725000000000000e+00, 3.725000000000000e+00, 4.739726880431013e+00, 4.392448570565409e+00, 3.725000000000000e+00, 3.725000000000000e+00, 6.720501201891798e+00, 3.725000000000000e+00, 3.725000000000000e+00, 3.725000000000000e+00, 3.725000000000000e+00, 3.725000000000000e+00, 3.097648083802686e+00, 3.725000000000000e+00, 3.725000000000000e+00, 3.725000000000000e+00, 3.725000000000000e+00, 2.897538970957909e+00, 2.766670408774082e+00, 3.725000000000000e+00, 2.639834576547583e+00, 3.152390171286551e+00, 2.860895558517035e+00, 3.725000000000000e+00, 3.725000000000000e+00, 3.725000000000000e+00, 3.725000000000000e+00, 3.725000000000000e+00, 3.725000000000000e+00, 3.725000000000000e+00, 3.725000000000000e+00, 3.725000000000000e+00, 3.725000000000000e+00, 3.725000000000000e+00, 3.725000000000000e+00, 3.725000000000000e+00, 4.227393268562810e+00, 1.978207575394123e+00, 3.725000000000000e+00, 3.725000000000000e+00, 3.725000000000000e+00, 3.725000000000000e+00, 3.725000000000000e+00, 3.725000000000000e+00, 3.725000000000000e+00, 3.725000000000000e+00, 3.725000000000000e+00, 3.725000000000000e+00, 3.725000000000000e+00, 3.725000000000000e+00, 3.725000000000000e+00, 2.061339561810966e-01, 4.558470510171540e+00, 3.725000000000000e+00, 1.737970700311118e+00, 9.868415241278865e-01, 1.450549450549451e+00, 1.641918493966912e+00, 1.450549450549451e+00, 1.450549450549451e+00, 1.450549450549451e+00, 1.450549450549451e+00, 1.450549450549451e+00, 1.450549450549451e+00, 1.450549450549451e+00, 4.950889261252067e-01, 1.450549450549451e+00, 1.450549450549451e+00, 1.450549450549451e+00, 1.450549450549451e+00, 1.450549450549451e+00, 1.450549450549451e+00, 1.388928776217824e+00, 1.450549450549451e+00, 1.450549450549451e+00, 3.032091191585329e+00, 1.450549450549451e+00, 1.450549450549451e+00, 1.450549450549451e+00, 1.450549450549451e+00, 1.450549450549451e+00, 1.450549450549451e+00, 1.450549450549451e+00, 1.450549450549451e+00, 1.450549450549451e+00, 1.450549450549451e+00, 1.450549450549451e+00, 1.614370526999690e+00, 1.450549450549451e+00, 7.388552030797933e-03, 1.788905521543548e+00, 1.450549450549451e+00, 1.450549450549451e+00, 1.450549450549451e+00, 1.450549450549451e+00, 1.548967249024064e+00, 1.450549450549451e+00, 1.450549450549451e+00, 1.450549450549451e+00, 1.450549450549451e+00, 1.450549450549451e+00, 1.450549450549451e+00, 1.450549450549451e+00, 1.450549450549451e+00, 1.450549450549451e+00, 1.038746300758891e-01, 8.802729204587225e-01, 1.450549450549451e+00, 6.770702632343898e-01, 1.450549450549451e+00, 1.450549450549451e+00, 1.450549450549451e+00, 1.450549450549451e+00, 5.098616501104554e-01, 1.450549450549451e+00, 1.450549450549451e+00, 1.450549450549451e+00, 1.450549450549451e+00, 1.450549450549451e+00, 1.450549450549451e+00, 1.728852382458068e+00, 1.450549450549451e+00, 1.450549450549451e+00, 7.869235090861417e-01, 1.450549450549451e+00, 1.450549450549451e+00, 1.450549450549451e+00, 1.450549450549451e+00, 1.450549450549451e+00, 1.450549450549451e+00, 1.450549450549451e+00, 1.450549450549451e+00, 1.450549450549451e+00, 1.450549450549451e+00, 1.450549450549451e+00, 1.450549450549451e+00, 1.450549450549451e+00, 1.450549450549451e+00, -8.486711252419095e-04, 1.450549450549451e+00, 8.153412636543687e-01, 1.450549450549451e+00, 1.450549450549451e+00, 1.162538394726307e-01, 1.450549450549451e+00, 1.450549450549451e+00, 1.450549450549451e+00, 1.450549450549451e+00, 1.191909887337624e-01, 1.450549450549451e+00, 1.450549450549451e+00, 1.450549450549451e+00, 1.450549450549451e+00, 1.450549450549451e+00, 1.450549450549451e+00, 1.450549450549451e+00, 1.450549450549451e+00, 9.447618086720961e-01, -1.618300285788512e-02, 1.450549450549451e+00, 1.450549450549451e+00, 1.450549450549451e+00, 1.450549450549451e+00, 4.708843338706802e-01, 1.450549450549451e+00, 1.450549450549451e+00, 1.450549450549451e+00, 1.450549450549451e+00, 1.450549450549451e+00, 1.450549450549451e+00, 1.450549450549451e+00, 1.450549450549451e+00, 1.450549450549451e+00, 5.876323728629315e-01, 1.157578480790878e+00, 1.450549450549451e+00, 1.450549450549451e+00, 1.450549450549451e+00, 1.450549450549451e+00, 1.450549450549451e+00, 1.450549450549451e+00, 1.450549450549451e+00, 1.450549450549451e+00, 1.450549450549451e+00, 1.450549450549451e+00, 5.212279631105122e-01, 1.450549450549451e+00, 1.450549450549451e+00, 7.879572735350812e-01, 1.450549450549451e+00, 1.450549450549451e+00, 5.857177137570071e-01, 1.450549450549451e+00, 6.671591504329809e-01, 1.450549450549451e+00, 1.450549450549451e+00, 1.450549450549451e+00, 1.450549450549451e+00, 1.450549450549451e+00, 1.450549450549451e+00, 1.450549450549451e+00, 1.450549450549451e+00, 1.450549450549451e+00, 1.450549450549451e+00, 1.450549450549451e+00, 1.450549450549451e+00, 1.450549450549451e+00, 1.450549450549451e+00, 6.982715567726956e-01, 1.450549450549451e+00, 1.450549450549451e+00, 1.450549450549451e+00, 1.450549450549451e+00, 1.450549450549451e+00, 1.450549450549451e+00, 1.043337328734144e+00, 1.450549450549451e+00, 1.450549450549451e+00, 1.575684581257245e-01, 1.450549450549451e+00, 1.450549450549451e+00, 1.450549450549451e+00, 1.450549450549451e+00, 2.029306537463509e-01, 1.450549450549451e+00, 7.830486650160624e-01, 1.450549450549451e+00, 1.450549450549451e+00, 9.221176696358958e-02, 1.450549450549451e+00, 1.450549450549451e+00, 1.450549450549451e+00, 1.450549450549451e+00, 1.450549450549451e+00, 1.450549450549451e+00, 1.450549450549451e+00, 1.450549450549451e+00, 1.450549450549451e+00, 1.450549450549451e+00, 1.450549450549451e+00, 1.450549450549451e+00, 1.450549450549451e+00, 8.463107034022376e-01, -3.600696113502608e-02, 1.152639955037980e-02, 1.450549450549451e+00, 1.450549450549451e+00, 1.450549450549451e+00, 1.450549450549451e+00, 1.450549450549451e+00, 1.450549450549451e+00, 1.450549450549451e+00, 1.450549450549451e+00, 1.266700306230686e+00, 1.450549450549451e+00, 1.450549450549451e+00, 1.450549450549451e+00, 1.450549450549451e+00, 9.967623780006576e-01, 4.998903794799921e-01, 1.450549450549451e+00, 1.450549450549451e+00, 5.837401583519468e-02, 1.450549450549451e+00, 1.450549450549451e+00, 1.450549450549451e+00, 1.450549450549451e+00, 1.450549450549451e+00, 6.282254817832311e-01, 1.450549450549451e+00, 1.450549450549451e+00, 1.450549450549451e+00, 1.450549450549451e+00, 6.327213294224937e-01, 9.475769165898623e-01, 1.450549450549451e+00, 4.104372104481933e-01, 4.478458556781373e-01, 6.141096338964893e-01, 1.450549450549451e+00, 1.450549450549451e+00, 1.450549450549451e+00, 1.450549450549451e+00, 1.450549450549451e+00, 1.450549450549451e+00, 1.450549450549451e+00, 1.450549450549451e+00, 1.450549450549451e+00, 1.450549450549451e+00, 1.450549450549451e+00, 1.450549450549451e+00, 1.450549450549451e+00, 1.257739737326922e-01, 6.819126850446579e-01, 1.450549450549451e+00, 1.450549450549451e+00, 1.450549450549451e+00, 1.450549450549451e+00, 1.450549450549451e+00, 1.450549450549451e+00, 1.450549450549451e+00, 1.450549450549451e+00, 1.450549450549451e+00, 1.450549450549451e+00, 1.450549450549451e+00, 1.450549450549451e+00, 1.450549450549451e+00, 1.611698603752869e-01, 5.393123413146550e-01, 1.450549450549451e+00, 6.923697695700289e-01, 4.661491089319589e+00, 3.725000000000000e+00, 3.505391385037853e+00, 3.725000000000000e+00, 3.725000000000000e+00, 3.725000000000000e+00, 3.725000000000000e+00, 3.725000000000000e+00, 3.725000000000000e+00, 3.725000000000000e+00, 7.150601649321669e+00, 3.725000000000000e+00, 3.725000000000000e+00, 3.725000000000000e+00, 3.725000000000000e+00, 3.725000000000000e+00, 3.725000000000000e+00, 4.348736772120749e+00, 3.725000000000000e+00, 3.725000000000000e+00, 3.215007288047094e+00, 3.725000000000000e+00, 3.725000000000000e+00, 3.725000000000000e+00, 3.725000000000000e+00, 3.725000000000000e+00, 3.725000000000000e+00, 3.725000000000000e+00, 3.725000000000000e+00, 3.725000000000000e+00, 3.725000000000000e+00, 3.725000000000000e+00, 3.582191282317873e+00, 3.725000000000000e+00, 2.823695813772638e+00, 3.620919816638049e+00, 3.725000000000000e+00, 3.725000000000000e+00, 3.725000000000000e+00, 3.725000000000000e+00, 3.821103898628883e+00, 3.725000000000000e+00, 3.725000000000000e+00, 3.725000000000000e+00, 3.725000000000000e+00, 3.725000000000000e+00, 3.725000000000000e+00, 3.725000000000000e+00, 3.725000000000000e+00, 3.725000000000000e+00, 7.098587450450034e+00, 3.689952752774477e+00, 3.725000000000000e+00, 3.327069467011544e+00, 3.725000000000000e+00, 3.725000000000000e+00, 3.725000000000000e+00, 3.725000000000000e+00, 3.612061088020800e+00, 3.725000000000000e+00, 3.725000000000000e+00, 3.725000000000000e+00, 3.725000000000000e+00, 3.725000000000000e+00, 3.725000000000000e+00, 3.485681481489889e+00, 3.725000000000000e+00, 3.725000000000000e+00, 3.525970725366666e+00, 3.725000000000000e+00, 3.725000000000000e+00, 3.725000000000000e+00, 3.725000000000000e+00, 3.725000000000000e+00, 3.725000000000000e+00, 3.725000000000000e+00, 3.725000000000000e+00, 3.725000000000000e+00, 3.725000000000000e+00, 3.725000000000000e+00, 3.725000000000000e+00, 3.725000000000000e+00, 3.725000000000000e+00, 3.790217338602403e+00, 3.725000000000000e+00, 2.861473665125124e+00, 3.725000000000000e+00, 3.725000000000000e+00, 3.206959731550433e-01, 3.725000000000000e+00, 3.725000000000000e+00, 3.725000000000000e+00, 3.725000000000000e+00, -1.942567609329913e+00, 3.725000000000000e+00, 3.725000000000000e+00, 3.725000000000000e+00, 3.725000000000000e+00, 3.725000000000000e+00, 3.725000000000000e+00, 3.725000000000000e+00, 3.725000000000000e+00, 2.878932389736885e+00, 2.120157180755209e+00, 3.725000000000000e+00, 3.725000000000000e+00, 3.725000000000000e+00, 3.725000000000000e+00, 4.805976098480753e+00, 3.725000000000000e+00, 3.725000000000000e+00, 3.725000000000000e+00, 3.725000000000000e+00, 3.725000000000000e+00, 3.725000000000000e+00, 3.725000000000000e+00, 3.725000000000000e+00, 3.725000000000000e+00, 2.838620120570989e+00, 3.351742250935622e+00, 3.725000000000000e+00, 3.725000000000000e+00, 3.725000000000000e+00, 3.725000000000000e+00, 3.725000000000000e+00, 3.725000000000000e+00, 3.725000000000000e+00, 3.725000000000000e+00, 3.725000000000000e+00, 3.725000000000000e+00, 3.689187901284090e+00, 3.725000000000000e+00, 3.725000000000000e+00, 3.713045858461851e+00, 3.725000000000000e+00, 3.725000000000000e+00, 4.365204071762416e+00, 3.725000000000000e+00, 3.987586463415522e+00, 3.725000000000000e+00, 3.725000000000000e+00, 3.725000000000000e+00, 3.725000000000000e+00, 3.725000000000000e+00, 3.725000000000000e+00, 3.725000000000000e+00, 3.725000000000000e+00, 3.725000000000000e+00, 3.725000000000000e+00, 3.725000000000000e+00, 3.725000000000000e+00, 3.725000000000000e+00, 3.725000000000000e+00, 3.901020268863013e+00, 3.725000000000000e+00, 3.725000000000000e+00, 3.725000000000000e+00, 3.725000000000000e+00, 3.725000000000000e+00, 3.725000000000000e+00, 2.803674938538220e+00, 3.725000000000000e+00, 3.725000000000000e+00, 1.472433080060681e+00, 3.725000000000000e+00, 3.725000000000000e+00, 3.725000000000000e+00, 3.725000000000000e+00, -4.544505241177172e-01, 3.725000000000000e+00, 3.236720000096539e+00, 3.725000000000000e+00, 3.725000000000000e+00, 8.966719267982104e-01, 3.725000000000000e+00, 3.725000000000000e+00, 3.725000000000000e+00, 3.725000000000000e+00, 3.725000000000000e+00, 3.725000000000000e+00, 3.725000000000000e+00, 3.725000000000000e+00, 3.725000000000000e+00, 3.725000000000000e+00, 3.725000000000000e+00, 3.725000000000000e+00, 3.725000000000000e+00, 3.056508995738801e+00, 3.047184897654091e+00, 3.939777688993722e+00, 3.725000000000000e+00, 3.725000000000000e+00, 3.725000000000000e+00, 3.725000000000000e+00, 3.725000000000000e+00, 3.725000000000000e+00, 3.725000000000000e+00, 3.725000000000000e+00, 2.640824617155630e+00, 3.725000000000000e+00, 3.725000000000000e+00, 3.725000000000000e+00, 3.725000000000000e+00, 2.994114341314297e+00, 5.341301296465896e+00, 3.725000000000000e+00, 3.725000000000000e+00, 2.258272310730599e+00, 3.725000000000000e+00, 3.725000000000000e+00, 3.725000000000000e+00, 3.725000000000000e+00, 3.725000000000000e+00, 4.266239734008348e+00, 3.725000000000000e+00, 3.725000000000000e+00, 3.725000000000000e+00, 3.725000000000000e+00, 4.452657526211233e+00, 3.088615552258076e+00, 3.725000000000000e+00, 5.314727502838748e+00, 4.935341849732866e+00, 3.466721258642378e+00, 3.725000000000000e+00, 3.725000000000000e+00, 3.725000000000000e+00, 3.725000000000000e+00, 3.725000000000000e+00, 3.725000000000000e+00, 3.725000000000000e+00, 3.725000000000000e+00, 3.725000000000000e+00, 3.725000000000000e+00, 3.725000000000000e+00, 3.725000000000000e+00, 3.725000000000000e+00, 1.660742297370070e+00, 3.918097652265898e+00, 3.725000000000000e+00, 3.725000000000000e+00, 3.725000000000000e+00, 3.725000000000000e+00, 3.725000000000000e+00, 3.725000000000000e+00, 3.725000000000000e+00, 3.725000000000000e+00, 3.725000000000000e+00, 3.725000000000000e+00, 3.725000000000000e+00, 3.725000000000000e+00, 3.725000000000000e+00, 3.109006279866959e+00, 3.716708635683155e+00, 3.725000000000000e+00, 3.535902022802129e+00, 3.149598787609836e+00, 1.450549450549451e+00, 6.355523486305541e+00, 1.450549450549451e+00, 1.450549450549451e+00, 1.450549450549451e+00, 1.450549450549451e+00, 1.450549450549451e+00, 1.450549450549451e+00, 1.450549450549451e+00, 1.876777421038856e+00, 1.450549450549451e+00, 1.450549450549451e+00, 1.450549450549451e+00, 1.450549450549451e+00, 1.450549450549451e+00, 1.450549450549451e+00, 1.362525276161646e+00, 1.450549450549451e+00, 1.450549450549451e+00, 2.229121825663338e+00, 1.450549450549451e+00, 1.450549450549451e+00, 1.450549450549451e+00, 1.450549450549451e+00, 1.450549450549451e+00, 1.450549450549451e+00, 1.450549450549451e+00, 1.450549450549451e+00, 1.450549450549451e+00, 1.450549450549451e+00, 1.450549450549451e+00, -8.871568960403720e-01, 1.450549450549451e+00, 1.287135189005020e+00, -1.822912475418468e+00, 1.450549450549451e+00, 1.450549450549451e+00, 1.450549450549451e+00, 1.450549450549451e+00, 1.969992199622246e+00, 1.450549450549451e+00, 1.450549450549451e+00, 1.450549450549451e+00, 1.450549450549451e+00, 1.450549450549451e+00, 1.450549450549451e+00, 1.450549450549451e+00, 1.450549450549451e+00, 1.450549450549451e+00, 7.527214351778224e-01, 1.636372177669952e+00, 1.450549450549451e+00, 1.914664998210173e+00, 1.450549450549451e+00, 1.450549450549451e+00, 1.450549450549451e+00, 1.450549450549451e+00, 1.799995948149022e+00, 1.450549450549451e+00, 1.450549450549451e+00, 1.450549450549451e+00, 1.450549450549451e+00, 1.450549450549451e+00, 1.450549450549451e+00, 2.749202425768640e+00, 1.450549450549451e+00, 1.450549450549451e+00, 1.378907481312156e+00, 1.450549450549451e+00, 1.450549450549451e+00, 1.450549450549451e+00, 1.450549450549451e+00, 1.450549450549451e+00, 1.450549450549451e+00, 1.450549450549451e+00, 1.450549450549451e+00, 1.450549450549451e+00, 1.450549450549451e+00, 1.450549450549451e+00, 1.450549450549451e+00, 1.450549450549451e+00, 1.450549450549451e+00, 9.805304298840056e-01, 1.450549450549451e+00, 1.303116158600938e+00, 1.450549450549451e+00, 1.450549450549451e+00, 6.957898911751486e-01, 1.450549450549451e+00, 1.450549450549451e+00, 1.450549450549451e+00, 1.450549450549451e+00, 5.307385546794815e-01, 1.450549450549451e+00, 1.450549450549451e+00, 1.450549450549451e+00, 1.450549450549451e+00, 1.450549450549451e+00, 1.450549450549451e+00, 1.450549450549451e+00, 1.450549450549451e+00, 2.244378000058525e+00, 3.981885266760219e-01, 1.450549450549451e+00, 1.450549450549451e+00, 1.450549450549451e+00, 1.450549450549451e+00, 2.254997722971450e-01, 1.450549450549451e+00, 1.450549450549451e+00, 1.450549450549451e+00, 1.450549450549451e+00, 1.450549450549451e+00, 1.450549450549451e+00, 1.450549450549451e+00, 1.450549450549451e+00, 1.450549450549451e+00, 1.935714986013431e+00, 1.797550506934599e+00, 1.450549450549451e+00, 1.450549450549451e+00, 1.450549450549451e+00, 1.450549450549451e+00, 1.450549450549451e+00, 1.450549450549451e+00, 1.450549450549451e+00, 1.450549450549451e+00, 1.450549450549451e+00, 1.450549450549451e+00, 2.291551395627176e+00, 1.450549450549451e+00, 1.450549450549451e+00, 2.379353205040543e+00, 1.450549450549451e+00, 1.450549450549451e+00, 1.658366655371868e+00, 1.450549450549451e+00, 2.183249499922517e+00, 1.450549450549451e+00, 1.450549450549451e+00, 1.450549450549451e+00, 1.450549450549451e+00, 1.450549450549451e+00, 1.450549450549451e+00, 1.450549450549451e+00, 1.450549450549451e+00, 1.450549450549451e+00, 1.450549450549451e+00, 1.450549450549451e+00, 1.450549450549451e+00, 1.450549450549451e+00, 1.450549450549451e+00, 1.417521374881135e+00, 1.450549450549451e+00, 1.450549450549451e+00, 1.450549450549451e+00, 1.450549450549451e+00, 1.450549450549451e+00, 1.450549450549451e+00, 1.415438868134215e+00, 1.450549450549451e+00, 1.450549450549451e+00, 1.660947420042592e+00, 1.450549450549451e+00, 1.450549450549451e+00, 1.450549450549451e+00, 1.450549450549451e+00, 1.398174108661477e+00, 1.450549450549451e+00, 2.256683027196295e+00, 1.450549450549451e+00, 1.450549450549451e+00, 1.265363398356399e+00, 1.450549450549451e+00, 1.450549450549451e+00, 1.450549450549451e+00, 1.450549450549451e+00, 1.450549450549451e+00, 1.450549450549451e+00, 1.450549450549451e+00, 1.450549450549451e+00, 1.450549450549451e+00, 1.450549450549451e+00, 1.450549450549451e+00, 1.450549450549451e+00, 1.450549450549451e+00, 9.540302144957246e-01, 3.888835210468146e-01, 7.186205650633791e-01, 1.450549450549451e+00, 1.450549450549451e+00, 1.450549450549451e+00, 1.450549450549451e+00, 1.450549450549451e+00, 1.450549450549451e+00, 1.450549450549451e+00, 1.450549450549451e+00, 2.315450389467475e+00, 1.450549450549451e+00, 1.450549450549451e+00, 1.450549450549451e+00, 1.450549450549451e+00, 2.110665171813388e+00, 1.652151981075902e+00, 1.450549450549451e+00, 1.450549450549451e+00, 1.726441153026409e+00, 1.450549450549451e+00, 1.450549450549451e+00, 1.450549450549451e+00, 1.450549450549451e+00, 1.450549450549451e+00, 2.961865676140291e+00, 1.450549450549451e+00, 1.450549450549451e+00, 1.450549450549451e+00, 1.450549450549451e+00, 2.008742346522852e+00, 2.174012541004898e+00, 1.450549450549451e+00, 2.195303280657757e+00, 1.857129616716241e+00, 1.450730828551404e+00, 1.450549450549451e+00, 1.450549450549451e+00, 1.450549450549451e+00, 1.450549450549451e+00, 1.450549450549451e+00, 1.450549450549451e+00, 1.450549450549451e+00, 1.450549450549451e+00, 1.450549450549451e+00, 1.450549450549451e+00, 1.450549450549451e+00, 1.450549450549451e+00, 1.450549450549451e+00, 1.012599519053814e+00, 1.130484356251690e+00, 1.450549450549451e+00, 1.450549450549451e+00, 1.450549450549451e+00, 1.450549450549451e+00, 1.450549450549451e+00, 1.450549450549451e+00, 1.450549450549451e+00, 1.450549450549451e+00, 1.450549450549451e+00, 1.450549450549451e+00, 1.450549450549451e+00, 1.450549450549451e+00, 1.450549450549451e+00, 4.749516013192802e-01, 6.869036024109957e-01, 1.450549450549451e+00, 1.791725642741504e+00, 2.892469115836279e+00, 3.725000000000000e+00, 2.679886262649103e+00, 3.725000000000000e+00, 3.725000000000000e+00, 3.725000000000000e+00, 3.725000000000000e+00, 3.725000000000000e+00, 3.725000000000000e+00, 3.725000000000000e+00, 3.481410222449897e+00, 3.725000000000000e+00, 3.725000000000000e+00, 3.725000000000000e+00, 3.725000000000000e+00, 3.725000000000000e+00, 3.725000000000000e+00, 2.805502264578866e+00, 3.725000000000000e+00, 3.725000000000000e+00, 2.567001955241031e+00, 3.725000000000000e+00, 3.725000000000000e+00, 3.725000000000000e+00, 3.725000000000000e+00, 3.725000000000000e+00, 3.725000000000000e+00, 3.725000000000000e+00, 3.725000000000000e+00, 3.725000000000000e+00, 3.725000000000000e+00, 3.725000000000000e+00, 1.925705037419452e+00, 3.725000000000000e+00, 2.824544158599031e+00, 3.487538666758135e+00, 3.725000000000000e+00, 3.725000000000000e+00, 3.725000000000000e+00, 3.725000000000000e+00, 3.067280923972830e+00, 3.725000000000000e+00, 3.725000000000000e+00, 3.725000000000000e+00, 3.725000000000000e+00, 3.725000000000000e+00, 3.725000000000000e+00, 3.725000000000000e+00, 3.725000000000000e+00, 3.725000000000000e+00, 1.750000089205983e+00, 3.800485628433230e+00, 3.725000000000000e+00, 3.621979207716280e+00, 3.725000000000000e+00, 3.725000000000000e+00, 3.725000000000000e+00, 3.725000000000000e+00, 3.758501128833608e+00, 3.725000000000000e+00, 3.725000000000000e+00, 3.725000000000000e+00, 3.725000000000000e+00, 3.725000000000000e+00, 3.725000000000000e+00, 2.802577661257031e+00, 3.725000000000000e+00, 3.725000000000000e+00, 3.834386840378167e+00, 3.725000000000000e+00, 3.725000000000000e+00, 3.725000000000000e+00, 3.725000000000000e+00, 3.725000000000000e+00, 3.725000000000000e+00, 3.725000000000000e+00, 3.725000000000000e+00, 3.725000000000000e+00, 3.725000000000000e+00, 3.725000000000000e+00, 3.725000000000000e+00, 3.725000000000000e+00, 3.725000000000000e+00, 3.892917535202875e+00, 3.725000000000000e+00, 3.012289980441637e+00, 3.725000000000000e+00, 3.725000000000000e+00, 4.301774552727514e+00, 3.725000000000000e+00, 3.725000000000000e+00, 3.725000000000000e+00, 3.725000000000000e+00, 5.033200310213337e+00, 3.725000000000000e+00, 3.725000000000000e+00, 3.725000000000000e+00, 3.725000000000000e+00, 3.725000000000000e+00, 3.725000000000000e+00, 3.725000000000000e+00, 3.725000000000000e+00, 2.580127756623244e+00, 5.863345320758179e+00, 3.725000000000000e+00, 3.725000000000000e+00, 3.725000000000000e+00, 3.725000000000000e+00, 9.088925065443085e+00, 3.725000000000000e+00, 3.725000000000000e+00, 3.725000000000000e+00, 3.725000000000000e+00, 3.725000000000000e+00, 3.725000000000000e+00, 3.725000000000000e+00, 3.725000000000000e+00, 3.725000000000000e+00, 3.961365272344687e+00, 3.722137931054497e+00, 3.725000000000000e+00, 3.725000000000000e+00, 3.725000000000000e+00, 3.725000000000000e+00, 3.725000000000000e+00, 3.725000000000000e+00, 3.725000000000000e+00, 3.725000000000000e+00, 3.725000000000000e+00, 3.725000000000000e+00, 2.545628168739575e+00, 3.725000000000000e+00, 3.725000000000000e+00, 3.478193129149233e+00, 3.725000000000000e+00, 3.725000000000000e+00, 3.963002025078535e+00, 3.725000000000000e+00, 3.712651342204182e+00, 3.725000000000000e+00, 3.725000000000000e+00, 3.725000000000000e+00, 3.725000000000000e+00, 3.725000000000000e+00, 3.725000000000000e+00, 3.725000000000000e+00, 3.725000000000000e+00, 3.725000000000000e+00, 3.725000000000000e+00, 3.725000000000000e+00, 3.725000000000000e+00, 3.725000000000000e+00, 3.725000000000000e+00, 3.796020708451555e+00, 3.725000000000000e+00, 3.725000000000000e+00, 3.725000000000000e+00, 3.725000000000000e+00, 3.725000000000000e+00, 3.725000000000000e+00, 2.924526934169807e+00, 3.725000000000000e+00, 3.725000000000000e+00, 3.441561014989961e+00, 3.725000000000000e+00, 3.725000000000000e+00, 3.725000000000000e+00, 3.725000000000000e+00, 3.219379044382185e+00, 3.725000000000000e+00, 2.735727299715835e+00, 3.725000000000000e+00, 3.725000000000000e+00, 3.681011210185480e+00, 3.725000000000000e+00, 3.725000000000000e+00, 3.725000000000000e+00, 3.725000000000000e+00, 3.725000000000000e+00, 3.725000000000000e+00, 3.725000000000000e+00, 3.725000000000000e+00, 3.725000000000000e+00, 3.725000000000000e+00, 3.725000000000000e+00, 3.725000000000000e+00, 3.725000000000000e+00, 2.674149653615812e+00, 6.390640121493038e+00, 4.673083280014326e+00, 3.725000000000000e+00, 3.725000000000000e+00, 3.725000000000000e+00, 3.725000000000000e+00, 3.725000000000000e+00, 3.725000000000000e+00, 3.725000000000000e+00, 3.725000000000000e+00, 3.930924325536368e+00, 3.725000000000000e+00, 3.725000000000000e+00, 3.725000000000000e+00, 3.725000000000000e+00, 4.092946566082245e+00, 4.300719068315638e+00, 3.725000000000000e+00, 3.725000000000000e+00, 4.481890613763403e+00, 3.725000000000000e+00, 3.725000000000000e+00, 3.725000000000000e+00, 3.725000000000000e+00, 3.725000000000000e+00, 3.472344671776065e+00, 3.725000000000000e+00, 3.725000000000000e+00, 3.725000000000000e+00, 3.725000000000000e+00, 3.914281378195445e+00, 3.860010353950606e+00, 3.725000000000000e+00, 4.058067941428193e+00, 4.117317320243736e+00, 4.240979641082647e+00, 3.725000000000000e+00, 3.725000000000000e+00, 3.725000000000000e+00, 3.725000000000000e+00, 3.725000000000000e+00, 3.725000000000000e+00, 3.725000000000000e+00, 3.725000000000000e+00, 3.725000000000000e+00, 3.725000000000000e+00, 3.725000000000000e+00, 3.725000000000000e+00, 3.725000000000000e+00, 4.378978950736856e+00, 3.293570084173207e+00, 3.725000000000000e+00, 3.725000000000000e+00, 3.725000000000000e+00, 3.725000000000000e+00, 3.725000000000000e+00, 3.725000000000000e+00, 3.725000000000000e+00, 3.725000000000000e+00, 3.725000000000000e+00, 3.725000000000000e+00, 3.725000000000000e+00, 3.725000000000000e+00, 3.725000000000000e+00, 6.007470570034530e+00, 4.641871279943441e+00, 3.725000000000000e+00, 2.989242225364356e+00, 2.156646342271598e+00, 1.450549450549451e+00, 1.717737146530772e+00, 1.450549450549451e+00, 1.450549450549451e+00, 1.450549450549451e+00, 1.450549450549451e+00, 1.450549450549451e+00, 1.450549450549451e+00, 1.450549450549451e+00, 2.511616089203228e+00, 1.450549450549451e+00, 1.450549450549451e+00, 1.450549450549451e+00, 1.450549450549451e+00, 1.450549450549451e+00, 1.450549450549451e+00, 1.019089646129934e+00, 1.450549450549451e+00, 1.450549450549451e+00, 1.013698518842727e+00, 1.450549450549451e+00, 1.450549450549451e+00, 1.450549450549451e+00, 1.450549450549451e+00, 1.450549450549451e+00, 1.450549450549451e+00, 1.450549450549451e+00, 1.450549450549451e+00, 1.450549450549451e+00, 1.450549450549451e+00, 1.450549450549451e+00, 3.320139104166743e+00, 1.450549450549451e+00, 1.025180103584731e+00, 1.703394379557778e+00, 1.450549450549451e+00, 1.450549450549451e+00, 1.450549450549451e+00, 1.450549450549451e+00, -5.652916300153596e-03, 1.450549450549451e+00, 1.450549450549451e+00, 1.450549450549451e+00, 1.450549450549451e+00, 1.450549450549451e+00, 1.450549450549451e+00, 1.450549450549451e+00, 1.450549450549451e+00, 1.450549450549451e+00, 1.262096952549253e+00, 9.314522292219793e-01, 1.450549450549451e+00, 5.136728451960628e-01, 1.450549450549451e+00, 1.450549450549451e+00, 1.450549450549451e+00, 1.450549450549451e+00, 4.598523047236470e-01, 1.450549450549451e+00, 1.450549450549451e+00, 1.450549450549451e+00, 1.450549450549451e+00, 1.450549450549451e+00, 1.450549450549451e+00, 4.070161918464680e-01, 1.450549450549451e+00, 1.450549450549451e+00, 8.365948871341387e-01, 1.450549450549451e+00, 1.450549450549451e+00, 1.450549450549451e+00, 1.450549450549451e+00, 1.450549450549451e+00, 1.450549450549451e+00, 1.450549450549451e+00, 1.450549450549451e+00, 1.450549450549451e+00, 1.450549450549451e+00, 1.450549450549451e+00, 1.450549450549451e+00, 1.450549450549451e+00, 1.450549450549451e+00, 8.387835665797223e-01, 1.450549450549451e+00, 9.364680101106926e-01, 1.450549450549451e+00, 1.450549450549451e+00, 7.170286462584340e-01, 1.450549450549451e+00, 1.450549450549451e+00, 1.450549450549451e+00, 1.450549450549451e+00, 6.495391565194683e-01, 1.450549450549451e+00, 1.450549450549451e+00, 1.450549450549451e+00, 1.450549450549451e+00, 1.450549450549451e+00, 1.450549450549451e+00, 1.450549450549451e+00, 1.450549450549451e+00, 5.941841275409818e-01, 4.036457564016171e-01, 1.450549450549451e+00, 1.450549450549451e+00, 1.450549450549451e+00, 1.450549450549451e+00, 4.410525101584327e-01, 1.450549450549451e+00, 1.450549450549451e+00, 1.450549450549451e+00, 1.450549450549451e+00, 1.450549450549451e+00, 1.450549450549451e+00, 1.450549450549451e+00, 1.450549450549451e+00, 1.450549450549451e+00, 6.941221079386716e-01, 1.191246544223407e+00, 1.450549450549451e+00, 1.450549450549451e+00, 1.450549450549451e+00, 1.450549450549451e+00, 1.450549450549451e+00, 1.450549450549451e+00, 1.450549450549451e+00, 1.450549450549451e+00, 1.450549450549451e+00, 1.450549450549451e+00, 1.377784726614085e+00, 1.450549450549451e+00, 1.450549450549451e+00, 1.039940390566291e+00, 1.450549450549451e+00, 1.450549450549451e+00, 8.605781053431583e-01, 1.450549450549451e+00, 8.225638788819007e-01, 1.450549450549451e+00, 1.450549450549451e+00, 1.450549450549451e+00, 1.450549450549451e+00, 1.450549450549451e+00, 1.450549450549451e+00, 1.450549450549451e+00, 1.450549450549451e+00, 1.450549450549451e+00, 1.450549450549451e+00, 1.450549450549451e+00, 1.450549450549451e+00, 1.450549450549451e+00, 1.450549450549451e+00, 7.548630595402261e-01, 1.450549450549451e+00, 1.450549450549451e+00, 1.450549450549451e+00, 1.450549450549451e+00, 1.450549450549451e+00, 1.450549450549451e+00, 1.190433038387960e+00, 1.450549450549451e+00, 1.450549450549451e+00, 8.531043262061497e-01, 1.450549450549451e+00, 1.450549450549451e+00, 1.450549450549451e+00, 1.450549450549451e+00, 7.597968978440858e-01, 1.450549450549451e+00, 8.958309698673926e-01, 1.450549450549451e+00, 1.450549450549451e+00, 6.620797795528865e-01, 1.450549450549451e+00, 1.450549450549451e+00, 1.450549450549451e+00, 1.450549450549451e+00, 1.450549450549451e+00, 1.450549450549451e+00, 1.450549450549451e+00, 1.450549450549451e+00, 1.450549450549451e+00, 1.450549450549451e+00, 1.450549450549451e+00, 1.450549450549451e+00, 1.450549450549451e+00, 6.498057086768049e-01, 4.250985096601193e-01, 7.748031232246999e-01, 1.450549450549451e+00, 1.450549450549451e+00, 1.450549450549451e+00, 1.450549450549451e+00, 1.450549450549451e+00, 1.450549450549451e+00, 1.450549450549451e+00, 1.450549450549451e+00, 6.444918120586178e-01, 1.450549450549451e+00, 1.450549450549451e+00, 1.450549450549451e+00, 1.450549450549451e+00, 5.773292537803570e-01, 9.619210633723700e-01, 1.450549450549451e+00, 1.450549450549451e+00, 6.874741123558785e-01, 1.450549450549451e+00, 1.450549450549451e+00, 1.450549450549451e+00, 1.450549450549451e+00, 1.450549450549451e+00, 1.140800903533471e+00, 1.450549450549451e+00, 1.450549450549451e+00, 1.450549450549451e+00, 1.450549450549451e+00, 8.790840630148078e-01, 5.673544059765965e-02, 1.450549450549451e+00, 1.123171655053247e+00, 1.014440455572877e+00, 3.617933569232223e-01, 1.450549450549451e+00, 1.450549450549451e+00, 1.450549450549451e+00, 1.450549450549451e+00, 1.450549450549451e+00, 1.450549450549451e+00, 1.450549450549451e+00, 1.450549450549451e+00, 1.450549450549451e+00, 1.450549450549451e+00, 1.450549450549451e+00, 1.450549450549451e+00, 1.450549450549451e+00, 5.359153884178126e-01, 8.413109380734963e-01, 1.450549450549451e+00, 1.450549450549451e+00, 1.450549450549451e+00, 1.450549450549451e+00, 1.450549450549451e+00, 1.450549450549451e+00, 1.450549450549451e+00, 1.450549450549451e+00, 1.450549450549451e+00, 1.450549450549451e+00, 1.450549450549451e+00, 1.450549450549451e+00, 1.450549450549451e+00, 4.914666985811902e-01, 6.136371650372061e-01, 1.450549450549451e+00, 7.043443851614792e-01, 2.131491065397521e+00, 3.725000000000000e+00, 2.778604288876545e+00, 3.725000000000000e+00, 3.725000000000000e+00, 3.725000000000000e+00, 3.725000000000000e+00, 3.725000000000000e+00, 3.725000000000000e+00, 3.725000000000000e+00, 2.229753372512590e+00, 3.725000000000000e+00, 3.725000000000000e+00, 3.725000000000000e+00, 3.725000000000000e+00, 3.725000000000000e+00, 3.725000000000000e+00, 4.563932382277489e+00, 3.725000000000000e+00, 3.725000000000000e+00, 8.567364645253014e-01, 3.725000000000000e+00, 3.725000000000000e+00, 3.725000000000000e+00, 3.725000000000000e+00, 3.725000000000000e+00, 3.725000000000000e+00, 3.725000000000000e+00, 3.725000000000000e+00, 3.725000000000000e+00, 3.725000000000000e+00, 3.725000000000000e+00, 2.717220341892827e+00, 3.725000000000000e+00, 4.054119662529838e+00, 3.398508537947826e+00, 3.725000000000000e+00, 3.725000000000000e+00, 3.725000000000000e+00, 3.725000000000000e+00, 5.456718926891672e+00, 3.725000000000000e+00, 3.725000000000000e+00, 3.725000000000000e+00, 3.725000000000000e+00, 3.725000000000000e+00, 3.725000000000000e+00, 3.725000000000000e+00, 3.725000000000000e+00, 3.725000000000000e+00, 3.685555336996817e+00, 2.255884398531155e+00, 3.725000000000000e+00, 2.335245451330172e+00, 3.725000000000000e+00, 3.725000000000000e+00, 3.725000000000000e+00, 3.725000000000000e+00, 2.104724136457341e+00, 3.725000000000000e+00, 3.725000000000000e+00, 3.725000000000000e+00, 3.725000000000000e+00, 3.725000000000000e+00, 3.725000000000000e+00, 3.970203863005239e+00, 3.725000000000000e+00, 3.725000000000000e+00, 2.167151171161359e+00, 3.725000000000000e+00, 3.725000000000000e+00, 3.725000000000000e+00, 3.725000000000000e+00, 3.725000000000000e+00, 3.725000000000000e+00, 3.725000000000000e+00, 3.725000000000000e+00, 3.725000000000000e+00, 3.725000000000000e+00, 3.725000000000000e+00, 3.725000000000000e+00, 3.725000000000000e+00, 3.725000000000000e+00, 2.586756269823520e+00, 3.725000000000000e+00, 2.262705862862050e+00, 3.725000000000000e+00, 3.725000000000000e+00, 2.348094107645852e+00, 3.725000000000000e+00, 3.725000000000000e+00, 3.725000000000000e+00, 3.725000000000000e+00, 2.465192545665480e+00, 3.725000000000000e+00, 3.725000000000000e+00, 3.725000000000000e+00, 3.725000000000000e+00, 3.725000000000000e+00, 3.725000000000000e+00, 3.725000000000000e+00, 3.725000000000000e+00, 2.160026856397729e+00, 2.759974077344443e+00, 3.725000000000000e+00, 3.725000000000000e+00, 3.725000000000000e+00, 3.725000000000000e+00, 2.867276439618962e+00, 3.725000000000000e+00, 3.725000000000000e+00, 3.725000000000000e+00, 3.725000000000000e+00, 3.725000000000000e+00, 3.725000000000000e+00, 3.725000000000000e+00, 3.725000000000000e+00, 3.725000000000000e+00, 3.034439814063653e+00, 2.296498947461748e+00, 3.725000000000000e+00, 3.725000000000000e+00, 3.725000000000000e+00, 3.725000000000000e+00, 3.725000000000000e+00, 3.725000000000000e+00, 3.725000000000000e+00, 3.725000000000000e+00, 3.725000000000000e+00, 3.725000000000000e+00, 2.554684382413172e+00, 3.725000000000000e+00, 3.725000000000000e+00, 2.766585038739245e+00, 3.725000000000000e+00, 3.725000000000000e+00, 2.433339021518311e+00, 3.725000000000000e+00, 2.932603222181815e+00, 3.725000000000000e+00, 3.725000000000000e+00, 3.725000000000000e+00, 3.725000000000000e+00, 3.725000000000000e+00, 3.725000000000000e+00, 3.725000000000000e+00, 3.725000000000000e+00, 3.725000000000000e+00, 3.725000000000000e+00, 3.725000000000000e+00, 3.725000000000000e+00, 3.725000000000000e+00, 3.725000000000000e+00, 2.450033679544732e+00, 3.725000000000000e+00, 3.725000000000000e+00, 3.725000000000000e+00, 3.725000000000000e+00, 3.725000000000000e+00, 3.725000000000000e+00, 2.145971719839025e+00, 3.725000000000000e+00, 3.725000000000000e+00, 2.831183742124825e+00, 3.725000000000000e+00, 3.725000000000000e+00, 3.725000000000000e+00, 3.725000000000000e+00, 2.506623037139636e+00, 3.725000000000000e+00, 2.497176647810314e+00, 3.725000000000000e+00, 3.725000000000000e+00, 2.778650787362339e+00, 3.725000000000000e+00, 3.725000000000000e+00, 3.725000000000000e+00, 3.725000000000000e+00, 3.725000000000000e+00, 3.725000000000000e+00, 3.725000000000000e+00, 3.725000000000000e+00, 3.725000000000000e+00, 3.725000000000000e+00, 3.725000000000000e+00, 3.725000000000000e+00, 3.725000000000000e+00, 2.452559733924546e+00, 3.203960518442866e+00, 2.936235701723845e+00, 3.725000000000000e+00, 3.725000000000000e+00, 3.725000000000000e+00, 3.725000000000000e+00, 3.725000000000000e+00, 3.725000000000000e+00, 3.725000000000000e+00, 3.725000000000000e+00, 3.382344706636174e+00, 3.725000000000000e+00, 3.725000000000000e+00, 3.725000000000000e+00, 3.725000000000000e+00, 3.287080804012384e+00, 2.774261618452426e+00, 3.725000000000000e+00, 3.725000000000000e+00, 3.305343146753395e+00, 3.725000000000000e+00, 3.725000000000000e+00, 3.725000000000000e+00, 3.725000000000000e+00, 3.725000000000000e+00, 2.996001723421552e+00, 3.725000000000000e+00, 3.725000000000000e+00, 3.725000000000000e+00, 3.725000000000000e+00, 3.140534226251227e+00, 5.826195662115862e+00, 3.725000000000000e+00, 2.695289408669510e+00, 3.072770648013911e+00, 1.766740450241763e+00, 3.725000000000000e+00, 3.725000000000000e+00, 3.725000000000000e+00, 3.725000000000000e+00, 3.725000000000000e+00, 3.725000000000000e+00, 3.725000000000000e+00, 3.725000000000000e+00, 3.725000000000000e+00, 3.725000000000000e+00, 3.725000000000000e+00, 3.725000000000000e+00, 3.725000000000000e+00, 2.866070366586377e+00, 2.882148960494078e+00, 3.725000000000000e+00, 3.725000000000000e+00, 3.725000000000000e+00, 3.725000000000000e+00, 3.725000000000000e+00, 3.725000000000000e+00, 3.725000000000000e+00, 3.725000000000000e+00, 3.725000000000000e+00, 3.725000000000000e+00, 3.725000000000000e+00, 3.725000000000000e+00, 3.725000000000000e+00, 3.405757434968316e+00, 3.012818719247873e+00, 3.725000000000000e+00, 2.794664877840518e+00, 5.665458752672556e-01, 1.450549450549451e+00, 1.042138424329639e+00, 1.450549450549451e+00, 1.450549450549451e+00, 1.450549450549451e+00, 1.450549450549451e+00, 1.450549450549451e+00, 1.450549450549451e+00, 1.450549450549451e+00, 1.127724081035126e+00, 1.450549450549451e+00, 1.450549450549451e+00, 1.450549450549451e+00, 1.450549450549451e+00, 1.450549450549451e+00, 1.450549450549451e+00, 7.025545404201536e-01, 1.450549450549451e+00, 1.450549450549451e+00, 5.767636067047905e-01, 1.450549450549451e+00, 1.450549450549451e+00, 1.450549450549451e+00, 1.450549450549451e+00, 1.450549450549451e+00, 1.450549450549451e+00, 1.450549450549451e+00, 1.450549450549451e+00, 1.450549450549451e+00, 1.450549450549451e+00, 1.450549450549451e+00, 1.536589040620528e+00, 1.450549450549451e+00, 1.473217657142324e+00, 1.821605965076643e+00, 1.450549450549451e+00, 1.450549450549451e+00, 1.450549450549451e+00, 1.450549450549451e+00, 1.184801147187413e+00, 1.450549450549451e+00, 1.450549450549451e+00, 1.450549450549451e+00, 1.450549450549451e+00, 1.450549450549451e+00, 1.450549450549451e+00, 1.450549450549451e+00, 1.450549450549451e+00, 1.450549450549451e+00, 4.067763442107777e-01, 9.289533635113354e-01, 1.450549450549451e+00, 1.288108889041894e+00, 1.450549450549451e+00, 1.450549450549451e+00, 1.450549450549451e+00, 1.450549450549451e+00, 1.145598636169203e+00, 1.450549450549451e+00, 1.450549450549451e+00, 1.450549450549451e+00, 1.450549450549451e+00, 1.450549450549451e+00, 1.450549450549451e+00, 1.400163439439527e+00, 1.450549450549451e+00, 1.450549450549451e+00, 1.727964994933054e+00, 1.450549450549451e+00, 1.450549450549451e+00, 1.450549450549451e+00, 1.450549450549451e+00, 1.450549450549451e+00, 1.450549450549451e+00, 1.450549450549451e+00, 1.450549450549451e+00, 1.450549450549451e+00, 1.450549450549451e+00, 1.450549450549451e+00, 1.450549450549451e+00, 1.450549450549451e+00, 1.450549450549451e+00, 5.628572761471763e-01, 1.450549450549451e+00, 5.643364394709432e-02, 1.450549450549451e+00, 1.450549450549451e+00, 3.330656251493818e-01, 1.450549450549451e+00, 1.450549450549451e+00, 1.450549450549451e+00, 1.450549450549451e+00, 6.364939468669939e-01, 1.450549450549451e+00, 1.450549450549451e+00, 1.450549450549451e+00, 1.450549450549451e+00, 1.450549450549451e+00, 1.450549450549451e+00, 1.450549450549451e+00, 1.450549450549451e+00, 1.167628948304273e+00, 1.165484766059352e-01, 1.450549450549451e+00, 1.450549450549451e+00, 1.450549450549451e+00, 1.450549450549451e+00, -1.919664859661172e-01, 1.450549450549451e+00, 1.450549450549451e+00, 1.450549450549451e+00, 1.450549450549451e+00, 1.450549450549451e+00, 1.450549450549451e+00, 1.450549450549451e+00, 1.450549450549451e+00, 1.450549450549451e+00, 9.992588676101301e-01, 7.418436022899603e-01, 1.450549450549451e+00, 1.450549450549451e+00, 1.450549450549451e+00, 1.450549450549451e+00, 1.450549450549451e+00, 1.450549450549451e+00, 1.450549450549451e+00, 1.450549450549451e+00, 1.450549450549451e+00, 1.450549450549451e+00, 1.353386064121688e+00, 1.450549450549451e+00, 1.450549450549451e+00, 4.061902501309457e-01, 1.450549450549451e+00, 1.450549450549451e+00, 8.245737481610683e-01, 1.450549450549451e+00, 1.379184559269950e+00, 1.450549450549451e+00, 1.450549450549451e+00, 1.450549450549451e+00, 1.450549450549451e+00, 1.450549450549451e+00, 1.450549450549451e+00, 1.450549450549451e+00, 1.450549450549451e+00, 1.450549450549451e+00, 1.450549450549451e+00, 1.450549450549451e+00, 1.450549450549451e+00, 1.450549450549451e+00, 1.450549450549451e+00, 1.428159340520529e+00, 1.450549450549451e+00, 1.450549450549451e+00, 1.450549450549451e+00, 1.450549450549451e+00, 1.450549450549451e+00, 1.450549450549451e+00, 7.969286128752060e-01, 1.450549450549451e+00, 1.450549450549451e+00, 3.253376288713765e-01, 1.450549450549451e+00, 1.450549450549451e+00, 1.450549450549451e+00, 1.450549450549451e+00, 4.787539758580860e-01, 1.450549450549451e+00, 7.651831397323582e-01, 1.450549450549451e+00, 1.450549450549451e+00, 4.064475449238045e-01, 1.450549450549451e+00, 1.450549450549451e+00, 1.450549450549451e+00, 1.450549450549451e+00, 1.450549450549451e+00, 1.450549450549451e+00, 1.450549450549451e+00, 1.450549450549451e+00, 1.450549450549451e+00, 1.450549450549451e+00, 1.450549450549451e+00, 1.450549450549451e+00, 1.450549450549451e+00, 3.909229284166409e-01, 3.535482367089700e-01, -5.083103740964087e-01, 1.450549450549451e+00, 1.450549450549451e+00, 1.450549450549451e+00, 1.450549450549451e+00, 1.450549450549451e+00, 1.450549450549451e+00, 1.450549450549451e+00, 1.450549450549451e+00, 3.375113871957559e-01, 1.450549450549451e+00, 1.450549450549451e+00, 1.450549450549451e+00, 1.450549450549451e+00, -5.357983393477626e-01, 1.469046740157230e+00, 1.450549450549451e+00, 1.450549450549451e+00, 8.941601161082576e-01, 1.450549450549451e+00, 1.450549450549451e+00, 1.450549450549451e+00, 1.450549450549451e+00, 1.450549450549451e+00, 1.619319613020695e+00, 1.450549450549451e+00, 1.450549450549451e+00, 1.450549450549451e+00, 1.450549450549451e+00, 1.164225856552870e+00, 9.468633324792827e-01, 1.450549450549451e+00, 8.988892784896865e-01, 7.968004690802603e-01, 7.783336479061320e-01, 1.450549450549451e+00, 1.450549450549451e+00, 1.450549450549451e+00, 1.450549450549451e+00, 1.450549450549451e+00, 1.450549450549451e+00, 1.450549450549451e+00, 1.450549450549451e+00, 1.450549450549451e+00, 1.450549450549451e+00, 1.450549450549451e+00, 1.450549450549451e+00, 1.450549450549451e+00, 1.041480521913551e+00, 5.310178658134669e-01, 1.450549450549451e+00, 1.450549450549451e+00, 1.450549450549451e+00, 1.450549450549451e+00, 1.450549450549451e+00, 1.450549450549451e+00, 1.450549450549451e+00, 1.450549450549451e+00, 1.450549450549451e+00, 1.450549450549451e+00, 1.450549450549451e+00, 1.450549450549451e+00, 1.450549450549451e+00, -2.307571567402131e-01, 1.366511003737177e-01, 1.450549450549451e+00, 6.419925679890052e-01, 2.408755147084324e+00, 3.725000000000000e+00, 3.193524771210768e+00, 3.725000000000000e+00, 3.725000000000000e+00, 3.725000000000000e+00, 3.725000000000000e+00, 3.725000000000000e+00, 3.725000000000000e+00, 3.725000000000000e+00, 3.774206866687645e+00, 3.725000000000000e+00, 3.725000000000000e+00, 3.725000000000000e+00, 3.725000000000000e+00, 3.725000000000000e+00, 3.725000000000000e+00, 2.317820364983797e+00, 3.725000000000000e+00, 3.725000000000000e+00, 4.634194289230061e+00, 3.725000000000000e+00, 3.725000000000000e+00, 3.725000000000000e+00, 3.725000000000000e+00, 3.725000000000000e+00, 3.725000000000000e+00, 3.725000000000000e+00, 3.725000000000000e+00, 3.725000000000000e+00, 3.725000000000000e+00, 3.725000000000000e+00, 3.567436123606984e+00, 3.725000000000000e+00, 2.360132614237667e+00, 4.244753946553216e+00, 3.725000000000000e+00, 3.725000000000000e+00, 3.725000000000000e+00, 3.725000000000000e+00, 4.251922993655954e+00, 3.725000000000000e+00, 3.725000000000000e+00, 3.725000000000000e+00, 3.725000000000000e+00, 3.725000000000000e+00, 3.725000000000000e+00, 3.725000000000000e+00, 3.725000000000000e+00, 3.725000000000000e+00, 5.405188288744141e+00, 3.436840226133150e+00, 3.725000000000000e+00, 3.927263856358573e+00, 3.725000000000000e+00, 3.725000000000000e+00, 3.725000000000000e+00, 3.725000000000000e+00, 3.544665813725392e+00, 3.725000000000000e+00, 3.725000000000000e+00, 3.725000000000000e+00, 3.725000000000000e+00, 3.725000000000000e+00, 3.725000000000000e+00, 2.956731385540480e+00, 3.725000000000000e+00, 3.725000000000000e+00, 3.590056162241019e+00, 3.725000000000000e+00, 3.725000000000000e+00, 3.725000000000000e+00, 3.725000000000000e+00, 3.725000000000000e+00, 3.725000000000000e+00, 3.725000000000000e+00, 3.725000000000000e+00, 3.725000000000000e+00, 3.725000000000000e+00, 3.725000000000000e+00, 3.725000000000000e+00, 3.725000000000000e+00, 3.725000000000000e+00, 4.258971001410315e+00, 3.725000000000000e+00, 1.032987780058619e+01, 3.725000000000000e+00, 3.725000000000000e+00, 4.987310457583467e+00, 3.725000000000000e+00, 3.725000000000000e+00, 3.725000000000000e+00, 3.725000000000000e+00, 3.992784975974133e+00, 3.725000000000000e+00, 3.725000000000000e+00, 3.725000000000000e+00, 3.725000000000000e+00, 3.725000000000000e+00, 3.725000000000000e+00, 3.725000000000000e+00, 3.725000000000000e+00, 3.658239053268322e+00, 8.260432152137792e+00, 3.725000000000000e+00, 3.725000000000000e+00, 3.725000000000000e+00, 3.725000000000000e+00, 6.545575604603220e+00, 3.725000000000000e+00, 3.725000000000000e+00, 3.725000000000000e+00, 3.725000000000000e+00, 3.725000000000000e+00, 3.725000000000000e+00, 3.725000000000000e+00, 3.725000000000000e+00, 3.725000000000000e+00, 2.115221807107250e+00, 3.375903192308969e+00, 3.725000000000000e+00, 3.725000000000000e+00, 3.725000000000000e+00, 3.725000000000000e+00, 3.725000000000000e+00, 3.725000000000000e+00, 3.725000000000000e+00, 3.725000000000000e+00, 3.725000000000000e+00, 3.725000000000000e+00, 3.602468890699519e+00, 3.725000000000000e+00, 3.725000000000000e+00, 5.267454210607636e+00, 3.725000000000000e+00, 3.725000000000000e+00, 3.044700343850917e+00, 3.725000000000000e+00, 3.955729428987157e+00, 3.725000000000000e+00, 3.725000000000000e+00, 3.725000000000000e+00, 3.725000000000000e+00, 3.725000000000000e+00, 3.725000000000000e+00, 3.725000000000000e+00, 3.725000000000000e+00, 3.725000000000000e+00, 3.725000000000000e+00, 3.725000000000000e+00, 3.725000000000000e+00, 3.725000000000000e+00, 3.725000000000000e+00, 3.823126836738289e+00, 3.725000000000000e+00, 3.725000000000000e+00, 3.725000000000000e+00, 3.725000000000000e+00, 3.725000000000000e+00, 3.725000000000000e+00, 3.905077365196760e+00, 3.725000000000000e+00, 3.725000000000000e+00, 5.866079054590424e+00, 3.725000000000000e+00, 3.725000000000000e+00, 3.725000000000000e+00, 3.725000000000000e+00, 4.451400920496955e+00, 3.725000000000000e+00, 2.848982286440572e+00, 3.725000000000000e+00, 3.725000000000000e+00, 4.953704121114600e+00, 3.725000000000000e+00, 3.725000000000000e+00, 3.725000000000000e+00, 3.725000000000000e+00, 3.725000000000000e+00, 3.725000000000000e+00, 3.725000000000000e+00, 3.725000000000000e+00, 3.725000000000000e+00, 3.725000000000000e+00, 3.725000000000000e+00, 3.725000000000000e+00, 3.725000000000000e+00, 3.080720711245625e+00, 3.662484815042323e+00, 3.243030876562816e+00, 3.725000000000000e+00, 3.725000000000000e+00, 3.725000000000000e+00, 3.725000000000000e+00, 3.725000000000000e+00, 3.725000000000000e+00, 3.725000000000000e+00, 3.725000000000000e+00, 4.023549633870783e+00, 3.725000000000000e+00, 3.725000000000000e+00, 3.725000000000000e+00, 3.725000000000000e+00, 2.530417234952917e+00, 3.108436077378575e+00, 3.725000000000000e+00, 3.725000000000000e+00, 3.014081321327178e+00, 3.725000000000000e+00, 3.725000000000000e+00, 3.725000000000000e+00, 3.725000000000000e+00, 3.725000000000000e+00, 3.458577833993774e+00, 3.725000000000000e+00, 3.725000000000000e+00, 3.725000000000000e+00, 3.725000000000000e+00, 3.454407437515846e+00, 4.067085844346386e+00, 3.725000000000000e+00, 3.604467064263061e+00, 3.716705905519408e+00, 4.212583012471885e+00, 3.725000000000000e+00, 3.725000000000000e+00, 3.725000000000000e+00, 3.725000000000000e+00, 3.725000000000000e+00, 3.725000000000000e+00, 3.725000000000000e+00, 3.725000000000000e+00, 3.725000000000000e+00, 3.725000000000000e+00, 3.725000000000000e+00, 3.725000000000000e+00, 3.725000000000000e+00, 4.399112723029716e+00, 3.555360541362262e+00, 3.725000000000000e+00, 3.725000000000000e+00, 3.725000000000000e+00, 3.725000000000000e+00, 3.725000000000000e+00, 3.725000000000000e+00, 3.725000000000000e+00, 3.725000000000000e+00, 3.725000000000000e+00, 3.725000000000000e+00, 3.725000000000000e+00, 3.725000000000000e+00, 3.725000000000000e+00, 5.307485567547668e+00, 4.859073468905750e+00, 3.725000000000000e+00, 3.860676910389546e+00, 2.077448979142483e+00, 1.450549450549451e+00, 5.113241759723512e-01, 1.450549450549451e+00, 1.450549450549451e+00, 1.450549450549451e+00, 1.450549450549451e+00, 1.450549450549451e+00, 1.450549450549451e+00, 1.450549450549451e+00, 5.047400163837910e-01, 1.450549450549451e+00, 1.450549450549451e+00, 1.450549450549451e+00, 1.450549450549451e+00, 1.450549450549451e+00, 1.450549450549451e+00, 8.440890479290880e-01, 1.450549450549451e+00, 1.450549450549451e+00, -2.293029821133033e-01, 1.450549450549451e+00, 1.450549450549451e+00, 1.450549450549451e+00, 1.450549450549451e+00, 1.450549450549451e+00, 1.450549450549451e+00, 1.450549450549451e+00, 1.450549450549451e+00, 1.450549450549451e+00, 1.450549450549451e+00, 1.450549450549451e+00, 3.417019566508023e+00, 1.450549450549451e+00, 2.336235810483266e+00, -6.447556295246857e-01, 1.450549450549451e+00, 1.450549450549451e+00, 1.450549450549451e+00, 1.450549450549451e+00, 4.439588519486497e+00, 1.450549450549451e+00, 1.450549450549451e+00, 1.450549450549451e+00, 1.450549450549451e+00, 1.450549450549451e+00, 1.450549450549451e+00, 1.450549450549451e+00, 1.450549450549451e+00, 1.450549450549451e+00, -1.075350391339145e+00, 1.483331003085325e+00, 1.450549450549451e+00, 4.920177795940928e-01, 1.450549450549451e+00, 1.450549450549451e+00, 1.450549450549451e+00, 1.450549450549451e+00, 3.453058041119116e-01, 1.450549450549451e+00, 1.450549450549451e+00, 1.450549450549451e+00, 1.450549450549451e+00, 1.450549450549451e+00, 1.450549450549451e+00, 5.475495861097051e-01, 1.450549450549451e+00, 1.450549450549451e+00, 1.294749448028450e+00, 1.450549450549451e+00, 1.450549450549451e+00, 1.450549450549451e+00, 1.450549450549451e+00, 1.450549450549451e+00, 1.450549450549451e+00, 1.450549450549451e+00, 1.450549450549451e+00, 1.450549450549451e+00, 1.450549450549451e+00, 1.450549450549451e+00, 1.450549450549451e+00, 1.450549450549451e+00, 1.450549450549451e+00, 1.113475969277837e+00, 1.450549450549451e+00, 1.872759060872445e+00, 1.450549450549451e+00, 1.450549450549451e+00, 1.048125131864064e+00, 1.450549450549451e+00, 1.450549450549451e+00, 1.450549450549451e+00, 1.450549450549451e+00, 8.999577841066695e-01, 1.450549450549451e+00, 1.450549450549451e+00, 1.450549450549451e+00, 1.450549450549451e+00, 1.450549450549451e+00, 1.450549450549451e+00, 1.450549450549451e+00, 1.450549450549451e+00, 1.690639616345608e+00, 1.181184401807639e+00, 1.450549450549451e+00, 1.450549450549451e+00, 1.450549450549451e+00, 1.450549450549451e+00, 1.597211264283258e+00, 1.450549450549451e+00, 1.450549450549451e+00, 1.450549450549451e+00, 1.450549450549451e+00, 1.450549450549451e+00, 1.450549450549451e+00, 1.450549450549451e+00, 1.450549450549451e+00, 1.450549450549451e+00, 8.318795846619477e-01, 1.946362896274352e+00, 1.450549450549451e+00, 1.450549450549451e+00, 1.450549450549451e+00, 1.450549450549451e+00, 1.450549450549451e+00, 1.450549450549451e+00, 1.450549450549451e+00, 1.450549450549451e+00, 1.450549450549451e+00, 1.450549450549451e+00, 1.383644444354028e+00, 1.450549450549451e+00, 1.450549450549451e+00, 7.169869832760780e-01, 1.450549450549451e+00, 1.450549450549451e+00, 1.729930193992864e+00, 1.450549450549451e+00, 1.904011336151834e-01, 1.450549450549451e+00, 1.450549450549451e+00, 1.450549450549451e+00, 1.450549450549451e+00, 1.450549450549451e+00, 1.450549450549451e+00, 1.450549450549451e+00, 1.450549450549451e+00, 1.450549450549451e+00, 1.450549450549451e+00, 1.450549450549451e+00, 1.450549450549451e+00, 1.450549450549451e+00, 1.450549450549451e+00, 1.430056079951499e+00, 1.450549450549451e+00, 1.450549450549451e+00, 1.450549450549451e+00, 1.450549450549451e+00, 1.450549450549451e+00, 1.450549450549451e+00, 7.965274440935881e-01, 1.450549450549451e+00, 1.450549450549451e+00, 1.112013563098308e+00, 1.450549450549451e+00, 1.450549450549451e+00, 1.450549450549451e+00, 1.450549450549451e+00, 1.041992268564691e+00, 1.450549450549451e+00, 1.571085334548038e+00, 1.450549450549451e+00, 1.450549450549451e+00, 1.038316466065602e+00, 1.450549450549451e+00, 1.450549450549451e+00, 1.450549450549451e+00, 1.450549450549451e+00, 1.450549450549451e+00, 1.450549450549451e+00, 1.450549450549451e+00, 1.450549450549451e+00, 1.450549450549451e+00, 1.450549450549451e+00, 1.450549450549451e+00, 1.450549450549451e+00, 1.450549450549451e+00, 1.583546751684624e+00, 9.094248043837280e-01, 1.123481335483138e+00, 1.450549450549451e+00, 1.450549450549451e+00, 1.450549450549451e+00, 1.450549450549451e+00, 1.450549450549451e+00, 1.450549450549451e+00, 1.450549450549451e+00, 1.450549450549451e+00, 8.771371644430039e-01, 1.450549450549451e+00, 1.450549450549451e+00, 1.450549450549451e+00, 1.450549450549451e+00, 7.979861826545485e-01, 1.701202032313299e+00, 1.450549450549451e+00, 1.450549450549451e+00, 8.346688746880671e-01, 1.450549450549451e+00, 1.450549450549451e+00, 1.450549450549451e+00, 1.450549450549451e+00, 1.450549450549451e+00, 5.846001328982284e-01, 1.450549450549451e+00, 1.450549450549451e+00, 1.450549450549451e+00, 1.450549450549451e+00, 3.753812015238178e-01, 9.467808739783595e-01, 