MTP
version = 1.1.0
potential_name = MTP_l2k3
scaling = 2.586079195766227e-02
L = 2
scaling_map = K
species_count = 54
potential_tag = 
radial_basis_type = RBChebyshev_sss
	min_dist = 1.450000000000000e+00
	max_dist = 6.000000000000000e+00
	radial_basis_size = 5
	radial_funcs_count = 9
shift_coeffs = {-3.626412764784912e+00, -8.516123895625961e+00, -1.401372276432416e+01, -2.255569467841763e+00, -2.831168865842472e+00, -5.352492203050243e+00, -7.022174813318336e+00, -8.184171006710041e+00, -9.537001187147526e-01, -3.417966968537848e+00, -8.287692340323790e+00, -9.135007234583922e+00, -9.379331604193354e+00, -9.668257507187944e+00, -9.022262094448569e+00, -7.869750846182456e+00, -1.920661372946641e+00, -4.186053201621013e+00, -5.944607084499952e+00, -7.311594648170995e+00, -5.183954192899959e+00, -3.046905371764636e+00, -8.283685047278180e+00, -1.021785481420478e+01, -1.106818622414668e+01, -1.064840085147905e+01, -9.765435518675790e+00, -7.869976164293231e+00, -3.465062615335090e+00, -1.855715326252546e+00, -3.428430514844313e+00, -5.495276521841519e+00, -6.754447808382121e+00, -5.772105155618134e+00, -4.043024060103854e+00, -6.577165535234654e+00, -7.091779772307654e+00, -6.387513991388671e+00, -6.382382109081653e+00, -6.389005643539553e+00, -6.413555237790313e+00, -6.444884787381049e+00, -6.349359427940024e+00, -6.018346013188541e+00, -1.152449789676825e+01, -1.283266924019792e+01, -1.266085978844753e+01, -1.165048603334345e+01, -9.221150876236489e+00, -5.752819760325779e+00, -2.088621614681873e+00, -4.211840121244376e+00, -5.259363581641527e+00, -9.216630908840791e+00}
scal_coeffs = {-3.318047499863413e-01, 1.450549450549451e+00, -2.392321586056248e+00, 7.058155306024256e-01, 1.404091101651308e+00, 9.670806869547702e-02, 7.639260519988621e-01, 8.109093182938988e-01, 1.450549450549451e+00, 1.937933329143516e+00, 2.446279479563045e+00, 1.450549450549451e+00, 1.450549450549451e+00, 1.450549450549451e+00, 1.450549450549451e+00, 1.450549450549451e+00, 1.214333993357964e+00, 6.690021102553174e-01, 1.450549450549451e+00, 9.717854575216767e-01, 1.450549450549451e+00, 1.450549450549451e+00, 1.450549450549451e+00, 1.450549450549451e+00, 1.450549450549451e+00, 1.450549450549451e+00, 1.450549450549451e+00, 1.450549450549451e+00, 7.307919906179338e-01, 1.307980897171151e+00, 1.450549450549451e+00, 1.450549450549451e+00, 1.450549450549451e+00, -8.273397312994999e-01, 1.450549450549451e+00, 1.450549450549451e+00, 1.450549450549451e+00, 1.450549450549451e+00, 1.450549450549451e+00, 1.450549450549451e+00, 1.450549450549451e+00, 1.450549450549451e+00, 1.450549450549451e+00, 1.450549450549451e+00, 1.450549450549451e+00, 1.450549450549451e+00, 1.450549450549451e+00, 1.450549450549451e+00, 1.450549450549451e+00, 1.450549450549451e+00, 1.450549450549451e+00, 1.450549450549451e+00, 6.773460272215273e-01, 1.450549450549451e+00, 1.450549450549451e+00, 2.474865678923870e+00, 1.450549450549451e+00, 1.450549450549451e+00, 1.450549450549451e+00, 1.450549450549451e+00, 1.450549450549451e+00, 1.450549450549451e+00, 1.450549450549451e+00, 1.450549450549451e+00, 1.450549450549451e+00, 1.450549450549451e+00, 1.450549450549451e+00, 1.450549450549451e+00, 1.450549450549451e+00, 1.450549450549451e+00, 1.450549450549451e+00, 1.450549450549451e+00, 1.450549450549451e+00, 1.450549450549451e+00, 1.450549450549451e+00, 1.450549450549451e+00, 1.450549450549451e+00, 1.602532770559752e+00, 1.450549450549451e+00, 1.450549450549451e+00, 1.450549450549451e+00, 1.450549450549451e+00, 2.359356283595365e-01, 1.450549450549451e+00, 1.450549450549451e+00, 1.450549450549451e+00, 1.450549450549451e+00, 1.450549450549451e+00, 1.450549450549451e+00, 1.450549450549451e+00, 1.450549450549451e+00, 1.450549450549451e+00, 1.450549450549451e+00, 1.450549450549451e+00, 1.450549450549451e+00, 1.450549450549451e+00, 1.450549450549451e+00, 1.450549450549451e+00, 1.450549450549451e+00, 1.450549450549451e+00, 1.450549450549451e+00, 1.450549450549451e+00, 1.450549450549451e+00, 1.450549450549451e+00, 1.450549450549451e+00, 1.450549450549451e+00, 1.450549450549451e+00, 1.450549450549451e+00, 8.692643728909711e-01, 1.450549450549451e+00, 3.457256704700661e+00, 1.450549450549451e+00, 1.245365406445602e+00, 1.450549450549451e+00, 1.450549450549451e+00, 1.450549450549451e+00, 1.450549450549451e+00, 1.450549450549451e+00, 1.450549450549451e+00, 1.450549450549451e+00, 1.450549450549451e+00, 1.450549450549451e+00, 1.450549450549451e+00, 1.450549450549451e+00, 8.100886852164286e-01, 1.450549450549451e+00, 1.450549450549451e+00, 1.450549450549451e+00, 1.450549450549451e+00, 1.450549450549451e+00, 1.450549450549451e+00, 1.450549450549451e+00, 1.450549450549451e+00, 1.450549450549451e+00, 1.450549450549451e+00, 1.450549450549451e+00, 1.450549450549451e+00, 1.450549450549451e+00, 1.450549450549451e+00, 1.450549450549451e+00, 1.450549450549451e+00, 1.450549450549451e+00, 1.450549450549451e+00, 1.450549450549451e+00, 1.450549450549451e+00, 1.450549450549451e+00, 1.450549450549451e+00, 1.450549450549451e+00, 1.450549450549451e+00, 1.450549450549451e+00, 1.450549450549451e+00, 1.450549450549451e+00, 1.450549450549451e+00, 1.450549450549451e+00, 1.450549450549451e+00, 1.450549450549451e+00, 1.450549450549451e+00, 1.450549450549451e+00, 1.450549450549451e+00, 1.450549450549451e+00, 1.450549450549451e+00, 1.450549450549451e+00, 7.287900407822334e-01, 1.450549450549451e+00, 1.450549450549451e+00, 5.579086186406255e-01, 5.961565385677368e-01, 1.450549450549451e+00, -5.229750798211884e-01, 1.849613236250210e+00, 1.450549450549451e+00, 1.371170870593969e-01, 1.450549450549451e+00, 1.450549450549451e+00, 1.450549450549451e+00, 1.450549450549451e+00, 1.450549450549451e+00, 1.450549450549451e+00, 1.450549450549451e+00, 1.450549450549451e+00, 1.450549450549451e+00, 1.155870129620325e+00, 1.450549450549451e+00, 1.450549450549451e+00, 1.277942653090276e+00, 1.450549450549451e+00, 1.450549450549451e+00, 1.450549450549451e+00, 1.450549450549451e+00, 1.450549450549451e+00, 1.450549450549451e+00, 1.450549450549451e+00, 1.450549450549451e+00, 7.233567122507110e-01, 3.928883140625499e-01, 8.366501072927710e-01, -9.308114933515101e-01, 1.450549450549451e+00, 1.450549450549451e+00, 1.450549450549451e+00, 1.450549450549451e+00, 1.450549450549451e+00, 1.450549450549451e+00, 1.450549450549451e+00, 1.450549450549451e+00, 1.450549450549451e+00, 1.450549450549451e+00, 1.450549450549451e+00, 1.450549450549451e+00, 1.450549450549451e+00, 1.450549450549451e+00, 1.450549450549451e+00, 1.450549450549451e+00, 1.450549450549451e+00, 1.450549450549451e+00, 1.450549450549451e+00, 1.004422050717899e+00, 1.450549450549451e+00, 2.358483504428175e+00, 6.548947091924858e-01, 8.789332847207513e-01, 1.450549450549451e+00, 4.804914689349802e-01, 9.090912953336884e-01, 1.450549450549451e+00, 2.121875496665375e+00, 1.748684319281268e+00, 1.450549450549451e+00, 1.450549450549451e+00, 1.450549450549451e+00, 1.450549450549451e+00, 1.450549450549451e+00, 1.450549450549451e+00, 1.450549450549451e+00, 1.450549450549451e+00, 2.009632801027021e+00, 1.450549450549451e+00, 1.007007770741374e+00, 1.353626531836598e+00, 1.450549450549451e+00, 1.450549450549451e+00, 1.450549450549451e+00, 1.450549450549451e+00, 1.450549450549451e+00, 1.450549450549451e+00, 1.450549450549451e+00, 1.450549450549451e+00, -5.955299825038897e-01, 1.450549450549451e+00, 1.450549450549451e+00, 1.450549450549451e+00, 1.450549450549451e+00, 1.450549450549451e+00, 1.450549450549451e+00, 1.450549450549451e+00, 1.450549450549451e+00, 1.450549450549451e+00, 1.450549450549451e+00, 1.450549450549451e+00, 1.450549450549451e+00, 1.450549450549451e+00, 1.450549450549451e+00, 1.450549450549451e+00, 1.450549450549451e+00, 1.450549450549451e+00, 1.450549450549451e+00, 9.884897443155830e-01, 1.450549450549451e+00, 1.622382932510843e-01, 1.450549450549451e+00, 2.473289844026011e+00, 1.450549450549451e+00, 1.450549450549451e+00, 1.450549450549451e+00, 1.450549450549451e+00, 7.939983003512854e-01, -9.938982588439005e-01, 1.450549450549451e+00, 1.450549450549451e+00, 1.450549450549451e+00, 1.450549450549451e+00, 1.450549450549451e+00, 8.468271905671695e-03, 1.450549450549451e+00, 1.450549450549451e+00, 1.396980967534737e+00, 1.450549450549451e+00, 1.450549450549451e+00, 1.450549450549451e+00, 1.450549450549451e+00, 1.450549450549451e+00, 1.450549450549451e+00, 1.450549450549451e+00, 1.450549450549451e+00, 1.541253533162388e+00, 1.450549450549451e+00, 1.450549450549451e+00, 1.450549450549451e+00, 1.450549450549451e+00, 1.450549450549451e+00, 1.450549450549451e+00, 1.450549450549451e+00, 1.450549450549451e+00, 1.450549450549451e+00, 1.450549450549451e+00, 1.450549450549451e+00, 1.450549450549451e+00, 1.450549450549451e+00, 1.450549450549451e+00, 1.450549450549451e+00, 1.450549450549451e+00, 1.450549450549451e+00, 1.450549450549451e+00, 1.450549450549451e+00, 1.450549450549451e+00, 1.832807191412744e+00, 1.450549450549451e+00, 1.450549450549451e+00, 1.362092868429694e+00, 1.450549450549451e+00, 1.450549450549451e+00, 1.450549450549451e+00, 1.450549450549451e+00, 1.450549450549451e+00, 1.628421143091898e+00, 1.450549450549451e+00, 1.450549450549451e+00, 5.095894606784451e-01, 1.208936341365804e+00, -8.984370003661815e-01, 4.037077163499037e+00, 1.450549450549451e+00, 1.450549450549451e+00, 1.330683719449556e+00, 2.163391791580920e-01, 1.033569193384541e+00, 1.450549450549451e+00, 1.450549450549451e+00, 1.450549450549451e+00, 8.500292564907992e-01, 1.450549450549451e+00, -5.453920787252918e-01, 1.450549450549451e+00, 1.450549450549451e+00, 1.450549450549451e+00, 1.173777696585818e+00, 6.787575792017284e-01, 1.132171485500026e+00, 1.450549450549451e+00, 1.450549450549451e+00, 1.450549450549451e+00, 6.052352333887101e-01, 1.450549450549451e+00, 1.164216698302719e+00, 1.450549450549451e+00, 1.450549450549451e+00, 1.450549450549451e+00, 1.450549450549451e+00, 1.450549450549451e+00, 1.450549450549451e+00, 1.450549450549451e+00, 1.450549450549451e+00, 1.450549450549451e+00, 1.450549450549451e+00, 1.450549450549451e+00, 1.450549450549451e+00, 1.450549450549451e+00, 1.450549450549451e+00, 9.698427704122384e-01, 1.450549450549451e+00, 1.450549450549451e+00, 1.450549450549451e+00, 4.223086087076292e-01, 1.450549450549451e+00, 1.450549450549451e+00, 1.450549450549451e+00, 1.450549450549451e+00, 1.450549450549451e+00, -4.773406304413889e-01, 1.450549450549451e+00, 1.450549450549451e+00, 3.024574645661069e-01, 1.039293320183752e+00, 1.450549450549451e+00, 1.450549450549451e+00, 2.613687156374664e+00, 3.733229303143253e-01, -1.610498230774475e-01, 4.289070304449016e-01, 1.450549450549451e+00, 1.450549450549451e+00, 1.450549450549451e+00, 1.450549450549451e+00, 1.729006446827913e-01, -6.660021636604431e-01, 1.450549450549451e+00, 1.450549450549451e+00, 1.450549450549451e+00, 1.450549450549451e+00, 1.450549450549451e+00, 6.422342155164360e-01, 1.450549450549451e+00, 1.450549450549451e+00, 1.450549450549451e+00, 1.450549450549451e+00, 1.450549450549451e+00, 9.123342080855825e-01, -7.692459656704764e-01, 1.450549450549451e+00, 1.450549450549451e+00, 1.450549450549451e+00, 1.450549450549451e+00, -5.463349009080620e-01, 1.450549450549451e+00, 1.450549450549451e+00, 1.450549450549451e+00, 1.450549450549451e+00, 1.450549450549451e+00, 1.450549450549451e+00, 1.450549450549451e+00, 1.450549450549451e+00, 1.450549450549451e+00, 1.450549450549451e+00, 1.450549450549451e+00, 1.450549450549451e+00, 1.450549450549451e+00, 1.450549450549451e+00, 1.450549450549451e+00, 1.450549450549451e+00, 1.450549450549451e+00, 1.450549450549451e+00, 1.450549450549451e+00, 1.450549450549451e+00, 1.450549450549451e+00, 1.450549450549451e+00, 1.450549450549451e+00, 1.450549450549451e+00, 1.450549450549451e+00, 1.450549450549451e+00, 1.287486814758504e+00, 4.408882876341980e-01, 1.450549450549451e+00, 1.450549450549451e+00, 1.450549450549451e+00, 1.450549450549451e+00, 1.450549450549451e+00, 1.450549450549451e+00, 1.450549450549451e+00, 1.450549450549451e+00, 1.450549450549451e+00, 1.450549450549451e+00, 1.450549450549451e+00, 1.450549450549451e+00, 1.450549450549451e+00, 1.682703058649418e+00, 1.450549450549451e+00, 1.450549450549451e+00, 1.450549450549451e+00, 1.450549450549451e+00, 1.450549450549451e+00, 1.450549450549451e+00, 1.450549450549451e+00, 1.450549450549451e+00, 1.078125744765925e+00, 1.450549450549451e+00, 1.450549450549451e+00, 1.294706749061219e+00, 1.450549450549451e+00, 1.450549450549451e+00, 1.450549450549451e+00, 1.450549450549451e+00, 1.450549450549451e+00, 1.450549450549451e+00, 1.450549450549451e+00, 1.450549450549451e+00, 1.450549450549451e+00, 1.450549450549451e+00, 1.450549450549451e+00, 1.450549450549451e+00, 1.450549450549451e+00, 1.450549450549451e+00, 1.450549450549451e+00, 1.450549450549451e+00, 1.450549450549451e+00, 1.450549450549451e+00, 1.450549450549451e+00, 7.045100583230456e-01, 1.450549450549451e+00, 1.450549450549451e+00, 1.089986764838332e+00, 5.614747505068477e-01, 1.450549450549451e+00, 3.070826547215906e-01, 5.569109862514866e-01, 1.450549450549451e+00, -1.221717532599365e-01, 1.450549450549451e+00, 1.450549450549451e+00, 1.450549450549451e+00, 1.450549450549451e+00, 1.450549450549451e+00, -5.990698204347398e-01, 1.450549450549451e+00, 1.450549450549451e+00, 1.450549450549451e+00, -9.037129562815089e-01, 1.450549450549451e+00, 3.449562180177023e-01, 1.450549450549451e+00, 1.450549450549451e+00, 1.450549450549451e+00, 1.450549450549451e+00, 1.450549450549451e+00, 1.450549450549451e+00, 1.726017343973752e+00, 9.313266436240628e-01, 1.450549450549451e+00, 1.663761144235685e+00, 1.450549450549451e+00, 1.577410195206014e+00, 1.450549450549451e+00, 1.450549450549451e+00, 1.450549450549451e+00, 1.450549450549451e+00, 1.450549450549451e+00, 1.450549450549451e+00, 1.450549450549451e+00, 1.450549450549451e+00, 1.450549450549451e+00, 1.450549450549451e+00, 1.450549450549451e+00, 1.450549450549451e+00, 1.450549450549451e+00, 1.450549450549451e+00, 1.450549450549451e+00, 1.450549450549451e+00, 1.450549450549451e+00, 1.450549450549451e+00, 1.450549450549451e+00, 1.450549450549451e+00, 7.910754724996574e-02, 1.450549450549451e+00, 1.450549450549451e+00, 1.450549450549451e+00, 6.321523860496042e-01, 1.450549450549451e+00, -1.437003424262659e+00, -3.159979395485975e-01, 1.450549450549451e+00, 1.450549450549451e+00, -6.015612436484788e-01, 1.450549450549451e+00, 1.450549450549451e+00, 1.450549450549451e+00, 9.592016604763831e-01, 5.350528452920746e-01, 1.450549450549451e+00, 1.450549450549451e+00, 1.731354433182218e-01, 1.450549450549451e+00, 1.450549450549451e+00, 1.450549450549451e+00, 1.450549450549451e+00, 1.450549450549451e+00, 1.450549450549451e+00, 1.450549450549451e+00, 1.450549450549451e+00, 5.251546863362964e-01, 1.450549450549451e+00, 1.450549450549451e+00, 1.450549450549451e+00, -4.623894555040176e-01, 3.720247562558764e-01, 1.850518705517222e-01, 1.450549450549451e+00, 1.450549450549451e+00, 1.450549450549451e+00, 1.450549450549451e+00, 1.450549450549451e+00, 1.450549450549451e+00, 1.450549450549451e+00, 1.450549450549451e+00, 1.450549450549451e+00, 1.450549450549451e+00, 1.450549450549451e+00, 1.450549450549451e+00, 1.450549450549451e+00, 1.450549450549451e+00, 7.655370173795174e-01, 4.391220162616220e-01, -2.350359411229711e-01, 1.450549450549451e+00, -1.854442998327514e-01, 1.450549450549451e+00, 1.450549450549451e+00, 1.450549450549451e+00, 1.450549450549451e+00, 1.450549450549451e+00, 1.450549450549451e+00, 1.450549450549451e+00, 8.748785048450388e-01, 1.450549450549451e+00, 1.450549450549451e+00, 1.450549450549451e+00, 1.450549450549451e+00, 9.930867206598934e-02, 1.450549450549451e+00, 7.446495765991272e-01, 9.909637441670014e-01, 3.813749295572901e-01, 1.450549450549451e+00, 1.450549450549451e+00, 8.213894739391756e-01, 6.130533470706403e-01, 2.829627992857095e+00, 1.450549450549451e+00, 1.450549450549451e+00, 1.450549450549451e+00, 1.450549450549451e+00, 1.450549450549451e+00, 7.935011579353598e-01, -6.985030458053038e-03, 1.450549450549451e+00, 1.450549450549451e+00, 1.450549450549451e+00, 1.155824453927301e+00, 9.276930722672077e-01, 5.995356158472964e-01, 1.450549450549451e+00, 1.450549450549451e+00, 1.450549450549451e+00, 1.450549450549451e+00, 1.450549450549451e+00, 1.450549450549451e+00, 1.450549450549451e+00, 1.450549450549451e+00, 1.450549450549451e+00, 1.450549450549451e+00, 1.450549450549451e+00, 1.450549450549451e+00, 1.450549450549451e+00, 2.044583924743995e-01, 4.029402325168080e-01, 1.450549450549451e+00, 1.450549450549451e+00, 1.851407179516708e+00, 7.211904907568090e-01, 1.450549450549451e+00, 1.450549450549451e+00, 1.450549450549451e+00, 1.450549450549451e+00, 1.450549450549451e+00, 1.450549450549451e+00, 1.218545422114911e+00, 1.450549450549451e+00, 1.450549450549451e+00, 1.450549450549451e+00, 1.450549450549451e+00, 1.450549450549451e+00, 1.450549450549451e+00, 1.762639368421402e-01, 9.233771793786097e-01, 8.170747032622159e-01, 8.706483004574205e-01, 1.450549450549451e+00, 1.033194230876900e+00, 1.450549450549451e+00, 1.450549450549451e+00, 1.450549450549451e+00, 1.450549450549451e+00, 1.450549450549451e+00, 1.450549450549451e+00, 1.450549450549451e+00, 8.355713565476367e-01, 1.450549450549451e+00, 1.450549450549451e+00, 1.450549450549451e+00, 1.450549450549451e+00, 8.084485889433930e-01, 6.353946180455062e-01, 7.294469941408751e-01, 1.450549450549451e+00, 1.450549450549451e+00, 1.450549450549451e+00, 1.450549450549451e+00, 1.450549450549451e+00, 1.450549450549451e+00, 1.450549450549451e+00, 1.450549450549451e+00, 1.450549450549451e+00, 1.450549450549451e+00, 1.450549450549451e+00, 1.450549450549451e+00, 1.450549450549451e+00, 1.450549450549451e+00, 1.450549450549451e+00, 4.496425204195983e-01, 1.450549450549451e+00, 1.450549450549451e+00, 1.450549450549451e+00, 1.450549450549451e+00, 1.450549450549451e+00, 1.450549450549451e+00, 1.450549450549451e+00, 1.450549450549451e+00, 1.450549450549451e+00, 1.450549450549451e+00, 1.450549450549451e+00, 1.450549450549451e+00, 1.450549450549451e+00, 1.450549450549451e+00, 1.450549450549451e+00, 1.450549450549451e+00, 1.436922337285371e+00, 1.654675820089597e+00, 3.561475366153063e+00, 1.450549450549451e+00, 1.450549450549451e+00, 1.450549450549451e+00, 1.450549450549451e+00, 1.450549450549451e+00, 1.450549450549451e+00, 9.954181321988188e-01, 1.450549450549451e+00, 1.450549450549451e+00, 1.440073821137883e+00, 1.660859375941465e+00, 1.450549450549451e+00, 1.450549450549451e+00, 1.450549450549451e+00, 1.450549450549451e+00, 1.450549450549451e+00, 1.450549450549451e+00, 1.450549450549451e+00, 5.462712852619968e-01, 7.455116289295141e-01, 1.450549450549451e+00, 1.450549450549451e+00, 1.450549450549451e+00, 1.450549450549451e+00, 1.450549450549451e+00, 1.450549450549451e+00, 1.450549450549451e+00, 1.450549450549451e+00, 1.450549450549451e+00, 1.450549450549451e+00, 1.450549450549451e+00, 1.706671738936601e+00, 1.450549450549451e+00, 1.450549450549451e+00, 1.450549450549451e+00, 1.450549450549451e+00, 1.450549450549451e+00, 1.450549450549451e+00, 1.450549450549451e+00, 1.450549450549451e+00, 1.450549450549451e+00, 1.450549450549451e+00, 1.450549450549451e+00, 1.450549450549451e+00, 1.450549450549451e+00, 1.450549450549451e+00, 1.450549450549451e+00, 1.450549450549451e+00, 1.450549450549451e+00, 1.450549450549451e+00, 9.871080235513979e-01, 1.641983739622888e+00, 1.654293588979100e+00, 1.450549450549451e+00, 3.898967849593773e+00, 1.450549450549451e+00, 1.450549450549451e+00, 1.450549450549451e+00, 1.450549450549451e+00, 8.336492181848677e-01, 1.450549450549451e+00, 1.450549450549451e+00, 1.450549450549451e+00, 1.532807426812202e+00, 1.822617276461639e+00, 1.450549450549451e+00, 1.450549450549451e+00, 1.450549450549451e+00, 1.450549450549451e+00, 1.450549450549451e+00, 1.450549450549451e+00, 4.271214498040511e-01, 4.883418209031709e-01, 4.286773569923576e-01, 1.450549450549451e+00, -3.208823872721464e-01, 1.450549450549451e+00, 1.450549450549451e+00, 1.450549450549451e+00, 1.450549450549451e+00, 1.450549450549451e+00, 1.450549450549451e+00, 1.450549450549451e+00, 1.450549450549451e+00, 1.503612334453665e+00, 1.450549450549451e+00, 1.511597116127749e+00, 1.450549450549451e+00, 1.450549450549451e+00, 1.450549450549451e+00, 3.304643694612442e-01, 1.450549450549451e+00, 3.357560310146199e-01, 1.450549450549451e+00, 1.450549450549451e+00, 1.450549450549451e+00, 1.450549450549451e+00, 1.450549450549451e+00, 1.450549450549451e+00, 5.509289735197013e-01, 5.329741092878076e-01, 7.063048730188525e-01, 1.450549450549451e+00, 2.141870017876803e-01, 1.193308700402054e+00, 1.746702189090862e+00, 1.501127614982273e+00, 1.450549450549451e+00, 1.450549450549451e+00, 3.237579907240404e+00, 1.450549450549451e+00, 4.967771035329857e-01, 5.021424328682605e-01, 1.450549450549451e+00, 1.450549450549451e+00, 1.450549450549451e+00, 1.174339931762392e+00, 1.876575077756943e+00, 1.450549450549451e+00, 1.450549450549451e+00, 1.450549450549451e+00, 1.450549450549451e+00, 1.450549450549451e+00, 1.450549450549451e+00, 4.863449562848375e-01, 3.341379655135424e-01, 9.470582743416754e-01, 7.609988231159919e-01, 1.450549450549451e+00, 6.821906345701618e-01, 1.450549450549451e+00, 8.523770020032430e-01, 8.533307700050348e-01, 8.436594738200400e-01, 8.760688381746909e-01, 1.070174633953502e+00, 9.028356034713980e-01, 5.593193734733792e-01, 1.693402942446466e+00, 1.517309341765268e+00, 1.450549450549451e+00, 1.450549450549451e+00, 1.450549450549451e+00, 1.450549450549451e+00, 1.450549450549451e+00, 3.814572745773568e-01, 8.627776681267347e-01, 1.275211981870343e+00, 5.422468702359667e-01, 1.450549450549451e+00, 5.910296258669759e-01, 1.450549450549451e+00, 1.450549450549451e+00, 1.450549450549451e+00, 1.450549450549451e+00, 2.693923781882354e+00, 1.450549450549451e+00, 1.450549450549451e+00, 1.450549450549451e+00, 1.450549450549451e+00, 1.450549450549451e+00, 1.450549450549451e+00, 1.450549450549451e+00, 1.450549450549451e+00, -3.376159676419692e-01, 1.450549450549451e+00, 1.450549450549451e+00, 2.633699610765599e+00, 1.450549450549451e+00, 1.450549450549451e+00, 1.450549450549451e+00, 1.450549450549451e+00, 1.450549450549451e+00, 1.450549450549451e+00, 1.450549450549451e+00, 1.450549450549451e+00, 1.450549450549451e+00, 1.450549450549451e+00, 1.450549450549451e+00, 1.450549450549451e+00, 1.450549450549451e+00, 1.450549450549451e+00, 1.450549450549451e+00, 1.450549450549451e+00, 1.450549450549451e+00, 1.450549450549451e+00, 1.450549450549451e+00, 1.450549450549451e+00, 1.450549450549451e+00, 1.450549450549451e+00, 1.450549450549451e+00, 1.450549450549451e+00, 1.450549450549451e+00, 1.450549450549451e+00, 1.450549450549451e+00, 1.450549450549451e+00, 1.450549450549451e+00, 1.450549450549451e+00, 1.450549450549451e+00, 1.450549450549451e+00, 1.450549450549451e+00, 1.450549450549451e+00, 9.768001742160430e-01, 1.450549450549451e+00, 1.450549450549451e+00, 1.450549450549451e+00, 1.450549450549451e+00, 1.450549450549451e+00, 2.136625222797947e+00, 1.450549450549451e+00, 1.450549450549451e+00, 1.450549450549451e+00, 1.450549450549451e+00, 1.450549450549451e+00, 1.444196606295009e+00, 1.450549450549451e+00, 1.450549450549451e+00, 1.154425720539568e+00, 1.450549450549451e+00, 1.021479665871417e+00, 1.450549450549451e+00, 1.450549450549451e+00, 1.450549450549451e+00, 1.450549450549451e+00, 1.450549450549451e+00, 1.450549450549451e+00, 1.275951774342149e+00, 1.450549450549451e+00, 1.450549450549451e+00, 1.450549450549451e+00, 1.450549450549451e+00, 1.450549450549451e+00, 1.450549450549451e+00, 1.450549450549451e+00, 1.450549450549451e+00, 1.450549450549451e+00, 1.450549450549451e+00, 1.450549450549451e+00, 1.450549450549451e+00, 1.450549450549451e+00, 1.450549450549451e+00, 1.450549450549451e+00, 1.450549450549451e+00, 1.450549450549451e+00, 1.450549450549451e+00, 1.450549450549451e+00, 1.450549450549451e+00, 1.614305353877676e+00, 1.450549450549451e+00, 1.450549450549451e+00, 7.373011741562879e-01, 1.450549450549451e+00, 1.450549450549451e+00, 1.450549450549451e+00, 1.450549450549451e+00, 1.450549450549451e+00, 1.450549450549451e+00, 1.450549450549451e+00, 1.450549450549451e+00, 1.450549450549451e+00, 1.450549450549451e+00, 1.450549450549451e+00, 1.450549450549451e+00, 1.450549450549451e+00, 1.450549450549451e+00, 1.450549450549451e+00, 1.383683858010731e+00, 8.158446107390269e-01, 1.450549450549451e+00, 1.450549450549451e+00, 1.450549450549451e+00, 1.366754144452398e+00, 1.450549450549451e+00, 1.450549450549451e+00, 1.327191127332054e+00, 1.450549450549451e+00, 1.450549450549451e+00, 1.450549450549451e+00, 1.450549450549451e+00, -7.894403933634708e-02, 1.069870392692253e+00, 1.450549450549451e+00, 7.058882795877038e-01, 1.450549450549451e+00, 1.450549450549451e+00, 1.450549450549451e+00, 1.450549450549451e+00, 1.450549450549451e+00, 1.450549450549451e+00, 1.450549450549451e+00, 1.450549450549451e+00, 1.450549450549451e+00, 1.450549450549451e+00, 1.450549450549451e+00, 1.450549450549451e+00, 1.450549450549451e+00, 1.450549450549451e+00, 1.450549450549451e+00, 1.450549450549451e+00, 1.450549450549451e+00, 1.803199656000282e+00, 1.351479382540157e+00, 1.450549450549451e+00, 1.450549450549451e+00, 6.166125145606286e-01, 1.232927254090661e+00, 1.450549450549451e+00, 1.450549450549451e+00, 1.450549450549451e+00, 1.450549450549451e+00, 9.664430484539835e-01, 1.450549450549451e+00, 1.450549450549451e+00, 2.360938082156893e-01, -1.115507034316159e+00, 1.450549450549451e+00, 1.450549450549451e+00, 1.450549450549451e+00, 1.450549450549451e+00, 8.301559119058098e-01, 1.450549450549451e+00, 5.768210205254817e-01, 1.450549450549451e+00, 1.450549450549451e+00, 5.078683471707752e-01, 1.450549450549451e+00, -8.527011012192067e-01, 1.450549450549451e+00, 1.450549450549451e+00, 2.370542905651265e+00, 1.450549450549451e+00, 1.450549450549451e+00, 1.450549450549451e+00, 1.340969354167162e+00, 1.450549450549451e+00, 1.450549450549451e+00, 4.746743806479797e-01, 1.450549450549451e+00, 1.450549450549451e+00, 1.450549450549451e+00, 1.450549450549451e+00, 1.450549450549451e+00, 1.450549450549451e+00, 1.450549450549451e+00, 1.450549450549451e+00, 1.450549450549451e+00, 1.450549450549451e+00, 1.450549450549451e+00, 1.450549450549451e+00, 1.450549450549451e+00, 1.450549450549451e+00, 1.450549450549451e+00, 1.450549450549451e+00, 1.450549450549451e+00, 9.183036453186414e-01, 1.450549450549451e+00, 1.450549450549451e+00, 1.450549450549451e+00, 1.450549450549451e+00, 1.450549450549451e+00, 1.450549450549451e+00, 1.450549450549451e+00, 1.450549450549451e+00, 1.450549450549451e+00, 1.450549450549451e+00, 1.450549450549451e+00, 1.450549450549451e+00, 1.450549450549451e+00, 1.450549450549451e+00, 1.450549450549451e+00, 1.450549450549451e+00, 1.450549450549451e+00, 1.450549450549451e+00, 1.450549450549451e+00, 1.450549450549451e+00, 9.188950371245127e-01, 1.450549450549451e+00, 1.430923074263219e+00, 1.450549450549451e+00, 1.450549450549451e+00, 1.450549450549451e+00, 1.450549450549451e+00, 1.450549450549451e+00, 1.450549450549451e+00, 9.839269541278579e-01, 1.450549450549451e+00, 1.450549450549451e+00, 1.450549450549451e+00, 1.450549450549451e+00, 1.450549450549451e+00, 1.450549450549451e+00, 1.450549450549451e+00, 1.450549450549451e+00, 1.450549450549451e+00, 1.450549450549451e+00, 1.450549450549451e+00, 1.450549450549451e+00, 1.450549450549451e+00, 1.450549450549451e+00, 1.450549450549451e+00, 1.450549450549451e+00, 1.450549450549451e+00, 1.450549450549451e+00, 1.450549450549451e+00, 1.450549450549451e+00, 1.450549450549451e+00, 1.450549450549451e+00, 1.450549450549451e+00, 1.450549450549451e+00, 1.450549450549451e+00, 1.450549450549451e+00, 1.450549450549451e+00, 1.450549450549451e+00, 1.450549450549451e+00, 1.450549450549451e+00, 1.450549450549451e+00, 1.450549450549451e+00, 1.450549450549451e+00, 1.450549450549451e+00, 1.450549450549451e+00, 1.450549450549451e+00, 1.450549450549451e+00, 8.948695824511573e-01, 1.450549450549451e+00, 1.194756874289536e+00, 1.450549450549451e+00, 1.450549450549451e+00, 5.483191404525840e-01, 1.450549450549451e+00, 1.450549450549451e+00, 1.450549450549451e+00, 1.450549450549451e+00, 1.450549450549451e+00, 1.450549450549451e+00, 1.450549450549451e+00, 1.450549450549451e+00, 1.450549450549451e+00, 1.450549450549451e+00, 1.450549450549451e+00, 5.186342948374634e-01, 1.450549450549451e+00, 1.450549450549451e+00, 1.450549450549451e+00, 1.450549450549451e+00, 1.450549450549451e+00, 1.450549450549451e+00, 1.450549450549451e+00, 3.626312687008615e-01, 1.450549450549451e+00, 7.482851295053093e-01, 1.450549450549451e+00, 1.450549450549451e+00, 5.180878093974847e-01, 1.450549450549451e+00, 1.450549450549451e+00, 1.450549450549451e+00, 1.450549450549451e+00, 1.450549450549451e+00, 1.450549450549451e+00, 1.450549450549451e+00, 1.450549450549451e+00, 1.450549450549451e+00, 1.450549450549451e+00, 1.450549450549451e+00, 1.450549450549451e+00, 1.450549450549451e+00, 1.450549450549451e+00, 1.450549450549451e+00, 1.450549450549451e+00, 1.450549450549451e+00, 1.450549450549451e+00, 1.450549450549451e+00, 1.450549450549451e+00, 1.450549450549451e+00, 1.450549450549451e+00, 3.684443802501655e-01, -1.708706082536328e-01, 1.450549450549451e+00, -1.259554562981564e+00, -9.626109451708273e-01, 3.466864460072803e-01, 1.450549450549451e+00, 1.450549450549451e+00, 1.450549450549451e+00, 1.450549450549451e+00, 1.450549450549451e+00, 1.450549450549451e+00, 6.682669232104357e-01, 1.450549450549451e+00, 1.450549450549451e+00, 1.450549450549451e+00, 1.450549450549451e+00, 1.450549450549451e+00, 1.450549450549451e+00, 1.700295192062911e+00, 1.450549450549451e+00, 1.450549450549451e+00, 1.450549450549451e+00, 1.450549450549451e+00, 1.450549450549451e+00, 1.450549450549451e+00, 1.450549450549451e+00, 1.450549450549451e+00, -6.983758195662162e-01, 8.002543336568047e-01, 1.450549450549451e+00, 1.450549450549451e+00, 1.450549450549451e+00, 1.450549450549451e+00, 1.450549450549451e+00, 1.450549450549451e+00, 1.450549450549451e+00, 1.450549450549451e+00, 1.450549450549451e+00, 1.450549450549451e+00, 1.450549450549451e+00, 1.450549450549451e+00, 1.450549450549451e+00, 1.450549450549451e+00, 1.450549450549451e+00, 1.450549450549451e+00, 1.450549450549451e+00, -1.850392581215813e-02, 1.450549450549451e+00, -7.985967222684620e-01, 1.450549450549451e+00, 1.450549450549451e+00, 1.440222349002719e-01, 1.450549450549451e+00, 1.450549450549451e+00, 1.450549450549451e+00, 1.450549450549451e+00, 9.836857917884621e-02, 1.450549450549451e+00, 1.450549450549451e+00, 1.450549450549451e+00, 1.450549450549451e+00, 1.450549450549451e+00, 1.450549450549451e+00, 8.924409252375379e-01, 1.002108575390383e+00, 1.020952385047899e+00, 1.450549450549451e+00, 1.450549450549451e+00, -4.899102998122040e-01, 4.842608645645597e-01, 1.450549450549451e+00, 1.450549450549451e+00, 1.450549450549451e+00, -1.925347239751337e-01, 1.450549450549451e+00, 1.450549450549451e+00, 7.683130647643468e-01, 1.251661722560999e+00, 3.304233416009458e-01, 1.450549450549451e+00, 4.171872706924599e-01, 1.009168044627699e+00, 4.607682626256068e-01, 4.543891487395209e-01, 1.450549450549451e+00, 1.450549450549451e+00, 1.450549450549451e+00, 1.450549450549451e+00, 1.450549450549451e+00, 1.450549450549451e+00, 1.450549450549451e+00, 1.450549450549451e+00, 1.450549450549451e+00, 1.450549450549451e+00, 1.450549450549451e+00, 1.450549450549451e+00, 1.450549450549451e+00, 1.450549450549451e+00, 6.145921596327121e-01, -4.555477418445621e-02, 1.450549450549451e+00, 1.657623070045404e+00, 4.612872876970585e-01, 1.450549450549451e+00, 1.450549450549451e+00, 1.450549450549451e+00, 1.450549450549451e+00, 1.450549450549451e+00, 1.450549450549451e+00, 1.041122515546117e+00, 1.450549450549451e+00, 1.450549450549451e+00, 1.450549450549451e+00, 1.450549450549451e+00, 1.450549450549451e+00, 1.450549450549451e+00, 1.450549450549451e+00, 1.081245518042800e+00, 1.069044052720413e+00, 1.450549450549451e+00, 1.450549450549451e+00, 8.653495032293306e-01, 4.560187905943058e-01, 1.450549450549451e+00, 1.450549450549451e+00, 1.450549450549451e+00, 1.450549450549451e+00, 1.450549450549451e+00, -1.184725358851870e-01, 1.065907120055576e+00, 9.769889599822792e-01, 1.450549450549451e+00, 1.450549450549451e+00, 1.450549450549451e+00, 1.500520984218800e+00, 5.675572343402556e-01, 3.884332074612203e-01, 1.450549450549451e+00, 1.450549450549451e+00, 1.450549450549451e+00, 1.450549450549451e+00, 1.450549450549451e+00, 1.450549450549451e+00, 1.450549450549451e+00, 1.450549450549451e+00, 1.450549450549451e+00, 1.450549450549451e+00, 1.450549450549451e+00, 1.450549450549451e+00, 1.450549450549451e+00, 1.450549450549451e+00, 1.450549450549451e+00, 6.794100313797388e-01, 1.450549450549451e+00, 1.336301386438190e+00, 1.450549450549451e+00, 1.450549450549451e+00, 1.450549450549451e+00, 1.450549450549451e+00, 1.450549450549451e+00, 1.450549450549451e+00, 1.450549450549451e+00, 1.450549450549451e+00, 1.450549450549451e+00, 1.450549450549451e+00, 1.450549450549451e+00, 1.450549450549451e+00, 1.450549450549451e+00, 1.450549450549451e+00, 1.450549450549451e+00, 1.356005021058496e+00, 1.450549450549451e+00, 1.450549450549451e+00, 1.450549450549451e+00, 1.450549450549451e+00, 1.450549450549451e+00, 1.450549450549451e+00, 1.450549450549451e+00, 1.450549450549451e+00, 1.450549450549451e+00, 1.450549450549451e+00, 1.450549450549451e+00, 1.333491435698043e+00, 2.518908495020908e+00, 1.450549450549451e+00, 1.450549450549451e+00, 1.450549450549451e+00, 1.450549450549451e+00, 1.450549450549451e+00, 1.450549450549451e+00, 4.247908114558017e-01, 1.450549450549451e+00, 1.450549450549451e+00, 1.450549450549451e+00, 1.450549450549451e+00, 1.450549450549451e+00, 1.450549450549451e+00, 1.450549450549451e+00, 1.450549450549451e+00, 1.450549450549451e+00, 1.450549450549451e+00, 1.450549450549451e+00, 1.450549450549451e+00, 1.520479550552570e+00, 1.450549450549451e+00, 1.450549450549451e+00, 1.450549450549451e+00, 1.450549450549451e+00, 1.450549450549451e+00, 1.450549450549451e+00, 1.450549450549451e+00, 1.450549450549451e+00, 1.450549450549451e+00, 1.450549450549451e+00, 1.450549450549451e+00, 1.450549450549451e+00, 1.450549450549451e+00, 1.450549450549451e+00, 1.450549450549451e+00, 1.450549450549451e+00, 1.450549450549451e+00, 1.450549450549451e+00, 1.450549450549451e+00, 1.395132514860541e+00, 1.450549450549451e+00, 1.450549450549451e+00, 1.450549450549451e+00, 1.450549450549451e+00, 1.450549450549451e+00, 1.450549450549451e+00, 6.875660941679564e-01, 9.350974480560749e-01, 1.450549450549451e+00, 1.450549450549451e+00, 1.450549450549451e+00, 1.388530875971440e+00, 1.378114991710580e+00, 1.450549450549451e+00, 1.790926156988325e+00, 1.450549450549451e+00, 1.450549450549451e+00, 1.450549450549451e+00, 1.450549450549451e+00, 3.109764562492893e-01, 5.026313245799638e-01, 1.450549450549451e+00, 1.450549450549451e+00, 1.450549450549451e+00, 1.450549450549451e+00, 1.450549450549451e+00, 1.450549450549451e+00, 1.450549450549451e+00, 1.450549450549451e+00, 1.450549450549451e+00, 1.450549450549451e+00, 1.450549450549451e+00, 1.433060936633953e+00, 1.494054745365648e+00, 1.450549450549451e+00, 1.450549450549451e+00, 1.450549450549451e+00, 1.450549450549451e+00, 1.450549450549451e+00, 1.450549450549451e+00, 4.339198914763270e-01, -4.452428725616780e-01, 1.450549450549451e+00, 1.450549450549451e+00, 1.450549450549451e+00, 1.450549450549451e+00, 1.450549450549451e+00, 1.450549450549451e+00, 4.669108406336751e-01, 1.450549450549451e+00, 1.450549450549451e+00, 1.450549450549451e+00, 5.974868301894231e-01, 1.381720997958187e+00, 1.450549450549451e+00, 1.450549450549451e+00, 1.450549450549451e+00, 1.450549450549451e+00, 1.450549450549451e+00, 1.450549450549451e+00, 1.450549450549451e+00, 1.450549450549451e+00, 1.450549450549451e+00, 1.450549450549451e+00, 1.450549450549451e+00, 1.365441711788874e+00, 1.450549450549451e+00, 1.450549450549451e+00, 1.450549450549451e+00, 2.366401106057174e+00, 1.450549450549451e+00, 1.450549450549451e+00, 1.450549450549451e+00, 2.228832490309268e-01, 5.342717401640716e-01, 1.450549450549451e+00, 1.450549450549451e+00, 1.450549450549451e+00, 6.226795966708395e-01, 1.450549450549451e+00, 1.450549450549451e+00, 1.450549450549451e+00, 3.108886484494482e-01, 3.419874631195438e-01, 3.574272690244263e-01, 1.450549450549451e+00, 1.145788035962738e+00, 1.450549450549451e+00, 1.450549450549451e+00, 1.450549450549451e+00, 1.450549450549451e+00, 1.450549450549451e+00, 1.450549450549451e+00, 1.450549450549451e+00, 9.739584008017801e-01, 1.450549450549451e+00, -9.092021838405684e-01, 2.241593612439876e-01, 1.450549450549451e+00, 1.450549450549451e+00, 1.450549450549451e+00, 1.450549450549451e+00, 1.450549450549451e+00, 1.237286598902568e+00, 1.450549450549451e+00, -1.015564387105014e+00, 1.450549450549451e+00, 1.450549450549451e+00, 1.450549450549451e+00, 1.450549450549451e+00, 1.450549450549451e+00, 1.450549450549451e+00, 1.450549450549451e+00, 1.450549450549451e+00, 1.450549450549451e+00, 1.450549450549451e+00, 1.450549450549451e+00, 1.450549450549451e+00, 1.450549450549451e+00, 3.437113127867824e+00, 1.450549450549451e+00, 1.450549450549451e+00, 1.450549450549451e+00, 1.450549450549451e+00, 1.496952090131498e+00, 1.450549450549451e+00, 1.450549450549451e+00, 1.450549450549451e+00, 1.450549450549451e+00, 1.776881190578703e+00, 1.450549450549451e+00, 1.450549450549451e+00, 1.450549450549451e+00, 1.450549450549451e+00, 1.450549450549451e+00, 1.450549450549451e+00, 1.450549450549451e+00, 1.450549450549451e+00, 1.450549450549451e+00, 1.450549450549451e+00, 1.450549450549451e+00, 1.450549450549451e+00, 1.450549450549451e+00, 1.450549450549451e+00, 1.450549450549451e+00, 1.450549450549451e+00, 1.450549450549451e+00, 1.450549450549451e+00, 1.450549450549451e+00, 1.450549450549451e+00, 2.694054176324603e+00, 1.450549450549451e+00, 1.450549450549451e+00, 1.450549450549451e+00, 1.450549450549451e+00, 1.450549450549451e+00, 1.063119092148076e+00, 9.508484538825034e-01, 1.450549450549451e+00, 5.912143884672103e-01, 1.450549450549451e+00, 1.450549450549451e+00, 1.450549450549451e+00, 1.450549450549451e+00, 1.450549450549451e+00, 1.450549450549451e+00, 1.450549450549451e+00, 1.450549450549451e+00, 1.450549450549451e+00, 1.450549450549451e+00, 1.450549450549451e+00, 4.300165941606944e-01, 1.450549450549451e+00, 1.450549450549451e+00, 1.450549450549451e+00, 1.450549450549451e+00, 1.450549450549451e+00, 1.450549450549451e+00, 1.450549450549451e+00, 3.937571080259422e-01, 1.450549450549451e+00, 1.450549450549451e+00, 1.450549450549451e+00, 1.450549450549451e+00, 1.450549450549451e+00, 1.450549450549451e+00, 1.450549450549451e+00, 1.450549450549451e+00, 1.450549450549451e+00, 1.450549450549451e+00, 1.450549450549451e+00, 1.450549450549451e+00, 1.450549450549451e+00, 1.450549450549451e+00, 1.450549450549451e+00, 1.450549450549451e+00, 1.450549450549451e+00, 1.450549450549451e+00, 1.450549450549451e+00, 1.450549450549451e+00, 1.450549450549451e+00, 1.450549450549451e+00, 1.450549450549451e+00, 1.450549450549451e+00, 1.450549450549451e+00, 1.450549450549451e+00, 1.450549450549451e+00, 1.450549450549451e+00, 1.450549450549451e+00, 1.450549450549451e+00, 1.450549450549451e+00, 1.450549450549451e+00, 1.450549450549451e+00, 1.450549450549451e+00, 1.450549450549451e+00, 1.450549450549451e+00, 8.679710906798835e-01, 1.450549450549451e+00, 1.450549450549451e+00, 1.368294884153036e+00, 1.450549450549451e+00, 1.450549450549451e+00, 1.450549450549451e+00, 1.450549450549451e+00, 1.450549450549451e+00, 1.450549450549451e+00, 1.450549450549451e+00, 1.658429660891415e+00, 6.966120607552622e-01, 1.450549450549451e+00, 1.450549450549451e+00, 1.450549450549451e+00, 1.450549450549451e+00, 1.450549450549451e+00, 3.588583430813229e-01, 1.450549450549451e+00, 1.450549450549451e+00, 1.450549450549451e+00, 1.450549450549451e+00, 1.450549450549451e+00, 1.450549450549451e+00, 1.450549450549451e+00, 1.450549450549451e+00, 1.450549450549451e+00, 1.450549450549451e+00, 1.450549450549451e+00, 1.450549450549451e+00, 1.450549450549451e+00, 1.450549450549451e+00, 1.394031954728412e+00, 1.450549450549451e+00, 1.450549450549451e+00, 8.369370594813812e-01, 8.200080577927154e-01, 1.450549450549451e+00, 1.450549450549451e+00, 1.450549450549451e+00, 1.450549450549451e+00, 1.450549450549451e+00, 1.450549450549451e+00, 1.450549450549451e+00, 3.074654675984830e-01, 1.277479257574051e+00, 1.450549450549451e+00, 1.450549450549451e+00, 1.450549450549451e+00, -7.985601370074351e-01, 1.748145972389325e+00, 1.282293741021666e+00, 9.058891266441420e-01, 8.300791207817159e-01, 1.450549450549451e+00, 1.033731512927032e+00, 1.052986842354490e+00, 1.450549450549451e+00, 1.450549450549451e+00, 1.450549450549451e+00, 1.450549450549451e+00, 1.450549450549451e+00, 1.523372242690021e+00, 1.293630156898367e+00, 1.030277308886809e+00, 9.354521726094911e-01, 1.450549450549451e+00, 9.455203632202711e-01, 5.913719175377883e-01, 1.450549450549451e+00, 1.450549450549451e+00, 1.450549450549451e+00, 3.535492321011406e+00, 1.450549450549451e+00, 1.450549450549451e+00, 1.533388623445967e+00, 1.450549450549451e+00, 1.450549450549451e+00, 1.450549450549451e+00, 1.450549450549451e+00, 1.450549450549451e+00, 1.450549450549451e+00, 1.450549450549451e+00, 1.450549450549451e+00, 1.450549450549451e+00, 1.151022289758819e+00, 1.450549450549451e+00, 1.450549450549451e+00, 1.450549450549451e+00, 8.140019856471182e-01, 9.111514717681389e-01, 1.450549450549451e+00, 1.450549450549451e+00, 1.450549450549451e+00, 1.136850478592146e-03, 1.450549450549451e+00, 1.450549450549451e+00, 1.450549450549451e+00, 6.380132196853791e-01, 1.450549450549451e+00, 1.450549450549451e+00, 1.450549450549451e+00, 1.450549450549451e+00, 1.450549450549451e+00, 1.450549450549451e+00, 9.669385635264234e-01, 6.490282102319125e-01, 3.207188160344542e-01, 7.833511834209536e-01, 9.730777263830127e-01, 1.846498034733477e-01, 1.450549450549451e+00, 1.450549450549451e+00, 1.450549450549451e+00, 1.450549450549451e+00, 1.450549450549451e+00, 1.450549450549451e+00, -5.835704175010997e-01, 1.296988596243181e+00, 5.407330104512581e-02, 2.765172724636091e-01, 3.606036292656145e-01, 2.374077695254291e-01, 1.450549450549451e+00, 1.450549450549451e+00, 1.450549450549451e+00, 1.450549450549451e+00, 4.087924234017449e-01, 1.450549450549451e+00, -6.913712034250438e-01, 1.059406514646627e+00, 1.450549450549451e+00, 1.450549450549451e+00, 8.239825854249871e-01, 4.383145683033267e-01, 9.754845778006129e-01, 1.147982350885278e+00, 9.772304493203926e-01, 4.538575208310268e-01, 1.205383611122504e+00, 2.680902038100081e-01, 1.450549450549451e+00, 1.450549450549451e+00, 2.316062236321017e-01, 1.450549450549451e+00, 1.450549450549451e+00, 1.450549450549451e+00, 1.450549450549451e+00, 2.168671786429631e-01, 7.854349366405408e-01, 1.450549450549451e+00, 1.450549450549451e+00, 1.473363125279987e+00, 1.450549450549451e+00, 1.450549450549451e+00, 1.450549450549451e+00, 1.450549450549451e+00, 1.450549450549451e+00, -5.998724452349411e-01, 1.389239098297436e+00, 1.494933409429822e+00, 1.450549450549451e+00, -1.102980987343091e+00, -1.361815252024378e-01, 3.865521071802063e-01, 1.450549450549451e+00, 1.450549450549451e+00, 1.450549450549451e+00, 1.450549450549451e+00, 1.450549450549451e+00, 1.450549450549451e+00, 1.450549450549451e+00, 1.247726412324411e-01, 1.450549450549451e+00, 1.450549450549451e+00, 1.450549450549451e+00, 1.450549450549451e+00, 1.181567969360965e+00, 1.450549450549451e+00, 1.450549450549451e+00, 1.450549450549451e+00, 1.450549450549451e+00, 4.134432186490870e-01, 1.450549450549451e+00, 2.293281024147640e-02, 1.450549450549451e+00, 1.450549450549451e+00, 1.450549450549451e+00, 1.450549450549451e+00, 1.450549450549451e+00, 1.450549450549451e+00, 1.450549450549451e+00, 1.450549450549451e+00, 1.450549450549451e+00, 1.450549450549451e+00, 1.450549450549451e+00, 1.570409396618960e+00, 1.450549450549451e+00, 1.450549450549451e+00, 1.450549450549451e+00, 1.450549450549451e+00, 1.450549450549451e+00, 1.450549450549451e+00, 1.450549450549451e+00, 1.450549450549451e+00, 1.450549450549451e+00, 4.943379306894183e-01, 1.450549450549451e+00, 1.450549450549451e+00, 1.450549450549451e+00, -1.239695072247586e-02, 1.444938508395763e+00, 1.450549450549451e+00, 1.450549450549451e+00, 1.450549450549451e+00, 1.450549450549451e+00, 1.450549450549451e+00, 1.450549450549451e+00, 1.450549450549451e+00, 1.450549450549451e+00, 1.450549450549451e+00, 1.450549450549451e+00, 1.450549450549451e+00, 1.450549450549451e+00, 4.565427077352770e-01, 1.450549450549451e+00, 1.450549450549451e+00, 1.450549450549451e+00, 1.450549450549451e+00, 1.450549450549451e+00, 1.450549450549451e+00, 1.450549450549451e+00, 1.450549450549451e+00, 1.450549450549451e+00, 1.794451949978569e+00, -1.406156596517275e+00, 1.450549450549451e+00, 7.039282733760345e-01, 1.450549450549451e+00, 1.450549450549451e+00, 1.450549450549451e+00, 1.450549450549451e+00, 1.450549450549451e+00, 1.450549450549451e+00, 1.450549450549451e+00, 1.450549450549451e+00, 1.450549450549451e+00, 1.450549450549451e+00, 1.450549450549451e+00, 1.450549450549451e+00, 1.450549450549451e+00, 1.450549450549451e+00, 1.450549450549451e+00, 1.450549450549451e+00, 1.450549450549451e+00, 1.450549450549451e+00, 1.450549450549451e+00, 1.450549450549451e+00, 1.450549450549451e+00, 1.450549450549451e+00, 1.450549450549451e+00, 1.450549450549451e+00, 1.450549450549451e+00, 1.450549450549451e+00, 1.450549450549451e+00, 1.450549450549451e+00, 1.450549450549451e+00, 1.450549450549451e+00, 1.450549450549451e+00, 1.450549450549451e+00, 1.450549450549451e+00, 1.666033883463877e+00, 7.690829608876029e-01, 1.450549450549451e+00, 1.450549450549451e+00, 1.450549450549451e+00, 1.450549450549451e+00, 1.450549450549451e+00, 1.450549450549451e+00, 1.450549450549451e+00, 1.450549450549451e+00, 1.450549450549451e+00, 1.450549450549451e+00, 1.450549450549451e+00, 1.450549450549451e+00, 1.450549450549451e+00, 1.450549450549451e+00, 1.450549450549451e+00, 1.450549450549451e+00, 1.527336353698603e+00, 5.749326774171271e-01, 1.450549450549451e+00, 9.986074765866562e-01, 1.450549450549451e+00, 1.450549450549451e+00, 1.450549450549451e+00, 1.450549450549451e+00, 1.450549450549451e+00, 1.450549450549451e+00, 1.450549450549451e+00, 1.450549450549451e+00, 1.450549450549451e+00, 1.450549450549451e+00, 1.450549450549451e+00, 1.450549450549451e+00, 1.450549450549451e+00, 1.450549450549451e+00, 1.450549450549451e+00, 1.450549450549451e+00, 1.450549450549451e+00, 1.450549450549451e+00, 1.450549450549451e+00, 1.450549450549451e+00, 1.450549450549451e+00, 1.450549450549451e+00, 1.450549450549451e+00, 1.450549450549451e+00, 1.450549450549451e+00, 1.450549450549451e+00, 1.450549450549451e+00, 1.450549450549451e+00, 1.450549450549451e+00, 1.450549450549451e+00, 1.450549450549451e+00, 1.450549450549451e+00, 1.450549450549451e+00, 1.450549450549451e+00, 1.450549450549451e+00, 1.450549450549451e+00, 1.450549450549451e+00, 1.450549450549451e+00, 1.450549450549451e+00, 1.450549450549451e+00, 1.450549450549451e+00, 1.450549450549451e+00, 1.450549450549451e+00, 1.450549450549451e+00, 1.450549450549451e+00, 3.281110897954715e-01, 1.450549450549451e+00, 1.450549450549451e+00, 1.450549450549451e+00, 1.450549450549451e+00, 1.450549450549451e+00, 1.450549450549451e+00, 1.450549450549451e+00, 1.450549450549451e+00, 6.908089193830286e-02, 1.450549450549451e+00, 1.450549450549451e+00, 1.450549450549451e+00, 1.450549450549451e+00, 1.450549450549451e+00, 1.450549450549451e+00, 1.450549450549451e+00, 1.450549450549451e+00, 1.450549450549451e+00, 1.450549450549451e+00, 1.450549450549451e+00, 1.450549450549451e+00, 1.450549450549451e+00, 1.450549450549451e+00, 1.450549450549451e+00, -1.872392341526013e-01, 1.450549450549451e+00, 1.450549450549451e+00, 1.450549450549451e+00, 1.450549450549451e+00, 1.450549450549451e+00, 1.450549450549451e+00, 1.450549450549451e+00, 1.450549450549451e+00, 1.450549450549451e+00, 1.450549450549451e+00, 1.450549450549451e+00, 1.450549450549451e+00, 1.450549450549451e+00, 1.450549450549451e+00, 1.450549450549451e+00, 1.450549450549451e+00, 6.759927150932854e-01, 1.450549450549451e+00, 1.450549450549451e+00, 1.450549450549451e+00, 1.450549450549451e+00, 1.450549450549451e+00, 1.450549450549451e+00, 1.450549450549451e+00, 1.450549450549451e+00, 1.450549450549451e+00, 1.450549450549451e+00, 1.450549450549451e+00, 1.450549450549451e+00, 1.450549450549451e+00, 1.450549450549451e+00, 1.450549450549451e+00, 1.450549450549451e+00, 1.450549450549451e+00, 1.450549450549451e+00, 1.450549450549451e+00, 1.450549450549451e+00, 1.450549450549451e+00, 1.220063413177849e+00, 1.450549450549451e+00, 1.450549450549451e+00, 1.450549450549451e+00, 1.450549450549451e+00, 1.450549450549451e+00, 1.450549450549451e+00, 1.450549450549451e+00, 1.450549450549451e+00, 1.450549450549451e+00, 1.450549450549451e+00, 1.450549450549451e+00, 1.450549450549451e+00, 1.450549450549451e+00, 1.450549450549451e+00, -2.258498766138870e-01, 1.450549450549451e+00, 1.450549450549451e+00, 1.450549450549451e+00, 1.450549450549451e+00, 1.450549450549451e+00, 1.450549450549451e+00, 1.450549450549451e+00, 1.450549450549451e+00, 1.450549450549451e+00, 1.450549450549451e+00, 1.450549450549451e+00, 1.450549450549451e+00, 1.450549450549451e+00, 1.450549450549451e+00, 1.450549450549451e+00, 1.450549450549451e+00, 9.075985040573821e-01, 1.450549450549451e+00, 1.450549450549451e+00, 1.450549450549451e+00, 1.450549450549451e+00, 1.450549450549451e+00, 1.450549450549451e+00, 1.450549450549451e+00, 1.450549450549451e+00, 1.450549450549451e+00, 1.450549450549451e+00, 1.450549450549451e+00, 1.450549450549451e+00, 1.450549450549451e+00, 1.450549450549451e+00, 1.450549450549451e+00, 1.450549450549451e+00, -1.784313870615870e-01, 1.450549450549451e+00, 1.450549450549451e+00, 1.450549450549451e+00, 1.450549450549451e+00, 1.450549450549451e+00, 1.147534571927897e+00, 1.450549450549451e+00, 1.450549450549451e+00, 1.450549450549451e+00, 1.450549450549451e+00, 1.450549450549451e+00, 1.450549450549451e+00, 1.450549450549451e+00, 1.450549450549451e+00, 1.450549450549451e+00, 1.450549450549451e+00, 1.450549450549451e+00, 1.450549450549451e+00, 1.450549450549451e+00, 1.450549450549451e+00, 1.450549450549451e+00, 1.450549450549451e+00, 1.450549450549451e+00, 1.450549450549451e+00, 1.450549450549451e+00, 1.450549450549451e+00, 1.450549450549451e+00, 1.450549450549451e+00, 1.450549450549451e+00, 1.450549450549451e+00, 1.450549450549451e+00, 1.450549450549451e+00, 1.450549450549451e+00, 1.450549450549451e+00, 1.450549450549451e+00, 1.450549450549451e+00, 6.121622938827113e-01, 1.450549450549451e+00, 1.450549450549451e+00, 1.450549450549451e+00, 1.450549450549451e+00, 1.450549450549451e+00, 1.450549450549451e+00, 1.450549450549451e+00, 1.450549450549451e+00, 1.450549450549451e+00, 1.450549450549451e+00, 1.450549450549451e+00, 1.450549450549451e+00, 1.450549450549451e+00, 1.450549450549451e+00, 1.450549450549451e+00, 1.450549450549451e+00, -3.441551038103914e-01, 1.450549450549451e+00, 1.450549450549451e+00, 1.450549450549451e+00, 1.450549450549451e+00, 1.450549450549451e+00, 1.450549450549451e+00, 1.203067571267155e+00, 1.450549450549451e+00, 1.450549450549451e+00, 1.450549450549451e+00, 1.450549450549451e+00, 1.450549450549451e+00, 1.450549450549451e+00, 1.450549450549451e+00, 1.450549450549451e+00, 4.309339134087298e-02, 1.450549450549451e+00, 1.450549450549451e+00, 1.450549450549451e+00, 1.995138413651098e-02, 1.450549450549451e+00, 1.450549450549451e+00, 1.450549450549451e+00, 1.450549450549451e+00, 1.450549450549451e+00, 1.450549450549451e+00, 1.450549450549451e+00, 1.450549450549451e+00, 1.450549450549451e+00, 1.450549450549451e+00, 1.450549450549451e+00, 1.450549450549451e+00, 1.450549450549451e+00, 1.450549450549451e+00, 1.450549450549451e+00, 1.450549450549451e+00, 5.608383374912643e-01, 1.450549450549451e+00, 1.450549450549451e+00, 1.450549450549451e+00, 1.450549450549451e+00, 1.450549450549451e+00, 1.450549450549451e+00, 1.450549450549451e+00, 1.450549450549451e+00, 1.450549450549451e+00, 1.450549450549451e+00, 1.450549450549451e+00, 7.144308244720506e-01, 1.450549450549451e+00, 1.450549450549451e+00, 1.450549450549451e+00, 1.450549450549451e+00, 1.213829290422777e-01, 1.450549450549451e+00, 1.450549450549451e+00, 1.450549450549451e+00, 1.450549450549451e+00, 1.450549450549451e+00, 1.450549450549451e+00, 1.450549450549451e+00, -3.467316451943474e-01, 1.450549450549451e+00, 1.450549450549451e+00, 1.450549450549451e+00, 1.450549450549451e+00, 1.450549450549451e+00, 1.450549450549451e+00, 1.450549450549451e+00, 1.450549450549451e+00, 1.450549450549451e+00, 1.450549450549451e+00, 1.450549450549451e+00, 5.644711609126175e-02, 1.450549450549451e+00, 1.450549450549451e+00, 1.450549450549451e+00, 1.450549450549451e+00, 1.450549450549451e+00, 1.450549450549451e+00, 1.450549450549451e+00, 1.450549450549451e+00, 1.450549450549451e+00, 1.450549450549451e+00, 1.450549450549451e+00, 1.450549450549451e+00, 1.450549450549451e+00, 1.450549450549451e+00, 1.450549450549451e+00, 1.450549450549451e+00, 1.358221458721721e+00, 1.450549450549451e+00, 1.450549450549451e+00, 1.450549450549451e+00, 1.450549450549451e+00, 1.450549450549451e+00, 1.450549450549451e+00, 1.450549450549451e+00, 1.450549450549451e+00, 1.450549450549451e+00, 1.450549450549451e+00, 1.450549450549451e+00, 8.864241552997499e-01, 1.450549450549451e+00, 1.450549450549451e+00, 1.450549450549451e+00, 1.450549450549451e+00, -2.836597872164446e-02, 1.450549450549451e+00, 1.450549450549451e+00, 1.450549450549451e+00, 1.450549450549451e+00, 1.450549450549451e+00, 1.450549450549451e+00, 1.450549450549451e+00, 1.450549450549451e+00, 4.704485628582330e-01, 1.450549450549451e+00, 1.450549450549451e+00, 1.450549450549451e+00, 1.450549450549451e+00, 1.450549450549451e+00, 1.450549450549451e+00, 1.450549450549451e+00, 1.450549450549451e+00, 1.450549450549451e+00, 1.450549450549451e+00, 1.450549450549451e+00, 1.450549450549451e+00, 1.450549450549451e+00, 1.450549450549451e+00, 1.450549450549451e+00, 1.450549450549451e+00, 1.450549450549451e+00, 1.450549450549451e+00, 1.450549450549451e+00, 1.450549450549451e+00, 1.450549450549451e+00, 1.450549450549451e+00, 1.450549450549451e+00, 1.450549450549451e+00, 1.450549450549451e+00, 1.450549450549451e+00, 1.450549450549451e+00, 4.528316881821027e-01, 1.450549450549451e+00, 1.450549450549451e+00, 1.450549450549451e+00, 1.450549450549451e+00, 1.450549450549451e+00, 1.450549450549451e+00, 1.450549450549451e+00, 1.450549450549451e+00, 1.450549450549451e+00, 1.450549450549451e+00, 1.450549450549451e+00, 7.475158541161285e-01, 1.450549450549451e+00, 1.450549450549451e+00, 1.450549450549451e+00, 1.450549450549451e+00, -4.077840901953120e-02, 1.450549450549451e+00, 1.450549450549451e+00, 1.450549450549451e+00, 1.450549450549451e+00, 1.450549450549451e+00, 1.450549450549451e+00, 1.450549450549451e+00, 1.450549450549451e+00, 1.450549450549451e+00, -7.043216294680066e-02, 1.450549450549451e+00, 1.450549450549451e+00, 1.450549450549451e+00, 1.450549450549451e+00, 1.450549450549451e+00, 1.450549450549451e+00, 1.450549450549451e+00, 1.450549450549451e+00, 1.450549450549451e+00, -2.102573237220369e-02, 1.450549450549451e+00, 1.450549450549451e+00, 1.450549450549451e+00, 1.450549450549451e+00, 1.450549450549451e+00, 1.450549450549451e+00, 1.450549450549451e+00, 1.450549450549451e+00, 1.450549450549451e+00, 1.450549450549451e+00, 1.450549450549451e+00, 1.450549450549451e+00, 1.450549450549451e+00, 1.450549450549451e+00, 1.450549450549451e+00, 1.450549450549451e+00, 9.668100794532332e-01, 1.450549450549451e+00, 1.450549450549451e+00, 1.450549450549451e+00, 1.450549450549451e+00, 1.450549450549451e+00, 1.450549450549451e+00, 1.450549450549451e+00, 1.450549450549451e+00, 1.450549450549451e+00, 1.450549450549451e+00, 1.450549450549451e+00, 1.450549450549451e+00, 1.450549450549451e+00, 1.450549450549451e+00, 1.450549450549451e+00, 1.450549450549451e+00, -5.796674033952723e-02, 1.450549450549451e+00, 1.450549450549451e+00, 1.450549450549451e+00, 1.450549450549451e+00, 1.450549450549451e+00, 1.450549450549451e+00, 1.450549450549451e+00, 1.450549450549451e+00, 1.450549450549451e+00, 1.450549450549451e+00, 4.812761224469453e-01, 1.450549450549451e+00, 1.450549450549451e+00, 1.450549450549451e+00, 1.450549450549451e+00, 1.450549450549451e+00, 1.450549450549451e+00, 1.450549450549451e+00, 1.450549450549451e+00, 1.450549450549451e+00, 1.450549450549451e+00, 1.450549450549451e+00, 1.450549450549451e+00, 1.450549450549451e+00, 1.450549450549451e+00, 1.450549450549451e+00, 1.450549450549451e+00, -1.118090486642692e+00, 1.450549450549451e+00, 1.450549450549451e+00, 1.450549450549451e+00, 1.450549450549451e+00, 1.450549450549451e+00, 1.450549450549451e+00, 1.450549450549451e+00, 1.163707195183330e+00, 1.074132026075206e+00, 1.450549450549451e+00, 1.450549450549451e+00, 3.314573002031344e-01, 3.798576966684941e-01, 1.450549450549451e+00, 1.450549450549451e+00, 1.450549450549451e+00, 1.450549450549451e+00, 1.450549450549451e+00, 1.450549450549451e+00, 9.304910520332282e-01, 7.386634794655129e-01, 1.450549450549451e+00, 1.450549450549451e+00, 1.450549450549451e+00, 5.381322969272134e-01, 4.349586016010816e-01, 1.450549450549451e+00, 1.450549450549451e+00, 1.450549450549451e+00, 1.450549450549451e+00, 1.450549450549451e+00, 1.450549450549451e+00, 1.450549450549451e+00, 1.450549450549451e+00, 1.450549450549451e+00, 1.450549450549451e+00, 1.450549450549451e+00, -7.856768030213726e-02, 1.450549450549451e+00, 1.450549450549451e+00, 1.450549450549451e+00, 9.305554219249628e-01, 1.450549450549451e+00, 1.450549450549451e+00, 1.353023470983785e+00, 1.450549450549451e+00, 1.450549450549451e+00, 1.450549450549451e+00, 1.450549450549451e+00, 1.450549450549451e+00, 1.450549450549451e+00, 1.450549450549451e+00, 6.971237023769966e-01, 1.450549450549451e+00, 1.450549450549451e+00, 1.450549450549451e+00, 1.450549450549451e+00, 1.450549450549451e+00, 1.450549450549451e+00, 1.450549450549451e+00, 6.469950441944017e-01, 1.450549450549451e+00, 1.029336590294355e+00, 1.450549450549451e+00, 5.604481104935312e-01, 3.725180136970643e-01, 1.450549450549451e+00, 1.450549450549451e+00, 1.450549450549451e+00, 1.450549450549451e+00, 1.450549450549451e+00, 1.450549450549451e+00, 1.061448218060186e+00, 1.110450520683280e+00, 1.450549450549451e+00, 1.450549450549451e+00, 1.450549450549451e+00, 7.779366796746473e-01, 1.450549450549451e+00, 1.815066658101107e-01, 1.450549450549451e+00, 1.450549450549451e+00, 1.450549450549451e+00, 1.450549450549451e+00, 1.450549450549451e+00, 1.450549450549451e+00, 1.450549450549451e+00, 1.450549450549451e+00, 1.450549450549451e+00, 1.450549450549451e+00, 1.450549450549451e+00, 1.450549450549451e+00, -1.271107193806679e-01, 1.450549450549451e+00, 1.450549450549451e+00, 8.129762436535738e-01, 1.450549450549451e+00, 1.378115322047656e+00, 1.450549450549451e+00, 1.450549450549451e+00, 1.450549450549451e+00, 1.450549450549451e+00, 1.450549450549451e+00, 1.450549450549451e+00, 1.450549450549451e+00, 1.450549450549451e+00, 1.450549450549451e+00, 1.450549450549451e+00, 1.450549450549451e+00, 1.450549450549451e+00, 1.450549450549451e+00, 1.450549450549451e+00, 1.450549450549451e+00, 1.450549450549451e+00, 1.450549450549451e+00, 7.046344360814318e-01, 1.450549450549451e+00, 1.450549450549451e+00, 1.450549450549451e+00, 1.450549450549451e+00, 1.450549450549451e+00, 1.450549450549451e+00, 1.450549450549451e+00, 1.450549450549451e+00, 1.450549450549451e+00, 1.450549450549451e+00, 1.450549450549451e+00, 1.450549450549451e+00, 1.450549450549451e+00, 1.450549450549451e+00, 1.450549450549451e+00, 1.450549450549451e+00, 1.450549450549451e+00, 1.450549450549451e+00, 1.450549450549451e+00, 1.450549450549451e+00, 1.450549450549451e+00, 1.450549450549451e+00, 1.450549450549451e+00, 1.450549450549451e+00, 1.450549450549451e+00, 1.450549450549451e+00, 1.450549450549451e+00, 1.450549450549451e+00, 1.450549450549451e+00, 1.450549450549451e+00, 1.450549450549451e+00, -4.081033097340893e-01, 1.450549450549451e+00, 1.450549450549451e+00, 1.450549450549451e+00, 6.037011210365946e-01, 1.450549450549451e+00, 1.450549450549451e+00, 1.450549450549451e+00, 1.450549450549451e+00, 1.450549450549451e+00, 1.450549450549451e+00, 1.450549450549451e+00, 1.450549450549451e+00, 1.450549450549451e+00, 1.450549450549451e+00, 1.450549450549451e+00, 1.450549450549451e+00, 1.450549450549451e+00, 1.450549450549451e+00, 1.368773112784305e+00, 1.450549450549451e+00, 1.450549450549451e+00, 1.450549450549451e+00, 1.450549450549451e+00, 1.450549450549451e+00, 1.450549450549451e+00, 1.450549450549451e+00, 1.450549450549451e+00, 1.450549450549451e+00, 1.450549450549451e+00, 1.450549450549451e+00, 1.450549450549451e+00, 1.450549450549451e+00, 1.450549450549451e+00, 1.450549450549451e+00, 1.450549450549451e+00, 1.450549450549451e+00, 1.450549450549451e+00, 1.450549450549451e+00, 1.450549450549451e+00, 1.450549450549451e+00, 8.685156903665674e-01, 1.450549450549451e+00, 1.450549450549451e+00, 1.450549450549451e+00, 1.450549450549451e+00, 1.450549450549451e+00, 1.450549450549451e+00, 1.450549450549451e+00, 1.450549450549451e+00, 1.450549450549451e+00, 1.450549450549451e+00, 1.450549450549451e+00, 1.450549450549451e+00, 1.450549450549451e+00, 1.305599232139907e+00, 1.450549450549451e+00, 1.450549450549451e+00, 1.450549450549451e+00, 1.450549450549451e+00, 1.450549450549451e+00, 1.450549450549451e+00, 1.450549450549451e+00, 1.450549450549451e+00, 1.450549450549451e+00, 1.450549450549451e+00, 1.450549450549451e+00, 4.083104909492618e-01, 6.449603532632678e-01, 1.450549450549451e+00, 1.450549450549451e+00, 1.450549450549451e+00, 7.273735097050019e-01, 1.383352570353692e+00, 1.266890705571385e+00, 1.450549450549451e+00, 1.450549450549451e+00, 1.450549450549451e+00, 1.450549450549451e+00, 4.641419415440801e-01, 6.433842935470466e-01, 1.450549450549451e+00, 1.450549450549451e+00, 1.450549450549451e+00, 1.450549450549451e+00, 1.339528475847256e+00, 1.342086337914436e+00, 1.450549450549451e+00, 1.450549450549451e+00, 1.450549450549451e+00, 1.450549450549451e+00, 1.450549450549451e+00, 3.433695293077882e-01, 3.927434288160530e-01, 6.322857990080294e-01, 1.450549450549451e+00, 1.450549450549451e+00, 1.450549450549451e+00, 1.450549450549451e+00, 1.450549450549451e+00, 1.450549450549451e+00, 3.148597747631364e-01, 1.450549450549451e+00, 1.450549450549451e+00, 1.450549450549451e+00, 1.450549450549451e+00, 1.409119632364025e+00, 1.374674322398258e+00, 1.450549450549451e+00, 1.450549450549451e+00, 2.320350791394186e+00, 1.450549450549451e+00, 3.398452342291580e-01, 6.463974342585678e-01, 1.450549450549451e+00, 5.059042159486001e-01, 1.450549450549451e+00, 1.450549450549451e+00, 1.450549450549451e+00, 1.450549450549451e+00, 1.450549450549451e+00, 1.450549450549451e+00, 1.450549450549451e+00, 1.450549450549451e+00, 1.450549450549451e+00, 1.450549450549451e+00, 1.665779796467712e+00, 1.450549450549451e+00, 1.450549450549451e+00, 1.450549450549451e+00, 1.450549450549451e+00, 1.450549450549451e+00, 1.450549450549451e+00, 1.450549450549451e+00, 1.122518537259570e+00, 1.450549450549451e+00, 1.450549450549451e+00, 1.450549450549451e+00, 1.450549450549451e+00, 1.536383254382750e+00, 1.450549450549451e+00, 1.450549450549451e+00, 1.450549450549451e+00, 1.450549450549451e+00, 1.450549450549451e+00, 1.450549450549451e+00, 1.165176565335767e+00, 9.638687877623396e-01, 1.450549450549451e+00, 1.450549450549451e+00, 1.450549450549451e+00, 1.450549450549451e+00, 1.450549450549451e+00, 1.450549450549451e+00, 1.450549450549451e+00, 1.450549450549451e+00, 1.450549450549451e+00, 1.450549450549451e+00, 1.450549450549451e+00, 1.450549450549451e+00, 1.450549450549451e+00, 1.450549450549451e+00, 1.450549450549451e+00, 1.450549450549451e+00, 1.450549450549451e+00, 2.212709757766072e+00, 1.450549450549451e+00, 1.450549450549451e+00, 1.450549450549451e+00, 1.450549450549451e+00, 1.450549450549451e+00, 1.450549450549451e+00, 1.450549450549451e+00, 1.450549450549451e+00, 1.657921576336498e+00, 1.450549450549451e+00, 1.450549450549451e+00, 1.450549450549451e+00, 1.450549450549451e+00, 1.450549450549451e+00, 2.843092468797257e+00, 1.450549450549451e+00, 1.450549450549451e+00, 1.450549450549451e+00, 1.472979599500395e-01, 1.450549450549451e+00, 1.450549450549451e+00, 1.450549450549451e+00, 1.450549450549451e+00, 1.450549450549451e+00, 1.450549450549451e+00, 1.450549450549451e+00, 2.011504349260129e+00, 1.450549450549451e+00, 8.556999752706180e-01, 1.450549450549451e+00, 1.450549450549451e+00, 1.450549450549451e+00, 1.450549450549451e+00, 1.450549450549451e+00, 1.450549450549451e+00, 1.450549450549451e+00, 1.450549450549451e+00, 1.450549450549451e+00, 1.450549450549451e+00, 1.450549450549451e+00, 1.450549450549451e+00, 1.450549450549451e+00, 1.450549450549451e+00, 1.450549450549451e+00, 1.450549450549451e+00, 1.450549450549451e+00, 1.450549450549451e+00, 1.450549450549451e+00, 1.450549450549451e+00, 1.012273806881475e+00, 1.391881513901818e+00, 1.450549450549451e+00, 1.050699642967220e+00, 1.450549450549451e+00, 1.224130971617608e+00, 1.450549450549451e+00, 1.450549450549451e+00, 1.450549450549451e+00, 1.450549450549451e+00, 1.450549450549451e+00, 1.450549450549451e+00, 1.450549450549451e+00, 1.450549450549451e+00, 1.450549450549451e+00, 1.450549450549451e+00, 1.450549450549451e+00, 1.450549450549451e+00, 1.450549450549451e+00, 1.450549450549451e+00, -7.330713648099965e-03, 1.450549450549451e+00, 1.450549450549451e+00, 1.450549450549451e+00, 1.201270248623485e+00, 1.450549450549451e+00, 1.450549450549451e+00, 1.450549450549451e+00, 1.450549450549451e+00, 1.450549450549451e+00, 1.450549450549451e+00, 1.450549450549451e+00, 7.116603060720189e-01, 1.450549450549451e+00, 1.450549450549451e+00, 1.450549450549451e+00, 1.450549450549451e+00, 1.450549450549451e+00, 1.450549450549451e+00, 1.450549450549451e+00, 1.450549450549451e+00, 1.450549450549451e+00, 1.450549450549451e+00, 1.450549450549451e+00, 1.450549450549451e+00, 1.450549450549451e+00, 1.450549450549451e+00, 1.450549450549451e+00, 1.450549450549451e+00, 1.450549450549451e+00, 1.450549450549451e+00, 1.450549450549451e+00, 1.450549450549451e+00, 1.295228571465853e+00, 1.450549450549451e+00, 1.450549450549451e+00, 1.450549450549451e+00, 5.571368372417324e-01, 1.450549450549451e+00, 1.450549450549451e+00, 2.556311086312539e-01, 1.450549450549451e+00, 1.450549450549451e+00, 1.495285057988197e+00, 1.450549450549451e+00, 1.450549450549451e+00, 1.450549450549451e+00, 5.428280628343615e-01, 1.450549450549451e+00, 1.450549450549451e+00, 1.450549450549451e+00, 1.450549450549451e+00, 1.450549450549451e+00, 9.485630393082390e-01, 7.365706002109207e-01, 1.450549450549451e+00, 1.450549450549451e+00, 1.316137474906737e+00, 8.681485985505539e-01, 1.450549450549451e+00, 1.450549450549451e+00, 1.450549450549451e+00, 1.450549450549451e+00, 1.450549450549451e+00, 1.450549450549451e+00, 9.972916784065743e-01, 1.093685401368326e+00, 1.450549450549451e+00, 1.450549450549451e+00, 3.694647117609057e-01, 6.399203163854610e-01, 1.450549450549451e+00, 1.450549450549451e+00, 1.450549450549451e+00, 1.450549450549451e+00, 1.450549450549451e+00, 1.450549450549451e+00, 1.450549450549451e+00, 1.450549450549451e+00, 1.710256707364348e+00, 9.217437794008840e-01, 1.450549450549451e+00, 1.149216921143451e+00, 1.276147652721213e+00, 1.450549450549451e+00, 1.373569369274110e+00, 1.450549450549451e+00, 1.450549450549451e+00, 1.450549450549451e+00, 1.450549450549451e+00, 1.450549450549451e+00, 1.450549450549451e+00, 1.450549450549451e+00, 1.450549450549451e+00, 1.450549450549451e+00, 2.079845562417521e+00, 1.450549450549451e+00, 1.450549450549451e+00, 1.450549450549451e+00, 1.450549450549451e+00, 1.450549450549451e+00, 1.450549450549451e+00, 1.450549450549451e+00, 1.450549450549451e+00, 1.450549450549451e+00, 1.450549450549451e+00, 1.450549450549451e+00, 1.450549450549451e+00, 1.450549450549451e+00, 1.450549450549451e+00, 1.450549450549451e+00, 1.450549450549451e+00, 1.305377869413050e+00, 1.450549450549451e+00, 1.450549450549451e+00, 1.450549450549451e+00, 1.450549450549451e+00, 1.450549450549451e+00, 1.450549450549451e+00, 1.450549450549451e+00, 1.450549450549451e+00, 1.450549450549451e+00, 1.450549450549451e+00, 8.436326916200109e-01, 1.450549450549451e+00, 1.450549450549451e+00, 1.450549450549451e+00, 1.450549450549451e+00, 5.721604776088067e-01, 3.828800135429173e+00, 1.450549450549451e+00, 1.450549450549451e+00, 1.450549450549451e+00, 1.450549450549451e+00, 1.450549450549451e+00, 1.450549450549451e+00, 1.450549450549451e+00, 1.450549450549451e+00, 1.450549450549451e+00, 1.450549450549451e+00, 1.450549450549451e+00, 1.450549450549451e+00, 1.450549450549451e+00, 1.450549450549451e+00, 1.450549450549451e+00, 5.755005596071541e-01, 1.450549450549451e+00, 1.450549450549451e+00, 1.450549450549451e+00, 1.450549450549451e+00, 1.295871246849252e+00, 7.509548029297461e-01, 3.725000000000000e+00, 6.459354856570483e+00, 5.441613352662931e+00, 1.752365378425240e+00, 3.049041291486880e+00, 4.917815658992446e+00, 5.211974430135941e+00, 3.725000000000000e+00, 3.876056597726543e+00, 3.001266968243306e+00, 3.725000000000000e+00, 3.725000000000000e+00, 3.725000000000000e+00, 3.725000000000000e+00, 3.725000000000000e+00, 3.182491443665027e+00, 3.346953790606291e+00, 3.725000000000000e+00, 3.134424576144999e+00, 3.725000000000000e+00, 3.725000000000000e+00, 3.725000000000000e+00, 3.725000000000000e+00, 3.725000000000000e+00, 3.725000000000000e+00, 3.725000000000000e+00, 3.725000000000000e+00, 3.972828815581618e+00, 4.613533601598276e+00, 3.725000000000000e+00, 3.725000000000000e+00, 3.725000000000000e+00, 4.518681983995388e+00, 3.725000000000000e+00, 3.725000000000000e+00, 3.725000000000000e+00, 3.725000000000000e+00, 3.725000000000000e+00, 3.725000000000000e+00, 3.725000000000000e+00, 3.725000000000000e+00, 3.725000000000000e+00, 3.725000000000000e+00, 3.725000000000000e+00, 3.725000000000000e+00, 3.725000000000000e+00, 3.725000000000000e+00, 3.725000000000000e+00, 3.725000000000000e+00, 3.725000000000000e+00, 3.725000000000000e+00, 4.155188028689103e+00, 3.725000000000000e+00, 3.725000000000000e+00, 8.003950956241239e-01, 3.725000000000000e+00, 3.725000000000000e+00, 3.725000000000000e+00, 3.725000000000000e+00, 3.725000000000000e+00, 3.725000000000000e+00, 3.725000000000000e+00, 3.725000000000000e+00, 3.725000000000000e+00, 3.725000000000000e+00, 3.725000000000000e+00, 3.725000000000000e+00, 3.725000000000000e+00, 3.725000000000000e+00, 3.725000000000000e+00, 3.725000000000000e+00, 3.725000000000000e+00, 3.725000000000000e+00, 3.725000000000000e+00, 3.725000000000000e+00, 3.725000000000000e+00, 2.897774869045169e+00, 3.725000000000000e+00, 3.725000000000000e+00, 3.725000000000000e+00, 3.725000000000000e+00, 3.942626102723388e+00, 3.725000000000000e+00, 3.725000000000000e+00, 3.725000000000000e+00, 3.725000000000000e+00, 3.725000000000000e+00, 3.725000000000000e+00, 3.725000000000000e+00, 3.725000000000000e+00, 3.725000000000000e+00, 3.725000000000000e+00, 3.725000000000000e+00, 3.725000000000000e+00, 3.725000000000000e+00, 3.725000000000000e+00, 3.725000000000000e+00, 3.725000000000000e+00, 3.725000000000000e+00, 3.725000000000000e+00, 3.725000000000000e+00, 3.725000000000000e+00, 3.725000000000000e+00, 3.725000000000000e+00, 3.725000000000000e+00, 3.725000000000000e+00, 3.725000000000000e+00, 1.531227388158588e+00, 3.725000000000000e+00, 8.164925564763728e+00, 3.725000000000000e+00, 1.945601190526151e+00, 3.725000000000000e+00, 3.725000000000000e+00, 3.725000000000000e+00, 3.725000000000000e+00, 3.725000000000000e+00, 3.725000000000000e+00, 3.725000000000000e+00, 3.725000000000000e+00, 3.725000000000000e+00, 3.725000000000000e+00, 3.725000000000000e+00, 1.169227845479598e+00, 3.725000000000000e+00, 3.725000000000000e+00, 3.725000000000000e+00, 3.725000000000000e+00, 3.725000000000000e+00, 3.725000000000000e+00, 3.725000000000000e+00, 3.725000000000000e+00, 3.725000000000000e+00, 3.725000000000000e+00, 3.725000000000000e+00, 3.725000000000000e+00, 3.725000000000000e+00, 3.725000000000000e+00, 3.725000000000000e+00, 3.725000000000000e+00, 3.725000000000000e+00, 3.725000000000000e+00, 3.725000000000000e+00, 3.725000000000000e+00, 3.725000000000000e+00, 3.725000000000000e+00, 3.725000000000000e+00, 3.725000000000000e+00, 3.725000000000000e+00, 3.725000000000000e+00, 3.725000000000000e+00, 3.725000000000000e+00, 3.725000000000000e+00, 3.725000000000000e+00, 3.725000000000000e+00, 3.725000000000000e+00, 3.725000000000000e+00, 3.725000000000000e+00, 3.725000000000000e+00, 3.725000000000000e+00, 3.725000000000000e+00, 4.003540474529080e+00, 3.725000000000000e+00, 3.725000000000000e+00, 6.474209796554518e+00, 3.804259599680286e+00, 3.725000000000000e+00, 3.756537718061031e+00, 3.692421528257322e+00, 3.725000000000000e+00, 3.608818650786056e+00, 3.725000000000000e+00, 3.725000000000000e+00, 3.725000000000000e+00, 3.725000000000000e+00, 3.725000000000000e+00, 3.725000000000000e+00, 3.725000000000000e+00, 3.725000000000000e+00, 3.725000000000000e+00, 4.511857130886360e+00, 3.725000000000000e+00, 3.725000000000000e+00, 3.067567444028694e+00, 3.725000000000000e+00, 3.725000000000000e+00, 3.725000000000000e+00, 3.725000000000000e+00, 3.725000000000000e+00, 3.725000000000000e+00, 3.725000000000000e+00, 3.725000000000000e+00, 4.475497054585088e+00, 4.450221447324953e+00, 4.357502468414735e+00, 6.059774695104271e+00, 3.725000000000000e+00, 3.725000000000000e+00, 3.725000000000000e+00, 3.725000000000000e+00, 3.725000000000000e+00, 3.725000000000000e+00, 3.725000000000000e+00, 3.725000000000000e+00, 3.725000000000000e+00, 3.725000000000000e+00, 3.725000000000000e+00, 3.725000000000000e+00, 3.725000000000000e+00, 3.725000000000000e+00, 3.725000000000000e+00, 3.725000000000000e+00, 3.725000000000000e+00, 3.725000000000000e+00, 3.725000000000000e+00, 3.724701568834142e+00, 3.725000000000000e+00, 2.598898824626259e+00, 3.541211872785933e+00, 1.520919923012670e+00, 3.725000000000000e+00, 4.603122487499780e+00, 2.993743281504394e+00, 3.725000000000000e+00, 3.547656728093465e+00, 3.089828790617884e+00, 3.725000000000000e+00, 3.725000000000000e+00, 3.725000000000000e+00, 3.725000000000000e+00, 3.725000000000000e+00, 3.725000000000000e+00, 3.725000000000000e+00, 3.725000000000000e+00, 2.758491556836626e+00, 3.725000000000000e+00, 4.417294708527113e+00, 3.152692817730862e+00, 3.725000000000000e+00, 3.725000000000000e+00, 3.725000000000000e+00, 3.725000000000000e+00, 3.725000000000000e+00, 3.725000000000000e+00, 3.725000000000000e+00, 3.725000000000000e+00, 5.476961856957307e+00, 3.725000000000000e+00, 3.725000000000000e+00, 3.725000000000000e+00, 3.725000000000000e+00, 3.725000000000000e+00, 3.725000000000000e+00, 3.725000000000000e+00, 3.725000000000000e+00, 3.725000000000000e+00, 3.725000000000000e+00, 3.725000000000000e+00, 3.725000000000000e+00, 3.725000000000000e+00, 3.725000000000000e+00, 3.725000000000000e+00, 3.725000000000000e+00, 3.725000000000000e+00, 3.725000000000000e+00, 3.613669709459944e+00, 3.725000000000000e+00, 3.959539662991813e+00, 3.725000000000000e+00, 4.417289980700618e+00, 3.725000000000000e+00, 3.725000000000000e+00, 3.725000000000000e+00, 3.725000000000000e+00, 3.615413967100929e+00, 4.319766955477984e+00, 3.725000000000000e+00, 3.725000000000000e+00, 3.725000000000000e+00, 3.725000000000000e+00, 3.725000000000000e+00, 4.355914444739554e+00, 3.725000000000000e+00, 3.725000000000000e+00, 2.485990583859450e+00, 3.725000000000000e+00, 3.725000000000000e+00, 3.725000000000000e+00, 3.725000000000000e+00, 3.725000000000000e+00, 3.725000000000000e+00, 3.725000000000000e+00, 3.725000000000000e+00, 2.188043273544104e+00, 3.725000000000000e+00, 3.725000000000000e+00, 3.725000000000000e+00, 3.725000000000000e+00, 3.725000000000000e+00, 3.725000000000000e+00, 3.725000000000000e+00, 3.725000000000000e+00, 3.725000000000000e+00, 3.725000000000000e+00, 3.725000000000000e+00, 3.725000000000000e+00, 3.725000000000000e+00, 3.725000000000000e+00, 3.725000000000000e+00, 3.725000000000000e+00, 3.725000000000000e+00, 3.725000000000000e+00, 3.725000000000000e+00, 3.725000000000000e+00, 2.336625087535194e+00, 3.725000000000000e+00, 3.725000000000000e+00, 2.934560908068040e+00, 3.725000000000000e+00, 3.725000000000000e+00, 3.725000000000000e+00, 3.725000000000000e+00, 3.725000000000000e+00, 3.050161516955110e+00, 3.725000000000000e+00, 3.725000000000000e+00, 5.792724932831031e+00, 2.545505923212560e+00, 3.223406881591143e+00, 2.517750302052046e+00, 3.725000000000000e+00, 3.725000000000000e+00, 3.295219129187392e+00, 4.219816236576250e+00, 2.627926746750418e+00, 3.725000000000000e+00, 3.725000000000000e+00, 3.725000000000000e+00, 3.214880011989258e+00, 3.725000000000000e+00, 3.506150427145962e+00, 3.725000000000000e+00, 3.725000000000000e+00, 3.725000000000000e+00, 3.282413840172478e+00, 4.463106338764239e+00, 2.643764345260086e+00, 3.725000000000000e+00, 3.725000000000000e+00, 3.725000000000000e+00, 3.327275352986957e+00, 3.725000000000000e+00, 2.478073125364153e+00, 3.725000000000000e+00, 3.725000000000000e+00, 3.725000000000000e+00, 3.725000000000000e+00, 3.725000000000000e+00, 3.725000000000000e+00, 3.725000000000000e+00, 3.725000000000000e+00, 3.725000000000000e+00, 3.725000000000000e+00, 3.725000000000000e+00, 3.725000000000000e+00, 3.725000000000000e+00, 3.725000000000000e+00, 2.607049799327989e+00, 3.725000000000000e+00, 3.725000000000000e+00, 3.725000000000000e+00, 3.546680507153628e+00, 3.725000000000000e+00, 3.725000000000000e+00, 3.725000000000000e+00, 3.725000000000000e+00, 3.725000000000000e+00, 2.950890407395587e+00, 3.725000000000000e+00, 3.725000000000000e+00, 5.285448960673581e+00, 2.249050976820289e+00, 3.725000000000000e+00, 3.725000000000000e+00, 2.182354639022565e-02, 5.063350287773754e+00, 2.749527280935057e-01, 2.590489228248284e+00, 3.725000000000000e+00, 3.725000000000000e+00, 3.725000000000000e+00, 3.725000000000000e+00, 3.700383583315880e+00, 3.488619886804226e+00, 3.725000000000000e+00, 3.725000000000000e+00, 3.725000000000000e+00, 3.725000000000000e+00, 3.725000000000000e+00, 2.979755049519418e+00, 3.725000000000000e+00, 3.725000000000000e+00, 3.725000000000000e+00, 3.725000000000000e+00, 3.725000000000000e+00, 3.055437732347847e+00, 3.474205639659220e+00, 3.725000000000000e+00, 3.725000000000000e+00, 3.725000000000000e+00, 3.725000000000000e+00, 6.061955891861252e+00, 3.725000000000000e+00, 3.725000000000000e+00, 3.725000000000000e+00, 3.725000000000000e+00, 3.725000000000000e+00, 3.725000000000000e+00, 3.725000000000000e+00, 3.725000000000000e+00, 3.725000000000000e+00, 3.725000000000000e+00, 3.725000000000000e+00, 3.725000000000000e+00, 3.725000000000000e+00, 3.725000000000000e+00, 3.725000000000000e+00, 3.725000000000000e+00, 3.725000000000000e+00, 3.725000000000000e+00, 3.725000000000000e+00, 3.725000000000000e+00, 3.725000000000000e+00, 3.725000000000000e+00, 3.725000000000000e+00, 3.725000000000000e+00, 3.725000000000000e+00, 3.725000000000000e+00, 1.649860024515091e+00, 4.951126618387523e+00, 3.725000000000000e+00, 3.725000000000000e+00, 3.725000000000000e+00, 3.725000000000000e+00, 3.725000000000000e+00, 3.725000000000000e+00, 3.725000000000000e+00, 3.725000000000000e+00, 3.725000000000000e+00, 3.725000000000000e+00, 3.725000000000000e+00, 3.725000000000000e+00, 3.725000000000000e+00, 3.790883267765338e+00, 3.725000000000000e+00, 3.725000000000000e+00, 3.725000000000000e+00, 3.725000000000000e+00, 3.725000000000000e+00, 3.725000000000000e+00, 3.725000000000000e+00, 3.725000000000000e+00, 3.518514218604756e+00, 3.725000000000000e+00, 3.725000000000000e+00, 4.489877598502429e+00, 3.725000000000000e+00, 3.725000000000000e+00, 3.725000000000000e+00, 3.725000000000000e+00, 3.725000000000000e+00, 3.725000000000000e+00, 3.725000000000000e+00, 3.725000000000000e+00, 3.725000000000000e+00, 3.725000000000000e+00, 3.725000000000000e+00, 3.725000000000000e+00, 3.725000000000000e+00, 3.725000000000000e+00, 3.725000000000000e+00, 3.725000000000000e+00, 3.725000000000000e+00, 3.725000000000000e+00, 3.725000000000000e+00, 2.270064900313697e+00, 3.725000000000000e+00, 3.725000000000000e+00, 3.891177931143603e+00, 6.539561728787131e+00, 3.725000000000000e+00, 5.365883410574456e+00, 5.476054281872901e+00, 3.725000000000000e+00, 1.854403777603693e+00, 3.725000000000000e+00, 3.725000000000000e+00, 3.725000000000000e+00, 3.725000000000000e+00, 3.725000000000000e+00, 5.408615091565996e+00, 3.725000000000000e+00, 3.725000000000000e+00, 3.725000000000000e+00, 3.492930748854096e+00, 3.725000000000000e+00, 6.443408564219745e+00, 3.725000000000000e+00, 3.725000000000000e+00, 3.725000000000000e+00, 3.725000000000000e+00, 3.725000000000000e+00, 3.725000000000000e+00, 4.553267157325470e+00, 6.433904433944656e+00, 3.725000000000000e+00, 6.628715764984929e+00, 3.725000000000000e+00, 3.473150293244125e+00, 3.725000000000000e+00, 3.725000000000000e+00, 3.725000000000000e+00, 3.725000000000000e+00, 3.725000000000000e+00, 3.725000000000000e+00, 3.725000000000000e+00, 3.725000000000000e+00, 3.725000000000000e+00, 3.725000000000000e+00, 3.725000000000000e+00, 3.725000000000000e+00, 3.725000000000000e+00, 3.725000000000000e+00, 3.725000000000000e+00, 3.725000000000000e+00, 3.725000000000000e+00, 3.725000000000000e+00, 3.725000000000000e+00, 3.725000000000000e+00, 4.385269025072892e+00, 3.725000000000000e+00, 3.725000000000000e+00, 3.725000000000000e+00, 4.450936770905837e+00, 3.725000000000000e+00, 2.425951271692484e+00, 2.037827195245065e+00, 3.725000000000000e+00, 3.725000000000000e+00, 4.917521924047372e+00, 3.725000000000000e+00, 3.725000000000000e+00, 3.725000000000000e+00, 7.730395151971812e-01, 3.056578139730049e+00, 3.725000000000000e+00, 3.725000000000000e+00, 3.211856829804618e+00, 3.725000000000000e+00, 3.725000000000000e+00, 3.725000000000000e+00, 3.725000000000000e+00, 3.725000000000000e+00, 3.725000000000000e+00, 3.725000000000000e+00, 3.725000000000000e+00, 1.801110216703821e+00, 3.725000000000000e+00, 3.725000000000000e+00, 3.725000000000000e+00, 2.987384896989157e+00, 3.499473816290907e+00, 4.580550307019397e+00, 3.725000000000000e+00, 3.725000000000000e+00, 3.725000000000000e+00, 3.725000000000000e+00, 3.725000000000000e+00, 3.725000000000000e+00, 3.725000000000000e+00, 3.725000000000000e+00, 3.725000000000000e+00, 3.725000000000000e+00, 3.725000000000000e+00, 3.725000000000000e+00, 3.725000000000000e+00, 3.725000000000000e+00, 2.310525676032604e+00, 3.915595085978583e+00, 5.257020180628623e+00, 3.725000000000000e+00, 3.584833363161734e+00, 3.725000000000000e+00, 3.725000000000000e+00, 3.725000000000000e+00, 3.725000000000000e+00, 3.725000000000000e+00, 3.725000000000000e+00, 3.725000000000000e+00, 4.427994917034265e+00, 3.725000000000000e+00, 3.725000000000000e+00, 3.725000000000000e+00, 3.725000000000000e+00, 4.051439000079323e+00, 3.725000000000000e+00, 2.326734848195834e+00, 2.388675507863861e+00, 2.755582978791773e+00, 3.725000000000000e+00, 3.725000000000000e+00, 4.412311591783420e+00, 4.992002423257274e+00, 6.757409854458462e+00, 3.725000000000000e+00, 3.725000000000000e+00, 3.725000000000000e+00, 3.725000000000000e+00, 3.725000000000000e+00, 2.205112999213909e+00, 2.049352196109003e+00, 3.725000000000000e+00, 3.725000000000000e+00, 3.725000000000000e+00, 3.548937921855211e+00, 4.050297898507640e+00, 6.596813236351879e+00, 3.725000000000000e+00, 3.725000000000000e+00, 3.725000000000000e+00, 3.725000000000000e+00, 3.725000000000000e+00, 3.725000000000000e+00, 3.725000000000000e+00, 3.725000000000000e+00, 3.725000000000000e+00, 3.725000000000000e+00, 3.725000000000000e+00, 3.725000000000000e+00, 3.725000000000000e+00, 1.916137760925370e+00, 2.600207592143075e+00, 3.725000000000000e+00, 3.725000000000000e+00, 3.489123162916132e+00, 4.193972529361721e+00, 3.725000000000000e+00, 3.725000000000000e+00, 3.725000000000000e+00, 3.725000000000000e+00, 3.725000000000000e+00, 3.725000000000000e+00, 3.359071332215329e+00, 3.725000000000000e+00, 3.725000000000000e+00, 3.725000000000000e+00, 3.725000000000000e+00, 3.725000000000000e+00, 3.725000000000000e+00, 4.871859330274935e+00, 2.512363370708645e+00, 2.289881948728354e+00, 2.360961722111982e+00, 3.725000000000000e+00, 3.484651350325598e+00, 3.725000000000000e+00, 3.725000000000000e+00, 3.725000000000000e+00, 3.725000000000000e+00, 3.725000000000000e+00, 3.725000000000000e+00, 3.725000000000000e+00, 2.578870220309111e+00, 3.725000000000000e+00, 3.725000000000000e+00, 3.725000000000000e+00, 3.725000000000000e+00, 3.422168292153792e+00, 4.016738154866264e+00, 4.175647088725619e+00, 3.725000000000000e+00, 3.725000000000000e+00, 3.725000000000000e+00, 3.725000000000000e+00, 3.725000000000000e+00, 3.725000000000000e+00, 3.725000000000000e+00, 3.725000000000000e+00, 3.725000000000000e+00, 3.725000000000000e+00, 3.725000000000000e+00, 3.725000000000000e+00, 3.725000000000000e+00, 3.725000000000000e+00, 3.725000000000000e+00, 3.506686404877803e+00, 3.725000000000000e+00, 3.725000000000000e+00, 3.725000000000000e+00, 3.725000000000000e+00, 3.725000000000000e+00, 3.725000000000000e+00, 3.725000000000000e+00, 3.725000000000000e+00, 3.725000000000000e+00, 3.725000000000000e+00, 3.725000000000000e+00, 3.725000000000000e+00, 3.725000000000000e+00, 3.725000000000000e+00, 3.725000000000000e+00, 3.725000000000000e+00, 3.706856848902035e+00, 3.866141333175243e+00, 3.093846294345414e-02, 3.725000000000000e+00, 3.725000000000000e+00, 3.725000000000000e+00, 3.725000000000000e+00, 3.725000000000000e+00, 3.725000000000000e+00, 3.107404862195628e+00, 3.725000000000000e+00, 3.725000000000000e+00, 3.927691555891360e+00, 4.111045810365922e+00, 3.725000000000000e+00, 3.725000000000000e+00, 3.725000000000000e+00, 3.725000000000000e+00, 3.725000000000000e+00, 3.725000000000000e+00, 3.725000000000000e+00, 3.503433477803206e+00, 4.010441317528541e+00, 3.725000000000000e+00, 3.725000000000000e+00, 3.725000000000000e+00, 3.725000000000000e+00, 3.725000000000000e+00, 3.725000000000000e+00, 3.725000000000000e+00, 3.725000000000000e+00, 3.725000000000000e+00, 3.725000000000000e+00, 3.725000000000000e+00, 4.146211765638332e+00, 3.725000000000000e+00, 3.725000000000000e+00, 3.725000000000000e+00, 3.725000000000000e+00, 3.725000000000000e+00, 3.725000000000000e+00, 3.725000000000000e+00, 3.725000000000000e+00, 3.725000000000000e+00, 3.725000000000000e+00, 3.725000000000000e+00, 3.725000000000000e+00, 3.725000000000000e+00, 3.725000000000000e+00, 3.725000000000000e+00, 3.725000000000000e+00, 3.725000000000000e+00, 3.725000000000000e+00, 4.148041485569196e+00, 3.619311421391775e+00, 3.794848448138386e+00, 3.725000000000000e+00, 8.406815057877587e-01, 3.725000000000000e+00, 3.725000000000000e+00, 3.725000000000000e+00, 3.725000000000000e+00, 3.211787442131569e+00, 3.725000000000000e+00, 3.725000000000000e+00, 3.725000000000000e+00, 3.961659661089974e+00, 4.004768816521216e+00, 3.725000000000000e+00, 3.725000000000000e+00, 3.725000000000000e+00, 3.725000000000000e+00, 3.725000000000000e+00, 3.725000000000000e+00, 3.528028245459759e+00, 4.126367355799563e+00, 3.999057779384726e+00, 3.725000000000000e+00, 4.935984825996639e+00, 3.725000000000000e+00, 3.725000000000000e+00, 3.725000000000000e+00, 3.725000000000000e+00, 3.725000000000000e+00, 3.725000000000000e+00, 3.725000000000000e+00, 3.725000000000000e+00, 3.991397744646567e+00, 3.725000000000000e+00, 3.959748654039442e+00, 3.725000000000000e+00, 3.725000000000000e+00, 3.725000000000000e+00, 3.876733163672731e+00, 3.725000000000000e+00, 4.618575854934537e+00, 3.725000000000000e+00, 3.725000000000000e+00, 3.725000000000000e+00, 3.725000000000000e+00, 3.725000000000000e+00, 3.725000000000000e+00, 3.530263239871079e+00, 3.709405276334468e+00, 2.989566497744416e+00, 3.725000000000000e+00, 1.630095989845043e+00, 3.788512063646953e+00, 3.603396187135287e+00, 3.252143157887825e+00, 3.725000000000000e+00, 3.725000000000000e+00, 1.765744688641200e+00, 3.725000000000000e+00, 3.520529915565903e+00, 2.831356287712915e+00, 3.725000000000000e+00, 3.725000000000000e+00, 3.725000000000000e+00, 3.848708486736009e+00, 3.658808564015045e+00, 3.725000000000000e+00, 3.725000000000000e+00, 3.725000000000000e+00, 3.725000000000000e+00, 3.725000000000000e+00, 3.725000000000000e+00, 4.226463448173763e+00, 4.065820285493882e+00, 3.293645967831359e+00, 3.510421575651766e+00, 3.725000000000000e+00, 4.432695734373749e+00, 3.725000000000000e+00, 4.460792507107314e+00, 4.383789727641794e+00, 4.303858261203919e+00, 4.273681765853668e+00, 4.027309278623376e+00, 4.240098780236530e+00, 4.912030159752425e+00, 3.992661510243043e+00, 3.914126954525580e+00, 3.725000000000000e+00, 3.725000000000000e+00, 3.725000000000000e+00, 3.725000000000000e+00, 3.725000000000000e+00, 3.777877051506531e+00, 3.264940822035222e+00, 4.171186433783165e+00, 4.602198144972131e+00, 3.725000000000000e+00, 4.157043406552988e+00, 3.725000000000000e+00, 3.725000000000000e+00, 3.725000000000000e+00, 3.725000000000000e+00, 2.467486098569045e+00, 3.725000000000000e+00, 3.725000000000000e+00, 3.725000000000000e+00, 3.725000000000000e+00, 3.725000000000000e+00, 3.725000000000000e+00, 3.725000000000000e+00, 3.725000000000000e+00, 1.279971053335743e+00, 3.725000000000000e+00, 3.725000000000000e+00, 2.675520900594305e+00, 3.725000000000000e+00, 3.725000000000000e+00, 3.725000000000000e+00, 3.725000000000000e+00, 3.725000000000000e+00, 3.725000000000000e+00, 3.725000000000000e+00, 3.725000000000000e+00, 3.725000000000000e+00, 3.725000000000000e+00, 3.725000000000000e+00, 3.725000000000000e+00, 3.725000000000000e+00, 3.725000000000000e+00, 3.725000000000000e+00, 3.725000000000000e+00, 3.725000000000000e+00, 3.725000000000000e+00, 3.725000000000000e+00, 3.725000000000000e+00, 3.725000000000000e+00, 3.725000000000000e+00, 3.725000000000000e+00, 3.725000000000000e+00, 3.725000000000000e+00, 3.725000000000000e+00, 3.725000000000000e+00, 3.725000000000000e+00, 3.725000000000000e+00, 3.725000000000000e+00, 3.725000000000000e+00, 3.725000000000000e+00, 3.725000000000000e+00, 3.725000000000000e+00, 2.935489938819450e+00, 3.725000000000000e+00, 3.725000000000000e+00, 3.725000000000000e+00, 3.725000000000000e+00, 3.725000000000000e+00, 2.450564868850186e+00, 3.725000000000000e+00, 3.725000000000000e+00, 3.725000000000000e+00, 3.725000000000000e+00, 3.725000000000000e+00, 2.441511695776187e+00, 3.725000000000000e+00, 3.725000000000000e+00, 2.552506053701271e+00, 3.725000000000000e+00, 7.761086583464708e-01, 3.725000000000000e+00, 3.725000000000000e+00, 3.725000000000000e+00, 3.725000000000000e+00, 3.725000000000000e+00, 3.725000000000000e+00, 2.352916007595347e+00, 3.725000000000000e+00, 3.725000000000000e+00, 3.725000000000000e+00, 3.725000000000000e+00, 3.725000000000000e+00, 3.725000000000000e+00, 3.725000000000000e+00, 3.725000000000000e+00, 3.725000000000000e+00, 3.725000000000000e+00, 3.725000000000000e+00, 3.725000000000000e+00, 3.725000000000000e+00, 3.725000000000000e+00, 3.725000000000000e+00, 3.725000000000000e+00, 3.725000000000000e+00, 3.725000000000000e+00, 3.725000000000000e+00, 3.725000000000000e+00, 2.503575382234244e+00, 3.725000000000000e+00, 3.725000000000000e+00, 3.129943733027505e+00, 3.725000000000000e+00, 3.725000000000000e+00, 3.725000000000000e+00, 3.725000000000000e+00, 3.725000000000000e+00, 3.725000000000000e+00, 3.725000000000000e+00, 3.725000000000000e+00, 3.725000000000000e+00, 3.725000000000000e+00, 3.725000000000000e+00, 3.725000000000000e+00, 3.725000000000000e+00, 3.725000000000000e+00, 3.725000000000000e+00, 2.989510642208756e+00, 2.320438362385652e+00, 3.725000000000000e+00, 3.725000000000000e+00, 3.725000000000000e+00, 2.659573985027304e+00, 3.725000000000000e+00, 3.725000000000000e+00, 8.939370683989094e-01, 3.725000000000000e+00, 3.725000000000000e+00, 3.725000000000000e+00, 3.725000000000000e+00, 3.285716200878058e+00, 2.676645956562926e+00, 3.725000000000000e+00, 3.381144783538369e+00, 3.725000000000000e+00, 3.725000000000000e+00, 3.725000000000000e+00, 3.725000000000000e+00, 3.725000000000000e+00, 3.725000000000000e+00, 3.725000000000000e+00, 3.725000000000000e+00, 3.725000000000000e+00, 3.725000000000000e+00, 3.725000000000000e+00, 3.725000000000000e+00, 3.725000000000000e+00, 3.725000000000000e+00, 3.725000000000000e+00, 3.725000000000000e+00, 3.725000000000000e+00, 2.734515001018032e+00, 2.613502422234274e+00, 3.725000000000000e+00, 3.725000000000000e+00, 3.108995661713069e+00, 2.184701237986130e+00, 3.725000000000000e+00, 3.725000000000000e+00, 3.725000000000000e+00, 3.725000000000000e+00, 2.583689381057753e+00, 3.725000000000000e+00, 3.725000000000000e+00, 4.802379681464267e+00, 3.806094180367396e+00, 3.725000000000000e+00, 3.725000000000000e+00, 3.725000000000000e+00, 3.725000000000000e+00, 4.133660358780674e+00, 3.725000000000000e+00, 2.425597978289550e+00, 3.725000000000000e+00, 3.725000000000000e+00, 2.744160968744506e+00, 3.725000000000000e+00, 3.161013770626054e+00, 3.725000000000000e+00, 3.725000000000000e+00, 1.644433680354569e+00, 3.725000000000000e+00, 3.725000000000000e+00, 3.725000000000000e+00, 2.668262383429196e+00, 3.725000000000000e+00, 3.725000000000000e+00, 3.663155499496411e+00, 3.725000000000000e+00, 3.725000000000000e+00, 3.725000000000000e+00, 3.725000000000000e+00, 3.725000000000000e+00, 3.725000000000000e+00, 3.725000000000000e+00, 3.725000000000000e+00, 3.725000000000000e+00, 3.725000000000000e+00, 3.725000000000000e+00, 3.725000000000000e+00, 3.725000000000000e+00, 3.725000000000000e+00, 3.725000000000000e+00, 3.725000000000000e+00, 3.725000000000000e+00, 2.867402509447612e+00, 3.725000000000000e+00, 3.725000000000000e+00, 3.725000000000000e+00, 3.725000000000000e+00, 3.725000000000000e+00, 3.725000000000000e+00, 3.725000000000000e+00, 3.725000000000000e+00, 3.725000000000000e+00, 3.725000000000000e+00, 3.725000000000000e+00, 3.725000000000000e+00, 3.725000000000000e+00, 3.725000000000000e+00, 3.725000000000000e+00, 3.725000000000000e+00, 3.725000000000000e+00, 3.725000000000000e+00, 3.725000000000000e+00, 3.725000000000000e+00, 4.031371558947347e+00, 3.725000000000000e+00, 3.535017176573289e+00, 3.725000000000000e+00, 3.725000000000000e+00, 3.725000000000000e+00, 3.725000000000000e+00, 3.725000000000000e+00, 3.725000000000000e+00, 1.717973483962089e+00, 3.725000000000000e+00, 3.725000000000000e+00, 3.725000000000000e+00, 3.725000000000000e+00, 3.725000000000000e+00, 3.725000000000000e+00, 3.725000000000000e+00, 3.725000000000000e+00, 3.725000000000000e+00, 3.725000000000000e+00, 3.725000000000000e+00, 3.725000000000000e+00, 3.725000000000000e+00, 3.725000000000000e+00, 3.725000000000000e+00, 3.725000000000000e+00, 3.725000000000000e+00, 3.725000000000000e+00, 3.725000000000000e+00, 3.725000000000000e+00, 3.725000000000000e+00, 3.725000000000000e+00, 3.725000000000000e+00, 3.725000000000000e+00, 3.725000000000000e+00, 3.725000000000000e+00, 3.725000000000000e+00, 3.725000000000000e+00, 3.725000000000000e+00, 3.725000000000000e+00, 3.725000000000000e+00, 3.725000000000000e+00, 3.725000000000000e+00, 3.725000000000000e+00, 3.725000000000000e+00, 3.725000000000000e+00, 3.725000000000000e+00, 4.257871698999749e+00, 3.725000000000000e+00, 2.253918483748901e+00, 3.725000000000000e+00, 3.725000000000000e+00, 5.705623193734037e+00, 3.725000000000000e+00, 3.725000000000000e+00, 3.725000000000000e+00, 3.725000000000000e+00, 3.725000000000000e+00, 3.725000000000000e+00, 3.725000000000000e+00, 3.725000000000000e+00, 3.725000000000000e+00, 3.725000000000000e+00, 3.725000000000000e+00, -4.639603709496057e-01, 3.725000000000000e+00, 3.725000000000000e+00, 3.725000000000000e+00, 3.725000000000000e+00, 3.725000000000000e+00, 3.725000000000000e+00, 3.725000000000000e+00, 5.691909052608787e+00, 3.725000000000000e+00, 1.777522387100345e+00, 3.725000000000000e+00, 3.725000000000000e+00, 7.148381704902413e+00, 3.725000000000000e+00, 3.725000000000000e+00, 3.725000000000000e+00, 3.725000000000000e+00, 3.725000000000000e+00, 3.725000000000000e+00, 3.725000000000000e+00, 3.725000000000000e+00, 3.725000000000000e+00, 3.725000000000000e+00, 3.725000000000000e+00, 3.725000000000000e+00, 3.725000000000000e+00, 3.725000000000000e+00, 3.725000000000000e+00, 3.725000000000000e+00, 3.725000000000000e+00, 3.725000000000000e+00, 3.725000000000000e+00, 3.725000000000000e+00, 3.725000000000000e+00, 3.725000000000000e+00, 6.356370706262015e+00, 1.729261442578078e+00, 3.725000000000000e+00, 3.391660112199635e+00, 4.488543446439472e+00, 7.303961780507053e+00, 3.725000000000000e+00, 3.725000000000000e+00, 3.725000000000000e+00, 3.725000000000000e+00, 3.725000000000000e+00, 3.725000000000000e+00, 2.439593487028940e+00, 3.725000000000000e+00, 3.725000000000000e+00, 3.725000000000000e+00, 3.725000000000000e+00, 3.725000000000000e+00, 3.725000000000000e+00, 3.128102992724020e+00, 3.725000000000000e+00, 3.725000000000000e+00, 3.725000000000000e+00, 3.725000000000000e+00, 3.725000000000000e+00, 3.725000000000000e+00, 3.725000000000000e+00, 3.725000000000000e+00, 4.216907711329513e+00, 2.043103277404104e+00, 3.725000000000000e+00, 3.725000000000000e+00, 3.725000000000000e+00, 3.725000000000000e+00, 3.725000000000000e+00, 3.725000000000000e+00, 3.725000000000000e+00, 3.725000000000000e+00, 3.725000000000000e+00, 3.725000000000000e+00, 3.725000000000000e+00, 3.725000000000000e+00, 3.725000000000000e+00, 3.725000000000000e+00, 3.725000000000000e+00, 3.725000000000000e+00, 3.725000000000000e+00, 5.255534845648051e+00, 3.725000000000000e+00, 4.150722150905994e+00, 3.725000000000000e+00, 3.725000000000000e+00, 1.972858864014099e+00, 3.725000000000000e+00, 3.725000000000000e+00, 3.725000000000000e+00, 3.725000000000000e+00, 3.731941000349215e+00, 3.725000000000000e+00, 3.725000000000000e+00, 3.725000000000000e+00, 3.725000000000000e+00, 3.725000000000000e+00, 3.725000000000000e+00, 2.243279606609500e+00, 2.247261540782698e+00, 1.547313449287938e+00, 3.725000000000000e+00, 3.725000000000000e+00, 3.612321764717617e+00, 5.199811480319341e+00, 3.725000000000000e+00, 3.725000000000000e+00, 3.725000000000000e+00, 1.756318529497326e+00, 3.725000000000000e+00, 3.725000000000000e+00, 2.290952448443975e+00, 2.585080142918778e+00, 3.355516385056212e+00, 3.725000000000000e+00, 3.593519242580088e+00, 3.430528915614433e+00, 5.000953585840042e+00, 6.203042618992054e+00, 3.725000000000000e+00, 3.725000000000000e+00, 3.725000000000000e+00, 3.725000000000000e+00, 3.725000000000000e+00, 3.725000000000000e+00, 3.725000000000000e+00, 3.725000000000000e+00, 3.725000000000000e+00, 3.725000000000000e+00, 3.725000000000000e+00, 3.725000000000000e+00, 3.725000000000000e+00, 3.725000000000000e+00, 6.159740213891499e-01, 2.783644052526038e+00, 3.725000000000000e+00, 3.453867963350954e+00, 4.957652205967150e+00, 3.725000000000000e+00, 3.725000000000000e+00, 3.725000000000000e+00, 3.725000000000000e+00, 3.725000000000000e+00, 3.725000000000000e+00, 3.714586966819536e+00, 3.725000000000000e+00, 3.725000000000000e+00, 3.725000000000000e+00, 3.725000000000000e+00, 3.725000000000000e+00, 3.725000000000000e+00, 3.725000000000000e+00, 2.284971439119148e+00, 2.287174995429442e+00, 3.725000000000000e+00, 3.725000000000000e+00, 4.059149113034766e+00, 5.485260364050112e+00, 3.725000000000000e+00, 3.725000000000000e+00, 3.725000000000000e+00, 3.725000000000000e+00, 3.725000000000000e+00, 2.050518732683237e+00, 2.466834654594283e+00, 2.340414169168489e+00, 3.725000000000000e+00, 3.725000000000000e+00, 3.725000000000000e+00, 3.551341620659080e+00, 4.523565627537222e+00, 6.029073909163774e+00, 3.725000000000000e+00, 3.725000000000000e+00, 3.725000000000000e+00, 3.725000000000000e+00, 3.725000000000000e+00, 3.725000000000000e+00, 3.725000000000000e+00, 3.725000000000000e+00, 3.725000000000000e+00, 3.725000000000000e+00, 3.725000000000000e+00, 3.725000000000000e+00, 3.725000000000000e+00, 3.725000000000000e+00, 3.725000000000000e+00, 2.872344366318303e+00, 3.725000000000000e+00, 3.483142093537328e+00, 3.725000000000000e+00, 3.725000000000000e+00, 3.725000000000000e+00, 3.725000000000000e+00, 3.725000000000000e+00, 3.725000000000000e+00, 3.725000000000000e+00, 3.725000000000000e+00, 3.725000000000000e+00, 3.725000000000000e+00, 3.725000000000000e+00, 