MTP
version = 1.1.0
potential_name = MTP_l2k3
scaling = 2.586079195766227e-02
L = 2
scaling_map = K
species_count = 54
potential_tag = 
radial_basis_type = RBChebyshev_sss
	min_dist = 1.450000000000000e+00
	max_dist = 6.000000000000000e+00
	radial_basis_size = 5
	radial_funcs_count = 9
shift_coeffs = {-3.168595165429642e+00, -8.426423642551063e+00, -1.401718658696160e+01, -1.736641258499662e+00, -2.433381386729036e+00, -5.526603906591327e+00, -6.909454004626143e+00, -8.036463988103137e+00, -8.052472214300710e-01, -3.307984168259606e+00, -7.636186351344636e+00, -1.175715889404512e+01, -9.197532047746442e+00, -9.679813865459984e+00, -1.156646457066824e+01, -7.898974846273407e+00, -1.711195611248262e+00, -3.945655191221876e+00, -5.613576685820447e+00, -7.062637660605818e+00, -4.995524847259172e+00, -3.862233357250653e+00, -7.997457217318437e+00, -9.659039759802022e+00, -1.071273777601523e+01, -1.019802900900564e+01, -9.945239282613313e+00, -7.696687217236340e+00, -3.408964953409841e+00, -1.736222052998308e+00, -3.095617037894176e+00, -5.073150411005236e+00, -9.248914653041473e+00, -6.164626262771184e+00, -3.912123552681635e+00, -6.819475648340978e+00, -6.891730557830162e+00, -6.283378416752006e+00, -6.238048739682835e+00, -6.134579602664673e+00, -6.167447436590362e+00, -6.314115518992121e+00, -6.319856439334784e+00, -5.744382945657711e+00, -1.095664628041220e+01, -1.245030876199530e+01, -1.292559674759927e+01, -1.101243800410480e+01, -9.059454577699235e+00, -5.811473898841932e+00, -1.973163156910919e+00, -3.597868206512206e+00, -5.233829581017170e+00, -9.281251440544457e+00}
scal_coeffs = {-3.655574864358509e-01, 1.450549450549451e+00, -2.440951209732981e+00, 5.949091454243961e-01, 1.226394195732671e+00, 1.500129746712063e-01, 5.394335743878966e-01, 7.966630062126691e-01, 1.450549450549451e+00, 1.940337865711040e+00, 2.525975609931310e+00, 1.450549450549451e+00, 1.450549450549451e+00, 1.450549450549451e+00, 1.450549450549451e+00, 1.450549450549451e+00, 1.265675510866619e+00, 7.093369744143825e-01, 1.450549450549451e+00, 9.116695535491708e-01, 1.450549450549451e+00, 1.450549450549451e+00, 1.450549450549451e+00, 1.450549450549451e+00, 1.450549450549451e+00, 1.450549450549451e+00, 1.450549450549451e+00, 1.450549450549451e+00, 7.609121420308963e-01, 1.222490444984874e+00, 1.450549450549451e+00, 1.450549450549451e+00, 1.450549450549451e+00, -8.488713508643327e-01, 1.450549450549451e+00, 1.450549450549451e+00, 1.450549450549451e+00, 1.450549450549451e+00, 1.450549450549451e+00, 1.450549450549451e+00, 1.450549450549451e+00, 1.450549450549451e+00, 1.450549450549451e+00, 1.450549450549451e+00, 1.450549450549451e+00, 1.450549450549451e+00, 1.450549450549451e+00, 1.450549450549451e+00, 1.450549450549451e+00, 1.450549450549451e+00, 1.450549450549451e+00, 1.450549450549451e+00, 6.044496365853014e-01, 1.450549450549451e+00, 1.450549450549451e+00, 2.509397222579978e+00, 1.450549450549451e+00, 1.450549450549451e+00, 1.450549450549451e+00, 1.450549450549451e+00, 1.450549450549451e+00, 1.450549450549451e+00, 1.450549450549451e+00, 1.450549450549451e+00, 1.450549450549451e+00, 1.450549450549451e+00, 1.450549450549451e+00, 1.450549450549451e+00, 1.450549450549451e+00, 1.450549450549451e+00, 1.450549450549451e+00, 1.450549450549451e+00, 1.450549450549451e+00, 1.450549450549451e+00, 1.450549450549451e+00, 1.450549450549451e+00, 1.450549450549451e+00, 1.403189591796874e+00, 1.450549450549451e+00, 1.450549450549451e+00, 1.450549450549451e+00, 1.450549450549451e+00, 1.378483382727224e-01, 1.450549450549451e+00, 1.450549450549451e+00, 1.450549450549451e+00, 1.450549450549451e+00, 1.450549450549451e+00, 1.450549450549451e+00, 1.450549450549451e+00, 1.450549450549451e+00, 1.450549450549451e+00, 1.450549450549451e+00, 1.450549450549451e+00, 1.450549450549451e+00, 1.450549450549451e+00, 1.450549450549451e+00, 1.450549450549451e+00, 1.450549450549451e+00, 1.450549450549451e+00, 1.450549450549451e+00, 1.450549450549451e+00, 1.450549450549451e+00, 1.450549450549451e+00, 1.450549450549451e+00, 1.450549450549451e+00, 1.450549450549451e+00, 1.450549450549451e+00, 8.365198410853547e-01, 1.450549450549451e+00, 3.459433537394725e+00, 1.450549450549451e+00, 1.219635827419194e+00, 1.450549450549451e+00, 1.450549450549451e+00, 1.450549450549451e+00, 1.450549450549451e+00, 1.450549450549451e+00, 1.450549450549451e+00, 1.450549450549451e+00, 1.450549450549451e+00, 1.450549450549451e+00, 1.450549450549451e+00, 1.450549450549451e+00, 7.579892803832270e-01, 1.450549450549451e+00, 1.450549450549451e+00, 1.450549450549451e+00, 1.450549450549451e+00, 1.450549450549451e+00, 1.450549450549451e+00, 1.450549450549451e+00, 1.450549450549451e+00, 1.450549450549451e+00, 1.450549450549451e+00, 1.450549450549451e+00, 1.450549450549451e+00, 1.450549450549451e+00, 1.450549450549451e+00, 1.450549450549451e+00, 1.450549450549451e+00, 1.450549450549451e+00, 1.450549450549451e+00, 1.450549450549451e+00, 1.450549450549451e+00, 1.450549450549451e+00, 1.450549450549451e+00, 1.450549450549451e+00, 1.450549450549451e+00, 1.450549450549451e+00, 1.450549450549451e+00, 1.450549450549451e+00, 1.450549450549451e+00, 1.450549450549451e+00, 1.450549450549451e+00, 1.450549450549451e+00, 1.450549450549451e+00, 1.450549450549451e+00, 1.450549450549451e+00, 1.450549450549451e+00, 1.450549450549451e+00, 1.450549450549451e+00, 9.002830606794989e-01, 1.450549450549451e+00, 1.450549450549451e+00, 5.816691736101053e-01, 5.312597503655720e-01, 1.450549450549451e+00, -6.166043274906995e-01, 1.785155184367568e+00, 1.450549450549451e+00, 1.418174103242742e-01, 1.450549450549451e+00, 1.450549450549451e+00, 1.450549450549451e+00, 1.450549450549451e+00, 1.450549450549451e+00, 1.450549450549451e+00, 1.450549450549451e+00, 1.450549450549451e+00, 1.450549450549451e+00, 1.054462880869568e+00, 1.450549450549451e+00, 1.450549450549451e+00, 1.372133760954314e+00, 1.450549450549451e+00, 1.450549450549451e+00, 1.450549450549451e+00, 1.450549450549451e+00, 1.450549450549451e+00, 1.450549450549451e+00, 1.450549450549451e+00, 1.450549450549451e+00, 5.891897481591829e-01, 5.580641335997224e-01, 7.891529265321887e-01, -8.454513163136923e-01, 1.450549450549451e+00, 1.450549450549451e+00, 1.450549450549451e+00, 1.450549450549451e+00, 1.450549450549451e+00, 1.450549450549451e+00, 1.450549450549451e+00, 1.450549450549451e+00, 1.450549450549451e+00, 1.450549450549451e+00, 1.450549450549451e+00, 1.450549450549451e+00, 1.450549450549451e+00, 1.450549450549451e+00, 1.450549450549451e+00, 1.450549450549451e+00, 1.450549450549451e+00, 1.450549450549451e+00, 1.450549450549451e+00, 1.115040517696436e+00, 1.450549450549451e+00, 2.451892600814421e+00, 7.527254747120105e-01, 9.785958041139239e-01, 1.450549450549451e+00, 5.422056268715520e-01, 1.255086994564792e+00, 1.450549450549451e+00, 2.039524304685326e+00, 1.796335039536201e+00, 1.450549450549451e+00, 1.450549450549451e+00, 1.450549450549451e+00, 1.450549450549451e+00, 1.450549450549451e+00, 1.450549450549451e+00, 1.450549450549451e+00, 1.450549450549451e+00, 2.395261370009044e+00, 1.450549450549451e+00, 1.062631654612429e+00, 1.517335237950211e+00, 1.450549450549451e+00, 1.450549450549451e+00, 1.450549450549451e+00, 1.450549450549451e+00, 1.450549450549451e+00, 1.450549450549451e+00, 1.450549450549451e+00, 1.450549450549451e+00, -6.271379183029351e-01, 1.450549450549451e+00, 1.450549450549451e+00, 1.450549450549451e+00, 1.450549450549451e+00, 1.450549450549451e+00, 1.450549450549451e+00, 1.450549450549451e+00, 1.450549450549451e+00, 1.450549450549451e+00, 1.450549450549451e+00, 1.450549450549451e+00, 1.450549450549451e+00, 1.450549450549451e+00, 1.450549450549451e+00, 1.450549450549451e+00, 1.450549450549451e+00, 1.450549450549451e+00, 1.450549450549451e+00, 1.027337946574383e+00, 1.450549450549451e+00, 2.975211195265741e-01, 1.450549450549451e+00, 2.355108556495350e+00, 1.450549450549451e+00, 1.450549450549451e+00, 1.450549450549451e+00, 1.450549450549451e+00, 9.519786620743492e-01, -1.046602089229759e+00, 1.450549450549451e+00, 1.450549450549451e+00, 1.450549450549451e+00, 1.450549450549451e+00, 1.450549450549451e+00, -3.238075119504803e-03, 1.450549450549451e+00, 1.450549450549451e+00, 1.351250312332753e+00, 1.450549450549451e+00, 1.450549450549451e+00, 1.450549450549451e+00, 1.450549450549451e+00, 1.450549450549451e+00, 1.450549450549451e+00, 1.450549450549451e+00, 1.450549450549451e+00, 1.498517391793669e+00, 1.450549450549451e+00, 1.450549450549451e+00, 1.450549450549451e+00, 1.450549450549451e+00, 1.450549450549451e+00, 1.450549450549451e+00, 1.450549450549451e+00, 1.450549450549451e+00, 1.450549450549451e+00, 1.450549450549451e+00, 1.450549450549451e+00, 1.450549450549451e+00, 1.450549450549451e+00, 1.450549450549451e+00, 1.450549450549451e+00, 1.450549450549451e+00, 1.450549450549451e+00, 1.450549450549451e+00, 1.450549450549451e+00, 1.450549450549451e+00, 1.762982873269247e+00, 1.450549450549451e+00, 1.450549450549451e+00, 1.345717619128733e+00, 1.450549450549451e+00, 1.450549450549451e+00, 1.450549450549451e+00, 1.450549450549451e+00, 1.450549450549451e+00, 1.660647965429655e+00, 1.450549450549451e+00, 1.450549450549451e+00, 4.840568661061646e-01, 1.155349666457354e+00, -1.072895789666805e+00, 3.978600592521885e+00, 1.450549450549451e+00, 1.450549450549451e+00, 1.432452286960769e+00, 3.164056710905163e-01, 9.528658501907221e-01, 1.450549450549451e+00, 1.450549450549451e+00, 1.450549450549451e+00, 8.907662400290299e-01, 1.450549450549451e+00, -5.796480187441880e-01, 1.450549450549451e+00, 1.450549450549451e+00, 1.450549450549451e+00, 1.023706284514017e+00, 5.614683380473346e-01, 1.002229518270870e+00, 1.450549450549451e+00, 1.450549450549451e+00, 1.450549450549451e+00, 6.052925587655255e-01, 1.450549450549451e+00, 1.076915038286579e+00, 1.450549450549451e+00, 1.450549450549451e+00, 1.450549450549451e+00, 1.450549450549451e+00, 1.450549450549451e+00, 1.450549450549451e+00, 1.450549450549451e+00, 1.450549450549451e+00, 1.450549450549451e+00, 1.450549450549451e+00, 1.450549450549451e+00, 1.450549450549451e+00, 1.450549450549451e+00, 1.450549450549451e+00, 9.499687126390338e-01, 1.450549450549451e+00, 1.450549450549451e+00, 1.450549450549451e+00, 4.471515635660770e-01, 1.450549450549451e+00, 1.450549450549451e+00, 1.450549450549451e+00, 1.450549450549451e+00, 1.450549450549451e+00, -4.575432262252100e-01, 1.450549450549451e+00, 1.450549450549451e+00, 3.014011824221641e-01, 1.008687798603060e+00, 1.450549450549451e+00, 1.450549450549451e+00, 2.604388639597428e+00, 2.998183689421317e-01, -1.564242271619329e-01, 6.080583666543327e-01, 1.450549450549451e+00, 1.450549450549451e+00, 1.450549450549451e+00, 1.450549450549451e+00, 1.668582399250539e-01, -6.039666057587397e-01, 1.450549450549451e+00, 1.450549450549451e+00, 1.450549450549451e+00, 1.450549450549451e+00, 1.450549450549451e+00, 6.492888079349661e-01, 1.450549450549451e+00, 1.450549450549451e+00, 1.450549450549451e+00, 1.450549450549451e+00, 1.450549450549451e+00, 9.791833604925979e-01, -7.235745118688118e-01, 1.450549450549451e+00, 1.450549450549451e+00, 1.450549450549451e+00, 1.450549450549451e+00, -5.065562868569234e-01, 1.450549450549451e+00, 1.450549450549451e+00, 1.450549450549451e+00, 1.450549450549451e+00, 1.450549450549451e+00, 1.450549450549451e+00, 1.450549450549451e+00, 1.450549450549451e+00, 1.450549450549451e+00, 1.450549450549451e+00, 1.450549450549451e+00, 1.450549450549451e+00, 1.450549450549451e+00, 1.450549450549451e+00, 1.450549450549451e+00, 1.450549450549451e+00, 1.450549450549451e+00, 1.450549450549451e+00, 1.450549450549451e+00, 1.450549450549451e+00, 1.450549450549451e+00, 1.450549450549451e+00, 1.450549450549451e+00, 1.450549450549451e+00, 1.450549450549451e+00, 1.450549450549451e+00, 1.332754121762414e+00, 4.792544616236845e-01, 1.450549450549451e+00, 1.450549450549451e+00, 1.450549450549451e+00, 1.450549450549451e+00, 1.450549450549451e+00, 1.450549450549451e+00, 1.450549450549451e+00, 1.450549450549451e+00, 1.450549450549451e+00, 1.450549450549451e+00, 1.450549450549451e+00, 1.450549450549451e+00, 1.450549450549451e+00, 1.624532282920158e+00, 1.450549450549451e+00, 1.450549450549451e+00, 1.450549450549451e+00, 1.450549450549451e+00, 1.450549450549451e+00, 1.450549450549451e+00, 1.450549450549451e+00, 1.450549450549451e+00, 1.135017496448049e+00, 1.450549450549451e+00, 1.450549450549451e+00, 1.257353173108297e+00, 1.450549450549451e+00, 1.450549450549451e+00, 1.450549450549451e+00, 1.450549450549451e+00, 1.450549450549451e+00, 1.450549450549451e+00, 1.450549450549451e+00, 1.450549450549451e+00, 1.450549450549451e+00, 1.450549450549451e+00, 1.450549450549451e+00, 1.450549450549451e+00, 1.450549450549451e+00, 1.450549450549451e+00, 1.450549450549451e+00, 1.450549450549451e+00, 1.450549450549451e+00, 1.450549450549451e+00, 1.450549450549451e+00, 6.965437592860225e-01, 1.450549450549451e+00, 1.450549450549451e+00, 9.543128307606266e-01, 4.659717063163271e-01, 1.450549450549451e+00, 3.260577131363647e-01, 5.194319985050820e-01, 1.450549450549451e+00, -2.090629785658439e-01, 1.450549450549451e+00, 1.450549450549451e+00, 1.450549450549451e+00, 1.450549450549451e+00, 1.450549450549451e+00, -6.004269835350445e-01, 1.450549450549451e+00, 1.450549450549451e+00, 1.450549450549451e+00, -7.911442793759642e-01, 1.450549450549451e+00, 4.467762011715019e-01, 1.450549450549451e+00, 1.450549450549451e+00, 1.450549450549451e+00, 1.450549450549451e+00, 1.450549450549451e+00, 1.450549450549451e+00, 1.632992675844351e+00, 5.132338263287485e-01, 1.450549450549451e+00, 1.614091571720473e+00, 1.450549450549451e+00, 1.469796027952694e+00, 1.450549450549451e+00, 1.450549450549451e+00, 1.450549450549451e+00, 1.450549450549451e+00, 1.450549450549451e+00, 1.450549450549451e+00, 1.450549450549451e+00, 1.450549450549451e+00, 1.450549450549451e+00, 1.450549450549451e+00, 1.450549450549451e+00, 1.450549450549451e+00, 1.450549450549451e+00, 1.450549450549451e+00, 1.450549450549451e+00, 1.450549450549451e+00, 1.450549450549451e+00, 1.450549450549451e+00, 1.450549450549451e+00, 1.450549450549451e+00, 1.986125024491660e-01, 1.450549450549451e+00, 1.450549450549451e+00, 1.450549450549451e+00, 6.238066096265152e-01, 1.450549450549451e+00, -1.169750572686470e+00, -3.323933305742938e-01, 1.450549450549451e+00, 1.450549450549451e+00, -5.373047131725280e-01, 1.450549450549451e+00, 1.450549450549451e+00, 1.450549450549451e+00, 9.765701267683338e-01, 6.463632054419168e-01, 1.450549450549451e+00, 1.450549450549451e+00, 9.869786133859966e-02, 1.450549450549451e+00, 1.450549450549451e+00, 1.450549450549451e+00, 1.450549450549451e+00, 1.450549450549451e+00, 1.450549450549451e+00, 1.450549450549451e+00, 1.450549450549451e+00, 5.058687224930026e-01, 1.450549450549451e+00, 1.450549450549451e+00, 1.450549450549451e+00, -4.087603974585395e-01, 4.402566825135555e-01, 1.164501272247281e-01, 1.450549450549451e+00, 1.450549450549451e+00, 1.450549450549451e+00, 1.450549450549451e+00, 1.450549450549451e+00, 1.450549450549451e+00, 1.450549450549451e+00, 1.450549450549451e+00, 1.450549450549451e+00, 1.450549450549451e+00, 1.450549450549451e+00, 1.450549450549451e+00, 1.450549450549451e+00, 1.450549450549451e+00, 8.418678409450199e-01, 5.470447564550529e-01, -2.317181931093093e-01, 1.450549450549451e+00, -1.693913702635300e-01, 1.450549450549451e+00, 1.450549450549451e+00, 1.450549450549451e+00, 1.450549450549451e+00, 1.450549450549451e+00, 1.450549450549451e+00, 1.450549450549451e+00, 7.219210436912005e-01, 1.450549450549451e+00, 1.450549450549451e+00, 1.450549450549451e+00, 1.450549450549451e+00, -1.178431597240492e-01, 1.450549450549451e+00, 8.139706235285599e-01, 9.256589939751692e-01, 5.992114146839298e-01, 1.450549450549451e+00, 1.450549450549451e+00, 7.195288507842029e-01, 5.749626627091449e-01, 2.830914168287079e+00, 1.450549450549451e+00, 1.450549450549451e+00, 1.450549450549451e+00, 1.450549450549451e+00, 1.450549450549451e+00, 8.093620368216221e-01, -1.189790904499448e-01, 1.450549450549451e+00, 1.450549450549451e+00, 1.450549450549451e+00, 1.208151240977667e+00, 1.656454614722626e+00, 6.255379494138916e-01, 1.450549450549451e+00, 1.450549450549451e+00, 1.450549450549451e+00, 1.450549450549451e+00, 1.450549450549451e+00, 1.450549450549451e+00, 1.450549450549451e+00, 1.450549450549451e+00, 1.450549450549451e+00, 1.450549450549451e+00, 1.450549450549451e+00, 1.450549450549451e+00, 1.450549450549451e+00, 1.993211078661113e-01, 7.863458831502784e-01, 1.450549450549451e+00, 1.450549450549451e+00, 1.664175792573650e+00, 7.264966577647978e-01, 1.450549450549451e+00, 1.450549450549451e+00, 1.450549450549451e+00, 1.450549450549451e+00, 1.450549450549451e+00, 1.450549450549451e+00, 1.258232149507970e+00, 1.450549450549451e+00, 1.450549450549451e+00, 1.450549450549451e+00, 1.450549450549451e+00, 1.450549450549451e+00, 1.450549450549451e+00, 1.081359452273164e-01, 8.702064397654082e-01, 8.142855910894893e-01, 9.355929815848536e-01, 1.450549450549451e+00, 1.046133161165426e+00, 1.450549450549451e+00, 1.450549450549451e+00, 1.450549450549451e+00, 1.450549450549451e+00, 1.450549450549451e+00, 1.450549450549451e+00, 1.450549450549451e+00, 8.651098210585121e-01, 1.450549450549451e+00, 1.450549450549451e+00, 1.450549450549451e+00, 1.450549450549451e+00, 8.766532462608773e-01, 7.005655220518462e-01, 7.274325605662036e-01, 1.450549450549451e+00, 1.450549450549451e+00, 1.450549450549451e+00, 1.450549450549451e+00, 1.450549450549451e+00, 1.450549450549451e+00, 1.450549450549451e+00, 1.450549450549451e+00, 1.450549450549451e+00, 1.450549450549451e+00, 1.450549450549451e+00, 1.450549450549451e+00, 1.450549450549451e+00, 1.450549450549451e+00, 1.450549450549451e+00, 5.183683036731086e-01, 1.450549450549451e+00, 1.450549450549451e+00, 1.450549450549451e+00, 1.450549450549451e+00, 1.450549450549451e+00, 1.450549450549451e+00, 1.450549450549451e+00, 1.450549450549451e+00, 1.450549450549451e+00, 1.450549450549451e+00, 1.450549450549451e+00, 1.450549450549451e+00, 1.450549450549451e+00, 1.450549450549451e+00, 1.450549450549451e+00, 1.450549450549451e+00, 1.166671058494681e+00, 1.572593903187342e+00, 3.565329342447864e+00, 4.230724463232224e+00, 1.450549450549451e+00, 1.450549450549451e+00, 1.450549450549451e+00, 1.450549450549451e+00, 1.450549450549451e+00, 9.377865855344141e-01, 1.450549450549451e+00, 1.450549450549451e+00, 1.333980763859821e+00, 1.557118529561541e+00, 1.450549450549451e+00, 1.450549450549451e+00, 1.450549450549451e+00, 1.450549450549451e+00, 1.450549450549451e+00, 1.450549450549451e+00, 1.450549450549451e+00, 5.206415084959009e-01, 7.381526164483422e-01, 1.450549450549451e+00, 1.450549450549451e+00, 1.450549450549451e+00, 1.450549450549451e+00, 1.450549450549451e+00, 1.450549450549451e+00, 1.450549450549451e+00, 1.450549450549451e+00, 1.450549450549451e+00, 1.450549450549451e+00, 1.450549450549451e+00, 1.636434192030760e+00, 1.450549450549451e+00, 1.450549450549451e+00, 1.450549450549451e+00, 1.450549450549451e+00, 1.450549450549451e+00, 1.450549450549451e+00, 1.450549450549451e+00, 1.450549450549451e+00, 1.450549450549451e+00, 1.450549450549451e+00, 1.450549450549451e+00, 1.450549450549451e+00, 1.450549450549451e+00, 1.450549450549451e+00, 1.450549450549451e+00, 1.450549450549451e+00, 1.450549450549451e+00, 1.450549450549451e+00, 1.107713861560276e+00, 1.774552716503096e+00, 1.525915581069700e+00, 3.360881823858902e+00, 3.960607813824929e+00, 1.450549450549451e+00, 1.450549450549451e+00, 1.450549450549451e+00, 1.450549450549451e+00, 8.652592395375932e-01, 1.450549450549451e+00, 1.450549450549451e+00, 1.450549450549451e+00, 1.543561617355324e+00, 1.700691201416195e+00, 1.450549450549451e+00, 1.450549450549451e+00, 1.450549450549451e+00, 1.450549450549451e+00, 1.450549450549451e+00, 1.450549450549451e+00, 5.112492430439043e-01, 7.984539258863645e-01, 3.509981647708426e-01, 1.450549450549451e+00, -4.549528472477770e-01, 1.450549450549451e+00, 1.450549450549451e+00, 1.450549450549451e+00, 1.450549450549451e+00, 1.450549450549451e+00, 1.450549450549451e+00, 1.450549450549451e+00, 1.450549450549451e+00, 1.582773426681732e+00, 1.450549450549451e+00, 1.525742325946918e+00, 1.450549450549451e+00, 1.450549450549451e+00, 1.450549450549451e+00, 3.648401828052277e-01, 1.450549450549451e+00, 3.414659018766464e-01, 1.450549450549451e+00, 1.450549450549451e+00, 1.450549450549451e+00, 1.450549450549451e+00, 1.450549450549451e+00, 1.450549450549451e+00, 5.508478513695692e-01, 4.756422816600230e-01, 6.775654193340375e-01, 1.450549450549451e+00, 3.120584562196948e-01, 1.170109411576470e+00, 1.635088088074275e+00, 1.414638009323379e+00, 1.450549450549451e+00, 1.450549450549451e+00, 3.136633882570211e+00, 1.450549450549451e+00, 5.718261606932606e-01, 5.098011354175548e-01, 1.450549450549451e+00, 1.450549450549451e+00, 1.450549450549451e+00, 1.106107390866118e+00, 1.728479391201212e+00, 1.450549450549451e+00, 1.450549450549451e+00, 1.450549450549451e+00, 1.450549450549451e+00, 1.450549450549451e+00, 1.450549450549451e+00, 4.607795653832912e-01, 3.834297495580412e-01, 8.290034393521795e-01, 5.856754777164127e-01, 1.450549450549451e+00, 6.526527925187419e-01, 1.450549450549451e+00, 8.315092654627656e-01, 8.432715435215592e-01, 8.113856865525598e-01, 8.582137076127039e-01, 1.059800850733028e+00, 9.030029637556609e-01, 5.865183553083000e-01, 1.578213156908963e+00, 1.500619989052114e+00, 1.450549450549451e+00, 1.450549450549451e+00, 1.450549450549451e+00, 1.450549450549451e+00, 1.450549450549451e+00, 4.796781728215960e-01, 8.694024831161772e-01, 1.209584302051918e+00, 5.437496788045144e-01, 1.450549450549451e+00, 5.458618610054417e-01, 1.450549450549451e+00, 1.450549450549451e+00, 1.450549450549451e+00, 1.450549450549451e+00, 2.506186396848654e+00, 1.450549450549451e+00, 1.450549450549451e+00, 1.450549450549451e+00, 1.450549450549451e+00, 1.450549450549451e+00, 1.450549450549451e+00, 1.450549450549451e+00, 1.450549450549451e+00, -4.298641857844203e-01, 1.450549450549451e+00, 1.450549450549451e+00, 2.639368907892712e+00, 1.450549450549451e+00, 1.450549450549451e+00, 1.450549450549451e+00, 1.450549450549451e+00, 1.450549450549451e+00, 1.450549450549451e+00, 1.450549450549451e+00, 1.450549450549451e+00, 1.450549450549451e+00, 1.450549450549451e+00, 1.450549450549451e+00, 1.450549450549451e+00, 1.450549450549451e+00, 1.450549450549451e+00, 1.450549450549451e+00, 1.450549450549451e+00, 1.450549450549451e+00, 1.450549450549451e+00, 1.450549450549451e+00, 1.450549450549451e+00, 1.450549450549451e+00, 1.450549450549451e+00, 1.450549450549451e+00, 1.450549450549451e+00, 1.450549450549451e+00, 1.450549450549451e+00, 1.450549450549451e+00, 1.450549450549451e+00, 1.450549450549451e+00, 1.450549450549451e+00, 1.450549450549451e+00, 1.450549450549451e+00, 1.450549450549451e+00, 1.450549450549451e+00, 1.068252664145784e+00, 1.450549450549451e+00, 1.450549450549451e+00, 1.450549450549451e+00, 1.450549450549451e+00, 1.450549450549451e+00, 2.148227477667018e+00, 1.450549450549451e+00, 1.450549450549451e+00, 1.450549450549451e+00, 1.450549450549451e+00, 1.450549450549451e+00, 1.226479622102025e+00, 1.450549450549451e+00, 1.450549450549451e+00, 1.097231654815642e+00, 1.450549450549451e+00, 8.956679019024157e-01, 1.450549450549451e+00, 1.450549450549451e+00, 1.450549450549451e+00, 1.450549450549451e+00, 1.450549450549451e+00, 1.450549450549451e+00, 1.142933813025562e+00, 1.450549450549451e+00, 1.450549450549451e+00, 1.450549450549451e+00, 1.450549450549451e+00, 1.450549450549451e+00, 1.450549450549451e+00, 1.450549450549451e+00, 1.450549450549451e+00, 1.450549450549451e+00, 1.450549450549451e+00, 1.450549450549451e+00, 1.450549450549451e+00, 1.450549450549451e+00, 1.450549450549451e+00, 1.450549450549451e+00, 1.450549450549451e+00, 1.450549450549451e+00, 1.450549450549451e+00, 1.450549450549451e+00, 1.450549450549451e+00, 1.493479176376201e+00, 1.450549450549451e+00, 1.450549450549451e+00, 7.356164293738723e-01, 1.450549450549451e+00, 1.450549450549451e+00, 1.450549450549451e+00, 1.450549450549451e+00, 1.450549450549451e+00, 1.450549450549451e+00, 1.450549450549451e+00, 1.450549450549451e+00, 1.450549450549451e+00, 1.450549450549451e+00, 1.450549450549451e+00, 1.450549450549451e+00, 1.450549450549451e+00, 1.450549450549451e+00, 1.450549450549451e+00, 1.245039386734849e+00, 8.313304021382091e-01, 1.450549450549451e+00, 1.450549450549451e+00, 1.450549450549451e+00, 1.298217199655563e+00, 1.450549450549451e+00, 1.450549450549451e+00, 1.260842172999215e+00, 1.450549450549451e+00, 1.450549450549451e+00, 1.450549450549451e+00, 1.450549450549451e+00, 2.487743539396495e-01, 1.138914272911075e+00, 1.450549450549451e+00, 6.829699691168187e-01, 1.450549450549451e+00, 1.450549450549451e+00, 1.450549450549451e+00, 1.450549450549451e+00, 1.450549450549451e+00, 1.450549450549451e+00, 1.450549450549451e+00, 1.450549450549451e+00, 1.450549450549451e+00, 1.450549450549451e+00, 1.450549450549451e+00, 1.450549450549451e+00, 1.450549450549451e+00, 1.450549450549451e+00, 1.450549450549451e+00, 1.450549450549451e+00, 1.450549450549451e+00, 1.696629601019353e+00, 1.332171516426573e+00, 1.450549450549451e+00, 1.450549450549451e+00, 6.923627415066053e-01, 1.209954254168454e+00, 1.450549450549451e+00, 1.450549450549451e+00, 1.450549450549451e+00, 1.450549450549451e+00, 9.142571541089090e-01, 1.450549450549451e+00, 1.450549450549451e+00, 1.630154124811397e-01, -1.017753955202985e+00, 1.450549450549451e+00, 1.450549450549451e+00, 1.450549450549451e+00, 1.450549450549451e+00, 8.009566625533482e-01, 1.450549450549451e+00, 5.958401880322440e-01, 1.450549450549451e+00, 1.450549450549451e+00, 4.474951143938890e-01, 1.450549450549451e+00, -8.142989879091330e-01, 1.450549450549451e+00, 1.450549450549451e+00, 2.381253209610529e+00, 1.450549450549451e+00, 1.450549450549451e+00, 1.450549450549451e+00, 1.256405341972010e+00, 1.450549450549451e+00, 1.450549450549451e+00, 4.961795179214419e-01, 1.450549450549451e+00, 1.450549450549451e+00, 1.450549450549451e+00, 1.450549450549451e+00, 1.450549450549451e+00, 1.450549450549451e+00, 1.450549450549451e+00, 1.450549450549451e+00, 1.450549450549451e+00, 1.450549450549451e+00, 1.450549450549451e+00, 1.450549450549451e+00, 1.450549450549451e+00, 1.450549450549451e+00, 1.450549450549451e+00, 1.450549450549451e+00, 1.450549450549451e+00, 1.027790501243065e+00, 1.450549450549451e+00, 1.450549450549451e+00, 1.450549450549451e+00, 1.450549450549451e+00, 1.450549450549451e+00, 1.450549450549451e+00, 1.450549450549451e+00, 1.450549450549451e+00, 1.450549450549451e+00, 1.450549450549451e+00, 1.450549450549451e+00, 1.450549450549451e+00, 1.450549450549451e+00, 1.450549450549451e+00, 1.450549450549451e+00, 1.450549450549451e+00, 1.450549450549451e+00, 1.450549450549451e+00, 1.450549450549451e+00, 1.450549450549451e+00, 8.370369657440160e-01, 1.450549450549451e+00, 1.318264477978770e+00, 1.450549450549451e+00, 1.450549450549451e+00, 1.450549450549451e+00, 1.450549450549451e+00, 1.450549450549451e+00, 1.450549450549451e+00, 9.450462326974732e-01, 1.450549450549451e+00, 1.450549450549451e+00, 1.450549450549451e+00, 1.450549450549451e+00, 1.450549450549451e+00, 1.450549450549451e+00, 1.450549450549451e+00, 1.450549450549451e+00, 1.450549450549451e+00, 1.450549450549451e+00, 1.450549450549451e+00, 1.450549450549451e+00, 1.450549450549451e+00, 1.450549450549451e+00, 1.450549450549451e+00, 1.450549450549451e+00, 1.450549450549451e+00, 1.450549450549451e+00, 1.450549450549451e+00, 1.450549450549451e+00, 1.450549450549451e+00, 1.450549450549451e+00, 1.450549450549451e+00, 1.450549450549451e+00, 1.450549450549451e+00, 1.450549450549451e+00, 1.450549450549451e+00, 1.450549450549451e+00, 1.450549450549451e+00, 1.450549450549451e+00, 1.450549450549451e+00, 1.450549450549451e+00, 1.450549450549451e+00, 1.450549450549451e+00, 1.450549450549451e+00, 1.450549450549451e+00, 1.450549450549451e+00, 7.566964348509408e-01, 1.450549450549451e+00, 1.077918266228572e+00, 1.450549450549451e+00, 1.450549450549451e+00, 5.120018961364970e-01, 1.450549450549451e+00, 1.450549450549451e+00, 1.450549450549451e+00, 1.450549450549451e+00, 1.450549450549451e+00, 1.450549450549451e+00, 1.450549450549451e+00, 1.450549450549451e+00, 1.450549450549451e+00, 1.450549450549451e+00, 1.450549450549451e+00, 4.999397652578300e-01, 1.450549450549451e+00, 1.450549450549451e+00, 1.450549450549451e+00, 1.450549450549451e+00, 1.450549450549451e+00, 1.450549450549451e+00, 1.450549450549451e+00, 2.978122414980241e-01, 1.450549450549451e+00, 7.355204623241551e-01, 1.450549450549451e+00, 1.450549450549451e+00, 4.724043963011746e-01, 1.450549450549451e+00, 1.450549450549451e+00, 1.450549450549451e+00, 1.450549450549451e+00, 1.450549450549451e+00, 1.450549450549451e+00, 1.450549450549451e+00, 1.450549450549451e+00, 1.450549450549451e+00, 1.450549450549451e+00, 1.450549450549451e+00, 1.450549450549451e+00, 1.450549450549451e+00, 1.450549450549451e+00, 1.450549450549451e+00, 1.450549450549451e+00, 1.450549450549451e+00, 1.450549450549451e+00, 1.450549450549451e+00, 1.450549450549451e+00, 1.450549450549451e+00, 1.450549450549451e+00, 3.832039561995197e-01, -1.810778046631334e-01, 1.450549450549451e+00, -1.176432379731408e+00, -1.010330657941185e+00, 3.620038643552285e-01, 1.450549450549451e+00, 1.450549450549451e+00, 1.450549450549451e+00, 1.450549450549451e+00, 1.450549450549451e+00, 1.450549450549451e+00, 7.211278663888291e-01, 1.450549450549451e+00, 1.450549450549451e+00, 1.450549450549451e+00, 1.450549450549451e+00, 1.450549450549451e+00, 1.450549450549451e+00, 1.695561120265743e+00, 1.450549450549451e+00, 1.450549450549451e+00, 1.450549450549451e+00, 1.450549450549451e+00, 1.450549450549451e+00, 1.450549450549451e+00, 1.450549450549451e+00, 1.450549450549451e+00, -8.221178636789639e-01, 7.427052841048302e-01, 1.450549450549451e+00, 1.450549450549451e+00, 1.450549450549451e+00, 1.450549450549451e+00, 1.450549450549451e+00, 1.450549450549451e+00, 1.450549450549451e+00, 1.450549450549451e+00, 1.450549450549451e+00, 1.450549450549451e+00, 1.450549450549451e+00, 1.450549450549451e+00, 1.450549450549451e+00, 1.450549450549451e+00, 1.450549450549451e+00, 1.450549450549451e+00, 1.450549450549451e+00, -7.119768777236710e-02, 1.450549450549451e+00, -7.378462723974849e-01, 1.450549450549451e+00, 1.450549450549451e+00, 3.205224158446733e-01, 1.450549450549451e+00, 1.450549450549451e+00, 1.450549450549451e+00, 1.450549450549451e+00, -3.338302468627955e-02, 1.450549450549451e+00, 1.450549450549451e+00, 1.450549450549451e+00, 1.450549450549451e+00, 1.450549450549451e+00, 1.450549450549451e+00, 9.392869753694947e-01, 1.076098732870605e+00, 9.581920867095919e-01, 1.450549450549451e+00, 1.450549450549451e+00, -4.486064854358862e-01, 4.693964806303581e-01, 1.450549450549451e+00, 1.450549450549451e+00, 1.450549450549451e+00, -2.103783728155466e-01, 1.450549450549451e+00, 1.450549450549451e+00, 8.143280802736182e-01, 1.256933821791672e+00, 6.286116579460924e-01, 1.450549450549451e+00, 4.037262565831103e-01, 9.830088176404710e-01, 4.790083890806876e-01, 3.975393502289974e-01, 1.450549450549451e+00, 1.450549450549451e+00, 1.450549450549451e+00, 1.450549450549451e+00, 1.450549450549451e+00, 1.450549450549451e+00, 1.450549450549451e+00, 1.450549450549451e+00, 1.450549450549451e+00, 1.450549450549451e+00, 1.450549450549451e+00, 1.450549450549451e+00, 1.450549450549451e+00, 1.450549450549451e+00, 6.007558853414982e-01, -1.066617311937579e-02, 1.450549450549451e+00, 1.585147590597274e+00, 4.581420212760463e-01, 1.450549450549451e+00, 1.450549450549451e+00, 1.450549450549451e+00, 1.450549450549451e+00, 1.450549450549451e+00, 1.450549450549451e+00, 1.044528500150076e+00, 1.450549450549451e+00, 1.450549450549451e+00, 1.450549450549451e+00, 1.450549450549451e+00, 1.450549450549451e+00, 1.450549450549451e+00, 1.450549450549451e+00, 1.030303484636951e+00, 1.004484482645508e+00, 1.450549450549451e+00, 1.450549450549451e+00, 7.820234961465871e-01, 4.635989711133950e-01, 1.450549450549451e+00, 1.450549450549451e+00, 1.450549450549451e+00, 1.450549450549451e+00, 1.450549450549451e+00, -8.494636305341310e-02, 1.058835873321146e+00, 9.738496640204876e-01, 1.450549450549451e+00, 1.450549450549451e+00, 1.450549450549451e+00, 1.361679598961629e+00, 6.099788534763101e-01, 3.567454308110741e-01, 1.450549450549451e+00, 1.450549450549451e+00, 1.450549450549451e+00, 1.450549450549451e+00, 1.450549450549451e+00, 1.450549450549451e+00, 1.450549450549451e+00, 1.450549450549451e+00, 1.450549450549451e+00, 1.450549450549451e+00, 1.450549450549451e+00, 1.450549450549451e+00, 1.450549450549451e+00, 1.450549450549451e+00, 1.450549450549451e+00, 7.254606609243506e-01, 1.450549450549451e+00, 1.401397353040791e+00, 1.450549450549451e+00, 1.450549450549451e+00, 1.450549450549451e+00, 1.450549450549451e+00, 1.450549450549451e+00, 1.450549450549451e+00, 1.450549450549451e+00, 1.450549450549451e+00, 1.450549450549451e+00, 1.450549450549451e+00, 1.450549450549451e+00, 1.450549450549451e+00, 1.450549450549451e+00, 1.450549450549451e+00, 1.450549450549451e+00, 1.256343717081163e+00, 1.450549450549451e+00, 1.450549450549451e+00, 1.450549450549451e+00, 1.450549450549451e+00, 1.450549450549451e+00, 1.450549450549451e+00, 1.450549450549451e+00, 1.450549450549451e+00, 1.450549450549451e+00, 1.450549450549451e+00, 1.450549450549451e+00, 1.287244260546914e+00, 2.568876137729083e+00, 1.450549450549451e+00, 1.450549450549451e+00, 1.450549450549451e+00, 1.450549450549451e+00, 1.450549450549451e+00, 1.450549450549451e+00, 3.871330199484712e-01, 1.450549450549451e+00, 1.450549450549451e+00, 1.450549450549451e+00, 1.450549450549451e+00, 1.450549450549451e+00, 1.450549450549451e+00, 1.450549450549451e+00, 1.450549450549451e+00, 1.450549450549451e+00, 1.450549450549451e+00, 1.450549450549451e+00, 1.450549450549451e+00, 1.376066102931434e+00, 1.450549450549451e+00, 1.450549450549451e+00, 1.450549450549451e+00, 1.450549450549451e+00, 1.450549450549451e+00, 1.450549450549451e+00, 1.450549450549451e+00, 1.450549450549451e+00, 1.450549450549451e+00, 1.450549450549451e+00, 1.450549450549451e+00, 1.450549450549451e+00, 1.450549450549451e+00, 1.450549450549451e+00, 1.450549450549451e+00, 1.450549450549451e+00, 1.450549450549451e+00, 1.450549450549451e+00, 1.450549450549451e+00, 1.322373875845439e+00, 1.450549450549451e+00, 1.450549450549451e+00, 1.450549450549451e+00, 1.450549450549451e+00, 1.450549450549451e+00, 1.450549450549451e+00, 6.252701865905049e-01, 7.703114061541771e-01, 1.450549450549451e+00, 1.450549450549451e+00, 1.450549450549451e+00, 1.301588414428249e+00, 1.318105051934986e+00, 1.450549450549451e+00, 1.645520761990789e+00, 1.450549450549451e+00, 1.450549450549451e+00, 1.450549450549451e+00, 1.450549450549451e+00, 3.135596647432131e-01, 5.527655041551499e-01, 1.450549450549451e+00, 1.450549450549451e+00, 1.450549450549451e+00, 1.450549450549451e+00, 1.450549450549451e+00, 1.450549450549451e+00, 1.450549450549451e+00, 1.450549450549451e+00, 1.450549450549451e+00, 1.450549450549451e+00, 1.450549450549451e+00, 1.325099045037500e+00, 1.385417524883810e+00, 1.450549450549451e+00, 1.450549450549451e+00, 1.450549450549451e+00, 1.450549450549451e+00, 1.450549450549451e+00, 1.450549450549451e+00, 4.281175189935877e-01, -4.429716558508017e-01, 1.450549450549451e+00, 1.450549450549451e+00, 1.450549450549451e+00, 1.450549450549451e+00, 1.450549450549451e+00, 1.450549450549451e+00, 4.542271803336312e-01, 1.450549450549451e+00, 1.450549450549451e+00, 1.450549450549451e+00, 5.659431395249824e-01, 1.388197173456512e+00, 1.450549450549451e+00, 1.450549450549451e+00, 1.450549450549451e+00, 1.450549450549451e+00, 1.450549450549451e+00, 1.450549450549451e+00, 1.450549450549451e+00, 1.450549450549451e+00, 1.450549450549451e+00, 1.450549450549451e+00, 1.450549450549451e+00, 1.368621825791952e+00, 1.450549450549451e+00, 1.450549450549451e+00, 1.450549450549451e+00, 2.135032284478608e+00, 1.450549450549451e+00, 1.450549450549451e+00, 1.450549450549451e+00, 2.314994690374054e-01, 6.566679275211867e-01, 1.450549450549451e+00, 1.450549450549451e+00, 1.450549450549451e+00, 5.991103235638571e-01, 1.450549450549451e+00, 1.450549450549451e+00, 1.450549450549451e+00, 3.201318908451427e-01, 3.480248896154087e-01, 3.585577123252091e-01, 1.450549450549451e+00, 1.203043390567128e+00, 1.450549450549451e+00, 1.450549450549451e+00, 1.450549450549451e+00, 1.450549450549451e+00, 1.450549450549451e+00, 1.450549450549451e+00, 1.450549450549451e+00, 8.231219063242531e-01, 1.450549450549451e+00, -9.832369658056084e-01, 2.920752100586024e-01, 1.450549450549451e+00, 1.450549450549451e+00, 1.450549450549451e+00, 1.450549450549451e+00, 1.450549450549451e+00, 1.132492367969658e+00, 1.450549450549451e+00, -1.038165051814459e+00, 1.450549450549451e+00, 1.450549450549451e+00, 1.450549450549451e+00, 1.450549450549451e+00, 1.450549450549451e+00, 1.450549450549451e+00, 1.450549450549451e+00, 1.450549450549451e+00, 1.450549450549451e+00, 1.450549450549451e+00, 1.450549450549451e+00, 1.450549450549451e+00, 1.450549450549451e+00, 3.262637284472171e+00, 1.450549450549451e+00, 1.450549450549451e+00, 1.450549450549451e+00, 1.450549450549451e+00, 1.552137475296606e+00, 1.450549450549451e+00, 1.450549450549451e+00, 1.450549450549451e+00, 1.450549450549451e+00, 1.754804856811979e+00, 1.450549450549451e+00, 1.450549450549451e+00, 1.450549450549451e+00, 1.450549450549451e+00, 1.450549450549451e+00, 1.450549450549451e+00, 1.450549450549451e+00, 1.450549450549451e+00, 1.450549450549451e+00, 1.450549450549451e+00, 1.450549450549451e+00, 1.450549450549451e+00, 1.450549450549451e+00, 1.450549450549451e+00, 1.450549450549451e+00, 1.450549450549451e+00, 1.450549450549451e+00, 1.450549450549451e+00, 1.450549450549451e+00, 1.450549450549451e+00, 2.661032155766721e+00, 1.450549450549451e+00, 1.450549450549451e+00, 1.450549450549451e+00, 1.450549450549451e+00, 1.450549450549451e+00, 9.240047829204332e-01, 9.272225161512794e-01, 1.450549450549451e+00, 7.252508949033647e-01, 1.450549450549451e+00, 1.450549450549451e+00, 1.450549450549451e+00, 1.450549450549451e+00, 1.450549450549451e+00, 1.450549450549451e+00, 1.450549450549451e+00, 1.450549450549451e+00, 1.450549450549451e+00, 1.450549450549451e+00, 1.450549450549451e+00, 4.377823162821474e-01, 1.450549450549451e+00, 1.450549450549451e+00, 1.450549450549451e+00, 1.450549450549451e+00, 1.450549450549451e+00, 1.450549450549451e+00, 1.450549450549451e+00, 4.639060016914983e-01, 1.450549450549451e+00, 1.450549450549451e+00, 1.450549450549451e+00, 1.450549450549451e+00, 1.450549450549451e+00, 1.450549450549451e+00, 1.450549450549451e+00, 1.450549450549451e+00, 1.450549450549451e+00, 1.450549450549451e+00, 1.450549450549451e+00, 1.450549450549451e+00, 1.450549450549451e+00, 1.450549450549451e+00, 1.450549450549451e+00, 1.450549450549451e+00, 1.450549450549451e+00, 1.450549450549451e+00, 1.450549450549451e+00, 1.450549450549451e+00, 1.450549450549451e+00, 1.450549450549451e+00, 1.450549450549451e+00, 1.450549450549451e+00, 1.450549450549451e+00, 1.450549450549451e+00, 1.450549450549451e+00, 1.450549450549451e+00, 1.450549450549451e+00, 1.450549450549451e+00, 1.450549450549451e+00, 1.450549450549451e+00, 1.450549450549451e+00, 1.450549450549451e+00, 1.450549450549451e+00, 1.450549450549451e+00, 9.300770611788004e-01, 1.450549450549451e+00, 1.450549450549451e+00, 1.304404095496909e+00, 1.450549450549451e+00, 1.450549450549451e+00, 1.450549450549451e+00, 1.450549450549451e+00, 1.450549450549451e+00, 1.450549450549451e+00, 1.450549450549451e+00, 1.570781951889125e+00, 6.493169327073097e-01, 1.450549450549451e+00, 1.450549450549451e+00, 1.450549450549451e+00, 1.450549450549451e+00, 1.450549450549451e+00, 3.628870217335791e-01, 1.450549450549451e+00, 1.450549450549451e+00, 1.450549450549451e+00, 1.450549450549451e+00, 1.450549450549451e+00, 1.450549450549451e+00, 1.450549450549451e+00, 1.450549450549451e+00, 1.450549450549451e+00, 1.450549450549451e+00, 1.450549450549451e+00, 1.450549450549451e+00, 1.450549450549451e+00, 1.450549450549451e+00, 1.299559877163731e+00, 1.450549450549451e+00, 1.450549450549451e+00, 8.132239605099973e-01, 8.699958134298464e-01, 1.450549450549451e+00, 1.450549450549451e+00, 1.450549450549451e+00, 1.450549450549451e+00, 1.450549450549451e+00, 1.450549450549451e+00, 1.450549450549451e+00, 5.512244087151451e-01, 1.207992129581436e+00, 1.450549450549451e+00, 1.450549450549451e+00, 1.450549450549451e+00, -8.038360613237748e-01, 1.721488509925919e+00, 1.247931624387739e+00, 8.432732896369112e-01, 6.457166966636386e-01, 1.450549450549451e+00, 1.046312890409350e+00, 1.043891267475989e+00, 1.450549450549451e+00, 1.450549450549451e+00, 1.450549450549451e+00, 1.450549450549451e+00, 1.450549450549451e+00, 1.423888512186614e+00, 1.270159386979172e+00, 8.464406196595167e-01, 8.857057480075601e-01, 1.450549450549451e+00, 8.453772254606540e-01, 5.307727185020733e-01, 1.450549450549451e+00, 1.450549450549451e+00, 1.450549450549451e+00, 3.535897595031755e+00, 1.450549450549451e+00, 1.450549450549451e+00, 1.529788059635891e+00, 1.450549450549451e+00, 1.450549450549451e+00, 1.450549450549451e+00, 1.450549450549451e+00, 1.450549450549451e+00, 1.450549450549451e+00, 1.450549450549451e+00, 1.450549450549451e+00, 1.450549450549451e+00, 1.134738582633706e+00, 1.450549450549451e+00, 1.450549450549451e+00, 1.450549450549451e+00, 9.687338662173246e-01, 9.731121163868217e-01, 1.450549450549451e+00, 1.450549450549451e+00, 1.450549450549451e+00, 8.733498929209928e-02, 1.450549450549451e+00, 1.450549450549451e+00, 1.450549450549451e+00, 5.574880987335344e-01, 1.450549450549451e+00, 1.450549450549451e+00, 1.450549450549451e+00, 1.450549450549451e+00, 1.450549450549451e+00, 1.450549450549451e+00, 9.172490672362228e-01, -2.060880308255792e-01, 4.977650476707071e-01, -4.044484447712861e-01, 1.298363077424948e+00, 1.570051362714778e-01, 1.450549450549451e+00, 1.450549450549451e+00, 1.450549450549451e+00, 1.450549450549451e+00, 1.450549450549451e+00, 1.450549450549451e+00, -5.116114754670399e-01, 1.361203669640614e+00, 2.467205476378817e-01, 3.888578541605374e-01, 3.228653964138464e-01, 2.176877598381317e-01, 1.450549450549451e+00, 1.450549450549451e+00, 1.450549450549451e+00, 1.450549450549451e+00, 1.514464293586683e+00, 1.450549450549451e+00, -6.462005513532016e-01, 1.075585876468217e+00, 1.450549450549451e+00, 1.450549450549451e+00, 8.513120114574433e-01, 4.049813764806288e-01, 1.005881589916048e+00, 1.078995428466436e+00, 9.382726622412677e-01, 5.188240208318513e-01, 1.369107090319676e+00, 1.384693991518831e-01, 1.450549450549451e+00, 1.450549450549451e+00, 1.933084594803214e-01, 1.450549450549451e+00, 1.450549450549451e+00, 1.450549450549451e+00, 1.450549450549451e+00, 1.109803318523558e-01, 7.494348971818369e-01, 1.450549450549451e+00, 1.450549450549451e+00, 1.239943806544813e+00, 1.450549450549451e+00, 1.450549450549451e+00, 1.450549450549451e+00, 1.450549450549451e+00, 1.450549450549451e+00, -4.645033389331955e-01, 1.365596926058502e+00, 1.242312461039438e+00, 1.450549450549451e+00, -1.154831511704055e+00, -1.614090995719606e-01, 3.772416562632814e-01, 1.450549450549451e+00, 1.450549450549451e+00, 1.450549450549451e+00, 1.450549450549451e+00, 1.450549450549451e+00, 1.450549450549451e+00, 1.450549450549451e+00, 1.336185180598288e-01, 1.450549450549451e+00, 1.450549450549451e+00, 1.450549450549451e+00, 1.450549450549451e+00, 1.018979205545513e+00, 1.450549450549451e+00, 1.450549450549451e+00, 1.450549450549451e+00, 1.450549450549451e+00, 3.779565981993596e-01, 1.450549450549451e+00, -9.076311754174060e-02, 1.450549450549451e+00, 1.450549450549451e+00, 1.450549450549451e+00, 1.450549450549451e+00, 1.450549450549451e+00, 1.450549450549451e+00, 1.450549450549451e+00, 1.450549450549451e+00, 1.450549450549451e+00, 1.450549450549451e+00, 1.450549450549451e+00, 1.490832803658008e+00, 1.450549450549451e+00, 1.450549450549451e+00, 1.450549450549451e+00, 1.450549450549451e+00, 1.450549450549451e+00, 1.450549450549451e+00, 1.450549450549451e+00, 1.450549450549451e+00, 1.450549450549451e+00, 5.487363974541231e-01, 1.450549450549451e+00, 1.450549450549451e+00, 1.450549450549451e+00, 3.636908044187797e-02, 1.490244681586929e+00, 1.450549450549451e+00, 1.450549450549451e+00, 1.450549450549451e+00, 1.450549450549451e+00, 1.450549450549451e+00, 1.450549450549451e+00, 1.450549450549451e+00, 1.450549450549451e+00, 1.450549450549451e+00, 1.450549450549451e+00, 1.450549450549451e+00, 1.450549450549451e+00, 4.575330138463152e-01, 1.450549450549451e+00, 1.450549450549451e+00, 1.450549450549451e+00, 1.450549450549451e+00, 1.450549450549451e+00, 1.450549450549451e+00, 1.450549450549451e+00, 1.450549450549451e+00, 1.450549450549451e+00, 1.804605525860082e+00, -1.248368700567845e+00, 1.450549450549451e+00, 6.795643787480701e-01, 1.450549450549451e+00, 1.450549450549451e+00, 1.450549450549451e+00, 1.450549450549451e+00, 1.450549450549451e+00, 1.450549450549451e+00, 1.450549450549451e+00, 1.450549450549451e+00, 1.450549450549451e+00, 1.450549450549451e+00, 1.450549450549451e+00, 1.450549450549451e+00, 1.450549450549451e+00, 1.450549450549451e+00, 1.450549450549451e+00, 1.450549450549451e+00, 1.450549450549451e+00, 1.450549450549451e+00, 1.450549450549451e+00, 1.450549450549451e+00, 1.450549450549451e+00, 1.450549450549451e+00, 1.450549450549451e+00, 1.450549450549451e+00, 1.450549450549451e+00, 1.450549450549451e+00, 1.450549450549451e+00, 1.450549450549451e+00, 1.450549450549451e+00, 1.450549450549451e+00, 1.450549450549451e+00, 1.450549450549451e+00, 1.450549450549451e+00, 1.822730509773314e+00, 5.740242083673771e-01, 1.450549450549451e+00, 1.450549450549451e+00, 1.450549450549451e+00, 1.450549450549451e+00, 1.450549450549451e+00, 1.450549450549451e+00, 1.450549450549451e+00, 1.450549450549451e+00, 1.450549450549451e+00, 1.450549450549451e+00, 1.450549450549451e+00, 1.450549450549451e+00, 1.450549450549451e+00, 1.450549450549451e+00, 1.450549450549451e+00, 1.450549450549451e+00, 1.570643182764461e+00, 5.126649871130941e-01, 1.450549450549451e+00, 9.783058406711919e-01, 1.450549450549451e+00, 1.450549450549451e+00, 1.450549450549451e+00, 1.450549450549451e+00, 1.450549450549451e+00, 1.450549450549451e+00, 1.450549450549451e+00, 1.450549450549451e+00, 1.450549450549451e+00, 1.450549450549451e+00, 1.450549450549451e+00, 1.450549450549451e+00, 1.450549450549451e+00, 1.450549450549451e+00, 1.450549450549451e+00, 1.450549450549451e+00, 1.450549450549451e+00, 1.450549450549451e+00, 1.450549450549451e+00, 1.450549450549451e+00, 1.450549450549451e+00, 1.450549450549451e+00, 1.450549450549451e+00, 1.450549450549451e+00, 1.450549450549451e+00, 1.450549450549451e+00, 1.450549450549451e+00, 1.450549450549451e+00, 1.450549450549451e+00, 1.450549450549451e+00, 1.450549450549451e+00, 1.450549450549451e+00, 1.450549450549451e+00, 1.450549450549451e+00, 1.450549450549451e+00, 1.450549450549451e+00, 1.450549450549451e+00, 1.450549450549451e+00, 1.450549450549451e+00, 1.450549450549451e+00, 1.450549450549451e+00, 1.450549450549451e+00, 1.450549450549451e+00, 1.450549450549451e+00, 1.450549450549451e+00, 2.881997824220958e-01, 1.450549450549451e+00, 1.450549450549451e+00, 1.450549450549451e+00, 1.450549450549451e+00, 1.450549450549451e+00, 1.450549450549451e+00, 1.450549450549451e+00, 1.450549450549451e+00, 9.856134220229082e-02, 1.450549450549451e+00, 1.450549450549451e+00, 1.450549450549451e+00, 1.450549450549451e+00, 1.450549450549451e+00, 1.450549450549451e+00, 1.450549450549451e+00, 1.450549450549451e+00, 1.450549450549451e+00, 1.450549450549451e+00, 1.450549450549451e+00, 1.450549450549451e+00, 1.450549450549451e+00, 1.450549450549451e+00, 1.450549450549451e+00, -4.727942666822596e-02, 1.450549450549451e+00, 1.450549450549451e+00, 1.450549450549451e+00, 1.450549450549451e+00, 1.450549450549451e+00, 1.450549450549451e+00, 1.450549450549451e+00, 1.450549450549451e+00, 1.450549450549451e+00, 1.450549450549451e+00, 1.450549450549451e+00, 1.450549450549451e+00, 1.450549450549451e+00, 1.450549450549451e+00, 1.450549450549451e+00, 1.450549450549451e+00, 7.441575287477780e-01, 1.450549450549451e+00, 1.450549450549451e+00, 1.450549450549451e+00, 1.450549450549451e+00, 1.450549450549451e+00, 1.450549450549451e+00, 1.450549450549451e+00, 1.450549450549451e+00, 1.450549450549451e+00, 1.450549450549451e+00, 1.450549450549451e+00, 1.450549450549451e+00, 1.450549450549451e+00, 1.450549450549451e+00, 1.450549450549451e+00, 1.450549450549451e+00, 1.450549450549451e+00, 1.450549450549451e+00, 1.450549450549451e+00, 1.450549450549451e+00, 1.450549450549451e+00, 1.256424394115766e+00, 1.450549450549451e+00, 1.450549450549451e+00, 1.450549450549451e+00, 1.450549450549451e+00, 1.450549450549451e+00, 1.450549450549451e+00, 1.450549450549451e+00, 1.450549450549451e+00, 1.450549450549451e+00, 1.450549450549451e+00, 1.450549450549451e+00, 1.450549450549451e+00, 1.450549450549451e+00, 1.450549450549451e+00, -1.972071380716777e-01, 1.450549450549451e+00, 1.450549450549451e+00, 1.450549450549451e+00, 1.450549450549451e+00, 1.450549450549451e+00, 1.450549450549451e+00, 1.450549450549451e+00, 1.450549450549451e+00, 1.450549450549451e+00, 1.450549450549451e+00, 1.450549450549451e+00, 1.450549450549451e+00, 1.450549450549451e+00, 1.450549450549451e+00, 1.450549450549451e+00, 1.450549450549451e+00, 8.795103879783643e-01, 1.450549450549451e+00, 1.450549450549451e+00, 1.450549450549451e+00, 1.450549450549451e+00, 1.450549450549451e+00, 1.450549450549451e+00, 1.450549450549451e+00, 1.450549450549451e+00, 1.450549450549451e+00, 1.450549450549451e+00, 1.450549450549451e+00, 1.450549450549451e+00, 1.450549450549451e+00, 1.450549450549451e+00, 1.450549450549451e+00, 1.450549450549451e+00, -2.276417606466009e-01, 1.450549450549451e+00, 1.450549450549451e+00, 1.450549450549451e+00, 1.450549450549451e+00, 1.450549450549451e+00, 1.154563668895168e+00, 1.450549450549451e+00, 1.450549450549451e+00, 1.450549450549451e+00, 1.450549450549451e+00, 1.450549450549451e+00, 1.450549450549451e+00, 1.450549450549451e+00, 1.450549450549451e+00, 1.450549450549451e+00, 1.450549450549451e+00, 1.450549450549451e+00, 1.450549450549451e+00, 1.450549450549451e+00, 1.450549450549451e+00, 1.450549450549451e+00, 1.450549450549451e+00, 1.450549450549451e+00, 1.450549450549451e+00, 1.450549450549451e+00, 1.450549450549451e+00, 1.450549450549451e+00, 1.450549450549451e+00, 1.450549450549451e+00, 1.450549450549451e+00, 1.450549450549451e+00, 1.450549450549451e+00, 1.450549450549451e+00, 1.450549450549451e+00, 1.450549450549451e+00, 1.450549450549451e+00, 6.017928005013641e-01, 1.450549450549451e+00, 1.450549450549451e+00, 1.450549450549451e+00, 1.450549450549451e+00, 1.450549450549451e+00, 1.450549450549451e+00, 1.450549450549451e+00, 1.450549450549451e+00, 1.450549450549451e+00, 1.450549450549451e+00, 1.450549450549451e+00, 1.450549450549451e+00, 1.450549450549451e+00, 1.450549450549451e+00, 1.450549450549451e+00, 1.450549450549451e+00, -4.458938121179143e-01, 1.450549450549451e+00, 1.450549450549451e+00, 1.450549450549451e+00, 1.450549450549451e+00, 1.450549450549451e+00, 1.450549450549451e+00, 1.165690784558745e+00, 1.450549450549451e+00, 1.450549450549451e+00, 1.450549450549451e+00, 1.450549450549451e+00, 1.450549450549451e+00, 1.450549450549451e+00, 1.450549450549451e+00, 1.450549450549451e+00, 1.632796386069506e-01, 1.450549450549451e+00, 1.450549450549451e+00, 1.450549450549451e+00, 5.302093356408578e-02, 1.450549450549451e+00, 1.450549450549451e+00, 1.450549450549451e+00, 1.450549450549451e+00, 1.450549450549451e+00, 1.450549450549451e+00, 1.450549450549451e+00, 1.450549450549451e+00, 1.450549450549451e+00, 1.450549450549451e+00, 1.450549450549451e+00, 1.450549450549451e+00, 1.450549450549451e+00, 1.450549450549451e+00, 1.450549450549451e+00, 1.450549450549451e+00, 5.807517864292885e-01, 1.450549450549451e+00, 1.450549450549451e+00, 1.450549450549451e+00, 1.450549450549451e+00, 1.450549450549451e+00, 1.450549450549451e+00, 1.450549450549451e+00, 1.450549450549451e+00, 1.450549450549451e+00, 1.450549450549451e+00, 1.450549450549451e+00, 7.806180906906475e-01, 1.450549450549451e+00, 1.450549450549451e+00, 1.450549450549451e+00, 1.450549450549451e+00, -1.850627830229089e-02, 1.450549450549451e+00, 1.450549450549451e+00, 1.450549450549451e+00, 1.450549450549451e+00, 1.450549450549451e+00, 1.450549450549451e+00, 1.450549450549451e+00, -4.328892836170498e-01, 1.450549450549451e+00, 1.450549450549451e+00, 1.450549450549451e+00, 1.450549450549451e+00, 1.450549450549451e+00, 1.450549450549451e+00, 1.450549450549451e+00, 1.450549450549451e+00, 1.450549450549451e+00, 1.450549450549451e+00, 1.450549450549451e+00, 2.147513274551265e-03, 1.450549450549451e+00, 1.450549450549451e+00, 1.450549450549451e+00, 1.450549450549451e+00, 1.450549450549451e+00, 1.450549450549451e+00, 1.450549450549451e+00, 1.450549450549451e+00, 1.450549450549451e+00, 1.450549450549451e+00, 1.450549450549451e+00, 1.450549450549451e+00, 1.450549450549451e+00, 1.450549450549451e+00, 1.450549450549451e+00, 1.450549450549451e+00, 1.314376587404249e+00, 1.450549450549451e+00, 1.450549450549451e+00, 1.450549450549451e+00, 1.450549450549451e+00, 1.450549450549451e+00, 1.450549450549451e+00, 1.450549450549451e+00, 1.450549450549451e+00, 1.450549450549451e+00, 1.450549450549451e+00, 1.450549450549451e+00, 9.790805697711898e-01, 1.450549450549451e+00, 1.450549450549451e+00, 1.450549450549451e+00, 1.450549450549451e+00, -7.828800587087134e-02, 1.450549450549451e+00, 1.450549450549451e+00, 1.450549450549451e+00, 1.450549450549451e+00, 1.450549450549451e+00, 1.450549450549451e+00, 1.450549450549451e+00, 1.450549450549451e+00, 4.930882312990583e-01, 1.450549450549451e+00, 1.450549450549451e+00, 1.450549450549451e+00, 1.450549450549451e+00, 1.450549450549451e+00, 1.450549450549451e+00, 1.450549450549451e+00, 1.450549450549451e+00, 1.450549450549451e+00, 1.450549450549451e+00, 1.450549450549451e+00, 1.450549450549451e+00, 1.450549450549451e+00, 1.450549450549451e+00, 1.450549450549451e+00, 1.450549450549451e+00, 1.450549450549451e+00, 1.450549450549451e+00, 1.450549450549451e+00, 1.450549450549451e+00, 1.450549450549451e+00, 1.450549450549451e+00, 1.450549450549451e+00, 1.450549450549451e+00, 1.450549450549451e+00, 1.450549450549451e+00, 1.450549450549451e+00, 4.910755742081624e-01, 1.450549450549451e+00, 1.450549450549451e+00, 1.450549450549451e+00, 1.450549450549451e+00, 1.450549450549451e+00, 1.450549450549451e+00, 1.450549450549451e+00, 1.450549450549451e+00, 1.450549450549451e+00, 1.450549450549451e+00, 1.450549450549451e+00, 8.075287615362817e-01, 1.450549450549451e+00, 1.450549450549451e+00, 1.450549450549451e+00, 1.450549450549451e+00, -1.234896418066528e-01, 1.450549450549451e+00, 1.450549450549451e+00, 1.450549450549451e+00, 1.450549450549451e+00, 1.450549450549451e+00, 1.450549450549451e+00, 1.450549450549451e+00, 1.450549450549451e+00, 1.450549450549451e+00, -1.297431380364586e-01, 1.450549450549451e+00, 1.450549450549451e+00, 1.450549450549451e+00, 1.450549450549451e+00, 1.450549450549451e+00, 1.450549450549451e+00, 1.450549450549451e+00, 1.450549450549451e+00, 1.450549450549451e+00, 4.890204921238072e-02, 1.450549450549451e+00, 1.450549450549451e+00, 1.450549450549451e+00, 1.450549450549451e+00, 1.450549450549451e+00, 1.450549450549451e+00, 1.450549450549451e+00, 1.450549450549451e+00, 1.450549450549451e+00, 1.450549450549451e+00, 1.450549450549451e+00, 1.450549450549451e+00, 1.450549450549451e+00, 1.450549450549451e+00, 1.450549450549451e+00, 1.450549450549451e+00, 9.158629828651200e-01, 1.450549450549451e+00, 1.450549450549451e+00, 1.450549450549451e+00, 1.450549450549451e+00, 1.450549450549451e+00, 1.450549450549451e+00, 1.450549450549451e+00, 1.450549450549451e+00, 1.450549450549451e+00, 1.450549450549451e+00, 1.450549450549451e+00, 1.450549450549451e+00, 1.450549450549451e+00, 1.450549450549451e+00, 1.450549450549451e+00, 1.450549450549451e+00, -1.456945932003363e-01, 1.450549450549451e+00, 1.450549450549451e+00, 1.450549450549451e+00, 1.450549450549451e+00, 1.450549450549451e+00, 1.450549450549451e+00, 1.450549450549451e+00, 1.450549450549451e+00, 1.450549450549451e+00, 1.450549450549451e+00, 4.874276699239066e-01, 1.450549450549451e+00, 1.450549450549451e+00, 1.450549450549451e+00, 1.450549450549451e+00, 1.450549450549451e+00, 1.450549450549451e+00, 1.450549450549451e+00, 1.450549450549451e+00, 1.450549450549451e+00, 1.450549450549451e+00, 1.450549450549451e+00, 1.450549450549451e+00, 1.450549450549451e+00, 1.450549450549451e+00, 1.450549450549451e+00, 1.450549450549451e+00, -1.130914828978530e+00, 1.450549450549451e+00, 1.450549450549451e+00, 1.450549450549451e+00, 1.450549450549451e+00, 1.450549450549451e+00, 1.450549450549451e+00, 1.450549450549451e+00, 1.162372136413834e+00, 1.088115914587621e+00, 1.450549450549451e+00, 1.450549450549451e+00, 2.804622499171962e-01, 3.712773172955777e-01, 1.450549450549451e+00, 1.450549450549451e+00, 1.450549450549451e+00, 1.450549450549451e+00, 1.450549450549451e+00, 1.450549450549451e+00, 8.911970907353687e-01, 6.307046995653773e-01, 1.450549450549451e+00, 1.450549450549451e+00, 1.450549450549451e+00, 6.070338394217896e-01, 4.682520755087002e-01, 1.450549450549451e+00, 1.450549450549451e+00, 1.450549450549451e+00, 1.450549450549451e+00, 1.450549450549451e+00, 1.450549450549451e+00, 1.450549450549451e+00, 1.450549450549451e+00, 1.450549450549451e+00, 1.450549450549451e+00, 1.450549450549451e+00, -1.019294831843961e-01, 1.450549450549451e+00, 1.450549450549451e+00, 1.450549450549451e+00, 9.695910475798845e-01, 1.450549450549451e+00, 1.450549450549451e+00, 1.256219466530434e+00, 1.450549450549451e+00, 1.450549450549451e+00, 1.450549450549451e+00, 1.450549450549451e+00, 1.450549450549451e+00, 1.450549450549451e+00, 1.450549450549451e+00, 7.161898959753512e-01, 1.450549450549451e+00, 1.450549450549451e+00, 1.450549450549451e+00, 1.450549450549451e+00, 1.450549450549451e+00, 1.450549450549451e+00, 1.450549450549451e+00, 1.080264230004702e+00, 1.450549450549451e+00, 1.013656479808710e+00, 1.450549450549451e+00, 5.809159282139396e-01, 4.283627903258491e-01, 1.450549450549451e+00, 1.450549450549451e+00, 1.450549450549451e+00, 1.450549450549451e+00, 1.450549450549451e+00, 1.450549450549451e+00, 1.069844871162331e+00, 1.112103830342479e+00, 1.450549450549451e+00, 1.450549450549451e+00, 1.450549450549451e+00, 8.907344707137806e-01, 1.450549450549451e+00, 3.202272864460282e-01, 1.450549450549451e+00, 1.450549450549451e+00, 1.450549450549451e+00, 1.450549450549451e+00, 1.450549450549451e+00, 1.450549450549451e+00, 1.450549450549451e+00, 1.450549450549451e+00, 1.450549450549451e+00, 1.450549450549451e+00, 1.450549450549451e+00, 1.450549450549451e+00, -1.284278126487262e-01, 1.450549450549451e+00, 1.450549450549451e+00, 8.710288414897740e-01, 1.450549450549451e+00, 1.348351937541998e+00, 1.450549450549451e+00, 1.450549450549451e+00, 1.450549450549451e+00, 1.450549450549451e+00, 1.450549450549451e+00, 1.450549450549451e+00, 1.450549450549451e+00, 1.450549450549451e+00, 1.450549450549451e+00, 1.450549450549451e+00, 1.450549450549451e+00, 1.450549450549451e+00, 1.450549450549451e+00, 1.450549450549451e+00, 1.450549450549451e+00, 1.450549450549451e+00, 1.450549450549451e+00, 7.025808920582082e-01, 1.450549450549451e+00, 1.450549450549451e+00, 1.450549450549451e+00, 1.450549450549451e+00, 1.450549450549451e+00, 1.450549450549451e+00, 1.450549450549451e+00, 1.450549450549451e+00, 1.450549450549451e+00, 1.450549450549451e+00, 1.450549450549451e+00, 1.450549450549451e+00, 1.450549450549451e+00, 1.450549450549451e+00, 1.450549450549451e+00, 1.450549450549451e+00, 1.450549450549451e+00, 1.450549450549451e+00, 1.450549450549451e+00, 1.450549450549451e+00, 1.450549450549451e+00, 1.450549450549451e+00, 1.450549450549451e+00, 1.450549450549451e+00, 1.450549450549451e+00, 1.450549450549451e+00, 1.450549450549451e+00, 1.450549450549451e+00, 1.450549450549451e+00, 1.450549450549451e+00, 1.450549450549451e+00, -4.391178150426199e-01, 1.450549450549451e+00, 1.450549450549451e+00, 1.450549450549451e+00, 7.003253950097861e-01, 1.450549450549451e+00, 1.450549450549451e+00, 1.450549450549451e+00, 1.450549450549451e+00, 1.450549450549451e+00, 1.450549450549451e+00, 1.450549450549451e+00, 1.450549450549451e+00, 1.450549450549451e+00, 1.450549450549451e+00, 1.450549450549451e+00, 1.450549450549451e+00, 1.450549450549451e+00, 1.450549450549451e+00, 1.272737975837630e+00, 1.450549450549451e+00, 1.450549450549451e+00, 1.450549450549451e+00, 1.450549450549451e+00, 1.450549450549451e+00, 1.450549450549451e+00, 1.450549450549451e+00, 1.450549450549451e+00, 1.450549450549451e+00, 1.450549450549451e+00, 1.450549450549451e+00, 1.450549450549451e+00, 1.450549450549451e+00, 1.450549450549451e+00, 1.450549450549451e+00, 1.450549450549451e+00, 1.450549450549451e+00, 1.450549450549451e+00, 1.450549450549451e+00, 1.450549450549451e+00, 1.450549450549451e+00, 8.123206320342764e-01, 1.450549450549451e+00, 1.450549450549451e+00, 1.450549450549451e+00, 1.450549450549451e+00, 1.450549450549451e+00, 1.450549450549451e+00, 1.450549450549451e+00, 1.450549450549451e+00, 1.450549450549451e+00, 1.450549450549451e+00, 1.450549450549451e+00, 1.450549450549451e+00, 1.450549450549451e+00, 1.321054485495395e+00, 1.450549450549451e+00, 1.450549450549451e+00, 1.450549450549451e+00, 1.450549450549451e+00, 1.450549450549451e+00, 1.450549450549451e+00, 1.450549450549451e+00, 1.450549450549451e+00, 1.450549450549451e+00, 1.450549450549451e+00, 1.450549450549451e+00, 4.055798911723239e-01, 6.624020604881252e-01, 1.450549450549451e+00, 1.450549450549451e+00, 1.450549450549451e+00, 6.967254940036595e-01, 1.365865410520612e+00, 1.249193584491673e+00, 1.450549450549451e+00, 1.450549450549451e+00, 1.450549450549451e+00, 1.450549450549451e+00, 4.494516395488860e-01, 6.494842594669682e-01, 1.450549450549451e+00, 1.450549450549451e+00, 1.450549450549451e+00, 1.450549450549451e+00, 1.336812035624033e+00, 1.324060696757574e+00, 1.450549450549451e+00, 1.450549450549451e+00, 1.450549450549451e+00, 1.450549450549451e+00, 1.450549450549451e+00, 3.339714813788623e-01, 4.000736388909360e-01, 7.282904882470029e-01, 1.450549450549451e+00, 1.450549450549451e+00, 1.450549450549451e+00, 1.450549450549451e+00, 1.450549450549451e+00, 1.450549450549451e+00, 3.175596326626755e-01, 1.450549450549451e+00, 1.450549450549451e+00, 1.450549450549451e+00, 1.450549450549451e+00, 1.365981104326395e+00, 1.342621220963974e+00, 1.450549450549451e+00, 1.450549450549451e+00, 1.903405055814343e+00, 1.450549450549451e+00, 3.720925985368134e-01, 5.879306508363945e-01, 1.450549450549451e+00, 5.826063357406834e-01, 1.450549450549451e+00, 1.450549450549451e+00, 1.450549450549451e+00, 1.450549450549451e+00, 1.450549450549451e+00, 1.450549450549451e+00, 1.450549450549451e+00, 1.450549450549451e+00, 1.450549450549451e+00, 1.450549450549451e+00, 1.605715670080269e+00, 1.450549450549451e+00, 1.450549450549451e+00, 1.450549450549451e+00, 1.450549450549451e+00, 1.450549450549451e+00, 1.450549450549451e+00, 1.450549450549451e+00, 1.171943350142554e+00, 1.450549450549451e+00, 1.450549450549451e+00, 1.450549450549451e+00, 1.450549450549451e+00, 1.425704788878198e+00, 1.450549450549451e+00, 1.450549450549451e+00, 1.450549450549451e+00, 1.450549450549451e+00, 1.450549450549451e+00, 1.450549450549451e+00, 1.176860069225596e+00, 9.714420151175410e-01, 1.450549450549451e+00, 1.450549450549451e+00, 1.450549450549451e+00, 1.450549450549451e+00, 1.450549450549451e+00, 1.450549450549451e+00, 1.450549450549451e+00, 1.450549450549451e+00, 1.450549450549451e+00, 1.450549450549451e+00, 1.450549450549451e+00, 1.450549450549451e+00, 1.450549450549451e+00, 1.450549450549451e+00, 1.450549450549451e+00, 1.450549450549451e+00, 1.450549450549451e+00, 2.151409711164513e+00, 1.450549450549451e+00, 1.450549450549451e+00, 1.450549450549451e+00, 1.450549450549451e+00, 1.450549450549451e+00, 1.450549450549451e+00, 1.450549450549451e+00, 1.450549450549451e+00, 1.520589096189987e+00, 1.450549450549451e+00, 1.450549450549451e+00, 1.450549450549451e+00, 1.450549450549451e+00, 1.450549450549451e+00, 2.778049645393348e+00, 1.450549450549451e+00, 1.450549450549451e+00, 1.450549450549451e+00, 1.045054710548144e-01, 1.450549450549451e+00, 1.450549450549451e+00, 1.450549450549451e+00, 1.450549450549451e+00, 1.450549450549451e+00, 1.450549450549451e+00, 1.450549450549451e+00, 2.066871832533845e+00, 1.450549450549451e+00, 8.954974761552118e-01, 1.450549450549451e+00, 1.450549450549451e+00, 1.450549450549451e+00, 1.450549450549451e+00, 1.450549450549451e+00, 1.450549450549451e+00, 1.450549450549451e+00, 1.450549450549451e+00, 1.450549450549451e+00, 1.450549450549451e+00, 1.450549450549451e+00, 1.450549450549451e+00, 1.450549450549451e+00, 1.450549450549451e+00, 1.450549450549451e+00, 1.450549450549451e+00, 1.450549450549451e+00, 1.450549450549451e+00, 1.450549450549451e+00, 1.450549450549451e+00, 1.050657439230356e+00, 1.473139302051469e+00, 1.450549450549451e+00, 9.851503297520522e-01, 1.450549450549451e+00, 1.107533948425444e+00, 1.450549450549451e+00, 1.450549450549451e+00, 1.450549450549451e+00, 1.450549450549451e+00, 1.450549450549451e+00, 1.450549450549451e+00, 1.450549450549451e+00, 1.450549450549451e+00, 1.450549450549451e+00, 1.450549450549451e+00, 1.450549450549451e+00, 1.450549450549451e+00, 1.450549450549451e+00, 1.450549450549451e+00, 1.673990687781112e-02, 1.450549450549451e+00, 1.450549450549451e+00, 1.450549450549451e+00, 1.284789975536798e+00, 1.450549450549451e+00, 1.450549450549451e+00, 1.450549450549451e+00, 1.450549450549451e+00, 1.450549450549451e+00, 1.450549450549451e+00, 1.450549450549451e+00, 7.975164350678138e-01, 1.450549450549451e+00, 1.450549450549451e+00, 1.450549450549451e+00, 1.450549450549451e+00, 1.450549450549451e+00, 1.450549450549451e+00, 1.450549450549451e+00, 1.450549450549451e+00, 1.450549450549451e+00, 1.450549450549451e+00, 1.450549450549451e+00, 1.450549450549451e+00, 1.450549450549451e+00, 1.450549450549451e+00, 1.450549450549451e+00, 1.450549450549451e+00, 1.450549450549451e+00, 1.450549450549451e+00, 1.450549450549451e+00, 1.450549450549451e+00, 1.049040195475520e+00, 1.450549450549451e+00, 1.450549450549451e+00, 1.450549450549451e+00, 6.363893137549662e-01, 1.450549450549451e+00, 1.450549450549451e+00, 4.505847139836610e-01, 1.450549450549451e+00, 1.450549450549451e+00, 1.344160595566307e+00, 1.450549450549451e+00, 1.450549450549451e+00, 1.450549450549451e+00, 6.804753349591166e-01, 1.450549450549451e+00, 1.450549450549451e+00, 1.450549450549451e+00, 1.450549450549451e+00, 1.450549450549451e+00, 8.608903404222490e-01, 8.869337823563916e-01, 1.450549450549451e+00, 1.450549450549451e+00, 1.164733145529542e+00, 7.892214847238239e-01, 1.450549450549451e+00, 1.450549450549451e+00, 1.450549450549451e+00, 1.450549450549451e+00, 1.450549450549451e+00, 1.450549450549451e+00, 9.658966556336926e-01, 1.099996280137650e+00, 1.450549450549451e+00, 1.450549450549451e+00, 3.430346439496804e-01, 5.134680344111200e-01, 1.450549450549451e+00, 1.450549450549451e+00, 1.450549450549451e+00, 1.450549450549451e+00, 1.450549450549451e+00, 1.450549450549451e+00, 1.450549450549451e+00, 1.450549450549451e+00, 1.580066431847582e+00, 9.539719028926732e-01, 1.450549450549451e+00, 1.132458399003063e+00, 1.330002668425932e+00, 1.450549450549451e+00, 1.360720791912722e+00, 1.450549450549451e+00, 1.450549450549451e+00, 1.450549450549451e+00, 1.450549450549451e+00, 1.450549450549451e+00, 1.450549450549451e+00, 1.450549450549451e+00, 1.450549450549451e+00, 1.450549450549451e+00, 1.986886195180671e+00, 1.450549450549451e+00, 1.450549450549451e+00, 1.450549450549451e+00, 1.450549450549451e+00, 1.450549450549451e+00, 1.450549450549451e+00, 1.450549450549451e+00, 1.450549450549451e+00, 1.450549450549451e+00, 1.450549450549451e+00, 1.450549450549451e+00, 1.450549450549451e+00, 1.450549450549451e+00, 1.450549450549451e+00, 1.450549450549451e+00, 1.450549450549451e+00, 1.353233432956290e+00, 1.450549450549451e+00, 1.450549450549451e+00, 1.450549450549451e+00, 1.450549450549451e+00, 1.450549450549451e+00, 1.450549450549451e+00, 1.450549450549451e+00, 1.450549450549451e+00, 1.450549450549451e+00, 1.450549450549451e+00, 8.345274894406378e-01, 1.450549450549451e+00, 1.450549450549451e+00, 1.450549450549451e+00, 1.450549450549451e+00, 5.712165726777411e-01, 3.574779907845224e+00, 1.450549450549451e+00, 1.450549450549451e+00, 1.450549450549451e+00, 1.450549450549451e+00, 1.450549450549451e+00, 1.450549450549451e+00, 1.450549450549451e+00, 1.450549450549451e+00, 1.450549450549451e+00, 1.450549450549451e+00, 1.450549450549451e+00, 1.450549450549451e+00, 1.450549450549451e+00, 1.450549450549451e+00, 1.450549450549451e+00, 7.177997921815995e-01, 1.450549450549451e+00, 1.450549450549451e+00, 1.450549450549451e+00, 1.450549450549451e+00, 1.154339923676827e+00, 6.467595227456353e-01, 3.725000000000000e+00, 6.393603152764080e+00, 5.494404106019219e+00, 1.684055900979109e+00, 3.028090841822967e+00, 4.805227237658714e+00, 5.288870132588201e+00, 3.725000000000000e+00, 3.824613688246990e+00, 3.068543142347079e+00, 3.725000000000000e+00, 3.725000000000000e+00, 3.725000000000000e+00, 3.725000000000000e+00, 3.725000000000000e+00, 3.176469775307035e+00, 3.422793469942501e+00, 3.725000000000000e+00, 3.223010638997295e+00, 3.725000000000000e+00, 3.725000000000000e+00, 3.725000000000000e+00, 3.725000000000000e+00, 3.725000000000000e+00, 3.725000000000000e+00, 3.725000000000000e+00, 3.725000000000000e+00, 3.990002161060872e+00, 4.503819629717799e+00, 3.725000000000000e+00, 3.725000000000000e+00, 3.725000000000000e+00, 4.598920037876452e+00, 3.725000000000000e+00, 3.725000000000000e+00, 3.725000000000000e+00, 3.725000000000000e+00, 3.725000000000000e+00, 3.725000000000000e+00, 3.725000000000000e+00, 3.725000000000000e+00, 3.725000000000000e+00, 3.725000000000000e+00, 3.725000000000000e+00, 3.725000000000000e+00, 3.725000000000000e+00, 3.725000000000000e+00, 3.725000000000000e+00, 3.725000000000000e+00, 3.725000000000000e+00, 3.725000000000000e+00, 4.244683654252500e+00, 3.725000000000000e+00, 3.725000000000000e+00, 7.664648478399746e-01, 3.725000000000000e+00, 3.725000000000000e+00, 3.725000000000000e+00, 3.725000000000000e+00, 3.725000000000000e+00, 3.725000000000000e+00, 3.725000000000000e+00, 3.725000000000000e+00, 3.725000000000000e+00, 3.725000000000000e+00, 3.725000000000000e+00, 3.725000000000000e+00, 3.725000000000000e+00, 3.725000000000000e+00, 3.725000000000000e+00, 3.725000000000000e+00, 3.725000000000000e+00, 3.725000000000000e+00, 3.725000000000000e+00, 3.725000000000000e+00, 3.725000000000000e+00, 2.929551508908873e+00, 3.725000000000000e+00, 3.725000000000000e+00, 3.725000000000000e+00, 3.725000000000000e+00, 3.868932064624843e+00, 3.725000000000000e+00, 3.725000000000000e+00, 3.725000000000000e+00, 3.725000000000000e+00, 3.725000000000000e+00, 3.725000000000000e+00, 3.725000000000000e+00, 3.725000000000000e+00, 3.725000000000000e+00, 3.725000000000000e+00, 3.725000000000000e+00, 3.725000000000000e+00, 3.725000000000000e+00, 3.725000000000000e+00, 3.725000000000000e+00, 3.725000000000000e+00, 3.725000000000000e+00, 3.725000000000000e+00, 3.725000000000000e+00, 3.725000000000000e+00, 3.725000000000000e+00, 3.725000000000000e+00, 3.725000000000000e+00, 3.725000000000000e+00, 3.725000000000000e+00, 1.534946618430747e+00, 3.725000000000000e+00, 8.168138320733309e+00, 3.725000000000000e+00, 2.032971189245913e+00, 3.725000000000000e+00, 3.725000000000000e+00, 3.725000000000000e+00, 3.725000000000000e+00, 3.725000000000000e+00, 3.725000000000000e+00, 3.725000000000000e+00, 3.725000000000000e+00, 3.725000000000000e+00, 3.725000000000000e+00, 3.725000000000000e+00, 1.128517099320738e+00, 3.725000000000000e+00, 3.725000000000000e+00, 3.725000000000000e+00, 3.725000000000000e+00, 3.725000000000000e+00, 3.725000000000000e+00, 3.725000000000000e+00, 3.725000000000000e+00, 3.725000000000000e+00, 3.725000000000000e+00, 3.725000000000000e+00, 3.725000000000000e+00, 3.725000000000000e+00, 3.725000000000000e+00, 3.725000000000000e+00, 3.725000000000000e+00, 3.725000000000000e+00, 3.725000000000000e+00, 3.725000000000000e+00, 3.725000000000000e+00, 3.725000000000000e+00, 3.725000000000000e+00, 3.725000000000000e+00, 3.725000000000000e+00, 3.725000000000000e+00, 3.725000000000000e+00, 3.725000000000000e+00, 3.725000000000000e+00, 3.725000000000000e+00, 3.725000000000000e+00, 3.725000000000000e+00, 3.725000000000000e+00, 3.725000000000000e+00, 3.725000000000000e+00, 3.725000000000000e+00, 3.725000000000000e+00, 3.725000000000000e+00, 3.755351136657914e+00, 3.725000000000000e+00, 3.725000000000000e+00, 6.447006509445520e+00, 3.882706529039543e+00, 3.725000000000000e+00, 3.812812999484816e+00, 3.580978478272852e+00, 3.725000000000000e+00, 3.650873072390598e+00, 3.725000000000000e+00, 3.725000000000000e+00, 3.725000000000000e+00, 3.725000000000000e+00, 3.725000000000000e+00, 3.725000000000000e+00, 3.725000000000000e+00, 3.725000000000000e+00, 3.725000000000000e+00, 4.472316662229383e+00, 3.725000000000000e+00, 3.725000000000000e+00, 3.298264215917014e+00, 3.725000000000000e+00, 3.725000000000000e+00, 3.725000000000000e+00, 3.725000000000000e+00, 3.725000000000000e+00, 3.725000000000000e+00, 3.725000000000000e+00, 3.725000000000000e+00, 4.459167712193829e+00, 4.470523929307862e+00, 4.321545808447221e+00, 6.067548758580330e+00, 3.725000000000000e+00, 3.725000000000000e+00, 3.725000000000000e+00, 3.725000000000000e+00, 3.725000000000000e+00, 3.725000000000000e+00, 3.725000000000000e+00, 3.725000000000000e+00, 3.725000000000000e+00, 3.725000000000000e+00, 3.725000000000000e+00, 3.725000000000000e+00, 3.725000000000000e+00, 3.725000000000000e+00, 3.725000000000000e+00, 3.725000000000000e+00, 3.725000000000000e+00, 3.725000000000000e+00, 3.725000000000000e+00, 3.559179229050047e+00, 3.725000000000000e+00, 2.509089237418307e+00, 3.545513602774709e+00, 1.645012927762266e+00, 3.725000000000000e+00, 4.673644297486566e+00, 2.993479282251576e+00, 3.725000000000000e+00, 3.558831723775421e+00, 3.083361296489360e+00, 3.725000000000000e+00, 3.725000000000000e+00, 3.725000000000000e+00, 3.725000000000000e+00, 3.725000000000000e+00, 3.725000000000000e+00, 3.725000000000000e+00, 3.725000000000000e+00, 2.775391438604755e+00, 3.725000000000000e+00, 4.581883068718950e+00, 3.221129192801014e+00, 3.725000000000000e+00, 3.725000000000000e+00, 3.725000000000000e+00, 3.725000000000000e+00, 3.725000000000000e+00, 3.725000000000000e+00, 3.725000000000000e+00, 3.725000000000000e+00, 5.451531333779383e+00, 3.725000000000000e+00, 3.725000000000000e+00, 3.725000000000000e+00, 3.725000000000000e+00, 3.725000000000000e+00, 3.725000000000000e+00, 3.725000000000000e+00, 3.725000000000000e+00, 3.725000000000000e+00, 3.725000000000000e+00, 3.725000000000000e+00, 3.725000000000000e+00, 3.725000000000000e+00, 3.725000000000000e+00, 3.725000000000000e+00, 3.725000000000000e+00, 3.725000000000000e+00, 3.725000000000000e+00, 3.477541572281420e+00, 3.725000000000000e+00, 4.019746206389977e+00, 3.725000000000000e+00, 4.455293224406432e+00, 3.725000000000000e+00, 3.725000000000000e+00, 3.725000000000000e+00, 3.725000000000000e+00, 3.885060197531028e+00, 4.285803702176845e+00, 3.725000000000000e+00, 3.725000000000000e+00, 3.725000000000000e+00, 3.725000000000000e+00, 3.725000000000000e+00, 4.355827715267079e+00, 3.725000000000000e+00, 3.725000000000000e+00, 2.446991860861600e+00, 3.725000000000000e+00, 3.725000000000000e+00, 3.725000000000000e+00, 3.725000000000000e+00, 3.725000000000000e+00, 3.725000000000000e+00, 3.725000000000000e+00, 3.725000000000000e+00, 2.281998789349545e+00, 3.725000000000000e+00, 3.725000000000000e+00, 3.725000000000000e+00, 3.725000000000000e+00, 3.725000000000000e+00, 3.725000000000000e+00, 3.725000000000000e+00, 3.725000000000000e+00, 3.725000000000000e+00, 3.725000000000000e+00, 3.725000000000000e+00, 3.725000000000000e+00, 3.725000000000000e+00, 3.725000000000000e+00, 3.725000000000000e+00, 3.725000000000000e+00, 3.725000000000000e+00, 3.725000000000000e+00, 3.725000000000000e+00, 3.725000000000000e+00, 2.406823489541029e+00, 3.725000000000000e+00, 3.725000000000000e+00, 2.937684510677931e+00, 3.725000000000000e+00, 3.725000000000000e+00, 3.725000000000000e+00, 3.725000000000000e+00, 3.725000000000000e+00, 2.962349279488214e+00, 3.725000000000000e+00, 3.725000000000000e+00, 5.742877476746695e+00, 2.588977796317416e+00, 3.031687845277898e+00, 2.553803451080469e+00, 3.725000000000000e+00, 3.725000000000000e+00, 3.362105919332649e+00, 4.113317970293956e+00, 2.655214733043889e+00, 3.725000000000000e+00, 3.725000000000000e+00, 3.725000000000000e+00, 2.969254581046064e+00, 3.725000000000000e+00, 3.453385985343556e+00, 3.725000000000000e+00, 3.725000000000000e+00, 3.725000000000000e+00, 3.392589559365522e+00, 4.402891662428259e+00, 2.711410233274124e+00, 3.725000000000000e+00, 3.725000000000000e+00, 3.725000000000000e+00, 3.292659903694549e+00, 3.725000000000000e+00, 2.498781690297211e+00, 3.725000000000000e+00, 3.725000000000000e+00, 3.725000000000000e+00, 3.725000000000000e+00, 3.725000000000000e+00, 3.725000000000000e+00, 3.725000000000000e+00, 3.725000000000000e+00, 3.725000000000000e+00, 3.725000000000000e+00, 3.725000000000000e+00, 3.725000000000000e+00, 3.725000000000000e+00, 3.725000000000000e+00, 2.745231356234647e+00, 3.725000000000000e+00, 3.725000000000000e+00, 3.725000000000000e+00, 3.468628879803463e+00, 3.725000000000000e+00, 3.725000000000000e+00, 3.725000000000000e+00, 3.725000000000000e+00, 3.725000000000000e+00, 3.156848624310933e+00, 3.725000000000000e+00, 3.725000000000000e+00, 5.306297066155803e+00, 2.330658756226685e+00, 3.725000000000000e+00, 3.725000000000000e+00, 2.989339850511644e-02, 5.094793998259640e+00, 2.297412292060683e-01, 2.527137928043270e+00, 3.725000000000000e+00, 3.725000000000000e+00, 3.725000000000000e+00, 3.725000000000000e+00, 3.626444968543587e+00, 3.593294623503291e+00, 3.725000000000000e+00, 3.725000000000000e+00, 3.725000000000000e+00, 3.725000000000000e+00, 3.725000000000000e+00, 3.057262762341822e+00, 3.725000000000000e+00, 3.725000000000000e+00, 3.725000000000000e+00, 3.725000000000000e+00, 3.725000000000000e+00, 3.020121009597563e+00, 3.668159204586525e+00, 3.725000000000000e+00, 3.725000000000000e+00, 3.725000000000000e+00, 3.725000000000000e+00, 6.109971896137752e+00, 3.725000000000000e+00, 3.725000000000000e+00, 3.725000000000000e+00, 3.725000000000000e+00, 3.725000000000000e+00, 3.725000000000000e+00, 3.725000000000000e+00, 3.725000000000000e+00, 3.725000000000000e+00, 3.725000000000000e+00, 3.725000000000000e+00, 3.725000000000000e+00, 3.725000000000000e+00, 3.725000000000000e+00, 3.725000000000000e+00, 3.725000000000000e+00, 3.725000000000000e+00, 3.725000000000000e+00, 3.725000000000000e+00, 3.725000000000000e+00, 3.725000000000000e+00, 3.725000000000000e+00, 3.725000000000000e+00, 3.725000000000000e+00, 3.725000000000000e+00, 3.725000000000000e+00, 1.602048791712830e+00, 4.926381935480494e+00, 3.725000000000000e+00, 3.725000000000000e+00, 3.725000000000000e+00, 3.725000000000000e+00, 3.725000000000000e+00, 3.725000000000000e+00, 3.725000000000000e+00, 3.725000000000000e+00, 3.725000000000000e+00, 3.725000000000000e+00, 3.725000000000000e+00, 3.725000000000000e+00, 3.725000000000000e+00, 3.801157009498346e+00, 3.725000000000000e+00, 3.725000000000000e+00, 3.725000000000000e+00, 3.725000000000000e+00, 3.725000000000000e+00, 3.725000000000000e+00, 3.725000000000000e+00, 3.725000000000000e+00, 3.505042899071245e+00, 3.725000000000000e+00, 3.725000000000000e+00, 4.466978622605891e+00, 3.725000000000000e+00, 3.725000000000000e+00, 3.725000000000000e+00, 3.725000000000000e+00, 3.725000000000000e+00, 3.725000000000000e+00, 3.725000000000000e+00, 3.725000000000000e+00, 3.725000000000000e+00, 3.725000000000000e+00, 3.725000000000000e+00, 3.725000000000000e+00, 3.725000000000000e+00, 3.725000000000000e+00, 3.725000000000000e+00, 3.725000000000000e+00, 3.725000000000000e+00, 3.725000000000000e+00, 3.725000000000000e+00, 2.283446097668565e+00, 3.725000000000000e+00, 3.725000000000000e+00, 3.840306182748825e+00, 6.521919617556902e+00, 3.725000000000000e+00, 5.448538752543103e+00, 5.464159907642539e+00, 3.725000000000000e+00, 1.859814251504710e+00, 3.725000000000000e+00, 3.725000000000000e+00, 3.725000000000000e+00, 3.725000000000000e+00, 3.725000000000000e+00, 5.468353827544735e+00, 3.725000000000000e+00, 3.725000000000000e+00, 3.725000000000000e+00, 3.665501463908815e+00, 3.725000000000000e+00, 6.454120564633991e+00, 3.725000000000000e+00, 3.725000000000000e+00, 3.725000000000000e+00, 3.725000000000000e+00, 3.725000000000000e+00, 3.725000000000000e+00, 4.558678874022758e+00, 6.420308820818632e+00, 3.725000000000000e+00, 6.555045062302633e+00, 3.725000000000000e+00, 3.307564722900022e+00, 3.725000000000000e+00, 3.725000000000000e+00, 3.725000000000000e+00, 3.725000000000000e+00, 3.725000000000000e+00, 3.725000000000000e+00, 3.725000000000000e+00, 3.725000000000000e+00, 3.725000000000000e+00, 3.725000000000000e+00, 3.725000000000000e+00, 3.725000000000000e+00, 3.725000000000000e+00, 3.725000000000000e+00, 3.725000000000000e+00, 3.725000000000000e+00, 3.725000000000000e+00, 3.725000000000000e+00, 3.725000000000000e+00, 3.725000000000000e+00, 4.380995864760077e+00, 3.725000000000000e+00, 3.725000000000000e+00, 3.725000000000000e+00, 4.357160340659595e+00, 3.725000000000000e+00, 2.281061407174042e+00, 1.952059314086117e+00, 3.725000000000000e+00, 3.725000000000000e+00, 4.844833292324254e+00, 3.725000000000000e+00, 3.725000000000000e+00, 3.725000000000000e+00, 7.406733134924693e-01, 2.979089633198834e+00, 3.725000000000000e+00, 3.725000000000000e+00, 3.194934306028490e+00, 3.725000000000000e+00, 3.725000000000000e+00, 3.725000000000000e+00, 3.725000000000000e+00, 3.725000000000000e+00, 3.725000000000000e+00, 3.725000000000000e+00, 3.725000000000000e+00, 1.888940448376817e+00, 3.725000000000000e+00, 3.725000000000000e+00, 3.725000000000000e+00, 2.975339239018692e+00, 3.619082710062893e+00, 4.573371656712001e+00, 3.725000000000000e+00, 3.725000000000000e+00, 3.725000000000000e+00, 3.725000000000000e+00, 3.725000000000000e+00, 3.725000000000000e+00, 3.725000000000000e+00, 3.725000000000000e+00, 3.725000000000000e+00, 3.725000000000000e+00, 3.725000000000000e+00, 3.725000000000000e+00, 3.725000000000000e+00, 3.725000000000000e+00, 2.533122959825457e+00, 3.962747108890817e+00, 5.289588822865672e+00, 3.725000000000000e+00, 3.593448161380233e+00, 3.725000000000000e+00, 3.725000000000000e+00, 3.725000000000000e+00, 3.725000000000000e+00, 3.725000000000000e+00, 3.725000000000000e+00, 3.725000000000000e+00, 4.324355147987069e+00, 3.725000000000000e+00, 3.725000000000000e+00, 3.725000000000000e+00, 3.725000000000000e+00, 5.683315740589899e+00, 3.725000000000000e+00, 2.441662587473274e+00, 2.478367136053328e+00, 2.995818622007118e+00, 3.725000000000000e+00, 3.725000000000000e+00, 4.146475632659147e+00, 4.837312503493161e+00, 6.763178122370892e+00, 3.725000000000000e+00, 3.725000000000000e+00, 3.725000000000000e+00, 3.725000000000000e+00, 3.725000000000000e+00, 2.432079407566434e+00, 1.921608756372704e+00, 3.725000000000000e+00, 3.725000000000000e+00, 3.725000000000000e+00, 3.428891025259145e+00, 3.132431667231634e+00, 6.713793250064312e+00, 3.725000000000000e+00, 3.725000000000000e+00, 3.725000000000000e+00, 3.725000000000000e+00, 3.725000000000000e+00, 3.725000000000000e+00, 3.725000000000000e+00, 3.725000000000000e+00, 3.725000000000000e+00, 3.725000000000000e+00, 3.725000000000000e+00, 3.725000000000000e+00, 3.725000000000000e+00, 1.876265738872150e+00, 2.580639833931559e+00, 3.725000000000000e+00, 3.725000000000000e+00, 3.548333031675496e+00, 4.171187727176608e+00, 3.725000000000000e+00, 3.725000000000000e+00, 3.725000000000000e+00, 3.725000000000000e+00, 3.725000000000000e+00, 3.725000000000000e+00, 3.432654533251612e+00, 3.725000000000000e+00, 3.725000000000000e+00, 3.725000000000000e+00, 3.725000000000000e+00, 3.725000000000000e+00, 3.725000000000000e+00, 5.035491376652494e+00, 2.840404243468549e+00, 2.320867742119390e+00, 2.449151063860094e+00, 3.725000000000000e+00, 3.597657377636145e+00, 3.725000000000000e+00, 3.725000000000000e+00, 3.725000000000000e+00, 3.725000000000000e+00, 3.725000000000000e+00, 3.725000000000000e+00, 3.725000000000000e+00, 2.706378319896168e+00, 3.725000000000000e+00, 3.725000000000000e+00, 3.725000000000000e+00, 3.725000000000000e+00, 3.456315958456400e+00, 4.168781825459114e+00, 4.046668129743564e+00, 3.725000000000000e+00, 3.725000000000000e+00, 3.725000000000000e+00, 3.725000000000000e+00, 3.725000000000000e+00, 3.725000000000000e+00, 3.725000000000000e+00, 3.725000000000000e+00, 3.725000000000000e+00, 3.725000000000000e+00, 3.725000000000000e+00, 3.725000000000000e+00, 3.725000000000000e+00, 3.725000000000000e+00, 3.725000000000000e+00, 3.422567729698418e+00, 3.725000000000000e+00, 3.725000000000000e+00, 3.725000000000000e+00, 3.725000000000000e+00, 3.725000000000000e+00, 3.725000000000000e+00, 3.725000000000000e+00, 3.725000000000000e+00, 3.725000000000000e+00, 3.725000000000000e+00, 3.725000000000000e+00, 3.725000000000000e+00, 3.725000000000000e+00, 3.725000000000000e+00, 3.725000000000000e+00, 3.725000000000000e+00, 3.496860224879512e+00, 3.756143415570369e+00, 2.706629247610797e-02, -5.675750102546455e-01, 3.725000000000000e+00, 3.725000000000000e+00, 3.725000000000000e+00, 3.725000000000000e+00, 3.725000000000000e+00, 3.123978956013856e+00, 3.725000000000000e+00, 3.725000000000000e+00, 3.893157351780893e+00, 3.969745413812811e+00, 3.725000000000000e+00, 3.725000000000000e+00, 3.725000000000000e+00, 3.725000000000000e+00, 3.725000000000000e+00, 3.725000000000000e+00, 3.725000000000000e+00, 3.022315841605326e+00, 4.074249984252379e+00, 3.725000000000000e+00, 3.725000000000000e+00, 3.725000000000000e+00, 3.725000000000000e+00, 3.725000000000000e+00, 3.725000000000000e+00, 3.725000000000000e+00, 3.725000000000000e+00, 3.725000000000000e+00, 3.725000000000000e+00, 3.725000000000000e+00, 4.034988992004731e+00, 3.725000000000000e+00, 3.725000000000000e+00, 3.725000000000000e+00, 3.725000000000000e+00, 3.725000000000000e+00, 3.725000000000000e+00, 3.725000000000000e+00, 3.725000000000000e+00, 3.725000000000000e+00, 3.725000000000000e+00, 3.725000000000000e+00, 3.725000000000000e+00, 3.725000000000000e+00, 3.725000000000000e+00, 3.725000000000000e+00, 3.725000000000000e+00, 3.725000000000000e+00, 3.725000000000000e+00, 4.057892328930756e+00, 3.114463178380064e+00, 3.679771525710361e+00, -5.116786960142705e-01, 7.382496222669638e-01, 3.725000000000000e+00, 3.725000000000000e+00, 3.725000000000000e+00, 3.725000000000000e+00, 3.190190309616824e+00, 3.725000000000000e+00, 3.725000000000000e+00, 3.725000000000000e+00, 3.897095921255785e+00, 3.867333906575208e+00, 3.725000000000000e+00, 3.725000000000000e+00, 3.725000000000000e+00, 3.725000000000000e+00, 3.725000000000000e+00, 3.725000000000000e+00, 3.739789870634561e+00, 2.979088276612891e+00, 4.030389922210256e+00, 3.725000000000000e+00, 5.031136610760991e+00, 3.725000000000000e+00, 3.725000000000000e+00, 3.725000000000000e+00, 3.725000000000000e+00, 3.725000000000000e+00, 3.725000000000000e+00, 3.725000000000000e+00, 3.725000000000000e+00, 3.981770240279739e+00, 3.725000000000000e+00, 3.847115642078831e+00, 3.725000000000000e+00, 3.725000000000000e+00, 3.725000000000000e+00, 3.918270545122263e+00, 3.725000000000000e+00, 4.690553995245835e+00, 3.725000000000000e+00, 3.725000000000000e+00, 3.725000000000000e+00, 3.725000000000000e+00, 3.725000000000000e+00, 3.725000000000000e+00, 3.541443157327980e+00, 3.792715032552234e+00, 2.982766391298227e+00, 3.725000000000000e+00, 1.578973340149097e+00, 3.778617541002374e+00, 3.581483233976490e+00, 3.269985848977137e+00, 3.725000000000000e+00, 3.725000000000000e+00, 1.936253461707297e+00, 3.725000000000000e+00, 3.568473480118196e+00, 2.960233673932710e+00, 3.725000000000000e+00, 3.725000000000000e+00, 3.725000000000000e+00, 3.806343738729029e+00, 3.664537839166726e+00, 3.725000000000000e+00, 3.725000000000000e+00, 3.725000000000000e+00, 3.725000000000000e+00, 3.725000000000000e+00, 3.725000000000000e+00, 4.270544957384354e+00, 3.925182908114901e+00, 3.305845262376998e+00, 3.389933757125765e+00, 3.725000000000000e+00, 4.427230838589197e+00, 3.725000000000000e+00, 4.354304002170664e+00, 4.339890429563860e+00, 4.253617154530056e+00, 4.196491916343333e+00, 3.976111358866407e+00, 4.183452645824895e+00, 4.862265945159598e+00, 3.955919924117705e+00, 3.839622286160784e+00, 3.725000000000000e+00, 3.725000000000000e+00, 3.725000000000000e+00, 3.725000000000000e+00, 3.725000000000000e+00, 3.739848420917638e+00, 3.196596453051401e+00, 4.038372222536557e+00, 4.631295750245731e+00, 3.725000000000000e+00, 4.241444025193416e+00, 3.725000000000000e+00, 3.725000000000000e+00, 3.725000000000000e+00, 3.725000000000000e+00, 2.507446688352910e+00, 3.725000000000000e+00, 3.725000000000000e+00, 3.725000000000000e+00, 3.725000000000000e+00, 3.725000000000000e+00, 3.725000000000000e+00, 3.725000000000000e+00, 3.725000000000000e+00, 1.239890832260017e+00, 3.725000000000000e+00, 3.725000000000000e+00, 2.692427383324806e+00, 3.725000000000000e+00, 3.725000000000000e+00, 3.725000000000000e+00, 3.725000000000000e+00, 3.725000000000000e+00, 3.725000000000000e+00, 3.725000000000000e+00, 3.725000000000000e+00, 3.725000000000000e+00, 3.725000000000000e+00, 3.725000000000000e+00, 3.725000000000000e+00, 3.725000000000000e+00, 3.725000000000000e+00, 3.725000000000000e+00, 3.725000000000000e+00, 3.725000000000000e+00, 3.725000000000000e+00, 3.725000000000000e+00, 3.725000000000000e+00, 3.725000000000000e+00, 3.725000000000000e+00, 3.725000000000000e+00, 3.725000000000000e+00, 3.725000000000000e+00, 3.725000000000000e+00, 3.725000000000000e+00, 3.725000000000000e+00, 3.725000000000000e+00, 3.725000000000000e+00, 3.725000000000000e+00, 3.725000000000000e+00, 3.725000000000000e+00, 3.725000000000000e+00, 2.880251372836879e+00, 3.725000000000000e+00, 3.725000000000000e+00, 3.725000000000000e+00, 3.725000000000000e+00, 3.725000000000000e+00, 2.490231804755052e+00, 3.725000000000000e+00, 3.725000000000000e+00, 3.725000000000000e+00, 3.725000000000000e+00, 3.725000000000000e+00, 2.431859244856286e+00, 3.725000000000000e+00, 3.725000000000000e+00, 2.573547245866878e+00, 3.725000000000000e+00, 6.715810453329365e-01, 3.725000000000000e+00, 3.725000000000000e+00, 3.725000000000000e+00, 3.725000000000000e+00, 3.725000000000000e+00, 3.725000000000000e+00, 2.350327116659458e+00, 3.725000000000000e+00, 3.725000000000000e+00, 3.725000000000000e+00, 3.725000000000000e+00, 3.725000000000000e+00, 3.725000000000000e+00, 3.725000000000000e+00, 3.725000000000000e+00, 3.725000000000000e+00, 3.725000000000000e+00, 3.725000000000000e+00, 3.725000000000000e+00, 3.725000000000000e+00, 3.725000000000000e+00, 3.725000000000000e+00, 3.725000000000000e+00, 3.725000000000000e+00, 3.725000000000000e+00, 3.725000000000000e+00, 3.725000000000000e+00, 2.513587575633564e+00, 3.725000000000000e+00, 3.725000000000000e+00, 3.153194092141515e+00, 3.725000000000000e+00, 3.725000000000000e+00, 3.725000000000000e+00, 3.725000000000000e+00, 3.725000000000000e+00, 3.725000000000000e+00, 3.725000000000000e+00, 3.725000000000000e+00, 3.725000000000000e+00, 3.725000000000000e+00, 3.725000000000000e+00, 3.725000000000000e+00, 3.725000000000000e+00, 3.725000000000000e+00, 3.725000000000000e+00, 3.086124721252027e+00, 2.441014583564143e+00, 3.725000000000000e+00, 3.725000000000000e+00, 3.725000000000000e+00, 2.605422554870337e+00, 3.725000000000000e+00, 3.725000000000000e+00, 9.078166222451954e-01, 3.725000000000000e+00, 3.725000000000000e+00, 3.725000000000000e+00, 3.725000000000000e+00, 3.282678686174921e+00, 2.691558761047156e+00, 3.725000000000000e+00, 3.273896781056966e+00, 3.725000000000000e+00, 3.725000000000000e+00, 3.725000000000000e+00, 3.725000000000000e+00, 3.725000000000000e+00, 3.725000000000000e+00, 3.725000000000000e+00, 3.725000000000000e+00, 3.725000000000000e+00, 3.725000000000000e+00, 3.725000000000000e+00, 3.725000000000000e+00, 3.725000000000000e+00, 3.725000000000000e+00, 3.725000000000000e+00, 3.725000000000000e+00, 3.725000000000000e+00, 2.770656506024265e+00, 2.620824706657181e+00, 3.725000000000000e+00, 3.725000000000000e+00, 3.069365944477097e+00, 2.144433159921324e+00, 3.725000000000000e+00, 3.725000000000000e+00, 3.725000000000000e+00, 3.725000000000000e+00, 2.461605715699374e+00, 3.725000000000000e+00, 3.725000000000000e+00, 4.790885370224250e+00, 3.893758555968287e+00, 3.725000000000000e+00, 3.725000000000000e+00, 3.725000000000000e+00, 3.725000000000000e+00, 4.195626151853176e+00, 3.725000000000000e+00, 2.407473406959452e+00, 3.725000000000000e+00, 3.725000000000000e+00, 2.702857001453236e+00, 3.725000000000000e+00, 3.282544739701436e+00, 3.725000000000000e+00, 3.725000000000000e+00, 1.728147196977333e+00, 3.725000000000000e+00, 3.725000000000000e+00, 3.725000000000000e+00, 2.663423769486491e+00, 3.725000000000000e+00, 3.725000000000000e+00, 3.389750375795788e+00, 3.725000000000000e+00, 3.725000000000000e+00, 3.725000000000000e+00, 3.725000000000000e+00, 3.725000000000000e+00, 3.725000000000000e+00, 3.725000000000000e+00, 3.725000000000000e+00, 3.725000000000000e+00, 3.725000000000000e+00, 3.725000000000000e+00, 3.725000000000000e+00, 3.725000000000000e+00, 3.725000000000000e+00, 3.725000000000000e+00, 3.725000000000000e+00, 3.725000000000000e+00, 2.815632484053974e+00, 3.725000000000000e+00, 3.725000000000000e+00, 3.725000000000000e+00, 3.725000000000000e+00, 3.725000000000000e+00, 3.725000000000000e+00, 3.725000000000000e+00, 3.725000000000000e+00, 3.725000000000000e+00, 3.725000000000000e+00, 3.725000000000000e+00, 3.725000000000000e+00, 3.725000000000000e+00, 3.725000000000000e+00, 3.725000000000000e+00, 3.725000000000000e+00, 3.725000000000000e+00, 3.725000000000000e+00, 3.725000000000000e+00, 3.725000000000000e+00, 4.327413229055571e+00, 3.725000000000000e+00, 3.330853032694647e+00, 3.725000000000000e+00, 3.725000000000000e+00, 3.725000000000000e+00, 3.725000000000000e+00, 3.725000000000000e+00, 3.725000000000000e+00, 1.519974947708206e+00, 3.725000000000000e+00, 3.725000000000000e+00, 3.725000000000000e+00, 3.725000000000000e+00, 3.725000000000000e+00, 3.725000000000000e+00, 3.725000000000000e+00, 3.725000000000000e+00, 3.725000000000000e+00, 3.725000000000000e+00, 3.725000000000000e+00, 3.725000000000000e+00, 3.725000000000000e+00, 3.725000000000000e+00, 3.725000000000000e+00, 3.725000000000000e+00, 3.725000000000000e+00, 3.725000000000000e+00, 3.725000000000000e+00, 3.725000000000000e+00, 3.725000000000000e+00, 3.725000000000000e+00, 3.725000000000000e+00, 3.725000000000000e+00, 3.725000000000000e+00, 3.725000000000000e+00, 3.725000000000000e+00, 3.725000000000000e+00, 3.725000000000000e+00, 3.725000000000000e+00, 3.725000000000000e+00, 3.725000000000000e+00, 3.725000000000000e+00, 3.725000000000000e+00, 3.725000000000000e+00, 3.725000000000000e+00, 3.725000000000000e+00, 4.136853816329242e+00, 3.725000000000000e+00, 2.289974156311101e+00, 3.725000000000000e+00, 3.725000000000000e+00, 5.575516180525717e+00, 3.725000000000000e+00, 3.725000000000000e+00, 3.725000000000000e+00, 3.725000000000000e+00, 3.725000000000000e+00, 3.725000000000000e+00, 3.725000000000000e+00, 3.725000000000000e+00, 3.725000000000000e+00, 3.725000000000000e+00, 3.725000000000000e+00, -6.240905406741382e-01, 3.725000000000000e+00, 3.725000000000000e+00, 3.725000000000000e+00, 3.725000000000000e+00, 3.725000000000000e+00, 3.725000000000000e+00, 3.725000000000000e+00, 5.582469711074745e+00, 3.725000000000000e+00, 1.898767250387139e+00, 3.725000000000000e+00, 3.725000000000000e+00, 7.247327649523179e+00, 3.725000000000000e+00, 3.725000000000000e+00, 3.725000000000000e+00, 3.725000000000000e+00, 3.725000000000000e+00, 3.725000000000000e+00, 3.725000000000000e+00, 3.725000000000000e+00, 3.725000000000000e+00, 3.725000000000000e+00, 3.725000000000000e+00, 3.725000000000000e+00, 3.725000000000000e+00, 3.725000000000000e+00, 3.725000000000000e+00, 3.725000000000000e+00, 3.725000000000000e+00, 3.725000000000000e+00, 3.725000000000000e+00, 3.725000000000000e+00, 3.725000000000000e+00, 3.725000000000000e+00, 6.291532898803287e+00, 1.591897055189186e+00, 3.725000000000000e+00, 3.421020150045974e+00, 4.508072929048256e+00, 7.332223000514826e+00, 3.725000000000000e+00, 3.725000000000000e+00, 3.725000000000000e+00, 3.725000000000000e+00, 3.725000000000000e+00, 3.725000000000000e+00, 2.513117682787234e+00, 3.725000000000000e+00, 3.725000000000000e+00, 3.725000000000000e+00, 3.725000000000000e+00, 3.725000000000000e+00, 3.725000000000000e+00, 3.126128256535739e+00, 3.725000000000000e+00, 3.725000000000000e+00, 3.725000000000000e+00, 3.725000000000000e+00, 3.725000000000000e+00, 3.725000000000000e+00, 3.725000000000000e+00, 3.725000000000000e+00, 4.031580865152754e+00, 2.119835801711866e+00, 3.725000000000000e+00, 3.725000000000000e+00, 3.725000000000000e+00, 3.725000000000000e+00, 3.725000000000000e+00, 3.725000000000000e+00, 3.725000000000000e+00, 3.725000000000000e+00, 3.725000000000000e+00, 3.725000000000000e+00, 3.725000000000000e+00, 3.725000000000000e+00, 3.725000000000000e+00, 3.725000000000000e+00, 3.725000000000000e+00, 3.725000000000000e+00, 3.725000000000000e+00, 5.253269464395119e+00, 3.725000000000000e+00, 4.152091621720741e+00, 3.725000000000000e+00, 3.725000000000000e+00, 1.978373506311078e+00, 3.725000000000000e+00, 3.725000000000000e+00, 3.725000000000000e+00, 3.725000000000000e+00, 3.772666185670198e+00, 3.725000000000000e+00, 3.725000000000000e+00, 3.725000000000000e+00, 3.725000000000000e+00, 3.725000000000000e+00, 3.725000000000000e+00, 2.166339593356226e+00, 2.240133867794618e+00, 1.440065842130720e+00, 3.725000000000000e+00, 3.725000000000000e+00, 3.214125630780015e+00, 5.174450280114091e+00, 3.725000000000000e+00, 3.725000000000000e+00, 3.725000000000000e+00, 1.823190126298273e+00, 3.725000000000000e+00, 3.725000000000000e+00, 2.362103257076086e+00, 2.589130592487320e+00, 3.602551635055029e+00, 3.725000000000000e+00, 3.625375264480272e+00, 3.347221546280599e+00, 5.013922450261427e+00, 6.217894885231122e+00, 3.725000000000000e+00, 3.725000000000000e+00, 3.725000000000000e+00, 3.725000000000000e+00, 3.725000000000000e+00, 3.725000000000000e+00, 3.725000000000000e+00, 3.725000000000000e+00, 3.725000000000000e+00, 3.725000000000000e+00, 3.725000000000000e+00, 3.725000000000000e+00, 3.725000000000000e+00, 3.725000000000000e+00, 5.013465778985242e-01, 2.784031870764742e+00, 3.725000000000000e+00, 3.471506706977366e+00, 4.831871655012071e+00, 3.725000000000000e+00, 3.725000000000000e+00, 3.725000000000000e+00, 3.725000000000000e+00, 3.725000000000000e+00, 3.725000000000000e+00, 3.684770624135309e+00, 3.725000000000000e+00, 3.725000000000000e+00, 3.725000000000000e+00, 3.725000000000000e+00, 3.725000000000000e+00, 3.725000000000000e+00, 3.725000000000000e+00, 2.520036989780639e+00, 2.350874213475808e+00, 3.725000000000000e+00, 3.725000000000000e+00, 4.075104493388409e+00, 5.454754088535148e+00, 3.725000000000000e+00, 3.725000000000000e+00, 3.725000000000000e+00, 3.725000000000000e+00, 3.725000000000000e+00, 2.042170578707105e+00, 2.590450313155229e+00, 2.480119991385014e+00, 3.725000000000000e+00, 3.725000000000000e+00, 3.725000000000000e+00, 3.614906967331318e+00, 4.579889405617325e+00, 6.021005959697210e+00, 3.725000000000000e+00, 3.725000000000000e+00, 3.725000000000000e+00, 3.725000000000000e+00, 3.725000000000000e+00, 3.725000000000000e+00, 3.725000000000000e+00, 3.725000000000000e+00, 3.725000000000000e+00, 3.725000000000000e+00, 3.725000000000000e+00, 3.725000000000000e+00, 3.725000000000000e+00, 3.725000000000000e+00, 3.725000000000000e+00, 3.011046038916534e+00, 3.725000000000000e+00, 3.498207278843331e+00, 3.725000000000000e+00, 3.725000000000000e+00, 3.725000000000000e+00, 3.725000000000000e+00, 3.725000000000000e+00, 3.725000000000000e+00, 3.725000000000000e+00, 3.725000000000000e+00, 3.725000000000000e+00, 3.725000000000000e+00, 3.725000000000000e+00, 