MTP
version = 1.1.0
potential_name = MTP_l2k3
scaling = 1.584000000000000e-02
L = 2
scaling_map = LK
species_count = 15
potential_tag = 
radial_basis_type = RBChebyshev_sss
	min_dist = 1.300000000000000e+00
	max_dist = 6.000000000000000e+00
	radial_basis_size = 8
	radial_funcs_count = 9
shift_coeffs = {-5.193619790564004e+00, -5.006902443561196e+00, -6.736651673985016e+00, -4.207882863071134e+00, -5.391241468761756e+00, -8.055214428143289e+00, -7.198730134106405e+00, -3.363156042805845e+00, -2.979120638711636e+00, -5.453867508103030e+00, -5.216320664192262e+00, -2.911675020469833e+00, -6.269591934183172e+00, -4.035769960748369e+00, -2.695058428666592e+00}
scal_coeffs = {3.324555590666429e-01, 5.214019380667145e-01, 6.165458959592924e-01, 1.230467553863245e+00, 1.686841660136463e-01, 8.740085907217071e-02, 1.082149527939010e+00, 8.712499711316559e-01, 4.226452640676572e-01, 2.606864072637699e-01, 6.437504287265765e-01, 8.767224465447520e-01, 1.891556235007735e+00, 4.584980287497495e-01, 9.775301619509268e-01, 1.128532900363412e-01, 2.918482544398196e-01, 1.404255319148936e+00, 1.404255319148936e+00, 1.404255319148936e+00, 1.404255319148936e+00, 2.925092796188785e+00, 1.404255319148936e+00, 1.404255319148936e+00, 1.404255319148936e+00, 1.404255319148936e+00, 1.404255319148936e+00, 1.404255319148936e+00, 1.404255319148936e+00, 1.404255319148936e+00, 5.181163065037129e-01, 1.404255319148936e+00, -1.061980587257066e-01, 1.404255319148936e+00, 1.404255319148936e+00, 1.404255319148936e+00, 1.404255319148936e+00, 1.404255319148936e+00, 1.404255319148936e+00, 1.404255319148936e+00, 1.404255319148936e+00, 1.404255319148936e+00, 1.404255319148936e+00, 1.404255319148936e+00, 1.404255319148936e+00, 1.255232510539242e-01, 1.404255319148936e+00, 1.404255319148936e+00, 7.069447662316501e-01, 1.404255319148936e+00, 1.404255319148936e+00, 8.438626963672297e-01, 1.404255319148936e+00, 1.404255319148936e+00, 1.404255319148936e+00, 1.404255319148936e+00, 1.404255319148936e+00, 1.404255319148936e+00, 1.404255319148936e+00, 1.404255319148936e+00, 6.810456540421368e-01, 1.404255319148936e+00, 1.404255319148936e+00, 1.404255319148936e+00, -5.905543740851694e-02, 1.329845756379239e+00, 3.156765878741998e-01, 1.404255319148936e+00, 1.404255319148936e+00, 1.404255319148936e+00, 1.404255319148936e+00, 1.404255319148936e+00, 1.404255319148936e+00, 1.404255319148936e+00, 1.404255319148936e+00, 1.907359941615342e-01, 1.404255319148936e+00, 1.404255319148936e+00, 1.404255319148936e+00, 1.343379888394341e+00, 2.242750757166882e+00, 4.979182611184075e-01, 5.585294495807747e-01, 1.404255319148936e+00, 1.219738051133730e+00, 1.404255319148936e+00, 6.922492500176614e-01, 8.988104977123641e-01, 1.404255319148936e+00, 1.060832551918329e+00, 2.334396433798922e+00, 1.512558290963624e+00, 1.404255319148936e+00, 6.958278966500541e-01, 7.963762614330478e-01, 7.919759074174707e-01, 9.980286328857907e-01, 2.083944321850058e-01, 6.357151825183424e-01, 7.397304539235351e-01, 7.190769140984971e-01, 1.387301455290991e+00, 6.506326748551583e-01, 4.925253112703586e-01, 6.141024252473594e-01, 3.818227003059534e-01, 1.404255319148936e+00, 1.404255319148936e+00, 1.404255319148936e+00, 1.404255319148936e+00, 1.682424535752617e+00, 2.970486414458892e-02, 5.195212533226825e-01, 1.404255319148936e+00, 1.404255319148936e+00, 1.404255319148936e+00, 1.404255319148936e+00, 1.404255319148936e+00, 1.404255319148936e+00, 1.404255319148936e+00, 1.262064148450477e-01, 1.404255319148936e+00, 1.404255319148936e+00, 1.404255319148936e+00, 1.404255319148936e+00, 1.404255319148936e+00, 1.657679759434919e+00, 1.404255319148936e+00, 8.458426144940503e-01, 1.404255319148936e+00, 1.404255319148936e+00, 1.404255319148936e+00, 1.404255319148936e+00, 1.404255319148936e+00, 1.404255319148936e+00, 5.798844599077652e-01, 1.404255319148936e+00, 1.404255319148936e+00, 1.404255319148936e+00, 1.404255319148936e+00, 1.376686276918827e+00, 3.860478394914339e-01, 1.404255319148936e+00, 1.404255319148936e+00, 2.650177856621573e-01, 1.404255319148936e+00, 1.404255319148936e+00, 1.404255319148936e+00, 1.404255319148936e+00, 1.404255319148936e+00, 1.803827855879899e+00, 1.404255319148936e+00, 1.404255319148936e+00, 1.404255319148936e+00, 1.404255319148936e+00, 1.404255319148936e+00, 5.864131262286224e-01, 1.404255319148936e+00, 1.404255319148936e+00, 1.404255319148936e+00, 1.160230953961395e+00, 1.404255319148936e+00, 1.404255319148936e+00, 1.404255319148936e+00, 1.404255319148936e+00, 3.424823866039517e-01, 1.404255319148936e+00, 1.404255319148936e+00, 1.404255319148936e+00, 1.404255319148936e+00, 1.584950009818578e+00, 2.730338054374536e-01, 1.404255319148936e+00, 1.404255319148936e+00, 1.404255319148936e+00, 1.404255319148936e+00, 7.768337014769308e-01, 1.404255319148936e+00, 1.404255319148936e+00, 1.404255319148936e+00, 3.018278585553815e-01, 1.404255319148936e+00, 1.404255319148936e+00, 1.404255319148936e+00, 1.404255319148936e+00, 1.356772184167249e+00, 1.054606988485332e+00, 1.404255319148936e+00, 1.404255319148936e+00, 1.404255319148936e+00, 1.404255319148936e+00, 1.404255319148936e+00, 1.367247239777085e+00, 1.404255319148936e+00, 1.404255319148936e+00, 1.361003206738541e+00, 1.404255319148936e+00, 1.404255319148936e+00, 1.404255319148936e+00, 1.404255319148936e+00, 1.404255319148936e+00, 4.830289921502678e-01, 1.404255319148936e+00, 1.404255319148936e+00, 1.404255319148936e+00, 1.404255319148936e+00, 1.404255319148936e+00, 1.404255319148936e+00, 4.416563415558996e-01, 1.404255319148936e+00, 3.940928831853030e-01, 1.404255319148936e+00, 1.404255319148936e+00, 1.404255319148936e+00, 1.404255319148936e+00, 1.499898764615712e+00, 2.847914620014636e-01, 1.404255319148936e+00, 1.404255319148936e+00, 1.404255319148936e+00, 1.404255319148936e+00, 1.404255319148936e+00, 1.404255319148936e+00, 1.404255319148936e+00, 1.238689872954646e+00, 3.022477524366013e+00, 3.022370030638033e+00, 2.576901742118799e+00, 2.457418264152443e+00, 3.508365937942425e+00, 3.260076489708797e+00, 3.606225676665436e+00, 3.542581191844810e+00, 2.999450158969591e+00, 3.344487764209609e+00, 3.388549369060240e+00, 3.570895880450292e+00, 2.435234102216451e+00, 3.521385542474756e+00, 4.085962469201164e+00, 5.164536839054570e+00, 2.375072111877337e+00, 3.650000000000000e+00, 3.650000000000000e+00, 3.650000000000000e+00, 3.650000000000000e+00, 3.773666736109053e+00, 3.650000000000000e+00, 3.650000000000000e+00, 3.650000000000000e+00, 3.650000000000000e+00, 3.650000000000000e+00, 3.650000000000000e+00, 3.650000000000000e+00, 3.650000000000000e+00, 3.929909776562085e+00, 3.650000000000000e+00, 3.977749892879897e+00, 3.650000000000000e+00, 3.650000000000000e+00, 3.650000000000000e+00, 3.650000000000000e+00, 3.650000000000000e+00, 3.650000000000000e+00, 3.650000000000000e+00, 3.650000000000000e+00, 3.650000000000000e+00, 3.650000000000000e+00, 3.650000000000000e+00, 3.650000000000000e+00, 4.036398292584895e+00, 3.650000000000000e+00, 3.650000000000000e+00, 2.907828795247821e+00, 3.650000000000000e+00, 3.650000000000000e+00, 3.091981287021697e+00, 3.650000000000000e+00, 3.650000000000000e+00, 3.650000000000000e+00, 3.650000000000000e+00, 3.650000000000000e+00, 3.650000000000000e+00, 3.650000000000000e+00, 3.650000000000000e+00, 1.042037624950488e+00, 3.650000000000000e+00, 3.650000000000000e+00, 3.650000000000000e+00, 4.672383503207165e+00, 3.767652833566271e+00, 3.784795251814153e+00, 3.650000000000000e+00, 3.650000000000000e+00, 3.650000000000000e+00, 3.650000000000000e+00, 3.650000000000000e+00, 3.650000000000000e+00, 3.650000000000000e+00, 3.650000000000000e+00, 2.938940248001331e+00, 3.650000000000000e+00, 3.650000000000000e+00, 3.650000000000000e+00, 3.494820635553384e+00, 1.971131238990275e+00, 4.794113194783995e+00, 4.980978774182482e+00, 3.650000000000000e+00, 3.626220743137831e+00, 3.650000000000000e+00, 4.617511979626394e+00, 2.885467471537105e+00, 3.650000000000000e+00, 3.872661396806095e+00, 1.667544037311760e+00, 3.483189997505256e+00, 3.650000000000000e+00, 3.114122110145602e+00, 3.005551851156503e+00, 3.721282531913216e+00, 2.396009214681641e+00, 1.726739736846058e+00, 3.391163986328630e+00, 3.304826175839847e+00, 3.345354541350277e+00, 2.495422008700940e+00, 3.384617052476474e+00, 3.331023407367558e+00, 2.186071805053257e+00, 4.326085801113908e+00, 3.650000000000000e+00, 3.650000000000000e+00, 3.650000000000000e+00, 3.650000000000000e+00, 3.796154290084229e+00, 4.219354000880486e+00, 2.627124771344536e+00, 3.650000000000000e+00, 3.650000000000000e+00, 3.650000000000000e+00, 3.650000000000000e+00, 3.650000000000000e+00, 3.650000000000000e+00, 3.650000000000000e+00, 3.776906837972990e+00, 3.650000000000000e+00, 3.650000000000000e+00, 3.650000000000000e+00, 3.650000000000000e+00, 3.650000000000000e+00, 2.544360703025184e+00, 3.650000000000000e+00, 2.958904701354085e+00, 3.650000000000000e+00, 3.650000000000000e+00, 3.650000000000000e+00, 3.650000000000000e+00, 3.650000000000000e+00, 3.650000000000000e+00, 2.015755635739902e+00, 3.650000000000000e+00, 3.650000000000000e+00, 3.650000000000000e+00, 3.650000000000000e+00, 3.509126904198264e+00, 5.594952892484608e+00, 3.650000000000000e+00, 3.650000000000000e+00, 2.211993416351271e+00, 3.650000000000000e+00, 3.650000000000000e+00, 3.650000000000000e+00, 3.650000000000000e+00, 3.650000000000000e+00, 2.002622304488686e+00, 3.650000000000000e+00, 3.650000000000000e+00, 3.650000000000000e+00, 3.650000000000000e+00, 3.650000000000000e+00, 3.171445226808979e+00, 3.650000000000000e+00, 3.650000000000000e+00, 3.650000000000000e+00, 3.272706971353441e+00, 3.650000000000000e+00, 3.650000000000000e+00, 3.650000000000000e+00, 3.650000000000000e+00, 4.927422308374140e+00, 3.650000000000000e+00, 3.650000000000000e+00, 3.650000000000000e+00, 3.650000000000000e+00, 3.779046966725510e+00, 3.859756882746870e+00, 3.650000000000000e+00, 3.650000000000000e+00, 3.650000000000000e+00, 3.650000000000000e+00, 2.959167356273918e+00, 3.650000000000000e+00, 3.650000000000000e+00, 3.650000000000000e+00, 1.848646559472983e+00, 3.650000000000000e+00, 3.650000000000000e+00, 3.650000000000000e+00, 3.650000000000000e+00, 3.325958363741598e+00, 3.296051022086607e+00, 3.650000000000000e+00, 3.650000000000000e+00, 3.650000000000000e+00, 3.650000000000000e+00, 3.650000000000000e+00, 2.521679512329163e+00, 3.650000000000000e+00, 3.650000000000000e+00, 2.287212555673385e+00, 3.650000000000000e+00, 3.650000000000000e+00, 3.650000000000000e+00, 3.650000000000000e+00, 3.650000000000000e+00, 2.621692339309117e+00, 3.650000000000000e+00, 3.650000000000000e+00, 3.650000000000000e+00, 3.650000000000000e+00, 3.650000000000000e+00, 3.650000000000000e+00, 3.485853193896165e+00, 3.650000000000000e+00, 4.762490261452751e+00, 3.650000000000000e+00, 3.650000000000000e+00, 3.650000000000000e+00, 3.650000000000000e+00, 3.559285109475631e+00, 3.303147637306364e+00, 3.650000000000000e+00, 3.650000000000000e+00, 3.650000000000000e+00, 3.650000000000000e+00, 3.650000000000000e+00, 3.650000000000000e+00, 3.650000000000000e+00, 3.306794600077581e+00, 2.981352040203393e-01, 1.630796490021771e+00, 1.646389560282904e+00, 1.181894540679994e+00, 1.077867286822758e+00, 1.461637425653959e+00, 9.552919113220214e-01, 1.223138972772945e+00, 1.229311557515954e+00, 5.071607157590445e-01, 1.161761889928293e+00, 6.238789757284765e-01, 1.265101803988727e+00, 6.823824670637407e-01, 1.177845122078731e+00, 1.879698797040068e-01, 1.197904208336978e-01, 1.404255319148936e+00, 1.404255319148936e+00, 1.404255319148936e+00, 1.404255319148936e+00, 2.803804351637390e+00, 1.404255319148936e+00, 1.404255319148936e+00, 1.404255319148936e+00, 1.404255319148936e+00, 1.404255319148936e+00, 1.404255319148936e+00, 1.404255319148936e+00, 1.404255319148936e+00, 4.869773551339616e-01, 1.404255319148936e+00, 1.463375512294423e+00, 1.404255319148936e+00, 1.404255319148936e+00, 1.404255319148936e+00, 1.404255319148936e+00, 1.404255319148936e+00, 1.404255319148936e+00, 1.404255319148936e+00, 1.404255319148936e+00, 1.404255319148936e+00, 1.404255319148936e+00, 1.404255319148936e+00, 1.404255319148936e+00, 3.340720646791914e-01, 1.404255319148936e+00, 1.404255319148936e+00, 4.368196166498128e-01, 1.404255319148936e+00, 1.404255319148936e+00, 1.202221970801935e+00, 1.404255319148936e+00, 1.404255319148936e+00, 1.404255319148936e+00, 1.404255319148936e+00, 1.404255319148936e+00, 1.404255319148936e+00, 1.404255319148936e+00, 1.404255319148936e+00, 5.289347953537277e-01, 1.404255319148936e+00, 1.404255319148936e+00, 1.404255319148936e+00, 1.270721074311327e+00, 1.488560559103670e+00, 2.503920625973405e+00, 1.404255319148936e+00, 1.404255319148936e+00, 1.404255319148936e+00, 1.404255319148936e+00, 1.404255319148936e+00, 1.404255319148936e+00, 1.404255319148936e+00, 1.404255319148936e+00, 2.886005208367434e+00, 1.404255319148936e+00, 1.404255319148936e+00, 1.404255319148936e+00, 1.123884957351128e+00, 3.411767653028687e-01, 1.898552465262123e+00, 1.437958489863919e+00, 1.404255319148936e+00, 1.301956677990614e+00, 1.404255319148936e+00, 1.427418009664318e+00, 1.377581377134067e+00, 1.404255319148936e+00, 1.532192191725402e+00, 1.063129535908501e-01, 1.609834250968661e+00, 1.404255319148936e+00, 1.149418148367718e+00, 1.161183527793635e+00, 1.344927042665590e+00, -5.593552523450858e-02, 1.561861255186228e+00, 1.153985950877060e+00, 1.397314508811153e+00, 1.226826290257196e+00, 1.327600179393510e+00, 1.039197105831193e+00, 9.242538236373430e-01, 1.089342933088908e+00, 1.028545737083900e+00, 1.404255319148936e+00, 1.404255319148936e+00, 1.404255319148936e+00, 1.404255319148936e+00, 1.464179418110672e+00, 1.246185596781381e+00, 1.014615967456853e+00, 1.404255319148936e+00, 1.404255319148936e+00, 1.404255319148936e+00, 1.404255319148936e+00, 1.404255319148936e+00, 1.404255319148936e+00, 1.404255319148936e+00, -7.070844371926639e-02, 1.404255319148936e+00, 1.404255319148936e+00, 1.404255319148936e+00, 1.404255319148936e+00, 1.404255319148936e+00, 1.334709594621290e+00, 1.404255319148936e+00, 5.475792933001177e-01, 1.404255319148936e+00, 1.404255319148936e+00, 1.404255319148936e+00, 1.404255319148936e+00, 1.404255319148936e+00, 1.404255319148936e+00, 9.793844474635940e-01, 1.404255319148936e+00, 1.404255319148936e+00, 1.404255319148936e+00, 1.404255319148936e+00, 1.546482663349123e+00, 1.799458790102045e+00, 1.404255319148936e+00, 1.404255319148936e+00, 6.840890012994615e-01, 1.404255319148936e+00, 1.404255319148936e+00, 1.404255319148936e+00, 1.404255319148936e+00, 1.404255319148936e+00, 1.736089465664424e-01, 1.404255319148936e+00, 1.404255319148936e+00, 1.404255319148936e+00, 1.404255319148936e+00, 1.404255319148936e+00, 1.085756194356549e+00, 1.404255319148936e+00, 1.404255319148936e+00, 1.404255319148936e+00, -7.486672491829298e-01, 1.404255319148936e+00, 1.404255319148936e+00, 1.404255319148936e+00, 1.404255319148936e+00, 9.884114521412375e-01, 1.404255319148936e+00, 1.404255319148936e+00, 1.404255319148936e+00, 1.404255319148936e+00, 1.459415306046904e+00, 1.318608762600701e+00, 1.404255319148936e+00, 1.404255319148936e+00, 1.404255319148936e+00, 1.404255319148936e+00, 1.718303977480328e+00, 1.404255319148936e+00, 1.404255319148936e+00, 1.404255319148936e+00, 5.717339235654737e-01, 1.404255319148936e+00, 1.404255319148936e+00, 1.404255319148936e+00, 1.404255319148936e+00, 1.739141268023102e+00, 3.714455409070102e-01, 1.404255319148936e+00, 1.404255319148936e+00, 1.404255319148936e+00, 1.404255319148936e+00, 1.404255319148936e+00, 1.260360654943397e+00, 1.404255319148936e+00, 1.404255319148936e+00, 1.220603584236161e-01, 1.404255319148936e+00, 1.404255319148936e+00, 1.404255319148936e+00, 1.404255319148936e+00, 1.404255319148936e+00, 1.599240421328624e+00, 1.404255319148936e+00, 1.404255319148936e+00, 1.404255319148936e+00, 1.404255319148936e+00, 1.404255319148936e+00, 1.404255319148936e+00, 4.134486680903281e-01, 1.404255319148936e+00, 7.553051919764870e-01, 1.404255319148936e+00, 1.404255319148936e+00, 1.404255319148936e+00, 1.404255319148936e+00, 1.460796629039232e+00, 1.292520554839799e+00, 1.404255319148936e+00, 1.404255319148936e+00, 1.404255319148936e+00, 1.404255319148936e+00, 1.404255319148936e+00, 1.404255319148936e+00, 1.404255319148936e+00, 8.630851524922410e-01, 5.696644641975260e+00, 2.474958862712486e+00, 2.813404845106987e+00, 3.527427440463967e+00, 3.870432795414673e+00, 2.750406182628503e+00, 4.052558818013002e+00, 3.787075556752855e+00, 3.604729476625308e+00, 2.879143244656528e+00, 3.213995219986854e+00, 4.159728198315373e+00, 2.962353356916243e+00, 4.745092873841772e+00, 4.451204084050022e+00, 5.680403246848435e+00, 2.960994913008616e+00, 3.650000000000000e+00, 3.650000000000000e+00, 3.650000000000000e+00, 3.650000000000000e+00, 3.134209204302563e+00, 3.650000000000000e+00, 3.650000000000000e+00, 3.650000000000000e+00, 3.650000000000000e+00, 3.650000000000000e+00, 3.650000000000000e+00, 3.650000000000000e+00, 3.650000000000000e+00, 2.848500038795028e+00, 3.650000000000000e+00, 3.193981461234402e+00, 3.650000000000000e+00, 3.650000000000000e+00, 3.650000000000000e+00, 3.650000000000000e+00, 3.650000000000000e+00, 3.650000000000000e+00, 3.650000000000000e+00, 3.650000000000000e+00, 3.650000000000000e+00, 3.650000000000000e+00, 3.650000000000000e+00, 3.650000000000000e+00, 1.844177026299962e+00, 3.650000000000000e+00, 3.650000000000000e+00, 3.469306003291989e+00, 3.650000000000000e+00, 3.650000000000000e+00, 3.539316049694289e+00, 3.650000000000000e+00, 3.650000000000000e+00, 3.650000000000000e+00, 3.650000000000000e+00, 3.650000000000000e+00, 3.650000000000000e+00, 3.650000000000000e+00, 3.650000000000000e+00, 2.080006154516110e+00, 3.650000000000000e+00, 3.650000000000000e+00, 3.650000000000000e+00, 2.314727920772396e+00, 3.553494940082166e+00, 3.470811888781264e+00, 3.650000000000000e+00, 3.650000000000000e+00, 3.650000000000000e+00, 3.650000000000000e+00, 3.650000000000000e+00, 3.650000000000000e+00, 3.650000000000000e+00, 3.650000000000000e+00, 1.058263429467507e-01, 3.650000000000000e+00, 3.650000000000000e+00, 3.650000000000000e+00, 3.911492637074853e+00, 6.274238726422242e+00, 3.313110532084324e+00, 3.803774919189383e+00, 3.650000000000000e+00, 3.606004900073392e+00, 3.650000000000000e+00, 3.809367934312351e+00, 3.725651406704850e+00, 3.650000000000000e+00, 3.573392936348176e+00, 7.490380395134975e+00, 2.762514700996651e+00, 3.650000000000000e+00, 3.811841676358806e+00, 3.768964398670803e+00, 3.636609714091743e+00, 3.756323156410939e+00, 2.245143353151336e+00, 3.732291114541747e+00, 3.631531930933969e+00, 3.141799112460176e+00, 2.728827261373136e+00, 4.150106811453341e+00, 3.818081802423714e+00, 3.109782763891798e+00, 3.296059701887464e+00, 3.650000000000000e+00, 3.650000000000000e+00, 3.650000000000000e+00, 3.650000000000000e+00, 3.489943844654683e+00, 3.143590924782054e+00, 1.878433883690205e+00, 3.650000000000000e+00, 3.650000000000000e+00, 3.650000000000000e+00, 3.650000000000000e+00, 3.650000000000000e+00, 3.650000000000000e+00, 3.650000000000000e+00, 2.758343922226850e+00, 3.650000000000000e+00, 3.650000000000000e+00, 3.650000000000000e+00, 3.650000000000000e+00, 3.650000000000000e+00, 3.361073484241360e+00, 3.650000000000000e+00, 4.783916905694020e+00, 3.650000000000000e+00, 3.650000000000000e+00, 3.650000000000000e+00, 3.650000000000000e+00, 3.650000000000000e+00, 3.650000000000000e+00, 2.469028042827980e+00, 3.650000000000000e+00, 3.650000000000000e+00, 3.650000000000000e+00, 3.650000000000000e+00, 3.572875793600825e+00, 3.547971504323667e+00, 3.650000000000000e+00, 3.650000000000000e+00, 3.276159860692598e+00, 3.650000000000000e+00, 3.650000000000000e+00, 3.650000000000000e+00, 3.650000000000000e+00, 3.650000000000000e+00, 3.899481051768330e+00, 3.650000000000000e+00, 3.650000000000000e+00, 3.650000000000000e+00, 3.650000000000000e+00, 3.650000000000000e+00, 3.543637201834154e+00, 3.650000000000000e+00, 3.650000000000000e+00, 3.650000000000000e+00, 4.810450958987942e+00, 3.650000000000000e+00, 3.650000000000000e+00, 3.650000000000000e+00, 3.650000000000000e+00, 3.669750211502987e+00, 3.650000000000000e+00, 3.650000000000000e+00, 3.650000000000000e+00, 3.650000000000000e+00, 3.519137702550146e+00, 2.808858502910692e+00, 3.650000000000000e+00, 3.650000000000000e+00, 3.650000000000000e+00, 3.650000000000000e+00, 3.116028703545875e+00, 3.650000000000000e+00, 3.650000000000000e+00, 3.650000000000000e+00, 3.168036648415672e+00, 3.650000000000000e+00, 3.650000000000000e+00, 3.650000000000000e+00, 3.650000000000000e+00, 3.608990134892339e+00, 6.739993098076059e+00, 3.650000000000000e+00, 3.650000000000000e+00, 3.650000000000000e+00, 3.650000000000000e+00, 3.650000000000000e+00, 2.753802195064170e+00, 3.650000000000000e+00, 3.650000000000000e+00, 2.956305345121006e+00, 3.650000000000000e+00, 3.650000000000000e+00, 3.650000000000000e+00, 3.650000000000000e+00, 3.650000000000000e+00, 3.135416885807602e+00, 3.650000000000000e+00, 3.650000000000000e+00, 3.650000000000000e+00, 3.650000000000000e+00, 3.650000000000000e+00, 3.650000000000000e+00, 3.469297986247476e+00, 3.650000000000000e+00, 3.873709454196185e+00, 3.650000000000000e+00, 3.650000000000000e+00, 3.650000000000000e+00, 3.650000000000000e+00, 3.556837615188853e+00, 3.095968726802234e+00, 3.650000000000000e+00, 3.650000000000000e+00, 3.650000000000000e+00, 3.650000000000000e+00, 3.650000000000000e+00, 3.650000000000000e+00, 3.650000000000000e+00, 2.160654187931885e+00, 3.812761901517634e-01, 1.410771989165938e+00, 4.985314617350527e-01, 9.234810576853332e-01, 3.653428539366192e-01, 3.858595120984125e-01, 7.420461086844721e-02, 2.530580516770073e-01, 1.289323631296445e+00, 1.223491449325362e+00, 5.074207813381323e-01, 2.243847855535085e-01, -2.548864175104820e-01, -1.156397966220770e+00, 1.056424759735992e-01, 8.921616567679110e-01, 1.247037931286896e+00, 1.404255319148936e+00, 1.404255319148936e+00, 1.404255319148936e+00, 1.404255319148936e+00, 1.973128703491083e+00, 1.404255319148936e+00, 1.404255319148936e+00, 1.404255319148936e+00, 1.404255319148936e+00, 1.404255319148936e+00, 1.404255319148936e+00, 1.404255319148936e+00, 1.404255319148936e+00, 1.145331243116492e+00, 1.404255319148936e+00, -1.731739563178367e-01, 1.404255319148936e+00, 1.404255319148936e+00, 1.404255319148936e+00, 1.404255319148936e+00, 1.404255319148936e+00, 1.404255319148936e+00, 1.404255319148936e+00, 1.404255319148936e+00, 1.404255319148936e+00, 1.404255319148936e+00, 1.404255319148936e+00, 1.404255319148936e+00, 1.295672218356176e-01, 1.404255319148936e+00, 1.404255319148936e+00, -1.513304841917234e-01, 1.404255319148936e+00, 1.404255319148936e+00, 1.142842054920442e+00, 1.404255319148936e+00, 1.404255319148936e+00, 1.404255319148936e+00, 1.404255319148936e+00, 1.404255319148936e+00, 1.404255319148936e+00, 1.404255319148936e+00, 1.404255319148936e+00, -4.079939487852434e-02, 1.404255319148936e+00, 1.404255319148936e+00, 1.404255319148936e+00, -8.877349277263749e-02, 1.672558552089484e+00, 1.129276355628449e+00, 1.404255319148936e+00, 1.404255319148936e+00, 1.404255319148936e+00, 1.404255319148936e+00, 1.404255319148936e+00, 1.404255319148936e+00, 1.404255319148936e+00, 1.404255319148936e+00, -2.296813485891332e-02, 1.404255319148936e+00, 1.404255319148936e+00, 1.404255319148936e+00, 1.450717369654860e+00, 1.012941498391495e+00, 1.119537522565049e+00, 5.095759930403430e-01, 1.404255319148936e+00, 1.867938775952165e+00, 1.404255319148936e+00, 8.946781032036558e-01, 2.192637617308407e+00, 1.404255319148936e+00, 1.266970635631082e+00, 4.357135342200778e-01, 4.181169050411929e-01, 1.404255319148936e+00, 1.057622915931718e-01, 8.150749307290399e-02, 6.069763255304508e-01, 4.410505842660717e-01, 5.884028678703012e-01, 1.227472461124297e-01, 1.647475535360914e-01, -1.851462109018327e-02, 4.015471650114043e-01, 8.857257734708754e-02, -6.953931910649025e-02, 5.757349871112031e-01, 1.412455590121458e+00, 1.404255319148936e+00, 1.404255319148936e+00, 1.404255319148936e+00, 1.404255319148936e+00, 1.231223216145719e+00, 1.218350194974403e+00, 1.562011465392336e+00, 1.404255319148936e+00, 1.404255319148936e+00, 1.404255319148936e+00, 1.404255319148936e+00, 1.404255319148936e+00, 1.404255319148936e+00, 1.404255319148936e+00, -1.162133033445618e-01, 1.404255319148936e+00, 1.404255319148936e+00, 1.404255319148936e+00, 1.404255319148936e+00, 1.404255319148936e+00, 1.169839687793996e+00, 1.404255319148936e+00, 8.333735655301494e-01, 1.404255319148936e+00, 1.404255319148936e+00, 1.404255319148936e+00, 1.404255319148936e+00, 1.404255319148936e+00, 1.404255319148936e+00, -1.337201827025432e-01, 1.404255319148936e+00, 1.404255319148936e+00, 1.404255319148936e+00, 1.404255319148936e+00, 2.020570453828130e+00, 1.313796892294781e+00, 1.404255319148936e+00, 1.404255319148936e+00, -9.457306793612482e-01, 1.404255319148936e+00, 1.404255319148936e+00, 1.404255319148936e+00, 1.404255319148936e+00, 1.404255319148936e+00, 3.449752421533351e-01, 1.404255319148936e+00, 1.404255319148936e+00, 1.404255319148936e+00, 1.404255319148936e+00, 1.404255319148936e+00, 6.674515066559562e-01, 1.404255319148936e+00, 1.404255319148936e+00, 1.404255319148936e+00, 7.544528027546548e-01, 1.404255319148936e+00, 1.404255319148936e+00, 1.404255319148936e+00, 1.404255319148936e+00, 2.781452377920242e-01, 1.404255319148936e+00, 1.404255319148936e+00, 1.404255319148936e+00, 1.404255319148936e+00, 1.083065856822327e+00, 1.188627370541948e+00, 1.404255319148936e+00, 1.404255319148936e+00, 1.404255319148936e+00, 1.404255319148936e+00, 3.856881528941910e-01, 1.404255319148936e+00, 1.404255319148936e+00, 1.404255319148936e+00, -2.718497091173350e-01, 1.404255319148936e+00, 1.404255319148936e+00, 1.404255319148936e+00, 1.404255319148936e+00, 2.172622859638140e+00, 1.150376234132020e+00, 1.404255319148936e+00, 1.404255319148936e+00, 1.404255319148936e+00, 1.404255319148936e+00, 1.404255319148936e+00, 4.947503157291745e-01, 1.404255319148936e+00, 1.404255319148936e+00, 1.005850645044298e+00, 1.404255319148936e+00, 1.404255319148936e+00, 1.404255319148936e+00, 1.404255319148936e+00, 1.404255319148936e+00, 1.046298143089208e+00, 1.404255319148936e+00, 1.404255319148936e+00, 1.404255319148936e+00, 1.404255319148936e+00, 1.404255319148936e+00, 1.404255319148936e+00, 1.322954510479674e-02, 1.404255319148936e+00, 9.554584292005249e-01, 1.404255319148936e+00, 1.404255319148936e+00, 1.404255319148936e+00, 1.404255319148936e+00, 1.367733967350296e+00, 1.210091972144261e+00, 1.404255319148936e+00, 1.404255319148936e+00, 1.404255319148936e+00, 1.404255319148936e+00, 1.404255319148936e+00, 1.404255319148936e+00, 1.404255319148936e+00, 1.212989408714890e+00, -2.403153675510381e+00, 2.129476328206033e+00, 2.930422100525870e+00, 2.151648905621362e+00, 1.536602685464230e+00, 2.207524222811273e+00, 9.467523636965447e+00, 4.945925920908311e+00, 2.582933914193036e+00, 1.765630278129739e+00, 2.401948795186117e+00, 5.362165396880126e+00, 3.836688705249597e+00, 4.167509827787998e+00, 4.968877142343429e+00, 4.204854074347248e+00, 4.732283582539640e+00, 3.650000000000000e+00, 3.650000000000000e+00, 3.650000000000000e+00, 3.650000000000000e+00, 3.018467268246769e+00, 3.650000000000000e+00, 3.650000000000000e+00, 3.650000000000000e+00, 3.650000000000000e+00, 3.650000000000000e+00, 3.650000000000000e+00, 3.650000000000000e+00, 3.650000000000000e+00, 7.260333165938724e+00, 3.650000000000000e+00, 1.138805925059751e+00, 3.650000000000000e+00, 3.650000000000000e+00, 3.650000000000000e+00, 3.650000000000000e+00, 3.650000000000000e+00, 3.650000000000000e+00, 3.650000000000000e+00, 3.650000000000000e+00, 3.650000000000000e+00, 3.650000000000000e+00, 3.650000000000000e+00, 3.650000000000000e+00, 3.148463640423197e+00, 3.650000000000000e+00, 3.650000000000000e+00, 1.674439830991215e+00, 3.650000000000000e+00, 3.650000000000000e+00, 3.540487242093896e+00, 3.650000000000000e+00, 3.650000000000000e+00, 3.650000000000000e+00, 3.650000000000000e+00, 3.650000000000000e+00, 3.650000000000000e+00, 3.650000000000000e+00, 3.650000000000000e+00, 5.508677754888186e+00, 3.650000000000000e+00, 3.650000000000000e+00, 3.650000000000000e+00, 3.891100182513844e+00, 3.209197917606993e+00, 3.330554240354940e+00, 3.650000000000000e+00, 3.650000000000000e+00, 3.650000000000000e+00, 3.650000000000000e+00, 3.650000000000000e+00, 3.650000000000000e+00, 3.650000000000000e+00, 3.650000000000000e+00, 7.321674628209812e+00, 3.650000000000000e+00, 3.650000000000000e+00, 3.650000000000000e+00, 3.320250793325469e+00, 2.929271477537861e+00, 2.976412688700720e+00, 3.239580222992532e+00, 3.650000000000000e+00, 2.880165540250526e+00, 3.650000000000000e+00, 3.114879329030328e+00, 3.327809606000776e+00, 3.650000000000000e+00, 4.228465249095472e+00, 9.564109668237773e+00, 4.033078135610535e+00, 3.650000000000000e+00, 7.658659634901359e+00, 5.759452229904483e+00, 4.484915514724265e+00, -2.651422626558054e+00, 1.068502135112733e+00, 5.836324702334086e+00, 5.440335619678958e+00, 4.632162505416767e+00, 1.522145127987544e+00, 6.078998464175874e+00, 4.470789885462058e+00, 1.278645592898322e+00, 3.239278323312352e+00, 3.650000000000000e+00, 3.650000000000000e+00, 3.650000000000000e+00, 3.650000000000000e+00, 3.731241528313042e+00, 2.496106328784303e+00, 2.541220887166070e+00, 3.650000000000000e+00, 3.650000000000000e+00, 3.650000000000000e+00, 3.650000000000000e+00, 3.650000000000000e+00, 3.650000000000000e+00, 3.650000000000000e+00, 4.583631814886663e+00, 3.650000000000000e+00, 3.650000000000000e+00, 3.650000000000000e+00, 3.650000000000000e+00, 3.650000000000000e+00, 3.651874892268842e+00, 3.650000000000000e+00, 2.490257220573743e+00, 3.650000000000000e+00, 3.650000000000000e+00, 3.650000000000000e+00, 3.650000000000000e+00, 3.650000000000000e+00, 3.650000000000000e+00, 3.206352193864718e+00, 3.650000000000000e+00, 3.650000000000000e+00, 3.650000000000000e+00, 3.650000000000000e+00, 2.525904073180153e+00, 3.309139334393845e+00, 3.650000000000000e+00, 3.650000000000000e+00, 3.228088986804756e+00, 3.650000000000000e+00, 3.650000000000000e+00, 3.650000000000000e+00, 3.650000000000000e+00, 3.650000000000000e+00, 2.730787592230300e+00, 3.650000000000000e+00, 3.650000000000000e+00, 3.650000000000000e+00, 3.650000000000000e+00, 3.650000000000000e+00, 2.837179224049339e+00, 3.650000000000000e+00, 3.650000000000000e+00, 3.650000000000000e+00, 2.595402066122262e+00, 3.650000000000000e+00, 3.650000000000000e+00, 3.650000000000000e+00, 3.650000000000000e+00, 2.612638696832994e+00, 3.650000000000000e+00, 3.650000000000000e+00, 3.650000000000000e+00, 3.650000000000000e+00, 3.954935897557863e+00, 2.785309281083755e+00, 3.650000000000000e+00, 3.650000000000000e+00, 3.650000000000000e+00, 3.650000000000000e+00, 2.275569488706765e+00, 3.650000000000000e+00, 3.650000000000000e+00, 3.650000000000000e+00, 4.792589592701889e+00, 3.650000000000000e+00, 3.650000000000000e+00, 3.650000000000000e+00, 3.650000000000000e+00, 2.348196367336129e+00, 3.886293456933063e+00, 3.650000000000000e+00, 3.650000000000000e+00, 3.650000000000000e+00, 3.650000000000000e+00, 3.650000000000000e+00, 2.203456524245990e+00, 3.650000000000000e+00, 3.650000000000000e+00, 1.274476239002633e+00, 3.650000000000000e+00, 3.650000000000000e+00, 3.650000000000000e+00, 3.650000000000000e+00, 3.650000000000000e+00, 2.545354590265867e+00, 3.650000000000000e+00, 3.650000000000000e+00, 3.650000000000000e+00, 3.650000000000000e+00, 3.650000000000000e+00, 3.650000000000000e+00, 6.068898908101188e+00, 3.650000000000000e+00, 5.048126763318676e+00, 3.650000000000000e+00, 3.650000000000000e+00, 3.650000000000000e+00, 3.650000000000000e+00, 3.681157326749954e+00, 2.451105644060413e+00, 3.650000000000000e+00, 3.650000000000000e+00, 3.650000000000000e+00, 3.650000000000000e+00, 3.650000000000000e+00, 3.650000000000000e+00, 3.650000000000000e+00, 2.496988060026842e+00, 7.392832057312153e-01, 3.184596811317506e+00, 6.322506666401965e-01, 4.263157921213795e-01, 4.047224492694583e-01, 3.543156211195287e-01, 1.047444297202752e+00, 1.187874947854681e+00, 4.484945089158219e-01, 4.028749154544472e-01, 3.577822175816622e-01, 1.179844472280918e+00, 5.935748876988362e-01, 4.953090083807777e-01, 1.213217508496920e+00, -1.937014544619411e-03, 2.093824372203403e+00, 1.404255319148936e+00, 1.404255319148936e+00, 1.404255319148936e+00, 1.404255319148936e+00, 3.341390802803844e+00, 1.404255319148936e+00, 1.404255319148936e+00, 1.404255319148936e+00, 1.404255319148936e+00, 1.404255319148936e+00, 1.404255319148936e+00, 1.404255319148936e+00, 1.404255319148936e+00, 5.697556221975532e-01, 1.404255319148936e+00, -2.845936132974422e-01, 1.404255319148936e+00, 1.404255319148936e+00, 1.404255319148936e+00, 1.404255319148936e+00, 1.404255319148936e+00, 1.404255319148936e+00, 1.404255319148936e+00, 1.404255319148936e+00, 1.404255319148936e+00, 1.404255319148936e+00, 1.404255319148936e+00, 1.404255319148936e+00, 6.069903289730145e-01, 1.404255319148936e+00, 1.404255319148936e+00, 4.596352134377713e-01, 1.404255319148936e+00, 1.404255319148936e+00, 1.436073559951733e+00, 1.404255319148936e+00, 1.404255319148936e+00, 1.404255319148936e+00, 1.404255319148936e+00, 1.404255319148936e+00, 1.404255319148936e+00, 1.404255319148936e+00, 1.404255319148936e+00, 3.037111699988100e-01, 1.404255319148936e+00, 1.404255319148936e+00, 1.404255319148936e+00, 8.976038448603418e-01, 7.046797867095882e-01, 7.946477780337368e-01, 1.404255319148936e+00, 1.404255319148936e+00, 1.404255319148936e+00, 1.404255319148936e+00, 1.404255319148936e+00, 1.404255319148936e+00, 1.404255319148936e+00, 1.404255319148936e+00, 7.378052778342151e-01, 1.404255319148936e+00, 1.404255319148936e+00, 1.404255319148936e+00, 5.376553373186314e-01, 2.980297326054624e+00, -3.172366195124988e-02, 1.066708104411375e+00, 1.404255319148936e+00, 5.361642934512195e-01, 1.404255319148936e+00, 1.221357923084728e+00, 6.521473772991153e-01, 1.404255319148936e+00, 1.669493599860939e+00, 8.218096327951835e-01, 1.014466335649914e+00, 1.404255319148936e+00, 7.371843432861649e-01, 8.682191919261576e-01, 1.369122533906491e-01, 2.266831088860638e+00, 1.337797769911243e+00, 6.724373617438767e-01, 9.476451685149457e-01, -5.218654139350101e-01, 7.642348682747050e-01, 6.771287948562020e-01, 3.619814257020215e-01, 1.552054335578553e+00, -3.690064637756538e-01, 1.404255319148936e+00, 1.404255319148936e+00, 1.404255319148936e+00, 1.404255319148936e+00, 9.578634645561797e-01, 1.013831893473380e+00, 3.053731254181622e+00, 1.404255319148936e+00, 1.404255319148936e+00, 1.404255319148936e+00, 1.404255319148936e+00, 1.404255319148936e+00, 1.404255319148936e+00, 1.404255319148936e+00, 7.241849340842844e-01, 1.404255319148936e+00, 1.404255319148936e+00, 1.404255319148936e+00, 1.404255319148936e+00, 1.404255319148936e+00, 2.056153528061462e+00, 1.404255319148936e+00, 1.744139956072939e-01, 1.404255319148936e+00, 1.404255319148936e+00, 1.404255319148936e+00, 1.404255319148936e+00, 1.404255319148936e+00, 1.404255319148936e+00, 1.589028563154469e+00, 1.404255319148936e+00, 1.404255319148936e+00, 1.404255319148936e+00, 1.404255319148936e+00, 6.579276253934996e-01, -2.148038869138796e-02, 1.404255319148936e+00, 1.404255319148936e+00, 1.105170117694155e+00, 1.404255319148936e+00, 1.404255319148936e+00, 1.404255319148936e+00, 1.404255319148936e+00, 1.404255319148936e+00, 1.768589905606158e-01, 1.404255319148936e+00, 1.404255319148936e+00, 1.404255319148936e+00, 1.404255319148936e+00, 1.404255319148936e+00, 1.464627880359189e+00, 1.404255319148936e+00, 1.404255319148936e+00, 1.404255319148936e+00, 1.060038493078960e+00, 1.404255319148936e+00, 1.404255319148936e+00, 1.404255319148936e+00, 1.404255319148936e+00, -1.669212251159370e-02, 1.404255319148936e+00, 1.404255319148936e+00, 1.404255319148936e+00, 1.404255319148936e+00, 1.470719913912885e+00, 2.430798967113998e+00, 1.404255319148936e+00, 1.404255319148936e+00, 1.404255319148936e+00, 1.404255319148936e+00, 2.046910009689183e+00, 1.404255319148936e+00, 1.404255319148936e+00, 1.404255319148936e+00, 1.147455940285531e+00, 1.404255319148936e+00, 1.404255319148936e+00, 1.404255319148936e+00, 1.404255319148936e+00, 1.445471218457327e-01, -4.282710116086789e-01, 1.404255319148936e+00, 1.404255319148936e+00, 1.404255319148936e+00, 1.404255319148936e+00, 1.404255319148936e+00, 1.429398129136208e+00, 1.404255319148936e+00, 1.404255319148936e+00, -6.465530481780067e-02, 1.404255319148936e+00, 1.404255319148936e+00, 1.404255319148936e+00, 1.404255319148936e+00, 1.404255319148936e+00, 1.487168076750428e+00, 1.404255319148936e+00, 1.404255319148936e+00, 1.404255319148936e+00, 1.404255319148936e+00, 1.404255319148936e+00, 1.404255319148936e+00, 4.126285551651985e-01, 1.404255319148936e+00, 3.224252917956708e-01, 1.404255319148936e+00, 1.404255319148936e+00, 1.404255319148936e+00, 1.404255319148936e+00, 1.509746105463214e+00, 2.189744220875423e+00, 1.404255319148936e+00, 1.404255319148936e+00, 1.404255319148936e+00, 1.404255319148936e+00, 1.404255319148936e+00, 1.404255319148936e+00, 1.404255319148936e+00, 2.710029318774589e+00, 3.169465138616215e+00, 1.981312342350034e+00, 3.143650015719372e+00, 5.417984048019854e+00, 5.514396291530925e+00, 6.058231666821689e+00, 3.860833766793919e+00, 3.529006850185103e+00, 5.375720983814115e+00, 5.478445555606605e+00, 4.552726678974153e+00, 3.615960283171393e+00, 4.987589491709100e+00, 5.014362916795811e+00, 3.986172796696482e+00, 3.132073352648236e+00, 1.552972043326963e+00, 3.650000000000000e+00, 3.650000000000000e+00, 3.650000000000000e+00, 3.650000000000000e+00, 3.744561019756422e+00, 3.650000000000000e+00, 3.650000000000000e+00, 3.650000000000000e+00, 3.650000000000000e+00, 3.650000000000000e+00, 3.650000000000000e+00, 3.650000000000000e+00, 3.650000000000000e+00, 2.052419714808935e+00, 3.650000000000000e+00, 5.888066152039529e+00, 3.650000000000000e+00, 3.650000000000000e+00, 3.650000000000000e+00, 3.650000000000000e+00, 3.650000000000000e+00, 3.650000000000000e+00, 3.650000000000000e+00, 3.650000000000000e+00, 3.650000000000000e+00, 3.650000000000000e+00, 3.650000000000000e+00, 3.650000000000000e+00, 3.835403543482027e+00, 3.650000000000000e+00, 3.650000000000000e+00, 3.870424150257572e+00, 3.650000000000000e+00, 3.650000000000000e+00, 2.982401454031804e+00, 3.650000000000000e+00, 3.650000000000000e+00, 3.650000000000000e+00, 3.650000000000000e+00, 3.650000000000000e+00, 3.650000000000000e+00, 3.650000000000000e+00, 3.650000000000000e+00, 5.110157672851750e+00, 3.650000000000000e+00, 3.650000000000000e+00, 3.650000000000000e+00, 4.183031327719233e+00, 4.566497900154887e+00, 4.937301519139044e+00, 3.650000000000000e+00, 3.650000000000000e+00, 3.650000000000000e+00, 3.650000000000000e+00, 3.650000000000000e+00, 3.650000000000000e+00, 3.650000000000000e+00, 3.650000000000000e+00, 1.849270167589651e+00, 3.650000000000000e+00, 3.650000000000000e+00, 3.650000000000000e+00, 4.348371755738341e+00, -5.611556387286325e-02, 6.958646823451980e+00, 4.121017465844955e+00, 3.650000000000000e+00, 4.520073676445588e+00, 3.650000000000000e+00, 4.005226618807527e+00, 4.196461510187198e+00, 3.650000000000000e+00, 4.002405913579475e+00, 1.996666428381058e+00, 4.342818404012167e+00, 3.650000000000000e+00, 3.175045777478963e+00, 2.974473291941963e+00, -1.661459217839835e+00, 2.056665895990300e+00, 7.278110810028062e-01, 3.547223565578426e+00, 2.901461694895571e+00, 4.963437139857239e+00, 6.597894875664565e-01, 2.765041169935202e+00, 2.464261257299540e+00, 1.225362823607978e+00, 4.167249622474496e+00, 3.650000000000000e+00, 3.650000000000000e+00, 3.650000000000000e+00, 3.650000000000000e+00, 4.081505122070650e+00, 1.811196751284556e+00, 6.787213334469264e-01, 3.650000000000000e+00, 3.650000000000000e+00, 3.650000000000000e+00, 3.650000000000000e+00, 3.650000000000000e+00, 3.650000000000000e+00, 3.650000000000000e+00, 3.176396959707352e+00, 3.650000000000000e+00, 3.650000000000000e+00, 3.650000000000000e+00, 3.650000000000000e+00, 3.650000000000000e+00, 2.722691901367464e+00, 3.650000000000000e+00, 3.355927948054824e+00, 3.650000000000000e+00, 3.650000000000000e+00, 3.650000000000000e+00, 3.650000000000000e+00, 3.650000000000000e+00, 3.650000000000000e+00, 2.732849634021030e+00, 3.650000000000000e+00, 3.650000000000000e+00, 3.650000000000000e+00, 3.650000000000000e+00, 5.115499465633113e+00, 4.367992318492017e+00, 3.650000000000000e+00, 3.650000000000000e+00, 2.087336135725801e+00, 3.650000000000000e+00, 3.650000000000000e+00, 3.650000000000000e+00, 3.650000000000000e+00, 3.650000000000000e+00, 6.958959084109981e+00, 3.650000000000000e+00, 3.650000000000000e+00, 3.650000000000000e+00, 3.650000000000000e+00, 3.650000000000000e+00, 2.392313806041324e+00, 3.650000000000000e+00, 3.650000000000000e+00, 3.650000000000000e+00, 3.860006804057972e+00, 3.650000000000000e+00, 3.650000000000000e+00, 3.650000000000000e+00, 3.650000000000000e+00, 4.082640936985119e+00, 3.650000000000000e+00, 3.650000000000000e+00, 3.650000000000000e+00, 3.650000000000000e+00, 3.885350568871145e+00, 1.267961633632313e+00, 3.650000000000000e+00, 3.650000000000000e+00, 3.650000000000000e+00, 3.650000000000000e+00, 1.455079468486906e+00, 3.650000000000000e+00, 3.650000000000000e+00, 3.650000000000000e+00, 3.015083724577837e+00, 3.650000000000000e+00, 3.650000000000000e+00, 3.650000000000000e+00, 3.650000000000000e+00, 4.803014869779913e+00, 5.856458140695112e+00, 3.650000000000000e+00, 3.650000000000000e+00, 3.650000000000000e+00, 3.650000000000000e+00, 3.650000000000000e+00, 2.013472176160171e+00, 3.650000000000000e+00, 3.650000000000000e+00, 2.247341463629139e+00, 3.650000000000000e+00, 3.650000000000000e+00, 3.650000000000000e+00, 3.650000000000000e+00, 3.650000000000000e+00, 2.551774791457500e+00, 3.650000000000000e+00, 3.650000000000000e+00, 3.650000000000000e+00, 3.650000000000000e+00, 3.650000000000000e+00, 3.650000000000000e+00, 3.713857744856422e+00, 3.650000000000000e+00, 4.864125487008733e+00, 3.650000000000000e+00, 3.650000000000000e+00, 3.650000000000000e+00, 3.650000000000000e+00, 3.485232030156037e+00, 1.647148796674697e+00, 3.650000000000000e+00, 3.650000000000000e+00, 3.650000000000000e+00, 3.650000000000000e+00, 3.650000000000000e+00, 3.650000000000000e+00, 3.650000000000000e+00, 1.837915818296713e+00, 4.051350095844806e-01, 1.018470420924513e+00, 1.103810764742567e+00, 8.756524694300000e-01, 7.651587467258979e-01, 4.808881237157658e-01, 5.022255269895450e-01, 6.136355966562848e-01, 8.665623191431173e-01, 5.866727131457325e-01, 6.582950404712495e-01, 2.483171632969076e-01, 7.928812382131100e-01, 6.642276911569750e-01, 5.787591585175815e-01, 1.196609422446332e+00, 1.312809168274678e+00, 1.404255319148936e+00, 1.404255319148936e+00, 1.404255319148936e+00, 1.404255319148936e+00, 1.360239801286038e-01, 1.404255319148936e+00, 1.404255319148936e+00, 1.404255319148936e+00, 1.404255319148936e+00, 1.404255319148936e+00, 1.404255319148936e+00, 1.404255319148936e+00, 1.404255319148936e+00, 3.112710587728076e-01, 1.404255319148936e+00, 8.246451673599130e-01, 1.404255319148936e+00, 1.404255319148936e+00, 1.404255319148936e+00, 1.404255319148936e+00, 1.404255319148936e+00, 1.404255319148936e+00, 1.404255319148936e+00, 1.404255319148936e+00, 1.404255319148936e+00, 1.404255319148936e+00, 1.404255319148936e+00, 1.404255319148936e+00, 8.249875796541510e-01, 1.404255319148936e+00, 1.404255319148936e+00, 2.138316077661032e-01, 1.404255319148936e+00, 1.404255319148936e+00, 5.744115666181521e-01, 1.404255319148936e+00, 1.404255319148936e+00, 1.404255319148936e+00, 1.404255319148936e+00, 1.404255319148936e+00, 1.404255319148936e+00, 1.404255319148936e+00, 1.404255319148936e+00, 8.531268067740588e-01, 1.404255319148936e+00, 1.404255319148936e+00, 1.404255319148936e+00, 1.350034943426209e-01, 1.185027999145361e+00, 7.442353282954208e-01, 1.404255319148936e+00, 1.404255319148936e+00, 1.404255319148936e+00, 1.404255319148936e+00, 1.404255319148936e+00, 1.404255319148936e+00, 1.404255319148936e+00, 1.404255319148936e+00, 4.900368759753797e-01, 1.404255319148936e+00, 1.404255319148936e+00, 1.404255319148936e+00, 1.861291240372572e+00, 5.191200246112295e-01, 8.912389824167213e-01, 9.391905578432055e-01, 1.404255319148936e+00, 1.683154663193031e+00, 1.404255319148936e+00, 9.756281688614267e-01, 7.138613463204236e-01, 1.404255319148936e+00, 1.250061272727451e+00, 3.634791573036425e-02, 1.180297182280464e+00, 1.404255319148936e+00, 7.266301579066879e-01, 8.141742123190598e-01, 8.010177915942606e-01, 5.449262491829270e-01, 7.007926811942909e-01, 7.502927085328659e-01, 8.809306687350695e-01, 1.151809867881805e+00, 7.291169141152707e-01, 7.946540477129604e-01, 5.925992061071655e-01, 5.703116158885323e-01, 1.129752260533722e+00, 1.404255319148936e+00, 1.404255319148936e+00, 1.404255319148936e+00, 1.404255319148936e+00, 1.405838058475949e+00, 8.944475851608360e-01, 9.041378157320055e-01, 1.404255319148936e+00, 1.404255319148936e+00, 1.404255319148936e+00, 1.404255319148936e+00, 1.404255319148936e+00, 1.404255319148936e+00, 1.404255319148936e+00, 7.864166512015549e-01, 1.404255319148936e+00, 1.404255319148936e+00, 1.404255319148936e+00, 1.404255319148936e+00, 1.404255319148936e+00, 3.685500936304878e-01, 1.404255319148936e+00, 2.686526823997356e-01, 1.404255319148936e+00, 1.404255319148936e+00, 1.404255319148936e+00, 1.404255319148936e+00, 1.404255319148936e+00, 1.404255319148936e+00, 8.977963481891625e-01, 1.404255319148936e+00, 1.404255319148936e+00, 1.404255319148936e+00, 1.404255319148936e+00, 1.303090499617208e+00, 6.751791831817604e-01, 1.404255319148936e+00, 1.404255319148936e+00, 2.963896664214289e-01, 1.404255319148936e+00, 1.404255319148936e+00, 1.404255319148936e+00, 1.404255319148936e+00, 1.404255319148936e+00, 2.180042685768798e-01, 1.404255319148936e+00, 1.404255319148936e+00, 1.404255319148936e+00, 1.404255319148936e+00, 1.404255319148936e+00, 8.667842916665955e-01, 1.404255319148936e+00, 1.404255319148936e+00, 1.404255319148936e+00, -2.501190412653325e-01, 1.404255319148936e+00, 1.404255319148936e+00, 1.404255319148936e+00, 1.404255319148936e+00, 1.038151058040994e+00, 1.404255319148936e+00, 1.404255319148936e+00, 1.404255319148936e+00, 1.404255319148936e+00, 1.308338407799582e+00, 1.061142651559856e+00, 1.404255319148936e+00, 1.404255319148936e+00, 1.404255319148936e+00, 1.404255319148936e+00, 4.258152740468195e-01, 1.404255319148936e+00, 1.404255319148936e+00, 1.404255319148936e+00, 3.439725904688852e-01, 1.404255319148936e+00, 1.404255319148936e+00, 1.404255319148936e+00, 1.404255319148936e+00, 6.420643022693027e-01, 3.696793450848037e-01, 1.404255319148936e+00, 1.404255319148936e+00, 1.404255319148936e+00, 1.404255319148936e+00, 1.404255319148936e+00, 1.359607630591346e-01, 1.404255319148936e+00, 1.404255319148936e+00, 4.490878062426314e-01, 1.404255319148936e+00, 1.404255319148936e+00, 1.404255319148936e+00, 1.404255319148936e+00, 1.404255319148936e+00, 1.111462632665188e+00, 1.404255319148936e+00, 1.404255319148936e+00, 1.404255319148936e+00, 1.404255319148936e+00, 1.404255319148936e+00, 1.404255319148936e+00, -7.521841985842996e-02, 1.404255319148936e+00, 9.565852414388132e-01, 1.404255319148936e+00, 1.404255319148936e+00, 1.404255319148936e+00, 1.404255319148936e+00, 1.416768609472290e+00, 1.322518372370923e+00, 1.404255319148936e+00, 1.404255319148936e+00, 1.404255319148936e+00, 1.404255319148936e+00, 1.404255319148936e+00, 1.404255319148936e+00, 1.404255319148936e+00, 1.405875526780542e+00, 4.181805981129807e+00, 2.548941140575179e+00, 2.688734752069454e+00, 3.541205434735599e+00, 3.726616818238474e+00, 3.073558137957217e+00, 3.636305681450993e+00, 3.469831050233186e+00, 3.587721909386550e+00, 2.980861358800987e+00, 3.271587735937844e+00, 3.409190651771046e+00, 3.065550053863367e+00, 4.263453626532063e+00, 4.044050063015163e+00, 2.487633365997676e+00, 2.212925847779431e+00, 3.650000000000000e+00, 3.650000000000000e+00, 3.650000000000000e+00, 3.650000000000000e+00, 4.130671025510262e+00, 3.650000000000000e+00, 3.650000000000000e+00, 3.650000000000000e+00, 3.650000000000000e+00, 3.650000000000000e+00, 3.650000000000000e+00, 3.650000000000000e+00, 3.650000000000000e+00, 1.518201941145724e+00, 3.650000000000000e+00, 3.050310802605663e+00, 3.650000000000000e+00, 3.650000000000000e+00, 3.650000000000000e+00, 3.650000000000000e+00, 3.650000000000000e+00, 3.650000000000000e+00, 3.650000000000000e+00, 3.650000000000000e+00, 3.650000000000000e+00, 3.650000000000000e+00, 3.650000000000000e+00, 3.650000000000000e+00, 2.523453991196339e+00, 3.650000000000000e+00, 3.650000000000000e+00, 4.156110295335854e+00, 3.650000000000000e+00, 3.650000000000000e+00, 2.772193419327285e+00, 3.650000000000000e+00, 3.650000000000000e+00, 3.650000000000000e+00, 3.650000000000000e+00, 3.650000000000000e+00, 3.650000000000000e+00, 3.650000000000000e+00, 3.650000000000000e+00, 2.585721658145675e+00, 3.650000000000000e+00, 3.650000000000000e+00, 3.650000000000000e+00, 3.844362734573712e+00, 3.768122611407795e+00, 3.454119306991005e+00, 3.650000000000000e+00, 3.650000000000000e+00, 3.650000000000000e+00, 3.650000000000000e+00, 3.650000000000000e+00, 3.650000000000000e+00, 3.650000000000000e+00, 3.650000000000000e+00, 2.251819957734322e+00, 3.650000000000000e+00, 3.650000000000000e+00, 3.650000000000000e+00, 3.496479434767209e+00, 4.801725144875376e+00, 3.099805005427833e+00, 3.542125124198884e+00, 3.650000000000000e+00, 3.439249086454077e+00, 3.650000000000000e+00, 3.547911475586946e+00, 3.905224845340321e+00, 3.650000000000000e+00, 3.549375941261848e+00, 8.221453085858631e+00, 2.641154644708263e+00, 3.650000000000000e+00, 3.587006869377787e+00, 3.390937356139797e+00, 3.237601843786292e+00, 1.339258110867809e+00, 1.604586270679642e+00, 3.549824527314174e+00, 3.302125390405310e+00, 2.808283273433551e+00, 1.856505661485854e+00, 3.645320405729914e+00, 3.581576129218182e+00, 2.707166585524963e+00, 3.155602352478646e+00, 3.650000000000000e+00, 3.650000000000000e+00, 3.650000000000000e+00, 3.650000000000000e+00, 3.621363293918865e+00, 2.981859726218886e+00, 2.466090131000314e+00, 3.650000000000000e+00, 3.650000000000000e+00, 3.650000000000000e+00, 3.650000000000000e+00, 3.650000000000000e+00, 3.650000000000000e+00, 3.650000000000000e+00, 2.403029535486982e+00, 3.650000000000000e+00, 3.650000000000000e+00, 3.650000000000000e+00, 3.650000000000000e+00, 3.650000000000000e+00, 2.754371984649738e+00, 3.650000000000000e+00, 5.633245501002705e+00, 3.650000000000000e+00, 3.650000000000000e+00, 3.650000000000000e+00, 3.650000000000000e+00, 3.650000000000000e+00, 3.650000000000000e+00, 2.374722365742544e+00, 3.650000000000000e+00, 3.650000000000000e+00, 3.650000000000000e+00, 3.650000000000000e+00, 4.241045837627239e+00, 3.510147017669181e+00, 3.650000000000000e+00, 3.650000000000000e+00, 4.063709549177909e+00, 3.650000000000000e+00, 3.650000000000000e+00, 3.650000000000000e+00, 3.650000000000000e+00, 3.650000000000000e+00, 8.519985256015278e-01, 3.650000000000000e+00, 3.650000000000000e+00, 3.650000000000000e+00, 3.650000000000000e+00, 3.650000000000000e+00, 3.245240539175446e+00, 3.650000000000000e+00, 3.650000000000000e+00, 3.650000000000000e+00, 5.487555051191150e+00, 3.650000000000000e+00, 3.650000000000000e+00, 3.650000000000000e+00, 3.650000000000000e+00, 3.397035353251869e+00, 3.650000000000000e+00, 3.650000000000000e+00, 3.650000000000000e+00, 3.650000000000000e+00, 3.435224543779366e+00, 2.505986138988854e+00, 3.650000000000000e+00, 3.650000000000000e+00, 3.650000000000000e+00, 3.650000000000000e+00, 1.902183594690398e+00, 3.650000000000000e+00, 3.650000000000000e+00, 3.650000000000000e+00, 2.971715650333842e+00, 3.650000000000000e+00, 3.650000000000000e+00, 3.650000000000000e+00, 3.650000000000000e+00, 4.263124590156704e+00, 5.881572708726278e+00, 3.650000000000000e+00, 3.650000000000000e+00, 3.650000000000000e+00, 3.650000000000000e+00, 3.650000000000000e+00, 5.335507399028437e+00, 3.650000000000000e+00, 3.650000000000000e+00, 2.512870154287732e+00, 3.650000000000000e+00, 3.650000000000000e+00, 3.650000000000000e+00, 3.650000000000000e+00, 3.650000000000000e+00, 3.192892610840599e+00, 3.650000000000000e+00, 3.650000000000000e+00, 3.650000000000000e+00, 3.650000000000000e+00, 3.650000000000000e+00, 3.650000000000000e+00, 4.602269752285001e+00, 3.650000000000000e+00, 3.700330605679383e+00, 3.650000000000000e+00, 3.650000000000000e+00, 3.650000000000000e+00, 3.650000000000000e+00, 3.669856984260359e+00, 3.201703484293625e+00, 3.650000000000000e+00, 3.650000000000000e+00, 3.650000000000000e+00, 3.650000000000000e+00, 3.650000000000000e+00, 3.650000000000000e+00, 3.650000000000000e+00, 3.165105014838813e+00, 2.498198535553884e+00, 1.707577039098488e+00, 9.891463178565646e-01, 8.749414857873811e-01, 1.408204977631429e+00, 1.754803004292699e+00, 3.130444574399970e-01, 3.798472094843928e-01, 1.583878424251149e+00, 2.647638395664953e+00, 1.238198102672258e+00, 3.939991535068756e-01, 1.018548858198882e+00, 6.407744659994158e-01, 3.802542058714954e-01, 8.028694940463920e-01, 1.451505435356017e+00, 1.404255319148936e+00, 1.404255319148936e+00, 1.404255319148936e+00, 1.404255319148936e+00, 3.263765489404215e+00, 1.404255319148936e+00, 1.404255319148936e+00, 1.404255319148936e+00, 1.404255319148936e+00, 1.404255319148936e+00, 1.404255319148936e+00, 1.404255319148936e+00, 1.404255319148936e+00, 3.702476734016103e-01, 1.404255319148936e+00, 6.974236534324916e-01, 1.404255319148936e+00, 1.404255319148936e+00, 1.404255319148936e+00, 1.404255319148936e+00, 1.404255319148936e+00, 1.404255319148936e+00, 1.404255319148936e+00, 1.404255319148936e+00, 1.404255319148936e+00, 1.404255319148936e+00, 1.404255319148936e+00, 1.404255319148936e+00, 1.043150237018068e+00, 1.404255319148936e+00, 1.404255319148936e+00, 1.550546753115988e-01, 1.404255319148936e+00, 1.404255319148936e+00, 6.620945837528822e-01, 1.404255319148936e+00, 1.404255319148936e+00, 1.404255319148936e+00, 1.404255319148936e+00, 1.404255319148936e+00, 1.404255319148936e+00, 1.404255319148936e+00, 1.404255319148936e+00, 1.330874370929904e+00, 1.404255319148936e+00, 1.404255319148936e+00, 1.404255319148936e+00, 1.458114326818015e+00, 1.697798045698778e+00, 9.995385691653893e-01, 1.404255319148936e+00, 1.404255319148936e+00, 1.404255319148936e+00, 1.404255319148936e+00, 1.404255319148936e+00, 1.404255319148936e+00, 1.404255319148936e+00, 1.404255319148936e+00, 1.113020084936998e+00, 1.404255319148936e+00, 1.404255319148936e+00, 1.404255319148936e+00, 1.645712100598333e+00, 1.570348213343788e+00, 1.220781162163076e+00, 7.950929174471753e-01, 1.404255319148936e+00, 1.414114049544301e+00, 1.404255319148936e+00, 4.223447587362422e-01, -3.556109964136782e-02, 1.404255319148936e+00, 8.796038373827254e-01, 6.185105436677639e-01, 1.386131133276371e+00, 1.404255319148936e+00, 5.854955388048870e-01, 1.095778080618332e+00, 1.315481059137106e+00, 1.885767351963279e+00, 1.310654326321723e+00, 1.049333343838230e+00, 1.113472247620997e+00, 7.150100042731942e-01, 4.753868820857206e-01, 3.801291974158448e-01, 9.919244561317021e-01, 1.384214014369763e+00, 7.352348640909476e-01, 1.404255319148936e+00, 1.404255319148936e+00, 1.404255319148936e+00, 1.404255319148936e+00, 1.618404495466789e+00, 1.753913229550135e+00, 1.752647830628075e+00, 1.404255319148936e+00, 1.404255319148936e+00, 1.404255319148936e+00, 1.404255319148936e+00, 1.404255319148936e+00, 1.404255319148936e+00, 1.404255319148936e+00, 9.313189194298979e-01, 1.404255319148936e+00, 1.404255319148936e+00, 1.404255319148936e+00, 1.404255319148936e+00, 1.404255319148936e+00, 7.761920831492243e-01, 1.404255319148936e+00, 3.319505979993163e+00, 1.404255319148936e+00, 1.404255319148936e+00, 1.404255319148936e+00, 1.404255319148936e+00, 1.404255319148936e+00, 1.404255319148936e+00, 7.166356611416478e-01, 1.404255319148936e+00, 1.404255319148936e+00, 1.404255319148936e+00, 1.404255319148936e+00, 6.772430074042922e-01, 1.028852100312219e+00, 1.404255319148936e+00, 1.404255319148936e+00, 4.530732769341938e-01, 1.404255319148936e+00, 1.404255319148936e+00, 1.404255319148936e+00, 1.404255319148936e+00, 1.404255319148936e+00, 4.150572885032769e-01, 1.404255319148936e+00, 1.404255319148936e+00, 1.404255319148936e+00, 1.404255319148936e+00, 1.404255319148936e+00, 7.656845968807453e-01, 1.404255319148936e+00, 1.404255319148936e+00, 1.404255319148936e+00, 5.619263403534055e-01, 1.404255319148936e+00, 1.404255319148936e+00, 1.404255319148936e+00, 1.404255319148936e+00, 6.173782455781242e-01, 1.404255319148936e+00, 1.404255319148936e+00, 1.404255319148936e+00, 1.404255319148936e+00, 1.411836238511712e+00, 1.780524674732606e+00, 1.404255319148936e+00, 1.404255319148936e+00, 1.404255319148936e+00, 1.404255319148936e+00, -7.509602946347496e-02, 1.404255319148936e+00, 1.404255319148936e+00, 1.404255319148936e+00, 3.573523661487216e-01, 1.404255319148936e+00, 1.404255319148936e+00, 1.404255319148936e+00, 1.404255319148936e+00, 8.351098022569498e-02, 1.058380827979421e+00, 1.404255319148936e+00, 1.404255319148936e+00, 1.404255319148936e+00, 1.404255319148936e+00, 1.404255319148936e+00, 8.643859999043987e-01, 1.404255319148936e+00, 1.404255319148936e+00, 1.120278838673335e+00, 1.404255319148936e+00, 1.404255319148936e+00, 1.404255319148936e+00, 1.404255319148936e+00, 1.404255319148936e+00, 1.360989592434988e+00, 1.404255319148936e+00, 1.404255319148936e+00, 1.404255319148936e+00, 1.404255319148936e+00, 1.404255319148936e+00, 1.404255319148936e+00, 1.044380171064834e-01, 1.404255319148936e+00, 1.045105131656564e+00, 1.404255319148936e+00, 1.404255319148936e+00, 1.404255319148936e+00, 1.404255319148936e+00, 1.395666438207695e+00, 1.257756283263211e+00, 1.404255319148936e+00, 1.404255319148936e+00, 1.404255319148936e+00, 1.404255319148936e+00, 1.404255319148936e+00, 1.404255319148936e+00, 1.404255319148936e+00, 8.833933331506311e-01, 2.128471490274273e+00, 2.733014126861308e+00, 2.858789303792237e+00, 3.140945478515492e+00, 3.150036101679438e+00, 2.694568105628087e+00, 6.295830874933887e+00, 4.952983084271646e+00, 2.917637120196916e+00, 2.507579324314329e+00, 2.812424645701924e+00, 5.367725303925784e+00, 3.602947746321609e+00, 2.385840614965914e+00, 7.357366487829585e+00, 3.113392777345152e+00, 4.046638472715972e+00, 3.650000000000000e+00, 3.650000000000000e+00, 3.650000000000000e+00, 3.650000000000000e+00, 3.423774601860506e+00, 3.650000000000000e+00, 3.650000000000000e+00, 3.650000000000000e+00, 3.650000000000000e+00, 3.650000000000000e+00, 3.650000000000000e+00, 3.650000000000000e+00, 3.650000000000000e+00, 5.103040094930509e+00, 3.650000000000000e+00, 5.640526651175580e+00, 3.650000000000000e+00, 3.650000000000000e+00, 3.650000000000000e+00, 3.650000000000000e+00, 3.650000000000000e+00, 3.650000000000000e+00, 3.650000000000000e+00, 3.650000000000000e+00, 3.650000000000000e+00, 3.650000000000000e+00, 3.650000000000000e+00, 3.650000000000000e+00, 2.003264386687297e+00, 3.650000000000000e+00, 3.650000000000000e+00, 2.586638869478741e+00, 3.650000000000000e+00, 3.650000000000000e+00, 3.922863460140464e+00, 3.650000000000000e+00, 3.650000000000000e+00, 3.650000000000000e+00, 3.650000000000000e+00, 3.650000000000000e+00, 3.650000000000000e+00, 3.650000000000000e+00, 3.650000000000000e+00, 2.764261228951851e+00, 3.650000000000000e+00, 3.650000000000000e+00, 3.650000000000000e+00, 3.033464511551498e+00, 3.481568175756097e+00, 3.778526977617622e+00, 3.650000000000000e+00, 3.650000000000000e+00, 3.650000000000000e+00, 3.650000000000000e+00, 3.650000000000000e+00, 3.650000000000000e+00, 3.650000000000000e+00, 3.650000000000000e+00, 2.986311961585034e+00, 3.650000000000000e+00, 3.650000000000000e+00, 3.650000000000000e+00, 3.773517531988060e+00, 3.169070296687785e+00, 4.019436298216438e+00, 3.193604086101746e+00, 3.650000000000000e+00, 3.783243194289009e+00, 3.650000000000000e+00, 3.804465110812554e+00, 3.892157989232181e+00, 3.650000000000000e+00, 3.695047556900065e+00, 5.133683262423037e+00, 3.498515974029835e+00, 3.650000000000000e+00, 4.586285537208893e+00, 3.997089859320931e+00, 3.891843048171979e+00, 2.312679775327757e+00, 2.963098326249656e+00, 3.903848803018199e+00, 4.080485458720693e+00, 4.454578250377116e+00, 3.271151759982263e+00, 6.363646577952403e+00, 3.894390659917542e+00, 3.069426802866198e+00, 6.380588760625792e+00, 3.650000000000000e+00, 3.650000000000000e+00, 3.650000000000000e+00, 3.650000000000000e+00, 2.982049453724485e+00, 3.694369754061013e+00, 3.333324200057268e+00, 3.650000000000000e+00, 3.650000000000000e+00, 3.650000000000000e+00, 3.650000000000000e+00, 3.650000000000000e+00, 3.650000000000000e+00, 3.650000000000000e+00, 2.003390693710802e+00, 3.650000000000000e+00, 3.650000000000000e+00, 3.650000000000000e+00, 3.650000000000000e+00, 3.650000000000000e+00, 3.976604607295920e+00, 3.650000000000000e+00, 2.519301625943521e+00, 3.650000000000000e+00, 3.650000000000000e+00, 3.650000000000000e+00, 3.650000000000000e+00, 3.650000000000000e+00, 3.650000000000000e+00, 3.686971672901475e+00, 3.650000000000000e+00, 3.650000000000000e+00, 3.650000000000000e+00, 3.650000000000000e+00, 4.560455252938658e+00, 4.432964516273386e+00, 3.650000000000000e+00, 3.650000000000000e+00, 3.989071485303681e+00, 3.650000000000000e+00, 3.650000000000000e+00, 3.650000000000000e+00, 3.650000000000000e+00, 3.650000000000000e+00, 1.189012243440276e+00, 3.650000000000000e+00, 3.650000000000000e+00, 3.650000000000000e+00, 3.650000000000000e+00, 3.650000000000000e+00, 4.745596760954510e+00, 3.650000000000000e+00, 3.650000000000000e+00, 3.650000000000000e+00, 1.438376502499259e+00, 3.650000000000000e+00, 3.650000000000000e+00, 3.650000000000000e+00, 3.650000000000000e+00, 4.484761105801829e+00, 3.650000000000000e+00, 3.650000000000000e+00, 3.650000000000000e+00, 3.650000000000000e+00, 3.501690083985369e+00, 3.168865630896846e+00, 3.650000000000000e+00, 3.650000000000000e+00, 3.650000000000000e+00, 3.650000000000000e+00, 4.762722647588356e+00, 3.650000000000000e+00, 3.650000000000000e+00, 3.650000000000000e+00, 5.384125142985122e+00, 3.650000000000000e+00, 3.650000000000000e+00, 3.650000000000000e+00, 3.650000000000000e+00, 4.765302425336829e+00, 3.866221628583008e+00, 3.650000000000000e+00, 3.650000000000000e+00, 3.650000000000000e+00, 3.650000000000000e+00, 3.650000000000000e+00, 4.298985781855419e+00, 3.650000000000000e+00, 3.650000000000000e+00, 2.222939608903762e+00, 3.650000000000000e+00, 3.650000000000000e+00, 3.650000000000000e+00, 3.650000000000000e+00, 3.650000000000000e+00, 3.553643263589156e+00, 3.650000000000000e+00, 3.650000000000000e+00, 3.650000000000000e+00, 3.650000000000000e+00, 3.650000000000000e+00, 3.650000000000000e+00, -3.416523515785110e-01, 3.650000000000000e+00, 4.542951519059922e+00, 3.650000000000000e+00, 3.650000000000000e+00, 3.650000000000000e+00, 3.650000000000000e+00, 3.489958825572175e+00, 3.204297727408179e+00, 3.650000000000000e+00, 3.650000000000000e+00, 3.650000000000000e+00, 3.650000000000000e+00, 3.650000000000000e+00, 3.650000000000000e+00, 3.650000000000000e+00, 3.698872414688529e+00, -1.291676798999492e-01, 6.902658654271283e-02, 8.964009311840336e-01, 7.393276039412662e-01, -6.614685463403264e-02, 3.180997158584346e-01, 1.097609036348509e+00, 1.111254329429460e+00, 1.768583395136282e-01, -7.954318464536740e-01, 7.372464403285471e-01, 1.076219687855484e+00, -2.899676749986289e-01, 4.836875632623455e-01, 1.120577082271167e+00, 1.516682551397039e-01, 2.108201823167724e+00, 1.404255319148936e+00, 1.404255319148936e+00, 1.404255319148936e+00, 1.404255319148936e+00, 3.352869751535397e+00, 1.404255319148936e+00, 1.404255319148936e+00, 1.404255319148936e+00, 1.404255319148936e+00, 1.404255319148936e+00, 1.404255319148936e+00, 1.404255319148936e+00, 1.404255319148936e+00, 3.424399049590779e-01, 1.404255319148936e+00, 5.359625646525746e-01, 1.404255319148936e+00, 1.404255319148936e+00, 1.404255319148936e+00, 1.404255319148936e+00, 1.404255319148936e+00, 1.404255319148936e+00, 1.404255319148936e+00, 1.404255319148936e+00, 1.404255319148936e+00, 1.404255319148936e+00, 1.404255319148936e+00, 1.404255319148936e+00, 3.864086122906939e-02, 1.404255319148936e+00, 1.404255319148936e+00, 5.177896097367702e-01, 1.404255319148936e+00, 1.404255319148936e+00, 1.187949082288037e+00, 1.404255319148936e+00, 1.404255319148936e+00, 1.404255319148936e+00, 1.404255319148936e+00, 1.404255319148936e+00, 1.404255319148936e+00, 1.404255319148936e+00, 1.404255319148936e+00, -2.146583267856228e-01, 1.404255319148936e+00, 1.404255319148936e+00, 1.404255319148936e+00, -2.387934707800962e-01, 1.437082651405196e+00, 8.341873040470484e-01, 1.404255319148936e+00, 1.404255319148936e+00, 1.404255319148936e+00, 1.404255319148936e+00, 1.404255319148936e+00, 1.404255319148936e+00, 1.404255319148936e+00, 1.404255319148936e+00, 3.068538329727489e-01, 1.404255319148936e+00, 1.404255319148936e+00, 1.404255319148936e+00, 1.108231999219741e+00, 9.708618616890952e-01, 2.456019960276390e-01, 5.205996482033932e-01, 1.404255319148936e+00, 3.445089777684364e-01, 1.404255319148936e+00, 6.179861271304795e-01, 8.970038298251286e-01, 1.404255319148936e+00, 1.299798237353287e+00, -9.047299314745591e-02, 1.111067785046766e+00, 1.404255319148936e+00, 7.436883915606762e-01, 9.144288671170099e-01, 9.133002501655311e-01, 1.294070389125890e+00, 1.968857180953544e+00, 7.687388706098423e-01, 8.681293211831772e-01, 7.082869158169748e-01, 1.349605181695594e+00, 5.990594414321631e-01, 6.257620817850434e-01, 1.202660285299632e+00, 3.674491161417233e-01, 1.404255319148936e+00, 1.404255319148936e+00, 1.404255319148936e+00, 1.404255319148936e+00, 1.011240440548661e+00, 5.811440725006524e-01, 4.758616249796280e-01, 1.404255319148936e+00, 1.404255319148936e+00, 1.404255319148936e+00, 1.404255319148936e+00, 1.404255319148936e+00, 1.404255319148936e+00, 1.404255319148936e+00, 1.637433131262628e+00, 1.404255319148936e+00, 1.404255319148936e+00, 1.404255319148936e+00, 1.404255319148936e+00, 1.404255319148936e+00, 1.735642124383998e+00, 1.404255319148936e+00, 1.749903161158039e+00, 1.404255319148936e+00, 1.404255319148936e+00, 1.404255319148936e+00, 1.404255319148936e+00, 1.404255319148936e+00, 1.404255319148936e+00, 1.535906069174503e+00, 1.404255319148936e+00, 1.404255319148936e+00, 1.404255319148936e+00, 1.404255319148936e+00, 1.587418620520023e+00, 2.313315554547203e-01, 1.404255319148936e+00, 1.404255319148936e+00, 4.701115546619839e-01, 1.404255319148936e+00, 1.404255319148936e+00, 1.404255319148936e+00, 1.404255319148936e+00, 1.404255319148936e+00, 1.162164694457537e-01, 1.404255319148936e+00, 1.404255319148936e+00, 1.404255319148936e+00, 1.404255319148936e+00, 1.404255319148936e+00, 4.820235946370108e-01, 1.404255319148936e+00, 1.404255319148936e+00, 1.404255319148936e+00, 1.102712095304111e+00, 1.404255319148936e+00, 1.404255319148936e+00, 1.404255319148936e+00, 1.404255319148936e+00, 2.939738216993291e-01, 1.404255319148936e+00, 1.404255319148936e+00, 1.404255319148936e+00, 1.404255319148936e+00, 1.200198488826955e+00, 8.094181998424211e-01, 1.404255319148936e+00, 1.404255319148936e+00, 1.404255319148936e+00, 1.404255319148936e+00, 6.210455921843691e-01, 1.404255319148936e+00, 1.404255319148936e+00, 1.404255319148936e+00, 5.476476587189331e-01, 1.404255319148936e+00, 1.404255319148936e+00, 1.404255319148936e+00, 1.404255319148936e+00, 1.373077054424295e+00, 4.541335201032334e-01, 1.404255319148936e+00, 1.404255319148936e+00, 1.404255319148936e+00, 1.404255319148936e+00, 1.404255319148936e+00, 2.099492100928125e+00, 1.404255319148936e+00, 1.404255319148936e+00, 9.081282097116054e-02, 1.404255319148936e+00, 1.404255319148936e+00, 1.404255319148936e+00, 1.404255319148936e+00, 1.404255319148936e+00, 7.286879032645180e-02, 1.404255319148936e+00, 1.404255319148936e+00, 1.404255319148936e+00, 1.404255319148936e+00, 1.404255319148936e+00, 1.404255319148936e+00, 3.347130713143286e-01, 1.404255319148936e+00, 4.048596118533090e-01, 1.404255319148936e+00, 1.404255319148936e+00, 1.404255319148936e+00, 1.404255319148936e+00, 1.109200402251332e+00, 3.561666466144937e-01, 1.404255319148936e+00, 1.404255319148936e+00, 1.404255319148936e+00, 1.404255319148936e+00, 1.404255319148936e+00, 1.404255319148936e+00, 1.404255319148936e+00, 9.209852439735133e-01, 7.466596556319256e+00, 5.183657326275108e-01, 2.768690442889697e+00, 1.795556315681708e+00, 4.171425426076217e+00, 9.857223225702182e-01, 3.665291003039904e+00, 3.405779874491293e+00, 2.575923959429795e+00, 6.728250810960972e+00, 2.559914960137075e+00, 3.498965336394239e+00, 5.827678808619231e+00, 1.540830494141331e+00, 3.916144648587419e+00, 2.450629968437286e+00, 2.694636193031070e-01, 3.650000000000000e+00, 3.650000000000000e+00, 3.650000000000000e+00, 3.650000000000000e+00, 3.709593171190893e+00, 3.650000000000000e+00, 3.650000000000000e+00, 3.650000000000000e+00, 3.650000000000000e+00, 3.650000000000000e+00, 3.650000000000000e+00, 3.650000000000000e+00, 3.650000000000000e+00, 2.845124919475927e+00, 3.650000000000000e+00, 2.352348156351580e+00, 3.650000000000000e+00, 3.650000000000000e+00, 3.650000000000000e+00, 3.650000000000000e+00, 3.650000000000000e+00, 3.650000000000000e+00, 3.650000000000000e+00, 3.650000000000000e+00, 3.650000000000000e+00, 3.650000000000000e+00, 3.650000000000000e+00, 3.650000000000000e+00, 2.128032758522007e+00, 3.650000000000000e+00, 3.650000000000000e+00, 2.020286222081951e+00, 3.650000000000000e+00, 3.650000000000000e+00, 2.951587796154733e+00, 3.650000000000000e+00, 3.650000000000000e+00, 3.650000000000000e+00, 3.650000000000000e+00, 3.650000000000000e+00, 3.650000000000000e+00, 3.650000000000000e+00, 3.650000000000000e+00, 3.133444469149397e+00, 3.650000000000000e+00, 3.650000000000000e+00, 3.650000000000000e+00, 1.090080265966105e+00, 3.633279648999806e+00, 2.296472500615169e+00, 3.650000000000000e+00, 3.650000000000000e+00, 3.650000000000000e+00, 3.650000000000000e+00, 3.650000000000000e+00, 3.650000000000000e+00, 3.650000000000000e+00, 3.650000000000000e+00, 1.626815377459192e+00, 3.650000000000000e+00, 3.650000000000000e+00, 3.650000000000000e+00, 3.562883170433976e+00, 7.835739876849028e-01, 3.392442884270304e+00, 4.138838108670145e+00, 3.650000000000000e+00, 3.456508069567643e+00, 3.650000000000000e+00, 3.986855729747843e+00, 2.777601416995165e+00, 3.650000000000000e+00, 3.705788608871363e+00, 3.615957375016239e+00, 3.753661031039746e+00, 3.650000000000000e+00, 3.321089148995904e+00, 3.112944839039159e+00, 3.502485850365999e+00, 2.071958171521219e+00, 1.702297349909459e+00, 3.440650412197960e+00, 3.311915357350795e+00, 3.374627151401532e+00, 2.078846920067777e+00, 3.574218614299955e+00, 3.228971436731420e+00, 1.659083363927162e+00, 5.316259181102987e+00, 3.650000000000000e+00, 3.650000000000000e+00, 3.650000000000000e+00, 3.650000000000000e+00, 3.844589414314297e+00, 2.662143027411115e+00, 1.750802072489773e+00, 3.650000000000000e+00, 3.650000000000000e+00, 3.650000000000000e+00, 3.650000000000000e+00, 3.650000000000000e+00, 3.650000000000000e+00, 3.650000000000000e+00, 8.811728178913937e-01, 3.650000000000000e+00, 3.650000000000000e+00, 3.650000000000000e+00, 3.650000000000000e+00, 3.650000000000000e+00, 2.659061475278457e+00, 3.650000000000000e+00, 2.165830969466356e+00, 3.650000000000000e+00, 3.650000000000000e+00, 3.650000000000000e+00, 3.650000000000000e+00, 3.650000000000000e+00, 3.650000000000000e+00, 2.449108997609732e+00, 3.650000000000000e+00, 3.650000000000000e+00, 3.650000000000000e+00, 3.650000000000000e+00, 3.508158236164126e+00, 3.871791930779082e+00, 3.650000000000000e+00, 3.650000000000000e+00, 2.409630857460231e+00, 3.650000000000000e+00, 3.650000000000000e+00, 3.650000000000000e+00, 3.650000000000000e+00, 3.650000000000000e+00, 2.525106322890491e+00, 3.650000000000000e+00, 3.650000000000000e+00, 3.650000000000000e+00, 3.650000000000000e+00, 3.650000000000000e+00, 3.575538836183670e+00, 3.650000000000000e+00, 3.650000000000000e+00, 3.650000000000000e+00, 3.377770123552399e+00, 3.650000000000000e+00, 3.650000000000000e+00, 3.650000000000000e+00, 3.650000000000000e+00, 6.062514414625984e+00, 3.650000000000000e+00, 3.650000000000000e+00, 3.650000000000000e+00, 3.650000000000000e+00, 3.601330337615151e+00, 2.967548943695017e+00, 3.650000000000000e+00, 3.650000000000000e+00, 3.650000000000000e+00, 3.650000000000000e+00, 2.306719728563094e+00, 3.650000000000000e+00, 3.650000000000000e+00, 3.650000000000000e+00, 2.239371959511718e+00, 3.650000000000000e+00, 3.650000000000000e+00, 3.650000000000000e+00, 3.650000000000000e+00, 2.902217782198450e+00, 3.309917053951127e+00, 3.650000000000000e+00, 3.650000000000000e+00, 3.650000000000000e+00, 3.650000000000000e+00, 3.650000000000000e+00, 2.543232883462559e+00, 3.650000000000000e+00, 3.650000000000000e+00, 1.318317280161546e+00, 3.650000000000000e+00, 3.650000000000000e+00, 3.650000000000000e+00, 3.650000000000000e+00, 3.650000000000000e+00, 3.858753795064649e+00, 3.650000000000000e+00, 3.650000000000000e+00, 3.650000000000000e+00, 3.650000000000000e+00, 3.650000000000000e+00, 3.650000000000000e+00, 2.843947582959402e+00, 3.650000000000000e+00, 5.659075154058169e+00, 3.650000000000000e+00, 3.650000000000000e+00, 3.650000000000000e+00, 3.650000000000000e+00, 3.793168991212690e+00, 2.998179505453000e+00, 3.650000000000000e+00, 3.650000000000000e+00, 3.650000000000000e+00, 3.650000000000000e+00, 3.650000000000000e+00, 3.650000000000000e+00, 3.650000000000000e+00, 3.198882856785201e+00, -2.757978652216435e-01, 1.258500740993721e+00, 9.756211766417631e-01, 9.852878550056821e-01, 1.443660110071791e+00, 2.999509355927116e+00, 3.077821905090790e-01, 9.122694385358735e-01, 1.280970831034424e+00, 1.745676564100409e+00, 7.784940993167923e-01, 5.062814493053016e-01, 7.631314444080494e-01, 1.237139805041580e+00, 7.466044662040600e-01, 2.585520922531032e-01, 6.408352041473442e-01, 1.404255319148936e+00, 1.404255319148936e+00, 1.404255319148936e+00, 1.404255319148936e+00, 1.436181790087875e+00, 1.404255319148936e+00, 1.404255319148936e+00, 1.404255319148936e+00, 1.404255319148936e+00, 1.404255319148936e+00, 1.404255319148936e+00, 1.404255319148936e+00, 1.404255319148936e+00, 5.144224155658730e-01, 1.404255319148936e+00, 1.071609506071978e-01, 1.404255319148936e+00, 1.404255319148936e+00, 1.404255319148936e+00, 1.404255319148936e+00, 1.404255319148936e+00, 1.404255319148936e+00, 1.404255319148936e+00, 1.404255319148936e+00, 1.404255319148936e+00, 1.404255319148936e+00, 1.404255319148936e+00, 1.404255319148936e+00, 3.971820741766972e-01, 1.404255319148936e+00, 1.404255319148936e+00, 8.071908447081357e-01, 1.404255319148936e+00, 1.404255319148936e+00, 7.367588986629054e-01, 1.404255319148936e+00, 1.404255319148936e+00, 1.404255319148936e+00, 1.404255319148936e+00, 1.404255319148936e+00, 1.404255319148936e+00, 1.404255319148936e+00, 1.404255319148936e+00, -1.801214442019070e-01, 1.404255319148936e+00, 1.404255319148936e+00, 1.404255319148936e+00, 2.410993203038897e-01, 1.974077881300233e+00, 1.333620464356109e+00, 1.404255319148936e+00, 1.404255319148936e+00, 1.404255319148936e+00, 1.404255319148936e+00, 1.404255319148936e+00, 1.404255319148936e+00, 1.404255319148936e+00, 1.404255319148936e+00, -6.220742664608099e-01, 1.404255319148936e+00, 1.404255319148936e+00, 1.404255319148936e+00, 1.252629831107567e+00, 3.918385284542018e-01, 7.167028665763031e-01, 4.543353990663686e-01, 1.404255319148936e+00, 1.276571459673471e+00, 1.404255319148936e+00, 6.634012121821051e-01, 2.043095013031095e+00, 1.404255319148936e+00, 6.505151879667587e-01, 6.226876707612484e-01, 9.812836456664247e-01, 1.404255319148936e+00, 2.904536985043316e-01, 9.093544236911351e-01, 1.847534925745584e+00, 5.831104022119245e-01, 6.330168572226730e-01, 4.659274288067836e-01, 1.456813119064857e+00, 1.944232237380740e+00, 5.965461522109292e-01, 5.851363589256245e-01, 7.486768241568971e-01, 6.279478006906839e-01, 3.641480826060735e-01, 1.404255319148936e+00, 1.404255319148936e+00, 1.404255319148936e+00, 1.404255319148936e+00, 1.787828822251929e+00, 7.351667986026470e-01, 8.543135944754880e-01, 1.404255319148936e+00, 1.404255319148936e+00, 1.404255319148936e+00, 1.404255319148936e+00, 1.404255319148936e+00, 1.404255319148936e+00, 1.404255319148936e+00, 3.088753980533890e-01, 1.404255319148936e+00, 1.404255319148936e+00, 1.404255319148936e+00, 1.404255319148936e+00, 1.404255319148936e+00, 7.848710524364990e-01, 1.404255319148936e+00, 1.412142756704017e+00, 1.404255319148936e+00, 1.404255319148936e+00, 1.404255319148936e+00, 1.404255319148936e+00, 1.404255319148936e+00, 1.404255319148936e+00, -2.338805679230054e-01, 1.404255319148936e+00, 1.404255319148936e+00, 1.404255319148936e+00, 1.404255319148936e+00, 1.782355729757849e+00, 7.740981700760995e-01, 1.404255319148936e+00, 1.404255319148936e+00, 7.334132348016217e-01, 1.404255319148936e+00, 1.404255319148936e+00, 1.404255319148936e+00, 1.404255319148936e+00, 1.404255319148936e+00, 1.953013485833494e-01, 1.404255319148936e+00, 1.404255319148936e+00, 1.404255319148936e+00, 1.404255319148936e+00, 1.404255319148936e+00, 1.082782581491587e+00, 1.404255319148936e+00, 1.404255319148936e+00, 1.404255319148936e+00, 1.005125285602877e+00, 1.404255319148936e+00, 1.404255319148936e+00, 1.404255319148936e+00, 1.404255319148936e+00, 8.757200898307745e-01, 1.404255319148936e+00, 1.404255319148936e+00, 1.404255319148936e+00, 1.404255319148936e+00, 1.682142774448323e+00, 8.892327359764788e-01, 1.404255319148936e+00, 1.404255319148936e+00, 1.404255319148936e+00, 1.404255319148936e+00, 6.233103837168891e-01, 1.404255319148936e+00, 1.404255319148936e+00, 1.404255319148936e+00, 4.463389060399521e-01, 1.404255319148936e+00, 1.404255319148936e+00, 1.404255319148936e+00, 1.404255319148936e+00, 1.254481965783231e+00, 4.631686214439206e-01, 1.404255319148936e+00, 1.404255319148936e+00, 1.404255319148936e+00, 1.404255319148936e+00, 1.404255319148936e+00, 3.326053830941122e-01, 1.404255319148936e+00, 1.404255319148936e+00, 4.065796661972257e-01, 1.404255319148936e+00, 1.404255319148936e+00, 1.404255319148936e+00, 1.404255319148936e+00, 1.404255319148936e+00, 7.820339962186388e-01, 1.404255319148936e+00, 1.404255319148936e+00, 1.404255319148936e+00, 1.404255319148936e+00, 1.404255319148936e+00, 1.404255319148936e+00, 2.297512455055279e+00, 1.404255319148936e+00, 8.458935729763040e-01, 1.404255319148936e+00, 1.404255319148936e+00, 1.404255319148936e+00, 1.404255319148936e+00, 1.400220557443726e+00, 1.592125562428780e+00, 1.404255319148936e+00, 1.404255319148936e+00, 1.404255319148936e+00, 1.404255319148936e+00, 1.404255319148936e+00, 1.404255319148936e+00, 1.404255319148936e+00, 1.780662262103960e+00, 2.067392843947581e+00, 2.136937090742329e+00, 3.284146590916957e+00, 3.061117871138932e+00, 2.409469328285597e+00, 2.387822158643966e+00, 7.163332391011698e+00, 3.406631764395486e+00, 3.508859781643254e+00, 2.380752067136269e+00, 4.451970331525720e+00, 4.222235271855617e+00, 3.575028064598118e+00, 4.053681380319648e+00, 4.180513454759617e+00, 3.627422703664410e+00, 2.246410716679565e+00, 3.650000000000000e+00, 3.650000000000000e+00, 3.650000000000000e+00, 3.650000000000000e+00, 3.276354611648708e+00, 3.650000000000000e+00, 3.650000000000000e+00, 3.650000000000000e+00, 3.650000000000000e+00, 3.650000000000000e+00, 3.650000000000000e+00, 3.650000000000000e+00, 3.650000000000000e+00, 3.034521784052711e+00, 3.650000000000000e+00, 4.399096996671465e+00, 3.650000000000000e+00, 3.650000000000000e+00, 3.650000000000000e+00, 3.650000000000000e+00, 3.650000000000000e+00, 3.650000000000000e+00, 3.650000000000000e+00, 3.650000000000000e+00, 3.650000000000000e+00, 3.650000000000000e+00, 3.650000000000000e+00, 3.650000000000000e+00, 3.956226691069678e+00, 3.650000000000000e+00, 3.650000000000000e+00, 4.373304534474157e+00, 3.650000000000000e+00, 3.650000000000000e+00, 4.757682486972803e+00, 3.650000000000000e+00, 3.650000000000000e+00, 3.650000000000000e+00, 3.650000000000000e+00, 3.650000000000000e+00, 3.650000000000000e+00, 3.650000000000000e+00, 3.650000000000000e+00, 2.876438311686944e+00, 3.650000000000000e+00, 3.650000000000000e+00, 3.650000000000000e+00, 4.171330150566132e+00, 2.881949423525882e+00, 3.346915827163606e+00, 3.650000000000000e+00, 3.650000000000000e+00, 3.650000000000000e+00, 3.650000000000000e+00, 3.650000000000000e+00, 3.650000000000000e+00, 3.650000000000000e+00, 3.650000000000000e+00, 3.059755390905943e+00, 3.650000000000000e+00, 3.650000000000000e+00, 3.650000000000000e+00, 3.334704964038312e+00, 5.066646730155565e+00, 4.201237790281770e+00, 3.818115720068956e+00, 3.650000000000000e+00, 3.510348726473085e+00, 3.650000000000000e+00, 3.807118385866778e+00, 3.055479620136426e+00, 3.650000000000000e+00, 3.966560656993051e+00, 5.114597476444247e-01, 3.740013455207741e+00, 3.650000000000000e+00, 5.819668202007380e+00, 3.669337757950444e+00, 2.844332027291962e+00, 5.137584104502976e+00, 4.727693824512524e+00, 4.359060103244265e+00, 3.116270529488127e+00, 2.732949164089939e+00, 4.932748332263602e+00, 4.376543369048178e+00, 3.396440390048949e+00, 5.099966976686293e+00, 3.484098322564548e+00, 3.650000000000000e+00, 3.650000000000000e+00, 3.650000000000000e+00, 3.650000000000000e+00, 3.339921725910098e+00, 3.257465092359728e+00, 4.658048678825301e+00, 3.650000000000000e+00, 3.650000000000000e+00, 3.650000000000000e+00, 3.650000000000000e+00, 3.650000000000000e+00, 3.650000000000000e+00, 3.650000000000000e+00, 2.802334020679885e+00, 3.650000000000000e+00, 3.650000000000000e+00, 3.650000000000000e+00, 3.650000000000000e+00, 3.650000000000000e+00, 4.433781698150716e+00, 3.650000000000000e+00, 3.695997714071882e+00, 3.650000000000000e+00, 3.650000000000000e+00, 3.650000000000000e+00, 3.650000000000000e+00, 3.650000000000000e+00, 3.650000000000000e+00, 3.198644627506722e+00, 3.650000000000000e+00, 3.650000000000000e+00, 3.650000000000000e+00, 3.650000000000000e+00, 3.091059087926759e+00, 4.404441339544904e+00, 3.650000000000000e+00, 3.650000000000000e+00, 2.565897777808908e+00, 3.650000000000000e+00, 3.650000000000000e+00, 3.650000000000000e+00, 3.650000000000000e+00, 3.650000000000000e+00, 3.923644776453070e+00, 3.650000000000000e+00, 3.650000000000000e+00, 3.650000000000000e+00, 3.650000000000000e+00, 3.650000000000000e+00, 3.488354730409669e+00, 3.650000000000000e+00, 3.650000000000000e+00, 3.650000000000000e+00, 2.978183489012783e+00, 3.650000000000000e+00, 3.650000000000000e+00, 3.650000000000000e+00, 3.650000000000000e+00, 3.523425998523538e+00, 3.650000000000000e+00, 3.650000000000000e+00, 3.650000000000000e+00, 3.650000000000000e+00, 3.313266237050050e+00, 3.668310482116913e+00, 3.650000000000000e+00, 3.650000000000000e+00, 3.650000000000000e+00, 3.650000000000000e+00, 2.823481187170712e+00, 3.650000000000000e+00, 3.650000000000000e+00, 3.650000000000000e+00, 2.247603529870597e+00, 3.650000000000000e+00, 3.650000000000000e+00, 3.650000000000000e+00, 3.650000000000000e+00, 3.320940321292994e+00, 6.032275958890566e+00, 3.650000000000000e+00, 3.650000000000000e+00, 3.650000000000000e+00, 3.650000000000000e+00, 3.650000000000000e+00, 4.398987773663272e+00, 3.650000000000000e+00, 3.650000000000000e+00, 3.048880237873126e+00, 3.650000000000000e+00, 3.650000000000000e+00, 3.650000000000000e+00, 3.650000000000000e+00, 3.650000000000000e+00, 3.931644406162018e+00, 3.650000000000000e+00, 3.650000000000000e+00, 3.650000000000000e+00, 3.650000000000000e+00, 3.650000000000000e+00, 3.650000000000000e+00, 3.121246758227030e+00, 3.650000000000000e+00, 2.619793362719689e+00, 3.650000000000000e+00, 3.650000000000000e+00, 3.650000000000000e+00, 3.650000000000000e+00, 3.638952624028723e+00, 4.213285551604384e+00, 3.650000000000000e+00, 3.650000000000000e+00, 3.650000000000000e+00, 3.650000000000000e+00, 3.650000000000000e+00, 3.650000000000000e+00, 3.650000000000000e+00, 2.683720747323641e+00, 5.792301258628564e-01, 6.932634028134155e-01, 9.767024357128542e-01, 4.709308950742780e-01, 5.617882013828469e-01, -1.830615836697797e-02, 5.344935330959290e-01, 4.017041236698929e-01, 6.190416982503723e-01, 4.873101150746954e-01, 2.280081805120124e-01, 3.352356449339687e-01, 5.875173097724675e-01, 8.903651944211086e-01, 5.555317958234782e-01, 1.648853388928292e-01, 1.556230037393767e+00, 1.404255319148936e+00, 1.404255319148936e+00, 1.404255319148936e+00, 1.404255319148936e+00, 1.724992777441534e+00, 1.404255319148936e+00, 1.404255319148936e+00, 1.404255319148936e+00, 1.404255319148936e+00, 1.404255319148936e+00, 1.404255319148936e+00, 1.404255319148936e+00, 1.404255319148936e+00, 3.797809303159245e-01, 1.404255319148936e+00, 2.060728027678876e-02, 1.404255319148936e+00, 1.404255319148936e+00, 1.404255319148936e+00, 1.404255319148936e+00, 1.404255319148936e+00, 1.404255319148936e+00, 1.404255319148936e+00, 1.404255319148936e+00, 1.404255319148936e+00, 1.404255319148936e+00, 1.404255319148936e+00, 1.404255319148936e+00, -1.252906490211680e-01, 1.404255319148936e+00, 1.404255319148936e+00, 1.064141559599750e-02, 1.404255319148936e+00, 1.404255319148936e+00, 9.276373322664628e-01, 1.404255319148936e+00, 1.404255319148936e+00, 1.404255319148936e+00, 1.404255319148936e+00, 1.404255319148936e+00, 1.404255319148936e+00, 1.404255319148936e+00, 1.404255319148936e+00, 2.059764074828679e-01, 1.404255319148936e+00, 1.404255319148936e+00, 1.404255319148936e+00, 5.215976554847673e-01, 2.346791656640641e+00, 8.471584283443843e-01, 1.404255319148936e+00, 1.404255319148936e+00, 1.404255319148936e+00, 1.404255319148936e+00, 1.404255319148936e+00, 1.404255319148936e+00, 1.404255319148936e+00, 1.404255319148936e+00, 3.104937623599361e-01, 1.404255319148936e+00, 1.404255319148936e+00, 1.404255319148936e+00, 1.495787675804861e+00, 1.363360400082051e+00, 7.406702245012075e-01, 1.511235518958024e-01, 1.404255319148936e+00, 1.672491488186796e+00, 1.404255319148936e+00, 3.713180600018992e-01, 1.698417079704200e+00, 1.404255319148936e+00, 7.105222592488556e-01, 6.588911750571624e-01, 5.688531250479071e-01, 1.404255319148936e+00, 5.703461048496526e-01, 7.132656651532689e-01, 6.828484461255603e-01, 1.241859337741473e+00, 1.084090827002484e+00, 7.337869958378571e-01, 8.783597672442542e-01, 6.348111812165890e-01, 6.435483706305359e-01, 6.584606201696892e-01, 8.302572338269807e-01, 8.113865719774346e-01, 7.274561650753277e-01, 1.404255319148936e+00, 1.404255319148936e+00, 1.404255319148936e+00, 1.404255319148936e+00, 1.838848789021743e+00, 9.852556916012566e-01, 1.079951954218378e+00, 1.404255319148936e+00, 1.404255319148936e+00, 1.404255319148936e+00, 1.404255319148936e+00, 1.404255319148936e+00, 1.404255319148936e+00, 1.404255319148936e+00, -4.735620982073056e-02, 1.404255319148936e+00, 1.404255319148936e+00, 1.404255319148936e+00, 1.404255319148936e+00, 1.404255319148936e+00, 9.680157466827835e-01, 1.404255319148936e+00, -6.110203803032003e-01, 1.404255319148936e+00, 1.404255319148936e+00, 1.404255319148936e+00, 1.404255319148936e+00, 1.404255319148936e+00, 1.404255319148936e+00, 1.199906148552207e-01, 1.404255319148936e+00, 1.404255319148936e+00, 1.404255319148936e+00, 1.404255319148936e+00, 2.547028082246242e+00, 9.373793097738575e-01, 1.404255319148936e+00, 1.404255319148936e+00, 7.675633244590083e-01, 1.404255319148936e+00, 1.404255319148936e+00, 1.404255319148936e+00, 1.404255319148936e+00, 1.404255319148936e+00, 3.269073165522907e-01, 1.404255319148936e+00, 1.404255319148936e+00, 1.404255319148936e+00, 1.404255319148936e+00, 1.404255319148936e+00, 7.115411806755232e-01, 1.404255319148936e+00, 1.404255319148936e+00, 1.404255319148936e+00, 4.083910204031552e-01, 1.404255319148936e+00, 1.404255319148936e+00, 1.404255319148936e+00, 1.404255319148936e+00, 6.763730984757661e-01, 1.404255319148936e+00, 1.404255319148936e+00, 1.404255319148936e+00, 1.404255319148936e+00, 1.968746319155155e+00, 8.142410783678904e-01, 1.404255319148936e+00, 1.404255319148936e+00, 1.404255319148936e+00, 1.404255319148936e+00, 5.249730242900696e-01, 1.404255319148936e+00, 1.404255319148936e+00, 1.404255319148936e+00, -6.378283076331735e-02, 1.404255319148936e+00, 1.404255319148936e+00, 1.404255319148936e+00, 1.404255319148936e+00, 1.969610443605861e+00, 1.191406645677227e+00, 1.404255319148936e+00, 1.404255319148936e+00, 1.404255319148936e+00, 1.404255319148936e+00, 1.404255319148936e+00, 1.439958619372225e-01, 1.404255319148936e+00, 1.404255319148936e+00, 2.743170364429556e-02, 1.404255319148936e+00, 1.404255319148936e+00, 1.404255319148936e+00, 1.404255319148936e+00, 1.404255319148936e+00, 8.783164766494220e-01, 1.404255319148936e+00, 1.404255319148936e+00, 1.404255319148936e+00, 1.404255319148936e+00, 1.404255319148936e+00, 1.404255319148936e+00, 3.761426721059806e-01, 1.404255319148936e+00, 4.311892616402073e-01, 1.404255319148936e+00, 1.404255319148936e+00, 1.404255319148936e+00, 1.404255319148936e+00, 1.838816958013535e+00, -1.263357386864319e-01, 1.404255319148936e+00, 1.404255319148936e+00, 1.404255319148936e+00, 1.404255319148936e+00, 1.404255319148936e+00, 1.404255319148936e+00, 1.404255319148936e+00, 2.675441979766037e-01, 2.167413292924315e+00, 2.285605372655498e+00, 2.219210590154389e+00, 3.961250274875349e+00, 3.880953883044493e+00, 1.102722195495121e+00, 3.294551626141265e+00, 2.976650854980731e+00, 3.792939804993558e+00, 1.619122509002568e+00, 4.194938065426103e+00, 3.434954516931774e+00, 4.044936013956508e+00, 3.922036210625357e+00, 3.824363155693600e+00, 1.788099744185581e+00, 3.122769436304503e+00, 3.650000000000000e+00, 3.650000000000000e+00, 3.650000000000000e+00, 3.650000000000000e+00, 3.385858950844971e+00, 3.650000000000000e+00, 3.650000000000000e+00, 3.650000000000000e+00, 3.650000000000000e+00, 3.650000000000000e+00, 3.650000000000000e+00, 3.650000000000000e+00, 3.650000000000000e+00, 6.950092457586495e+00, 3.650000000000000e+00, 4.533227068785651e+00, 3.650000000000000e+00, 3.650000000000000e+00, 3.650000000000000e+00, 3.650000000000000e+00, 3.650000000000000e+00, 3.650000000000000e+00, 3.650000000000000e+00, 3.650000000000000e+00, 3.650000000000000e+00, 3.650000000000000e+00, 3.650000000000000e+00, 3.650000000000000e+00, 2.486357598823220e+00, 3.650000000000000e+00, 3.650000000000000e+00, 3.180271268792461e+00, 3.650000000000000e+00, 3.650000000000000e+00, 2.919350446641487e+00, 3.650000000000000e+00, 3.650000000000000e+00, 3.650000000000000e+00, 3.650000000000000e+00, 3.650000000000000e+00, 3.650000000000000e+00, 3.650000000000000e+00, 3.650000000000000e+00, 1.018799989151970e+00, 3.650000000000000e+00, 3.650000000000000e+00, 3.650000000000000e+00, 2.343778356786735e+00, 2.160897992484141e+00, 2.758023037035455e+00, 3.650000000000000e+00, 3.650000000000000e+00, 3.650000000000000e+00, 3.650000000000000e+00, 3.650000000000000e+00, 3.650000000000000e+00, 3.650000000000000e+00, 3.650000000000000e+00, 9.329567213154374e-01, 3.650000000000000e+00, 3.650000000000000e+00, 3.650000000000000e+00, 3.347812744121338e+00, 2.994275092629092e+00, 3.184603120031340e+00, 2.293197129002413e+00, 3.650000000000000e+00, 3.033238158838716e+00, 3.650000000000000e+00, 2.793747879748535e+00, 2.827723488277725e+00, 3.650000000000000e+00, 3.152507103268820e+00, 4.473904058260106e+00, 3.131114079159034e+00, 3.650000000000000e+00, 3.438597629928760e+00, 3.723251236075332e+00, 3.259426072410795e+00, 2.136817447442180e+00, 2.742883724875697e+00, 3.422605022643828e+00, 3.301290932818947e+00, 3.410945491468753e+00, 2.800761393679287e+00, 3.557723274212210e+00, 3.475681217266811e+00, 2.504291764309940e+00, 2.306881360180514e+00, 3.650000000000000e+00, 3.650000000000000e+00, 3.650000000000000e+00, 3.650000000000000e+00, 2.171099323958625e+00, 3.314087378924017e+00, 3.357454641960012e+00, 3.650000000000000e+00, 3.650000000000000e+00, 3.650000000000000e+00, 3.650000000000000e+00, 3.650000000000000e+00, 3.650000000000000e+00, 3.650000000000000e+00, 2.609204372540799e+00, 3.650000000000000e+00, 3.650000000000000e+00, 3.650000000000000e+00, 3.650000000000000e+00, 3.650000000000000e+00, 3.111203812958709e+00, 3.650000000000000e+00, 4.261617763490925e+00, 3.650000000000000e+00, 3.650000000000000e+00, 3.650000000000000e+00, 3.650000000000000e+00, 3.650000000000000e+00, 3.650000000000000e+00, 9.441005610292768e-01, 3.650000000000000e+00, 3.650000000000000e+00, 3.650000000000000e+00, 3.650000000000000e+00, 2.403575599545106e+00, 3.272807053802472e+00, 3.650000000000000e+00, 3.650000000000000e+00, 3.380049608704788e+00, 3.650000000000000e+00, 3.650000000000000e+00, 3.650000000000000e+00, 3.650000000000000e+00, 3.650000000000000e+00, 1.054303312280702e+00, 3.650000000000000e+00, 3.650000000000000e+00, 3.650000000000000e+00, 3.650000000000000e+00, 3.650000000000000e+00, 2.579897673646878e+00, 3.650000000000000e+00, 3.650000000000000e+00, 3.650000000000000e+00, 9.206967574026445e-01, 3.650000000000000e+00, 3.650000000000000e+00, 3.650000000000000e+00, 3.650000000000000e+00, 3.529751656826265e+00, 3.650000000000000e+00, 3.650000000000000e+00, 3.650000000000000e+00, 3.650000000000000e+00, 2.303857594297350e+00, 2.567514616733624e+00, 3.650000000000000e+00, 3.650000000000000e+00, 3.650000000000000e+00, 3.650000000000000e+00, 3.851218782274020e+00, 3.650000000000000e+00, 3.650000000000000e+00, 3.650000000000000e+00, 1.953320062655793e+00, 3.650000000000000e+00, 3.650000000000000e+00, 3.650000000000000e+00, 3.650000000000000e+00, 2.703858864246570e+00, 3.269339495126610e+00, 3.650000000000000e+00, 3.650000000000000e+00, 3.650000000000000e+00, 3.650000000000000e+00, 3.650000000000000e+00, 4.089141925047634e+00, 3.650000000000000e+00, 3.650000000000000e+00, 6.365335276642282e+00, 3.650000000000000e+00, 3.650000000000000e+00, 3.650000000000000e+00, 3.650000000000000e+00, 3.650000000000000e+00, 3.005712024122668e+00, 3.650000000000000e+00, 3.650000000000000e+00, 3.650000000000000e+00, 3.650000000000000e+00, 3.650000000000000e+00, 3.650000000000000e+00, 1.735309364402803e+00, 3.650000000000000e+00, 3.792642921489525e+00, 3.650000000000000e+00, 3.650000000000000e+00, 3.650000000000000e+00, 3.650000000000000e+00, 3.105227881896854e+00, 2.827665681821585e+00, 3.650000000000000e+00, 3.650000000000000e+00, 3.650000000000000e+00, 3.650000000000000e+00, 3.650000000000000e+00, 3.650000000000000e+00, 3.650000000000000e+00, 3.787980249833341e+00}
	radial_coeffs
		0-0
			{-6.301904353939473e-01, 1.953117661079078e-01, 9.434231433505953e-01, -1.595131186841904e+00, 1.120574995412770e+00, -5.065368099900464e-01, 1.425433328105189e-01, -1.577935824507872e-02, 5.517315114385256e-01, 6.111453553214843e-01, 9.134169365137242e-01, 7.480124475151939e-01, 8.780415521954973e-01, 7.629280332989234e-01, 1.107242530909978e+00, 1.001454267966842e+00, 7.238763995776302e-01, 7.941063510420909e-01, 9.152606982333462e-01, 1.128480208027397e+00, 8.889076100676502e-01, 1.086570920154883e+00, 1.270771081245285e+00}
			{9.071118084342247e-01, -1.611673600849557e+00, 8.561344668300046e-01, -1.726292764986023e-01, -1.222936912472196e-02, -3.076967941697984e-02, 4.278274526549322e-02, -1.203555993410433e-02, 1.000000000000000e+00, 1.000000000000000e+00, 1.000000000000000e+00, 1.000000000000000e+00, 1.000000000000000e+00, 1.000000000000000e+00, 1.000000000000000e+00, 1.000000000000000e+00, 1.000000000000000e+00, 1.000000000000000e+00, 1.000000000000000e+00, 1.000000000000000e+00, 1.000000000000000e+00, 1.000000000000000e+00, 1.000000000000000e+00}
			{8.061612789005697e-01, -5.984105345495375e-01, -6.354411013498042e-01, 3.042756266427218e-01, -3.024420763005464e-01, 1.477165116163949e-02, 3.813347767785858e-02, -1.148474162167226e-02, 1.000000000000000e+00, 1.000000000000000e+00, 1.000000000000000e+00, 1.000000000000000e+00, 1.000000000000000e+00, 1.000000000000000e+00, 1.000000000000000e+00, 1.000000000000000e+00, 1.000000000000000e+00, 1.000000000000000e+00, 1.000000000000000e+00, 1.000000000000000e+00, 1.000000000000000e+00, 1.000000000000000e+00, 1.000000000000000e+00}
			{1.179858643205365e+00, -2.146105010099193e+00, 1.689125673491595e+00, -2.142962031833178e+00, 1.676603964825123e+00, -9.935121091025851e-01, 3.777136963067176e-01, -9.779522326408437e-02, 1.000000000000000e+00, 1.000000000000000e+00, 1.000000000000000e+00, 1.000000000000000e+00, 1.000000000000000e+00, 1.000000000000000e+00, 1.000000000000000e+00, 1.000000000000000e+00, 1.000000000000000e+00, 1.000000000000000e+00, 1.000000000000000e+00, 1.000000000000000e+00, 1.000000000000000e+00, 1.000000000000000e+00, 1.000000000000000e+00}
			{-1.202853518066375e+00, 2.530460603802126e+00, -2.148584112055084e+00, 1.834122904840971e+00, -1.056059423869501e+00, 5.819985488897199e-01, -1.720659847092559e-01, 7.950755639622169e-02, 1.000000000000000e+00, 1.000000000000000e+00, 1.000000000000000e+00, 1.000000000000000e+00, 1.000000000000000e+00, 1.000000000000000e+00, 1.000000000000000e+00, 1.000000000000000e+00, 1.000000000000000e+00, 1.000000000000000e+00, 1.000000000000000e+00, 1.000000000000000e+00, 1.000000000000000e+00, 1.000000000000000e+00, 1.000000000000000e+00}
			{-4.579084385986199e-01, 3.037082639395107e-01, 4.480270397242709e-02, 2.475436257791006e-01, -2.396623996360612e-01, 1.896496685436073e-01, -9.152760182090690e-02, 3.271577721775433e-02, 1.000000000000000e+00, 1.000000000000000e+00, 1.000000000000000e+00, 1.000000000000000e+00, 1.000000000000000e+00, 1.000000000000000e+00, 1.000000000000000e+00, 1.000000000000000e+00, 1.000000000000000e+00, 1.000000000000000e+00, 1.000000000000000e+00, 1.000000000000000e+00, 1.000000000000000e+00, 1.000000000000000e+00, 1.000000000000000e+00}
			{-1.668398100231888e-01, 8.878426995777031e-01, -1.434325009095394e+00, 1.800205500213734e+00, -1.268314978686443e+00, 6.184054980251974e-01, -1.982691457931993e-01, 3.544515029947244e-02, 1.000000000000000e+00, 1.000000000000000e+00, 1.000000000000000e+00, 1.000000000000000e+00, 1.000000000000000e+00, 1.000000000000000e+00, 1.000000000000000e+00, 1.000000000000000e+00, 1.000000000000000e+00, 1.000000000000000e+00, 1.000000000000000e+00, 1.000000000000000e+00, 1.000000000000000e+00, 1.000000000000000e+00, 1.000000000000000e+00}
			{2.914028832968404e-01, -3.215126895141186e-01, 5.875279512334020e-01, -3.324151286611413e-01, 4.320186862114390e-01, -8.284205644362377e-02, 1.237132326702110e-01, 8.731463200687388e-02, 1.000000000000000e+00, 1.000000000000000e+00, 1.000000000000000e+00, 1.000000000000000e+00, 1.000000000000000e+00, 1.000000000000000e+00, 1.000000000000000e+00, 1.000000000000000e+00, 1.000000000000000e+00, 1.000000000000000e+00, 1.000000000000000e+00, 1.000000000000000e+00, 1.000000000000000e+00, 1.000000000000000e+00, 1.000000000000000e+00}
			{2.078136695786763e-02, 5.164629704053416e-01, -9.228033805867637e-01, 3.479033832409168e-01, -1.473658031792702e-01, 1.270532995904541e-01, -9.127731067126725e-02, 4.449679032211380e-02, 1.000000000000000e+00, 1.000000000000000e+00, 1.000000000000000e+00, 1.000000000000000e+00, 1.000000000000000e+00, 1.000000000000000e+00, 1.000000000000000e+00, 1.000000000000000e+00, 1.000000000000000e+00, 1.000000000000000e+00, 1.000000000000000e+00, 1.000000000000000e+00, 1.000000000000000e+00, 1.000000000000000e+00, 1.000000000000000e+00}
alpha_moments_count = 238
alpha_index_basic_count = 30
alpha_index_basic = {{0, 0, 0, 0}, {1, 1, 0, 0}, {1, 0, 1, 0}, {1, 0, 0, 1}, {2, 2, 0, 0}, {2, 1, 1, 0}, {2, 1, 0, 1}, {2, 0, 2, 0}, {2, 0, 1, 1}, {2, 0, 0, 2}, {3, 0, 0, 0}, {4, 1, 0, 0}, {4, 0, 1, 0}, {4, 0, 0, 1}, {5, 2, 0, 0}, {5, 1, 1, 0}, {5, 1, 0, 1}, {5, 0, 2, 0}, {5, 0, 1, 1}, {5, 0, 0, 2}, {6, 0, 0, 0}, {7, 1, 0, 0}, {7, 0, 1, 0}, {7, 0, 0, 1}, {8, 2, 0, 0}, {8, 1, 1, 0}, {8, 1, 0, 1}, {8, 0, 2, 0}, {8, 0, 1, 1}, {8, 0, 0, 2}}
alpha_index_times_count = 436
