MTP
version = 1.1.0
potential_name = MTP_l2k3
scaling = 2.542675360602601e-02
L = 2
scaling_map = K
species_count = 53
potential_tag = 
radial_basis_type = RBChebyshev_sss
	min_dist = 1.450000000000000e+00
	max_dist = 6.000000000000000e+00
	radial_basis_size = 5
	radial_funcs_count = 9
shift_coeffs = {-1.797966354814010e+00, -3.827893929603578e+00, -8.835480992967155e-01, -1.219582984901427e+00, -3.698814706074661e+00, -5.945635667330763e+00, -5.223117374204884e-01, -1.949294613094970e+00, -4.575361575435528e+00, -6.328491756992295e+00, -6.754085216614166e+00, -7.475128282339992e+00, -8.038922880953315e+00, -7.246028282473771e+00, -6.523996623404895e+00, -5.514617018272228e+00, -3.423608468962787e+00, -1.211616327912350e+00, -3.083877050478403e+00, -4.850742998327378e+00, -1.432102029766183e+00, -4.772757794664003e+00, -6.943277990632734e+00, -9.171389791613500e+00, -1.010291876566372e+01, -8.795364303628400e+00, -6.834298668797416e+00, -4.356658648174198e+00, -2.732020036754548e+00, -7.910632764506194e-01, -2.545215039844297e+00, -3.911565829029544e+00, -4.593657831466710e+00, -4.737694898062335e+00, -4.851734799886490e+00, -4.880536290320120e+00, -4.848901814600781e+00, -4.846112869866975e+00, -4.867978691393514e+00, -4.827592898195238e+00, -4.766121178351054e+00, -4.769840295905009e+00, -4.717656847707310e+00, -4.719417166419424e+00, -6.884695393161460e+00, -9.199051211767323e+00, -1.090188211594132e+01, -1.101533069491436e+01, -1.112931197778158e+01, -9.701478082239255e+00, -7.078273039808657e+00, -3.547829354084231e+00, -3.526773591871263e+00}
scal_coeffs = {1.674772346129805e+00, 8.930041934842238e-01, 1.661302249274616e+00, 2.055954331693898e+00, 2.152026560371985e+00, 2.000229573503686e+00, 1.130604048359993e+00, 9.820593776037039e-01, 1.666585402503119e+00, 2.584910005721549e+00, 1.965557893493845e+00, 1.537652520663475e+00, 9.047569643300508e-01, 1.220794587634885e+00, 1.197050862579267e+00, 1.270012102983399e+00, 1.371185822938810e+00, 1.881115761205051e+00, 1.817694533602873e+00, 1.888742757683917e+00, 1.561427403789286e+00, 2.106951249333088e+00, 3.156011975692061e+00, 1.459201212853226e+00, 1.805078575043071e+00, 1.836946319585241e+00, 2.752370761421974e+00, 1.670883325166259e+00, 9.532699229513892e-01, 1.489293340301837e+00, 1.881167404622641e+00, 1.950096772811150e+00, 6.679425533242070e-01, 4.091586960541668e-01, 7.408665545886847e-01, 1.089510945862519e+00, 1.687415489843973e+00, 1.797057079379111e+00, 1.766623440637171e+00, 1.380948788347162e+00, 1.459404481475188e+00, 2.137281460270727e+00, 2.002102676174399e+00, 2.309017401362597e+00, 2.710689857641921e+00, 1.801833705595087e+00, 1.463555939417811e+00, 1.202912471606160e+00, 1.123740560268086e+00, 4.667735668387421e-01, 1.933144370988501e+00, 1.142631354219016e+00, 1.973710309559176e+00, 9.044802280420682e-01, 1.065456317389063e+00, 1.109240776610777e+00, 1.026074901490926e+00, 1.072469567751480e+00, 9.668763360177808e-01, 1.012686937129507e+00, 1.249667069055451e+00, 1.041985268223756e+00, 6.799133792505371e-01, 1.559948039091301e+00, 9.436893537135148e-01, 5.439204436782069e-01, 7.304461202184798e-01, 7.658141300837213e-01, 7.631220215081683e-01, 1.068481600427285e+00, 1.205422852197889e+00, 1.000287421865041e+00, 1.010059693221614e+00, 1.124885078367877e+00, 1.296094552992404e+00, 8.058653459150048e-01, 4.753414159962248e-01, 1.486387091055235e+00, 1.951937853405678e+00, 4.770662381949783e-01, 1.017093918343593e+00, 9.058964546533176e-01, 1.009202739362246e+00, 8.823735146025806e-01, 1.034110297916909e+00, 1.028023408596617e+00, 1.451070802543690e+00, 1.336008320960159e+00, 1.115209991217021e+00, 1.220007974823087e+00, 1.149685156256882e+00, 1.178686153286704e+00, 1.155112491750467e+00, 8.283683760389798e-01, 1.149218830607393e+00, 1.143172007420447e+00, 1.501221970025789e+00, 7.508760879015229e-01, 1.252314636132574e+00, 4.809945848735618e-01, 5.601856296539935e-01, 4.225612246712434e-01, 1.122010298721950e-01, 1.181768775885120e+00, 1.901126394719723e+00, 9.987829106227758e-01, 1.302434906685392e+00, 1.173896431401190e+00, 1.444275385268524e+00, 1.617969345127404e+00, 2.105825715998302e+00, 1.611705971539427e+00, 9.628321570503917e-01, 1.681382078216453e+00, 1.576621328186644e+00, 1.821662168173344e+00, 1.562606788450724e+00, 1.864406871603662e+00, 1.760255876235677e+00, 1.521536636506360e+00, 1.539394470344053e+00, 1.250700903441113e+00, 1.432694225984376e+00, 1.651512426138907e+00, 1.369052071169284e+00, 1.122941453798297e+00, 2.532423022950166e+00, 1.598102740334417e+00, 1.579820683455902e+00, 1.814828173411141e+00, 1.852826583012603e+00, 1.613523798778570e+00, 1.248333187402690e+00, 9.670488562586991e-01, 1.455760176278190e+00, 1.439812200238525e+00, 7.275201432678410e-01, 1.019544169776734e+00, 1.371876621124624e+00, 1.490753016587532e+00, 1.615536420784670e+00, 1.676241096422859e+00, 1.482127140514006e+00, 1.595449907638573e+00, 1.686299782542908e+00, 1.672835708927711e+00, 1.456639422518321e+00, 1.487520173015604e+00, 1.427771009720222e+00, 1.401802775080792e+00, 1.550653466977620e+00, 2.037600327191662e+00, 1.714650952936757e+00, 1.708242115716952e+00, 1.742576366847841e+00, 1.476212974062910e+00, 1.348641742037032e+00, 1.817311164423603e+00, 1.627137223976942e+00, 8.625093585192859e-01, 1.099309395437564e+00, 5.779794556074883e-01, 1.171207371853854e+00, 1.377458074655596e+00, 1.336977511323793e+00, 1.013640862678391e+00, 1.960068805215833e+00, 1.689229374423494e+00, 1.807132276266490e+00, 1.700829639926085e+00, 1.632209534784715e+00, 2.184692588290092e+00, 1.896668672087540e+00, 1.772500184394967e+00, 1.395852284542547e+00, 1.597607800533390e+00, 1.461822974335014e+00, 1.112662274340605e+00, 1.104069761366514e+00, 1.484565841505999e+00, 2.054668869508030e+00, 1.804294394491170e+00, 2.375639109430060e+00, 2.197439655455756e+00, 1.232202001817109e+00, 1.586143552288859e+00, 1.483682259606305e+00, 1.364859963660126e+00, 1.244138764077315e+00, 7.000258331108645e-01, 1.288754203124443e+00, 1.621243001937404e+00, 1.407601281965127e+00, 1.909066214682013e+00, 1.863544037868380e+00, 1.832522522595607e+00, 1.571515337741778e+00, 1.689065198868830e+00, 1.889035963469421e+00, 1.647337299842446e+00, 1.789822324332264e+00, 1.525443325473094e+00, 1.543007682127591e+00, 1.414372960096164e+00, 2.305942836454923e+00, 2.189739057320205e+00, 2.097261196639113e+00, 1.600248526898570e+00, 2.678512705407032e-02, 1.161334361592496e+00, 1.322252610251152e+00, 1.407653354128192e+00, 3.053526223419551e-01, 8.835782008069615e-01, 8.709412329826661e-01, 8.463007629375555e-01, 1.099084133993130e+00, 1.752760526415160e+00, 9.355904603885046e-01, 1.132925720873589e+00, 1.722318177762831e+00, 1.728910885656573e+00, 1.432657565209578e+00, 1.269795143230655e+00, 8.715746389168006e-01, 2.651865872116903e-01, -1.932138944469760e-02, 4.004071902433343e-01, 1.033297931935923e+00, 9.937770171789917e-01, 8.476923901591814e-01, 3.723123885533047e-01, 9.986536687839379e-01, 1.689169636154916e+00, 1.699483556789426e+00, 1.932992894231784e+00, 2.075922060692810e+00, 1.699598410761228e+00, 1.042222778251102e+00, 1.106773293979996e+00, 1.039021633569935e+00, 1.060825981286578e+00, 9.362787332757136e-01, 9.576052578784279e-01, 1.221546645912032e+00, 1.698831916252483e+00, 1.891213608943376e+00, 1.878610863051167e+00, 1.505260139118602e+00, 1.838011570027126e+00, 1.844005741537980e+00, 1.897781114051851e+00, 1.881817476483711e+00, 1.836874052020721e+00, 1.925350720345020e+00, 1.809418205520561e+00, 1.955873346986882e-01, 2.368930596695785e+00, 1.629390790026040e+00, 9.130850319229425e-01, 1.265949479793310e+00, -6.165158814259843e-02, 2.523062592643546e-01, 8.379217384922560e-01, 6.984086347665813e-01, 2.585996758969152e-01, 1.100805734381774e+00, 8.551928695014653e-01, 5.153556638493945e-01, 8.918032888994416e-01, 1.391346793445554e+00, 1.204975686409732e+00, 4.583745217153490e-01, 1.227165631387138e+00, 1.011967429324150e+00, 2.793059939508683e-01, 2.233748025197825e+00, 3.755360366686678e-01, 9.998084087276425e-02, 2.597732422821419e-01, 6.377361870548031e-01, 9.412125930109111e-01, 1.518246241067203e+00, 4.920825062206470e-01, 1.166177040215182e+00, 3.438079550655591e-01, 5.841340988384334e-01, 1.987101598804412e+00, 9.010883639096142e-01, 2.552180327178615e+00, 1.106883382550143e-01, 9.406106350359209e-02, 6.154947093477673e-02, 1.805178431903284e+00, 8.462237804263995e-01, 1.000531666853160e+00, 1.153910566824373e+00, 6.705500432853078e-01, 7.843102832657278e-01, 1.182981997396918e+00, 1.005096047008566e+00, 1.370786037895650e+00, 1.446910857280741e+00, 1.065428488354645e+00, 7.638181745767234e-01, 7.283789712808674e-01, 1.591242583080036e+00, 7.940926595566317e-01, 1.322330869716875e+00, 1.112344830528800e+00, 8.751200041969099e-01, 4.181294472498249e-01, 6.741309236380877e-01, 1.321565148324187e-01, 7.162880178733733e-02, 1.423686741657853e-01, 1.087693732645764e+00, 1.095389879335940e+00, 1.155787080513050e+00, 1.457848921502477e+00, 1.219756805299058e+00, 1.362488950161062e+00, 7.438024207826970e-01, 1.694721587464928e+00, 3.961540138295036e-01, 1.301919132521691e+00, 1.463655142277690e+00, 1.443330135835820e+00, 1.165623571110510e+00, 1.042620923491459e+00, 1.152674680042993e+00, 1.695508970733741e+00, 1.362387138266334e+00, 1.425663185142206e+00, 1.251961861308376e+00, 1.098141131760535e+00, 1.459505668669763e+00, 1.522513687096367e+00, 1.403828195911627e+00, 1.123732016667140e+00, 8.969014649240439e-01, 1.994675499711802e+00, 1.313470011873974e+00, 1.759085495216241e+00, 1.533906092719841e+00, 1.482895172900810e+00, 1.439039860235072e+00, 1.877129023852084e+00, 7.243738454838325e-01, 2.115007097971656e+00, 1.761150938153183e+00, 1.516793572303476e+00, 1.296587530511049e+00, 1.434097257051654e+00, 1.357534428490367e+00, 1.938698034630224e+00, 1.281875318768460e+00, 1.265258453682159e+00, 1.675687335072789e+00, 1.638120301308853e+00, 1.307699562665106e+00, 1.331779213503052e+00, 1.365537993640193e+00, 1.305416574597648e+00, 1.172491782352031e+00, 1.891041771642840e+00, 1.453248094417184e+00, 1.703476100470215e+00, 1.570617957983142e+00, 1.834357412476130e+00, 1.561269194887598e+00, 1.637251266870039e+00, 1.568590765691591e+00, 1.390138267030768e+00, 1.765728293450475e+00, 1.616437453928447e+00, 9.319227631501283e-01, 1.190937993851782e+00, 1.246343693803619e+00, 1.557329898191682e+00, 2.196873455154106e+00, 1.862692591143368e+00, 1.943136395014447e+00, 7.645197147192264e-01, 1.893546417602221e+00, 1.208657603413261e+00, 1.349871814816571e+00, 1.328553864053001e+00, 1.247611094470113e+00, 1.300650524992654e+00, 5.719601911146950e-01, 1.287278188966436e+00, 1.340189329618339e+00, 1.721544866338933e+00, 1.534598564078290e+00, 1.901433260211925e+00, 1.296805967159106e+00, 1.364115988837401e+00, 1.142981642435801e+00, 9.875281693523733e-01, 1.350013006251808e+00, 1.654676426584717e+00, 1.344149144440282e+00, 1.527619796443758e+00, 1.350842002253130e+00, 1.516536908489624e+00, 1.374428863654777e+00, 1.502863158324764e+00, 1.419056519370690e+00, 1.539590857297664e+00, 1.642210125937795e+00, 1.358630955808577e+00, 1.788672662697887e+00, 1.305482847288186e+00, 1.468281431334438e+00, 1.356779226706804e+00, 1.716910393028453e+00, 1.968961670030435e+00, 1.735998637813427e+00, 1.629949069333852e+00, 1.599484867814978e+00, 1.260978135970082e+00, 1.229730680368607e+00, 1.755256067342838e+00, 1.524701523254447e+00, 1.508612807691574e+00, 1.125455516592710e+00, 1.290527955904334e+00, 6.184657424506577e-01, 1.113466124494627e+00, 1.123034698474984e+00, 1.197951722007923e+00, 1.308771602445533e+00, 1.302319521007448e+00, 1.891598653877256e+00, 1.326259781950582e+00, 3.587889694289119e-01, 1.664632966923404e+00, 1.994325931589205e+00, 9.424013995446785e-01, 1.289525867104452e+00, 1.206001760837272e+00, 8.921834401833737e-01, 9.443416742544712e-01, 1.180482345665535e+00, 1.104926366766330e+00, 7.957903888994938e-01, 1.190158548590629e+00, 1.623555547313714e+00, 1.218933598935838e+00, 9.995227226091162e-01, 1.258242393657460e+00, 1.306694122713135e+00, 1.611630069935476e+00, 6.077910565006764e-01, 1.553905513384646e+00, 1.225766002325028e+00, 9.716445914894721e-01, 1.316886773833023e+00, 1.252760905300366e+00, 1.340598593619538e+00, 1.158859524616649e+00, 1.199332485491188e+00, 1.260243667107875e+00, 1.372417196559985e+00, 1.495882317824953e+00, 1.232924293827343e+00, 1.361632204483135e+00, 1.030448252981490e+00, 1.433202203519650e+00, 1.326460833421070e+00, 1.450693763857941e+00, 1.587067093566824e+00, 1.259083985074208e+00, 1.096807188793408e+00, 1.196859325916991e+00, 1.171801652067917e+00, 1.178685005323803e+00, 1.722303433612482e+00, 9.449266871932405e-01, 1.959529602886757e-01, 1.259316423914277e+00, 1.464569669118022e+00, 1.148440483288971e+00, 1.065371688368176e+00, 1.554971033235506e+00, 1.341466714435831e+00, 3.725508805658601e-01, 1.591132493767186e+00, 1.475172618890420e+00, 2.357175022128955e-01, 1.193379121771884e+00, 1.015416488461467e+00, 8.818472134034413e-01, 1.639923443540541e+00, 1.563072129913801e+00, 1.421167911583246e+00, 9.436490321161821e-01, 1.197706063852578e+00, 1.383520127681808e+00, 7.311010070434760e-01, 1.208964976861753e+00, 3.752185322556453e-02, 1.037903530536787e+00, 9.890171358456977e-01, 1.139642344352106e+00, 6.695476639089896e-01, 1.896059072299918e+00, 1.955234787659112e+00, 1.144270610345247e+00, 1.350685315992885e+00, 1.309550484403951e+00, 9.498596019300366e-01, 1.374477278037058e+00, 1.159199556109739e+00, 1.203476091574355e+00, 1.375828419702740e+00, 1.330721805185448e+00, 1.002517746546125e+00, 1.480687972659930e+00, 1.374177992515540e+00, 1.079733384459945e+00, 1.094644010391813e+00, 1.458351569118558e+00, 1.701535431576208e+00, 1.375699378667846e+00, 1.156121919157718e+00, 4.731873258922125e-01, 1.138379874873868e+00, 1.632469764843516e+00, 1.500967276513608e+00, 7.508942450916180e-01, 1.240395026111331e+00, 1.703016354384664e-01, 1.120620359494556e+00, 1.281533127439440e+00, 8.589923921596383e-01, 1.294304626726171e+00, 6.473565534933189e-01, 1.179489653415845e+00, 1.075795096871649e+00, 8.972419878830094e-01, 2.252673362578445e-01, 5.424017101446418e-01, 1.023411419863997e+00, 1.152615928994834e+00, 9.972305532380398e-01, 7.552813124244754e-01, 4.916136532646929e-01, 1.225640553894985e+00, 9.946098601016792e-01, 1.207917966127282e+00, 7.260169074385697e-01, 1.077367118957982e+00, 1.279828905553827e+00, 1.086827657945126e+00, 3.469850572250055e-01, 1.126206224910998e+00, 9.325520066676826e-01, 1.299929987243637e+00, 1.394520937787302e+00, 9.378764747292664e-01, 1.053435862841041e+00, 9.576391585487363e-01, 1.121267708126719e+00, 1.307517274944006e+00, 9.865405131777263e-01, 1.041192341662900e+00, 1.125878358658178e+00, 1.165248967069527e+00, 1.039736140720220e+00, 1.186264157771335e+00, 9.572614935498063e-01, 9.041252520492636e-01, -5.004691040987549e-02, 5.528227017442559e-01, 2.853698304381403e-01, 1.269945476478199e+00, 1.768321494076375e+00, 1.205592804318749e+00, 1.273747472845687e-01, 8.234259200422659e-01, 8.760040409993002e-01, 1.546995346714482e+00, 4.545321900334577e-01, 1.165759479284297e+00, 2.945263118735333e-01, 1.698687435720159e+00, 1.282588396665018e+00, 1.015178168520352e+00, 1.245145760587478e+00, 1.309818406840188e+00, 8.195189610790250e-01, 2.894921761372417e-01, 3.587796346765774e-01, 1.530301324236714e-01, 1.145378573134501e+00, 1.470990327801214e+00, 9.264146454791740e-01, 1.374331037990543e+00, 1.268224199459944e+00, 1.445035166364285e+00, 4.826717588896592e-02, 1.226640102561964e+00, 1.359580393361324e+00, 9.509975530198539e-01, 1.279642835393164e-01, 4.422714792077006e-01, 5.174256103858687e-01, 7.478075456089075e-01, 3.801319853777322e-01, 1.048477241552594e+00, 1.402057499677811e+00, 1.636156430303917e+00, 1.057421298494674e+00, 1.082231115842220e+00, 1.187579770022864e+00, 7.500698439103634e-01, 1.104539911890936e+00, 1.744806722057712e+00, 1.239100741324289e+00, 1.349149088883610e+00, 1.388079888239815e+00, 1.199599313772242e+00, 1.063181713058842e+00, 1.307367849737134e+00, 1.463836916814242e+00, 1.470282621727218e+00, 5.685359061501871e-01, 5.241790935043369e-01, 4.877819360980689e-01, 5.440530240012251e-01, 3.371023012942588e-01, 1.744726022404105e+00, 7.917228386004463e-01, 9.198873696731037e-01, 1.617908706973611e+00, 1.470432621192099e+00, 1.375810004758911e+00, 2.721744406862079e-01, 7.002098913501739e-01, 1.802644867195266e+00, 7.811800810128795e-01, 1.464855335019950e+00, 1.407514408512000e+00, 9.289355318331015e-02, 8.991512518721194e-01, 6.201346177423128e-01, 1.971060644594338e-01, 6.672475386157263e-01, 8.431747718643645e-01, 1.627521657810596e+00, 1.563707289801418e+00, 5.879992170727160e-01, 1.185810214567768e+00, 2.158816220530411e+00, 1.453240544801444e+00, 1.271216535999560e+00, 1.305441524536224e+00, 3.699965930694759e-01, 2.736338393349466e-01, 2.136458982452577e+00, 1.290609066332054e+00, 3.544058739166592e-01, 7.713796739715971e-01, 1.922062894912679e+00, 1.753823606881050e+00, 7.417994863545549e-01, 1.052948129316435e+00, 1.018116214278059e+00, 7.092770997642592e-01, 1.543770020629146e+00, 5.243639060748823e-01, 7.082794092709278e-01, 5.947306626219055e-01, 1.034889381757033e+00, 1.077031447218754e+00, 3.761965026145143e-01, 1.554179315389849e+00, 1.178023837489017e+00, 1.529146274576958e+00, 3.192888112675734e-01, 2.930574867326875e-01, 2.237044908693094e-01, 2.450180129568013e-01, 1.294622638379512e+00, 7.946593839264595e-01, 1.598986285647991e+00, 8.666220677809308e-01, 1.077038941921298e+00, 1.510023648399501e+00, 1.142836814720771e+00, 8.706101395501454e-01, 1.910476345234949e+00, 1.788595646190298e+00, 4.939254736467349e-01, 9.020532462869187e-01, 4.957765665863272e-01, 4.350738321559381e-01, 1.445440019315520e+00, 3.693690276955006e-01, 1.329346879490922e-01, 5.064556424042462e-01, 6.219060786406333e-01, 4.156297460619630e-01, 1.993771925974324e+00, 1.156232732738614e+00, 2.187485117570581e+00, 1.614661198775651e+00, 1.181966974736024e+00, 1.329572722487813e+00, 6.312299990147410e-01, 3.274062868402992e-01, 3.361737628730481e-01, 1.313459710456066e+00, 1.072967305785019e+00, 9.836438409953772e-01, 1.272000561410559e+00, 1.245746223101044e+00, 1.274225055820363e+00, 1.939698486254501e+00, 5.158248676622903e-01, 1.239017944655842e+00, 7.538450263651293e-01, 1.311350920397881e+00, 3.401353572666528e-01, 1.309710873138674e+00, 9.821694801216515e-01, 1.534694504021873e+00, 4.009522302160215e-01, 1.031466074279609e+00, 7.837393646295461e-01, 1.576861081293395e+00, 1.834051885524706e+00, 1.031352707670140e+00, 1.763601196357539e+00, 8.927119985661407e-01, 6.647049060163497e-01, 4.736850531822545e-01, 1.736944244577882e+00, 1.313739288626103e+00, 1.186487978053833e+00, 7.499543784376388e-01, 1.588779557665926e+00, 7.076003476713756e-01, 7.268764802915646e-01, 1.593356493849353e+00, 1.030599983264706e+00, 8.324334405321784e-01, 9.214159445466075e-01, 4.404665444974590e-01, 7.327088921590014e-01, 7.862624525418495e-01, 6.351717072790866e-01, 8.493146559355585e-01, 9.814742144521645e-01, 8.405723632116973e-01, 9.030057024129273e-01, 3.556686452442473e-01, 9.250960151677421e-01, 1.718791746844097e+00, 1.371797960165343e+00, 1.034397338583716e+00, 5.583424188363653e-01, 7.697402815454933e-01, 8.817762485648850e-01, 1.221389707839352e+00, 9.997158759432926e-01, 1.224158016162144e+00, 6.526718007298798e-01, 8.214947605580819e-01, 9.851208728207207e-01, 9.161851380890950e-01, 1.274392645956929e+00, 8.332881429522142e-01, 1.258054171140442e+00, 4.538462889848114e-01, 9.749530894007257e-01, 3.843928317870764e-01, 1.088760024365427e+00, 1.145414202555265e+00, 1.270119157301746e+00, 5.336098267822231e-01, 1.152941867450772e+00, 1.285850541463707e+00, 8.187602719818330e-01, 9.708549752898766e-01, 3.981125523225978e-01, 7.194391112864068e-01, 9.094094402734519e-01, 4.081600456042815e-01, 1.453895521732869e+00, 1.783235157060856e+00, 1.282664025356641e+00, 1.145843040613558e+00, 1.166409243626082e+00, 9.454882416495071e-01, 9.615373940289795e-01, 8.373725290724432e-01, 1.490893840811735e+00, 1.560025018481490e+00, 7.269322577162646e-01, 6.188394046571903e-01, 9.518753826816173e-01, 9.780355017775795e-01, 1.086234283222911e+00, 1.194947282160560e+00, 7.843276372854562e-01, 1.238848202346027e+00, 1.246371886365733e+00, 9.888370280503163e-01, 1.072741642189212e+00, 8.374728847055199e-01, 1.403410560536244e+00, 1.317137395650238e+00, 1.378360113320670e+00, 4.665250921192021e-01, 1.386349423741970e+00, 7.975167871136760e-01, 1.909607770561583e+00, 3.990114070758937e-01, 1.737607532198567e+00, 1.021940052081324e+00, 1.043491437636794e+00, 1.156760073646548e+00, 1.027605765629844e+00, 1.185234704716001e+00, 6.698566938630295e-01, 3.556627188711554e-01, 4.368165202094744e-01, 7.131690392467473e-01, 6.236205132066703e-01, 3.506231602419059e-01, 1.156497652977359e+00, 7.021654840280043e-01, 4.832594777596360e-01, 3.897230830574499e-01, 1.044222788028896e+00, 9.635390751997407e-01, 1.471932059509145e+00, 7.759122354621951e-01, 1.345956390858001e+00, 9.601815909004027e-01, 8.312518188624136e-01, 1.481337661323473e+00, 1.002833416353954e+00, 1.428789596372496e+00, 1.165596355730862e+00, 8.797313983082102e-01, 1.108370799193567e+00, 1.349177140791772e+00, 7.764275418475081e-01, 1.135814696001464e+00, 1.120184189014452e+00, 9.090336648886768e-01, 1.207048633510327e+00, 1.206016153839343e+00, 2.001659427182558e+00, 1.622485458433671e+00, 1.307218713478437e+00, 1.113159160339346e+00, 9.355876005695503e-01, 8.736895067482573e-01, 1.561397856514327e+00, 1.359493390517303e+00, 1.167258783519651e+00, 2.369914457584923e-01, 1.818826691506415e+00, 1.451998244144818e+00, 1.337681521340376e+00, 2.061419331425186e+00, 1.457572210067555e+00, 2.596662121678131e+00, 1.473098342682622e+00, 7.040686469615032e-01, 1.229486891055089e+00, 1.388065095536512e+00, 1.401757293564565e+00, 1.584385163873085e+00, 8.989757303327049e-01, 1.148096653536291e+00, 1.174380710760079e+00, 1.338836539799130e+00, 1.289482446971501e+00, 1.712110205199124e+00, 1.019270486451114e+00, 1.523984771506975e+00, 1.219776042407052e+00, 9.802889461351530e-01, 1.481022038056453e+00, 1.801100481832144e+00, 1.572920049621276e+00, 2.022904506895480e+00, 1.223666618971715e+00, 1.254868356684470e+00, 1.587912216087730e+00, 1.531556169515489e+00, 1.363557138467803e+00, 1.268478516520314e+00, 1.021669431484851e+00, 1.800612541226364e+00, 9.423112939200510e-01, 1.099986034092459e+00, 2.287833272109908e-01, 8.149339056972477e-01, 2.024312404632859e+00, 1.665929585706809e+00, 1.175334664728997e+00, 1.004061936611301e+00, 3.537011461907809e-01, 4.454922614031979e-01, 1.537882976936326e+00, 1.560462390761545e+00, 1.554689086470955e+00, 1.139835636850458e+00, 1.530106404413384e+00, 1.339553382167141e+00, 1.115984884059324e+00, 1.239937917831864e+00, 1.592010039824458e+00, 1.187064739945326e+00, 1.634669184116134e+00, 1.289183251790847e+00, 1.805049567047207e+00, 4.847669303531504e-01, 1.178019708518479e+00, 1.495802785756685e+00, 1.078448269263592e+00, 6.395199142458038e-02, 1.302202878053538e+00, 1.271006929817476e+00, 5.117425936703135e-01, 1.631477911353343e+00, 1.278923031079878e+00, 1.260784388312199e+00, 7.076182031792411e-01, 1.164762964393680e+00, 1.063186617816543e+00, 6.622362295168477e-01, 1.567477148462394e+00, 1.103393397799881e+00, 1.113987415225282e+00, 1.531272910941269e+00, 1.028430426683562e+00, 1.211898525152502e+00, 2.290518670870221e+00, 1.700160966150922e+00, 1.727432820453723e+00, 1.690630121554695e+00, 1.640527811170883e+00, 1.564289750205242e+00, 1.403137920048038e+00, 1.127825582233902e+00, 1.366538951756344e+00, 1.143107727883552e+00, 1.236462458458230e+00, 4.127018190325114e-01, 5.845573955985865e-01, 1.098277829669377e+00, 1.735072405723103e+00, 3.667895894410953e-01, 7.426905824088276e-01, 5.682312639545962e-01, 9.381053612975464e-01, 1.974484457050642e+00, 1.076462930839772e+00, 1.954199062185686e+00, 3.129819483072351e-01, 1.269034134723963e-01, 4.098295773982741e-01, 1.226795719676962e+00, 5.457589408799588e-01, 1.120021469878609e+00, 1.649043839438036e+00, 6.687596149354973e-01, 1.386807439790201e+00, 1.284736241308263e+00, 2.052773195197392e+00, 1.339905867959095e+00, 1.806700529074541e+00, 1.712683363824890e-01, 1.140520101310246e+00, 1.038373481478461e+00, 8.451319786493333e-01, 1.085191868036211e+00, 1.060106557182718e+00, 1.169976432990686e+00, 1.552608584019972e+00, 1.650752606211853e+00, 1.674465789078737e+00, 1.571453073760849e+00, 1.713340236421089e+00, 1.521361303203146e+00, 1.517775232513560e+00, 1.474149464617047e+00, 4.268889684629017e-01, 1.675754953247028e+00, 1.755629450940299e+00, 7.852088167223584e-01, 2.356142700614863e+00, 1.621673972372384e+00, 1.145220445075915e+00, 9.302809128859794e-01, 2.782887132135421e-01, 7.544069572250274e-01, 8.543228301202611e-01, 1.398625104964023e+00, 3.308925145469930e-01, 5.902909913743815e-01, 5.200926198205601e-01, 1.012348404752332e+00, 1.521438881659848e+00, 1.534738979560158e+00, 6.802718069642619e-01, 1.530266834475597e+00, 1.389865246189026e+00, 2.215210461535436e+00, 1.870886862281012e+00, 1.646084587886415e+00, 3.730018212278938e-01, 1.443010495256535e-01, 8.640500272384236e-01, 9.512712177671228e-01, 1.177090568311519e+00, 1.250499415210363e+00, 5.222404552518422e-01, 1.515091621220373e+00, 7.628272843286926e-01, 1.240899019746752e+00, 1.485059012757966e+00, 1.867133236445338e+00, 1.131572310265594e+00, 6.487692271152715e-01, 4.798500462099857e-01, 8.679691674714042e-01, 7.172490509269550e-01, 1.025666879652979e+00, 9.759914406126716e-01, 1.289737714524888e+00, 1.617021389045523e+00, 1.786615756865917e+00, 1.448573742472378e+00, 1.572856701480812e+00, 1.373399856745183e+00, 1.505105382871351e+00, 6.258148755423033e-01, 9.867669130970188e-01, 1.575117459946403e+00, 1.932444952119316e+00, 1.826467724990562e+00, 1.512380551549116e+00, 1.313290581197368e+00, 1.685103724864561e+00, 4.493300914870107e-01, 1.243365406720109e+00, 1.224607737928766e+00, 2.588553959399014e-01, 1.655371274324930e+00, 1.234498520718315e+00, 1.001239704791057e+00, 1.422635693676518e+00, 1.555453073369347e+00, 1.029182308083881e+00, 1.175270012149455e+00, 1.588268060010669e+00, 1.086212526686785e+00, 1.120480667447308e+00, 8.796178392318522e-01, 1.405611114927681e+00, 1.357437978645349e+00, 1.633738412914186e+00, 1.543191627517056e+00, 1.414274459666644e+00, 1.632961385293605e+00, 1.669891434672421e+00, 4.671182008461373e-01, 9.589908049461955e-01, 9.017165858178883e-01, 1.342438305444610e+00, 1.081089050170773e+00, 1.084297839771319e+00, 1.445600659976415e+00, 1.377811984848285e+00, 1.384900690422793e+00, 1.892127032447807e+00, 1.765503387680567e+00, 1.851368016941646e+00, 1.537371465813935e+00, 1.504654900842430e+00, 1.841661428555829e+00, -1.496049794738782e-01, 2.687432775264775e+00, 1.083711557391530e+00, 1.003961463029788e+00, 1.016581512325830e+00, 1.268362641703912e+00, 1.154702718571449e+00, 1.492875716322752e+00, 1.534352182128998e+00, 1.335014096981045e+00, 1.452262392752103e+00, 1.440567245890751e+00, 1.138637692627404e+00, 1.315807978348304e+00, 1.605974200000014e+00, 2.350324554091991e+00, 1.964932209104221e+00, 1.792270787131147e+00, 2.189495532579897e+00, 1.196885111557365e+00, 2.115753545439969e+00, 6.577838814263333e-01, 2.619402550611607e+00, 1.166370032742695e+00, 1.590575398179646e+00, 1.200590785163267e+00, 1.623407608092467e+00, 6.950011468931722e-01, 1.317910996720628e+00, 1.143479215797326e+00, 1.134600416377825e+00, 1.229740880504360e+00, 1.551879032252190e+00, 1.686088829277005e+00, 1.442529952520744e+00, 1.001078043075286e+00, 7.616632592217341e-01, 1.553423911805368e+00, 1.230388679656125e+00, 1.219355690550738e+00, 1.266728855822465e+00, 1.262891096909814e+00, 6.062619340641882e-01, 9.977828820703066e-01, 1.082627344717603e+00, 1.517289255128272e+00, 1.554432755219676e+00, 1.670952542547383e+00, 1.400630058215399e+00, 7.911624352031632e-01, 1.511972122546568e+00, 1.114207786576910e+00, 1.612413231089507e+00, 1.439656197163082e+00, 6.827150963626840e-01, 9.890731214790396e-01, 1.404138005597108e+00, 1.016350954541100e+00, 8.367377434870032e-01, 1.233556678676826e+00, 9.779300033054849e-01, 1.207646697012440e+00, 1.329488646487795e+00, 1.084155123967289e+00, 1.278503908151032e+00, 1.361133418121145e+00, 1.495002256781911e+00, 1.294588083310740e+00, 1.761513193645872e+00, 1.451879803761150e+00, 1.012333305595593e+00, 1.203275978248139e+00, 1.376850091031919e+00, 1.141824411467921e+00, 1.141488902508885e+00, 1.025410611233784e+00, 1.296349648335979e+00, 1.660627903839071e+00, 9.414293294796957e-01, 1.446403621987502e+00, 1.036646835982766e+00, 7.534986362915276e-01, 1.117839998274967e+00, 1.139404902775631e+00, 1.564076382475500e+00, 1.154457969186202e+00, 1.516134525715052e+00, 1.684997816224083e+00, 5.206113101736545e-01, 4.940989089605072e-01, 1.211738771875300e+00, 2.929912908676818e-01, 4.768471080656723e-01, 3.287154841248480e-01, 8.415981527938001e-01, 8.815554865192375e-01, 9.315382925358376e-01, 1.146456021036820e+00, 1.160720540893403e+00, 8.857248412728048e-01, 7.870635133293898e-01, 1.371591839530813e-01, 9.603018609093539e-01, 1.278872581557743e+00, 1.204339324423300e+00, 9.282117036930282e-01, 1.428916090996827e+00, 5.532341923227442e-01, 9.096116974627153e-01, 1.048003046532855e+00, 9.703866904733709e-01, 1.019657733042664e+00, 1.035320820434949e+00, 1.177129154018702e+00, 9.302670763969414e-01, 1.795790825895068e+00, 1.346503957114112e+00, 1.187743476487504e+00, 1.304150568705967e+00, 1.048624791576710e+00, 1.090602450679488e+00, 1.655646482064483e+00, 1.709209568418581e+00, 1.615113942523168e+00, 1.297102102549965e+00, 9.878549173833887e-01, 4.201238053694472e-01, 5.895601289443504e-01, 1.186409115893721e+00, 1.867811149835024e+00, 2.095073187188728e+00, 9.341485320557326e-01, 1.349428575831019e-01, 1.369639615554675e+00, 1.288028738938574e+00, 9.764531977889723e-01, 8.626147916832946e-01, 1.529847646157941e+00, 1.561553533555120e+00, 7.913994783334336e-01, 1.629714810447171e+00, 5.234758993005394e-01, 3.092874262481892e-01, 2.163900062298026e-01, 1.210268978990163e+00, 1.211070530542965e+00, 1.890063201380317e+00, 7.664926482442580e-01, 1.318874927823331e+00, 1.140183725773627e+00, 1.275933404347110e+00, 7.420600856414471e-01, 1.210857045509454e+00, 7.068387263489800e-01, 1.116565834152966e+00, 1.086535545958282e+00, 1.233990128106321e+00, 1.208029028576998e+00, 1.497335355996251e+00, 7.971957833667541e-01, 1.664701696338899e+00, 1.140470998175738e+00, 9.785274269997568e-01, 8.927747698509596e-01, 1.042975245065123e+00, 8.160540163029166e-01, 1.535649142649593e+00, 1.061174223203098e+00, 1.010626045803486e+00, 1.353878507032372e+00, 1.390472610177844e+00, 1.418877570568490e+00, 1.565467255504438e+00, 1.163617524377275e+00, 5.103544798513587e-01, 3.919925453487978e-01, 8.505626198633413e-01, 2.808805674717801e-01, 1.586869867089277e+00, 2.472143203766952e-01, 8.302070975917133e-01, 1.313049011757904e+00, 1.056042181629908e+00, 2.201778843064840e+00, 9.973596634501399e-01, 3.856293401051868e-02, 8.659725309462914e-02, 1.391475903879228e+00, 1.143919977099199e+00, 1.426510814162280e+00, 1.460720838995865e+00, 1.471765336576270e+00, 7.500310043078064e-01, 4.468274189245741e-01, 6.070490909605560e-01, 5.844555547305388e-01, 4.288135959130447e-01, 8.020507578303203e-01, 1.418847477120029e+00, 2.435256367637801e-01, 1.306860265540638e+00, 5.206693322292030e-01, 4.844403384799452e-01, 1.111692289688675e+00, 1.116645183473613e+00, 5.623436708600125e-01, 3.868532235218909e-01, 2.654236479207840e-01, 3.351491111934221e-01, 3.637400268961561e-01, 1.006190195865288e+00, 7.653361520949657e-01, 1.133346502908089e+00, 1.216892879936164e+00, 8.491881824026659e-01, 7.536002967137955e-01, 1.058900103491889e+00, 8.544042937841855e-01, 1.258761987080890e+00, 9.349939209149519e-01, 8.198558997582642e-01, 1.391246593580352e+00, 1.022494627570582e+00, 9.387829415861400e-01, 9.693631713247007e-01, 9.356011774166401e-01, 1.188391425016235e+00, -2.195899326860911e-01, 6.036532633333979e-01, 9.733629834744774e-01, -3.261996411464873e-01, 3.083416898076285e-01, 2.814934707838059e-01, 5.468633129988916e-01, 1.033152439861445e+00, 1.343043702539674e+00, 8.904010805359317e-01, 6.810493333713988e-01, 2.741840800446371e-01, 1.690801413280710e+00, 2.437522902223751e+00, 7.408291353514599e-01, 8.718369688073978e-01, 1.194277883712987e+00, 7.092536513667029e-01, 5.963446986925615e-01, 4.236838939554406e-01, 2.907773206304075e-01, 8.289480599858930e-01, 8.537675125686874e-01, 1.668169193461244e+00, 9.293244094518681e-01, 9.578429036879641e-01, 1.549036962732850e+00, 2.210996733738424e+00, 5.390282862941523e-01, 6.981574228636100e-01, 8.837595517610349e-01, 8.485440946265450e-02, 9.530867304099678e-01, 1.193706516661114e+00, 1.660355147917177e+00, 1.857674368974029e+00, 1.546604588495900e+00, 1.052300314297762e+00, 1.639556361414775e+00, 1.900314134416071e+00, 5.319448707710922e-01, 5.699680181026879e-01, 1.011609319464944e+00, 5.033484653092126e-01, 5.105987620253335e-01, 9.681313814556979e-01, 5.866026701901799e-01, 5.733574522388607e-01, 6.730891908106152e-01, 1.009447660718978e+00, 3.974418325874788e-01, 6.187077654467437e-01, 1.514918186288785e-01, 1.045216397142661e+00, -7.835338958199044e-02, 1.852082204992759e+00, 1.570271973309771e+00, 5.998330615682258e-01, 2.085657245742113e+00, 1.708597930534572e+00, 1.186047903537984e+00, 5.018733468669710e-01, 1.199942974920862e+00, 1.072616810757814e+00, 1.374362865249842e-01, 1.057397064115837e+00, 9.669087876422223e-01, 6.757807530744482e-01, 6.214415393693138e-01, 4.822400586210682e-01, 7.130512968778639e-01, 7.048514640113893e-01, 3.761338630046049e-01, 8.044702566501358e-01, 3.933380436281286e-01, 6.624185805339600e-01, 3.594145545466516e-01, 1.194086582146651e+00, 1.317552826580847e+00, 1.461960460540235e+00, 1.343870783153486e+00, 7.716715330715500e-01, 9.684871591405319e-01, 1.596712590205919e+00, 4.091098449784397e-01, 6.368795629920003e-01, 4.183215163542967e-01, 1.035635692972787e+00, 1.963418441063711e+00, 1.281250089853215e+00, 1.659084752987641e+00, 1.383895209200449e+00, 1.081319863246362e+00, 1.587197477059163e-01, 4.282106696302694e-01, 6.108271927933665e-01, 6.999065488207754e-01, 9.099148357912791e-01, 8.267384726800192e-01, 6.014665474622130e-01, 5.264715804835139e-01, 3.251710910759294e-01, 1.167356878512086e+00, 1.126865443511414e+00, 5.858704012623401e-01, 1.515383751036594e-01, 7.154467179782447e-01, 1.549171979064542e+00, 2.940846172806333e-01, 3.918019753650143e-01, 2.046931209210907e+00, 5.288766813273735e-01, 9.151806549759831e-01, 1.093216943724807e+00, 8.829036834717450e-01, 9.516764528473918e-01, 1.112873275044424e+00, 3.041191979821023e-01, 7.670890185622168e-01, 1.143673010482794e+00, 1.125439827485199e+00, 8.617328980123664e-01, 9.269744166132320e-01, 1.463842549955796e+00, 1.237808820966545e+00, 9.707255019445712e-01, 2.367510958538591e+00, 1.126022171674485e+00, 8.049970025150376e-01, 1.277255340090084e+00, 1.220446185786609e+00, 1.166381137763062e+00, 6.278284651601412e-01, 8.301047083355593e-01, 1.256436067794777e+00, 1.722705927936090e-01, 4.443044255763114e-01, 1.013414886487698e+00, 1.024363353249539e+00, 7.560522395600190e-01, 5.965261120636456e-01, 1.152466314979104e+00, 1.352845176042988e+00, 7.923982493840739e-01, 1.234506659698160e+00, 9.459222720384933e-01, 9.561741781058757e-01, 4.306032616611962e-01, 1.114909262936985e-01, 9.349040158376705e-01, 2.676869500485157e-01, 5.044927960555978e-01, 3.940080667810120e-01, 6.896203918567738e-01, 5.336869671312332e-01, 7.204833395912201e-01, 3.810599151020340e-01, 6.855985397221113e-01, 7.654367756649484e-01, 1.075281246978152e+00, 6.661158693277457e-01, 7.149895881800098e-01, 1.248359768618966e+00, 7.643282019406906e-01, 1.345700005248541e+00, 1.648584744343526e+00, 9.385237361656806e-01, 1.214608244929538e+00, 9.613577410068173e-01, 9.138352364001394e-01, 1.047270661950813e+00, 1.338140293295413e+00, 7.800709295740976e-01, 1.057308915065859e+00, 1.250690713873364e+00, 1.425680600507804e+00, 2.433127399052650e+00, 1.252728305707500e+00, 1.645722323387732e+00, 1.277850839098846e+00, 1.221263127078166e+00, 9.022679883896465e-01, 1.166219902138094e+00, 1.185116957452600e+00, 1.176127571269672e+00, 9.580357337375169e-01, -3.159398972080084e-01, 1.566145565433131e+00, 1.634556340117456e+00, 1.533619933255262e+00, 1.582982452338150e+00, 1.305389705723443e+00, 1.433490594190774e+00, 1.241284249104345e+00, 1.584960204195483e+00, 1.285372997673218e+00, 1.312154038340887e+00, 1.021191731412444e+00, 1.920842835762002e+00, 1.861149505205180e+00, 1.303874041242173e+00, 1.485077498289568e+00, 1.396223484227195e+00, 1.146472048372446e+00, 1.176809685757519e+00, 1.749959928765287e+00, 1.032577567414079e+00, 1.473531017205807e+00, 1.540813665035442e+00, 1.425554730363504e+00, 1.347405203113342e+00, 1.413642339602778e+00, 1.325190866952630e+00, 1.323586185664025e+00, 1.392426227481045e+00, 1.403427618556556e+00, 1.518271709365901e+00, 1.240827999798876e+00, 1.424956542681717e+00, 1.134579467713396e+00, 1.441149272016372e+00, 1.151908007911019e+00, 9.721204118443474e-01, 1.240481858273645e+00, 1.617522053789873e+00, 1.236602054093553e+00, 1.661255062376124e-01, 1.397865189211258e+00, 1.655378764635872e+00, 1.985544103585535e+00, 1.646259987239387e+00, 1.908842119341057e+00, 1.835879540583530e+00, 1.448806685919101e+00, 1.211094189288733e+00, 1.380190767956052e+00, 1.771828071334367e+00, 1.099175904420559e+00, 1.356265145815914e+00, 1.408383982434749e+00, 1.908446861851959e+00, 1.233217737228693e+00, 2.111320691492128e+00, 1.463494791859662e+00, 1.655387266563294e+00, 1.628105126530642e+00, 9.776159023468627e-01, 1.197820915210938e+00, 1.861478619532770e+00, 1.316559962248218e+00, 1.263086089139765e+00, 1.441713360874180e-01, 1.073238983377595e+00, 1.977991963169703e+00, 1.431799341551799e+00, 2.072826595518864e+00, 2.070671758099210e+00, 1.763660149787148e+00, 1.446670554146728e+00, 1.586991857684801e+00, 1.611229568227914e+00, 1.474966694302754e+00, 1.534955448045231e+00, 1.460670836146433e+00, 1.418307509334866e+00, 1.740565954815882e+00, 1.686062512613246e+00, 1.746838058765974e+00, 1.866043644102207e+00, 1.171068672350265e+00, 7.893249848859261e-01, 1.480078255222181e+00, 2.072296900325467e+00, 9.501461421874944e-01, 6.828156235555446e-01, 7.740628024359446e-01, 4.884544657686009e-01, 7.290282892080541e-01, 1.227862915310561e+00, 6.115911009807548e-01, 1.261183437089030e+00, 1.009783671965986e+00, 7.000621106835050e-01, 9.821728600471563e-01, 1.279079158223493e+00, 1.206371582418265e+00, 1.064356067288441e+00, 2.680003985476536e-01, 4.738592430475810e-01, 6.220138436624002e-01, 9.789753280076926e-01, 7.455244324992506e-01, 1.242945741805697e+00, 1.119641456268462e+00, 1.365834356458324e+00, 3.170123952565332e-01, 1.619228161649611e+00, 1.475898244697845e+00, 1.103840926972879e+00, 2.157969910437554e-01, 2.866765068137054e-01, 1.336634163287442e+00, 8.576626830253471e-01, 7.913398404772582e-01, 1.064453012495132e+00, 1.165663531484607e+00, 1.246411973920371e+00, 1.365391548368483e+00, 1.371347473741542e+00, 1.432227819305691e+00, 1.460229869460978e+00, 1.555458999688162e+00, 1.269303832910187e+00, 1.245118581881563e+00, 1.474458669876253e+00, 1.302250370238692e+00, 1.213291140727681e+00, 8.836709657237702e-01, 1.610723780533219e+00, 1.700148214261697e+00, 1.477318937419300e+00, 1.469877794775749e+00, 1.492087207211885e+00, 3.782189936320444e-01, 1.143721776736623e+00, 5.746411280729541e-01, 8.362532790886307e-01, 5.752965940564340e-01, 6.456942154849797e-01, 3.461927591220694e-01, 1.248960319557428e+00, 1.164490538433098e+00, 4.221001249805996e-01, 4.080866280051410e-01, 1.115885285931260e+00, 1.307732658576751e+00, 1.580777258829933e+00, 9.499991615597435e-01, 9.643668320697890e-01, -9.741838070578832e-02, 3.419689716813814e-01, 2.077469607636604e-01, 3.019891745078917e-01, 4.220496677142824e-01, 6.435438662949315e-01, 1.012038139613003e+00, 1.099517430622634e+00, 1.405738040720646e+00, 1.860875509392598e+00, 1.704813401634133e+00, 2.363091672363155e+00, 5.426077034400689e-01, 2.490171981219469e-01, 9.547776865781837e-01, -1.547970178440456e-01, 1.663504545562236e+00, 8.146642432448867e-01, 9.469546531453775e-01, 1.291630191210360e+00, 1.272017318083605e+00, 1.218976286295411e+00, 2.022185322411519e-02, 8.365905454532845e-01, 7.789941119210850e-01, 1.122946784932024e+00, 1.570485572778388e+00, 1.475280526913806e+00, 8.624772496665809e-01, 1.148884339665267e+00, 1.615905736687437e+00, 4.606186226278459e-01, 1.514183652237782e+00, 1.396623842248061e+00, 1.478518304998824e+00, 1.347655213397382e+00, 8.937892478541017e-01, 1.411741119718889e+00, 6.091819157707035e-01, 9.080420930047978e-01, 1.693269043632134e+00, 1.248245777607440e+00, 9.462591341123627e-01, 1.354021287169742e+00, 1.398416316631611e+00, 1.405976456883248e+00, 1.091470814993884e+00, 1.092039562330515e+00, 1.314889520081970e+00, 1.754628424661677e+00, 1.208147248157263e+00, 8.929674234011722e-01, 3.934454246046922e-01, 6.587857777093232e-01, 2.065727721938504e-01, 8.461334445887001e-01, 1.361697177666017e+00, 1.036767097731016e+00, 1.343550565190505e+00, 1.093972637689831e+00, 8.952274064922735e-01, 1.343734267453891e+00, 1.268174697642343e+00, 9.435614203870395e-01, 9.298370746259942e-01, 7.951735040465367e-01, 9.622262759060249e-01, 5.470861506993043e-01, 1.129800442482308e+00, 1.254484393393388e+00, 1.197705071195289e+00, 1.307623871103174e+00, 8.058361101579761e-01, 1.091286202888308e+00, 9.825532854516533e-01, 1.238465236016171e+00, 1.122238409340859e+00, 1.138389788592576e+00, 1.206280147647038e+00, 1.331090519005220e+00, 1.362199900575595e+00, 1.262666386806472e+00, 1.308879957818595e+00, 1.392880320745879e+00, 1.273466154357608e+00, 1.637249844233740e+00, 1.281418417585116e+00, 1.659899871997732e+00, 8.804276937975937e-01, 9.166875922666190e-01, 2.879148919453697e-01, 9.189469507700665e-01, 1.344965333408072e+00, 1.817009718443460e+00, 1.179716082929773e+00, 1.322206345889149e+00, 1.324089946556247e+00, 1.011298683923396e+00, 1.505847266959159e+00, 8.204554898151485e-01, 1.410563953715349e+00, 1.517168616688533e+00, 1.505922390381148e+00, 1.618005246155036e+00, 1.887626500711025e+00, 1.136118018959284e+00, 8.416692372356445e-01, 2.799491483718849e-01, 1.038694903997355e+00, 1.474265732039707e+00, 1.099352091028732e+00, 8.492927161089808e-01, 6.724982032983514e-01, 9.710903938050117e-01, 1.665019890639625e+00, 1.356230603134327e+00, 1.383593314521482e+00, 1.565239581765431e+00, 1.187368856689680e+00, 6.343322428713385e-01, 1.294291582902501e+00, 1.327897456628276e+00, 1.125152182983096e+00, 1.246378931628353e+00, 1.387574512650292e+00, 1.485712186569558e+00, 1.104666571587487e+00, 1.308473193885390e+00, 1.494279980130016e+00, 1.312169280878826e+00, 1.389828943947250e+00, 1.100224795267937e+00, 1.308640502206580e+00, 1.332886966649703e+00, 1.298416415934827e+00, 1.624589254260647e+00, 1.443568726591488e+00, 1.235985651456287e+00, 1.562611191879425e+00, 1.369534887484481e+00, 1.347668171263900e+00, 7.714023372481266e-01, 1.188164233043044e+00, 1.026909107235872e+00, 8.861503415337855e-01, 1.332561720286002e+00, 1.625757794362557e+00, 1.651319112255191e+00, 1.268211121756579e+00, 1.615453914243300e+00, 9.234619310228475e-01, 9.917131828290251e-01, 7.520953141138434e-01, 1.111549065813718e+00, 1.419012498909097e+00, 1.594471284384852e+00, 1.451286964293377e+00, 1.538735373594900e+00, 1.011706855419459e+00, 8.277522262229661e-01, 7.403038861536482e-01, 8.831609860054553e-01, 1.098841572536306e+00, 6.682108413084059e-01, 2.784539306151188e-01, 7.902207781001507e-01, 1.271651037707461e+00, 1.347351837980377e+00, 1.387700374021786e+00, 1.558946470522282e+00, 1.430483990049094e+00, 1.017134746120780e+00, 4.255296082489595e-01, 7.687217299756266e-01, 9.627609750735618e-01, 1.562372023773333e+00, 1.577841214293084e+00, 1.450421446260629e+00, 1.095915560288555e+00, 1.427593405645097e+00, 1.083234449234392e+00, 9.722113465025826e-01, 1.062973099082317e+00, 1.403315605328628e+00, 1.470253183965750e+00, 1.394335537541300e+00, 1.479847545907386e+00, 1.379990112151336e+00, 1.167555039874222e+00, 1.298859810924463e+00, 9.879576556122585e-01, 1.599874525622126e+00, 1.515265920919249e+00, 1.932105961623331e+00, 1.300642512745258e+00, 1.122033089837483e+00, 1.505148413741297e+00, 8.980599061651963e-01, 1.306179892124820e+00, 1.423336138749463e+00, 1.481129046464767e+00, 1.148731212758195e+00, 1.041145837824158e+00, 7.846290227680717e-01, 1.285778433447427e+00, 5.896214411385502e-01, 1.263654445144304e+00, 1.423121200644080e+00, 1.347318126550106e+00, 1.271477843238097e+00, 1.394377350601506e+00, 8.803973787236653e-01, 6.915496557955152e-01, 1.291219584353830e+00, 7.807320391777768e-01, 1.153084900807754e+00, 1.265456448075397e+00, 3.167620092782092e-01, 9.574531273325286e-01, 8.028873339067344e-01, 1.579451901829186e+00, 1.009123519906020e+00, 1.346502201307690e+00, 1.461316014892927e+00, 1.031949818882206e+00, 1.059254898048592e+00, 9.714931413722853e-01, 1.309747689444705e+00, 1.169667090668944e+00, 1.458453166659830e+00, 1.945351315988566e+00, 1.002750699949112e+00, 1.084707582859253e+00, 1.122194168189928e+00, 1.011849610156487e+00, 1.154673981221731e+00, 1.442681980223076e+00, 1.031955854398621e+00, 1.198015753194408e+00, 1.228321754633797e+00, 1.226084022169022e+00, 1.115679328368003e+00, 1.643784150878157e+00, 1.194677922339274e+00, 1.630027640782706e+00, 1.599570252372128e+00, 8.977593448389596e-01, 1.811000659831895e+00, 5.217021027437936e-01, 1.236778411281500e+00, 1.173461488649045e+00, 1.503814637399480e+00, 1.451808392240190e+00, 1.233227046436601e+00, 1.221042822883338e+00, 1.620542988870938e+00, 1.107812830144175e+00, 1.116711962901560e+00, 7.598240035561211e-01, 1.192778990358889e+00, 9.220086876540732e-01, 1.388305585247688e+00, 1.367086461242695e+00, 9.956686720200085e-01, 1.454558887123954e+00, 7.863863673644980e-01, 1.153449731868844e+00, 1.018874696098955e+00, 1.061969778794040e+00, 9.712323411818617e-01, 6.069402470031761e-01, 7.249524068592246e-01, 1.032439839401846e+00, 9.937163954893212e-01, 1.190732116491859e+00, 1.550199236180521e+00, 1.445316050796176e+00, 1.209294125346285e+00, 7.273323965397377e-01, 1.001468407293478e+00, 1.160367661149603e+00, 1.274424617620922e+00, 1.320157640157519e+00, 1.399975662993547e+00, 9.616238946938938e-01, 1.288625121645582e+00, 1.315853162511290e+00, 1.140446172000116e+00, 9.378837821193230e-01, 1.158060883672976e+00, 9.604872751995442e-01, 1.283971714431980e+00, 1.243756789520998e+00, 1.318935234289036e+00, 1.508621697178516e+00, 1.445530253707900e+00, 1.324413670314086e+00, 1.721683463029037e+00, 1.845882089392262e+00, 1.234532681656412e+00, 7.038241698421072e-01, 8.951652789425559e-01, 1.223462008929006e+00, 9.987393020679151e-01, 1.363726424580949e+00, 9.525623359163030e-01, 1.593914094810635e+00, 1.099620477825256e+00, 1.191581600363645e+00, 1.028765882542146e+00, 4.352073079192268e-01, 1.235614894561069e+00, 1.326805747108724e+00, 1.362738924802465e+00, 1.196313503203933e+00, 1.475663741893122e+00, 1.495527722821949e+00, 1.640529449378534e+00, 9.658238600266805e-01, 1.086281647379193e+00, 1.041756077056464e+00, 1.389325886209557e+00, 1.279747204663239e+00, 7.725305837589513e-01, 5.977815568352158e-01, 1.004664781390280e+00, 1.354025505054462e+00, 1.364274371532744e+00, 1.455355995223582e+00, 1.870338278375047e+00, 1.542810604774412e+00, 1.009956323605429e+00, 1.120276737925180e+00, 1.506272752467595e+00, 1.028238116465985e+00, 1.569498366375955e+00, 1.482795727304896e+00, 1.197439563577806e+00, 1.321231795660618e+00, 1.247411315850206e+00, 1.058526874962674e+00, 1.042485856566639e+00, 1.134819548182275e+00, 9.140365101261465e-01, 1.433838334988833e+00, 1.442739712339557e+00, 1.403552317143025e+00, 1.393206835116530e+00, 1.540418183140134e+00, 9.978424808525441e-01, 1.614092988129558e+00, 1.546901750136184e+00, 1.283631811896567e+00, 1.711244372290662e+00, 1.417637108150746e+00, 1.272994261380149e+00, 8.370377514236256e-01, 6.438470783499552e-01, 1.547347014583060e+00, 1.450482880917224e+00, 1.020596529031228e+00, 1.168323734438849e+00, 7.021797790518212e-01, 5.985201251810706e-01, 8.522287205968717e-01, 1.266492826034113e+00, 1.785542730153031e+00, 1.424842936823757e+00, 1.535080083457169e+00, 1.701639044498566e+00, 1.587756007947522e+00, 1.393787743654747e+00, 3.779733771213432e-01, 1.157113844976090e+00, 8.484249457736702e-01, 1.463253701294829e+00, 8.636980788035340e-01, 9.930117479855581e-01, 1.075169289175054e+00, 1.009912777686439e+00, 1.085560922306446e+00, 1.514404243906734e+00, 1.860378112744297e+00, 4.625904076344388e-01, 1.111065751969796e+00, 6.466886610713102e-01, 1.212171726913685e+00, 9.074621223351504e-01, 1.454575624680748e+00, 1.565390686466123e+00, 1.113327598807266e+00, 1.289529630256655e+00, 9.890618325559095e-01, 1.505862781947499e+00, 1.254024360243662e+00, 1.108262721506412e+00, 1.154519011497765e+00, 1.266453420019921e+00, 1.064540467111651e+00, 1.099680380586763e+00, 1.435390918726829e+00, 1.496195226586657e+00, 1.261870280557095e+00, 1.459563873955661e+00, 1.743293361148576e+00, 1.406739376871524e+00, 1.549139975463752e+00, 1.558695143672910e+00, 9.636514163621793e-01, 1.307094331758205e+00, 1.354765209762843e+00, 1.695290599327226e+00, 1.187527623484060e+00, 1.137996738100828e+00, 1.025164625341804e+00, 7.997150246530135e-01, 1.101889503318573e+00, 4.698586727761681e-01, 1.284038903445992e+00, 1.450448924317485e+00, 1.440971664288817e+00, 1.593729760024688e+00, 1.749305773709436e+00, 1.126211888962424e+00, 1.166339238184394e+00, 7.546079326715893e-01, 1.327215051661369e+00, 1.046444921083346e+00, 1.406862683827109e+00, 9.692670026414837e-01, 8.796567005143445e-01, 1.300285632734881e+00, 1.025965757756963e+00, 1.421312588187655e+00, 1.688980889942952e+00, 1.581061800883868e+00, 1.841650163735172e+00, 1.025058755907563e+00, 8.634672635351244e-01, 6.872732332081137e-01, 1.280823383274690e+00, 1.496178323710571e+00, 1.176135018737334e+00, 1.129182581199706e+00, 1.109980762461717e+00, 1.067486055775403e+00, 1.035530507382851e+00, 1.204075874189924e+00, 1.358455079066124e+00, 1.331929361711746e+00, 1.224688165192143e+00, 1.212756161143079e+00, 1.487658793193698e+00, 1.344137166621566e+00, 1.434811960369404e+00, 1.457948284780488e+00, 1.509290088054009e+00, 1.366237249479578e+00, 9.620823712414419e-01, 1.873673632369385e+00, 1.455052459539670e+00, 1.076576246518119e+00, 7.488145920055760e-01, 1.524134514815795e+00, 1.365385149477690e+00, 1.329460880737221e+00, 1.261218530601431e+00, 1.048677355028302e+00, 9.641312146943969e-01, 9.914944420492173e-01, 7.256798919819274e-01, 1.239197432938651e+00, 1.267396355166298e+00, 1.248571462499963e+00, 1.352321444336318e+00, 1.475719346323099e+00, 9.574065579911655e-01, 1.116151517224835e+00, 1.371112382066312e+00, 1.332834827626470e+00, 1.253515797263264e+00, 1.452361965919036e+00, 1.238685098133991e+00, 7.276180051977243e-01, 1.039660625228343e+00, 1.280985222134345e+00, 1.094371182696060e+00, 1.414650099484184e+00, 1.538171228274436e+00, 1.719477263038115e+00, 9.705100312977651e-01, 9.889799405621448e-01, 9.442524552845381e-01, 1.170030664555717e+00, 1.226357333244142e+00, 8.909971359656721e-01, 1.021039648632450e+00, 9.133730467684581e-01, 1.102490699417331e+00, 8.161458047977022e-01, 9.407442607671014e-01, 1.067675066480404e+00, 1.024856727501995e+00, 1.319080969422938e+00, 1.160624613771901e+00, 1.320152991858489e+00, 1.167876820654892e+00, 1.411418073061946e+00, 9.105197136538474e-01, 1.343033594772794e+00, 1.669569540082018e+00, 1.362713774425669e+00, 1.541078551880732e+00, 1.745775877348168e+00, 1.453545135765912e+00, 1.016538217124821e+00, 1.084088923130090e+00, 1.629902400803139e+00, 1.380344563183473e+00, 1.088012800121309e+00, 1.053330051485858e+00, 5.225915036010363e-01, 6.538896979015745e-01, 8.708022443055370e-01, 1.245146979944354e+00, 1.473502991053719e+00, 1.656029942803093e+00, 1.580008536781279e+00, 1.218963732394422e+00, 9.784279912567472e-01, 1.071666742935724e+00, 7.984208543279614e-01, 1.445653247721617e+00, 8.597149446270458e-01, 1.021365966460194e+00, 1.371764378995653e+00, 1.101844790771860e+00, 1.217385080421880e+00, 1.262966371495664e+00, 1.178494099764982e+00, 1.411050866683626e+00, 1.220103874872341e+00, 1.632147412918464e+00, 7.318998656925522e-01, 1.427566410278029e+00, 8.315016927683503e-01, 1.411583662620232e+00, 1.432150548127412e+00, 1.248958092277646e+00, 1.168877641561053e+00, 1.158346662922846e+00, 1.110501286531714e+00, 1.233320499580809e+00, 1.291905170337289e+00, 1.116219944857098e+00, 1.197507004061880e+00, 1.205138255510791e+00, 1.386799021853493e+00, 1.301171410590197e+00, 1.573488107745904e+00, 1.192057953535743e+00, 1.532033492219651e+00, 1.388154569447220e+00, 1.815221021592207e+00, 9.364351328256660e-01, 1.883634661298324e+00, 1.091234234922231e+00, 1.348138449169558e+00, 1.391274624611914e+00, 1.079748104849406e+00, 1.453136491552073e+00, 1.258416995064603e+00, 1.084799966629154e+00, 1.034385630668071e+00, 8.452000335734727e-01, 1.314758877620191e+00, 6.620234629516855e-01, 1.226071445659565e+00, 1.385727052686893e+00, 1.531350723578859e+00, 1.686159911120062e+00, 1.395557928518327e+00, 6.023333161206793e-01, 1.746202862147876e+00, 6.036061082007868e-01, 9.658463918361174e-01, 1.170487393849288e+00, 1.549862568214646e+00, 5.613432291586484e-01, 8.730158485622047e-01, 1.034694102923909e+00, 1.371187675301410e+00, 1.402451850620865e+00, 1.034834188284627e+00, 1.750986200905032e+00, 1.630312253772973e+00, 1.175846454302817e+00, 1.217540299697886e+00, 1.107034055800830e+00, 1.532991027906893e+00, 1.436926784492117e+00, 1.434504752740601e+00, 1.207476731880156e+00, 1.600369240408598e+00, 1.414272428928268e+00, 1.168600225545549e+00, 1.418211906383333e+00, 1.230300157927554e+00, 1.266197167837787e+00, 1.188290193630310e+00, 1.305864127619452e+00, 1.169842288099912e+00, 1.249219577154125e+00, 1.421633136361216e+00, 1.030469253394809e+00, 1.334938512398066e+00, 1.703025327932792e+00, 1.940320231665617e+00, 1.308643455753541e+00, 9.450466957149243e-01, 1.133254816366909e+00, 1.054874409814991e+00, 1.275101916062217e+00, 1.263072326391816e+00, 9.520864230094964e-01, 1.198466420228486e+00, 1.173825774158902e+00, 7.947093464580351e-01, 2.995443486679265e-01, 9.003683072680506e-01, 1.173521263894264e+00, 1.514061794613361e+00, 1.417629215960789e+00, 1.720792559884265e+00, 1.590001004964682e+00, 7.784886583963361e-01, 1.420067749095233e+00, 8.832413022240480e-01, 1.070051540954706e+00, 1.105313695109757e+00, 1.388761300137708e+00, 6.412854702939105e-01, 1.033476503429987e+00, 1.216563994942356e+00, 1.435821374774136e+00, 1.482932495000107e+00, 1.605031381960862e+00, 1.794518598510460e+00, 1.884246360777533e+00, 1.436067211965169e+00, 1.154607192334987e+00, 9.396090413703950e-01, 1.319473891737716e+00, 1.021461019097680e+00, 9.311719063181092e-01, 1.097304886176634e+00, 1.372061770811937e+00, 1.342028871435528e+00, 1.215433925255383e+00, 1.409225354284857e+00, 1.253163358250009e+00, 1.824602772676207e+00, 1.358299062127028e+00, 1.361664111575520e+00, 1.241456190049558e+00, 1.281562230361554e+00, 1.342027543186999e+00, 1.565951715559676e+00, 1.255252332020883e+00, 1.782769816979345e+00, 1.771463680176863e+00, 1.737576586339570e+00, 5.981509582218877e-01, 9.509968536670231e-01, 1.315300786284227e+00, 8.616882279161182e-01, 1.543819567971825e+00, 1.471807616795033e+00, 1.100816334533967e+00, 1.221543387413962e+00, 1.600804382738436e+00, 3.337884149406869e-03, 5.399624013087544e-01, 1.169538695150403e+00, 1.622510473945716e+00, 1.556495897031553e+00, 1.822708189986141e+00, 1.208128863743206e+00, 6.979176468442816e-02, 1.636877650647412e+00, 1.081447702246414e+00, 7.157273265800173e-01, 1.027596860624746e+00, 4.528937289138780e-01, 9.397421406119273e-01, 4.713279316101368e-01, 8.480579465633664e-01, 1.050885950872515e+00, 1.211815210149200e+00, 1.503724758835343e+00, 1.051123765035534e+00, 1.483682793595268e+00, 1.261961326185902e+00, 1.391755009416098e-01, 9.787986341433892e-01, 1.030925111388961e+00, 1.365924130445046e+00, 1.126227679929364e+00, 9.718019321376005e-01, 1.052532871819449e+00, 1.318841213577630e+00, 1.175035828959662e+00, 1.172229128543083e+00, 1.284265331812966e+00, 1.258053228451929e+00, 1.236831565430977e+00, 1.460402518511826e+00, 1.116684513182066e+00, 1.221342222572462e+00, 1.354240405923617e+00, 1.209338102122571e+00, 1.984180526358119e+00, 1.195916303004096e+00, 1.544334653441079e+00, 7.590693111516271e-01, 8.374550596392499e-01, 7.754835063368234e-01, 3.155626065801391e-01, 9.499706269728965e-01, 1.489226400511177e+00, 6.727199193985455e-01, 7.369081457471089e-01, 3.620030239318187e-01, 1.090033079458344e+00, 1.270299889934423e+00, 7.089698130601493e-01, 1.288549314081283e+00, 1.613687065126250e+00, 1.190889845550453e+00, 1.310340945860917e+00, 1.687978072255332e+00, 7.373199452835372e-01, 6.344611561319187e-02, 9.053542552231685e-01, 9.331496372286675e-01, 1.059490653640517e+00, 4.711685960174203e-01, 1.274338080200681e+00, 1.285607200737104e+00, 1.193925124550785e+00, 1.291979804438034e+00, 4.438365492158598e-01, 6.365709622496347e-01, 8.092215475542142e-01, 5.657087587233882e-01, 1.507979924357741e+00, 5.850434809782042e-01, 1.161826258846048e+00, 1.273072262828605e+00, 1.108297923300385e+00, 1.372394531827670e+00, 7.014507914292950e-01, 8.871261681556903e-01, 1.093211740957262e+00, 8.667873068162673e-01, 1.249117475234700e+00, 1.169787673754350e+00, 1.221184898726109e+00, 1.394443095518332e+00, 1.210980682218612e+00, 1.712077635443348e+00, 1.506896144517206e+00, 1.648343589523134e+00, 3.429855622019928e-01, 1.305554165859510e+00, 8.575536792023445e-01, 8.290711324906112e-01, 2.662288161251653e-01, 8.337841186531031e-01, 5.125213768443481e-01, 1.100570913814036e+00, 9.868694094212600e-01, 1.400195691033755e+00, 1.192557172406227e+00, 1.022618841372202e+00, 1.732138406947050e-01, 1.970611866004739e+00, 2.181116086932185e-01, 1.019056343311075e+00, 1.166726212021261e+00, 1.705580795823074e+00, 1.294285802891685e+00, 1.686268470941870e+00, 4.955573403484886e-01, 4.626695205062429e-01, 8.115594325667985e-02, 1.463803302182929e-01, 4.381966911854820e-01, 9.842507883915799e-01, 4.303028701969188e-01, 1.532836915113801e+00, 1.155933312059829e+00, 7.012365011601899e-01, 1.047723178094174e+00, 7.979773293762832e-01, 1.331272394653402e+00, 4.427006278457079e-01, 1.842818809215103e+00, 2.231474250912103e-01, 4.488685271791403e-01, 1.405525515276313e+00, 1.637300036279972e+00, 7.126551379718411e-01, 7.083379073587995e-01, 7.939319426152592e-01, 9.075140432511418e-01, 8.357995591182354e-01, 6.412886748687645e-01, 6.370281615700808e-01, 1.032850344837364e+00, 9.967844643624936e-01, 1.034763121707520e+00, 1.090658623632318e+00, 9.704871929979662e-01, 1.103902521249690e+00, 1.192950608515563e+00, 1.227934648164470e+00, 1.990041160212292e-01, 6.773587461202137e-01, 8.617956435700772e-01, 1.828058780841511e-01, 7.787646227806092e-02, 1.255297159680494e-01, 3.619322791252818e-01, 1.044083763921866e+00, 1.504728517470243e+00, 1.485173451101531e+00, 9.417436410845654e-01, 4.483787478257668e-02, 1.030902821009196e+00, 8.439974812695922e-02, 7.714031856518281e-01, 9.301713237764279e-01, 6.730747274435701e-01, 4.777423604204384e-01, 5.400986942883951e-01, 3.423436363887613e-01, 1.531996766642132e-01, 4.259054890769486e-01, 5.894027385808898e-01, 6.729874511940335e-01, 6.320432194148585e-01, 5.472560401089640e-01, 4.850919195786263e-01, 4.848728725647198e-01, 6.156632891170438e-01, 9.089836373972019e-01, 2.367185061014887e-01, 1.412338400292878e-01, 2.012925130667955e-01, 1.806990704867555e-01, 1.082258588060974e+00, 7.498117603205781e-01, 1.217462573554496e+00, 1.586038196089353e+00, 9.114053216148301e-01, 9.084696822085448e-01, 9.129426689298585e-02, 1.080901557696195e+00, 4.118394808257341e-01, 6.611628424765992e-01, 9.367156732987563e-01, 8.830520067163427e-01, 8.927565180922122e-01, 1.072023608257165e+00, 6.364498154556434e-01, 1.353200411392093e+00, 1.064491415522480e+00, 8.218030445379255e-01, 3.348355548071097e-01, 9.931052440689933e-02, 9.044142625102294e-02, 7.130514477667107e-01, 4.962253554801657e-01, 4.034690720351751e-01, 7.191926165228010e-01, 8.705155327338746e-01, 8.329289416859550e-01, 5.525124703359453e-01, 1.480540184831769e+00, 9.994525334984694e-01, 6.240616410210578e-01, 1.790874969620126e+00, 2.101627200366833e+00, 9.910663437103294e-01, 1.056929728954891e+00, 8.840680908519585e-01, 3.702917872544524e-01, 4.727853791021968e-01, 2.297936022114492e-01, 4.600096446051482e-01, 7.055157181094802e-01, 8.734027293683798e-01, 7.944427657356135e-01, 1.056321669474332e+00, 1.387425067601669e+00, 7.856764775560516e-01, 1.250755203699890e+00, 6.434102886770792e-01, 1.034235507440339e+00, 4.327230836290480e-02, -1.314468770269030e-02, 8.325544005014479e-01, 2.549128870871512e-01, 8.589079393087011e-01, 1.412717378198201e+00, 8.907060830138305e-01, 1.547934378702381e+00, 9.840141165499701e-01, 8.009215292330573e-01, 1.772059566912362e-01, 9.001799112051888e-01, 8.382676334708976e-01, 6.371500216458688e-01, 5.344537895969926e-01, 1.221356833413409e+00, 6.353704044473243e-01, 4.699348950922316e-01, 2.630081298562192e-01, 7.317885295843947e-02, 6.997436292923869e-01, 2.824592320838871e-01, 1.657979170869224e+00, 1.783831895669065e+00, 4.322851132985946e-01, 8.532849817725485e-01, 7.465275127350733e-01, 6.054399600991379e-01, 1.441303846433536e+00, 9.247216576074371e-01, 1.329120933761383e+00, 6.794800199982004e-01, 1.477358953774845e+00, 9.686298245280419e-01, 1.034229486023013e+00, 1.382651966935671e+00, 1.010074603894769e+00, 6.816681550510783e-01, 7.579323442464143e-01, 1.888068010815569e-01, 5.547629275493581e-01, 2.398419557156998e-01, 8.345700426724196e-01, 4.536000948736315e-01, 4.944927056008319e-01, 3.793234665935377e-01, 5.380364545439906e-01, 7.574710081247990e-01, 1.109512634405631e+00, 9.695569974926463e-01, 1.624708583294420e+00, 6.880297034016482e-01, 6.597554853800410e-01, 6.763463313687356e-01, 3.050702244859901e-01, 2.281578270177025e-01, 3.299734573119545e-01, 7.305880567802405e-01, 1.293129222438394e+00, 1.179671259877508e+00, 9.202603232008586e-01, 1.526547869700087e+00, 1.157661879819422e+00, 2.846222645494149e-01, 1.666242655087004e-01, 4.181924029647535e-01, 4.042760954059393e-01, 2.522205941462429e-01, 4.787087340466255e-01, 5.475950559622338e-01, 4.212905133215643e-01, 1.282311205683228e-01, 9.517089223831263e-01, 9.135743446625271e-01, 6.414335868394520e-01, 1.127342129933035e+00, 1.897730367505058e-01, 3.548248501332920e-01, 4.828703245107541e-01, 1.166177548969537e+00, 7.975913871285571e-01, 1.013526786971582e+00, 1.367805904643106e+00, 1.084697134096025e+00, 4.923650659492521e-01, 1.113728483123292e+00, 4.363740355520910e-01, 4.496401246926371e-01, 9.206085229833456e-01, 6.248607083607359e-01, 7.484043219484563e-01, 2.844837290747982e-01, 4.048048796175352e-01, 1.392109461173085e+00, 7.473164030489690e-01, 9.081576838924110e-01, 7.004535393328425e-01, 6.030477202556616e-01, 9.705166025377365e-01, 7.620207580438958e-01, 8.484464013972295e-01, 7.253344644078961e-01, 1.002823749761891e+00, 4.134547188201000e-01, 7.561283965804361e-01, 7.275062812586286e-01, 8.832847802189586e-01, 1.325748806747993e+00, 2.086761058023265e+00, 7.735839233627384e-01, 1.726448236858477e+00, 1.221239586390365e+00, 1.103617215566942e+00, 1.257628297526049e+00, 9.287110778401706e-01, 1.004866725419064e+00, 6.054604281194039e-01, 3.343945939051344e-01, 3.086367851930878e-01, 4.770889409395182e-01, 3.203706586270922e-01, 3.683110005881746e-01, 4.248544736341676e-01, 2.442400490286011e-01, 1.748605493855570e-01, 5.534296754886533e-01, 4.975560883139147e-01, 3.159633501651037e-01, 4.553644019936957e-01, 1.468446583041992e-01, 8.458060881728608e-01, 7.698113474021385e-01, 1.094296234775214e+00, 8.216917880631910e-01, 1.292796712056173e+00, 1.079468253414169e+00, 9.711976182185683e-01, 1.178977921754444e+00, 1.971374993628302e-01, 9.003336851492344e-01, 5.056811440684174e-01, 1.054662712926940e+00, 1.145417792225349e+00, 7.168601917084102e-01, 1.010365888217459e+00, 1.610490894519939e+00, 1.329615733232024e+00, 1.476303500765996e+00, 1.485912039230109e+00, 1.374735929520901e+00, 1.098315204866106e+00, 1.106021545117832e+00, 1.062841824066853e+00, 1.123610839204312e+00, 1.681618629324953e+00, 1.166115072774137e+00, 5.495601341122587e-01, 9.926120134204600e-01, 1.313283089010797e+00, 3.946088409592755e-01, 7.273069664648786e-01, 1.381320937679842e+00, 1.698871579387614e+00, 1.467314894777837e+00, 1.105834400843881e+00, 1.481345016507725e+00, 1.648438819205929e+00, 1.033799065004283e+00, 1.598110694783121e+00, 9.712654568792453e-01, 9.963451028217043e-01, 6.982443507104291e-01, 1.032202509113728e+00, 1.031592780292630e+00, 9.434584839562720e-01, 9.676529200109281e-01, 9.151684059417008e-01, 1.344786386181278e+00, 5.741049887304166e-01, 1.077645276237003e+00, 1.381423612987877e+00, 4.569181731034740e-01, 8.947415441151734e-01, 1.659613951267418e+00, 1.387265189530294e+00, 1.384886171402374e+00, 1.262068928709279e+00, 1.574273817477414e+00, 1.309279575304061e+00, 1.219954862128067e+00, 1.210934247117099e+00, 8.387678739365068e-01, 4.103354123008690e-01, 5.005088537082817e-01, 1.111205263618026e+00, 1.118030077717846e+00, 2.019359545749829e-01, 4.916982828571654e-01, 8.234290316833787e-01, 1.018095698357227e+00, 1.486363741147988e+00, 1.397881053737770e+00, 1.356429032813709e+00, 1.088991480451366e+00, 1.037268958683027e+00, 8.296679583221590e-01, -2.119610983826536e-01, 8.906003608715833e-01, 1.095590276436350e+00, 1.122895424495610e+00, 1.396265933415235e+00, 1.183330883448882e+00, 1.012475210716182e+00, 1.985626341653997e+00, 1.300719038508818e+00, 1.191926598018492e+00, 3.793409572115988e-01, 1.342409449756861e+00, 7.658971727835658e-01, 6.437353050631081e-01, 1.158300231880658e+00, 1.318460632562774e+00, 8.637453387853997e-01, 9.797383315133279e-01, 1.338961271573396e+00, 5.418406149345325e-01, 1.290292064773116e+00, 1.241277540902370e+00, 1.065675261854675e+00, 9.935390562188440e-01, 8.278677019429159e-01, 1.199769599891212e+00, 9.688471921978085e-01, 1.100701363845147e+00, 1.275244189631552e+00, 1.332267211386805e+00, 1.262064947243071e+00, 1.635395208748072e+00, 1.320408791640934e+00, 1.299076120399980e+00, 8.065064837357552e-01, 5.259263164492048e-01, 9.016218785421304e-01, 3.058500806641336e+00, 3.876873603872968e+00, 3.056955868864180e+00, 3.045938141945423e+00, 2.715805327271067e+00, 2.944929109258642e+00, 3.895520743781608e+00, 4.382040268358693e+00, 3.218133275135786e+00, 3.145584166350161e+00, 2.904333404762991e+00, 3.269354365656649e+00, 3.567240656808369e+00, 3.058858562254680e+00, 3.758616606366401e+00, 3.210988502869907e+00, 3.167201019987192e+00, 2.859084911370026e+00, 3.003643313117888e+00, 2.885394580926909e+00, 3.769217521072773e+00, 3.405168508124353e+00, 3.225400651797197e+00, 2.960901910361425e+00, 3.314239108057777e+00, 3.083132957604997e+00, 2.933572371769893e+00, 2.789609267480979e+00, 3.276329501759998e+00, 2.903636627010508e+00, 2.979010765302684e+00, 3.019709397403204e+00, 4.393374778650257e+00, 4.641818990129870e+00, 3.749763216062825e+00, 3.506721778173156e+00, 3.571668563347814e+00, 3.521803649242419e+00, 3.602347735600955e+00, 3.741878868954420e+00, 3.670525455944202e+00, 3.459117261863869e+00, 3.606550766394296e+00, 3.575364735153698e+00, 3.309745633109382e+00, 3.304719035266842e+00, 3.298329825137015e+00, 3.382084358414021e+00, 3.208255636427072e+00, 4.960198893259699e+00, 2.851193408362329e+00, 3.136892215403634e+00, 2.945261135568351e+00, 3.134399018053692e+00, 2.841227695885527e+00, 3.479822748402849e+00, 3.204173426460611e+00, 2.891334681637555e+00, 2.427889960338589e+00, 3.624518755766279e+00, 3.510742408106955e+00, 3.222276895691649e+00, 3.399189164481596e+00, 2.768993141996126e+00, 3.947327820984974e+00, 3.734067774489066e+00, 3.367466231354854e+00, 3.107933834488791e+00, 2.869092317122328e+00, 2.941289099714134e+00, 3.094769839047752e+00, 3.051463075577518e+00, 3.423561172790929e+00, 3.473545238161800e+00, 3.079972070050210e+00, 3.284015285833152e+00, 4.203359221174543e+00, 2.558148243215942e+00, 2.652920299202330e+00, 3.511896870897881e+00, 2.722271977821451e+00, 3.170247485762332e+00, 2.896332978850394e+00, 3.547241997307161e+00, 3.658269701405237e+00, 3.608272388950850e+00, 3.457331696249366e+00, 3.333491628551640e+00, 3.598231622909962e+00, 3.544639443877404e+00, 3.147965467255374e+00, 3.468853268291719e+00, 3.431856341963363e+00, 3.570467856281985e+00, 3.299370761559301e+00, 3.346206373431315e+00, 3.065161100879862e+00, 3.626745353528841e+00, 3.177074229602573e+00, 4.096928385517934e+00, 3.631970911542634e+00, 2.880574930466701e+00, 4.212905784595210e+00, 2.566185577255551e+00, 2.583092588281600e+00, 3.193397976604522e+00, 3.893304931559985e+00, 3.495373887262778e+00, 3.173350969501925e+00, 3.280535822156098e+00, 3.127407434830509e+00, 3.227547341776800e+00, 4.233708569645099e+00, 2.945708945743083e+00, 3.763885195178679e+00, 3.347678984505865e+00, 3.314758273537502e+00, 3.633379400241155e+00, 3.816756087042991e+00, 3.659597964746633e+00, 3.334056178699218e+00, 3.381727513161353e+00, 3.768780487293719e+00, 3.379400017692553e+00, 3.179271219025793e+00, 3.427054041438288e+00, 3.498286463867454e+00, 3.863686699704829e+00, 4.008920805989781e+00, 3.824393875625295e+00, 3.511240882037508e+00, 3.373448615228984e+00, 3.187539128638471e+00, 2.705825611374686e+00, 3.503455717621790e+00, 3.436451194123531e+00, 3.415522897004915e+00, 3.219109261532899e+00, 3.820118507705672e+00, 3.809472728528229e+00, 3.600758821802510e+00, 4.285216979598162e+00, 3.983426357258091e+00, 3.866436361301759e+00, 3.886100362594834e+00, 4.150612652630706e+00, 3.738791008050983e+00, 3.871439750555748e+00, 3.971157137432559e+00, 2.896562631452911e+00, 3.550560990811721e+00, 3.923942719757680e+00, 3.534488856032496e+00, 3.447105213062477e+00, 3.830851036226240e+00, 3.669716937482661e+00, 3.626358628982486e+00, 3.095002352088481e+00, 3.233003714086761e+00, 3.476349816723752e+00, 3.454125859432930e+00, 4.395337279465378e+00, 3.477566206801334e+00, 3.300449229589584e+00, 3.501009857317391e+00, 3.856298737212358e+00, 3.437936899797309e+00, 3.214895024649318e+00, 3.227188714558223e+00, 3.120054936278364e+00, 3.401131701675935e+00, 3.054259177577393e+00, 3.186738660391383e+00, 3.072534653821493e+00, 3.128470920890095e+00, 3.106485466862892e+00, 3.124636184785825e+00, 3.572277956878403e+00, 3.062343190930015e+00, 3.662982596773661e+00, 3.378294373163442e+00, 3.410435509507007e+00, 3.090467030422984e+00, 3.016293293960281e+00, 2.934885075948778e+00, 2.965455695407207e+00, 3.006734892104935e+00, 3.197302404589103e+00, 3.292373389778111e+00, 4.112113696217728e+00, 3.598710564239797e+00, 3.505204174644724e+00, 3.400369912875790e+00, 3.384580366996550e+00, 3.374249525813502e+00, 3.381273047816135e+00, 3.413855953765396e+00, 3.364917041912030e+00, 3.323346966865971e+00, 3.287560064308396e+00, 3.326837398979105e+00, 3.330840646791505e+00, 3.392165934752180e+00, 3.453691949760362e+00, 3.174770388035621e+00, 3.079453804620277e+00, 2.954535419569278e+00, 2.879789753575150e+00, 4.809901544572819e+00, 3.177750593336726e+00, 3.133031184258468e+00, 3.627373234143599e+00, 3.484988092029754e+00, 3.314325627648476e+00, 3.606416162905551e+00, 3.532419361840180e+00, 3.251684094253076e+00, 2.865761362955233e+00, 3.742315017739267e+00, 3.622052402760542e+00, 3.259671353472903e+00, 3.207039025613025e+00, 3.022506951538664e+00, 3.123140458528800e+00, 3.262129880403781e+00, 3.258595291939852e+00, 3.703782970677120e+00, 2.978719177778316e+00, 2.183444651305327e+00, 2.911297147104971e+00, 3.491259991368252e+00, 3.086550493860837e+00, 3.796279939018293e+00, 3.355853253688243e+00, 3.378059830949997e+00, 3.059641453677530e+00, 3.077099365173263e+00, 2.628550008214922e+00, 2.907856092391103e+00, 2.662988424731115e+00, 2.786511858957069e+00, 3.114899615366849e+00, 3.663026745175009e+00, 3.244536720467849e+00, 3.645317407774118e+00, 3.504860325679155e+00, 3.477705762083088e+00, 3.400703007097868e+00, 3.635687070673892e+00, 3.430768191365729e+00, 3.382724066790651e+00, 3.346141079793017e+00, 3.362844395743274e+00, 3.308968936606138e+00, 3.289281063865103e+00, 3.267565318956057e+00, 5.559606798103502e+00, 3.105746790557744e+00, 3.182257677512231e+00, 3.281379819507629e+00, 2.127796840157344e+00, 4.491670689568656e+00, 2.298306571871658e+00, 2.100689300468346e+00, 3.524090358756232e+00, 5.349767004728951e+00, 3.178329125496136e+00, 4.050117610924434e+00, 4.032438148875125e+00, 3.310661640624708e+00, 2.926869308285431e+00, 3.651015862288855e+00, 5.153660929057899e+00, 3.051623223189046e+00, 3.706677898631653e+00, 4.012991408537873e+00, 2.828172969301443e+00, 3.059466834358421e+00, 3.168509475261614e+00, 3.616209984214299e+00, 3.326965445971827e+00, 3.610541868670903e+00, 2.904983992598746e+00, 3.451776998096549e+00, 2.828928773241086e+00, 5.458965063176862e+00, 4.070725723751632e+00, 3.172296223286727e+00, 3.704217253877803e+00, 2.829076472718262e+00, 3.674339275529665e+00, 5.080725095278749e+00, 4.211741795085598e+00, 2.798940646522521e+00, 4.119080930343964e+00, 3.617803086567438e+00, 3.080805450495403e+00, 4.330223491558208e+00, 4.105782080561981e+00, 3.732665452272984e+00, 3.809660177935959e+00, 3.479969332360587e+00, 3.365320515156696e+00, 3.793750653552888e+00, 3.827588878535738e+00, 3.881516251843037e+00, 3.457003908680104e+00, 3.835603300171111e+00, 3.388867953271860e+00, 3.436255440703683e+00, 3.880324489550021e+00, 4.692449059697228e+00, 3.829457997906140e+00, 5.983073493567057e+00, 5.271570417956198e+00, 6.462747574348561e+00, 2.932986516605833e+00, 3.725504798262784e+00, 3.303215462371909e+00, 3.176256893032420e+00, 3.395627104297974e+00, 3.398322107165035e+00, 3.486214451929683e+00, 3.339411526299164e+00, 2.397606683081144e+00, 3.119533133945876e+00, 3.911845422127543e+00, 3.865142283273723e+00, 3.298041478642388e+00, 3.389629235879734e+00, 3.380137184801105e+00, 3.746588291111524e+00, 3.490716490462033e+00, 3.587868312669054e+00, 3.347608640080640e+00, 3.169694239901792e+00, 3.573157038989597e+00, 3.303073768639339e+00, 3.536345945324107e+00, 3.507400730848387e+00, 3.815146565713824e+00, 3.169707862689120e+00, 3.447988549242502e+00, 3.567272911894842e+00, 3.400937229289403e+00, 3.187783822393081e+00, 3.357104430787875e+00, 3.173030214124413e+00, 4.164665556753289e+00, 3.297026047289517e+00, 4.630256731485680e+00, 4.463019916755212e+00, 4.193843433287897e+00, 3.973434841814028e+00, 3.848057292390169e+00, 3.963330884323216e+00, 3.837383657824591e+00, 3.492687318552653e+00, 4.227097659057368e+00, 3.921516033761590e+00, 3.664092684791163e+00, 4.296478328605562e+00, 3.883700210151160e+00, 3.609276221785036e+00, 3.388859707064327e+00, 3.420431802612848e+00, 3.577604657060769e+00, 3.488847831149211e+00, 2.965003630323968e+00, 3.550833078713914e+00, 3.523195333784396e+00, 3.063860688206373e+00, 3.077049238077838e+00, 3.629623854870692e+00, 3.115479442202981e+00, 3.362302873407807e+00, 3.281041992423192e+00, 3.926297747842527e+00, 3.627660607604145e+00, 3.626568910896892e+00, 3.445191675414494e+00, 3.368694490898297e+00, 3.255866805195905e+00, 3.276790912631202e+00, 3.192864538885908e+00, 3.214741473904891e+00, 3.242614457048655e+00, 3.226875747751330e+00, 3.576085062890616e+00, 3.457381055687537e+00, 2.788122830567617e+00, 3.725786010324192e+00, 3.927774414549770e+00, 3.326328682594831e+00, 3.715035720029876e+00, 3.286553233466844e+00, 3.042529692175439e+00, 2.863705178552635e+00, 3.247273817695140e+00, 3.805390628223751e+00, 3.476885956235809e+00, 3.332885037380293e+00, 3.261453394281140e+00, 3.582523630335685e+00, 4.101007084130997e+00, 3.658757564011932e+00, 4.108822385178128e+00, 3.938903003273311e+00, 3.681962242916883e+00, 3.727943467749119e+00, 3.670286824421839e+00, 3.818742086363929e+00, 3.802415993178871e+00, 3.691195261069757e+00, 3.680487656493208e+00, 3.488393585240523e+00, 3.765145656856264e+00, 3.263033475650840e+00, 3.266942028135523e+00, 3.268442097628496e+00, 3.113000102247221e+00, 3.175247466425211e+00, 3.149813005658422e+00, 3.266976289549164e+00, 3.240761900875432e+00, 2.868601633162446e+00, 3.676381197734442e+00, 3.397840820255693e+00, 3.817681169564750e+00, 3.090241955069489e+00, 3.119642154825493e+00, 3.769374150037136e+00, 3.492628356771236e+00, 3.293116844513218e+00, 3.175915030385727e+00, 3.058710549950474e+00, 3.673319224648055e+00, 2.818727292517790e+00, 2.919105646425887e+00, 3.199681985562430e+00, 3.397858418497694e+00, 3.403657598492683e+00, 3.419541075993430e+00, 3.318016645827952e+00, 3.771175467749381e+00, 3.690660876822657e+00, 4.081475466309741e+00, 3.646329713982759e+00, 3.191098145017836e+00, 2.933408428502983e+00, 3.457943017709012e+00, 2.987070027115302e+00, 3.303343360484377e+00, 3.262248399397131e+00, 4.273738853700865e+00, 3.374575635180001e+00, 3.919752172066729e+00, 2.959346618369270e+00, 3.818091751344650e+00, 2.796661682722192e+00, 3.497353450333264e+00, 3.826251688338061e+00, 3.361436202090828e+00, 3.671361186244381e+00, 3.424823001219478e+00, 3.502578098181704e+00, 3.503770479310625e+00, 3.417831929062683e+00, 3.330762537812427e+00, 3.459607853910720e+00, 3.168233970095515e+00, 3.041404224894639e+00, 2.794251582347975e+00, 3.122191316284978e+00, 3.045287086542494e+00, 2.990520313801645e+00, 3.659294166956779e+00, 2.550648454519460e+00, 2.845829246865391e+00, 3.387814428821173e+00, 2.130828329677630e+00, 2.943245978088527e+00, 2.662261738088650e+00, 2.861825653538480e+00, 3.502247679940425e+00, 3.143396314382907e+00, 3.047210843124654e+00, 3.333105110747297e+00, 2.727610787554954e+00, 2.889461154886129e+00, 3.565358827136627e+00, 2.675036310858870e+00, 2.653250889692864e+00, 2.539930407550414e+00, 3.108844945854950e+00, 2.702548629756292e+00, 2.663711173632469e+00, 3.354750470509563e+00, 3.536809217395772e+00, 3.087475959178220e+00, 3.409680474193133e+00, 2.937853160435983e+00, 4.919903380963473e+00, 2.430669779749164e+00, 2.330223729412586e+00, 3.420939210205426e+00, 3.121120662818246e+00, 3.050587628647122e+00, 2.927918442719676e+00, 3.222034830796750e+00, 3.376920210216399e+00, 3.373180254504932e+00, 3.542740888928704e+00, 3.214996320457578e+00, 3.570108858644209e+00, 3.431900256598614e+00, 3.231319091421104e+00, 3.336525522539381e+00, 3.378991785876563e+00, 3.223779307462674e+00, 3.179593059462325e+00, 2.890800686551314e+00, 3.355230474199010e+00, 2.795176492293207e+00, 2.969504629633421e+00, 2.668908594471173e+00, 2.812737579416364e+00, 1.382552391623436e+00, 2.743381307700805e+00, 3.094394340703814e+00, 3.068867078751588e+00, 3.070696822224057e+00, 3.426697972751406e+00, 4.343405931467510e+00, 2.908728317598401e+00, 2.932374816056122e+00, 3.788855878954152e+00, 3.274747281238188e+00, 3.669825646129397e+00, 3.137461289973435e+00, 2.923245671781691e+00, 3.229190523613825e+00, 3.906141010441336e+00, 3.015241794053453e+00, 2.306864859087224e+00, 2.178146423057644e+00, 3.258016068064627e+00, 3.739631254916004e+00, 3.861917506741076e+00, 3.014063377951244e+00, 3.969532631376936e+00, 3.517034847995525e+00, 3.273171874639994e+00, 3.452038709279624e+00, 2.741629117639401e+00, 2.775397077617356e+00, 3.975192287506051e+00, 3.069576206383503e+00, 3.375366856255937e+00, 3.380385416168205e+00, 3.166120933640250e+00, 3.330731608619380e+00, 3.543079862595937e+00, 3.553981413654990e+00, 3.530128122723445e+00, 3.388879643483460e+00, 3.435455154702125e+00, 3.517429712982889e+00, 3.293558709798902e+00, 3.351214870839095e+00, 3.433513821398234e+00, 3.271438308214925e+00, 3.522756334679497e+00, 3.624914513609389e+00, 3.026362550862888e+00, 2.731785620030359e+00, 4.408283512318929e+00, 3.034933659865997e+00, 2.894815946585116e+00, 3.022425945695063e+00, 3.580659504880238e+00, 3.255522966664332e+00, 3.815138811667709e+00, 3.053735855222185e+00, 2.598730452389536e+00, 3.451374183733442e+00, 4.920154677495831e+00, 2.828453786349566e+00, 2.491280734644517e+00, 3.587939133194658e+00, 3.419813477615831e+00, 3.063295225088893e+00, 3.055306707595294e+00, 4.029956158760156e+00, 4.155219387142712e+00, 5.231096667986840e+00, 3.137204159740990e+00, 2.985828109379612e+00, 3.397987931143251e+00, 3.014154456359072e+00, 3.086690247338791e+00, 2.752905057299915e+00, 4.989460590284889e+00, 3.671048886475003e+00, 3.303251381109808e+00, 3.810270127428556e+00, 4.391544676091419e+00, 3.908687438511224e+00, 4.255316298628858e+00, 4.023938314236824e+00, 4.374843910518335e+00, 3.278609341279378e+00, 3.160820054821496e+00, 3.159983175466026e+00, 3.540064612929261e+00, 3.634571816263940e+00, 3.414855626347190e+00, 3.855482288482681e+00, 3.316287751918527e+00, 3.246015829951645e+00, 3.483035232581333e+00, 3.357343167171250e+00, 3.073146889705647e+00, 3.507422167068867e+00, 3.470735488298846e+00, 3.355314720472220e+00, 3.221175877484802e+00, 3.108384648171922e+00, 3.826421936443979e+00, 3.947937622550108e+00, 4.171191293539406e+00, 3.957558346839068e+00, 3.922183990531762e+00, 2.803417897603625e+00, 3.880562672070548e+00, 3.353203333078425e+00, 2.865760418916928e+00, 2.839263538249623e+00, 3.429874611310250e+00, 4.491107175357010e+00, 3.777181942515575e+00, 2.697435726498986e+00, 3.724214514076890e+00, 3.224749817323228e+00, 2.855377649412955e+00, 4.730991805448903e+00, 2.804505483442550e+00, 3.169607006273054e+00, 4.877412589963170e+00, 3.829232261621946e+00, 3.345128186404866e+00, 2.912291490276514e+00, 2.927470580195772e+00, 3.628008918349130e+00, 2.959747616889531e+00, 2.665668878236931e+00, 3.403473595319574e+00, 3.379292115618094e+00, 2.981128878879613e+00, 3.965464290604171e+00, 4.214361697514355e+00, 2.669747666754611e+00, 2.996324504995346e+00, 3.328659835767044e+00, 3.842338845113553e+00, 3.007415417107811e+00, 3.053153388894529e+00, 3.687114138469968e+00, 3.563020390490018e+00, 3.712959377327394e+00, 4.037519745185331e+00, 3.314965625205552e+00, 3.821331406481968e+00, 3.451520128267767e+00, 3.753195434690376e+00, 3.471663198292488e+00, 3.475985115604142e+00, 4.495512607561042e+00, 3.148324305377088e+00, 3.371849788505292e+00, 3.149931458794242e+00, 2.247030899749903e+00, 4.167598865247322e+00, 4.296522921083938e+00, 3.745655291767710e+00, 3.215597242801650e+00, 3.443800813196396e+00, 2.916570800974298e+00, 3.599503610679364e+00, 3.348901847335158e+00, 2.753479950761345e+00, 3.506257913295222e+00, 3.483022586475384e+00, 2.978847628634095e+00, 2.931273452840434e+00, 4.034126995649386e+00, 3.442687152491293e+00, 3.804529301306607e+00, 4.291390458202434e+00, 2.197974461212192e+00, 3.709762498124252e+00, 4.912437399024471e+00, 4.090078216753799e+00, 3.801666584103542e+00, 3.730747661374357e+00, 2.993690240174726e+00, 3.257077237611464e+00, 2.920882709719849e+00, 2.919024240499905e+00, 3.423162338033629e+00, 3.302961615649177e+00, 3.214282357206157e+00, 4.102822509734207e+00, 2.836700779071438e+00, 3.172999328031421e+00, 3.530780292227552e+00, 3.238206983562930e+00, 3.317955774644310e+00, 3.332361606518400e+00, 3.620753772878981e+00, 3.184468697510248e+00, 4.592445452502546e+00, 3.072762351572743e+00, 4.113791149045956e+00, 3.492799893580072e+00, 4.847451796379234e+00, 3.395219504712492e+00, 3.402945929576163e+00, 3.035816935147971e+00, 3.675985396629950e+00, 3.328815813626918e+00, 3.507056025887666e+00, 2.913192987436737e+00, 2.614662634861130e+00, 3.426988888150176e+00, 3.098890407919197e+00, 3.122315778663587e+00, 3.305644774101511e+00, 3.917245600384144e+00, 3.020350143990320e+00, 3.419516387954177e+00, 3.650048371820887e+00, 3.393975234776228e+00, 2.694929880293895e+00, 3.887876467706693e+00, 3.432961906589831e+00, 3.003788942025785e+00, 3.302843032280240e+00, 3.836657281703382e+00, 3.692751113184809e+00, 3.458369452948655e+00, 3.373157384808888e+00, 3.467272886089899e+00, 3.165036057264021e+00, 3.467469875981351e+00, 3.380117025605356e+00, 3.594112926233078e+00, 3.501679590658334e+00, 4.560461261639285e+00, 2.965550460276273e+00, 3.000388563698233e+00, 2.925401745671742e+00, 3.718643103160175e+00, 3.331392178377931e+00, 3.481349915364107e+00, 3.165071783254048e+00, 3.096451336880758e+00, 3.330956131474672e+00, 3.348704770480003e+00, 3.846379834310707e+00, 3.824747032498828e+00, 3.604364597846976e+00, 3.885230508284890e+00, 3.349247349871900e+00, 4.019249337495253e+00, 3.586940070178791e+00, 4.489997564538516e+00, 3.351720542754907e+00, 4.037809440498958e+00, 3.254752339157835e+00, 3.400640551606581e+00, 3.109374842707665e+00, 3.755133510225856e+00, 3.140618882437491e+00, 3.137534754095278e+00, 3.154338421322588e+00, 3.223468979135512e+00, 3.325912724806048e+00, 4.038173110961561e+00, 3.057019695503353e+00, 4.192701733220947e+00, 3.268276655028839e+00, 2.897990039979761e+00, 3.522810186828080e+00, 3.499521776196346e+00, 3.050158972651229e+00, 3.076277677072878e+00, 3.727609684206077e+00, 3.482857298834578e+00, 3.052824974653628e+00, 2.738752622146686e+00, 4.163048774503345e+00, 4.258301125322713e+00, 3.534247004971772e+00, 3.307786714290879e+00, 3.288131639090726e+00, 3.209157739170946e+00, 3.299987358492569e+00, 3.551058391473033e+00, 2.980324273581534e+00, 3.386357674030470e+00, 3.099085284718391e+00, 3.303040326752100e+00, 3.071073952519833e+00, 2.767640838019620e+00, 3.675926753028165e+00, 3.682414294753244e+00, 3.253333239139603e+00, 3.716300086300114e+00, 2.704410860410359e+00, 4.102008492382382e+00, 3.154013013078051e+00, 3.571051612863748e+00, 3.427338354130142e+00, 3.194613292102915e+00, 3.615765794794850e+00, 3.388993716026253e+00, 3.983323445528873e+00, 4.490897407914178e+00, 4.141177346078915e+00, 3.727556710389738e+00, 3.884593578503661e+00, 3.979323599037962e+00, 3.128795870119619e+00, 3.660448154856872e+00, 3.420463317703177e+00, 4.058437467695871e+00, 3.303031931130439e+00, 3.283524458169000e+00, 3.046954809841797e+00, 2.869238282014033e+00, 3.568842178958195e+00, 3.504895622018496e+00, 3.653485373571079e+00, 3.180149286950459e+00, 3.240732183488692e+00, 3.055279419740084e+00, 3.623761600085063e+00, 3.269841827321699e+00, 2.952207564333488e+00, 3.337852951852875e+00, 3.543481958990725e+00, 3.240357915986475e+00, 2.304064414707027e+00, 3.826640388597922e+00, 3.639262865698811e+00, 2.857206522134819e+00, 3.023721840888703e+00, 3.083520579123215e+00, 3.509883342236276e+00, 3.021995532212522e+00, 2.141356901590678e+00, 3.124569301792415e+00, 3.058156241161373e+00, 3.057726648345229e+00, 3.017748752474482e+00, 5.235860308305604e+00, 2.559465926702313e+00, 3.511883309460632e+00, 3.282995034160393e+00, 2.651923360367500e+00, 3.279952809467080e+00, 2.505407971552532e+00, 3.424990957038520e+00, 3.263935029760610e+00, 3.397918023424984e+00, 3.202674104287112e+00, 3.197662037913939e+00, 3.122522755240625e+00, 4.050079974215590e+00, 3.556699757681524e+00, 3.426834384342681e+00, 3.294251580428555e+00, 3.201818131524795e+00, 3.275843360416815e+00, 3.530832242007955e+00, 2.724722668781121e+00, 3.017238168209838e+00, 2.855346592989782e+00, 3.180864903561123e+00, 3.040105505967100e+00, 2.854734981888747e+00, 2.752829477188043e+00, 3.032196663488148e+00, 3.240205252461402e+00, 3.135042987728770e+00, 3.253319046946569e+00, 3.282101595997009e+00, 3.465345165217400e+00, 3.356349213850755e+00, 3.322980024783446e+00, 3.442262314582962e+00, 2.930471276942175e+00, 4.305940324780568e+00, 3.770916818225140e+00, 3.130323004403222e+00, 3.284068761084368e+00, 3.672291452498649e+00, 3.506216544811839e+00, 4.480840968939011e+00, 4.020204781174396e+00, 3.066588763726552e+00, 3.222661313876768e+00, 3.028804795453173e+00, 3.376915096367404e+00, 2.939809198156388e+00, 3.169866769070250e+00, 3.365149864496796e+00, 3.222989836106943e+00, 3.291502872887149e+00, 3.296778019577666e+00, 3.503311057617867e+00, 3.363740460680013e+00, 3.446025958511452e+00, 3.494000154716795e+00, 4.033424634936709e+00, 3.084014898062700e+00, 3.015582236889885e+00, 3.685278074216423e+00, 3.279174500802393e+00, 3.309114093176512e+00, 3.779227721368978e+00, 3.143810642630869e+00, 3.700920078687340e+00, 3.567887947913818e+00, 3.805799107058424e+00, 3.309581969661338e+00, 3.777580131720978e+00, 3.986279514736146e+00, 3.309646260338152e+00, 3.531022681241065e+00, 3.482370357635017e+00, 3.384247165484049e+00, 3.452106999452977e+00, 3.375216374865532e+00, 3.301770766803982e+00, 3.553184064525039e+00, 3.465136279904427e+00, 3.005369238345539e+00, 2.692120735708943e+00, 2.877467646320871e+00, 3.054594716345968e+00, 2.986440238798066e+00, 3.519464783290582e+00, 3.080305323703838e+00, 2.763855488711620e+00, 4.331382697258892e+00, 3.546533036429492e+00, 3.132713482251076e+00, 2.892202947957701e+00, 4.707167066082980e+00, 3.974366180951404e+00, 4.310661669412512e+00, 3.431128441546861e+00, 3.011040864066544e+00, 3.344944066100180e+00, 2.821705553540486e+00, 3.744510076437678e+00, 4.769768309187583e+00, 3.093302249130835e+00, 3.186314989021318e+00, 3.437365649919652e+00, 3.127682236035637e+00, 3.107576716625976e+00, 4.059983716295779e+00, 3.334362309888059e+00, 3.374297324130354e+00, 3.203147030123513e+00, 3.196413361264641e+00, 3.003045563845133e+00, 4.102606325463691e+00, 3.169129682699548e+00, 3.171301123624918e+00, 3.394163214328696e+00, 3.538214593470745e+00, 3.559128714251691e+00, 3.522847059569872e+00, 3.537116759253194e+00, 3.408933357906283e+00, 3.382900782537837e+00, 3.455333167223252e+00, 3.399947039341305e+00, 3.466319213729425e+00, 3.336240040700313e+00, 3.355645715688287e+00, 4.496494493166874e+00, 3.410893727442371e+00, 3.330870422559852e+00, 3.668932880014679e+00, 3.044123174691178e+00, 3.443520250745164e+00, 3.563473525657893e+00, 3.229277077124602e+00, 3.937204343755718e+00, 3.002022733750606e+00, 2.507069418310885e+00, 3.554941820531682e+00, 4.658847522976131e+00, 2.900237490415845e+00, 4.635004163990102e+00, 3.742489493551895e+00, 3.375307216730910e+00, 2.964332733991599e+00, 4.354175078507382e+00, 3.552481330154328e+00, 3.241173770664266e+00, 3.205775466275389e+00, 2.887114314499206e+00, 3.571542041643438e+00, 4.327076310560618e+00, 5.274537469693555e+00, 3.075539963346002e+00, 3.261596868234747e+00, 3.270002562862790e+00, 3.214442287564582e+00, 2.601112435556823e+00, 3.150926993940821e+00, 4.369233786839492e+00, 3.594864502315955e+00, 3.299716578441422e+00, 2.922212574643016e+00, 3.266140427786649e+00, 3.300040465296520e+00, 3.502081708775217e+00, 3.430572428774393e+00, 4.009618511443620e+00, 3.548127516855320e+00, 3.622229802737973e+00, 3.626571430807847e+00, 3.555452551045339e+00, 3.562717124671690e+00, 3.533204125341221e+00, 3.479577693637642e+00, 3.446051945814912e+00, 3.567977080313089e+00, 3.983865601639558e+00, 3.739138574244063e+00, 3.460035230115800e+00, 3.397675979817971e+00, 3.410748679898586e+00, 3.441109917694527e+00, 3.385150330494781e+00, 3.167503056547465e+00, 4.376536111410417e+00, 3.897438894179178e+00, 4.283243700597613e+00, 4.314810360436955e+00, 2.970777770323071e+00, 3.092852371827874e+00, 3.795504215963517e+00, 3.220276277531749e+00, 3.490958073801654e+00, 3.131640054443099e+00, 3.182918379107265e+00, 3.467660538334865e+00, 3.799036279843028e+00, 4.152059709839046e+00, 4.667740978730351e+00, 3.772982766118883e+00, 3.592724696511496e+00, 3.541509431980778e+00, 3.539938653056612e+00, 3.161753928530122e+00, 3.481773002950478e+00, 2.912494861413207e+00, 2.783528735215603e+00, 3.358923494842616e+00, 2.982529936973086e+00, 3.736016879689794e+00, 3.305389766709271e+00, 3.918112376699753e+00, 4.058865726962055e+00, 4.031064863815778e+00, 3.552554531526217e+00, 3.450904794893809e+00, 3.249895108689251e+00, 3.023682134932030e+00, 3.009926550514806e+00, 3.371756899144031e+00, 3.214786476095579e+00, 4.412693514762632e+00, 3.245209542925374e+00, 4.056742929961471e+00, 4.177450726979226e+00, 4.042294359111267e+00, 4.017524172141072e+00, 4.077452803547878e+00, 3.783439281598903e+00, 3.298560523610973e+00, 3.720535963046156e+00, 3.579524297106986e+00, 3.708248377175946e+00, 3.656874538891281e+00, 3.910357200132411e+00, 3.800346067779401e+00, 3.813389267951087e+00, 3.737513615952247e+00, 3.260375239087107e+00, 3.215455200848620e+00, 3.811962364971710e+00, 3.085526281379718e+00, 3.158428231788700e+00, 3.126197263831604e+00, 2.993498776085629e+00, 3.172850254746299e+00, 3.532605592340517e+00, 3.233508804773678e+00, 3.587592056823339e+00, 3.240069502655410e+00, 3.893336484574214e+00, 3.860300690301293e+00, 3.880454633141309e+00, 3.262904420049410e+00, 3.026732776262648e+00, 3.213295057228506e+00, 3.017744859188732e+00, 3.657825581191227e+00, 3.232924300457539e+00, 3.404698327112593e+00, 3.320764937045614e+00, 2.973103458642562e+00, 3.245187289622530e+00, 3.300779601530716e+00, 4.147864448353282e+00, 3.853774376877703e+00, 3.355998131330867e+00, 3.268211702369966e+00, 3.311825513016800e+00, 3.168217937524145e+00, 3.598382978625197e+00, 3.307208919423038e+00, 3.143293305024567e+00, 3.181307747484560e+00, 3.266888490328817e+00, 3.397353179882961e+00, 4.256203923171588e+00, 3.620484703414397e+00, 4.276376830993986e+00, 3.489646306400247e+00, 3.600975598890033e+00, 3.688213559424892e+00, 3.761968970408509e+00, 3.793604696098908e+00, 3.606185333272191e+00, 3.779778511876613e+00, 3.854464128091128e+00, 3.626612137201371e+00, 3.531232130222871e+00, 3.196504660771332e+00, 3.361725486685606e+00, 3.461571224603650e+00, 3.071552201124513e+00, 3.354872749301297e+00, 3.244042989442040e+00, 3.186400825200628e+00, 3.213378613862986e+00, 3.173966352093115e+00, 2.870034642381885e+00, 3.760204346104228e+00, 3.113448649594408e+00, 3.209314082207397e+00, 2.568293943607326e+00, 3.608310696300376e+00, 3.643507902075406e+00, 3.282220657748670e+00, 3.343377756437829e+00, 3.025939791230176e+00, 2.747277478985787e+00, 3.722859688638326e+00, 4.057514865178844e+00, 2.982950146479693e+00, 4.201124318438871e+00, 4.010786914489803e+00, 3.811151840768609e+00, 2.596444869212253e+00, 2.650982020696465e+00, 3.819235193568015e+00, 3.680470311334390e+00, 3.431534076755153e+00, 3.647425892802141e+00, 3.542847789456726e+00, 5.319887593105097e+00, 2.872178827337729e+00, 2.816394190433390e+00, 2.558360135399323e+00, 3.448184296785221e+00, 3.125439530360507e+00, 3.623954201579811e+00, 3.575731705110554e+00, 3.855238024676086e+00, 3.726340779649473e+00, 3.649643611426860e+00, 3.504221310319998e+00, 3.408511368518023e+00, 3.734216358491889e+00, 3.076257050455323e+00, 3.394255265246418e+00, 3.301117511592104e+00, 3.470713647179451e+00, 3.523715188197975e+00, 3.354305154601540e+00, 3.309612055074466e+00, 3.003397926416827e+00, 3.029356728432009e+00, 3.132785911771546e+00, 3.034317352942923e+00, 2.701004762453246e+00, 3.353478886538263e+00, 3.202994775920004e+00, 2.842696966103619e+00, 2.751591312931580e+00, 3.490563620138889e+00, 4.066181123248981e+00, 2.907637709422608e+00, 2.940877444878318e+00, 3.858870313425227e+00, 3.670069405569030e+00, 3.095218143834827e+00, 2.925187567922815e+00, 3.294412569319818e+00, 2.924618961839716e+00, 3.394293122229965e+00, 3.073422784095706e+00, 4.897718855686935e+00, 2.813329524597860e+00, 3.006957086914573e+00, 2.972892834947510e+00, 2.904068991881568e+00, 2.805556374721445e+00, 3.587142770639590e+00, 3.417031398153756e+00, 3.938203937491243e+00, 3.213772449756938e+00, 3.620772103835300e+00, 3.123837566620157e+00, 3.140744575135515e+00, 2.634797934970520e+00, 3.344390266651858e+00, 3.209013761055185e+00, 3.701083979337593e+00, 3.259707969631461e+00, 3.759682972459892e+00, 3.650641987694321e+00, 4.057192761548863e+00, 3.714582943264838e+00, 3.846639538673232e+00, 3.378248938458642e+00, 3.428943332432395e+00, 3.367991926585414e+00, 3.300127902169211e+00, 3.452343981218031e+00, 3.269547534143081e+00, 3.064803269970600e+00, 3.174035431406576e+00, 2.546697003351770e+00, 3.302965652287056e+00, 3.866727993392809e+00, 4.252073933172795e+00, 2.419649557837731e+00, 5.287572306866603e+00, 3.644823772762633e+00, 3.360528312760067e+00, 3.352464404368141e+00, 2.650589888263136e+00, 3.583534859975019e+00, 5.496010272431966e+00, 4.832993547703961e+00, 2.703231081545497e+00, 3.543157823208424e+00, 3.460683833010759e+00, 3.194790832961159e+00, 3.125052246433218e+00, 3.551156156560444e+00, 3.901495428749788e+00, 3.533525567105328e+00, 4.408178696799109e+00, 4.356595892823063e+00, 3.672380552882414e+00, 3.334638769413064e+00, 5.095985308691619e+00, 2.504530523592510e+00, 4.513885542285053e+00, 3.695785059175243e+00, 3.469295358528176e+00, 3.585916378033429e+00, 3.913920687222380e+00, 4.173710913304927e+00, 4.654741357575270e+00, 4.549045080008569e+00, 3.453138891069444e+00, 3.792991820016816e+00, 3.632238976509050e+00, 3.688226313436786e+00, 3.212141010863436e+00, 3.928885595233871e+00, 3.845224589207795e+00, 3.661864593144141e+00, 3.949837501439244e+00, 3.638537089169181e+00, 3.787936525235050e+00, 4.130383689839460e+00, 3.380175336048054e+00, 3.455318884762900e+00, 3.679416500756141e+00, 3.479526226796744e+00, 3.661364423993924e+00, 3.488266776794602e+00, 3.723370704097994e+00, 4.004042859729724e+00, 3.416195026841895e+00, 3.453517069994574e+00, 5.756632368272198e+00, 5.051521372160749e+00, 4.366173858615326e+00, 3.462735157843874e+00, 3.081000807388925e+00, 3.032632485702787e+00, 4.147088288033587e+00, 3.678326121989505e+00, 2.817200104933149e+00, 2.657407568823549e+00, 4.030963543521035e+00, 3.893929388807971e+00, 2.556315858815787e+00, 3.061930278116724e+00, 3.609182863997737e+00, 4.177493205596516e+00, 4.313740294633711e+00, 3.556544513421733e+00, 3.430982493314445e+00, 3.124209479417796e+00, 3.410113075518116e+00, 3.454765147519389e+00, 2.849001770073202e+00, 2.743603786390195e+00, 4.682215305745241e+00, 3.484784419682387e+00, 2.238282160852934e+00, 5.119768587247477e+00, 3.113277405745125e+00, 3.362411890431440e+00, 3.353396651971730e+00, 3.097381353878819e+00, 3.272290987765625e+00, 3.610402246721843e+00, 2.822470651226153e+00, 3.023970366507265e+00, 3.766467584409074e+00, 4.342643341750746e+00, 3.735857945429987e+00, 4.533441130709795e+00, 3.595906073821537e+00, 2.912743728636058e+00, 3.603268090643598e+00, 3.706873501607446e+00, 3.734581892612661e+00, 3.151338394405968e+00, 4.288447351604002e+00, 3.669842653144970e+00, 5.086709671147122e+00, 2.676551148725502e+00, 4.324277501632043e+00, 3.068635259744110e+00, 3.358856010487031e+00, 3.933808761082905e+00, 3.128859902820090e+00, 3.225020410016885e+00, 3.707446291537062e+00, 4.015780455403686e+00, 2.871716943799996e+00, 3.665836440996236e+00, 6.208127548123843e+00, 3.039858379048337e+00, 3.155511746373167e+00, 4.165573488672838e+00, 3.060938380620275e+00, 3.469358590469978e+00, 3.128611922895129e+00, 4.044321198832827e+00, 4.414485330698326e+00, 3.647020861288919e+00, 4.754379615089523e+00, 3.823310945924224e+00, 4.274966805615947e+00, 3.492557050142772e+00, 3.020370482926392e+00, 2.990409257054813e+00, 2.879431899825794e+00, 3.571578467578429e+00, 3.399007659147785e+00, 2.952703083873754e+00, 4.156588751666150e+00, 3.969827622031902e+00, 4.195216768789174e+00, 3.610418077951321e+00, 3.034148791354475e+00, 3.428207775714305e+00, 3.028684026797449e+00, 3.391384252774014e+00, 3.527597298596773e+00, 4.028092851753823e+00, 4.915616338054532e+00, 3.432226631599067e+00, 3.371566321741913e+00, 3.212565661570189e+00, 3.355347858056404e+00, 3.490769255948876e+00, 3.635614263904869e+00, 3.432372209341448e+00, 3.137770549981114e+00, 3.055339031069398e+00, 3.217903304135165e+00, 3.228107525720964e+00, 3.119861436030031e+00, 3.103393385594540e+00, 4.370150930280182e+00, 4.220365081851881e+00, 2.981905807725518e+00, 3.817891844940169e+00, 3.593516678335047e+00, 3.612591109033135e+00, 3.450462422108407e+00, 2.941933877229001e+00, 3.759342368034633e+00, 5.239867082459748e+00, 3.676497304647429e+00, 3.461311509346439e+00, 3.656856820926815e+00, 3.582909993886650e+00, 3.463193354856524e+00, 3.099438233442330e+00, 3.256605521401012e+00, 3.798168291087821e+00, 3.096710165182589e+00, 3.791822321992354e+00, 4.239165741206821e+00, 3.220618401869106e+00, 3.109102244091400e+00, 3.331248516450717e+00, 3.446561755875930e+00, 3.062807451823360e+00, 3.596115536681633e+00, 3.282145307352982e+00, 4.439287624889000e+00, 3.136685055463531e+00, 3.711397123762818e+00, 3.584359458163970e+00, 4.097250927384785e+00, 3.625285882315695e+00, 3.320922055864976e+00, 2.801185142333820e+00, 3.559673808367707e+00, 3.014234976094422e+00, 3.312954367367476e+00, 3.687057424995956e+00, 4.539590517068521e+00, 3.732287293417837e+00, 4.015204798499622e+00, 3.728387004682312e+00, 