MTP
version = 1.1.0
potential_name = MTP_l2k2
scaling = 1.200000000000000e-02
L = 2
scaling_map = K
species_count = 84
potential_tag = 
radial_basis_type = RBChebyshev_sss
	min_dist = 6.800000000000000e-01
	max_dist = 6.000000000000000e+00
	radial_basis_size = 8
	radial_funcs_count = 6
shift_coeffs = {-2.834926864407662e+00, -3.022359101376674e+00, -2.976530119443225e+00, -4.130772311994441e+00, -5.758181753797373e+00, -5.966099191574284e+00, -4.079689847951728e+00, -3.256300438223149e+00, -1.872104982146132e+00, -2.041852133295971e+00, -4.898000007899545e+00, -3.488017975594744e+00, -5.358844643133162e+00, -5.138868353876037e+00, -2.675332292779675e+00, -2.004519751506806e+00, -3.754969976399416e+00, -6.861791668356762e+00, -6.578183110433090e+00, -6.338909496481413e+00, -8.166454594158589e+00, -6.751890703064282e+00, -5.782983790234263e+00, -5.379624334008685e+00, -3.894374526401592e+00, -1.544172124055492e+00, -7.126185563327038e-01, -2.952307918216399e+00, -3.500025093354393e+00, -3.999369038298707e+00, -3.556304121982464e+00, -2.295432455531786e+00, -2.258562652417659e+00, -3.118789071062992e+00, -8.060597033639063e+00, -8.651583498677775e+00, -8.531940160652214e+00, -9.652943133252219e+00, -8.378038333772944e+00, -5.335270084976806e+00, -5.818071142215474e+00, 2.151335403716212e+01, -1.792070322366675e+00, -7.800425368558153e-01, -2.884491025742768e+00, -3.875805462402472e+00, -3.199678769507777e+00, -3.036722246615081e+00, -2.341191488250997e+00, -2.143431692411579e+00, -3.532529679639108e+00, -7.817835109891858e+00, -7.367790977832096e+00, -6.716068886928128e+00, -6.523332669771844e+00, -5.862690172137557e+00, -6.699058963162768e+00, -1.056249247968422e+01, -1.249833255849553e+01, -6.016206039173872e+00, -6.421290976021536e+00, -6.250427831934587e+00, -6.516183711700891e+00, -5.842573196073729e+00, -1.815085995262979e+00, -5.972734362770550e+00, -7.767516416049803e+00, -7.770161838487549e+00, -8.972605296665551e+00, -8.682745895929102e+00, -8.978206921459634e+00, -7.933999957955160e+00, -5.045461028101815e+00, -2.778639194070996e+00, 6.438033668855675e-01, -1.704666689819117e+00, -2.286350210319892e+00, -4.218873279686903e+00, -5.700974265688925e+00, -9.116637161287576e+00, -9.991847764914844e+00, -1.265464582672420e+01, -1.343334831126046e+01, -1.467674916989362e+01}
scal_coeffs = {-5.450753778851720e-01, 2.592885828562219e+00, 2.598300565198310e+00, 1.480173121052330e+00, 3.786573464142500e+00, 2.444172663995682e+00, 8.004257066355207e-01, 2.651579713430127e+00, 1.312342539056343e+00, 4.687763638032309e-01, 1.083070405237122e+00, 2.150528703945618e+00, 1.860522143448337e+00, 8.676056451694096e-01, 1.823233369001472e-01, -2.326180803343418e-01, 4.867996175022735e-01, 1.420161978660822e+00, 9.227858068035781e-01, 4.641742590430535e-01, 2.230803148452074e+00, 1.296812330437680e+00, 2.073743925637889e+00, 1.824623581095751e+00, 4.155208297668510e+00, 1.508874288285497e+00, 8.648730991145600e-01, -7.442692336709282e-01, 6.663216110423300e-01, 4.043860981197772e-01, 2.236198858303483e+00, 2.311026761764558e-01, 1.563910082108301e+00, 2.288554138407893e+00, 1.575224156990242e+00, 1.142763899412520e+00, 1.311330392518474e+00, 5.465307734742462e-01, 1.970793503202833e+00, 2.545675185961768e+00, 1.146425380867737e+00, 1.103947889281096e+00, 1.238960542236780e+00, -6.938149159166883e-01, 8.520523813630505e-01, 2.138752422078302e+00, 6.918171075107826e-01, 1.559688572428279e+00, 4.888340606987153e-01, 1.660074302936830e-01, 1.207574183586510e-01, 8.846068301882654e-01, 2.729563913084597e-01, 1.497502980713278e+00, 9.943410688845279e-01, 1.235288531222624e+00, 1.341410763791515e+00, -8.339435434605214e-01, 8.049308865042383e-01, 1.100039339932823e+00, 1.793675601638395e-01, 1.315531346564883e+00, 1.699916551539752e+00, 1.513098775142593e+00, 7.716371536804912e-01, 1.575082790430579e+00, 8.819784078663049e-01, 3.204543104028932e-01, 9.253592451451389e-01, 2.318553378974353e+00, 1.323330818337498e+00, 1.433225876790027e+00, 7.421994780680268e-01, 1.324085154186475e+00, 1.594481244228695e+00, 2.238238829546863e+00, 2.443924655036365e+00, 9.664098565229510e-01, 1.210837906760579e+00, 1.370247091357918e+00, 1.220708578493771e+00, 1.389579505745664e+00, 1.143109932787727e+00, 1.793504383882548e+00, 9.065982330823473e-02, 3.771530946202008e-02, 1.509850256358346e+00, 5.844684546224290e-01, 7.835566767370322e-01, 5.718721603640062e-01, 2.528333418810516e-01, 5.197821951952050e-01, 1.872193616238458e+00, 2.626849624840633e-01, 2.780470755965476e-01, 9.911158488080130e-01, 2.169272192919930e-01, 5.786389999869161e-01, 3.792350606941405e-01, 1.902168537384850e+00, 1.144249816336206e+00, 1.783176882607933e+00, 2.234346196815467e-01, 4.574780942429661e-01, 2.002470324986517e+00, -1.740682328239866e-01, 1.886034911524735e-01, 5.705136777269395e-01, 2.508865452918495e+00, 1.708923860853966e+00, 2.110012866753436e+00, 1.739482486113463e+00, 2.177742514612857e-01, 9.402478020499091e-01, 9.312401979501768e-01, 1.180496428401027e+00, 5.035931468629009e-01, 1.016639535061964e+00, 1.078200147439592e+00, 7.663806033812915e-01, -9.065266779219908e-02, 1.505933833697398e+00, 1.499507115292257e+00, 1.561892992968365e+00, 2.582320636245115e+00, 4.869467070910346e-01, 2.089863828323757e+00, 1.405667663850823e+00, 1.267436119586005e+00, 7.502615287736385e-01, 3.348614274863329e-01, 9.887553097855981e-01, 5.385045153605721e-01, 2.683266684801767e+00, 1.443535557960956e+00, 8.425259094066793e-02, 1.438552383331949e+00, 1.135666608607502e+00, 1.804201833885490e+00, 1.228521821944156e+00, 1.409544277290752e+00, 1.915112524464267e+00, 1.125863904845552e+00, 1.537463704852092e+00, 5.794595383132696e-01, 8.845154263787148e-01, 9.152131820367162e-01, 1.290440475467884e+00, 1.306129197735068e+00, 8.528147556378315e-01, 7.978272011858960e-01, 2.287313140037908e-01, 1.549108000040139e+00, 1.864059112527295e+00, 1.565182639598051e+00, 4.862221940739062e-01, 1.568886275446723e+00, 1.011236192020495e+00, 1.542405986108572e+00, 1.501774892828366e+00, 1.054337515347578e+00, 9.839587416673242e-01, 1.069180318356809e+00, 6.889585930417836e-01, 1.249617309529063e+00, 1.350995435359879e+00, 1.257699470544265e+00, 1.243897997963953e+00, 4.761827187180779e-01, 7.311400271671138e-01, 4.931130153870727e-01, 7.817400219346117e-01, 9.631610252054821e-01, 7.355287403159753e-01, 1.967394674257220e+00, 1.725303351290131e+00, 8.371323197047705e-02, 1.172382130173591e+00, 1.028830903480211e+00, 1.670242940335438e+00, 1.139375393459479e+00, 1.744474798979421e+00, 1.516324788265611e+00, 2.656827445165622e-01, 4.480712469987879e-01, 1.191395785628807e+00, 5.392681514081950e-01, 1.033376248633920e+00, 1.806968130099162e+00, 1.184774775826990e+00, 1.347007322208669e+00, 3.768511172354864e-01, 1.191214835393300e+00, 1.075493152242475e+00, 5.700565091225592e-01, 8.577168812002739e-01, 1.704047931755514e+00, 6.791140693837752e-01, 1.774571830185331e+00, 1.144569040597965e+00, 1.035346994663706e+00, 1.220438336502848e+00, -1.499637874341940e-01, 1.150626392657179e+00, 1.168001276856578e+00, 9.626783988655421e-01, 1.157803455069037e+00, 2.094526929088013e+00, 2.068585958914126e+00, 8.645261565126389e-01, 1.014566990475865e+00, 8.695972796451998e-01, 1.469503660457484e+00, 1.603122687588297e+00, 1.651604543710053e+00, 9.344772941356162e-01, 1.213599833225923e+00, 5.194523435918915e-01, 1.296269118321733e+00, 6.973902758928447e-01, 1.430714455521659e+00, 1.723496841845607e+00, 8.241092517843084e-01, 1.240601503759398e+00, 1.818119100123079e+00, 9.505273936488902e-01, 1.268819154325975e+00, 1.180713377181294e+00, 1.249965519712616e+00, 1.328302362644515e+00, 1.332381480437094e+00, 1.375391538705268e+00, 8.920382660190418e-01, 1.198273624605318e+00, 1.473980333117699e+00, 1.717091706979997e+00, 1.060023838978637e+00, 6.159810939908852e-01, 1.490678641653216e+00, 4.216734563036680e-01, 1.612213458045675e+00, 1.118285713748725e+00, 1.140023284513419e+00, 7.183977391918271e-01, 1.243145593747274e+00, 4.068442109709336e-01, 1.240601503759398e+00, 1.218439628632343e+00, 1.153942010251757e+00, 1.060406172599753e+00, 1.309156353896359e+00, 1.377998323180641e+00, 4.188151369280346e-01, 1.021477400658160e-01, 1.295654904501481e+00, 6.207841553208990e-01, 4.242765616654369e-01, 1.749613779129023e+00, 1.837669728159775e+01, 3.161534443078950e+00, 1.205109758727221e+00, 1.976166301512515e+00, 2.080387239544816e-01, 1.442899637439041e+00, 1.484835084922838e+00, 9.287106698887228e-01, 2.608631836406408e+00, -6.359473852502467e-01, 1.521959865594304e+00, 1.312602147795602e+00, 1.027400312848571e+00, 1.439605178902150e+00, 1.403862524960567e+00, 9.843276896240166e-01, 8.501828460007215e-01, 8.590221423595791e-01, 1.337039896627504e+00, 4.437972348213033e-01, 2.725417352603458e-01, 1.921293635780041e+00, 2.042642325133419e-01, 1.255872856964110e+00, 1.951968743373942e+00, 1.259373148715980e+00, -1.017995761076831e+00, 4.052356279070797e-01, 1.607551248106910e-01, 1.922437825308794e+00, 9.453904606219142e-01, 2.568244412328796e+00, 1.966676115353055e+00, 1.560822482162543e+00, 5.541332574960889e-01, 2.217981902981442e+00, 1.576857549379872e+00, 6.409669729916133e-01, 1.091971806084211e+00, 1.546562612166684e+00, 1.070957118907091e+00, 8.293287507075668e-01, 2.380422433145221e+00, 1.018017122717069e+00, 1.086945900076992e+00, 1.187593599374307e+00, 7.216240356429076e-01, 1.581374736279995e+00, 2.076032069191993e-01, 1.240601503759398e+00, 5.906314914291777e-01, 3.891913291527092e-01, 1.476534444077335e+00, 6.282392313596570e-01, 5.231970455818244e-01, 1.312296232259150e+00, 1.135151786901436e+00, 2.339765696570884e+00, 1.295049864971042e+00, 1.223638181133536e+00, 2.277879440714394e+00, 2.164854436285246e+00, 1.809433809593144e+00, 2.409535225406655e+00, 1.395609161687192e+00, 2.476131605433674e+00, 1.088597179842309e+00, 1.072653997124197e+00, 1.207564549911597e+00, 1.083166048414658e+00, 6.185823956237076e-01, 2.945502285110301e-01, 1.240601503759398e+00, 1.341351918265951e+00, 1.246990406069735e+00, 2.130321791106477e+00, 9.072028343632357e-01, 1.507391595427855e+00, 1.560801924306133e+00, 1.843210468356304e-01, 1.611346124085277e+00, 2.283076152101515e+00, 1.671188419577727e+00, 6.701073538080824e+00, 1.111738384868205e+01, 1.058723694281728e+00, 1.804750942609884e+00, 2.037392622842945e+00, 3.164003139793826e-01, 3.087267323193682e+00, 1.488954548458246e+00, 2.449857857820009e+00, 5.688375909006074e-01, -4.258399304602905e-01, 4.422025807792799e-01, 3.599209755393657e+00, 1.826532757010666e+00, 1.356509444906316e+00, 1.333865467335288e+00, 1.002293273669322e+00, 9.085059579839216e-01, 1.545318524817241e+00, 2.222579447789738e+00, 2.112012022390520e+00, 1.907072764381542e+00, 1.993647771592155e+00, 1.822121733738693e+00, 1.210523662007328e+00, 2.091618161068066e+00, 1.205188793348638e+00, 3.253731560453119e-01, 5.471301966537532e-01, 9.415842167669574e-01, 8.654784557046847e-01, 5.854960673702457e-01, 8.613800065778492e-01, 1.995659165382693e+00, 2.036906148780313e+00, 2.367241016457798e+00, 1.309040268251927e+00, 3.389551134867026e+00, 8.784825755903662e-01, 7.179679716366056e-01, 3.125182324731964e+00, 1.798734434735280e+00, 8.184519596910099e-01, 3.208887073621053e-01, 3.602227744051667e-01, 6.266647194566358e-01, 1.437452076949209e+00, 1.435439985825150e+00, 1.639858252061729e+00, 1.575605924588670e+00, 1.240601503759398e+00, 1.446452303003215e+00, 2.427059969720883e+00, 8.918071005987055e-01, 1.432628798826582e+00, 1.158808939711878e+00, 1.567184250704639e+00, 9.047559143190124e-01, 1.454388484826096e+00, 3.079224110068496e+00, 1.220694609382884e+00, 7.146845327317264e-01, 1.332906369843331e+00, 5.944610482337123e-01, 1.278846748732690e+00, 5.813890582109390e+00, 1.026081511132108e+00, 4.418691525171392e+00, 2.017091677659212e+00, 1.341055749071918e+00, 5.104551561886716e+00, 9.475141147123900e-01, 5.881458821789267e-01, 1.240601503759398e+00, 2.163243144440109e+00, 1.167078850992929e+00, 8.775239378350933e-01, 9.947826515892806e-01, 1.608629157694116e+00, 1.294403571916674e+00, 8.602269811148894e-01, 1.670796532147785e+00, 8.367247502882408e+00, 1.435525122319241e+00, 4.400088505071744e+00, 2.236049021274797e+00, -3.666712951824619e-01, 1.811213071222536e+00, 2.218568556598507e+00, 1.392795047369290e+00, 4.537719254587381e+00, 1.484532176770960e+00, 2.083081102940774e+00, 7.627449789102071e-01, 2.716381961296254e+00, 9.453222792328798e-01, 1.170279004344390e+00, 4.863264260393354e+00, 4.399010650948780e+00, 2.456230184898667e+00, 2.996900826188951e+00, 1.278372777516938e+00, 3.176639614645284e+00, 1.318779632554021e+00, 8.479215974252357e-01, 1.422067674507485e+00, 1.722427252091442e+00, 1.314073870890054e+00, 7.614351490272190e-01, 5.603662086443978e-01, -5.534709966448410e-01, 7.071527114517228e-01, 9.807240393946780e-01, 1.622606093132682e+00, 1.544644379400045e+00, 2.773903336024201e+00, 5.087647157686809e+00, 1.324430624999474e+00, 1.287518354176678e+00, 1.460312594829728e+00, 6.026936264362958e-01, 1.532261610090033e+00, 1.330647131775814e+00, 1.273911927734160e+00, 9.264987303588260e-01, 1.048967611651603e+00, 1.364929389675115e+00, 2.194698423279541e+00, 5.509799431166078e-01, 3.703191765231243e-01, 6.860735684137882e-01, 8.142310513842662e-01, 1.319337643421332e+00, 1.384989328827137e+00, 1.393860917275830e+00, 1.847289525029308e+00, 8.464980198271970e-01, 2.092413760125435e+00, 1.390316491515838e+00, 2.817513032662509e+00, 2.109772680324312e+00, 2.044479147789988e+00, 1.747391336274230e+00, 1.918720306029392e+00, 1.141846213809300e+00, 4.842098309753112e-01, 2.003450586007594e+00, 3.315736738825136e+00, 2.041891024838960e+00, 2.677293503867082e+00, 2.087775373696265e+00, 2.523306169011790e+00, 1.257870810358257e+00, 4.106541372958605e-01, 1.321438019054165e+00, 1.596349654212421e-01, 4.817539549441924e-01, 1.412253775583532e+00, 1.546001423059737e+00, 1.048767454361963e+00, 2.211681913730879e+00, 2.276055559631127e+00, 2.173406552723161e+00, 2.002325969433455e+00, 6.444715265835661e-01, 4.373481850341842e+00, 2.744804091623799e+00, 3.942262210545741e+00, 6.305635353100398e+00, -9.705711957503297e-01, 1.185602515085539e+00, 3.066687825424270e-01, 2.004467809383568e+00, 1.792878157229802e+00, 4.165521743987823e+00, 6.495650292088558e+00, 2.620106463797492e+00, 4.897459776677691e-01, 2.646082103975660e-01, 6.905787306507357e-01, 1.894133176494779e+00, 2.965304690482010e+00, 3.038842863130512e+00, 2.048637874646585e+00, 1.074707563846187e+00, 3.121483860786895e-01, 2.228157195763856e+00, 4.188660728475425e-01, 1.267803388405572e+00, 6.735945536723242e-01, 2.532105046908277e+00, 2.483026719890804e+00, 3.160107874158774e+00, 9.004494157319615e-01, 1.079408485697377e+00, 1.769983837178065e-01, 6.975988601400265e-01, 1.480684159945098e+00, 6.611643651042097e+00, 3.337547370341630e+00, 1.953649932939829e+00, 7.608402477981627e-01, 3.989091771468333e+00, 2.822590913896898e+00, 5.665286880013605e-01, 9.613764678861899e-01, 5.615243460100552e-01, 1.060314717687001e+00, 2.562732727424969e+00, 2.545700224622616e+00, 1.306182114507489e+00, 9.559558523320112e-01, 6.216221794378546e-01, 4.648377362526768e-01, 1.013537091118313e+00, 1.384424306629622e+00, 1.430245144505255e+00, 1.880871702468069e+00, 2.219127205172899e+00, 7.698229770981893e-01, 8.562578733848385e-01, 1.213083182948889e+00, 1.416272677976627e+00, 1.081265968377372e+00, 1.645257560970928e+00, 1.409400857988758e+00, 2.917883829836882e+00, 8.617633850714075e-01, 1.638743845712549e+00, 6.259483185740140e-01, 4.224298819776206e+00, 1.915988792095045e+00, 1.913817158368089e+00, 4.047896909416095e+00, 3.128916295500030e+00, 1.488068567471148e+00, 1.869210658453793e+00, 1.694093516797470e+00, 6.748370169673953e-01, 1.006763832696560e+00, 1.050314737345455e+00, 1.572208602080290e+00, 3.328898427844873e+00, 4.972704285424123e+00, 2.257338885966931e+00, 3.091395854445617e+00, 1.953835215767669e+00, 7.606765550673772e-01, 7.038575599671643e-01, 1.924065086001855e+00, 1.461776809258065e+00, 6.759404623749061e+00, 5.609038204964920e-01, 9.920850133255370e-02, 1.974626700495113e-02, 3.598108660839153e-01, 2.047825515631656e+00, 5.847097024018125e+00, 5.814155060814006e+00, 2.755356394455041e+00, 2.589731989049087e+00, 6.339556032484625e-01, 6.039301950884807e-01, 1.629554174715834e+00, 2.795269658570998e+00, 3.346172370383002e+00, 1.409402821896794e+00, 3.731336173420051e+00, 1.527459794228307e+00, 9.605846219660176e-01, 1.663612618272364e+00, 1.833791415937744e+00, 1.914097721701254e+00, 2.060056576022500e+00, 3.225842328247176e+00, 1.623370767700520e+00, 4.341593659096425e+00, 1.705883732001291e+00, -1.906474915004378e+00, 5.509995698436807e-01, 1.042577356544551e+00, 3.353110613394622e+00, 1.902252932159923e+00, 2.651992070186337e+00, 1.579820181769522e+00, 2.108742790047293e+00, 3.783542273794958e+00, 6.968466986810365e-01, 3.741857115624315e+00, 2.605084102524325e+00, 1.745461398968601e+00, 1.470432834715471e+00, 1.040661715145192e+00, 1.986625328326776e+00, 1.932966619590872e+00, 2.128829505662475e+00, 9.177865713274670e-01, 5.802591543692176e-01, 2.310448435759006e+00, 3.185944434653788e+00, 1.639217581444759e+00, 2.275186619272300e+00, 2.114976544708793e+00, 1.417520185015178e+00, 3.795581848147574e-01, 1.866109361289247e+00, 1.000042720089023e+00, 1.407693185308278e+00, 2.295753626016176e+00, 1.574507781379040e+00, 2.285835680651632e+00, 6.498329385918289e-01, 1.686430794911218e+00, 7.340504042045783e-01, 5.672997134952837e+00, 1.243078204167953e+00, 2.323755321021549e+00, 2.600927148521737e+00, 1.748339327850563e+00, 7.968984302872802e-01, 6.758523150377912e-01, 7.941529364317449e-01, 6.871716990396814e-01, 6.423301727814203e-01, 7.240418355120628e-01, 2.014583027431229e+00, 2.588349026677550e+00, 2.290907315410683e+00, 2.533323214380597e+00, 1.975393186060382e+00, 2.674087056842592e+00, 3.258390108266436e-01, 8.303642950928745e-02, 2.318545257205425e-01, 1.110160476441043e+00, 1.736839726229727e+00, 8.514288186394942e-01, 1.343406720747098e+00, 5.059845804163737e-01, 6.987296012134827e-01, 1.121986399695503e+00, 8.807760100587018e-01, 5.728245691818070e-01, 7.746018340429339e-01, 7.446191056870248e-01, 5.673365055773639e-01, 1.564169683436610e-01, -2.390239542899110e-01, 1.424954435323059e+00, 7.285115067480884e-01, 2.713199386153456e+00, 1.231318621441065e+00, 7.316771643607690e-01, 6.205532560553435e-01, 1.245988528300134e+00, 4.256759013934579e-01, 8.864865543714210e-01, 1.438595216132369e+00, 6.463973035097216e-01, 7.125891203375030e-01, 4.123455324959034e-01, 1.399396193200576e+00, 5.219688909580514e-01, 1.162120868933965e-01, 7.381086095904704e-01, 1.965096394277710e+00, 6.073374647490716e-01, 1.300059750408746e+00, 1.343520086378625e+00, 1.250235856131045e+00, -5.335817386292836e-03, 1.339327120890711e+00, 1.652363618438666e+00, 7.649873907749177e-01, 1.196335447971372e+00, 1.443299038013828e+00, 3.028618555427691e-01, 1.348704390563217e+00, 1.549923946558249e+00, 1.307678670957243e+00, -2.471159582985590e-01, 1.241543915295543e+00, 9.838632046213562e-01, 8.567411351118157e-01, 7.391291515514464e-02, 1.598845016626309e+00, 1.131919524732873e+00, 1.028910532913499e+00, 6.726345112354947e-01, 3.956893877623511e-01, -1.983830331824451e-01, 1.207167986496040e+00, 1.309953569310009e+00, 1.340118166544719e+00, 1.082527117919091e+00, 9.822460235053930e-01, 1.202311242991318e+00, 1.197982277338204e+00, 4.431681245449026e-01, 4.930537640988948e-01, 1.010607003441601e+00, 1.144014156981080e+00, 1.309941137002005e+00, 1.182184018926277e+00, 5.252357608642063e-01, 1.165191669923237e+00, 7.435969080679936e-01, 4.688194781769168e-01, 5.339957164306706e-01, 1.189834469165459e+00, 1.141602153213135e+00, 1.397579107855412e+00, 2.156077374580587e+00, 9.841911686739997e-01, 1.251164163054769e+00, 2.788377435964606e-01, 1.655669608793472e+00, 9.455116030570258e-01, 1.561411927724164e+00, 4.235220663635933e-01, 8.544242839319680e-01, 2.261654575190390e-01, 9.967239959018086e-01, 5.667095930355520e-01, 1.049848506253388e+00, -1.475665792403763e-01, 4.921265275879912e-01, 2.752872954354061e+00, 1.268587806788800e+00, 1.871795810218392e+00, 1.212360336152718e+00, 9.164981426680007e-01, 1.667063658690538e+00, 3.795427964294187e-01, 8.413958801620771e-01, 1.796129416808558e+00, -4.351649950115677e-01, 1.453358874175446e+00, 1.186887684826855e-01, 5.784292812039192e-01, 5.147838921071082e-01, 1.111386975217053e+00, 6.353816662187208e-01, 1.404525043697792e+00, 1.050416005642348e+00, 1.671489459807008e+00, 1.028867141854466e+00, 8.445287207206638e-01, 1.185224576483916e+00, 1.218492199771253e-01, 5.946425349784419e-01, 3.518280878744299e+00, 7.105595104579281e-01, 1.251337264124341e+00, 2.024769544959121e+00, 2.343215550476834e+00, 1.172071612527128e+00, 5.729507469484392e-01, 1.235994868048818e+00, 9.853320601944029e-01, 1.448057341157460e+00, 1.349782605222779e+00, 1.737329781049741e+00, 2.275634564282490e+00, 7.842148555212264e-01, 1.109614353798124e+00, 3.267174441767471e-01, 3.210269832165422e-01, 7.236982228032247e-01, 1.360695607126610e+00, 1.420916529371957e+00, 1.065847472434054e+00, 3.442478577426211e-01, 1.440203927752876e+00, 1.603382808820075e+00, 8.468837193382983e-01, 1.098777854232171e+00, 1.262434020124084e+00, 1.275179297550741e+00, 1.958880399133301e+00, 1.177327583263079e+00, 8.425399205641533e-01, 4.838312776686712e-01, 9.973936232206557e-01, 1.332446485818208e+00, -1.756869739276318e-01, 2.744007136391479e-01, 8.391703750522690e-01, 4.819908957592238e-01, 5.254613325454045e-01, 9.652070803328885e-01, 1.829111087734201e+00, 4.255567610698300e-01, 1.591496265996739e+00, 7.582028948275066e-01, 1.332941967304079e+00, 1.650315531117341e+00, 1.300921881949210e+00, 1.916619877183120e+00, 7.514845470001603e-01, 1.219867673098171e-01, 7.231348785362303e-01, 4.733205575009953e-01, 1.331467478991849e+00, 9.677642073667332e-01, 2.130503244109587e+00, 1.798738266749581e+00, 1.377602394561423e-01, 2.407606506577768e-01, 3.503725917312774e-02, 1.566448873617438e-01, 1.387619300640557e-01, 6.858273107131352e-01, 9.146000089557419e-01, 1.294577968860594e-01, 1.103937379169933e-01, 7.969662155853192e-02, 4.194467717067585e-01, -1.532974773341480e-01, 1.694151958927285e+00, 6.623542114159249e-01, 6.832400535879805e-01, 1.088017691638168e-01, 3.163829942683372e-02, 8.236569435409637e-02, 5.901793430209785e+00, 6.909470110943559e-01, 1.658963302467950e-01, 2.332701184968068e-01, 1.009241655306478e+00, 3.277596006591249e-01, 2.316442715469445e-01, 1.124190066669622e+00, 1.242664550610096e+00, 1.285808704057471e+00, 1.245922773324411e+00, 7.413355424645600e-01, 5.210500665587380e-01, 1.243411155820341e+00, 9.496742659166836e-01, 6.124049264528034e-01, 6.493932994285457e-01, 8.345096864582972e-01, 4.545922652006998e-01, 1.172654250289280e+00, 1.196574084577969e+00, 3.427242263297006e-01, 2.680424485080946e+00, 6.189839876912179e-01, 1.480215170750300e+00, 7.203161102522538e-01, 5.803685157899316e-01, 8.048409061606903e-01, 1.447232695336114e+00, 1.399595764215415e+00, 9.842409463017318e-01, 9.121230483501320e-01, -1.208543724643462e-01, 1.212269912258812e+00, 1.336451486729118e+00, 6.608946824221871e-01, 7.213313882411502e-01, 8.536684349263690e-01, 9.891821995405242e-01, 1.600503419679283e+00, 1.288546071209264e+00, 7.164297272933933e-01, 4.218845122442813e-01, 7.909075249800944e-02, 1.176568867742237e+00, 1.601164769138534e+00, 4.335296377209349e-01, 1.042885345992206e+00, 1.636130122280623e+00, 4.989433991965899e-01, 3.829469033046134e-01, 6.588051021092275e-01, 1.412298405815392e+00, 9.122708760825536e-01, 1.209328248549734e+00, 5.177023555879077e-01, 1.268952811830459e+00, 1.261366891576804e+00, 5.100850000994537e-01, 9.039819269348144e-02, 2.455041387896249e+00, 1.387595441136688e+00, 6.016054469356212e-01, 6.803508679785258e-01, 1.595929241173375e+00, 1.151772280488623e+00, 2.759090570989030e-01, 7.120669114800700e-01, 6.427783667316420e-01, 2.939469258139592e-01, 8.961784905126975e-01, 1.094212924125780e+00, 1.113384276661962e+00, 1.725148449947419e-01, 8.852061098880039e-01, 6.829678122319581e-01, 1.441700045478684e+00, 1.114886317734687e+00, 2.016354475090873e+00, 1.498585122818220e+00, 1.514061314663245e-01, 1.467829603798491e-01, 1.338168358644999e+00, 2.633697998414282e-01, 7.513307782969344e-01, 1.296533948118120e+00, 6.708596026997267e-01, 8.713031839561195e-01, 1.634887153589755e+00, 1.102023024738184e+00, 2.367559832068983e-01, 1.329108573155389e-01, 7.226388747761593e-01, 7.499117626321211e-01, 7.493373118755335e-01, 1.039086445558315e+00, 1.550739212089200e+00, 1.616220247145935e+00, 3.599459450502936e-01, 2.138461245450330e+00, 1.304714866531063e+00, 9.702690508813910e-01, 5.647765368852938e-01, 1.722353716227882e+00, 1.694196007192620e+00, 4.819615712445117e-01, 1.405828085175052e+00, 5.455175717677452e-01, 8.052901004166753e-02, 3.840986323967008e-01, 2.824106672404780e-01, 7.318945614907492e-01, 1.357797797103034e+00, 1.699400195363125e+00, 2.543351158112228e-01, 1.640176196534200e-01, 9.211410755727253e-01, 1.419806892727764e-01, 2.712250395494318e-01, 3.126424603925387e-01, 7.075722101092471e-01, 4.202339997485566e-01, 4.532336431299244e-01, 1.311792527771928e+00, 1.001246384101883e+00, 1.531582260249415e+00, 5.144504340187624e-01, 3.756386264774827e-01, 1.023106701130263e+00, 1.416928547294060e+00, 1.056868895515673e+00, 9.197821183652017e-01, 2.530171287511661e-01, 2.908960940997525e-01, 4.348044663904228e-01, 2.587583719309587e-01, 1.477913502889099e+00, 4.702738339122366e-01, 1.438535749566294e+00, 5.360768479261815e-01, 7.616923914206946e-01, 1.463409256014843e+00, 7.692475849449906e-01, 9.486209155238277e-02, 1.854696418510099e+00, 1.035217969154184e+00, 4.572974411633005e-01, 1.196254658240661e+00, 4.307770224499905e+00, 9.247223797197723e-01, 1.791400276117468e-01, 1.530578601315646e+00, 3.887099399109070e+00, 8.429117426524043e-03, 2.256218983185887e-01, -7.282056655012979e-01, 7.513660540448462e-01, 2.423473955638593e-01, 7.729422098019157e-01, 2.730335093646940e+00, 1.376075126974517e-01, 1.373248975883190e+00, 1.506089186386909e+00, 7.976983937609541e-02, 1.023937477586369e+00, 1.280314845318203e-01, 1.403976598069106e+00, 1.277726533621865e-01, 7.405682749301103e-01, 1.385343767002784e+00, 3.046616777802167e-01, 1.128953447581622e+00, -1.370952079544309e-01, -2.288110899675892e-02, 2.661312295769154e-01, 2.401426143974177e-01, 9.604142022289868e-01, 1.433862447369002e+00, 4.645266247091542e-01, 9.607463475052930e-01, 1.564597313257222e+00, 3.078096712421393e+00, 1.948642476266027e+00, 2.436657877669090e+00, 3.946780885050089e-01, 1.388914893717682e+00, 2.738415824743667e-01, 3.952356416932341e-01, 1.074493011270019e+00, 1.232530405404953e+00, 3.741242350474843e-01, 4.037717264624343e-01, 2.457614886940358e-01, 2.643403643520256e-01, 4.732419687594460e-01, 1.977815258067988e+00, 2.341022182724635e+00, 1.240601503759398e+00, 3.886654959769890e-01, 1.693613667465608e-01, 1.275468544027709e+00, 1.820120201975045e+00, -4.109987799829084e-01, 4.874003628845513e-01, 9.977845167049958e-01, 4.916633495274685e-01, 1.228114301465497e+00, 3.323574909819301e-01, 8.898657400745593e-01, 2.378910695196460e+00, 1.464578548620904e+00, 1.683347576648309e+00, 1.102615292283493e+00, 8.289123538884571e-01, 1.694218382720728e+00, 6.989652731391849e-01, 1.615692628558888e+00, 4.043473823206837e-01, 1.579266574228780e-01, 1.075959290569586e-01, 1.240601503759398e+00, 9.821000041642395e-01, 9.206652774038403e-01, 9.376585915422965e-01, 1.570970376979628e+00, 1.352106461157095e+00, 4.968331898793290e-01, -1.935288715859595e-01, 1.307367140473270e+00, -1.611360030308913e-01, 1.536124562166153e-01, 3.757245785830146e-01, 7.589489439427843e-01, 1.774012381914112e-01, 2.993677829424172e-01, 4.782523073158260e-01, 1.271324791674729e+00, 7.685328071064632e-01, 1.308942738432401e-01, 5.689316607271996e-01, 6.499301657319134e-01, 6.871162318282399e-01, -4.564056227845378e-01, 7.883097271733215e-01, 4.484542978781559e-01, 4.845177007476766e-01, 9.902781784285976e-01, 2.950872450258565e-01, 1.038890993889557e+00, 9.031766455592725e-01, -1.222712580984915e-01, 6.760971590548939e-01, 1.054298549535407e+00, 5.012632101589565e-01, -2.037370022656428e-02, 5.081526162923791e-01, 1.781407714779731e+00, 8.661254169774050e-01, -1.286304680917803e+00, 2.090448207551990e-02, 3.169832709171442e+00, 1.376067691867152e+00, 1.434165055598400e+00, 1.228707716750358e+00, 7.598406774973548e-01, 1.550875627192756e+00, 1.604667362648796e+00, 7.360234328906390e-01, 2.917150168355194e-01, -4.736291712218602e-01, 6.584165795256480e-02, 4.619764028317971e-01, -1.063968035788434e+00, 1.516514388707126e+00, -1.528133759770876e-01, 5.212236516029498e-01, 9.916931837602452e-02, 9.370383702696933e-01, 1.398568079055458e+00, 1.459712938805463e+00, 6.286799373377305e-01, 6.897286591170567e-01, -9.447657098627155e-01, 3.210350618042374e-01, 2.817247728512771e-01, 2.066707719323335e-01, 7.706512421085977e-01, 9.487867446531865e-01, 8.664408997368188e-01, 1.743425929318658e-01, 2.448112668901636e+00, 7.696803868787395e-02, 1.579487590341903e+00, 5.487628055235453e-01, 1.684763763434925e+00, 6.218080767537583e-01, 2.140411196122805e+00, 1.500343300537191e+00, 5.492437378045876e-01, 6.942452501769023e-01, 2.310348668609232e-01, 5.710704698431993e-01, 1.287348448616245e-01, 4.199277124304088e-01, 9.755881697741990e-01, 1.780874344821531e+00, 1.203084779181027e+00, -6.656561621569010e-01, 1.377194169956189e+00, 4.926198787194501e-01, 5.495915890228044e-01, 8.155476707115400e-01, 3.035130248954363e+00, 6.101051736991123e-01, 1.203604555202445e+00, -1.518382171460972e+00, -4.514238702678979e-01, 2.168682405138668e-01, 1.944738778285513e+00, 1.522080236306893e+00, 1.044547040123123e+00, 1.714616175705718e+00, 1.026711091248125e+00, 1.209532172734102e+00, 7.331333408571330e-01, 8.356730696893775e-01, 2.618542925563309e+00, 1.716237553766473e+00, 5.915407917857858e-01, 9.183979942507401e-01, 9.888051663328742e-01, 1.809996860242012e+00, 1.511836748377912e+00, 1.526104065443045e+00, 2.687842465386400e+00, 8.962850608410302e-01, 1.649094371611413e+00, 2.579129518339301e+00, 2.140614637743434e+00, 1.481777662471688e+00, 1.545011689881646e+00, 2.645142426811727e-01, 1.369454830476140e+00, 1.316450390766686e+00, 1.474490379200507e+00, 1.212581960082312e+00, 1.256800727777715e+00, -5.799181040668796e-01, 1.678081992519791e+00, 1.672165513297672e+00, 1.711569615310622e+00, 1.666206560778316e+00, 1.453550213843328e+00, 6.001291688744191e-01, 6.502104388533251e-01, 1.288309463493664e+00, 1.387753073094474e+00, 6.707552839252057e-01, 1.335427823641671e+00, 1.794392936175426e+00, 1.261894917198358e+00, 8.072148335404359e-01, 1.828885332008559e+00, 8.032452569234746e-01, 7.687169040910230e-01, 2.029977831901488e+00, 1.065129911027320e+00, 7.866849257464702e-01, 1.259304799362011e+00, 1.152506939681599e+00, 1.056204687755133e+00, 3.720210368626227e+00, 1.286066492023819e+00, 1.386056632542829e+00, 1.188759628513044e+00, 1.437001114312534e+00, 1.334709939999629e+00, 2.191390757192782e+00, 1.754139772008772e+00, 5.803781635000627e-01, 1.119284020790424e+00, 4.063236743714747e+00, 1.417519682699236e+00, 2.053105008089085e+00, 8.785158815615050e-01, 1.371141030779214e+00, 7.255349453276422e-01, 1.457126451389593e+00, 1.406626246104090e+00, 1.564041410089224e+00, 2.088281337281144e+00, 1.642401427910634e+00, 1.429780516381394e+00, 1.507417056502162e+00, -4.914725749512285e-02, 6.503330122747121e-02, 1.391202585870137e+00, 1.455914027881325e+00, 7.336779860829012e-01, 2.052797624994690e+00, 2.714229887505765e-01, 4.756931152461820e-01, 5.173143647863809e-01, 1.547413972493292e+00, 1.363324723424100e+00, 2.274765236924996e+00, 1.503980737298023e+00, 6.822126295242066e-01, 8.818862005471013e-01, 2.088466145187634e-01, 8.497364686397123e-01, 1.523121130196395e+00, 2.444070202141486e+00, 1.974540106863431e+00, 7.061957470268485e-01, 8.523875515063083e-01, 4.193982332337843e-01, 6.513192406127086e-01, 7.380839180818939e-01, 2.344872445831648e+00, 1.105251433100192e+00, 1.273004963935654e+00, 7.102668834875575e-01, 2.970732526088460e-01, 5.340752213365116e-01, 1.465993614493276e+00, 2.189142647437772e+00, 1.086866038509597e-01, 9.892404668548459e-01, 2.038224495553451e+00, 1.887624782973224e+00, 3.774021053903953e-01, 2.161259538493429e+00, 7.254754015046189e-01, 1.317446313675898e+00, 1.044583913738189e+00, 1.435985946369479e+00, 1.234328834788736e+00, 9.988474397011234e-01, 6.279700794434833e-01, 3.138101403227080e+00, 1.731075096692097e-01, 9.642077350586871e-01, 1.189342106822679e+00, 9.550775839334587e-01, 8.074460639491811e-01, 1.288648445671389e+00, 1.670206649626425e+00, 1.746630770215953e+00, 2.233380104892513e+00, 2.507681973318642e+00, -7.745403160808771e-01, 1.613324924030231e+00, 7.551799966179130e-01, 2.009075219769248e+00, 4.050055656109459e-01, 9.317558799208677e-01, 2.250717986493781e+00, 1.434100525609002e+00, 1.284372606105475e+00, 6.433096638872763e-01, 4.125978578275405e-01, 2.366992988745857e+00, 5.854347231570343e-01, 2.374092112478567e+00, 1.380642879833488e+00, 1.078071514770562e+00, 8.335712237303747e-01, 1.370235644725710e+00, 5.128225303855253e-01, 1.220181630279009e+00, 1.049680568311336e+00, 2.719989627140143e+00, 1.803500614513661e+00, 1.248953571422886e+00, 2.388343597730889e+00, 1.425227736245835e+00, 1.410591627631111e+00, 7.447167918549079e-01, 1.843503962017639e-01, 1.413906432863908e+00, 1.414718934992936e+00, 1.879211346473795e+00, 4.882777324209988e-01, 3.412584780109390e-01, 2.623615138460958e+00, 5.220759665330801e-01, 5.178535986413094e-01, 1.942221277236839e-01, 2.046004018039967e+00, 1.603281792543772e+00, 2.232837949289243e-01, 4.298728267543304e-01, 4.140981060483060e-01, 2.404247005723489e-01, 9.527261128760313e-01, 3.884555250283130e-02, 1.005265682692675e+00, 1.833987684978912e+00, 4.321275481285445e-02, 1.327724760820877e-01, 3.263483544513983e-01, 3.258627664528176e-01, 6.785928541525117e-01, 1.143750485619343e+00, 1.763484241610964e+00, 5.854441372908392e-01, 7.110375359486837e-01, 1.353239050015495e+00, 4.362252038988389e-01, 1.586536364515316e+00, 1.958652852906360e+00, 1.277910403856143e+00, 7.652134636208122e-01, 7.504777973545737e-01, -2.251070835815144e-01, 1.480881936452887e+00, 9.542180541099491e-01, 2.431517533383332e+00, 1.045879510614639e+00, 1.448463273736057e+00, 1.259554459067849e+00, 2.351658067264118e-01, 4.722033493584112e-01, 5.446051641827708e-01, 1.745374894486646e+00, 1.231018639798310e+00, 1.076011716034625e+00, 1.209218230461339e+00, 1.371567174425936e+00, 1.524599348694508e+00, 1.417509650128561e+00, 8.576669183616178e-01, 1.174424339317773e+00, 9.315729349063185e-01, 3.781183152947765e-01, 1.143104091627396e+00, 1.350555871535294e+00, 1.736909303744244e+00, 1.203751445412486e+00, 9.449040521779881e-01, 1.213779544446947e+00, 1.448483577822184e+00, 1.521392889565474e+00, 1.060001390557759e+00, 4.108719087139132e-01, -5.655731398961038e-02, 1.845760246677492e+00, 5.411930651802946e-01, 5.908338823134299e-01, 1.186522248889242e+00, 1.171668846831492e+00, 1.054801584908334e+00, 4.508511447869926e-01, 2.495572804848764e-01, 3.305778633731177e-01, 1.188572398066053e+00, 1.230401374544585e+00, 1.240601503759398e+00, 3.513192358821936e+00, 1.218168411147096e+00, 1.209867766935256e+00, -2.351674854320066e-01, 8.052377842188817e-01, 1.301078245898737e+00, 1.746286463596545e+00, 1.373809689862264e+00, 2.977202453109863e+00, 1.432065432220977e+00, 2.254990896577021e+00, 7.980960588140940e-01, 7.753254453927897e-01, 3.158458276871859e-01, 4.834617508671220e-01, 4.970896826677680e-01, 4.434289800274156e-01, 1.090317927495526e+00, 4.653881800535713e-01, 1.699852159591921e+00, 6.477573322530042e-01, 4.842640525654968e-01, 1.296582726401176e+00, 1.093247817078513e+00, 1.684486244962557e+00, 1.523996387931099e+00, 4.784539930215662e-01, 9.400700825034667e-01, 1.705949698380877e+00, 1.660751334469859e+00, 2.167177703812812e+00, 2.949735430501340e-01, 1.140335023543706e+00, 1.357245568131730e+00, 1.257353197706909e+00, 5.265731634361842e-01, 6.618074139315057e-01, 7.989482306570699e-01, 1.040935230077011e+00, 4.854279173418121e-01, 5.450438571237758e-01, 9.119836486267404e-01, 1.547903059484980e+00, 2.200682411040619e+00, 5.680922243358018e-01, 9.193520639116272e-01, 1.270565526386441e+00, 1.036828264970300e+00, 1.176551200762184e+00, 1.548180699531153e+00, 7.843009236236227e-01, 1.614283813556526e+00, 2.802867502281142e-01, 2.146887122806304e+00, 1.426493147189434e+00, 7.837914096672463e-01, 1.371373214101205e+00, 1.191332343887863e+00, 1.133760286628628e+00, 1.065055292443454e+00, 1.227226082313891e+00, 5.832843028628520e-02, 1.716950469996349e+00, 1.164528912570365e+00, 1.524277422477434e+00, 1.568942467363055e+00, 1.440337191943807e+00, 1.390536587527982e+00, 1.370277754578995e+00, 9.001469018322985e-01, 1.536102030646462e+00, 2.486645435573736e-01, 5.941188606612736e-01, 2.142613218278528e+00, 2.185948944832986e-01, 1.771100746489865e+00, 1.358213022055967e+00, 1.607478634582456e+00, 6.845907813461506e-01, 1.007971471255209e+00, 1.184885439840279e+00, 1.644921932158295e+00, 1.255619736051575e+00, 1.666805415469850e+00, 1.970080961510619e+00, 1.244348741502771e+00, 1.192100064352128e+00, 3.690048717173992e-01, 5.437347582298965e-01, 9.885989974466345e-01, 2.047107581121619e+00, 1.231842035435387e+00, 9.846990776255645e-01, 1.537207540922097e+00, 1.902498648622218e+00, 2.583358085019509e-01, 4.919270655554950e-01, 1.644958354509329e-02, 3.685698347597159e-01, 8.030607349048647e-01, 6.004455638758778e-01, 1.703577053938229e+00, 1.105106864621972e+00, 1.110322710487183e+00, 4.445551989197826e-01, 5.406900525640045e-02, 3.102015091991138e-01, 1.172406966907472e+00, 4.470512614411656e-01, 4.184150573320622e-02, 2.672212387080910e-01, -9.014193897424998e-01, 1.468347909923060e+00, 6.591610573993273e-01, 4.711648428680266e-01, 9.604143607506039e-01, 1.195584448891587e+00, 8.245530338402911e-01, 1.097693065137340e+00, 6.841998816105999e-01, 1.295387000081070e+00, -4.571374554531759e-01, 1.846142549951374e+00, 1.049915204040251e+00, 9.355711364448213e-01, 1.324408571336933e+00, 1.282906847878939e+00, 1.030499628970198e+00, 1.060452616992260e+00, 1.877768366501174e+00, 1.112632527025341e+00, 4.214885874094502e-01, 3.765450103673928e-01, 1.080634476833395e+00, 1.259746184454596e+00, 9.207733431691371e-01, 2.113614690390409e+00, 2.232208569464071e-02, -3.479437947896161e-02, 2.924574817654878e-01, 1.896349529816013e+00, 1.736227849092689e+00, 1.240601503759398e+00, 2.134793356517304e+00, 4.490388654840455e-01, 8.274798330550335e-01, 1.784037714882288e+00, 1.085790987937129e-01, 1.625682183757913e+00, 1.278685834066000e+00, 1.749635454939541e+00, 2.400553893041087e+00, 1.943177501268932e+00, 6.041510046848524e-01, 1.655776051753239e+00, 5.244054844903807e-01, 2.322004247712458e-01, 8.004814595949298e-01, 8.697150986043900e-01, 8.061539905501355e-01, 1.071596461349996e+00, 2.475326516866626e+00, 1.489883828252198e+00, 5.303665856459133e-01, 1.129053532537197e+00, 1.201809445641809e+00, 9.024095760051419e-01, 1.126471424856967e+00, 9.587261612868212e-01, 1.248349422626466e+00, 1.172722470048613e+00, -1.572325061851572e+00, 7.807812982189538e-01, 1.214132192414995e+00, 6.558186993562033e-01, 4.104931488321557e-01, 2.111699237628931e+00, 1.538465357434840e+00, 1.826378398698475e+00, 6.281489678994818e-01, 4.820886189848272e-01, 3.370768377704842e-01, 1.331380281297018e+00, 3.709988663065573e-01, 6.544316610386922e-01, 2.277100911783795e+00, 2.280880653967782e-01, 9.950255002814934e-01, 2.869468200647339e+00, 5.239467319646955e-01, -5.003624521616357e-01, 2.227666974390829e+00, 2.164882486154843e+00, 1.380975514945705e+00, 2.500614349088885e+00, 1.896670909510918e+00, 2.427680959648594e+00, 1.268029373666814e+00, 3.100724780609453e+00, 1.106929530264597e+00, 5.273960396759659e-01, 1.521910692908653e+00, 1.491050133981345e+00, 5.913737302717349e-01, 1.982011565593734e+00, 1.331102266891166e+00, 3.054531257324750e+00, 9.020267513772988e-01, 7.830700643105233e-01, 1.455239758910573e+00, 1.446887945351367e+00, 1.718247087457336e+00, 1.455964361571343e+00, 8.969442125517348e-01, 8.851895209688184e-01, 1.776728558568774e+00, 1.675433507136636e+00, 2.875119300006594e-01, 1.994886414859649e+00, 2.095129167848518e+00, 1.536153563647607e+00, 1.376353321816796e+00, -1.922814379653896e-01, 1.136253020715818e+00, 1.514163876769325e+00, 8.115911038943689e-01, 1.240601503759398e+00, 1.718464806708942e+00, 1.960775578984267e+00, 1.426934288056955e+00, 1.141347530684157e+00, 9.983294086477927e-01, 1.049253200852627e+00, 2.431173285157497e+00, 1.277057792743331e+00, 1.266226370297514e+00, 1.771389499720216e+00, 1.308556877678427e+00, 1.005943687093719e+00, 6.385489182906227e-01, 1.240932727010488e+00, 9.598854898684485e-01, 1.614682263783706e+00, 1.281741963719555e+00, 7.326196295757909e-01, 1.441466869771547e+00, 5.559910422723057e-01, 1.698238437591135e+00, 9.658538516935334e-01, 1.251978966023381e+00, 9.396761334960249e-01, 1.413816924140056e+00, 5.062474308589525e-01, 1.199196116618011e+00, 1.196717047284969e+00, 4.441748974022737e-01, 2.899009617645883e+00, 1.369806066363147e+00, 6.166575313681920e-01, 4.800614380069895e-01, 8.026025304540628e-01, 1.785945504260790e+00, 5.867032736626361e-01, 2.145609033004086e+00, 3.024885664490777e+00, -4.287719976028402e-01, 3.751167802111025e-01, 2.565348217482317e+00, 7.336293543837296e-01, 1.007954760471596e+00, 1.479079412239061e+00, 1.660024493583019e+00, 1.395745799394468e+00, 6.645209593688881e-01, 9.953273851700076e-01, 1.594390987972424e-01, 1.623389394093254e+00, 7.039753131823311e-01, 1.136802914335320e+00, 1.480902715812721e+00, 8.350658102423028e-01, 3.474228589458737e+00, 2.929877381782691e+00, 6.550117504263988e-01, 1.010269484793427e+00, 1.358535891993285e+00, 1.972750329561335e+00, 6.217980135076404e-01, 4.427684877368556e-01, 6.016487364710412e-01, 7.852295908609171e-01, 7.022787621842349e-01, 1.684783991401203e+00, 9.904844486290165e-01, 1.147993389136018e+00, 1.510028652315080e+00, 1.126051683639639e+00, 9.043063747959782e-01, 1.411088317938767e+00, 1.572444955473099e+00, 2.375430150767213e+00, 1.470323901416658e+00, 1.587457254112944e+00, 2.136321698617021e+00, 1.623379174981123e+00, 7.371334683504351e-01, -4.375943111615708e-01, 1.122056044561931e+00, 1.115973287814451e+00, 1.845732219715333e+00, 1.240601503759398e+00, 1.576359687196501e+00, 2.360831917357288e+00, 3.229303500835837e+00, 1.294336183623183e+00, 2.277737503005213e+00, 1.209381656429857e+00, 1.521806536983974e+00, 2.231894816772210e+00, 1.893146517574764e+00, 2.250835089594241e+00, 1.316278327121827e+00, 1.323112417065688e+00, 1.948204725748748e+00, 1.278769298654692e+00, 1.555362035063488e+00, 1.218485842123472e+00, 1.301442333030820e+00, 1.486584571211998e+00, 1.548050816820278e+00, 7.206230297105852e-01, 1.180165550618089e+00, -3.804960574347769e-01, 1.244294918640797e+00, 1.442129002288830e+00, 1.240601503759398e+00, 6.067139065379937e-01, 1.243535353682801e+00, 1.261835891496409e+00, 8.523498195852683e-01, 2.372581387265383e+00, 1.169557918500267e+00, 5.713256255110435e-01, 2.080934008320549e+00, 1.465042913389726e+00, 6.219141260805163e-01, 1.661450294852242e+00, 9.923599679933588e-01, 5.578704684480504e-01, 3.187012708372249e-01, 1.612872058968698e+00, 6.094903916663196e-01, 2.631173906976894e+00, 5.398607419877427e-01, 1.260485024112342e+00, 1.201216687440912e+00, 1.650008041885226e+00, 3.606691112999377e+00, 1.406549519204033e+00, 3.054599990471167e+00, 9.198465656584065e-01, 1.223431973896292e+00, 5.597470064234296e-01, 1.142948578226664e+00, 1.408156334037434e+00, 1.474253968340477e+00, 1.699400029296542e+00, 5.069857393293051e-01, 2.415001629976570e+00, 9.408927652730125e-01, 7.044230229181809e-01, 3.827682187160755e-01, 6.807654320257049e-01, 6.310843075030655e-01, 1.592912294937648e+00, 7.283078812588490e-01, 8.062995577998345e-01, 1.001541380213510e+00, 1.225226584307940e+00, 4.604609522589184e-01, 1.148431704615636e+00, 1.714752260899106e+00, 1.165942245044319e+00, 9.974153080339099e-01, 1.089761667798696e+00, 1.893232231791073e+00, 2.670664705932031e+00, 1.714206673923314e+00, 1.034359031311900e+00, 8.877900572810897e-01, 1.316308000242064e+00, -6.323598157992396e-01, 1.874607367472414e+00, 1.825062427437848e+00, 1.240601503759398e+00, 8.475708000430205e-01, 1.518118039931209e+00, 1.960913722049128e+00, 1.420495760124630e+00, 1.472083931509868e+00, 1.216247471809798e+00, 1.580738119316661e+00, 1.458732099699817e+00, 1.374519257159189e+00, 1.312117356527739e+00, 1.718004624654336e+00, 2.388618789931435e+00, 5.638378982790159e-01, 7.551555685276485e-01, 1.748797837274181e+00, 9.551066396875119e-01, 9.269343658073630e-01, 1.043591852459649e+00, 8.640216319407616e-01, 1.265000965472561e+00, 1.097653460186050e+00, 7.326546484036845e-01, 1.240601503759398e+00, 1.038835345158408e+00, 1.221402177247444e+00, 1.769016367830804e+00, 1.339802679669208e+00, 1.294319501353913e+00, 1.391409677979199e-01, 5.157997415629971e-01, 8.064887122585875e-01, 2.137255227395417e+00, 3.472320454878889e-01, 1.817699438074426e+00, 5.899280391752899e-01, 9.863396270726078e-01, 4.384349132899079e-01, 5.625659979438935e-01, 3.719242327274673e-01, 2.779967342819240e-01, 6.131033713224625e-01, 1.042917881100049e+00, 1.975548045238198e+00, 1.773102293120540e+00, 5.252081553899269e-01, 3.279467301779505e+00, 2.774104173276064e+00, 1.194315355733307e+00, 4.022897289628551e-01, 5.543665711458647e-01, 7.445248923753519e-01, 6.753989026134090e-01, 5.732623959105433e-01, 6.877189338249542e-01, 2.017306113767650e+00, 5.079153697846828e-01, 6.747245399376212e-01, 2.291451075940942e+00, 2.157525856981700e+00, 4.606131120438709e-01, 1.641832366010591e-01, 1.232177117509468e+00, 1.801018646948849e-02, 1.444939532832992e+00, 8.161383835811087e-01, 4.793645706557059e-01, 1.636466887445728e+00, 1.610925562089184e+00, 1.033070160332296e+00, 5.380659616411735e-01, 8.055693748773001e-01, 6.677340890379150e-01, 1.800397385232769e+00, 1.557295430200760e+00, 2.174878212622987e+00, 1.255600964572632e+00, 8.159124979059954e-01, 1.251392574818573e+00, 1.086453165510599e+00, 5.336908978742027e-01, -9.614956195911505e-02, 1.480788600268492e+00, 9.981582408797914e-02, 1.240601503759398e+00, 1.598101294278260e+00, 2.209849623624266e+00, 5.710823115407508e-01, 6.261750420024573e-01, 1.830975907645109e+00, -2.478865744154351e-01, 8.040856504129720e-01, 1.020156750247497e+00, 5.861496144553718e-01, 1.930970850205173e+00, 2.589540741595894e+00, 3.118329197269808e-01, -6.643556495761355e-01, 7.383311583631869e-01, 1.794923565490852e+00, 1.697664010665222e+00, 1.300591213723525e+00, 1.274340001202703e+00, 9.078706491359069e-01, 9.455684690657387e-01, 2.067759953929887e+00, 7.227056048815449e-01, 1.247219612641095e+00, 1.613225499725403e+00, 1.069575286070742e+00, 1.913265172087891e+00, 1.127292570068965e+00, 1.241174900388720e+00, 2.218005366314500e+00, 1.667239581810774e-01, 1.585802006787387e+00, 1.821935422418193e+00, 9.308818360939294e-02, 2.239302806258119e-01, 1.946222583740499e-01, 1.580579296046103e-01, 4.632646331070147e-02, 1.636891179655779e-01, 1.722803293488209e+00, 1.544983796650357e+00, 2.908304771348542e-01, 2.865456775866775e-01, 7.510106949074787e-01, 7.820072662513927e-01, 1.002237472097492e+00, 1.188079939185023e+00, 1.373393286056503e-01, 1.774466517887606e+00, 1.961182692417784e+00, 6.696256322082622e-01, 5.128706427597659e-01, 1.579584853412040e-01, 1.652056711882285e+00, 8.110694583590961e-01, 5.889651858493586e-01, 7.044188287346405e-01, 5.692774615974500e-01, 1.859952327778494e+00, 6.032760904151766e-01, 3.832143178252566e-01, 1.448284200086899e-01, 1.086473704004881e+00, 2.384641217776612e-01, 8.991090766215788e-01, 2.693919414478710e-01, 5.669474360553276e-01, 1.866124397564961e+00, 7.295533884762532e-01, 1.350279055112265e+00, 1.074448888224687e+00, 9.462300932979832e-02, 1.338336828164956e+00, 4.467929174369460e-01, 3.815362928761299e-01, 2.617891646062549e-01, 1.509711207530609e+00, 3.752365903972544e-01, 2.084575162605548e-01, 3.514121184985721e-01, 1.000064954301958e-01, 9.933502163707854e-02, 1.783113946074868e+00, 2.950983233426122e-01, 1.236021827858698e+00, 4.890226786473484e-01, 3.355180833486219e-01, 2.165150848489050e-01, -5.765645396405423e-02, 1.191850668839832e+00, 5.610301531088735e-01, 4.492661707732749e-01, 7.449910214381059e-01, 1.567525323488601e+00, 4.415082241155913e-01, -6.210157803340294e-02, 1.240728758621522e+00, 3.357766771903881e-01, 1.524955347377434e+00, 1.396718912076268e+00, 1.386389119739057e+00, 1.331703749582438e+00, 1.135913155822755e+00, 7.579073870808519e-01, 3.256607723513933e-01, 1.940090572101181e+00, 1.462683888838347e+00, 1.240601503759398e+00, 1.660737600688050e+00, 1.297905105092646e+00, 7.998412669873527e-01, 1.604267615231770e+00, 2.071383602712823e+00, 9.506731597949775e-02, -1.506091256992302e-01, 1.133153647058901e+00, 1.853797438229215e+00, 3.459377059570668e+00, 1.083785103743440e+00, 6.012682656903663e-01, 6.247835678175810e-01, 3.770099977394866e-01, 6.040209180433453e-01, 3.442006773583903e-01, 6.829560390291339e-01, 5.727957393145096e-01, 3.073512505204854e+00, 5.852565479276449e-01, 1.203583026229080e+00, 3.009712162436859e-01, 1.768436999634356e+00, 2.925157191388242e+00, 1.077107037202526e+00, 3.969250334963155e+00, 4.201688349572278e-01, 3.162375604945263e+00, 6.608330881216850e-01, -1.923662962474768e-01, 6.324998889820392e-01, 3.477033457408413e-01, 2.553623301115135e+00, 2.643922541091036e+00, 4.542350122488183e-01, 6.778156783478180e-01, 3.008635702223843e-01, 1.198524219338797e+00, -8.111957355812523e-02, 2.309940719334057e+00, 8.283923940607946e-01, 1.778987067227853e+00, 4.498638500561045e-01, 1.181066621470272e+00, 1.919965267480709e+00, 1.090571134549266e+00, 1.226755356648498e+00, 1.502083982225110e+00, 2.107319164964434e+00, 9.622610963026286e-01, 2.060609511893917e+00, 3.756188981202670e-01, 1.659379605574838e+00, 1.005008768495359e+00, 3.519615647873900e-01, 4.454897334710438e-01, 1.452169603471013e-01, 2.884311566844639e+00, 1.223819992900590e+00, 1.095393579652744e+00, 1.168033712042466e+00, 1.694885511182491e+00, -6.198495519259698e-01, 3.481474701995560e+00, 8.695413812594709e-01, 1.057352882290139e+00, 1.612460566925340e+00, 9.707073025628988e-01, 1.216159786047017e+00, 1.070211229113839e+00, 1.643521098832941e+00, 2.860996164861868e+00, 6.846451397673184e-01, 1.271124136585559e+00, 1.835303244427375e+00, 1.240598770462479e+00, 2.356908378524760e+00, 1.214375669163814e+00, 1.118769152642187e+00, 1.575547714072915e+00, 1.746676545449023e+00, 3.241320383145182e+00, 3.365033567558400e-01, 1.225790675567547e+00, 1.453831467779176e+00, 1.301852618212496e+00, 1.774425141273555e+00, 1.565491053541614e+00, 1.759186395716699e+00, 1.009566229210509e+00, 8.530283404490503e-01, 1.192015253691640e+00, 1.343800178394539e+00, 1.014709343571411e+00, 5.095297079851498e-01, 8.066112219939419e-01, 3.387845431419381e-01, 1.935554309565720e+00, 1.002011162561814e+00, 1.476974148411961e+00, 1.182518250296282e+00, 4.255776010013042e-01, 4.364956312715945e-01, 7.264242224654491e-01, 1.372866268008779e+00, 4.190597148117746e-01, 6.939011351896777e-01, 5.247137894481477e-01, 1.429477099595790e+00, 1.661536242072275e+00, 1.584764796875697e+00, 1.371645986778479e+00, 8.113526960737464e-01, 1.492286472452660e+00, 1.382774804411984e-01, 2.856210308192767e+00, 2.696904602172357e+00, 2.666589215251651e+00, 3.781232748732489e-01, 2.319400369014271e+00, 7.745824740269175e-01, 4.499238335713774e-01, 7.806943815271979e-01, 2.343699144128184e+00, 1.762668672965359e+00, 1.171486846591319e+00, 5.610431732829436e-01, 1.236583511026467e+00, 1.475941421138004e+00, 1.488302050938601e+00, 8.137177547705969e-01, 1.513056534704877e+00, 1.857893424220378e+00, 2.247515658019830e+00, 1.436649446473673e+00, 4.946716574268875e-01, 4.015053039747695e-01, 2.070341590363136e+00, 1.857339901662840e+00, 1.083667508599132e+00, 2.425085385946168e+00, 4.231369485054800e+00, 1.523806875235791e+00, 1.332207104892217e+00, 1.082287830558926e+00, 1.252774434806032e+00, 6.756433997951949e-01, 3.792882165566502e+00, 1.696200711177789e+00, 1.891594474267232e+00, 1.224901334806682e+00, 1.639091717561980e+00, 1.502276450123855e+00, 1.346699380100077e+00, 1.650876020243116e+00, 2.694797106436505e+00, 1.282122199597450e+00, 1.565474543532940e+00, 1.867420475634408e+00, 1.016911913121925e+00, 1.624044349179446e+00, 8.006552039829277e-01, 1.058268543597396e+00, 2.608188370807564e+00, 1.259258940538853e+00, 5.255568745559954e+00, 1.467207662355082e+00, 1.196247120745595e+00, 1.173846655907306e+00, 1.163744415835384e+00, -1.882412366101758e-01, 1.321196582676520e+00, 1.382461451466849e+00, 2.809782418676157e-01, 1.183807877306218e+00, 1.317719049010249e+00, 4.945465059610035e-01, 9.922407225590463e-01, 2.936183274399744e+00, 2.787976663901772e+00, 4.121122588743545e+00, 1.293777192079774e+00, 6.537171573872425e-01, 1.718394189711061e-01, 1.435610049078746e+00, 1.362818477944176e+00, 2.081653409531567e+00, 2.040008341483480e+00, 1.346290331715749e+00, 1.376128184882865e+00, 9.450430305496657e-01, 1.180800104227708e+00, 1.554527987264852e-01, 1.361289973071611e+00, 3.774881755344861e+00, 1.086968100371268e+00, 8.428735582297107e-01, 1.925844361906593e+00, 2.616928072767103e+00, 1.984784835942912e+00, 2.014856106670961e+00, 1.381338332009411e+00, 5.799115120457558e-01, 2.705203341726305e+00, 1.539602161605113e+00, 8.748159744193049e-01, 7.295954094084910e-01, 1.078712569242620e+00, 1.013391348818173e+00, 9.940264733720475e-01, 6.833611689399657e-01, 1.454222422627678e+00, 1.357064333716439e+00, 1.756556869723392e+00, 2.165868561614410e+00, 1.055198333683778e+00, 1.267003423168801e+00, 1.382867711053775e+00, 2.533513559273844e-01, 5.256380063654169e-01, 1.469875722766586e+00, 1.205863296607590e+00, 2.082626441039046e+00, 1.644046698259071e+00, 7.084481709967378e-01, 1.577983064385832e+00, 1.724051052998101e+00, 1.778034588918043e+00, 1.250417920383805e+00, 1.206297568009335e+00, 2.656953882706374e-01, 3.944128106169682e+00, 1.295825542500188e+00, 1.435248080565738e+00, 1.345305103843478e+00, 1.333056844258830e+00, 1.067939603170172e+00, 1.390305054004195e+00, 1.009325099567804e+00, 1.425778805582574e+00, 1.010775296266111e+00, 5.625272707411554e-01, 1.121999866052214e+00, 9.252134359985057e-01, 1.840196339071186e+00, 2.245849056125553e+00, 1.188879879024595e+00, 1.308661919818470e+00, 2.060891869107342e+00, 1.188074352476786e+00, 2.830044448018485e+00, 1.268382462559765e+00, 1.319570205316533e+00, 9.403005224433391e-01, 9.164389198971293e-01, 1.240601503759398e+00, 1.310967657108870e+00, 6.010954081961921e-01, 1.559168707501840e-01, 1.412576342383312e+00, 7.092451412001785e-02, 1.587915834388280e+00, 1.457647991053348e+00, 3.481728728258374e+00, 2.598071016406391e+00, 1.174669418121274e+00, 7.767127818193664e-01, 6.018489178522685e-01, -2.499149470703586e-01, 5.226087858443071e-01, 1.841371849736412e+00, 5.472790339102234e-01, 8.721535100463570e-01, 1.164332003984875e+00, 9.284562565873449e-01, 1.173152428754732e+00, 1.506519635883504e+00, 4.587603537445581e-01, 6.388890944406023e-01, 1.617492516483420e+00, 8.323684007133212e-01, 4.275013548105480e-01, 7.890445275199055e-01, 1.346761729923930e+00, 1.323497900539289e+00, 4.977982042928533e-01, 5.179816385555647e-01, 1.014838228079084e+00, 2.136942271504572e+00, 9.410133428783497e-01, 1.241619282170946e+00, 6.480627953188183e-01, 1.252526552710417e+00, 1.113838216785157e+00, 1.145262520414555e+00, 1.442125627816260e+00, 1.399353673977149e+00, 2.837584744581623e+00, 1.451667291100764e+00, 1.653451009205032e+00, 1.324926643939772e+00, 9.614469315241244e-01, 1.635568696823942e+00, 1.238920981065045e+00, 6.489888745597195e-01, 1.123866604503586e+00, 8.010598376864271e-01, 4.102927694850084e-01, 2.013938093618086e-01, 1.063721504301352e+00, 7.007615738771948e-01, 1.522692683322246e+00, 1.401124571150766e+00, 5.685382885834938e-01, 2.634551648803412e-01, 3.526599714895155e+00, 1.228983687604209e+00, 8.517919408602616e-01, 1.039031255245350e+00, 1.540119225600617e+00, 1.204817194489674e+00, 1.091189175458726e+00, 1.014839549938701e+00, 8.077454273413994e-01, 9.934620579310133e-01, 1.877717287668185e+00, 1.541240891527813e+00, 1.228586157008977e+00, 7.389165643102882e-01, 1.690008810431562e+00, 1.476381981952659e+00, 1.737581779788840e+00, 1.541220689292965e+00, 9.261140795283394e-01, 2.541400042565891e+00, 1.277521645804848e+00, 1.147717223522865e+00, 1.244668527866539e+00, 3.510335104390975e-01, 1.186206161783355e+00, 6.750799408161630e-01, 1.184597490677954e+00, 2.057630193093416e+00, 1.330195033777851e+00, 1.287129092222047e+00, 5.594073894161402e-01, 9.256010958212320e-01, 2.953877861438813e+00, 9.876119871824584e-01, 6.339256906513471e-01, 1.961753199697051e+00, 8.366680598846546e-01, 1.619973897928433e+00, 2.085846017685197e+00, 5.846568759727047e-01, 1.747405574886775e+00, 7.538348570942306e-01, 5.765102798015865e-01, 7.120316268698428e-01, 1.064491212499375e+00, 9.120078232643600e-01, 1.681443639822028e+00, 9.465525692742557e-01, 3.511496486358838e-01, 1.045114443843309e+00, 6.420562453284024e-01, 1.484909411175515e+00, 2.065932093888709e-01, 7.512218035484887e-01, 1.351795412478194e-01, 1.329877121685441e+00, 1.539774064547631e+00, 3.092155025497905e-01, 3.186875355106316e-01, 5.141062013314727e-01, 7.472085981646254e-01, 5.939193265397078e-01, 1.038813564007717e+00, 8.760358872189135e-01, 1.358073678605972e+00, 2.721099322863773e+00, 2.449188382770574e+00, 4.955063073741335e-01, 3.732231670593167e-01, 2.278604409781638e+00, 5.108147680628102e-01, 6.607759678644266e-01, 5.820907226176566e-01, 1.905378978906347e+00, 1.908404948061553e+00, 1.331408560297947e+00, 1.761914183090475e+00, 5.444312270791688e-01, 2.038755956878282e-01, 1.367838668565931e+00, 5.716713380591547e-01, 1.304135593583537e+00, 1.442194918869961e+00, 8.834345858051343e-01, 3.418893436511077e+00, 9.824148281790909e-01, 1.103766585960967e+00, 3.351947060384564e+00, 1.744109358325713e+00, 1.267470781728341e+00, 4.865231066605137e-01, 1.319167321075293e+00, 9.045601738449208e-01, 1.032661169554826e+00, 2.473747802208375e+00, 1.420023557046646e+00, 1.389347508987187e+00, 9.987127612842901e-01, 7.608598431000969e-01, 1.044923036845729e+00, 1.846197766048526e+00, 1.171318946294568e+00, 8.982422920998573e-01, 7.239459387898055e-01, 1.303216238415206e+00, 1.442634511032055e+00, 1.287951186202948e+00, 2.057505264924856e+00, 1.175924729465350e+00, 1.236702631059501e+00, 9.813855395242020e-01, 2.851862090249013e-01, 1.790867924713892e+00, 2.200777215024443e+00, 2.230487136122477e+00, 1.329234047648977e+00, 1.298936220968594e+00, 4.131435215474811e-01, 1.355780503593270e-01, 6.768166229489083e-01, 2.651532021099999e+00, 2.097666088703278e+00, 6.936231748199463e-01, 4.524522963244921e+00, 6.407000462982354e-01, 6.103847685626927e-01, 4.554408495254212e-02, 1.284447472582144e+00, 4.429804641136711e-01, 8.563485811433151e-01, 5.784017878574090e-01, 1.178735973973405e+00, 1.397996413622766e-01, 1.258511030927317e+00, 6.087847239103796e-01, 1.531821546019462e+00, 1.402425274296899e+00, 1.100860654401155e+00, 1.398262562736704e+00, 9.096710031802463e-01, 8.266424405510844e-01, 1.970363869697238e+00, 3.361842556177553e-01, 9.074576716951289e-01, 1.347079449958255e+00, 1.198091053604612e+00, 3.777831769570260e-01, 1.278410617838591e+00, 1.798805468020391e+00, 1.452714669966554e+00, 2.256900699533694e+00, 1.332610780251985e+00, 1.396010629072192e+00, 2.060416472876586e-01, 1.101672268092784e+00, 5.587911824093125e-01, 3.767124346932444e-01, 1.339460543857824e+00, 1.893776681867775e+00, 1.493862379856561e+00, 4.382990251838665e-01, 6.130184298566810e-01, 1.441141529451756e+00, 1.512202977846236e+00, 1.718447826978199e+00, 1.240601503759398e+00, 8.430221979649697e-01, -5.785017588962090e-01, 6.653893811465944e-01, 3.459106582036303e-01, 1.653781779573911e+00, 1.407951487360397e+00, 1.450570745428276e+00, 1.576068819629614e+00, 5.544375938380300e-01, 1.383767173013759e+00, 1.915877654214282e+00, 8.763345274535753e-01, 1.971394046927534e+00, 5.997937528325823e-01, 1.785287109349935e+00, 2.042951563594430e+00, 1.543043046245837e+00, 1.170017909295292e+00, 1.584545658509751e+00, 4.947145336268221e-01, 1.400437759664811e+00, 1.378407482988504e+00, 1.240601503759398e+00, 9.510314396326206e-01, 1.475978180055395e+00, 6.390893546340212e-01, 1.454247977936780e+00, 1.275176187973609e+00, 3.073988261074383e-01, 1.604387984486191e+00, 1.771301528281603e+00, 7.406054637526254e-01, 5.613560881943285e-01, 1.435055312539062e+00, 1.694194800691210e-01, 1.045293878148436e+00, 3.366190859827174e-01, 1.677975054588109e+00, 1.659887438746291e-01, 9.692269743508759e-02, 1.949105118054518e+00, 3.008348669176960e+00, 8.775570454358695e-01, -4.107632375297488e-01, 1.031342296084147e+00, 4.555769141957699e-01, 6.987947233513178e-01, 1.624349441488283e+00, 2.193482804970593e+00, 2.421886701056532e+00, 2.145412548174242e+00, 5.815043060593544e-01, 1.003065048129027e+00, 3.506882164956172e-01, 1.486834885673576e+00, 8.570639223520953e-01, 4.706549815542650e-01, 8.515247970655758e-01, 3.672715424686449e-01, 6.207465932619809e-01, 5.899312654333230e-01, 1.228371366570284e+00, 8.493869435825894e-01, 1.070132831711432e+00, 1.279968053532258e+00, 1.294633424383890e+00, 9.885372088495616e-01, 1.756330955295901e+00, 3.553643556499130e+00, -4.706930991609714e-01, 1.122801573581244e+00, 1.350269946572324e+00, 4.015914538677012e-01, 1.108440884589737e+00, 5.771058562176978e-01, 7.934206729987199e-01, 5.610846654675666e-01, 1.336714850816955e+00, 2.028539658342364e-01, 8.978466549613517e-01, 2.184542719087069e+00, 1.707718900169272e+00, 2.067174628473157e-01, 1.253138075227225e+00, 8.208338005556047e-01, 5.382071222258449e-01, 8.229752422401468e-01, -2.861690119184423e-02, 9.569119425155813e+00, 1.122919603501080e+00, 1.005415047737830e+00, 1.489160674029372e+00, 1.904064292024931e+00, 1.582383465067569e+00, 1.693325717971426e+00, 2.670053386853045e-01, 1.081550824001650e+00, 9.606443786992220e-01, 1.263721562482405e+00, 1.729299733510413e+00, 1.542855705190727e+00, 1.803961780304422e+00, 1.986302927360418e+00, 1.310182257983067e+00, 9.165706821151637e-01, 1.442053420993430e+00, 1.246945516435548e+00, 1.646229483611209e+00, 1.117762636908590e+00, 1.160017253412353e+00, 1.031184898282366e+00, 1.038545821223435e+00, 2.204691415739448e+00, 5.776957390271779e+00, 1.327072478668804e+00, 1.596819901353170e+00, 3.336858777109444e+00, 3.568556336321885e-02, 7.764173548074631e-02, 2.615641990157460e+00, 1.128291050234049e+00, 6.544820065497329e-01, 1.066365216983793e+00, 2.043343098390019e+00, 6.405439318814062e-01, 1.004745847063750e+00, 5.758557045978383e-01, 1.801026843788915e+00, 1.325937179712214e+00, 1.599623321946092e+00, 1.199349643395212e+00, 1.594612298099768e+00, 1.257095405383698e+00, 3.301445530696244e+00, 1.185060646272811e+00, 1.907827804206814e+00, 1.304274713165341e+00, 8.001396787758667e-01, 1.107028982756892e+00, 1.392092747892028e+00, 2.575869357690417e+00, 5.379270737063429e-01, 1.739288154005390e+00, 3.023055271793385e-01, 5.685778057353874e-01, 1.742082649897485e+00, 1.560049153162040e+00, 1.867635332011114e+00, 1.085422660652083e+00, 2.259899697731816e+00, -2.491180475057194e-01, 1.681239381189022e+00, 1.982895375457011e+00, 1.337301780908605e+00, 1.559162850707906e+00, 1.743303888721431e+00, 2.761405022691256e+00, 1.338728952540247e+00, 1.340635013735946e+00, 9.393988669293799e-01, 1.173721331580852e+00, 4.305572023453439e-01, 1.394760225085111e+00, 1.275683449620423e+00, 1.376526563410552e+00, 2.004772893041690e+00, 1.617512366667751e+00, 1.730998972182566e+00, 1.453825166109699e+00, 4.182497257117371e-01, 9.043364871895275e-01, 1.724867893343160e+00, 1.239391316296985e+00, 1.188657295553033e+00, 1.769635634191804e+00, 1.144059919958943e+00, 1.386169123147020e+00, 1.466980059890985e+00, 1.554873672129503e+00, 6.480970322844383e-01, 1.953901331588822e+00, 2.076990089700139e+00, 1.990176551688477e+00, 1.208393923125521e+00, 1.620887232565026e+00, 2.692065013690126e+00, 5.586075246976688e-01, 7.867519581898130e-01, 1.802417869842802e+00, 1.004824819074811e+00, 1.334375546820719e+00, 2.355855739228078e-01, 1.362545244927711e+00, 1.759779796157622e+00, 1.331283486210556e+00, 1.374986867522930e+00, 5.630439199923774e-01, 1.796572315430001e+00, 9.732899786738810e-01, 1.382934251751011e+00, -2.415027922789128e-02, 1.232772509500822e-01, 5.081011814080200e-01, 1.376870581818274e+00, 7.632316156528204e-01, 6.644468740865005e-01, -2.098922067943430e-01, 1.384294681126126e+00, 1.031225776380970e+00, 4.979239669715488e+00, 7.848186940859816e-01, 3.534910608789679e-01, 1.213587550530727e+00, 1.080314800547633e+00, 1.750787916095605e+00, 1.732518629333596e+00, 1.342863106418294e+00, 1.050027031417967e+00, 2.681046385187937e-01, 7.580119440843358e-02, 1.189557754863018e+00, 3.545786728306002e-01, 5.920079388005255e-01, 2.151423551883473e-01, 8.401672457629207e-01, 4.840908800857042e-01, 1.148722491789721e+00, 7.656128884039847e-01, 6.566289167461824e-02, 1.404742383258239e+00, 6.609892717577295e-01, 1.546796164089210e+00, 1.523502542156653e+00, 7.177153517417624e-01, 1.410160120320607e+00, 8.611491641491271e-01, 1.232649661064241e+00, 3.843371745626216e-01, 1.128985586615051e+00, 1.503699481936372e+00, 1.125313782395180e+00, 3.169971040868807e-01, 4.409263469271531e-01, 6.759225341487051e-01, 4.777573789323712e-01, 2.530042702072898e-01, 2.691674578594647e-01, 2.043472983700631e+00, 1.182274385445378e+00, 1.002083662306772e+00, 1.000561430860880e+00, 1.507793485116596e+00, 2.351859557137897e+00, -6.234833919497142e-01, 1.507608095630022e+00, 2.149188275023068e+00, 2.155681573622492e+00, 2.424156547025360e-01, 1.443180245576681e+00, 1.723193240922092e+00, 1.378913273181389e+00, 6.908123023974836e-01, 8.745750598939156e-02, 9.822182533199149e-01, 1.633000963516428e+00, 1.059599249784388e+00, 4.730837452487312e-01, 1.357505779181013e+00, 4.212529763435672e-01, 2.004520076356291e+00, 8.834072094512313e-01, 2.589101184011403e-01, 1.215535525751458e+00, 1.167964132626657e+00, 1.148360623498035e+00, 2.044165586801939e+00, 1.200192452897916e+00, 1.669475684382722e+00, 1.386013163480878e+00, 1.058019253490743e+00, 2.481861720930948e+00, 1.684489397311084e-01, 8.370498474785849e-01, 1.970415589719950e+00, 1.481577765177054e+00, 4.914429628815120e-01, 2.262209674215211e-01, 2.961465769668136e-01, 4.649086092022069e-01, 4.666080053733980e-01, 2.731503225418001e-01, 4.456831422026722e-01, 5.044970690602134e-01, 7.098571198330021e-01, 1.323081903736647e+00, 1.335857921478562e+00, 3.900868641824048e-01, 6.479155183814196e-01, 8.148599175616399e-01, 2.242735732126365e+00, 2.610588977361621e+00, 6.715561861891910e-01, 2.253377389732659e-01, 4.694308076258296e-02, 2.666171617371982e-01, 3.568021540915352e-01, 4.376345717148887e-01, 6.795778770334800e-01, 4.119527105890147e-01, 1.323466518755579e+00, 1.783690579830795e+00, 1.848860413139836e+00, 3.492519709195113e-01, 3.105035677516166e-01, 1.070221381402611e-01, 3.852538282706794e-01, 6.929355268286539e-01, 8.056823281429583e-01, 1.187077137020183e+00, 4.077028608564340e+00, 9.372249095180277e-01, 1.520018870562886e+00, 5.356646222528010e-01, 8.540451720295458e-01, 3.540770632023398e-01, 1.467209229396935e-01, 9.258617786512195e-01, 9.724772868580046e-01, 1.659287214827987e+00, 1.942695683299542e+00, 8.596015725248732e-01, 1.139710001035996e+00, 3.860624692769050e-01, 2.875288880255058e-01, 5.214448576978631e-01, 1.104946405611022e+00, 1.688824764005513e+00, 6.497974553663680e-01, 1.052294459971731e+00, 1.227147189210512e+00, 3.905729896160835e-01, 9.600374571217155e-01, 1.107622523192522e+00, 1.455995909146956e+00, -1.245196653878557e-01, 1.123190860210237e+00, 7.287730995674794e-01, 2.775791595560745e-01, 3.027355351155390e-01, -4.794026592097764e-01, 1.172550175290569e+00, 7.326757957520968e-01, 1.130981265214733e+00, 1.263514064836642e+00, 1.230152411454352e+00, 7.517784667260938e-01, 2.172801453701668e-01, 9.707386036354941e-01, 1.207957353561036e+00, 1.498497898075806e+00, 1.120071665850274e+00, 1.070823753319580e+00, 1.448985448880559e+00, 1.110579272353456e+00, 2.291390552888820e+00, 5.498467544405975e-01, 6.108698092882967e-01, 4.917935362131742e-01, 6.926225882388953e-01, 1.212159107949074e+00, 1.084616250114213e+00, 1.359207543480845e+00, 3.530391060838979e-01, 1.919021717625582e-01, 2.308006889745442e-01, 1.359099142360105e+00, 1.045212329752515e+00, 2.697704509554664e+00, 7.986876603450245e-01, 7.823985895651996e-01, 1.301740052813095e+00, 1.298341355474540e+00, 7.348802283907194e-01, 2.980540998298268e+00, 2.795100885302980e-01, 6.142045052576950e-01, 1.132237946762169e+00, 9.636993634678015e-01, 1.410445983681873e+00, 6.746759430926885e-01, 1.623658259415956e+00, 1.587094776854988e+00, 1.910130343117977e+00, 7.048435449605678e-01, 2.865682505853137e-01, 3.279969871531170e-01, 1.198381162548645e+00, 1.709012593421390e+00, 1.831710444654735e-01, 6.178449127440337e-01, 1.623636368296336e+00, 4.129057900510002e-01, 1.191088934466325e+00, 1.690545880538314e+00, 4.807609249765917e-01, 1.329149666276760e-01, 1.064322383720074e+00, 1.056349784137101e+00, 1.211334741649506e+00, 2.471990319322196e-01, 5.534995359730238e-01, 5.241723977863461e-01, 4.831794758412333e-01, 1.275662323526116e+00, 1.540721108966394e+00, 1.393395458255016e+00, 1.310589646272587e+00, 1.309485453590659e+00, 1.410655139314180e+00, 1.292158215576426e+00, 8.327674079701556e-01, 1.759210000583189e+00, 2.267347615002215e+00, 1.056478243564206e+00, 1.630183931114305e+00, 2.060108122953829e+00, 1.372073942327891e+00, 1.466145576552863e+00, 2.028769677772523e+00, 1.073295842305274e+00, 9.849625415171488e-01, 6.856975098042740e-01, 5.034188788106464e-01, 7.893330147214176e-01, 6.797349256564765e-01, 5.101666524314273e-01, 3.894135118865891e-01, 6.126515635348635e-01, 4.872984097116611e-01, 6.001048949210733e-01, 2.967586963824698e-02, 4.571516344471017e-01, 1.523501692662687e+00, 9.050352755909405e-01, 1.332124213698327e+00, 1.710795871353263e+00, 1.426177188181037e+00, 8.861752122767805e-01, 6.759725540971419e-01, 1.396316830358505e+00, 1.042203878385816e+00, 2.836465061835294e+00, 9.915037181921685e-01, 8.497767166909579e-01, 2.390371267722649e+00, 8.851940687393436e-01, 5.011594989458392e-01, 4.714523722664254e-01, -7.892100359098642e-02, 4.483038622828995e-01, 2.141976268339129e+00, 6.298957455393845e-01, 1.417064218843151e+00, 1.956659667091176e-01, 1.729996588345248e+00, 1.137919732207952e+00, 1.483136039386847e+00, 3.412176523529732e+00, 1.323221674820958e+00, 1.858334282429619e+00, 1.859826906938384e+00, 1.631796503123859e+00, 6.567386235082405e-01, 1.136480384870519e+00, 5.056016835378130e-01, 7.750918052538791e-01, 6.582623112445211e-01, 2.178054857660769e+00, 6.001529453532493e-01, 1.025528427810816e+00, 1.136146356495887e+00, 1.118919802749695e+00, 1.385948005997892e+00, 1.278339613306203e-02, 1.349562834678634e+00, 5.152507301760267e-02, 1.428802615139960e+00, 2.215694072745920e+00, 1.681722627580335e+00, 1.198326932916950e+00, 8.758545110596400e-01, 9.649045245657464e-01, 5.673722570058162e-01, 9.687992122875067e-02, 3.675376221262200e-01, 8.372522266912139e-01, 7.613098860222971e-01, 1.304613919922760e+00, 7.705690684418262e-01, 1.033117467203513e+00, 2.102850993645476e+00, 1.530260561569978e+00, 1.539615335460287e+00, 1.283571880377365e+00, 1.695311629200914e+00, 7.979625005884741e-01, 1.390357796105775e+00, 1.355393123512828e+00, 7.697822245868469e-01, 1.042156246648415e+00, 1.232156833885088e+00, 1.675107752278632e+00, 8.148838846811071e-01, 1.707628922534532e+00, 1.311237132809898e+00, 1.333798671155661e+00, 2.334970082813440e+00, 6.523764095873917e-01, 5.622304364732278e-01, 2.081654850043308e+00, 1.253897450898359e+00, 1.441460389148040e+00, 1.359783274614051e+00, 1.023886712951710e+00, 4.355112576403100e-01, 1.636731741895348e+00, 1.314651327050235e+00, 1.639885003405910e+00, 1.240601503759398e+00, 5.457037423767204e-01, 1.396712821355755e+00, 1.558053276589647e+00, 1.699058831257584e+00, 6.266856058377104e-01, 5.180390628128818e-01, 1.995062685849409e+00, 6.621171334814402e-01, 6.781908972677313e-01, 1.847250718500222e+00, 2.903663307773613e+00, 8.913833349628262e-01, 2.435899352255563e-01, 6.680823831688057e-01, 1.578598824221544e+00, 4.366671281592829e-01, 2.196643861051518e-01, 1.832501343996109e+00, 6.898394656165198e-02, 5.704461586151905e-01, 1.095722754763474e+00, -5.993005975820855e-01, 4.048181815760845e-01, 6.622029419543886e-01, 1.166389910342602e+00, 1.784960796107268e+00, 3.318188662896443e-01, 1.077556826531104e+00, 8.622412105828634e-01, 9.555944353957391e-01, 1.363538812836920e+00, 4.865188753699758e-01, 3.548366208911025e-01, 1.077476580399767e+00, 4.964750751183010e-01, 6.336688024466247e-01, 1.186469393710026e+00, 1.439895362648769e+00, 1.266667729326123e+00, 2.773762527601836e-01, 1.530659019583156e+00, 6.876936716286577e-01, 1.238992457108614e+00, 1.637818301550212e+00, 1.436159557913360e+00, 1.992254156359275e+00, 2.220895619333458e+00, 7.748121118830290e-01, 3.641429893179297e-01, 8.705308040398805e-01, 1.138327704147556e-01, 5.230828811708298e-02, 4.646644852901667e-01, 2.616750461004314e-01, 2.832503354980390e-01, 7.354727435186653e-01, 1.273027198720509e+00, -6.210373187236549e-01, 1.240601503759398e+00, 6.674309708715740e-01, 3.377092560189461e-01, 1.194823575376988e+00, 9.747857602072285e-01, 2.293109963951234e+00, 1.040736941575351e+00, 1.406068711546417e+00, 1.358560426580249e+00, 1.742552138040470e+00, 1.186240936358913e+00, 1.758812447301839e+00, 1.129544738788838e+00, 4.726677421036498e-01, 1.383971023479863e+00, 7.368242818001146e-01, 8.007832936000130e-01, 7.152774314072237e-01, 1.921273854139620e+00, 1.141170098444744e+00, 8.437262575663889e-01, 3.376234741693364e-01, 7.996180456809032e-01, 1.263440709306461e+00, 1.506433279697443e+00, 1.324491560338889e+00, 7.554720906376297e-01, 1.240601503759398e+00, 1.240601503759398e+00, 6.272476395730638e-01, 9.354769899987290e-01, 9.512684099281744e-01, 1.290372867168261e+00, 1.413242444796938e+00, 8.793978966799496e-01, 7.466387029700520e-01, 7.251264589878893e-01, 8.454190337985453e-01, 2.898966384484303e-01, 6.822959860435632e-01, 7.081710162952970e-01, 1.730850764769018e+00, 6.330234766550051e-02, 1.095705301517621e+00, 1.161010027215871e+00, 6.487173366443855e-01, 6.000356788716885e-01, 1.066453221807230e+00, 9.254713058629550e-01, 5.131176655322836e-01, 1.735335740967964e+00, 4.099040821358831e-01, 3.941573342450055e-01, 4.421339900009145e-01, 5.533717008070118e-01, 3.940216883515770e-01, 1.000129646675082e+00, 5.480658577496611e-01, 5.869228183441281e-01, 8.802654817167892e-01, 3.197923910465044e-01, 1.892339744341205e+00, 1.721181155325099e+00, 1.757055572125388e-01, 1.032229946904883e+00, 2.478752488365768e-01, 1.058103693839138e-01, 1.362977244764703e+00, 7.721115264560240e-01, 1.133076071099036e+00, 1.404616067332386e+00, 8.525866795198417e-01, 1.248626664683015e+00, 1.256097599179608e+00, 2.715428710772352e+00, 7.936842778181540e-01, 2.066659481553100e+00, 9.265919050263258e-01, 1.015636176641961e+00, 6.552559489777200e-01, 1.439026177954370e+00, 8.443272483039966e-01, 1.102723247694092e+00, 1.503107075544983e+00, 1.240601503759398e+00, 3.892968994350016e-02, 1.621908871159092e+00, 7.488606702086750e-01, 1.469931981774895e-01, 1.289583627016097e+00, 1.422035663907906e+00, 7.889618382455184e-01, 9.695361651156683e-01, 1.222645940867438e+00, 1.025818768572219e+00, 5.042707551020452e-01, 7.376096487267239e-01, 5.533135632690365e-01, 9.116683272396949e-01, 8.761315513748378e-01, 6.906135205494246e-01, 2.932553396218947e-01, 1.254329012143449e+00, 1.259612449773375e+00, 1.072099295557412e+00, 9.250259752466661e-01, 1.489268167533973e+00, 1.240601503759398e+00, 1.387032646227674e+00, 1.283950374788604e+00, 8.053396968129503e-01, 1.207660304779014e+00, 1.333477129680687e+00, 1.611867020549032e+00, 2.094198450262555e+00, 1.231180130411827e+00, 1.749378552041176e+00, 1.084049653106409e+00, 1.804859566108796e+00, 2.974785958358118e+00, 2.575606912330224e+00, 1.548555990449946e+00, 1.202513721153959e+00, 8.389106846100619e-01, 1.075318087868733e+00, 1.674091301300431e+00, 1.290179984742778e+00, 2.153062396871179e+00, 7.918907337745194e-01, 1.216321105180639e+00, 1.923297429454930e-01, 7.477009292430856e-01, 1.546156362045032e+00, 1.265676750392958e+00, 1.812902193306579e+00, 1.372754488656741e+00, 1.415082605130561e+00, 1.447152756247761e+00, 1.443363488004039e+00, 1.638992760827906e+00, 1.177846786977810e+00, 7.542037059992890e-01, 1.340740124163758e+00, 2.543527002991474e+00, 8.505439265129605e-01, 1.008129956993643e+00, 1.065155240515779e+00, 1.337100891800276e+00, 1.420224714791319e+00, 1.418947846327011e+00, 8.774546132096899e-01, 5.047915823358597e-01, 1.319411487074825e+00, 1.715124201377356e+00, 1.613945938673900e+00, 1.357702639747413e+00, 1.109460989543473e+00, 1.257883459945638e+00, 1.388710935443331e+00, 1.134031530182454e+00, 1.066375177403280e+00, 1.069481594161621e+00, 8.697111754154611e-01, 1.292747597107377e+00, 1.530860103539089e+00, 1.240601503759398e+00, 1.240601503759398e+00, 1.112234557222117e+00, 1.240601503759398e+00, 1.221414218695273e+00, 1.124083484682239e+00, 1.197903580339609e+00, 1.136066365323967e+00, 1.134466688762125e+00, 1.238738869697231e+00, 1.132511295717667e+00, 1.172504901876548e+00, 1.262965641704628e+00, 1.226778676793944e+00, 1.406828763681592e+00, 5.732447287677251e-01, 1.040263614319294e+00, 5.144830876300345e-01, 1.053379551944946e+00, 1.832202729070159e+00, 1.133467260472664e+00, 1.277172609533930e+00, 1.289898033043068e+00, 1.341599513885227e+00, 1.561743677679807e+00, 5.936121388889462e-01, 1.240601503759398e+00, 1.230179113954653e+00, 1.129469684696113e+00, 9.796314296936068e-01, 1.385223929660224e+00, 1.307843013100254e+00, 1.907388111468137e+00, 1.646221523600951e+00, 1.424814455498556e+00, 1.638778663696605e+00, 2.036805235878345e+00, 2.131316263036126e+00, 2.341973605287957e+00, 8.947209477747909e-01, 8.634950606497790e-01, 1.402568273386956e+00, 1.425260086120114e+00, 2.747475783261581e+00, 2.922919623888411e+00, 1.346213284031633e+00, 1.834180526747833e+00, 1.404556634913087e+00, 1.578317694292960e+00, 1.194718627710329e+00, 1.167566169226353e+00, 1.417613780065770e+00, 1.545199154767672e+00, 1.319715831777335e+00, 1.307421585476751e+00, 5.888053073215579e-01, 8.061251434002555e-01, 1.221469722627546e+00, 1.520376753844767e+00, 1.525512135587902e+00, 1.823165188774676e+00, 1.802321581396298e+00, 2.736363100573988e+00, 5.087692057065006e-01, 1.220083736294588e+00, 6.503940757870345e-01, 1.563717324929870e+00, 1.109509390095968e+00, 1.328762880595140e+00, 1.162445264336042e+00, 1.793920987463393e+00, 1.553171242941706e+00, 1.618520881592340e+00, 1.915058722455782e+00, 1.480675758605337e+00, 1.462126681297188e+00, 1.912791611743573e+00, 1.973363632197308e+00, 1.449691544878775e+00, 3.128169481712397e+00, 3.335530981529295e+00, 1.226695290623998e+00, 1.367664794838398e+00, 1.323607333744762e+00, 1.237183816310472e+00, 9.909866655392233e-01, 1.236870562106886e+00, 1.772923743522835e+00, 1.579389043620405e+00, 1.889662382164673e+00, -1.448802667467985e+00, 1.284651088214863e+00, 1.146744715736961e+00, 1.465995253593449e+00, 1.337573272424603e+00, 1.613893379277999e+00, 2.427699054153483e+00, 1.482993783656286e+00, 9.218548484838599e-01, 9.298543947509086e-01, 1.447251449593285e+00, 2.236101138761057e+00, 1.110948966517834e+00, 7.893754797765727e-01, 1.594848242885297e+00, 1.415272070961741e+00, 1.311603144079071e+00, 1.130901379597324e+00, 1.264841808594539e+00, 1.401043712816060e+00, 1.191190601164606e+00, 1.078722427379805e+00, 1.837978872424866e+00, 1.461793057972989e+00, 1.385884551949222e+00, 1.703371776270172e+00, 1.073016853866294e+00, 1.026349369101247e+00, 5.053892636385257e-01, 8.579750644939836e-01, 1.112239535791625e+00, -3.013890017284122e-01, 1.369897477671462e+00, 1.996952748183346e+00, 1.649662568645301e+00, 1.417183593643072e+00, 9.226068754303529e-01, 1.508703416660601e+00, 2.177803292276983e+00, 1.252796993143312e+00, 1.617740091004859e+00, 1.210679256841336e+00, 8.852151459628936e-01, 1.237229089319701e+00, 1.443553560739190e+00, 2.045945480570882e+00, 1.576052931154048e+00, 2.651254387346804e+00, 1.796083522706645e+00, 1.550605415679084e+00, 2.188305879614510e-01, 1.659522951637541e+00, 1.375177419287401e+00, 9.075764182931795e-01, 1.883918873911657e+00, 1.150561732300111e+00, 1.729414438363792e+00, 2.373857405792312e+00, 9.682029607552526e-01, 2.006827302452504e+00, 1.296045850671211e+00, 1.728246367084616e+00, 1.383230408464927e+00, 1.342553899866724e+00, 1.245370173738801e+00, 8.910243355007548e-01, 8.698365221102887e-01, 1.575289039216780e+00, 2.008612634734606e+00, 1.603294311889422e+00, 1.709473175484556e+00, 1.213236110140658e+00, 2.342813427382961e+00, 9.544108143504483e-01, 8.875845013356297e-01, 1.201653311841073e+00, 1.023342933777590e+00, 1.190015280609504e+00, 1.525049590100667e+00, 1.073695457363550e+00, 1.664861768255541e+00, 1.451816437500315e+00, 1.380986964783259e+00, 3.737416148480195e-01, 7.367063175722960e-01, 1.296357691554282e+00, 9.746300337012846e-01, 1.598979944084161e+00, 1.416242738038382e+00, 1.697651648776347e+00, 1.831476281990304e+00, 1.979986552239114e+00, 1.260886009548543e+00, 2.250637871934809e+00, 6.432154633875787e-01, 1.257865250170261e+00, 1.280037352171951e+00, 6.133897153720584e-01, 1.465245552924362e+00, 1.243369549514310e+00, 1.264236887133678e+00, 1.328425187105206e+00, 1.540930014089617e+00, 1.420459388284739e+00, 1.248641584095079e+00, 1.469403853713579e+00, 1.344897097626512e+00, 1.964090706738481e+00, 1.342128673067772e+00, 1.621012180737325e+00, 1.206903919573173e+00, 8.615369813911535e-01, 1.309033547470063e+00, -6.714201756239631e-01, 8.982217528370190e-01, 5.484813435796706e-01, 1.442791583884818e+00, 1.615902329224764e+00, 5.238853065015012e-01, 1.378606501804606e+00, 1.088518532496668e-01, 2.097395476511521e+00, 2.375253029423253e-01, 6.875439854574575e-01, 1.553241707703591e+00, 6.572921886810237e-01, 4.682605821185986e-01, 1.025058839144036e+00, 9.314844637588910e-01, 9.564073010706361e-01, 2.589343189189573e+00, 9.291115655806682e-01, 1.287514449528382e+00, 1.402234319387812e+00, 1.474383590977617e-01, 5.721193452166285e-01, 9.712897014376466e-01, 1.293356019718694e+00, 3.727280537605056e-01, 1.400212896597308e+00, 2.977098751253939e-01, 2.333348165813935e-01, 4.054138718584555e-01, 3.627353611508902e-01, 3.906803119805712e-01, 1.096154061947602e+00, 9.120397757739157e-01, 1.140114824998980e+00, 2.609553725028272e+00, 7.227899549134360e-01, 1.221626400716886e+00, 8.579436653565570e-01, 1.840459939396133e+00, 1.434217369807717e+00, 1.085156107032213e+00, 9.497422548429760e-01, 1.395781100681835e-01, 2.134360197762933e-01, 4.952998301577655e-01, 1.040092830426666e+00, 9.345389331706908e-01, 3.359500826382101e-01, 1.465365743077918e-01, 5.745390026849169e-01, 4.910018965249890e-01, 7.370795044508647e-01, 3.692405158600563e-01, 1.534906482310824e-01, -3.477725365738879e+00, 7.705024477356234e-01, 1.113840319063117e+00, 6.080023266109338e-01, 4.146164287675119e-01, 6.589152844380464e-01, 1.000133243216574e+00, 1.210234014009682e+00, 7.305300065969103e-01, 2.573720309599757e-01, 7.294987566569490e-01, 7.911946189425092e-01, 1.140071469018947e+00, 4.909225029271233e-01, 5.352805047135761e-01, 7.218995969589653e-01, 8.211105475651503e-01, 1.119118902629844e+00, 1.238876149503805e+00, 3.677954051778151e-01, 1.268615117204634e+00, 5.140232766696079e-01, 1.163205468903567e+00, 1.052070432110805e+00, 1.359135970564756e+00, 4.150030293816203e-01, 1.711162397042744e+00, 1.200712499266869e+00, 5.284669346965066e-01, 1.270421051657251e+00, 5.233980566554175e+00, 1.348355344666754e+00, 8.926395639790232e-01, 2.505427508819454e+00, 1.554397502938255e+00, 1.342556061103544e-01, 4.899167078605601e-01, 1.588353882759914e+00, 8.159445744761892e-01, 1.111407587645785e+00, 1.148997463853841e+00, 7.067996693965426e-01, 8.493424342234371e-01, 1.237282492474007e+00, 1.138929661085037e+00, 1.184686207025434e+00, 9.470985300336380e-01, 1.030755551404365e+00, 8.551145928055655e-01, 1.192958532816961e+00, 1.450374153562273e+00, 2.593008938534014e+00, 1.198115606995835e+00, 2.221430264460955e+00, 1.617646390655458e+00, 1.709605404234424e+00, 1.768329853000050e+00, 1.375768404842453e+00, 6.292428415892751e-01, 1.586805254272515e+00, 8.919521154217016e-01, 1.587389410383283e+00, 1.210701670335927e+00, 7.986492784668179e-01, 1.355637390444124e+00, 1.179647376688317e+00, 1.629920195527824e+00, 3.899360496609063e-01, 6.043801834690148e-01, 1.244628969541040e+00, 3.442643360968796e+00, 1.128338157056031e+00, 4.374259034732864e-01, 1.238937929244540e+00, 1.610712985394702e+00, 1.659751883827126e+00, 1.045547306801132e+00, 1.104843255562769e+00, 1.370573507542669e+00, 9.121505946128908e-01, 1.133295304499373e+00, 1.160957650354623e+00, 1.356002619486369e+00, 1.327380496337212e+00, 9.100276287545245e-02, 1.224540730341682e+00, 1.147343237352997e+00, 1.106304739014282e+00, 8.817320797054506e-01, 1.421693355628291e+00, 9.162714884778386e-01, 1.255748404114852e+00, 1.415732410743211e+00, 8.699463978933125e-01, -3.563175472580294e-01, 1.126328971818127e+00, 1.447465302572024e+00, 8.932833540286794e-01, 1.369011629374658e+00, 2.494241395643675e+00, 1.143819223772807e+00, 2.291781022697570e+00, 1.540123186239158e+00, 1.869584915562119e+00, 1.386576007791881e+00, 1.160437013344913e+00, 1.319977197698312e+00, 1.965562985970756e+00, 1.332959077209294e+00, 1.244752902229812e+00, 4.142747981159230e-01, 1.102561815067602e+00, 2.009230795578973e+00, 9.714609258696102e-01, 3.149402168175222e+00, 3.675242760303949e+00, 2.742764412043929e+00, 8.480717182034717e-01, 1.660291117704086e+00, 7.052717902232016e-01, 1.105045923348980e+00, 1.356824933155871e+00, 1.164896589044337e+00, -5.601770884644633e-01, 2.368255720282576e+00, 2.373935573622195e+00, 8.019883247945514e-01, 1.382364532962642e+00, 1.251745290975324e+00, 1.393759334522017e+00, 1.567654084474033e+00, 1.266811670481767e+00, 1.314002324088129e+00, 1.600220733631282e+00, 7.839622681206078e-01, 1.473186675201557e+00, 1.434141850772805e+00, 1.714404076949226e+00, 2.486325874776431e+00, 1.531624460676223e+00, 2.129023379021632e+00, 9.965962035741830e-01, 2.065094029280145e+00, 1.399380931578813e+00, 7.943166768753884e-01, 1.483042322365340e+00, 1.612913352153037e+00, 1.230933831549872e+00, 1.080531653405881e+00, 1.361817002076695e+00, 1.102113774264689e+00, 1.963925851233668e+00, 1.475900186613637e+00, 1.086104835976500e+00, 7.779760014894809e-01, 2.178613430866557e+00, 2.414782157959518e-01, 9.117377709296403e-01, 1.292612222266124e+00, 1.751535770341298e+00, 1.748113630639224e+00, 3.987782825464641e-01, 1.276237334517924e+00, 1.267309453335735e+00, 1.275198820343083e+00, 1.236114610673994e+00, 1.006673623862088e+00, 4.707673275120820e-02, 1.317341049197165e+00, 1.178677151294618e+00, 4.950179832418851e-01, 1.371583301595376e+00, 8.100441852400602e-01, 9.706513647725923e-01, 3.266880727187115e-01, 1.145330451221112e+00, 1.377420583760879e+00, 1.289518680184931e+00, 1.131980534495113e+00, 9.023962554157295e-01, 1.188417378573258e+00, 1.069385255028161e+00, 7.670701162953530e-01, 1.194262308771304e+00, 9.269490740023772e-01, 8.662939180794441e-01, 1.136432153496920e+00, 7.669248714030837e-01, 1.325566722253074e+00, 1.127211451534827e+00, 1.311529557384095e+00, 1.002070744567072e+00, 1.274683139503549e+00, 1.198132105717187e+00, 8.846715815065771e-01, 1.389198944482945e+00, 1.303717465835610e+00, 1.556966782714332e+00, 2.329449277123200e+00, 8.005252522091703e-01, 1.416072723751194e+00, 1.513104488138921e+00, 9.955885389895953e-01, 9.783347451388683e-01, 1.716242258986751e+00, 1.466882857246377e+00, 1.352837984228471e+00, 1.821455196459835e+00, 1.142936567106638e+00, 1.382916428135571e+00, 1.448396822109007e+00, 1.241037785452871e+00, 4.535187922158320e-01, 1.205870717221033e+00, 1.187705922875134e+00, 1.850562453611491e+00, 3.496984079349608e+00, 8.677246607459455e-01, 9.267422511058534e-01, 2.309747540318273e+00, 1.390940664260542e+00, 1.141560591936727e+00, 4.756058663821195e-01, 2.024151283834079e-01, 1.196969472802729e+00, 1.111298908835085e+00, 1.384388685015015e+00, 1.198484083052953e+00, 1.332033750543806e+00, 1.031331869359376e+00, 2.402423862441130e+00, 1.443061808672676e+00, 1.155438037607443e+00, 9.028274414390789e-01, 1.370184780675733e+00, 1.273039497152019e+00, 1.918986752768434e+00, 1.068120644474908e+00, 4.033374276258516e-01, 2.237696326787499e+00, 5.251472542057514e-01, 3.542047399183411e-01, 8.933632545030433e-01, 1.245068339743904e+00, 1.886721832306981e+00, 1.142794397519702e+00, 1.220116755672216e+00, 1.434154249840219e+00, 2.747594828861389e-01, 1.381522644735693e+00, 8.957683855243767e-01, 9.098675691145561e-01, -2.099295291148785e+00, 1.147645833253833e+00, 1.967163531773368e-01, 6.489340637951566e-01, 4.585754225016778e-01, 1.069634205986446e+00, 1.183192899030244e+00, 1.045692234315813e+00, 1.090420554452383e+00, 1.705362338310462e-01, 1.050332506349041e+00, 1.055269301961794e+00, 1.222069668783887e+00, 3.225161358988572e-01, 1.523843448310498e+00, 7.104903025227725e-01, 1.853814220323597e+00, 1.113090825113022e+00, 1.560260970919950e+00, 1.472634765019554e+00, 1.344413666573343e+00, 1.183291467070125e+00, 1.280182680607652e+00, 1.003735034547283e+00, 1.217334161105746e+00, 1.175581270714903e+00, 8.288078000235746e-01, 6.376345077821197e-01, 1.379978152348796e+00, 1.181130657073886e+00, 1.223776409113038e+00, 1.474675421220392e+00, 2.259202952856100e+00, 1.317198203695541e+00, 1.963455015574822e+00, 9.072455340138609e-01, 2.197831438289969e-01, 1.634785266367348e+00, 2.579472299322545e-01, 2.261500129437801e+00, 1.092581942435400e+00, 3.070547933474644e+00, 1.356753430398387e+00, 7.957085944665191e-01, 1.050577311005317e+00, 7.533451561786936e-02, 5.600346369312875e-01, 4.324729072571622e-01, 2.106275468419233e+00, 2.038422784927579e+00, 2.357652091862842e+00, 1.484165717511545e+00, 1.202200969235237e+00, 1.827335632797586e+00, 1.167109690105013e+00, 1.684372660615403e+00, -1.322647555621451e-01, 2.988844792074496e-01, 4.992746375986487e-01, 1.571972291592128e+00, 7.671751380401642e-02, 1.455822908870050e+00, 1.779874560852327e+00, 1.393644424544837e+00, 1.061286567233543e+00, 1.169986836410331e+00, 1.557118279851609e+00, 1.422658740372412e+00, 1.069818500813698e+00, 1.677785059015470e+00, 1.547242645214115e+00, 7.099717593768416e-01, 1.230718145793527e+00, 5.799826251204182e-01, 1.381780341794891e+00, 1.690485383663117e+00, 1.125122871009358e+00, 1.448465506929521e+00, 4.216033814648765e-01, 8.715722498978737e-01, 8.329911604744946e-01, 1.303322335497198e+00, 1.288811161484218e+00, 1.493101749942193e+00, 9.290561406080626e-01, 1.134337134510353e+00, 6.691755964778024e-01, 1.404390112487390e+00, 9.587074307761070e-01, 7.996431660116755e-01, 1.654907303667881e+00, 1.313773325551328e+00, 5.592858166429249e-01, 4.030745183755338e-01, 1.493622073990864e+00, 1.701326700114786e+00, 1.635739646290429e+00, 1.073843284445344e+00, 1.197670315663999e+00, 1.076551415133641e+00, 2.154516847224238e+00, 1.351295650243200e+00, 2.370789705175658e+00, 2.197277522499037e+00, 1.396441693499493e+00, 1.069461737664666e+00, 1.266284719922861e+00, 1.147036403418487e+00, 1.240952374323093e+00, 1.310595892644032e+00, 1.028658017943915e+00, 3.269771339018884e-01, 2.362991310407652e-01, 1.859636826739288e+00, 2.154725780845875e+00, 7.146566315846455e-01, 1.234228455849053e+00, 1.363837730798648e+00, 6.532165704549904e-01, 4.461819461514904e-01, 3.461701835403946e-01, 1.319339644773789e+00, 7.828739971843793e-01, 9.360946500612883e-01, 2.622701395332359e-01, 7.326228751423826e-01, 2.092723093636457e-01, 1.028734696417133e+00, 1.279618332719701e+00, 2.941893110939844e-01, 4.772907985881002e-01, 2.144564869963998e+00, 1.013143293171260e-01, 4.198991688141137e-01, 1.222186451740421e+00, 6.316544844193953e-01, 6.045591833864318e-01, 1.540135556960796e+00, 1.375826989014234e+00, 1.496321416166716e-01, 6.755655098051474e-01, 2.651815206069166e-01, 2.844831013092539e-01, 1.144845251339440e-01, -1.299866823686989e-01, 1.430107036517121e+00, 1.326448194458210e+00, 1.173414029915352e+00, 1.307921883913266e+00, 1.214062735561158e+00, 1.118117255634862e+00, 2.570067181114091e+00, 2.912554640830070e-01, 1.028479114819749e+00, 1.208296622289870e+00, 3.415900579808186e-01, 4.081574419373334e-01, 8.464370741433725e-01, 6.213370889760845e-01, 3.234152268211932e-01, 3.084923358362425e-01, 2.990307123329861e-01, 2.692057786043762e-01, 1.372046010583333e+00, 9.311019165179464e-01, 1.325855088359557e+00, 8.512097219767550e-01, -9.386092148353641e-01, 2.320409253194183e+00, 5.426584999342234e-01, 2.498137285214603e-01, 4.110553984984994e-01, 1.366687004416906e+00, 5.594469102571723e-01, 4.295216524195232e-01, 7.855376236130666e-01, 4.468992838060613e-01, 6.796031610569804e-01, 5.463469862626598e-01, 1.331977201025509e+00, 1.373311997339520e+00, 1.190251947786471e+00, 1.072989784445010e+00, 9.344997499487339e-01, 1.196141988405648e+00, 5.437204833620300e-01, 2.860295889055946e-01, 1.355958903643602e+00, 1.286957208567137e+00, 1.022713214847065e+00, 1.460227249894198e+00, 1.443050264141102e+00, 1.338399911456591e+00, 1.005160888848483e+00, 2.092509849749241e+00, 1.759996149828675e-01, 1.555451018649481e+00, 1.230052110924245e+00, 1.788666368510556e-01, -2.479663464447830e-02, 1.960391320554566e+00, 1.093707421681001e+00, 1.159950990825129e+00, 9.005881809103684e-01, 1.744059358480620e-01, 1.596574300027023e+00, 5.546817937973858e-01, 8.021618023943609e-01, 8.236589721723275e-01, 7.610978834524361e-01, 1.142870112259925e+00, 1.140758561619592e+00, 6.798363721892854e-01, 5.577722603021743e-01, 6.278504560606246e-01, 1.485751847023216e+00, 6.748877484264878e-01, 6.743764041992538e-01, 3.028618145600725e+00, 1.424660055389296e+00, 1.276555479301325e+00, 1.569168155583739e+00, 2.054001428375832e+00, 3.610220904396831e-01, 8.340386901980513e-01, 1.421125150918157e+00, 1.084070693602932e+00, 1.681536620659904e+00, 7.340257928856849e-01, 1.258978064521005e+00, 1.134874905410123e+00, 9.299326027836307e-01, 9.383672184129316e-01, 2.207881625890714e+00, 1.346177369517513e+00, 2.940062093968994e+00, 7.445867007859363e-01, 1.478846095942836e+00, 1.721649361502963e+00, 7.976676685169422e-01, 1.472477914567876e+00, 6.047936387907918e-01, 7.976241807435510e-01, 4.845968559839213e-01, 9.073099483983166e-01, 1.182858578807213e+00, 1.588880593605669e+00, 1.479989622084903e+00, 2.295143750609308e+00, 1.256465453856204e+00, 1.958255466692627e+00, 8.280803857956621e-01, 4.160645179245701e-01, 1.242628807203587e+00, 8.229916758432159e-01, 1.130937512712445e+00, 1.396531613247556e+00, 1.124720793107813e+00, 1.327846021408664e+00, 7.638266045112976e-01, 2.333676641037718e+00, 4.077482468206481e-01, 1.085749932367576e+00, 1.651602462970022e+00, 7.427091600421317e-01, 9.777862993448875e-01, 2.239972432828590e+00, 9.631151380537850e-01, 5.939575973938667e-01, 2.333764056831558e+00, 5.018324528939461e-01, 9.819528418923227e-01, 1.187208051601600e+00, 1.642927127810289e+00, 1.408753153338083e+00, 1.020307062740828e+00, 1.349916768957638e+00, 1.074835718017333e+00, 7.069819046229310e-01, 2.654585429724894e-01, 1.301895517924624e+00, 4.897146740103934e-02, 3.293264550337336e-01, 1.079304368435153e-01, 2.931260227509052e-01, 5.750340025843262e-01, 1.630086660324525e-01, 6.571781235976338e-01, 1.506198646246441e+00, 1.261060548118533e+00, 3.880767304192443e-01, -1.820274367806278e-01, -2.644869954363331e-01, 1.417872653725759e+00, 1.565785940792383e+00, 1.154249743498687e+00, 1.609600903496404e+00, 1.934317440709528e+00, 1.694571333025906e+00, 1.672338660831018e+00, 5.225348087419318e-01, 7.353065558227611e-01, 5.590309519854173e-01, 2.265065824701667e+00, 1.519996868920106e+00, 1.528213541450521e+00, 1.064865908001372e+00, 8.452946330595831e-01, 1.815168804923922e+00, 2.684088598633965e-01, 1.508878529539916e+00, 1.535731244112173e+00, 1.193831236812934e+00, 2.652323509964062e-01, 1.196360245406934e+00, 7.668388552098063e-01, 1.102294133511377e+00, 1.422302579997837e+00, 1.294723849961924e+00, 1.184431544640209e+00, 9.366849973875490e-01, 1.388877503476107e+00, 7.401958347839491e-01, 8.502452888421104e-01, 1.145994336839587e+00, -2.777921033495741e-01, 5.752878429874035e-01, 1.634143819978619e+00, 2.403754017641455e+00, 1.239310419183433e+00, 9.111922538434652e-01, 1.367159255557056e+00, 1.348622364239533e+00, 1.370982869166877e+00, 1.528886043346593e+00, 5.496550655860640e-01, 2.189572914531743e+00, 1.641630550431227e+00, 1.387753926002372e+00, 1.982832750645089e+00, 1.782242914260184e+00, 1.444395153179478e+00, 1.448032333192209e+00, 1.368265550873121e+00, 2.036252392120552e+00, 1.303388518370114e+00, 5.646547954579720e-01, 1.412484541244539e+00, 1.122590071449606e+00, 5.949163982330663e-01, 8.346035204858081e-01, 1.251689082431656e+00, 1.020264093150169e+00, 1.156961159651512e+00, 2.763706796963931e-01, 1.414414938748443e+00, 1.217578921749786e+00, 1.181324348731501e+00, 1.231216793919893e+00, 7.448456453124145e-01, 1.267899064807890e+00, 1.560632871313188e+00, 1.482822520407395e+00, 4.502345718552804e-01, 1.596820930715389e+00, 2.830370307924972e+00, 2.090670170058177e+00, -2.003784659259800e-01, 5.250276470903765e-01, 4.840276705549910e-01, 2.299568380846012e-01, 6.255569021442948e-01, 3.314997501998164e-01, 7.388933682380512e-01, 1.510441919320508e+00, 7.695266077684229e-01, 7.390742940184476e-01, 6.066291564934998e-01, 1.209980263918948e+00, 1.419517135440019e+00, 1.643628314286699e+00, 1.919028036220793e+00, 2.476239914486304e+00, 1.476173605602635e+00, 2.172901599607720e+00, 1.739190447747989e+00, 1.305421073550852e+00, 2.069939514469488e+00, 1.800826147274867e+00, 1.110143551853879e+00, 1.549257496104796e+00, 1.405223004918911e+00, 3.259437303946330e+00, 9.055444722227107e-01, 9.332155165723808e-01, 1.567157971675226e+00, 1.995931876724984e+00, 1.827681055800878e+00, 1.196408192785567e+00, 7.639573174118358e-01, 1.555151432543399e+00, 9.746779253552410e-01, 1.349376954273471e+00, 1.918465883528830e+00, 1.314690094148033e+00, 1.200943135336495e+00, 9.082029574905885e-01, 5.659062037373375e-01, 6.266136095000736e-01, 8.963071778231126e-01, 1.091733096568917e+00, 1.583995846325187e-01, 6.220719642812614e-01, 3.729663299199463e-01, 5.733968507598870e-01, 7.215714955229925e-01, 1.312082973365435e+00, 1.592607587663751e+00, 7.619281419757634e-01, 1.270712059542657e+00, 3.653043250437177e+00, 1.562509135511222e+00, 8.770051600476634e-01, 1.780861895025565e+00, 1.154665460915350e+00, 1.364993097937639e+00, 1.121470964074373e+00, 1.139440825397282e+00, 1.549695205155026e+00, 6.771092623178342e-01, 6.040330425453968e-02, 2.108165084041635e+00, 1.480013555297764e+00, 1.288283989743526e+00, 2.117502306449111e+00, 2.312177965877753e+00, 4.189846745732705e-01, 3.566138440801289e-01, 6.508968200109029e-01, 1.557045896734256e+00, 1.385600085232552e+00, 1.173681770783505e+00, 1.279922588565876e+00, 7.784130462971171e-01, 5.126355193298416e-01, 1.190123245015078e+00, 2.712772331421135e+00, 9.964783174713717e-01, 1.981803101690335e-01, 1.574530466302160e+00, 1.266099852152137e+00, 1.035753622183327e+00, 2.471560816295732e+00, 2.471477274834475e-01, 4.280561783574154e-01, 4.576727889919269e-01, 7.886491146114705e-02, 8.516063169497239e-01, 5.442082162393074e-01, 7.410322420011828e-01, 1.088284344383073e+00, 1.058194131791881e+00, 2.235218427116562e-01, 1.771373062408895e+00, 3.439741118215705e-01, 1.009055604354721e+00, 1.016048126054167e+00, 1.968491879880406e+00, 8.129105311272124e-02, 3.648261754687578e-01, 3.096442294520683e-01, 1.827994635046340e+00, 6.106209055846121e-01, 5.866324914375423e-01, 1.314931158890529e+00, 6.137176372382745e-01, 4.396502455037457e-01, 7.614068539510574e-01, 1.605166390646584e+00, 6.132736429066701e-01, 7.678321333069150e-01, 1.477767451770780e+00, 8.240173330350142e-01, 6.514817025452688e-02, 1.256930570749630e+00, 1.119382475672539e+00, 1.706098099866365e+00, 5.830088298828615e-01, 