MTP
version = 1.1.0
potential_name = MTP_l2k3
scaling = 1.900800000000000e-02
L = 2
scaling_map = K
species_count = 84
potential_tag = 
radial_basis_type = RBChebyshev_sss
	min_dist = -2.000000000000000e+00
	max_dist = 6.000000000000000e+00
	radial_basis_size = 10
	radial_funcs_count = 9
shift_coeffs = {-2.103101699466279e+00, -2.150070466359234e+00, -3.032032900866244e+00, -4.114016677509261e+00, -4.483941601099398e+00, -4.430976871289589e+00, -3.928690095455611e+00, -3.295854910354644e+00, -1.741626665147594e+00, -1.100205272450371e+00, -3.551906180221169e+00, -5.135452216123722e+00, -4.941117263325634e+00, -3.218980991174166e+00, -2.167528777820175e+00, -2.060006706421391e+00, -2.302431689795470e+00, -5.731673983290879e+00, -6.296951585309720e+00, -5.665774102816768e+00, -6.383096333466483e+00, -7.125314869829819e+00, -5.480635097351406e+00, -3.852181846056082e+00, -3.848275783476107e+00, -1.821717101686764e+00, -1.269458272118785e+00, -2.895477015035318e+00, -3.129702847684241e+00, -3.821053899959673e+00, -2.746885320186130e+00, -2.133088944225618e+00, -1.939876204266270e+00, -3.929584216096319e+00, -5.651491940965617e+00, -5.976529172385044e+00, -4.985478669320614e+00, -6.911320654170787e+00, -6.838090774150372e+00, -4.866979280712576e+00, -4.497882433702444e+00, -3.999732996483060e+00, -1.111874147633646e+00, -6.524727397044839e-01, -2.702672457582654e+00, -3.111141080381381e+00, -2.878534717579539e+00, -2.426848900719222e+00, -2.200319086140684e+00, -2.083525583506653e+00, -3.387959646870834e+00, -5.233421126916262e+00, -6.763997438437114e+00, -5.339054982673550e+00, -5.360723309631902e+00, -5.115766702052852e+00, -4.237485764307928e+00, -9.562623784391679e+00, -1.605838813642459e+01, -4.958148705452356e+00, -5.010535546505634e+00, -4.376201181079913e+00, -4.091233103270423e+00, -4.415500775985203e+00, -2.478101380090570e+00, -3.941388970873617e+00, -6.256350994369915e+00, -8.599940603935689e+00, -7.583708278801679e+00, -7.121126275064984e+00, -6.424583877579087e+00, -4.946836035874396e+00, -4.090032831383617e+00, -2.955471107961958e+00, 4.373835979758026e-02, -2.148645820472854e+00, -2.578022131340170e+00, -3.523201436229944e+00, -4.689423435201918e+00, -7.049249637540223e+00, -8.204623281537859e+00, -8.933857992459041e+00, -1.300442500076699e+01, -1.398992276521724e+01}
scal_coeffs = {8.152040355710239e-01, 1.843613765318198e-01, 1.832277768788939e+00, 3.923920485009064e-01, 3.282729194944364e+00, 1.780478770128220e+00, 2.146584459924592e+00, 7.173121921017014e-01, 6.915670659929900e-02, 9.811297395119232e-01, 1.248039326224080e+00, 1.346964336554000e+00, 3.019520433170902e-01, 7.018853127428536e-01, 6.203817701248887e-01, 1.065492993178313e+00, 8.707276748145627e-01, 4.306559482172154e-01, 1.299014336170896e+00, 4.864229056606784e-01, 1.975709900951215e-01, 2.222975289803788e-01, 8.977625496723670e-01, 1.609181502418965e-01, 1.398236080896407e+00, 8.592207409651117e-01, 1.461546615809526e-01, 5.877451958720213e-01, 1.059501394829207e+00, 3.173159906829852e-01, 1.893734481608801e-01, 4.025941707916965e-01, 2.734673180300681e-01, 1.824578305065883e-01, 1.054629227329054e-02, 1.079110995087651e+00, 5.140935982888765e-01, 2.107562267843211e-01, 1.328525612026435e+00, 1.512319034242794e+00, 1.605245980695972e+00, 1.164315313854694e+00, -7.496101197003360e-03, 1.312077527563587e-01, 5.235434516027755e-01, 3.509636569516502e-01, 1.338187942977952e-01, 3.431885704216479e-01, 3.210799502387503e-01, 1.208211276192570e+00, 4.032718374712123e-01, 1.017710835812150e+00, 1.366870967165445e+00, 1.291656887374024e+00, 1.048685752799971e+00, 8.240959709814069e-01, 1.617754285248681e-01, 8.258667848263744e-01, 3.668917943742503e-01, 3.267960883235283e-01, 7.746561400880899e-01, -4.743612099905307e-02, 8.567466011953349e-01, 3.938650938981897e-01, 2.512149031599540e-01, 2.995984056214123e-01, 6.930618220919382e-02, 8.262911417584458e-01, -2.374863342095214e-01, -5.388096794877063e-02, 9.109461698381249e-01, 7.551533580989057e-01, 8.145742736396864e-01, -7.608228952498253e-02, 1.001318545256479e+00, 1.450775727176816e+00, 9.959700959940468e-01, 1.056745152422921e+00, 5.952799967403097e-01, 1.685665717897395e-01, 8.176359283862042e-01, 1.633710556482627e+00, 3.277314142551002e-02, 6.689278135682314e-01, 9.873480387363229e-01, 5.476438481594719e-01, 2.604400810453809e-01, 7.540590657881980e-01, 1.043656717661542e-01, 5.542727620060977e-01, 8.746229211683141e-01, 1.107453403762788e+00, 5.544318221359503e-01, 8.909653600175398e-01, 1.011056927665235e+00, 6.709705229080810e-01, 7.437829465173303e-01, 3.826060483123438e-01, 3.775312644871203e-01, 4.996732331750097e-01, 2.371878196805422e-01, 7.594294205944365e-01, 5.344948632036421e-01, 4.925988857260704e-01, 1.028879325081116e+00, 1.209070025556195e+00, 1.002736393584874e+00, 1.938723107700872e-01, 1.343444690026899e+00, 1.474335644137813e+00, 7.106573614163748e-01, 5.613821721546425e-01, 1.157493859859269e+00, 1.925008686652616e-01, 1.222063181985816e-01, 4.588996096169557e-01, 5.503360487281156e-01, 4.852574992298677e-01, 1.176655309423524e+00, 1.211072027834325e+00, 7.934027922053503e-01, 9.077491790792133e-01, 9.325266005200357e-01, 2.280616136928021e-01, 7.131501374065055e-01, 5.521852994038338e-01, 1.406645800161090e+00, 5.100196102419569e-01, 3.692335876480498e-01, 1.020921959342096e+00, 5.935730089268355e-01, 3.209623270632517e-01, -2.929742341034027e-02, 6.326584591232671e-01, 8.292255400652659e-01, 1.268650696619035e+00, 3.722419691544929e-01, 6.923138856033648e-01, 1.000218743757896e+00, 4.030666799886448e-01, 4.468519180959897e-01, 4.424943515173870e-01, 1.303218346703483e+00, 1.346040980618981e+00, 4.824265200655967e-01, 3.330743837180966e-01, 3.401556064261070e-01, 1.076003856996715e+00, 6.809943811276431e-01, 5.178566269541051e-01, 8.598518370775989e-01, 3.517103505549883e-01, 8.401239415361836e-01, 8.304005632435079e-01, 1.909039442096723e-01, 1.211018194082012e-01, 2.864511792011856e-01, 8.675101990883773e-01, 7.670860439729510e-01, 9.635381747260584e-01, 4.549715034197482e-01, 1.913629625033008e+00, 4.514831681880871e-01, 3.894377484075895e-01, 5.601560424089845e-01, 3.760770303503712e-01, 5.911526866794000e-01, 9.592719798121956e-01, 5.240250119134517e-01, 6.423032981361066e-01, 4.983372999480913e-01, 9.755123820487779e-01, 1.881806129133817e+00, 8.436807219496367e-01, 1.037201846562785e+00, 1.190730979122295e+00, 4.983700208757961e-01, 7.032574190308438e-01, 9.390495310779258e-01, 2.538210598521073e-01, 7.914143222643076e-01, 1.835588684171478e+00, 6.309710414051826e-01, 8.615609661807879e-01, 8.379918373952602e-01, 5.857108736312525e-01, 1.100991814825870e+00, 5.551283024059784e-01, 8.308811509159478e-01, 5.014264800251632e-01, 4.251525876328789e-01, 1.165739040155253e+00, 8.037673910690584e-01, 8.008362677875071e-01, 7.561989432033651e-01, 1.200748729126893e+00, 6.230392646687116e-01, 9.245388773274941e-01, 6.423048096809914e-01, 6.396980510208080e-01, 5.602528609869341e-01, 1.024157103185871e+00, 1.364783497236886e+00, 9.303086111722477e-01, 2.456063935501901e-01, 8.841960412272497e-01, 1.049782061572900e+00, 9.634424198136698e-01, 8.599374956179061e-01, 8.057354055800812e-01, 2.659838020996218e-01, 4.191997195763926e-01, 8.238035396204966e-01, 1.488788071059359e+00, 6.891315098071056e-01, 8.547849731967306e-01, 6.270724094651369e-01, 1.199087182982126e+00, 1.043118589613204e+00, 1.038963660947098e+00, 4.870381165351165e-01, 7.847919313054786e-01, 1.315682982447220e+00, 8.250000000000000e-01, 1.434068069116492e+00, 1.217040242684654e+00, 1.001723348214484e+00, 8.990978565052662e-01, 4.590229091151960e-01, 5.180375037126411e-01, 7.068935462637622e-01, 1.123360733816633e+00, 6.389312257318054e-01, 1.055189572378703e+00, 7.825085620693314e-01, 6.213456459183130e-01, 3.030973057823989e-01, 2.327521784715530e-01, 1.336584338303348e+00, 8.740920066950643e-01, 1.113016506561775e+00, 8.428075333539580e-01, 5.961430661693174e-01, 6.514066057792188e-01, 9.493124856750553e-01, 7.088375031406565e-01, 8.250000000000000e-01, 8.769718978818989e-01, 5.502448549589869e-01, 7.761963494494822e-01, 8.368402177583518e-01, 8.221602696328772e-01, 2.234357883327964e+00, 1.257644162311873e+00, 1.144190832221926e+00, 7.412026131748374e-01, 1.036422695487418e+00, 9.224745211200490e-01, 2.102998067451011e+00, 1.262529631861141e+00, 8.249188961928474e-01, 1.291891414473697e-01, 1.586606182950592e+00, 2.274050810199548e+00, 1.914491629833072e-01, 8.404355102029085e-01, 1.584876323587735e+00, 5.684048326668729e-01, 9.460802526425818e-01, 3.871784083522307e-01, 1.634597899419552e-01, 3.143169082877483e-02, 1.229569086209050e+00, 6.619285344799741e-01, 9.859765516377224e-01, 1.130671111922158e+00, 1.197114006986762e+00, 2.020821817224989e-01, 1.388400082917288e+00, 1.870145850621580e-01, 6.711118933441146e-01, 9.628718449569034e-01, 1.408130869785325e+00, 9.001182504905682e-01, 2.879972337446994e-01, 5.875536033333634e-02, 7.691521813490499e-01, 4.942303817066114e-01, 1.131362950985220e+00, 9.536266161081683e-02, 4.667816707278744e-01, 4.313331926624107e-01, 1.145746414816568e+00, 1.738558029795463e-01, 1.073399532709696e+00, 5.578574483629437e-01, 7.940885769377494e-01, 1.287164557043535e+00, 1.146190372211192e+00, 4.593787021625809e-01, 1.367308621198141e+00, 1.057101010900604e-01, 1.437314413102587e-01, 5.450530027050949e-02, 9.679181236223723e-02, 2.935310861592917e-01, 1.374731096971421e-01, 8.250000000000000e-01, 6.118797905539195e-02, 2.610345892625318e-01, 1.601056121295406e+00, 2.688036178993429e-02, 6.178952655030734e-01, 1.917314628753376e-01, 1.683053102139942e-01, 1.087316161395492e-01, 1.405984686370645e-01, 7.491405305853929e-01, 1.083698787143479e+00, 1.449343832361581e+00, 1.025716178496816e-01, 5.527148774087284e-01, 1.233357862966108e+00, 9.743511421966808e-01, 5.408825379504245e-01, 6.876672436431976e-01, 1.616644126514793e+00, 1.155580462280285e+00, 7.690632855125158e-01, 6.789820710769482e-01, 8.250000000000000e-01, 1.224782783533194e-01, 8.261914676929214e-01, -6.573988814113448e-02, 6.405723160471434e-01, 1.255441027667622e-01, 1.576012716001852e+00, 1.851197816303130e+00, 6.154622637862583e-01, 1.368763175927779e+00, 1.438137836118649e+00, 1.300137821041208e+00, 8.535069173397211e-01, 6.351734229879140e-01, 8.775023664180152e-01, 8.982535842284270e-01, 1.211125919589195e+00, 6.226371831462488e-01, 4.950492533653038e-01, 9.527153403867598e-01, 5.576000791133470e-01, 4.154405200371616e-01, 6.121849476160041e-02, 4.195611942329721e-01, 1.316115626915976e+00, 7.762387942744331e-01, 8.755995185262355e-01, 4.881138011126408e-01, 1.064662576660300e+00, 1.094490335326530e+00, 8.119600039860563e-01, 8.621432106282425e-01, 8.693935485947656e-01, 1.771826177941109e+00, 2.730936601037386e-01, 5.028037111884807e-01, 3.473364264164643e-01, 1.181641327112026e+00, 1.942212520576191e+00, 1.976269047429353e+00, 3.741052899060116e-01, 1.193596818985000e-01, 1.382397691679468e+00, 1.108168751324563e-01, 8.705870246059031e-01, 1.158486741241628e+00, 1.231269518369326e+00, 6.300319995062043e-01, 1.290008264634042e+00, 4.427353962535354e-01, 8.274229669642115e-01, 8.924449297525853e-01, 1.089754468928131e+00, 1.588617173914783e-01, 8.847598952795469e-01, 1.575044855170523e+00, 1.278821049019484e+00, 7.660629714552004e-01, 2.879769424697856e-01, 2.102024816265634e-01, 3.940880026219321e-01, 8.250000000000000e-01, 3.087209593261818e-01, 1.271208319544953e+00, 1.479031074001983e+00, 7.790285889414243e-01, 4.486888979395486e-01, 3.710995513268683e-01, 1.638963263742441e-01, 2.972834762279252e-01, 7.807164057267013e-02, 2.984027041170703e-01, 8.035975557841626e-01, 5.381062347985799e-01, 4.705737100247059e-01, 1.645810985861388e-01, 1.233245455087161e+00, 1.932776841240023e+00, 1.584724215726384e+00, 1.404588708842345e+00, 8.191068966052901e-01, 2.293641755915380e+00, 7.881722109402774e-02, 5.735699487876870e-01, 8.250000000000000e-01, 2.857229556087544e-01, 1.419635023950275e-01, 6.412807974666308e-02, 1.477544353154985e-01, 1.130149164610469e-01, 8.043573238097319e-01, 4.510587251303471e-01, 1.286471498164305e+00, 2.374562463472552e+00, 2.367600591842018e+00, 9.556596865032122e-01, 9.773478610691080e-01, 1.558486931420257e+00, 7.255466357315997e-01, 6.777428309954884e-01, 5.682574619883034e-01, 4.855436721158553e-01, 9.115333845893077e-01, 7.607818299100630e-01, 1.493257434681528e+00, 5.015687721666194e-01, 3.271552265064938e-01, 1.005745665498245e+00, 6.112580648154121e-01, 8.459381001048586e-01, 6.969530847739618e-01, 6.569162516841547e-01, 4.839011580182804e-01, 7.656590888909628e-01, 1.111431332802259e+00, 7.695091344416887e-01, 6.753808584414727e-01, 4.219904703437918e-01, 1.154577189461170e+00, 1.069699347701979e+00, 8.226976472740619e-01, 9.233792364448193e-01, 7.427710544273440e-02, 4.079417071689079e-01, 6.104468406619370e-01, 1.690055776374983e-01, 4.348596145965507e-01, 8.867236698992784e-01, 8.056660545736429e-01, 4.677068600261157e-01, 3.686745431909561e-01, 9.858635192649898e-01, 6.806977235575731e-01, 6.104220154639429e-01, 1.097565251455084e+00, 1.041672732854502e+00, 6.903296168209164e-01, 1.644186298488914e-01, 1.189918594050909e+00, 2.192824209439353e-01, 1.244243053775531e-01, 2.972951143155562e-01, 4.348944704523034e-01, 4.098764369968235e-01, 2.839985399083070e-01, 8.197876218595956e-01, 1.260094502946404e-01, 4.345310692825763e-02, 7.591591463895718e-01, 3.325470592390619e-01, 7.982256463700325e-01, 2.861835862324659e-01, 6.768996580386464e-01, 1.848813215558468e-01, 2.246982723970708e-01, 1.455073222997212e+00, 8.542958566451798e-01, 1.199162443454847e+00, 2.906161458988648e-01, 7.471872166485203e-01, 1.039031456886843e+00, 8.911456932620508e-01, 1.102319761753117e+00, 1.011582615545775e+00, 5.180939996182111e-01, 4.272779194121544e-01, 2.380093279928054e-01, 4.069893104226155e-01, 8.172729849962452e-01, 6.680573352365503e-01, 5.922559535702765e-01, 2.622196216858602e-01, 1.343790610093407e+00, 8.494324251576763e-01, 5.179483984404668e-01, 1.540133340566648e-01, 6.804127793144834e-01, 1.380459389923585e+00, 1.686729950003412e+00, 9.432085651172234e-01, 1.069907009779015e+00, 7.869423116924024e-01, 1.219000920159474e-01, 9.496162028881919e-01, 5.949556591334172e-01, 6.498140779411069e-01, 6.349466278642936e-01, 6.411152090708993e-01, 9.065538112106624e-01, 1.510450628921182e-01, 3.354520783901767e-01, 4.018073609027966e-01, 3.463446986845719e-01, 4.350626892286318e-01, 4.597946400163133e-01, 3.971584010441264e-01, 4.515134528325168e-01, 5.535439799053736e-01, 5.872541742375599e-01, 5.258769564146207e-01, 6.481307909781759e-01, 6.693502111799088e-01, 7.456297436726870e-01, 6.334463229060124e-01, 5.830040699741303e-01, 9.326431106193683e-01, 8.795520486809538e-02, 3.635187233225244e-01, 3.055770688774027e-01, 3.257404501504794e-01, 5.715657498442404e-01, 4.270451124704112e-01, 4.514165375531125e-01, 8.689071882773454e-01, 9.600245419637224e-01, 9.359953778343233e-01, 2.452016255465179e-01, 2.181802995006386e-01, 5.469083014665426e-01, 6.319074156440544e-01, 5.948038573517275e-01, 5.140845537055518e-01, 1.199631429657452e+00, 1.515233196963635e-01, 2.135289351551655e-01, 4.655910603732892e-01, 4.628644975237076e-01, 2.228859636359152e-01, 4.410014165621110e-01, 7.128901953724368e-01, 3.608397360888518e-01, 4.254485917610792e-01, 4.548269302967836e-01, 4.560864687466670e-01, 3.938329323732963e-01, 3.959881745251719e-01, 3.441348450964213e-01, 3.346944293212065e-01, 3.764281891705515e-01, 3.079223550456905e-01, 4.193224468523936e-01, 6.566923766601174e-01, 7.000218370627579e-01, 1.181710246433080e+00, 1.268290112483311e+00, 1.057512730078277e+00, 9.965084956931755e-01, 9.439479813368686e-01, 3.982571063716728e-01, 3.264063757628353e-01, 3.719756166861602e-01, 2.569524808525221e-01, 1.476092327740377e-02, 2.923011327311902e-01, 1.450872249518346e+00, 8.182774164530519e-01, 3.728551952299002e-01, 3.510318004835443e-01, 6.237222812748672e-01, 2.506767523764711e-01, 1.582302121970694e+00, 4.632508603759458e-01, 1.315155418058086e+00, 1.099842089818493e+00, 1.349355597817900e+00, 6.042327229094160e-01, 1.670713914002244e-01, 6.627788692712173e-01, 5.093554980362865e-01, 2.454639918817336e-01, 8.689832696844135e-01, 7.614546404207921e-01, 1.113067830748689e+00, 3.954867129020212e-01, 4.313453722310314e-01, -5.922376833782934e-02, 1.336923035809027e+00, 3.185766896498687e-01, 5.797754995598797e-02, 4.675538587195643e-01, 4.698521068648756e-01, 4.487988635113264e-01, 6.785757142330602e-01, 6.773743701156458e-01, 3.793008346077732e-01, 1.057521844202056e+00, 3.088481455198872e-01, 4.943068224691587e-01, 1.156902248514294e+00, 1.343171500498134e+00, 3.762982003384069e-01, 3.200871614807889e-01, 4.059218062909112e-01, 4.168678713082550e-01, 3.354653623022843e-01, 5.443855377080122e-01, 1.316462689955467e+00, 6.080962524498672e-01, 1.253677883682055e+00, 9.574098370291784e-01, 1.631361115390041e-01, 5.414782088360867e-01, 7.023953680995434e-01, 3.962653625360970e-01, 4.989928866457612e-01, 5.243272894654808e-01, 7.684599735837763e-01, 1.090261702345568e-01, 3.825513231228162e-01, 9.778806334727018e-02, 2.758721521284636e-01, 2.318962126620253e-01, 2.247163531940015e-01, 7.415074543079080e-01, 7.770450828530879e-01, 2.079328172175916e-01, 1.136267701619794e-01, 7.144689563943488e-01, 2.404797334030583e-01, 1.787344333931442e-01, 3.447311228805440e-01, 2.377679064718304e-01, 1.566152368619489e-01, 5.415289636938047e-01, 1.214440663217235e+00, 1.091810651651078e+00, 3.325700707036784e-01, 1.387246360076406e-01, 8.250100746748923e-01, 6.223599282816257e-01, 6.574498748805888e-01, 3.473377236764312e-01, 1.290264853626935e-01, 2.911661674693668e-01, 1.545604843965071e-01, 1.993678445821814e-01, 1.668722334568206e-01, 2.631930308962909e-01, 7.167740503440272e-01, 1.093146516342470e+00, 3.369178571828993e-01, 6.822049119173386e-01, 3.653264567619264e-01, 7.686041808649665e-01, 3.195715147120660e-01, 1.037465487918768e+00, 3.982481589096684e-01, 7.240068859854887e-01, 5.352473961660854e-01, 8.976484712632271e-01, 2.951241040342408e-01, 9.915920229072901e-01, 1.460809171093455e+00, 3.808805045890444e-01, 9.774183683219698e-01, 1.918180576286278e-02, 1.085713075847215e-01, 4.573677185097538e-01, 1.753202871889572e-01, 8.042572660124282e-01, 4.647883845142826e-01, 4.480910686733049e-01, 5.525115182324846e-01, 4.013817909438470e-01, 8.410505371585886e-01, 1.241052601532472e+00, 1.971224325580131e+00, 1.879330789653174e-01, 6.366373194126053e-01, 1.488260178573860e+00, 9.045318649480142e-01, 1.006611696876655e+00, -1.598158332518796e-02, -1.004372666717458e-02, 5.314478256197744e-01, 4.598096896741281e-01, 1.269373388533595e+00, 7.815616731513869e-02, 1.847386836504165e+00, 3.443692362563502e-01, 9.455237334656470e-01, 8.120586774744586e-01, 1.358407296762884e+00, 1.045606582157612e+00, 6.227310080488787e-01, 4.591073320662351e-01, 1.197564345898137e+00, 7.748027427579077e-01, 1.339926746848440e+00, 2.511393072574826e-01, -5.232627250896313e-02, 1.355652910138940e+00, 1.215131160364895e+00, 1.474018018388618e+00, 4.589317593688908e-01, 5.943226668642897e-01, 1.123367970954491e+00, 8.071845513676952e-01, 5.541956942967551e-01, 3.900732420967753e-01, 5.484496106635911e-01, 8.499355502593672e-01, 8.399514798750636e-01, 9.640785153519031e-01, 4.970763007979588e-01, 7.519978172502265e-01, 5.978096845992982e-01, 9.275160311804043e-01, 1.206237838125720e-01, 9.278069304147362e-01, 1.485594540856563e+00, 1.381379609454612e+00, 1.397125286556168e+00, 1.353000778153861e+00, 2.007999065703987e-01, 5.817279102683519e-01, 4.376970658266832e-01, 5.670985064483531e-01, 6.713380153368793e-01, 1.928871262978622e+00, 8.199544609015961e-01, 9.224800999499985e-01, 9.714359531761431e-01, 1.143183583381453e+00, 6.720594529783863e-01, 9.012477804652973e-01, 2.159992434923983e-01, 2.740919311924775e-01, 6.220234889986154e-02, 4.481281640983626e-01, 7.114618242464535e-02, 1.111603909359230e+00, 3.583772051086143e-01, 6.638282712498512e-01, 5.951199830890992e-01, 5.057746590119805e-01, 2.173121001277183e-01, 1.458684113287051e-01, 3.303822370882153e-01, 5.926738548058411e-01, 7.269885110342549e-01, 3.563743136610840e-01, 5.219542295625129e-01, 5.766211798257771e-01, 6.400468416224816e-01, 1.073193923290665e+00, 9.939691059038581e-01, 1.143559297612491e+00, 1.212020344175091e+00, 7.321961139810375e-01, 1.157814230094667e+00, 6.186278466705866e-01, 4.838089101717496e-01, 1.487429665795954e-01, 5.091514914634685e-01, 2.064019946871113e-01, 6.058294500767797e-01, 9.515201592190756e-01, 7.278879430213265e-01, 2.463913217212374e-01, 4.007507529208902e-01, 6.069467293572589e-01, 8.423897484614649e-01, 2.709100410335290e-01, 5.498605548573891e-01, 7.155902698516285e-01, 6.561608088055848e-01, 4.535504990988583e-01, 1.121181316450079e+00, 2.768549970325573e-01, 3.287997191828275e-01, 4.598065243348787e-01, 3.473053371002005e-01, 5.562267262064774e-01, 2.330125852356254e-01, 5.169292796446283e-01, 3.365529409637708e-01, 3.689774031396389e-01, 6.671091382212211e-01, 8.490991115750091e-01, 4.744803904346416e-01, 3.462311596949727e-01, 6.510327068165566e-01, 8.416468791295623e-01, 3.915506550882849e-01, 3.978507010631871e-01, 6.365200560717521e-01, 7.464612748920754e-01, 7.715014066658162e-01, 7.435074187880322e-01, 3.647664823911360e-01, 6.593192208449441e-01, 5.670785069302992e-01, 1.325179163980232e+00, 5.466592961127895e-01, 1.381760242412693e+00, 5.472704102829413e-01, 8.739230897844606e-01, 3.770328773756991e-01, 5.703889598644729e-01, 3.917084252916765e-01, 5.844088440170545e-01, 6.052836995294590e-01, 2.259182056353776e-01, 3.780227275605564e-01, 4.921385837008423e-01, 7.235754659564806e-01, 1.968639638267259e-01, 7.299812229210816e-01, 1.135404890252988e+00, 1.864926107397752e+00, 5.776632867729925e-01, 8.240117099947127e-01, 1.297652312631031e+00, 9.896835368527335e-01, 6.657896334506778e-01, 6.204825751051473e-01, 2.725434464167565e-01, 3.184393952910500e-01, 1.310853114201866e-01, 2.872745812134511e-01, 2.843554835398543e-01, 6.876369760544221e-01, 1.025891913988759e+00, 5.416141347311300e-01, 1.893448878295131e-01, 2.376290253128954e-01, 1.053400281303212e+00, 1.457937956262573e-01, 7.092407813388469e-01, 3.940320138075373e-01, 1.185533925932202e-01, 6.071545075714563e-01, 6.409025469674087e-01, 8.086374490900036e-01, 8.129881686250193e-01, 1.015146906257074e+00, 5.070315091324618e-01, 5.918512368645896e-01, 1.238434428434689e+00, 2.501667382717667e-01, 7.329644144497212e-01, 8.348118915650040e-01, 2.105112757541066e-01, 5.453537995587026e-01, 3.568800726696734e-01, 6.091604616735943e-01, 8.339539477877305e-01, 5.300308206961687e-01, 8.712679163026164e-01, 1.384866914267795e+00, 4.438797570975416e-01, 5.672598693216711e-01, 1.963832888290891e-01, 9.059702915292315e-01, 1.247373939532839e+00, 6.725512493168236e-02, 1.986549531414404e-01, 9.257334236442388e-01, 7.359693335957889e-01, 4.866643371615283e-01, 3.081920021762986e-01, 3.932554737972224e-01, 3.091470888226731e-01, 2.410793062748138e-01, 6.784647348450286e-01, 7.631930102638763e-01, 1.304415021987015e+00, 4.973911139537049e-01, 5.254108307257894e-01, 1.079306146351952e+00, 2.508584995548369e-01, 2.051664621432262e-01, 1.074687122005853e+00, 1.426036763778982e+00, 3.283951298760674e-01, 6.279816364966731e-02, 1.594919909091046e+00, 8.394901921208041e-01, 1.750743350569008e-01, 5.275556890354485e-01, 7.484385796435014e-01, 1.042648980972860e+00, 6.980859160639410e-01, 4.366378256237977e-01, 6.788628492245612e-01, 2.009668223166613e-01, 3.422528665811762e-01, 8.976772279871049e-01, 2.330212944244544e-01, 1.002366351266528e+00, 7.566779211181536e-01, 7.004767350480410e-01, 1.845934290839738e-01, 7.261650693429427e-01, 3.443840799628569e-01, 7.001912901801826e-01, 9.908117943001558e-01, 4.237853312250404e-01, 9.213956245219848e-01, 8.315347017935347e-01, 5.210060731846812e-01, 7.309199728834654e-01, 4.600240834499521e-01, 2.623182389442024e-01, 2.000202114570657e-01, 9.084889109359214e-01, 1.299279744073883e+00, 5.171461064787527e-01, 4.561993710200172e-01, 1.666686097009835e-01, 1.007584478748012e+00, 7.223758737590032e-03, 1.905263228524297e-01, 1.138689749556426e+00, 7.509420571120654e-01, 1.044218674726283e+00, 1.058848075296955e+00, 8.500540943221362e-01, 1.069964419764585e+00, 2.489852145895688e-01, 1.441013821327373e-01, 7.957072853282495e-01, 2.451801713148006e-01, 2.923903839859542e-01, 5.755608988527953e-01, 7.236061631919143e-01, 7.631464985185960e-01, 4.884561567283685e-01, 5.871603203629479e-01, 6.453005905509174e-01, 1.545786553170909e-01, 9.968768285052836e-01, 9.828353159593143e-01, 7.917657287074198e-01, 1.441190997501359e-01, 7.025837887138109e-01, 3.623438642766741e-01, 4.823545394397475e-01, 5.402863469988440e-01, 8.547638507076026e-01, 9.696908236324470e-02, 1.308979373988354e+00, 5.974948697920824e-01, 1.318000313843417e+00, 8.055528260569398e-01, 2.841292036776502e-01, 6.509428875066785e-01, 7.929734417595703e-01, 8.419132958070207e-01, 8.434595893230952e-01, 1.239477293318406e-01, 2.847918211836043e-01, 2.906654184502769e-01, 4.215537806509039e-01, 6.683864067590066e-01, 3.833675009998761e-01, 4.343790326475330e-01, 1.072784305431121e+00, 6.592209748385813e-01, 6.438587139193908e-01, 1.706724018278314e-01, 4.293475092637613e-01, 1.101303351169802e+00, 7.699724328067720e-01, 8.722806468299709e-01, 1.008247664435000e+00, 9.260261781117403e-01, 2.779169714553505e-01, 1.379563094222198e-01, 1.065473643781083e+00, 8.046465672255751e-01, 1.022969817612462e+00, 4.275067460549046e-01, 6.395882698306073e-01, 6.697232182922089e-02, 8.130648416383746e-01, 5.952027681036323e-01, 1.085682663961769e+00, 5.787406401828156e-01, 4.796010363784518e-01, 7.171453113124667e-01, 1.589278420919810e+00, 5.961202487188288e-01, 8.258464861699003e-01, 6.031528385303531e-01, 2.805380757412141e-01, 7.310009962437330e-01, 1.057271239713478e+00, 1.773707245484427e+00, 9.296802362302713e-01, 5.244786511130510e-01, 7.854592073166350e-01, 1.366819700082863e+00, 2.970370048618067e-01, 7.750503757452963e-01, 4.277848970834968e-01, 6.163680517068343e-01, 1.555978478087735e+00, 2.553851234524860e-01, 9.039267851073649e-01, 8.362506484966369e-01, 4.376970186995365e-01, 1.004623864800772e+00, 5.734372944952054e-01, 9.997630326950335e-02, 1.268817679777371e+00, 5.895329218344879e-01, 8.268894844198370e-01, 7.434952835854349e-01, 6.894813025377442e-01, 8.484656743636918e-01, 1.187471040817669e+00, 5.436169187601467e-01, 9.866566131743936e-01, 7.614200009311988e-01, 8.832145955593774e-01, 1.916304927603176e-01, 3.317716975569019e-01, 3.011943812119766e-01, 9.786476927391877e-01, 1.141464933286636e+00, 4.874662007137988e-01, 6.213456075351168e-01, 2.829984268603901e-01, 3.195192931518772e-01, 4.881770648463143e-01, 6.917834939677020e-01, 1.743682554162558e+00, 1.351781052350106e+00, 4.953388423163587e-01, 7.777202673776598e-01, 8.744226874118677e-01, 8.250000000000000e-01, 1.176051308386296e+00, 2.429691904550150e+00, 2.855187624075201e-01, 1.078488361558447e+00, 5.727365803920512e-01, 9.225533775083251e-01, 1.295938776227202e+00, 7.733938748550210e-01, 1.056778651412484e+00, 7.374808145293164e-01, 5.034804339457186e-01, 1.593218597242980e+00, 4.464798906133556e-01, 3.600976079671352e-01, 8.383926991854866e-01, -1.444123229495410e-01, 3.441322680283431e-01, 1.019547361180370e+00, 9.949067898373516e-01, 3.726016501743854e-01, 8.116125860618647e-01, 1.423867430425110e+00, 8.250000000000000e-01, 6.831530596678416e-01, 1.014884495510005e+00, 8.708413036216724e-02, 7.004865586527567e-01, 2.255115747367989e-01, 1.655795570037580e-01, 1.076519962043638e+00, 3.277168835240766e-01, 1.832095935018889e+00, 7.616875297211542e-01, 1.088953543501420e+00, 4.514805677746274e-01, 7.518488766431243e-01, 4.501089939985314e-01, 1.050165607923138e+00, 5.034463702520676e-01, 1.264754786779527e+00, 8.545928490305026e-01, 9.536964334546086e-01, 1.132122136736419e+00, 5.199476303070800e-01, 1.239620720454935e-01, 9.166625750039077e-01, 9.979316647164584e-01, 3.002450599498981e-01, 7.744412756452481e-01, 1.040756344409609e+00, 1.283251847574834e+00, 1.118750229830794e+00, 1.290113502146495e+00, 1.047508904859714e+00, 4.777752582918650e-01, 2.606765102935970e-01, 6.467306047909920e-01, 2.010935021634317e+00, 9.636572758349886e-01, 2.255567967581817e-01, 8.218285072173160e-01, 2.803296849581571e-01, 1.012022296663118e+00, 2.147724375222844e-02, 8.433541014894731e-02, 8.632330552959677e-02, 8.545095726218543e-01, 1.121413778197823e-01, 2.478804086557646e-01, 9.332636294389026e-01, 1.438044013913028e-01, 6.342699539392642e-01, 1.124571121667577e+00, 1.016578379326868e+00, 8.395965572295623e-01, 8.520044452670692e-01, 1.010224865948432e+00, 6.458741045917350e-01, 1.052346433865573e-01, 2.234351225772525e-01, 3.927993196166022e-01, 8.704278351907448e-01, 1.921631228194852e-01, 6.212888436499782e-01, 7.950587520655962e-02, 1.528667157778769e-01, 1.040452982169608e-01, 6.383180161964151e-01, 8.882212208890639e-01, 8.712368027891357e-01, 1.712468274493672e-01, 1.130382114507530e+00, 2.259866367919873e-01, 5.841581263780554e-01, 2.280852498276189e-01, 1.266128773220229e-01, 8.504480600969950e-01, 1.607630212778977e-01, 4.913722553402753e-01, 1.471277712427091e+00, 1.006668840441871e+00, 5.995730044722434e-01, 2.790784965850018e-01, 2.098006495715673e-01, 3.631888103434387e-01, 1.018109101993670e+00, 4.351634700188577e-01, 3.575433001015961e-01, 3.659900049698319e-01, -9.023104732765974e-02, 1.368285273732204e-01, 3.753792860313516e-02, 7.096318225858493e-01, 6.459152041398135e-01, 1.217968392058598e+00, 9.500466823332829e-01, 1.141654278381498e+00, 1.067419675906673e+00, 6.172164189303803e-01, 4.629928609434010e-01, 1.266506037934803e+00, 5.279297379180082e-01, 4.201604243842308e-01, 1.132838053488362e+00, 4.950655587591099e-01, 4.908808929327864e-01, 4.031000956945285e-01, 5.656239597250412e-01, 1.043479871341945e-01, 3.666741826160444e-02, 9.572643110626234e-01, 9.338451241327834e-01, 9.138430732525986e-01, 2.335913498988211e-01, 1.714884974463964e-01, 1.592159614801885e+00, 1.679798413127979e+00, 9.252438060748678e-01, 7.699701388349011e-01, 1.197498151392264e+00, 9.865782117364271e-01, 1.747157422738471e-01, 4.980845936740450e-01, 9.656109324686138e-01, 2.218876778310226e-01, 3.617137913844585e-02, 6.689610058276785e-01, 6.170479484779926e-01, 4.969987722797571e-01, 3.237317615683009e-02, 1.550345234603251e-01, 4.291398191972891e-02, 1.894064855572352e+00, 7.641669024266546e-01, 1.112521559149648e+00, 8.341003529980022e-01, 1.072756396060801e-01, 4.524303453909957e-01, 3.131511067262035e-01, 7.618766775545841e-01, 4.089868117170540e-01, 7.622149309771267e-01, 6.748330109526141e-01, 1.131375886345016e-01, 2.226362005912007e-01, 2.509231287018023e-01, 5.195588568205156e-01, 1.622606433153901e-01, 4.338788571596459e-01, 5.040135367166552e-01, 2.010568156380391e-01, 2.766278711231400e-01, 2.805219809384286e-01, 3.427880116100379e-01, 4.381878659805817e-01, 4.336818591287786e-01, 9.601901594440999e-01, 8.581119092019091e-01, -7.985061895203338e-02, 2.788297938046119e-01, 8.539845535413120e-01, 1.147338435824728e+00, 4.640718314705808e-01, 2.545895267344500e+00, 9.491089603806957e-01, 1.660840826643156e+00, 7.140739879647033e-01, 2.234400552711109e-01, 1.363973335616233e-01, 5.937078768112903e-01, -2.750359415146088e-01, 2.661142153922529e-01, 5.395656193396117e-01, 8.172942351881320e-01, -3.447308930643075e-02, 9.634720999237115e-01, 8.686017862819982e-01, 6.627123169682443e-01, 7.674212483422652e-01, 1.572257326595204e+00, 1.271574421430945e+00, 5.026171285388357e-01, 4.157846612972338e-01, 7.223227979705524e-02, 4.474716466731439e-01, 7.305152976730767e-01, 1.923590888482440e+00, 6.459523137027935e-01, 7.620601476903611e-01, 9.053023019776024e-01, 3.724907768310850e-01, 2.644006159157513e-01, 1.051846050205359e+00, 1.246472233312270e+00, 4.538291779066755e-01, 7.962651415200602e-01, 5.441312817611753e-01, 5.621702741293555e-01, 7.405767675396633e-01, 5.636284420564220e-01, -4.292279770443624e-01, 1.793014873378648e+00, 3.677758836128653e-01, 8.011281574485875e-01, 1.016906285107087e+00, 8.959772882450475e-01, 4.328971449903650e-01, 9.089986751560716e-01, 1.007820677677461e+00, 4.355975430408795e-01, 8.628143091527416e-01, 6.591542260048248e-01, 9.701562149003036e-01, 2.482137145279586e-01, 6.995917826857857e-01, 3.926165417664458e-01, 3.538616395138255e-01, 2.767937976249041e-01, 1.165924890087647e+00, 9.660925908081390e-01, 5.281504204236472e-01, 4.843613985179803e-01, 8.989853630618353e-01, 8.212372926499528e-01, 8.360578583193011e-01, 8.213364510818059e-01, 9.509126167101706e-01, 4.176205883872408e-01, 7.893389615509844e-01, 1.522088454221215e+00, 4.284914661186753e-01, 8.063643843200586e-01, 1.569454093054078e+00, 1.513046768707658e+00, 1.404670667956419e+00, 5.661408056591808e-01, 4.778295835422522e-01, 8.848531276318653e-01, 2.945780658971393e-01, 9.415803643190632e-01, 1.574644584489194e+00, 5.726623557779333e-01, 1.248672194441474e+00, 2.257283303427035e-01, 6.010795145475365e-01, 9.683910952218536e-01, 3.413103605000820e-01, 8.487586614260070e-01, 9.653630009299213e-01, 6.612681464584993e-01, 4.429422336779636e-01, 6.138311221975304e-01, 1.027629792144647e-01, 6.625800826215936e-01, 8.046236690027556e-01, 6.415885592428314e-01, 8.461215398986442e-01, 1.105385700738852e+00, 4.994206326037446e-01, 1.424276264381885e+00, 5.123808459830784e-01, 6.619060413451541e-01, 9.452030707619135e-01, 2.454397984412083e-01, 7.041752134179122e-02, 3.325624947767087e-01, 5.892876169486605e-01, 9.713063279939292e-01, 2.654798246530064e-01, 1.216750018141898e+00, 8.202693602206769e-01, 2.323523008717162e-01, 1.981929796563662e+00, 6.539965447177887e-01, 1.054599700280145e+00, 1.136171710657882e+00, 4.122261967546755e-01, 8.527227075420328e-01, 6.428929137435455e-01, 1.949631921157103e-01, 5.301860958806927e-01, 2.530485811128806e-01, 8.417278691105113e-01, 1.022338173507081e+00, 2.102713879152142e-01, 7.395504168277246e-01, 9.262750869522990e-01, 1.080197705622695e+00, 8.494797024207266e-01, 1.150829481273201e-01, 6.776672549203626e-01, 8.878917030061561e-01, 1.056185159774377e+00, 2.498720499840045e-01, 5.647505313759712e-01, 2.129639267792380e-01, 1.529107046956928e+00, 1.001561917592104e+00, 6.860738272583941e-01, 1.019117825390523e+00, 4.907022933133892e-01, 8.455725729070076e-01, 8.104216815484054e-01, 4.830449889507864e-01, 7.050924531913154e-01, 4.634877786376129e-01, 1.099627299704668e-01, 1.354082210466605e+00, -4.326993373186520e-02, 6.274903357703122e-01, 5.369707358150192e-01, 6.165443922340491e-01, 7.388297097892859e-01, 4.119953081180585e-01, 3.941762111806151e-01, 8.673825989061126e-01, 2.590360366110849e-01, 5.437181235901288e-01, 5.896588021474607e-01, 1.016572858035860e+00, 1.509109022716195e+00, 7.252299275022138e-01, 4.791884691958511e-01, 7.388024772602918e-01, 8.172084803453494e-01, 7.872967111168798e-01, 7.572020607629613e-01, 5.535462485515968e-01, 3.304785532146577e-01, 1.182900465772667e+00, 5.497996255706104e-01, 3.125929350402193e-01, 7.696864685170464e-01, 5.038127010573391e-01, 6.572970420872565e-01, 6.553973892872441e-01, 5.124248509455301e-01, 5.251489430000965e-01, 9.572624421942525e-01, 9.326869793230192e-01, 8.250000000000000e-01, 9.744343941283310e-01, 6.755434395110569e-01, 9.963162916771661e-01, 1.097914594928415e+00, 6.834649167900773e-01, 5.519158736981225e-01, 5.361246433496161e-01, 2.674712654992483e-01, -8.410697962907697e-02, 8.447623580703665e-01, 3.174019331556077e-01, 7.721708293270813e-01, 3.406472434411102e-01, 4.699410723544897e-01, 2.990378369276851e-01, 1.960925621730400e-01, 1.764640893164351e-01, 6.606480294674651e-01, 1.453312461534268e+00, 8.966697438484023e-01, 2.186385811480684e-01, 5.622906362554237e-01, 7.287729389770284e-01, 1.464870907661336e+00, 8.246270516563992e-01, 4.429564053477113e-01, 4.110783248632809e-01, 5.319878143298505e-01, 3.868549407566665e-01, 9.157051086921754e-01, 2.489379009915781e-01, 2.804446602301795e-01, 6.458522732703696e-01, 6.235318200650700e-01, 2.973572414351052e-01, 9.617580911246605e-01, 7.028148699499125e-01, 1.217685606899632e+00, 1.015687785941266e+00, 9.877684272068071e-01, 8.948557026163849e-01, 6.174541840339623e-01, 1.049513074583627e+00, 2.055994343945105e-01, 7.806494531855278e-01, 7.171147837876238e-01, 5.416161452216475e-01, 3.381537998162845e-01, 9.476261217343015e-01, 7.040407010279816e-01, 6.132063822367221e-01, 1.548603367059753e+00, 8.197663443598106e-01, 7.127534857727126e-01, 8.579530046324568e-01, 8.778044254769920e-01, 7.564630086400035e-01, 4.965588358063375e-01, 7.010523494101807e-01, 1.236552780974336e+00, 8.642542030143497e-01, 7.089522878442824e-01, 6.378871224633291e-01, 3.774343601061413e-01, 6.199798764789114e-01, 3.501553199463220e-01, 5.302454853850047e-01, 3.916507697079711e-01, 4.475474967274121e-01, 8.141744116601602e-01, 1.182042757084157e-01, 4.993314063576658e-01, 8.813739481798406e-01, 9.515103808723935e-01, 6.020924057434240e-01, 8.227275270801939e-01, 5.294809851537963e-01, 8.435568896939404e-01, 6.779435076740969e-01, 9.091654004098377e-01, 6.105807136787926e-01, 7.488330747546427e-01, 7.150841042504312e-01, 8.426350837787365e-01, 1.065699923744541e+00, 8.796455216275244e-01, 6.375339288422912e-01, 9.244264103824351e-01, 7.228587591294083e-01, 1.874061184519788e-01, 1.293272709424447e+00, 8.046806795835351e-01, 8.641656212040966e-01, 7.368975883856407e-01, 1.441804118620042e-01, 1.441647779297276e+00, 2.932050951272769e-01, 9.514837720867467e-02, 5.564121549263434e-01, 3.981849725943638e-01, 7.641684755252316e-01, 1.247553808701568e+00, 6.683715408513191e-01, 1.459683643762400e+00, 7.580990348080184e-01, 3.942878457868773e-01, 3.383785361124318e-01, 2.999603792046490e-01, 2.521404453925735e-01, 6.830101361257344e-02, 3.192310047798272e-01, 8.480163839987083e-02, 8.235019653944984e-01, 1.031237706806615e-01, 4.438200658069137e-01, 1.760900396662776e-01, 5.210660997863286e-01, 4.527220196300940e-01, 9.782656826684404e-02, 2.516089153425515e-01, 3.761820996669803e-01, 1.170719100457611e+00, 3.802398292218435e-01, 5.102316986685446e-01, 5.804296855111709e-01, 1.060991505637018e+00, 5.900559881772016e-01, 1.015429305881007e+00, 7.467528466320377e-01, 4.481356383429143e-01, 4.214923854868615e-01, 6.708343182387820e-01, 6.685957750093208e-01, 5.190936491842068e-01, 1.252301723935915e-01, 3.404918526033350e-01, 6.135017812313410e-01, 1.501146884110007e+00, 5.852003670111992e-01, 7.699397472398257e-01, 3.404377983147763e-01, 5.009510615997946e-01, 8.250000000000000e-01, 5.292215947479296e-01, 1.809338892945012e+00, 8.969976872381467e-01, 1.084821354174411e+00, 5.415672926199373e-01, 7.811973642864447e-01, 5.928576825024177e-01, 3.796956892996923e-01, 4.467051831063485e-01, 8.567343883168620e-01, 2.049833842147981e+00, 4.514803308424707e-01, 4.378025562859018e-01, 9.542413286289504e-01, 9.507146768972108e-01, 4.561598603178525e-01, 5.655364384579423e-01, 4.236095417401033e-01, 1.608026535112103e+00, 8.649794865558565e-01, 1.970069761734454e-01, 3.005481190830686e-01, 8.368606045700381e-01, 8.584252701119628e-01, 9.255329860004277e-01, 9.089268690487206e-01, 7.932626646875068e-01, 6.309144728088595e-01, 5.314832229382733e-01, 7.557625803632521e-01, 4.770673300370258e-01, 7.334175498834890e-01, 6.230256968457600e-02, 4.094727031807084e-01, 5.652934378435035e-01, 7.094460107132716e-01, 8.723684512199251e-01, 7.143318634179784e-01, 8.605415897301369e-01, 6.895656909208226e-01, 9.931557147867407e-01, 7.401602338329468e-01, 6.596049305145647e-01, 6.287967157870797e-01, 1.556888148677197e-01, 1.434157370694776e+00, 5.528030875916767e-01, 6.022506609888593e-01, 7.066747075998082e-01, 1.297382284912406e-01, 2.037091791416098e-01, 2.764339630674799e-01, 1.183528289146376e+00, 3.094527387170429e-01, 3.498421361877533e-01, 8.657344670947338e-01, 5.369685482593941e-01, 2.890234639175165e-01, 1.226647613854036e-01, 9.195839070464006e-01, 1.976962692736265e-01, 7.113703640586978e-01, 8.062877604341765e-01, 1.416961751841230e-01, 4.254098808738523e-01, 5.452853603140144e-01, 7.291777496309870e-01, 3.638103352330987e-01, 2.695477183914299e-01, 7.787048475177094e-01, 2.451496247784196e-01, 3.616621346935339e-01, 1.196726512302924e+00, 8.363383721568207e-01, 8.146442848101675e-01, 7.883069060841388e-01, 1.795592641971229e-01, 6.141067858130249e-01, 6.288281299077932e-01, 2.114336632605085e-01, 6.801707046222057e-01, 7.311206990049143e-01, 2.528587029075646e-01, 8.250000000000000e-01, 9.231329690130889e-01, 8.685115943894343e-01, 4.352187508914169e-01, 3.290958564109308e-01, 2.845484562554761e-01, 6.789024896499330e-01, 3.322342554757517e-01, 3.310685425490395e-01, 3.696550910187844e-01, 2.362865891738087e-01, 3.850818119633168e-01, 5.197364401879896e-01, 3.858059441638860e-01, 4.177191609251840e-01, 3.911223535694150e-01, 5.478904081874808e-01, 2.232733061727708e-01, 3.088791065646931e-01, 5.471484794690389e-01, 1.935556561594522e-01, 9.025166714859769e-01, 1.931467256685709e-01, 7.916652104582453e-01, 7.788938040039746e-01, 7.357276532562401e-01, 5.194892344415785e-01, 8.297870290882989e-01, 6.098918745428956e-01, 8.837044640270164e-01, 9.629649900613810e-01, 1.129069512863037e+00, 1.346528552925516e-01, 4.546193166216779e-01, 7.426332518851356e-01, 6.722111463137720e-01, 6.647321391986815e-01, 5.914074285903608e-01, 1.499087435448193e-01, 4.516632863686485e-01, 8.201076809675507e-02, 3.399883685664610e-01, 4.497092456644656e-01, 1.080604637570755e+00, 7.673955731674210e-01, 1.589171933628837e-01, 4.505765024676910e-01, 2.785899113006511e-01, 4.133562334024110e-01, 4.301349250925839e-01, 2.668363223066734e-01, 3.821887666159994e-01, 7.503888225134174e-01, 4.511167967676168e-01, 9.860926272307604e-01, 2.983843967747827e-01, 2.239344132095843e-01, 1.441612497376505e-01, 2.763183592840802e-01, 6.296385144556692e-01, 1.032052206554796e+00, 7.835116459346874e-01, 1.925249558442584e-01, 2.993084207394689e-01, 7.026767689704494e-01, 4.276761566851235e-01, 2.198204298156284e-01, 7.648658371119746e-01, 5.487352582743481e-01, 1.121343104465626e+00, 5.445760342942576e-01, 3.679584465358558e-01, 1.105330464629019e+00, 6.114862298150443e-01, 2.998935779600041e-01, 1.725004839353557e-01, 6.668492646486465e-01, 1.183410012293072e+00, 9.896055033475716e-01, 5.269776931749310e-01, 3.512839984943169e-01, 3.397713235073492e-01, 1.115916268167958e+00, 2.527181976965465e-01, 8.250000000000000e-01, 3.115202414754858e-01, 3.895314746333853e-01, 1.184452657570629e-01, 3.256082638161101e-01, 2.472871787675278e-01, 3.539622237848252e-01, 2.214269363872821e-01, 2.978989850202478e-01, 1.470375262064159e+00, 4.159937260457431e-01, 4.260094557169625e-01, 5.908888351046507e-01, 4.299261254579896e-01, 2.983915288706744e-01, 1.141215535988082e+00, 4.062432214974783e-01, 9.505516264904488e-01, 1.019546985385900e+00, 1.198416805744801e+00, 7.129170449577102e-01, 9.900631532588943e-01, 4.590833885262954e-01, 8.278842310047686e-01, 1.975000200865696e-01, 8.250000000000000e-01, 5.056741956849508e-01, 4.113372185410908e-01, 7.699477829964313e-01, 1.133808338199594e+00, 1.452402001201736e+00, -1.295343141532784e-02, -5.803647761163921e-02, 1.856865520273665e+00, 7.842114579347360e-01, 9.180632718736801e-01, 1.015239583855436e+00, 1.526823680076598e+00, 7.965404627374457e-01, 1.104123109184863e+00, 8.212616885633710e-01, 8.754301731074039e-01, 6.089716522107413e-01, 7.143235645694700e-01, 5.896494253686879e-01, 4.155512529997707e-01, 1.552866720219324e+00, 3.171099171657645e-01, 8.953753833112169e-01, 4.510517455625519e-01, 8.731732359066304e-01, 8.930937876187246e-01, 9.363408652061922e-01, 7.706334661099002e-01, 9.326548538447050e-01, 1.084423459030057e-01, 2.937973526960315e-01, 3.446323139256061e-01, 2.243745840831877e-01, 3.622240232411839e-01, 2.326120941029345e-01, 1.553205420940534e+00, 6.501064715742270e-01, 6.958844509541875e-01, 9.404670554369235e-01, 9.880654640356246e-01, 4.896822404296202e-01, 6.121003303929211e-01, 1.138143894749332e+00, 1.481442635596668e+00, 7.276122534591604e-01, 1.333479943124007e+00, 9.876607326629316e-02, 1.199039360458992e-01, 1.332976942143503e-01, 1.015226639914901e-01, 1.918182846363409e-01, 9.170572274816101e-01, 6.281369318125767e-01, 2.163670354580461e-01, 4.223263685527657e-01, 5.170274909033516e-01, 2.214432039579134e-01, 1.321814096480713e+00, 8.250000000000000e-01, 4.103539964199890e-01, 9.906795696946589e-01, 1.284939302893867e-01, 2.229279392692637e-01, 7.108336638943025e-01, 1.174038627496606e+00, 3.261846975071724e-01, 1.007422543149823e+00, 5.517846507341484e-01, 2.575477122484151e-01, 1.194734016511980e+00, 1.239174968209334e+00, 1.159612620655519e+00, 8.959370484793752e-01, 1.121008619727171e+00, 5.335248106935295e-01, 1.232800951315268e+00, 1.695822398195157e+00, 1.488564067308944e+00, 1.030780949893069e+00, 7.805453408535644e-01, 1.344075968777425e-01, 8.250000000000000e-01, 4.397572132172688e-01, 6.787938778258498e-01, 2.046299398024144e-01, 5.483540509094241e-01, 4.822095530459730e-01, 4.257203470289380e-01, 7.264219380651025e-01, 8.121051765544570e-01, 5.255044926132714e-01, 9.478037632686211e-02, 8.921893382323592e-01, 6.629772374054600e-01, 7.323169274679183e-01, 4.120443831384438e-01, 1.676404944996373e-01, 1.117533596866628e-01, 1.081426975736475e+00, 4.573564660073724e-01, 9.353710709118123e-01, 6.184440889405109e-01, 5.197452578158788e-01, 5.608915163052571e-01, 2.321026544435349e-01, 3.245846337286453e-01, 8.845284268925596e-01, 5.719087116648284e-01, 3.630098316453931e-01, 6.745071057930927e-01, 4.815725279508333e-01, 1.027663584929555e+00, 2.319398049995159e-01, 1.395929641445788e-01, 6.566094516742663e-01, 6.978429027127043e-01, 3.483267603846649e-01, 4.226569928166506e-01, 2.570494179848528e-01, 9.061401261591074e-01, 2.339483668532320e-01, 4.682709400766061e-01, 5.364528832495312e-01, 8.330882139621142e-01, 2.014927935575897e-01, 8.585348893944612e-01, 4.689388486775907e-01, 9.878374639571655e-01, 8.962721762506067e-01, 1.056310001715979e+00, 6.816879297642069e-01, 8.296000222117116e-01, 1.096838333022776e+00, 1.570785060966620e+00, 5.259313926902558e-01, 7.830642162796083e-01, 1.028034763709693e+00, 7.888824010017520e-01, 9.965235703039542e-01, 2.858584034603000e-01, 1.023767526309632e-01, 5.961859544731790e-01, 8.250000000000000e-01, 2.720928000506819e-01, 7.157894199493605e-01, 1.670617113748878e-01, 6.225525958430969e-01, 6.666688229604916e-01, 8.025438812869416e-02, 3.911803716981599e-01, 2.679394744178478e-01, 8.002105908127939e-01, 3.702869208992140e-01, 2.676870623728289e-01, 4.167906628068598e-01, 2.633692823964712e-01, 8.815640791681517e-01, 3.838399425624902e-01, 7.335663092862433e-01, 5.145652454769899e-01, 1.079959274928856e+00, 2.707794417614380e-01, 1.989727349604996e+00, 1.210828201197178e+00, 5.883099338363225e-01, 8.271328303970606e-01, 1.002622870236160e+00, 5.589907551910452e-01, 3.458282688305610e-01, 4.914524537965669e-01, 6.311907304046717e-01, 6.535979127659750e-01, 9.029031912661803e-01, 8.322509144175327e-01, 8.155303349715361e-02, 1.003606003109514e-01, 1.191277828690527e+00, 8.736030751890360e-01, 8.040749100455751e-01, 6.081988380027507e-01, 5.094093164656446e-01, 2.466397423714652e-01, 1.125912160424496e+00, 7.769024556585236e-02, 2.433896059269171e-01, 7.106152627183756e-01, 7.917313218420575e-01, 8.734738755398476e-01, 5.053324615447049e-01, 1.639181698588094e+00, 8.579566316246836e-01, 2.266645387453398e-01, 1.070577902337629e+00, 1.052875392783980e+00, 8.267552432582710e-01, 8.263791112213589e-01, 2.060690632209732e-01, 8.018669636273948e-02, 5.310908231496146e-01, 1.318974003773180e+00, 3.391521111330401e-01, 1.439679721080466e-01, 9.014792711896256e-01, 1.270330917316160e+00, 5.129729775643028e-01, 3.895373416873901e-01, 4.111349881643471e-01, 7.280815116536465e-01, 9.743420113561424e-01, 4.957676078608527e-01, 1.424635860339186e+00, 6.321466825964568e-01, 1.775489472047209e-01, 1.718951946985038e+00, 8.702244758444219e-01, 8.541431008543086e-01, 6.475791256319524e-01, 2.543452351282608e-01, 2.059669121782534e-01, -1.938838220284870e-03, 8.279776358280975e-01, 3.756655960067595e-01, 7.193880226627505e-01, 4.975013955185749e-01, 3.674403134525054e-01, 2.966541686518641e-01, 8.217259980295304e-01, 2.998187104682620e-01, 6.383803392560359e-01, 1.781273170111731e-01, 3.518750983264131e-01, 4.271528336400940e-01, 6.267873514396333e-01, 4.024628114362526e-01, 6.308325354143030e-01, 6.129228299431085e-01, 6.416628893270930e-01, 4.706089857764528e-01, 1.445750760689103e+00, 1.839710008993861e+00, 2.776427160189078e-01, 8.468308829304984e-01, 1.085696738725028e+00, 3.946874169373834e-01, 7.026492182520275e-01, 5.293213780559646e-01, 8.832551200732293e-01, 1.020378650907237e+00, 3.898074933411477e-01, 8.250000000000000e-01, 2.466185394325592e-01, 6.580779778255577e-01, 1.990344785509031e-01, 9.103370312771848e-01, 1.227740268934360e+00, 3.672466971836133e-01, 2.515956928001462e-01, 1.082043406725271e+00, 1.030354628408525e-01, 1.738963003096363e+00, 8.044358500678492e-01, 1.149774775946187e-01, 8.465392151961603e-01, 5.237288023470809e-01, 5.534831055316215e-01, 1.407358919512854e+00, 4.954308814902718e-01, 2.643154966601286e-01, 1.049977852340079e+00, 1.101960397959053e+00, 1.184521955483431e-01, 2.617098267112236e-01, 1.868432138032241e-01, 3.858554699346884e-01, 8.907087733864925e-02, 1.035807009668303e+00, 7.205821459434859e-01, 2.767852230707760e-01, 7.825004660616803e-01, 1.163977430503660e+00, 5.364145839102430e-01, 1.024807655335630e+00, 7.871449154644770e-01, 1.235214058645650e+00, -8.242455289760203e-02, 9.254357516712518e-01, 8.795701316031050e-01, 4.177505318438016e-01, 3.101192121673369e-01, 3.423561236157112e-01, 1.912274278999686e+00, 4.670541644616099e-01, 2.151783624915769e-01, 5.783958150073896e-01, 6.805523114777073e-01, 1.378433364132583e+00, 8.654579838308113e-02, 1.643728626468646e+00, 2.002219863294853e-01, 7.929374894874568e-01, 1.103551112785669e+00, 6.640399623929584e-01, 1.407135397754218e-01, 8.471192123065474e-01, 8.230227540959145e-01, 3.639102157517881e-01, 2.960650840601237e-01, 1.981336802345078e-01, 5.786238762271041e-02, 1.751486663905984e-01, 2.489193265935225e-01, 1.945589410809906e-01, 6.695045317390280e-01, 3.216758072589366e-01, 2.634094248874089e-01, 1.102957200110489e-01, 1.882110726249357e-01, 2.328802612438552e-01, 4.525275545320602e-01, 2.696661233566473e-01, 6.331785681365700e-01, 7.143184800651867e-02, 4.558357257408632e-01, 1.045196058903646e+00, 3.469963337442470e-01, 7.255446991590953e-01, 1.189580008364382e+00, 8.874069728464663e-01, 3.689530779736661e-01, 2.707927538708116e-01, 9.201354404696671e-01, 1.281158342281830e-01, 1.056823920076848e+00, 4.520071581949732e-01, 1.210906058367190e+00, 5.108323470699575e-01, 4.908523056089998e-01, 7.002463375245683e-01, 1.025451320974820e-01, 1.502854580657239e+00, 3.492580445961947e-01, 6.007374523652977e-01, 1.126624517688745e-01, -1.093615407628655e-02, 1.238347336130589e+00, 1.200206552629360e+00, 9.834247396503499e-01, 1.838738832798617e-01, 2.102413367626949e-01, 8.428851409363423e-01, 1.240274166540458e+00, 4.935866720951309e-01, 7.598390912852743e-01, -9.315762387071953e-02, 5.737371767925287e-01, 9.655708415459989e-01, 5.610095427139132e-01, 7.615384350356055e-01, 8.550055476889128e-01, 1.333807459008234e+00, 4.330252394577934e-01, 5.202622007963079e-01, 1.572028197373806e+00, 9.632446673549908e-01, 6.312360822147040e-01, 2.816897187638415e-01, 2.656259207442098e-01, 6.089061867853249e-01, 6.998585421104641e-01, 6.793033055537203e-01, 1.138450735532410e+00, 7.189163471809016e-01, 1.429038554563250e+00, 1.067035177406049e+00, 4.388544037441013e-01, 6.822745828855259e-01, 1.695397349328055e+00, 7.147198797363440e-01, 3.235623365263457e-01, 7.016128652527536e-01, 7.844438790320698e-01, 6.327526406169827e-01, 5.712653812347978e-01, 1.097920204960459e-01, 6.407175569477264e-01, 4.863572887691725e-01, 9.057438663805571e-01, 1.166535520444443e+00, 1.103810240583542e+00, 9.862728169191127e-01, 1.423960755324556e+00, 5.207967268396589e-01, 8.222848702679357e-02, 2.960838217211225e-01, 3.393335109100215e-01, 2.346655511094343e-01, 4.117328523612047e-01, 1.011383813270152e+00, 3.020242249719524e-01, 8.539815453414473e-02, 2.318554801891282e-01, 2.398069670096498e-01, 2.695560953520253e-01, 1.193248497684141e-01, 3.640209033326767e-01, 2.164831729115845e-01, 3.172451419958610e-01, 1.514377998981676e-01, 1.560282779486731e+00, 1.185403240872701e+00, 1.068421705604997e+00, 8.221100319947476e-01, 5.221183907330936e-01, 1.212254692536255e+00, 1.171776341566370e+00, 1.441464116340526e+00, 3.328471960401858e-01, 1.055641305899862e+00, 9.216494200421615e-01, 5.991906277026884e-01, 3.084381859927809e-01, 9.720816197516000e-01, 7.933527644059267e-01, 1.289097238041515e+00, 8.451669653940135e-01, 2.140340662775725e-01, 7.818524134321496e-01, 1.303998486285730e+00, 1.406477275511768e+00, 6.692124498022901e-01, 1.644781994063596e-01, 6.233735590477260e-01, 5.564641381713757e-01, 8.252294619699608e-01, 8.342299874749376e-01, 8.971598049861593e-01, 8.070616682523886e-01, 9.159595455245990e-01, 1.087432249089712e+00, 2.853967993354804e-01, 3.570987550676937e-01, 7.460360595079567e-01, 1.588040197701440e-01, 4.098466163097114e-01, 3.737231967249293e-01, 1.358559455674001e+00, 6.308733423059570e-01, 9.418015444389668e-01, 3.606719606138896e-01, 4.593719616926639e-01, 5.251552678179219e-01, 7.416951017587781e-01, 1.042210161680404e+00, 1.007959969977845e+00, 1.585724437402215e-01, 1.104466152405110e+00, 8.280843768943480e-01, 9.613522012181022e-01, 9.914216849215393e-01, 8.586882089215292e-01, 8.409666685252786e-01, 9.694903261315418e-01, 1.073443427096634e+00, 1.373438351823778e+00, 1.003240781368190e+00, 7.339736670695772e-01, 9.349164241222528e-01, 8.316853283467301e-01, 4.643726782299417e-01, 6.232160674971780e-01, 1.215400923017182e+00, 9.253474639615066e-02, 7.304282299706266e-01, 3.890272182155416e-01, 9.924281291829836e-01, 7.027286131856680e-01, 7.604639300438154e-01, 1.723380473687913e+00, 7.994938610034219e-01, 6.286759627762341e-01, 8.882868994197635e-01, 4.003098773311272e-01, 8.257145700552223e-01, 5.284448089898521e-01, 6.081571147753153e-01, 9.801822687954175e-01, 7.329299818186709e-01, 1.057751509031363e+00, 6.708590905929523e-01, 6.762890764733287e-01, 6.054261474819891e-01, 6.855428233553928e-01, 8.515029119907355e-01, 9.753067662258295e-01, 8.626050425589481e-01, 1.034330974279208e+00, 7.707385909458186e-01, 8.881508611656502e-01, 4.655444944398351e-01, 6.283559609479129e-01, 7.101144078006607e-01, 1.003778084017925e+00, 8.039222686100382e-01, 9.970449352879956e-01, 8.649853050554950e-01, 8.250000000000000e-01, 1.148436946893927e+00, 1.065695235737984e+00, 7.476372437386504e-01, 1.675311488689472e+00, 1.328495898355867e+00, 3.612295457065302e-01, 8.102675023974684e-01, 7.597383021317964e-01, 8.831119918165786e-01, 7.469991751823928e-01, 5.711622171657816e-01, 2.601889040601366e-01, 8.315404721800494e-02, 8.428319454152945e-01, 4.502907296271627e-01, 4.272508810663671e-01, 7.658327927099248e-01, 3.272404421921218e-01, 1.072099972859683e+00, 4.693223349647930e-01, 1.137454286789525e+00, 6.060811280504331e-01, 7.882258241566469e-01, 3.777950523046834e-01, 6.087730092235114e-01, 8.772618222263331e-01, 7.057003027620000e-01, 3.658860483843292e-01, 3.700559424592124e-01, 7.280531296584213e-01, 8.169317449972898e-01, 3.161968734295932e-01, 6.756562434499682e-01, 1.344528084565421e+00, 7.234784586666968e-01, 7.595755573575963e-01, 1.089869052187486e+00, 9.351195561032382e-01, 9.641106728411176e-01, 7.261320802953445e-01, 8.765336814003220e-01, 1.092284574380621e+00, 1.055129480523840e+00, 8.376889501954918e-01, 5.166065559314453e-01, 6.607471295675583e-01, 2.854430082494872e-01, 3.713044052506460e-01, 6.833546611115736e-01, 7.276324471991260e-01, 8.695347606322792e-01, 4.735929028755603e-01, 3.782168176413416e-01, 9.524182548452950e-01, 2.420600363871213e-01, 3.281264689827131e-01, 8.992131154350907e-01, 4.296204271200576e-01, 8.848857137687600e-01, 5.087722296560508e-01, 4.319962759032797e-01, 6.331179372364845e-01, 7.661162188772977e-01, 9.746428846610764e-01, 8.149970029759692e-01, 3.058133651688944e-01, 1.932321640827010e-01, 9.111280341013446e-01, 1.065344839120407e+00, 5.054937169237707e-01, 6.915365299162219e-01, 9.031545843374944e-01, 8.819908404395588e-01, 1.115132821400251e+00, 6.402355056797153e-01, 7.761578885949113e-01, 9.815887841591555e-01, 7.747592373042759e-01, 7.848476579635076e-01, 8.404045925026825e-01, 7.082040220695612e-01, 8.880428471392283e-01, 5.822777694049361e-01, 1.077246868379883e+00, 1.710501010295315e-01, 5.453731506029048e-01, 3.503650179150317e-01, 9.273297215423310e-01, 1.774032994166142e+00, 5.362321138519736e-01, 2.858629090178234e-01, 3.976229489217261e-01, 4.663708405336048e-01, 5.738438081335412e-01, 4.668019160452322e-01, 4.690383634224920e-02, 1.106878123539974e+00, 1.833638670628399e-01, 3.492120945086942e-01, 1.138860502324275e-01, 1.335756532905318e+00, 4.853388463665262e-01, 3.989739710303279e-01, 8.383686557663158e-01, 7.384270590204672e-01, 1.010187307782225e+00, 6.008437202283975e-01, 8.896109720802752e-01, 8.266133059458635e-01, 8.576781255173784e-01, 7.920989656246730e-01, 3.297494948257257e-01, 3.447049681333463e-01, 3.693646532887916e-01, 1.615417071375225e-01, 4.599835980236848e-01, 2.359880706708685e-01, 9.035596705690838e-01, 1.183927321579236e+00, 2.419712439377757e-01, 3.358692662250922e-01, 6.634052156948621e-01, 7.604434005367290e-01, 4.948843961364296e-01, 1.265199020335139e+00, 6.241972941540670e-01, 8.448467918567797e-01, 5.286081912847456e-01, 1.172924236548732e-01, 7.721230513102276e-02, 9.195289903178873e-01, 1.938840711083362e+00, 1.162761466840192e+00, 2.003140129596852e+00, 1.717779885882177e-01, 3.402279126204812e-01, 1.251155834532284e+00, 4.074791033605641e-01, 2.860882593291655e-01, 8.006666353438325e-01, 5.813468459885448e-01, 3.223821256167654e-01, 5.717905341583613e-01, 8.422805290610365e-01, 3.019015498261202e-01, 3.860583317311058e-01, 2.860973969252137e-01, 3.611386612453565e-01, 5.955709555086173e-01, 1.206455158775999e+00, 5.122929387121359e-01, 1.155915094144065e+00, 1.033549590691931e+00, 9.584457666610653e-01, 7.141664215863981e-01, 9.293234131319247e-01, 8.644358025833264e-01, 9.975456886441835e-01, 5.966622470677463e-01, 1.225380104558113e+00, 6.449120543283540e-01, 1.411765661128600e+00, 9.889980530386213e-01, 9.446419486971290e-01, 8.838573014199678e-01, 4.445892776404787e-01, 8.041401245543677e-01, 4.373885518230102e-01, 9.570649923118197e-01, 1.409971267069631e+00, 7.278839627449325e-01, 9.591741260706548e-01, 3.303128505833839e-01, 8.903062397841740e-01, 3.217941580378580e-01, 6.737490095468361e-01, 5.081483980257845e-01, 5.935678177784303e-01, 7.750482469889314e-01, 8.064011596754133e-01, 3.047756595978328e-02, 1.025529808143462e+00, 8.971580221895231e-01, 6.010011892925188e-01, 3.196595881499386e-01, 8.936289149768563e-01, 6.282141370302264e-01, 7.237200907521588e-01, 1.105895382832481e+00, 7.067699090334839e-02, 7.614860425280218e-01, 2.272376271508950e+00, 6.829297600231845e-01, 1.037159205044047e+00, 2.590634024746840e-01, 8.950310064842806e-01, 5.361296812844482e-01, 9.343630452177027e-01, 6.149107694485220e-01, 4.649077822155522e-01, 1.269282781618379e+00, 1.140293542756330e+00, 5.517493584550878e-01, 7.682733044280114e-01, 1.032106875340484e+00, 7.895225445005992e-01, 1.075546217627522e+00, 5.888570702027276e-01, 1.256262816636451e-01, 9.511022439770517e-01, 1.967785757921116e-01, 5.634199919217689e-01, 1.034599568000985e+00, 4.240728337429981e-01, 7.200626049306862e-01, 1.135434379201531e+00, 7.785034892609249e-01, 3.700034318664401e-01, 5.760216618704235e-01, 3.492564279712266e-01, 1.513579592874186e+00, 7.857528433942279e-01, 1.141161325917216e+00, 1.349558929418782e+00, 8.250000000000000e-01, 5.839165514357363e-01, 1.089498805767101e+00, 7.053540568242712e-01, 1.086929689482078e+00, 8.672894775930895e-01, 1.226348654754638e+00, 1.027260953214000e+00, 1.248744597321844e+00, 8.267646370970775e-01, 8.056515308788473e-01, 7.802798718974723e-01, 1.179768823771297e+00, 9.342473203128774e-01, 2.449509178411035e-01, 5.253327201706230e-01, 4.147933531822413e-02, 3.454074018216604e-01, 7.311041736069094e-01, 2.956140665433568e-01, 9.410159900102860e-01, 3.473808879659314e-01, 5.822133200704550e-01, 8.250000000000000e-01, 8.209361264901179e-01, 6.582503186897702e-01, 7.689868977612395e-01, 2.122237896765787e-01, 6.714379173324745e-01, 6.779443187381524e-01, 4.840239871975936e-01, 9.240685842537525e-01, 2.116277381158959e+00, 1.015476558188791e+00, 6.779095083501220e-01, 7.408215080320010e-01, 1.248401684404235e+00, 8.307836272655602e-01, 6.676051519374265e-01, 1.164245192476753e+00, 1.550937346960427e-01, 3.919653467364340e-01, 8.634149470160400e-01, 8.199917851003764e-01, 2.703925326616294e-01, 4.449963415738020e-01, 5.679678432982512e-01, -2.834494681660969e-02, 7.126555632610480e-01, 7.883143697805650e-01, 9.353206914591888e-01, 1.008927058842831e+00, 1.270529703742863e+00, 1.033694849703015e+00, 1.018747995558146e+00, 8.331878286738198e-01, 7.303924074548257e-01, 6.688418727320081e-01, 1.153814117878367e+00, 7.716232038207580e-01, 8.993762788477783e-01, 5.520807306089802e-01, 1.098461796390461e+00, 6.122012348887693e-01, 2.384304589082171e-01, 3.009345954128838e-01, 6.046341631669294e-01, 6.100550893263194e-01, 7.340606903593573e-01, 3.307129974097255e-01, 3.193180006430859e-01, 7.419343021289816e-01, 1.169161529667754e+00, 7.652910687026520e-01, 5.294710187561900e-01, 6.541962703883009e-01, 1.786333495105899e-01, 8.033205942712252e-01, 8.207989637524676e-01, 2.783152585207237e-01, 9.409077989040182e-01, 6.430810155751181e-01, 2.236232267138432e-01, 1.926340264644438e-01, 5.358719031251291e-01, 3.749564636995558e-01, 2.349137913484781e+00, 2.884256263986275e-01, 8.503806650525807e-01, 1.350714697521039e+00, 1.373539463679065e+00, 5.710391289883604e-01, 9.404794703019173e-01, 3.297848039677995e-01, 7.140882073794571e-01, 6.007187993255881e-01, 1.366011841204789e-01, 1.273147723306703e-01, 2.201749395572911e-01, 1.292785296550783e-01, 7.424156096399434e-01, 1.297645374325813e+00, 9.692205094591241e-01, 8.987723050362041e-01, 1.319985673679575e+00, 1.049434358990775e+00, 4.064631981194591e-01, 6.715532219755410e-01, 3.785243482496549e-01, 1.061920930635951e+00, 1.969616643053840e-01, 5.344825817653880e-01, 3.205244393407932e-01, 8.224350233012131e-01, 8.894874357356984e-01, 7.254530218681436e-01, 1.424284701972346e+00, 2.220934054692434e-01, 1.298187787273866e+00, 7.927975789147583e-01, 1.633452461035547e+00, 4.143074988580563e-01, 1.010635031229632e+00, 1.100257353089332e+00, 1.331852950731988e+00, 3.433186092476769e-01, 7.902185664154321e-01, 3.310478402785078e-01, 1.897803235522177e-01, 5.534553627322885e-01, 2.622278543223756e-02, 7.158720641818467e-01, 1.039178248229269e-01, 9.390930084775582e-01, 1.496006669902068e-01, 1.099553401064359e+00, 6.260787073017556e-01, 8.804721553157872e-01, 7.246521071281171e-01, 1.095470345959179e+00, 9.167252130996820e-01, 1.040041358648985e+00, 6.658786765726226e-01, 6.887924340621585e-01, 3.958808935321518e-01, 2.850813290730262e-02, 1.266502667400309e+00, -5.946322703264546e-02, 7.676681642145451e-02, 1.134015417193297e-01, 3.032222675166141e-01, 2.015536739974177e+00, -2.449537220221221e-02, 1.027589746663649e+00, 1.238046246101536e+00, 1.293814021202715e+00, 1.943168438914774e-01, 7.188741751565229e-01, 9.544137394766880e-01, 8.948657393084569e-01, 7.119731122899886e-01, 9.387631993774265e-02, 3.047761702125766e-01, 7.448474682820093e-01, 6.247060426285937e-01, 1.521155536545026e-01, 5.296841253626078e-01, 5.193507061410166e-01, -1.089723437717987e+00, 1.164161123201648e-02, 4.746193686940445e-01, 8.551392708122770e-01, 2.863042913267657e-01, 2.657289796139740e+00, -1.356608248898303e-01, -7.975976222797738e-02, -9.679082563102716e-02, 2.728699326290110e-01, 5.592396234612469e-01, 8.140883615428542e-01, -9.817921330996028e-02, 2.302824714192404e-02, 1.486550067347549e-01, 1.989042294662226e+00, 1.551333305252312e+00, 6.510051807188089e-01, 1.061844877530615e+00, 2.668749700125553e-01, 4.083470303381899e-01, 4.752337751998235e-01, 1.002242217907945e+00, 3.465219462527299e-01, 3.625452484350848e-01, 6.352340697837927e-01, -3.474214931904148e-02, 6.885348498161192e-01, 3.705573919989130e-01, 1.473884051571082e-01, 2.021592555988895e-01, 9.613591982257392e-01, 1.002489536349628e+00, 1.342209188742265e+00, 1.737415154976210e-01, 5.926028149040463e-01, 1.700676508539185e-01, 6.030194493754230e-01, 1.589692095755948e+00, 1.258972183608556e+00, 2.141405822926532e-01, 1.872938121274355e+00, 9.377589286069193e-01, 7.941130194583034e-01, 3.028068060317310e-01, 2.608871539823540e-01, 1.003332835615134e+00, 2.039489812550994e-01, 1.263364348219334e+00, 9.236290608461367e-01, 5.681518373092814e-01, 2.269109046488476e-01, 1.016590442618026e+00, 7.994173310688466e-01, 6.308884363935396e-01, 5.484474985948986e-01, 1.783939309962023e+00, 2.137864925568902e+00, 8.330999566446142e-01, 6.175693379416488e-01, 8.311349511954118e-01, 1.552438636526471e-01, 9.119046106846147e-01, 9.584197407672598e-01, 1.620037303683314e+00, 7.275114175873091e-01, 5.705429103483033e-01, 7.118214788979133e-01, 6.919544072263278e-01, 4.449952513062034e-01, 6.075163459641354e-01, 1.846021603384940e+00, 1.371635572883566e+00, 1.590490864624037e+00, 4.808889718219154e-01, 8.185767166813380e-01, 1.108018588498474e+00, 1.436187945651250e+00, 5.219009368123007e-01, 6.709537311755035e-01, 6.053259127053626e-01, 3.225974217605600e-01, 6.777259700524905e-01, 1.205280732281841e+00, 7.053722813072065e-01, 1.227481232641343e+00, 1.010701545482402e+00, 8.878065356479873e-01, 1.210519610819209e+00, 9.931187621173598e-01, 1.012594122744613e+00, 8.470884960664993e-01, 1.006555966938272e+00, 3.608921147417313e-01, 7.847750428193592e-01, 8.101343801512777e-01, 5.880515830635797e-01, 2.894300752168769e-01, 8.047348301764864e-01, 8.536216661696184e-01, 8.431835668428519e-01, 1.072852671875496e+00, 6.239003773711933e-01, 5.979665529180788e-01, 6.826950442201576e-01, 8.886197262079329e-01, 3.555723580909548e-01, 7.137656309799150e-01, 6.138445540052609e-01, 9.899437730647774e-01, 1.115857749145529e+00, 6.975236381407313e-01, 6.680854575021618e-01, 4.864027417384758e-01, 1.667518884835776e-01, 6.877331009222067e-01, 1.000710965799730e+00, 4.494511339630169e-01, 2.201253074122151e-01, 4.225322090990594e-01, 2.763977473316731e-01, 5.483401782005030e-01, 3.510486390989567e-01, 5.967913383692145e-01, 1.906723024361462e-01, 6.778629454320743e-01, 3.716894651497565e-01, 7.188648947302360e-02, 3.081534917914067e-01, 2.474689296329348e-01, 3.731316193554886e-01, 3.109785938949787e-01, 1.705069819069674e-01, 1.266580425016687e+00, 3.084111970012853e-01, 4.676524197356773e-01, 4.195249003925531e-01, 4.196139077583048e-01, 2.598401026677051e-01, 4.385698494055894e-01, 4.403456392400004e-01, 3.005428974543392e-01, 1.477387023654348e-01, 1.245228265676716e-01, 2.694999444942970e-01, 8.879598727259256e-01, 1.345875874410676e-01, 3.754407268171717e-01, 2.746178188521767e-01, 4.154830292503449e-01, 6.830159079034021e-01, 5.953281431028900e-01, 9.650810052694407e-01, 6.963883715449328e-01, 9.677982857755038e-01, 4.419992479736157e-01, 4.862148686795773e-01, 4.092992282199655e-01, 4.206248854259869e-01, 1.511411470249098e-01, 3.951159900905513e-01, 7.988577564390182e-01, 9.598026489129617e-01, 1.890552657335022e-01, 3.296370830978152e-01, 5.613544651541392e-01, 6.815740955626050e-01, 6.133414324193489e-01, 8.090801218542547e-01, 7.497938910704889e-01, 4.526750395750200e-01, 1.259017370301530e+00, 6.275168541481362e-01, 6.241645100240514e-01, 5.657440530684591e-01, 4.891346835972409e-01, 6.582931329220203e-01, 5.601261352329310e-01, 7.774620597566433e-01, 3.539137933624475e-01, 3.375630546021015e-01, 1.013614446963025e-01, 3.906774966488938e-01, 4.061685995528319e-01, 4.938100372350887e-01, 9.935035171063713e-01, 5.030071878655806e-01, 1.992939073009016e-01, 4.634518850359872e-01, 4.162879379291457e-01, 2.093064164821711e-01, 7.036625235386806e-01, 6.464004869165936e-01, 7.819711784403803e-01, 8.221799544735030e-01, 7.284078214656603e-01, 6.341908287260700e-01, 3.231933139348843e-01, 4.043182321219931e-01, 3.763108756201263e-01, 1.700505054568705e-01, 4.528364036899503e-01, 3.109376938400559e-01, 7.156643036151621e-01, 6.558577828092087e-01, 6.411495336889911e-01, 1.361424054868921e-01, 9.338136927174076e-01, 7.012033857026805e-01, 2.986931184549800e-01, 1.500407279507291e-01, 1.194670766306266e-01, 5.729381863788289e-01, 3.383817720632679e-01, 5.364714421669080e-01, 2.727418167454539e-01, 2.432869252306777e-01, 2.813291202526764e-01, 8.826345256767800e-01, 2.235512976594715e-01, 8.331446754110339e-01, 4.613907876636976e-01, 2.968470270181135e-01, 4.505429630877902e-01, 4.699920441819613e-01, 4.599335289046290e-01, 5.041459792837728e-01, 1.967490915851600e-01, 6.803263127337766e-01, 1.258104942612092e+00, 7.399657975490882e-01, 5.095729209285511e-01, 2.379999227749959e-01, 2.816027992469916e-01, 8.104425088766197e-01, 6.926330135863723e-01, 9.113279109412136e-01, 2.824194048875520e-01, 5.252951812149134e-01, 3.300393729515187e-01, 8.218052552616402e-01, 9.676729113039200e-01, 4.714707170685373e-01, 1.519526918787148e+00, 3.649900502619931e-01, 2.647491788294340e-01, 4.912573139788242e-01, 9.028826918533095e-01, 6.009753097694214e-01, 5.584047164464714e-01, 1.042070297796069e+00, 1.220809295802090e+00, 5.131606830630987e-01, 6.200976914697217e-01, 7.467367977543858e-01, 7.516924658472741e-01, 5.444614748804436e-01, 7.267945260174742e-01, 6.359939899404276e-01, 5.738482587624892e-01, 9.620533585051543e-01, 5.944542934691777e-01, 6.469578363732380e-01, 7.749729460695031e-01, 9.230941808028992e-01, 2.279185950324099e-01, 4.682257435180737e-01, 6.423328122858483e-01, 3.588365452536570e-01, 2.989865345778748e-01, 6.028109822868525e-01, 4.292821696950283e-01, 6.120616027333363e-01, 5.858771309040370e-01, 3.936046672263140e-01, 7.004919293136025e-01, 5.447624555476255e-01, 7.076115079222665e-01, 5.604932377019957e-01, 8.037620557050216e-01, 2.446628782917648e-01, 2.343643900513781e-01, 5.094069816769553e-01, 5.324003032762139e-01, 1.038176943064588e+00, 2.026551642240692e-01, 7.097405329031374e-01, 8.720582132055019e-01, 6.045675232463676e-01, 6.610668382489355e-01, 6.397372944672434e-01, 4.676485110036995e-01, 3.622611819902457e-01, 3.205779375431582e-01, 6.031563189458535e-01, 3.812791134630656e-01, 1.177534612290347e+00, 9.067402832489119e-01, 5.192935061033891e-01, 3.735997289629290e-01, 1.127096553794392e-01, 7.676021242540816e-01, 4.488482767929896e-01, 1.023318686235756e+00, 5.082674630734851e-01, 8.973975546914242e-02, 7.592496834938108e-01, 3.842436340849991e-01, 1.967301047003130e-01, 3.933557225656630e-01, 5.797657813916713e-01, 9.776572368175928e-01, 7.625697923930543e-01, 7.010508630735638e-01, 4.260923481468609e-01, 8.455781468504160e-01, 4.758691418361350e-01, 4.574850520012269e-01, 1.341083483105688e-01, 6.603837100495854e-01, 4.699363741902231e-01, 4.472584249014470e-01, 6.056320120092844e-01, 7.573311863020660e-01, 3.179590816328259e-01, 4.921154306201101e-01, 5.259174200243333e-01, 3.489861047911920e-01, 5.354486401018814e-01, 7.639665570807450e-01, 4.608531855745226e-01, 6.479168744039422e-01, 8.138686722640348e-01, 1.200177705470888e+00, 6.772316431312280e-01, 7.840995955953550e-01, 7.685764027965154e-01, 2.940921805865869e-01, 1.208537519876506e+00, 1.016465375774061e+00, 8.352619493521777e-01, 4.426580933735176e-01, 5.290893190200915e-01, 6.120223466118182e-01, 6.123628451832454e-01, 9.612194829833741e-01, 3.677845837909116e-01, 6.429265783878468e-01, 5.515282231831835e-01, 5.530421948730041e-01, 1.353580988798873e+00, 5.268822180141818e-01, 5.711720761674193e-01, 6.895543973451247e-01, 4.104111925165289e-01, 6.393549825379684e-01, 7.164110064864654e-01, 4.216007917645594e-01, 5.051079125949990e-01, 8.260399787487682e-01, 6.458892320201345e-01, 8.250000000000000e-01, 6.511401504702821e-01, 8.342415817258177e-01, 8.513302347214651e-01, 8.882527520876725e-01, 8.975250109475175e-01, 1.307955367661630e+00, 1.064422072221973e+00, 1.146275897518069e+00, 1.092649280513074e+00, 3.798105965367320e-01, 1.214547211105081e-01, 1.028978828385008e+00, 3.199739252775517e-01, 5.638473253046180e-01, 1.390293041353393e+00, 4.527902437421990e-01, 7.187328632706087e-01, 7.279063205113652e-01, 7.476876511900848e-01, 2.495175055605437e-01, 8.603837064716260e-01, 1.103826751414708e+00, 8.817863670644037e-01, 7.064503980128902e-01, 2.448916757608882e-01, 7.204650742813499e-01, 5.913596978727707e-01, 6.613855943852612e-02, 5.234995834756937e-01, 3.889095264484582e-01, 2.363861759604409e-01, 2.739067311385989e-01, 2.662791870254334e-01, 5.988292499483588e-01, 7.605334535708790e-01, 7.432341861135519e-01, 2.770840019930486e-01, 5.128817098539705e-01, 8.825364870121942e-01, 4.288500065453908e-01, 4.416477343207504e-01, 5.022502760476806e-01, 5.113272508234967e-01, 7.663907484188823e-01, 6.089853936522855e-01, 7.883422957573452e-01, 3.824390297626749e-01, 7.986534903419229e-01, 1.372974387134478e-01, 1.013062125952625e+00, 2.941449228559801e-01, 1.626522580990271e-01, 8.903751127291384e-01, 5.324738341037663e-01, 7.727806911327133e-01, 6.869723223869061e-01, 8.707411979916480e-01, 6.936643201298257e-01, 8.250000000000000e-01, 1.002448772591189e+00, 5.649530736256130e-01, 9.173718272693463e-01, 8.797838149902588e-01, 1.186928032943493e+00, 4.705306147333541e-01, 3.043049533727085e-01, 9.816311459798924e-01, 2.808025434040900e-01, 9.498965628742699e-01, 1.298148198185446e+00, 1.579080387738248e-01, 5.330626845659824e-01, 2.528588494067431e-01, 4.771785531786930e-01, 6.290121051799085e-01, 2.445651956381124e-01, 3.856294125361979e-01, 8.297137093168310e-01, 5.020238876086603e-01, 2.229700239925326e-01, 3.604425974868510e-01, 8.640723442430822e-01, 1.009781779344854e+00, 8.523543301879396e-01, 1.081546199038733e+00, 8.250000000000000e-01, 8.250000000000000e-01, 2.098540679521051e-01, 4.213908696978179e-01, 4.462372466101394e-01, 1.031319351666407e+00, 1.045744347513341e+00, 1.647368925202745e+00, 6.132571362808816e-01, 3.389999350844915e-01, 5.162872226411552e-01, 1.496706902417059e-01, 4.824341215574660e-01, 8.920134267108277e-01, 5.556719124618279e-01, 7.672612172690959e-01, 1.253641286399182e+00, 4.944334493497833e-01, 3.815053306502468e-01, 5.684552113990788e-01, 8.059757731255355e-01, 2.563922702337163e-01, 6.668509684050563e-01, 1.410441260769988e+00, 1.522806733401088e-01, 2.099322379669825e-01, 7.862547149352420e-02, 1.732427618671141e+00, 1.369002769275195e-01, 5.227442091802457e-01, 1.693961795723329e-01, 6.532832972229333e-01, 8.540142831214842e-01, 1.112523109345720e+00, 1.316168728221031e+00, 8.580298894627885e-01, 3.198957791063453e-01, 3.626078249226170e-02, 4.361134331230114e-01, 1.233900715299042e+00, 9.214180179303535e-01, 2.073242182256900e-01, 6.812932817149717e-01, 4.051006023235192e-01, 8.165271166167982e-01, 8.745743012991566e-01, 8.113745276184110e-01, 3.102646536687267e-01, 1.152046745087028e+00, 8.183865624609278e-01, 9.501008122165637e-01, 1.002190720445842e+00, 8.124242940055109e-01, 4.751384362185774e-01, 5.069049984895078e-01, 4.434607677897623e-01, 1.123912991434117e+00, 8.250000000000000e-01, 5.133733091141357e-01, 2.241128304841755e-01, 2.160802890968849e-01, 2.768177873722331e-01, 2.745068496132170e-01, 5.962338152993332e-01, 5.577524974500386e-01, 7.678221500411857e-01, 7.628510512463168e-01, 4.456996986408805e-01, 2.926739290641496e-01, 2.578058322493214e-01, 6.130336649178046e-01, 4.556686911723972e-01, 2.247549855148225e-01, 5.586647974721185e-01, 6.627411743782479e-01, 9.426459215614680e-01, 6.606593154895484e-01, 1.111744054014988e+00, 1.716995080083281e+00, 1.444943102293759e+00, 8.250000000000000e-01, 2.906417492131906e-01, 8.176900664741329e-01, 8.018643786086641e-01, 1.152752890751178e+00, 5.950505314378290e-01, 1.003106339373839e+00, 8.938202103120804e-01, 9.256071477239131e-01, 2.986943568816179e-01, 1.183420830936767e+00, 7.590804393018550e-01, 8.390421295345312e-01, 6.015480132487612e-01, 6.998388135545922e-01, 8.654127504639664e-01, 7.515861756123299e-01, 9.268963312831839e-01, 5.776776031876322e-01, 3.698961974709161e-01, 2.080904857243332e-01, 8.945316242232153e-01, 5.747223781610330e-01, 5.210986044332357e-01, 8.587409794335653e-01, 8.802556590656379e-01, 1.010531641928939e+00, 1.088203219776749e+00, 8.344137665555081e-01, 6.949411335606019e-01, 6.739931062903917e-01, 5.910798686300918e-01, 9.366223821310824e-01, 7.813594679978743e-01, 9.006377287261657e-01, 8.758213905037071e-01, 9.491484749710860e-01, 1.238445930002401e+00, 1.072148303135855e+00, 1.151124298175063e+00, 1.090388052933304e+00, 9.647955551939654e-01, 4.149698678269500e-01, 5.440158489637751e-01, 6.223409272181978e-01, 6.945688174607558e-01, 5.665425830038913e-01, 7.612685240725733e-01, 9.247382418653066e-01, 9.304518672470483e-01, 7.069087110244044e-01, 7.834160737648981e-01, 7.875457767522606e-01, 5.359838418996664e-01, 6.708883702916315e-01, 3.783525293249821e-01, 8.702160800797706e-01, 1.451252710104590e+00, 8.250000000000000e-01, 8.250000000000000e-01, 7.354924916095070e-01, 8.250000000000000e-01, 7.619780368708310e-01, 1.198317269082672e+00, 9.609015856195026e-01, 9.055542139655286e-01, 8.737694304646831e-01, 8.201629519570599e-01, 8.805877861658056e-01, 8.174421772389381e-01, 7.530534718340999e-01, 6.844362896268655e-01, 8.453792879080717e-02, 3.452743193729526e-01, 7.357055321808900e-01, 8.306271375740447e-01, 3.631846037449525e-01, 6.295553753664636e-01, 6.168502711539995e-01, 9.380265065472521e-01, 8.254701364545071e-01, 8.896623835843004e-01, 4.621337158529363e-01, 6.803924841600150e-01, 8.250000000000000e-01, 7.912521093794773e-01, 4.703898896039251e-01, 1.031856058859947e+00, 7.229962708945451e-01, 8.046820607078810e-01, 2.452517698925242e-01, 5.866954949249384e-01, 3.069009232263583e-01, 1.020339000146009e+00, 9.037344945842107e-01, 4.080543201034971e-01, 1.133118513896121e+00, 9.930059204145614e-01, 4.681217624172531e-01, 3.372600948206569e-01, 5.892507136324184e-01, 1.189332159479442e+00, 8.930345622959054e-01, 2.515194677844971e-01, 8.373951197952925e-01, 1.195519699762977e+00, 2.338627308250124e-01, 5.780171666475522e-01, 4.944422944706502e-01, 8.464239209828130e-01, 1.089959247158351e+00, 7.165415371139199e-01, 9.909365497729299e-01, 1.971739451721086e-01, 1.985260059494492e-01, 6.857036923731091e-01, 7.434753312430471e-01, 6.239098463236951e-01, 4.210694381695672e-01, 5.958515120087793e-01, 6.159990803263594e-01, 9.480157011838861e-01, 1.044668366551007e+00, 2.124926682408162e-01, 4.803485447569104e-01, 6.534772231217925e-01, 7.115637106903299e-01, 5.824771951171192e-01, 6.568099407439367e-01, 4.509939132546757e-01, 3.916872589466495e-01, 8.253847254466917e-01, 3.885070590584102e-01, 9.812759314726534e-01, 4.289931938426834e-01, 9.480273921545725e-01, 4.316901724112515e-01, 8.134988226103208e-01, 7.354793357007137e-01, 5.999078948262929e-01, 6.180929883077382e-01, 1.956890059507239e-01, 3.183396924679195e-01, 1.762143956472648e-01, 3.275156771766241e-01, 4.931379597112975e-01, 5.669790344557626e-01, 4.300387523655206e-01, 1.441193554756917e-01, 9.224912181077938e-01, 2.546223232107925e-01, 3.250871236291650e-01, 6.560064699325461e-01, 2.666164722372906e-01, 8.537048240534710e-01, 2.648310939589391e-01, 6.994677369284805e-01, 7.039862863874633e-01, 5.512098388139998e-01, 1.131696323012852e+00, 8.022141662470155e-01, 6.629818653040237e-01, 1.004261888735593e+00, 7.497075943392105e-01, 8.256898857456102e-01, 8.180465142368040e-01, 6.862363992455377e-01, 2.506237742130524e-01, 8.264301154432470e-01, 6.424509414231138e-01, 2.720472006052698e-01, 4.410789979776465e-01, 6.816187297966526e-01, 9.299015471331235e-01, 1.545760029971146e+00, 7.146674150452591e-01, 6.284149641264268e-01, 1.054951047053663e+00, 4.553976510429701e-01, 3.654519783676977e-01, 4.308303199391343e-01, 4.929174410114351e-01, 1.018195696342549e+00, 6.694893134317590e-01, 9.869535823289145e-01, 1.155322855916555e+00, 8.424717844025669e-01, 3.585240217194628e-01, 2.637105317315718e-01, 1.545284724027028e-01, 1.053004445346233e+00, 3.625718215028015e-01, 9.036348240189558e-01, 8.042486256276945e-01, 5.151265729850349e-01, 3.375235726807116e-01, 5.051357939415424e-01, 9.081979363790755e-01, 8.405927514379063e-01, 9.000594675640876e-01, 6.648577726758577e-01, 5.954424250443329e-01, 1.161875153178195e+00, 9.868040885141630e-01, 9.243388459292265e-01, 6.582873041083667e-01, 7.831717004709036e-01, 1.338867323736921e-01, 2.630776197758370e-01, 8.122699991929435e-01, 9.684086319254475e-01, 9.887736226875073e-01, 4.133289119845570e-01, 1.308900575055084e+00, 5.554930751562429e-01, 9.454823752960593e-01, 4.725636799025032e-01, 6.095053724318895e-01, 4.515493632166826e-01, 7.597332100441088e-01, 1.362442875897872e+00, 9.797614425231207e-01, 4.977370781527256e-01, 8.962065314096068e-01, 1.473536802382468e+00, 3.179020361239950e-01, 3.281705814395807e-01, 5.279996594497431e-01, 3.655969266529514e-01, 3.772276491396091e-01, 4.129414568896204e-01, 9.778366478224151e-01, 1.350221453547932e+00, 4.799631805051813e-01, 5.215048856487170e-01, 5.581627489130527e-01, 3.935896177185452e-01, 3.398048001157500e-01, 3.609761421020254e-01, 4.925221137236573e-01, 8.294587528689484e-01, 2.604487740733951e-01, 5.778429872294254e-01, 9.831575956850769e-01, 3.474292252130039e-01, 1.507591278394503e-01, 1.706626270079162e-01, 8.667851235581002e-01, 5.018708032710032e-01, 1.951822664097834e-01, 3.250715106041461e-01, 1.336075430136043e+00, 5.492293299423571e-01, 3.835104471423101e-01, 2.744145903991554e-01, 4.189376186118423e-01, 3.192823093182086e-01, 1.409083557190268e+00, 1.077518202928050e+00, 2.007786709765710e-01, 5.235975113945478e-01, 4.987083424823197e-01, 2.084785015456175e-01, 2.486384494484390e-01, 1.058752448579572e+00, 4.512489078152350e-01, 3.809158933172154e-01, 3.570330072811275e-01, 9.002594923846026e-01, 8.057689977803562e-01, 5.953993840678344e-01, 8.248047446533329e-01, 1.064238897633282e+00, 5.263647349667282e-01, 1.083076781701016e+00, 9.267543987865576e-01, 8.264900445813126e-01, 8.284433434822840e-01, 5.474798137940655e-01, 2.314167317912711e-01, 1.276656532309693e+00, 8.969150520492896e-01, 5.793016467697241e-01, 3.693359407620018e-01, 6.079938261028123e-01, 6.603927661868051e-01, 3.764841241584550e-01, 6.849129040460240e-01, 9.501922252944195e-01, 7.307542712644235e-01, 1.561735230200420e+00, 5.154461041150831e-01, 1.112220771075801e+00, 8.667584569591911e-01, 5.929827342079055e-01, 7.116399997543741e-01, 5.367098082555515e-01, 8.559290227775903e-01, 1.713255613805063e-01, 6.074307879885931e-01, 6.256467194606633e-01, 5.444208187845659e-01, 7.144142686159433e-01, 7.518444473543200e-01, 5.187726644453511e-01, 4.333983704099602e-01, 1.154157027115940e+00, 6.189890464064505e-01, 1.298370718992433e+00, 3.710894832429600e-01, 4.496128601905180e-01, 4.478966417433474e-01, 2.179671947307845e-01, 5.145875471897121e-01, 6.065288990987012e-01, 1.151465265310570e-01, 3.040917501439404e-01, 5.809292912710232e-01, 3.937292557516796e-01, 4.630849134162228e-01, 7.370886449899198e-01, 4.601695532582242e-01, 4.416661578202281e-01, 2.975358530171552e-01, 1.452107004323454e+00, 5.115928269384432e-01, 1.111985326013878e+00, 6.917545502780083e-01, 7.135088627021566e-01, 5.361961344471786e-01, 8.324026142577147e-01, 8.318502660833970e-01, 6.653069122350022e-01, 6.125809776183485e-01, 6.177077348555914e-01, 6.938714311521230e-01, 6.168381094682694e-01, 3.923616799486219e-01, 1.323949198589014e+00, 6.838691408089714e-01, 7.034375892207445e-01, 1.526386334807763e+00, 6.978760894192315e-02, 2.974581842080040e-01, 9.895689483843969e-01, 1.545184781461487e+00, 1.030593269576752e+00, 3.622923675732083e-01, 2.609876009678135e-01, 4.635874177934795e-01, 4.069057124266757e-01, 2.450711390139752e-01, 2.782666819295832e-01, 3.977301068985909e-01, 9.137010344565278e-01, 7.770653574813776e-01, 4.887474774424576e-01, 7.630183378095660e-01, 1.810815325351470e-01, 5.685140870301971e-01, 1.569096480811566e-01, 8.919401257255768e-01, 1.039006917406138e+00, 4.548197771989904e-01, 9.246963731976204e-01, 2.025416758150193e+00, -2.929116265651371e-01, 8.863186367370729e-01, 6.594492555582925e-01, 2.296600014281288e-01, 3.582847927148753e-01, 4.033011723453419e-01, 6.759084347560849e-01, 3.793539678093574e-01, 2.740258889394096e-01, 2.489955343093986e-01, 1.537785192091055e+00, 5.117394938228584e-01, 4.681115813192255e-01, 4.923888093423454e-01, 7.528357912917749e-01, 7.093573045166852e-01, 8.978277266843254e-01, 1.567151738755447e-01, 2.806095715777666e-01, 7.807635702357987e-01, 6.269915548596968e-01, 3.046939964525072e-01, 1.169973012952870e-01, 3.665768781012813e-01, 7.648034275281868e-01, 6.940480431361594e-01, 1.145837492468753e+00, 7.038448032810041e-01, 1.553245928303033e-01, 4.156576455821346e-01, 3.382980690403679e-01, 4.244746376661180e-01, 5.312140409204753e-01, 8.296244563475290e-02, -7.976422575403274e-03, 3.972127476685467e-01, 7.562342960358852e-01, 7.259944496411581e-01, 8.300577030145049e-01, 5.395959118664871e-01, 4.229597751994402e-01, 3.980417681484587e-01, 1.786585006289957e-01, 1.014809003248372e+00, 9.137673717377833e-01, 1.049775272514144e+00, 9.552880907656296e-01, 1.122456940851966e+00, 4.736866380604491e-01, 1.816573341521760e-01, 7.055516398477415e-01, 2.849404902901855e-01, 1.690625817054187e-01, 7.891447980993112e-01, 1.773478035520095e-01, 1.088618939671438e+00, 7.970329270067563e-01, 1.107624664956716e+00, 9.189318024204288e-01, 8.549080469572224e-01, 1.216286266479684e+00, 7.923281669799053e-01, 1.869815522170139e-01, 1.521600250506643e+00, -2.366150400833258e-01, 1.597896083677333e+00, 7.734740675758056e-01, 6.553639404175315e-01, 1.054997786388176e+00, 6.144794563994981e-01, 9.819528722643160e-01, 7.706234839340258e-01, 7.231724322335947e-01, 9.679497692406747e-02, -5.305322179867273e-02, 5.891239015401409e-01, 9.825179195072034e-01, 1.203222817937263e+00, 6.542050494330279e-01, 1.034784038422556e+00, 1.325146037931932e+00, 2.471334567413511e-01, 8.630230030445077e-01, 3.815743252718322e-01, 7.857255407951961e-01, 4.777115790565443e-01, 6.032073350219951e-01, 1.033118584033107e+00, 1.056405080740519e+00, 2.813889283559070e-01, 7.009774703498853e-01, 3.872875306708918e-01, 1.626642056413549e-01, 9.338751375050544e-01, 3.164801565829709e-01, 4.617693013519416e-01, 1.024954871715799e+00, 1.277497267092402e+00, 6.285328434373801e-01, 5.062917784534593e-01, 9.296460746082802e-01, 3.679253513549936e-01, 7.420645165140343e-01, 2.414130777320726e-01, 8.505079024406853e-01, 5.639078967510215e-01, 2.506651290876702e-01, 5.138733797267742e-01, 4.417632765353097e-01, 1.005404676149707e+00, 5.653222660458467e-01, 4.116806960205868e-01, 3.716989217749999e-01, 8.540288977533557e-01, 7.614127503496027e-01, 5.894107517963604e-01, 4.548789676149890e-01, 1.302585395477789e+00, 1.169397789539045e+00, 5.075574393032236e-01, 6.564205345299041e-01, 4.447718374177382e-01, 1.030871826340228e+00, 6.736688655590605e-01, 9.398205449952625e-01, 5.791145167700148e-01, 1.089878352381109e+00, 7.450691794535168e-01, 5.768744063457959e-01, 9.898107639989157e-01, 1.137229514218448e+00, 7.109721862369314e-01, 1.042116523996634e+00, 5.792260498622722e-01, 6.929298054684689e-01, 7.041566903943314e-01, 2.416061576957594e-01, 3.872162726710621e-01, 4.785569650943590e-01, 1.009588048843717e+00, 8.151301061401217e-01, 9.291645881982816e-01, 5.642910779760590e-01, 1.104462712947187e+00, 7.932705354548970e-01, 6.676970505695804e-01, 1.124640196819127e+00, 1.402490752804407e+00, 1.675670816804741e+00, 4.878661655973285e-01, 3.879138135116968e-01, 9.253770099219231e-01, 9.902144092400430e-01, 5.311269715286127e-01, 3.903781833035121e-01, 5.823241462641007e-01, 2.227558129239112e-01, 2.411153542982487e-01, 1.647248351911446e+00, 4.789948127791568e-01, 3.884918757040960e-01, 7.694576625977863e-01, 8.871690440606724e-01, 4.383435091820184e-01, 9.254482661702803e-01, 5.464389435348805e-01, 7.103966485586978e-01, 8.196013192762956e-01, 4.508569028271768e-01, 7.608731151888605e-01, 4.057955426965568e-01, 6.499191990833657e-01, 8.014833224847536e-01, 1.353726834159834e+00, 3.777039993892199e-01, 6.365778293766433e-01, 5.719573146075350e-01, 2.262614882128529e-01, 5.793581904208444e-01, 1.058398777939474e+00, 8.452897145474960e-01, 8.977853362789785e-01, 4.147602332000245e-01, 9.745258754488683e-01, 1.015481000034621e+00, 5.954419703307391e-01, 8.520319483863384e-01, 3.052475128063722e-01, 2.490036377719134e-01, 7.945857045654975e-01, 9.619934889073611e-01, 3.324405321420299e-01, 8.998270220166295e-01, 9.898088532341085e-01, 9.042860103125021e-01, 4.953679818646425e-01, 4.505656629221228e-01, 5.836968836618222e-01, 6.709246733331974e-01, 8.844058555415074e-01, 3.910257626962263e-01, 5.459917737107503e-01, 3.233918745765089e-01, 7.599311931981007e-01, 6.625034512938326e-01, 4.242486614062368e-01, 7.098770242585987e-01, 7.535674530374658e-01, 6.556489437957035e-01, 5.183638120753945e-01, 9.767433501003466e-01, 1.107831626236943e+00, 5.246663630632334e-01, 2.141681532123171e-01, 5.064001752494166e-01, 1.113473193000710e+00, 5.783627747718106e-01, 3.208647695935383e-01, 5.849856043063847e-01, 5.840950260941056e-01, 4.546716031009387e-01, 8.074705894101833e-01, 6.204292510888715e-01, 6.711416103801815e-01, 9.919016832383474e-01, 7.940977492677861e-01, 5.092581069823708e-01, 1.259416746748403e+00, 1.197820718723649e+00, 1.235334003031825e+00, 1.770841426790905e-01, 1.463907350801234e+00, 1.753176782970388e+00, 9.484799363643945e-01, 2.218701308606320e-01, 9.930308696974620e-02, 1.348195321286711e+00, 8.427404797273830e-02, 5.567687371238401e-01, 2.595344230623179e-01, 1.031194042486306e+00, 3.102591262321950e-01, 2.641129297483203e-01, 6.989950013563764e-01, 3.500067244126369e-01, 5.196863749187081e-01, 7.642621357409902e-01, 1.107804314497997e+00, 7.811208947559344e-01, 7.016673958718725e-01, 1.322915369094616e+00, 8.418021389370564e-01, 5.491708427869459e-01, 1.061115340443444e+00, 5.921155206366481e-01, 1.192408454353491e+00, 7.181161240089466e-01, 2.989973548084622e-01, 2.116888842776206e-01, 1.756856479652960e-01, 1.449695489999671e-01, 8.267167456153087e-01, 6.592576414209077e-01, 1.594270373547541e+00, 8.189084291666325e-01, 6.267918189299740e-01, 5.835847682652513e-01, 3.833195444329277e-01, 2.280508916136606e-01, 3.954043994471885e-01, 8.276641896917729e-01, 8.816620703104683e-01, 4.078334014685089e-01, 5.555140572414690e-01, 5.837875805033350e-01, 7.159651622959623e-01, 1.001049692590573e+00, 5.140333245392700e-01, 6.871001598338542e-01, 1.211471494868586e+00, 6.086143148989014e-01, 1.182965352764152e+00, 1.273050960425441e+00, 8.457149989097444e-01, 3.660228062779419e-01, 4.809869941273435e-01, 9.462629428847451e-01, 1.108196523445281e+00, 1.067269585789254e+00, 1.173637508422412e+00, 1.885738514711658e-01, 1.211821395450695e+00, 7.389882763716424e-01, 1.090180111329591e+00, 1.106418284016720e+00, 1.304086372232562e+00, 1.015162027074333e+00, 3.992824064660874e-01, 1.896894029373601e-01, 6.137860387662551e-01, 6.632068595772675e-01, 6.188394054691996e-01, 6.486165387201716e-01, 9.447242349791951e-01, 1.123985575433919e+00, 8.569857162276504e-01, 8.743669578237918e-01, 7.119934350779454e-01, 8.695405070568031e-01, 4.159189955573747e-01, 7.661237601486397e-01, 5.594275928965189e-01, 1.190291940241736e+00, 1.082606400691366e+00, 6.359849354208240e-01, 4.992581234445719e-01, 2.661041600817312e+00, 1.144919709849821e+00, 7.209000272734223e-01, 4.107580504928071e-01, 1.498219224732896e+00, 1.380648590289325e+00, 3.469712136968254e-01, 8.966344679984480e-01, 1.002584925327004e+00, 8.515507787780728e-01, 3.230999427751215e-01, 1.548116858510051e+00, 7.970772272569836e-01, 1.008893446714448e+00, 5.141291057005422e-01, 9.603101059350936e-01, 9.575700916592070e-01, 1.322911332947888e+00, 1.197408506798683e+00, 2.004983545167999e+00, 6.855390531912859e-01, 1.020889706696494e+00, 8.533867189225334e-01, 6.542052202475566e-01, 1.532928368648712e+00, 8.039872967884628e-01, 2.284217076884857e-01, 7.987078895613283e-01, 1.382457511266209e+00, 4.442456334554462e-01, 2.318541157872507e-01, 1.183115585262275e+00, 1.386609573809269e+00, 9.988213920897738e-01, 1.142378147452847e+00, 1.029886223513032e+00, 6.836169321801943e-01, 1.348957913358667e+00, 8.307255217686728e-01, 6.699379330461506e-01, 7.016369821617839e-01, 1.371752269831838e+00, 5.151209685589508e-01, 8.274490496590256e-02, 2.255792910823722e-01, 1.056754202525203e+00, 5.470091381759166e-01, 7.066105271874400e-01, 5.294789624666568e-01, 7.527307672310848e-01, 6.632104907984747e-01, 8.297828387430674e-01, 4.071447445239977e-01, 1.641804197517882e+00, 4.059191274780369e-01, 1.056772636903872e+00, 8.933359632424042e-01, 1.774126257530269e+00, 2.187347231546025e+00, 7.375509900493472e-01, 7.381888225390073e-01, 8.990801283523029e-01, 1.280632154193120e+00, 1.538530770472340e+00, 6.148966999475564e-01, 1.498566040331545e+00, 1.393507427094737e+00, 2.172523888827351e-01, 6.718696680635953e-01, 4.325581300865647e-01, 3.299664915591435e-01, 7.502652030928605e-01, 1.151002753735809e+00, 1.021223471666594e+00, 8.341047803299066e-01, 2.999599402587435e-01, 7.957372445878546e-01, 1.163543619780064e+00, 4.642818506042964e-01, 8.785089750620029e-01, 5.731091723146968e-01, 5.224850968413463e-01, -1.806345355333189e-02, 7.175027764725371e-01, 1.092011463504763e+00, 1.138673108596352e+00, 6.710263293564620e-01, 6.534721009720257e-01, 7.173640225588341e-01, 1.769600290418651e-01, 1.280451553529344e+00, 1.190280421225200e+00, 1.572020769966142e+00, 8.349043139776332e-01, 1.224039914580830e+00, 6.842324555470194e-01, 4.618898653240511e-01, 5.426212136709939e-01, 9.606981122531659e-01, 2.944142032206139e-01, 9.136300329446357e-01, 8.990104001299785e-01, 8.022264286518507e-01, 9.667682684921700e-01, 1.003802815005581e+00, 8.169584125200381e-01, 5.521096304619457e-01, 1.377828888181446e+00, 1.352531812192165e+00, 1.628929361606662e+00, 1.071308571320100e+00, 8.111061792405080e-01, 1.160751426462463e+00, 8.155005227191953e-01, 7.319109372224614e-01, 4.425619512183350e-01, 7.327011508214716e-01, 4.159599923887835e-01, 9.092315312426815e-01, 8.173347006163433e-01, 9.588184899527323e-01, 1.063132093117008e+00, 7.466705308738896e-01, 1.207711326542947e+00, 8.214113015319781e-01, 7.003961109799676e-01, 4.919040848915705e-01, 7.633684491405938e-01, 2.034658211777625e+00, 1.124322870492242e+00, 8.443944165398041e-01, 1.226714337208824e+00, 1.125926391245691e+00, 8.413736634717790e-01, 9.391573146839755e-01, 7.774372603843464e-01, 1.070382113638505e+00, 2.300194887629543e-01, 9.581571051881591e-01, 9.037698257567484e-01, 6.727009483438038e-01, 8.378062401806640e-01, 8.304213654271327e-01, 4.289050848010444e-01, 9.773916517067253e-01, 7.449026550198795e-01, 1.354995007701330e+00, 1.018606209953174e+00, 8.319375567332935e-01, 1.591306693532308e+00, 1.133990062457970e+00, 5.622423934289908e-01, 4.515834253304723e-01, 6.970778900498685e-01, 7.437113073360727e-01, 1.484531692794890e+00, 1.124664391049464e+00, 1.067115185299147e+00, 5.211780949534763e-01, 9.667428829917952e-01, 8.706795100680009e-01, 3.957776103235178e-01, 8.237347675755157e-01, 1.753349828355006e-01, 3.685371969364788e-01, 9.979018505340537e-01, 7.393286017724864e-01, -1.855516872376806e-01, 2.418941453289218e-01, 4.640904572330807e-01, 1.156705161246778e+00, 5.943017725602106e-01, 1.346436132972894e-01, 1.066746749301327e-01, 1.832606432513051e+00, 1.656021177147708e+00, 1.314734850283975e+00, 7.461024000054560e-01, 8.006547821909095e-01, 4.394409080552217e-01, 5.745133751654969e-01, -1.409199822260466e-01, 1.278536487086704e+00, 1.332194398193240e+00, 1.319486644043020e+00, 1.083381256947121e-01, 1.457043280655248e+00, 5.940008795533782e-01, 2.886054254050107e+00, 1.554904963519834e+00, 1.315316176926116e-01, -8.917173952768658e-03, 2.663480818053348e-01, 8.097093502232706e-01, 7.409709824764029e-01, 9.488400450967218e-01, 5.549353246062138e-01, 4.743235959447912e-01, -1.379239180011239e-01, 1.237456675407542e+00, -7.297919052470338e-02, 1.584842096120443e+00, 1.409582043275145e+00, 1.519689846680772e+00, 8.873829190675639e-01, 7.026710096566998e-01, 1.271979368760545e+00, 1.016121154893659e+00, 4.011408001925909e-01, -4.814273425217925e-02, 1.437969956972486e+00, 5.129792281674370e-01, 8.993196768793356e-01, 5.424139161989974e-01, 1.282596674729181e+00, -1.448317238078579e-01, 3.949994101750952e-01, 5.888290978703382e-01, 2.205252422158483e+00, -1.733896725451659e-01, 8.024356056605446e-01, 1.722241507012280e+00, 1.167703060437168e+00, 1.796384547001771e-01, 1.140295404821091e+00, 3.030553526764521e-01, 1.338959771533751e-01, 1.484886775099022e+00, 1.521100712386680e+00, 1.489201705662524e+00, 7.109636784313409e-01, 1.069850825083922e+00, 3.722389642544806e-01, -2.754401536205721e-01, 5.187381477012537e-01, 1.015702146577635e+00, 8.872767428390715e-01, 1.305600241060532e+00, 1.142091660000571e+00, 3.865003275294809e-01, 8.506815581994374e-01, 2.555624510293568e-01, 9.544614684326902e-01, 1.036317885967959e+00, 8.244221656634475e-01, 1.335997450869663e+00, 1.083864323242810e+00, 6.577570386398613e-01, 3.769404203407590e-01, 6.302803359075849e-01, 9.237231345725970e-01, 9.811394593766609e-01, 8.872023349417939e-01, 1.956164032641041e-01, 4.655466756850141e-01, 4.215523041023764e-01, 4.033710008643111e-01, 6.851733171441495e-01, 6.088672571727393e-01, 3.705567401674751e-01, 1.000447641729566e+00, 9.142111690377670e-02, 8.732170680077750e-01, 1.430815420967829e+00, 7.701992285038115e-01, -3.029180023180329e-02, 7.542855494229671e-01, 7.270776270958088e-01, 9.137875721405089e-01, 3.313491359405825e-01, 9.878328420147600e-01, 8.917297438895743e-01, 1.135371533388113e+00, 6.529201719818019e-01, 8.215778717482459e-01, 8.967713443286882e-01, 1.113785042425809e-01, 4.950812668829212e-01, 3.701295193562580e-01, 1.042881563468107e+00, 4.876647576890659e-01, 9.877604912403316e-01, 7.136182916096472e-01, 5.991443057726316e-01, 4.416122137268790e-01, 4.971476533245434e-01, 7.556239085218488e-01, 9.693240764727009e-01, 7.245125581051699e-01, 7.205063202815637e-01, 4.182047037343241e-01, 4.535889857724004e-01, 5.889430432167403e-01, 8.789050225499254e-01, 1.042169910634506e+00, 5.569150949071291e-01, 9.290640427527953e-01, 7.687874943561085e-01, 6.649611427413094e-01, 8.361372911902161e-01, 6.571139927863366e-01, 5.428010140380688e-01, 5.339949541055138e-01, 6.663363763935158e-01, 8.270664009771964e-01, 7.044457756239602e-01, 1.308362715694775e+00, 2.628022553182015e-01, 2.610801155290376e-01, 6.792325483296784e-01, 4.066693281539271e-01, 6.982579686412160e-01, 5.058957295646402e-01, 6.648601552801064e-01, 7.068602498484832e-01, 1.068361029463544e+00, 2.206043624806334e-01, 5.781751387060172e-01, 7.128598367176531e-01, 8.673796507511609e-01, 3.390906089655129e-01, 1.031162860208571e+00, 7.096049941509822e-01, 6.395517148639664e-01, 8.834429370988501e-01, 5.896734233321350e-01, 9.706442003104842e-01, 8.677601832268738e-01, 6.698972409351455e-01, 7.398880112246491e-01, 5.183080243857455e-01, 8.685686559215554e-01, 3.247329497524571e-01, 2.932689841644263e-01, 2.593975709767679e-01, 2.792190395972707e-01, 4.511041785449845e-01, 1.013719823799999e-01, 3.424164262083264e-01, 1.904562044106120e-01, 2.255514543875842e-01, 1.094655338560277e-01, 2.234686903059294e-01, 4.868253245415086e-01, 3.102800960026131e-01, 2.618117602616628e-01, 2.125976832640724e-01, 3.114671181240007e-01, 4.450651415822586e-01, 5.558952820150588e-01, 4.094251811142086e-01, 2.730255034250688e-01, 1.071560322287770e+00, 2.838647385000846e-01, 3.415856177177815e-01, 5.443222936702422e-01, 3.895369524651640e-01, 5.793048900886574e-01, 4.413572554703086e-01, 5.999487901880513e-01, 4.061727607156224e-01, 7.746787625434136e-01, 3.147742499125700e-01, 6.779083843100957e-01, 1.135763311383529e+00, 2.918145712342855e-01, 2.808522119280666e-01, 6.230835794154540e-01, 2.287207757403326e-01, 4.676186855651142e-01, 8.787628448845481e-01, 8.083950161419901e-01, 3.072359367151005e-01, 3.885987047215226e-01, 6.403496393096364e-01, 5.201337258957233e-01, 